<?xml version="1.0"?>
<opencv_storage>
<my_svm type_id="opencv-ml-svm">
  <svm_type>C_SVC</svm_type>
  <kernel><type>LINEAR</type></kernel>
  <C>1.</C>
  <term_criteria><epsilon>2.2204460492503131e-16</epsilon>
    <iterations>100</iterations></term_criteria>
  <var_all>500</var_all>
  <var_count>500</var_count>
  <class_count>2</class_count>
  <class_labels type_id="opencv-matrix">
    <rows>1</rows>
    <cols>2</cols>
    <dt>i</dt>
    <data>
      0 1</data></class_labels>
  <sv_total>200</sv_total>
  <support_vectors>
    <_>
      0. 0. 0. 0. 0. 1.92678231e-03 0. 1.92678231e-03 5.78034669e-03
      9.63391154e-04 0. 0. 0. 0. 0. 0. 0. 9.63391154e-04 1.92678231e-03
      9.63391154e-04 0. 0. 9.63391154e-04 0. 9.63391154e-04 0. 0. 0.
      4.81695589e-03 0. 2.89017335e-03 0. 3.66088636e-02 3.85356462e-03
      0. 0. 0. 0. 7.70712923e-03 9.63391154e-04 9.63391154e-04
      1.92678231e-03 1.92678231e-03 1.92678231e-03 0. 9.63391154e-04
      3.85356462e-03 0. 9.63391154e-04 3.27553004e-02 0. 0. 0. 0.
      4.81695589e-03 9.63391154e-04 2.89017335e-03 0. 0. 6.74373796e-03
      0. 9.63391154e-04 9.63391154e-04 0. 0. 0. 0. 0. 0. 0.
      9.63391154e-04 0. 0. 1.92678231e-03 0. 9.63391154e-04
      4.81695589e-03 1.54142585e-02 2.89017335e-03 0. 0. 0. 0. 0. 0. 0.
      7.70712923e-03 4.81695589e-03 0. 0. 7.51445070e-02 0.
      1.92678231e-03 4.81695589e-03 0. 0. 1.92678231e-03 9.63391154e-04
      9.63391154e-04 4.81695589e-03 0. 0. 4.81695589e-03 0. 0. 0. 0.
      3.85356462e-03 0. 0. 2.89017335e-03 2.89017335e-03 0. 0. 0. 0. 0.
      2.89017335e-03 0. 2.89017335e-03 1.92678231e-03 0. 2.89017335e-03
      0. 2.89017335e-03 9.63391154e-04 0. 9.63391154e-04 0.
      1.74373806e-01 0. 0. 0. 0. 0. 0. 1.92678231e-03 0. 3.85356462e-03
      4.81695589e-03 0. 9.63391154e-04 0. 0. 9.63391177e-03 0. 0.
      3.85356462e-03 0. 8.67052004e-03 0. 0. 0. 3.85356462e-03 0.
      9.63391154e-04 2.89017335e-03 1.92678231e-03 3.85356462e-03 0. 0.
      0. 0. 9.63391154e-04 9.63391154e-04 3.85356462e-03 0. 0. 0.
      9.63391154e-04 9.63391154e-04 0. 9.63391154e-04 0. 0.
      9.63391154e-04 0. 3.85356462e-03 1.92678231e-03 3.85356462e-03
      9.63391154e-04 0. 0. 9.63391154e-04 9.63391154e-04 0.
      9.63391154e-04 9.63391154e-04 1.92678231e-03 9.63391154e-04 0. 0.
      0. 0. 0. 9.63391154e-04 1.92678231e-03 0. 0. 9.63391154e-04 0.
      9.63391154e-04 9.63391154e-04 2.89017335e-03 9.63391154e-04 0.
      9.63391154e-04 3.85356462e-03 0. 0. 0. 0. 3.85356462e-03
      8.67052004e-03 0. 0. 0. 9.63391154e-04 9.63391154e-04 0. 0.
      9.63391154e-04 0. 0. 1.92678231e-03 0. 0. 9.63391154e-04
      9.63391154e-04 0. 0. 1.92678231e-03 9.63391154e-04 0. 0. 0.
      7.70712923e-03 0. 0. 0. 4.81695589e-03 0. 9.63391154e-04
      2.11946052e-02 0. 2.50481702e-02 0. 9.63391154e-04 9.63391154e-04
      1.92678231e-03 1.92678231e-03 0. 0. 2.89017335e-03 0. 0. 0. 0. 0.
      0. 9.63391154e-04 0. 0. 9.63391154e-04 0. 0. 0. 1.92678231e-03
      1.25240851e-02 0. 0. 0. 0. 7.70712923e-03 0. 0. 9.63391154e-04 0.
      1.92678231e-03 1.92678231e-03 0. 0. 9.63391154e-04 2.89017335e-03
      0. 9.63391154e-04 1.92678231e-03 9.63391154e-04 3.85356462e-03
      9.63391154e-04 1.05973026e-02 0. 0. 0. 0. 0. 0. 0. 0.
      9.63391154e-04 0. 0. 0. 9.63391154e-04 0. 6.74373796e-03 0. 0. 0.
      2.50481702e-02 1.92678231e-03 9.63391154e-04 9.63391154e-04
      9.63391154e-04 0. 0. 0. 9.63391154e-04 3.85356462e-03 0. 0. 0. 0.
      0. 0. 9.63391154e-04 5.87668605e-02 0. 0. 0. 0. 0. 0.
      6.74373796e-03 0. 0. 1.05973026e-02 0. 0. 9.63391154e-04 0.
      9.63391154e-04 0. 9.63391154e-04 1.92678231e-03 0. 0.
      5.78034669e-03 0. 0. 0. 0. 2.89017335e-03 0. 6.74373796e-03 0.
      9.63391154e-04 0. 1.92678231e-03 1.92678231e-03 9.63391154e-04 0.
      0. 9.63391154e-04 0. 0. 9.63391154e-04 9.63391154e-04
      9.63391154e-04 9.63391154e-04 0. 0. 0. 9.63391154e-04
      9.63391154e-04 0. 0. 6.74373796e-03 0. 0. 0. 9.63391154e-04 0. 0.
      0. 1.92678231e-03 0. 1.92678231e-03 0. 1.92678231e-03 0.
      9.63391154e-04 0. 0. 0. 1.92678231e-03 0. 0. 9.63391154e-04 0. 0.
      0. 0. 2.89017335e-03 0. 0. 0. 6.74373796e-03 0. 0. 0.
      9.63391154e-04 5.78034669e-03 9.63391154e-04 0. 0. 9.63391154e-04
      4.81695589e-03 1.25240851e-02 6.74373796e-03 0. 0. 1.92678231e-03
      0. 0. 0. 0. 0. 0. 0. 0. 0. 9.63391154e-04 0. 9.63391154e-04 0. 0.
      0. 0. 1.63776502e-02 0. 0. 0. 9.63391154e-04 0. 0. 0. 0.
      2.89017335e-03 0. 0. 9.63391154e-04 0. 0. 1.92678231e-03 0. 0. 0.
      9.63391154e-04 0. 9.63391154e-04 9.63391154e-04 1.92678231e-03
      1.92678231e-03 0. 0. 0. 0. 9.63391177e-03 0. 9.63391154e-04 0. 0.
      9.63391154e-04 9.63391154e-04 0. 9.63391154e-04 2.79383436e-02 0.
      9.63391154e-04 0. 3.85356462e-03 0. 0. 0. 0. 0. 0. 9.63391154e-04
      1.92678231e-03 0. 9.63391154e-04 0. 0. 0. 1.92678231e-03 0. 0. 0.
      0.</_>
    <_>
      4.23728814e-03 0. 0. 0. 0. 0. 4.23728814e-03 8.47457629e-03 0. 0.
      0. 0. 0. 4.23728814e-03 0. 0. 4.23728814e-03 4.23728814e-03 0. 0.
      0. 0. 0. 0. 0. 0. 0. 0. 1.27118640e-02 0. 0. 0. 2.96610165e-02
      1.27118640e-02 0. 0. 0. 0. 4.23728814e-03 4.23728814e-03
      4.23728814e-03 0. 4.23728814e-03 0. 0. 0. 4.23728814e-03 0. 0.
      4.23728814e-03 0. 0. 0. 0. 0. 0. 4.23728814e-03 0. 0.
      1.27118640e-02 4.23728814e-03 0. 0. 0. 0. 0. 0. 0. 0.
      8.47457629e-03 0. 0. 0. 4.23728814e-03 0. 0. 0. 1.27118640e-02 0.
      0. 0. 4.23728814e-03 0. 0. 0. 0. 4.23728814e-03 0. 0. 0.
      8.89830515e-02 0. 0. 0. 0. 0. 4.23728814e-03 0. 0. 0. 0. 0.
      4.23728814e-03 0. 0. 0. 0. 0. 0. 0. 0. 0. 0. 0. 0. 0. 0. 0. 0.
      4.23728814e-03 0. 0. 0. 0. 0. 0. 0. 0. 0. 5.93220331e-02 0. 0.
      4.23728814e-03 0. 0. 0. 0. 0. 8.47457629e-03 0. 0. 4.23728814e-03
      0. 0. 4.23728814e-03 0. 0. 0. 0. 4.23728814e-03 0. 0. 0. 0. 0. 0.
      4.23728814e-03 0. 0. 8.47457629e-03 8.47457629e-03 0. 0. 0. 0.
      1.27118640e-02 0. 0. 0. 0. 0. 0. 0. 0. 0. 0. 0. 4.23728814e-03
      4.23728814e-03 0. 0. 0. 0. 8.47457629e-03 0. 0. 0. 0. 0. 0. 0. 0.
      0. 0. 0. 4.23728814e-03 8.47457629e-03 0. 0. 4.23728814e-03
      4.23728814e-03 4.23728814e-03 0. 0. 0. 0. 0. 4.23728814e-03 0. 0.
      0. 0. 0. 0. 0. 0. 0. 0. 0. 4.23728814e-03 0. 4.23728814e-03 0. 0.
      0. 0. 4.23728814e-03 0. 0. 0. 0. 0. 0. 0. 0. 0. 4.23728814e-03 0.
      0. 0. 0. 0. 0. 2.54237279e-02 0. 2.96610165e-02 0. 4.23728814e-03
      0. 4.23728814e-03 4.23728814e-03 0. 0. 4.23728814e-03 0. 0. 0. 0.
      0. 0. 0. 0. 0. 0. 4.23728814e-03 0. 0. 0. 0. 0. 0. 0. 0.
      4.23728814e-03 0. 0. 0. 0. 1.69491526e-02 0. 4.23728814e-03 0. 0.
      0. 0. 2.11864412e-02 4.23728814e-03 0. 0. 0. 4.23728814e-03 0.
      8.47457629e-03 0. 0. 0. 0. 4.23728814e-03 0. 8.47457629e-03 0. 0.
      8.47457629e-03 0. 0. 8.47457629e-03 0. 0. 0. 2.54237279e-02 0. 0.
      0. 0. 4.23728814e-03 0. 0. 4.23728814e-03 4.23728814e-03 0. 0. 0.
      0. 0. 0. 0. 8.89830515e-02 0. 0. 0. 0. 0. 0. 0. 0. 0.
      1.27118640e-02 0. 0. 0. 0. 0. 0. 0. 0. 0. 0. 2.11864412e-02 0. 0.
      0. 0. 0. 0. 5.93220331e-02 0. 0. 0. 1.27118640e-02 0.
      4.23728814e-03 0. 0. 0. 0. 0. 0. 0. 0. 8.47457629e-03 0. 0. 0. 0.
      0. 0. 0. 4.23728814e-03 4.23728814e-03 0. 0. 0. 0. 0. 0.
      8.47457629e-03 0. 0. 0. 0. 0. 0. 0. 0. 0. 0. 0. 0. 8.47457629e-03
      0. 0. 0. 0. 0. 0. 0. 0. 8.47457629e-03 0. 0. 0. 0. 0. 0. 0. 0.
      8.47457629e-03 4.23728814e-03 1.27118640e-02 0. 0. 0.
      8.47457629e-03 0. 0. 0. 0. 0. 0. 0. 0. 0. 0. 0. 0. 0. 0. 0. 0.
      2.96610165e-02 0. 0. 0. 4.23728814e-03 0. 0. 0. 0. 0. 0. 0. 0. 0.
      8.47457629e-03 0. 0. 0. 0. 4.23728814e-03 0. 0. 0. 4.23728814e-03
      0. 0. 0. 0. 0. 0. 0. 0. 0. 0. 0. 0. 0. 4.23728814e-03 0. 0.
      4.23728814e-03 0. 4.23728814e-03 0. 0. 0. 0. 0. 0. 0. 0. 0.
      4.23728814e-03 0. 0. 0. 0. 0. 0. 0. 0.</_>
    <_>
      0. 9.56022937e-04 9.56022937e-04 0. 9.56022937e-04 4.78011463e-03
      0. 2.86806887e-03 9.56022937e-04 0. 9.56022937e-04 0.
      9.56022937e-04 0. 9.56022937e-04 0. 1.91204587e-03 6.69216039e-03
      1.91204587e-03 9.56022937e-04 9.56022937e-04 0. 0. 0. 0. 0.
      1.91204587e-03 0. 2.86806887e-03 9.56022937e-04 9.56022937e-04 0.
      6.69216067e-02 9.56022937e-04 9.56022937e-04 9.56022937e-04 0. 0.
      1.43403439e-02 4.78011463e-03 0. 1.91204587e-03 9.56022937e-04
      1.91204587e-03 2.86806887e-03 0. 1.91204587e-03 0. 1.91204587e-03
      2.00764816e-02 0. 0. 0. 0. 0. 9.56022937e-04 4.78011463e-03 0. 0.
      6.69216039e-03 0. 3.82409175e-03 9.56022937e-04 9.56022937e-04 0.
      9.56022937e-04 0. 0. 0. 0. 2.86806887e-03 9.56022937e-04 0.
      9.56022937e-04 9.56022937e-04 9.56022937e-04 3.82409175e-03
      4.78011463e-03 1.43403439e-02 0. 9.56022937e-04 0. 1.91204587e-03
      1.91204587e-03 1.91204587e-03 0. 4.78011463e-03 3.82409175e-03
      1.91204587e-03 9.56022937e-04 1.14722751e-01 1.91204587e-03
      3.82409175e-03 2.86806887e-03 0. 3.82409175e-03 9.56022937e-04
      1.91204587e-03 9.56022937e-04 1.91204587e-03 9.56022937e-04 0.
      1.43403439e-02 0. 0. 0. 0. 2.86806887e-03 0. 0. 0. 0. 0. 0.
      9.56022937e-04 0. 0. 0. 0. 8.60420614e-03 9.56022937e-04 0. 0.
      9.56022937e-04 1.91204587e-03 7.64818350e-03 9.56022937e-04 0. 0.
      1.72084123e-02 0. 0. 9.56022937e-04 0. 0. 0. 0. 0. 9.56022937e-04
      5.73613774e-03 2.86806887e-03 9.56022937e-04 0. 9.56022937e-04
      5.73613774e-03 0. 0. 2.86806887e-03 1.91204587e-03 2.10325047e-02
      0. 0. 9.56022937e-04 1.91204587e-03 0. 9.56022937e-04 0. 0.
      1.05162524e-02 0. 9.56022937e-04 0. 0. 0. 2.86806887e-03
      7.64818350e-03 0. 0. 0. 0. 2.86806887e-03 0. 0. 0. 0. 0. 0.
      9.56022937e-04 9.56022937e-04 9.56022937e-04 1.91204587e-03
      9.56022937e-04 0. 9.56022937e-04 0. 0. 0. 0. 0. 0. 0. 0. 0.
      9.56022937e-04 0. 0. 0. 0. 0. 1.91204587e-03 8.60420614e-03
      3.82409175e-03 9.56022937e-04 7.64818350e-03 9.56022937e-04 0. 0.
      8.60420614e-03 9.56022937e-04 0. 9.56022937e-04 9.56022937e-04
      1.91204587e-03 2.86806887e-03 0. 9.56022937e-04 0. 9.56022937e-04
      9.56022937e-04 9.56022937e-04 0. 9.56022937e-04 0. 0.
      2.86806887e-03 0. 0. 0. 9.56022937e-04 0. 0. 9.56022937e-04 0. 0.
      9.56022937e-04 1.91204587e-03 4.78011463e-03 0. 0. 0.
      9.56022937e-04 9.56022937e-04 9.56022937e-04 5.73613774e-03 0.
      1.81644354e-02 0. 3.82409175e-03 9.56022937e-04 3.82409175e-03
      3.82409175e-03 0. 0. 5.73613774e-03 9.56022937e-04 4.78011463e-03
      0. 0. 1.91204587e-03 9.56022937e-04 2.86806887e-03 0. 0. 0.
      1.91204587e-03 0. 9.56022937e-04 9.56022937e-04 6.69216039e-03 0.
      0. 0. 0. 2.86806887e-03 0. 9.56022937e-04 9.56022937e-04 0.
      9.56022937e-04 0. 1.91204587e-03 0. 9.56022937e-04 9.56022937e-04
      0. 1.91204587e-03 0. 9.56022937e-04 1.14722755e-02 0.
      3.82409175e-03 0. 9.56022937e-04 0. 0. 9.56022937e-04
      9.56022937e-04 0. 9.56022937e-04 1.91204587e-03 0. 0. 0. 0. 0.
      2.86806887e-03 0. 0. 0. 5.83174005e-02 3.82409175e-03 0. 0.
      9.56022937e-04 0. 9.56022937e-04 0. 9.56022937e-04 0. 0. 0. 0.
      9.56022937e-04 0. 9.56022937e-04 0. 1.91204585e-02 0. 0. 0. 0.
      9.56022937e-04 1.91204587e-03 4.78011463e-03 9.56022937e-04 0.
      3.34608033e-02 9.56022937e-04 0. 0. 0. 9.56022937e-04 0. 0.
      2.86806887e-03 0. 0. 1.72084123e-02 0. 0. 1.91204587e-03 0.
      4.78011463e-03 9.56022937e-04 1.91204585e-02 0. 9.56022937e-04 0.
      3.82409175e-03 3.82409175e-03 9.56022937e-04 9.56022937e-04 0.
      6.69216039e-03 0. 0. 0. 9.56022937e-04 0. 2.86806887e-03 0.
      9.56022937e-04 1.91204587e-03 9.56022937e-04 9.56022937e-04 0.
      9.56022937e-04 1.33843208e-02 0. 0. 0. 6.69216039e-03 0. 0.
      9.56022937e-04 2.86806887e-03 1.91204587e-03 0. 0. 4.78011463e-03
      0. 2.86806887e-03 0. 0. 9.56022937e-04 9.56022937e-04 0. 0.
      2.86806887e-03 0. 0. 0. 0. 1.91204587e-03 9.56022937e-04
      9.56022937e-04 1.91204587e-03 6.69216039e-03 0. 0. 9.56022937e-04
      0. 9.56022937e-04 0. 0. 9.56022937e-04 0. 2.86806887e-03
      7.64818350e-03 4.78011463e-03 1.91204587e-03 1.91204587e-03 0.
      1.91204587e-03 0. 0. 0. 0. 9.56022937e-04 0. 9.56022937e-04 0. 0.
      0. 9.56022937e-04 0. 0. 3.82409175e-03 9.56022937e-04
      1.72084123e-02 0. 0. 0. 9.56022937e-04 9.56022937e-04 0. 0. 0.
      6.69216039e-03 0. 0. 0. 0. 1.91204587e-03 1.91204587e-03
      9.56022937e-04 9.56022937e-04 9.56022937e-04 9.56022937e-04 0.
      9.56022937e-04 1.91204587e-03 9.56022937e-04 1.91204587e-03 0. 0.
      9.56022937e-04 0. 0. 0. 0. 2.86806887e-03 1.91204587e-03
      9.56022937e-04 0. 0. 9.56022937e-04 3.82409175e-03 9.56022937e-04
      0. 0. 4.78011463e-03 0. 0. 0. 0. 9.56022937e-04 0. 1.91204587e-03
      2.86806887e-03 0. 0. 0. 0. 0. 0. 0. 0. 0. 0.</_>
    <_>
      0. 0. 0. 0. 0. 0. 0. 0. 2.75482098e-03 0. 0. 0. 0. 0. 0. 0. 0. 0.
      0. 0. 0. 0. 0. 0. 0. 0. 0. 0. 5.50964195e-03 0. 5.50964195e-03 0.
      2.75482098e-03 0. 0. 0. 0. 0. 0. 0. 0. 2.75482098e-03 0. 0. 0. 0.
      2.75482098e-03 0. 0. 5.50964195e-03 0. 0. 0. 0. 2.75482098e-03 0.
      0. 0. 0. 2.75482098e-03 0. 0. 0. 0. 0. 0. 0. 0. 0. 0. 0. 0. 0.
      2.75482098e-03 0. 0. 2.75482098e-03 1.37741044e-02 0. 0.
      2.75482098e-03 2.75482098e-03 0. 0. 0. 0. 0. 5.50964195e-03 0. 0.
      1.10192839e-02 0. 0. 0. 0. 2.75482098e-03 0. 0. 0. 1.37741044e-02
      0. 2.75482098e-03 0. 0. 0. 2.75482098e-03 0. 0. 0. 1.37741044e-02
      0. 1.37741044e-02 0. 0. 0. 0. 0. 0. 0. 2.75482098e-03
      2.75482098e-03 0. 0. 0. 2.75482098e-03 0. 0. 0. 0. 2.39669427e-01
      0. 0. 0. 0. 0. 0. 8.26446339e-03 0. 2.75482098e-03 2.75482098e-03
      2.75482098e-03 2.75482098e-03 0. 0. 2.75482098e-03 0. 0.
      5.50964195e-03 0. 2.75482098e-03 0. 0. 0. 2.75482098e-03 0.
      8.26446339e-03 0. 2.75482098e-03 0. 0. 0. 0. 2.75482098e-03 0. 0.
      0. 0. 0. 0. 0. 0. 0. 0. 0. 0. 0. 2.75482098e-03 0. 0. 0. 0. 0. 0.
      2.75482098e-03 0. 0. 2.75482098e-03 0. 0. 0. 0. 0. 0. 0. 0. 0. 0.
      0. 0. 2.75482098e-03 5.50964195e-03 0. 0. 0. 0. 2.75482098e-03 0.
      0. 0. 0. 0. 0. 0. 0. 0. 0. 2.75482098e-03 0. 0. 0. 2.75482098e-03
      0. 0. 0. 0. 0. 0. 5.50964195e-03 0. 0. 0. 0. 2.75482098e-03 0. 0.
      2.75482098e-03 1.10192839e-02 0. 0. 0. 0. 0. 0. 2.47933883e-02
      2.75482098e-03 4.95867766e-02 0. 0. 0. 2.75482098e-03 0. 0. 0. 0.
      2.75482098e-03 0. 0. 0. 0. 0. 0. 0. 0. 2.75482098e-03 0. 0. 0. 0.
      0. 2.75482098e-03 0. 0. 0. 1.37741044e-02 0. 0. 5.50964195e-03 0.
      2.75482098e-03 2.75482098e-03 2.75482098e-03 0. 2.75482098e-03 0.
      0. 0. 0. 0. 2.75482098e-03 0. 0. 0. 0. 0. 0. 0. 0. 0. 0. 0. 0.
      2.75482098e-03 0. 2.75482098e-03 0. 2.75482098e-03 0. 0.
      2.75482098e-03 2.75482098e-03 0. 2.75482098e-03 0. 2.75482098e-03
      8.26446339e-03 0. 0. 0. 0. 0. 0. 0. 0. 0. 0. 0. 2.56198347e-01 0.
      0. 0. 0. 2.75482098e-03 5.50964195e-03 8.26446339e-03 0. 0.
      2.75482098e-03 0. 0. 0. 0. 5.50964195e-03 0. 0. 2.75482098e-03 0.
      0. 0. 0. 0. 0. 0. 0. 0. 0. 0. 0. 2.75482098e-03 0. 0. 0. 0. 0. 0.
      2.75482098e-03 0. 0. 0. 0. 0. 0. 5.50964195e-03 0. 0. 0. 0. 0. 0.
      0. 0. 0. 0. 0. 0. 0. 0. 0. 0. 0. 0. 0. 2.75482098e-03 0. 0. 0. 0.
      2.75482098e-03 0. 0. 5.50964195e-03 0. 0. 0. 0. 0. 2.75482098e-03
      0. 1.37741044e-02 0. 0. 0. 0. 0. 0. 2.75482098e-03 0.
      2.75482098e-03 0. 2.75482098e-03 0. 0. 0. 0. 2.75482098e-03 0. 0.
      0. 0. 0. 0. 0. 0. 0. 0. 0. 0. 0. 0. 0. 2.75482098e-03
      1.10192839e-02 0. 0. 5.50964195e-03 0. 0. 2.75482098e-03 0. 0. 0.
      0. 0. 0. 0. 0. 5.50964195e-03 0. 0. 2.75482098e-03 0. 0. 0.
      2.75482098e-03 2.75482098e-03 0. 0. 0. 0. 2.75482098e-03 0.
      5.50964195e-03 0. 0. 2.75482098e-03 0. 0. 0. 0. 0. 0. 0. 0. 0. 0.
      0. 0. 0. 0. 0. 0. 0. 2.75482098e-03 2.75482098e-03 0. 0. 0. 0. 0.
      0. 0.</_>
    <_>
      7.33675726e-04 0. 0. 0. 0. 4.40205447e-03 0. 7.33675726e-04
      5.13572991e-03 7.33675726e-04 0. 0. 0. 7.33675726e-04 0.
      7.33675726e-04 2.93470290e-03 7.33675726e-04 3.66837857e-03 0.
      7.33675726e-04 0. 0. 0. 0. 0. 7.33675726e-04 0. 5.86940581e-03 0.
      2.20102724e-03 7.33675726e-04 3.66837867e-02 3.66837857e-03
      1.46735145e-03 0. 0. 0. 0. 7.33675726e-04 2.93470290e-03 0.
      5.13572991e-03 0. 0. 1.46735145e-03 0. 0. 0. 1.39398389e-02 0. 0.
      7.33675726e-04 0. 2.93470290e-03 0. 7.33675726e-04 0.
      2.20102724e-03 1.46735145e-03 0. 0. 1.46735145e-03 3.66837857e-03
      0. 1.46735145e-03 0. 0. 0. 2.93470290e-03 7.33675726e-04
      1.46735145e-03 0. 7.33675726e-04 0. 7.33675726e-04 7.33675715e-03
      1.98092442e-02 1.46735145e-03 0. 0. 7.33675726e-04 0. 0. 0. 0.
      3.66837857e-03 2.20102724e-03 7.33675726e-04 0. 2.56786495e-02
      7.33675726e-04 1.46735145e-03 2.20102724e-03 0. 7.33675726e-04
      7.33675726e-04 0. 0. 4.40205447e-03 0. 2.20102724e-03
      7.33675726e-04 0. 0. 0. 7.33675726e-04 0. 0. 0. 7.33675726e-04
      1.46735145e-03 0. 7.33675726e-04 0. 7.33675726e-04 7.33675726e-04
      0. 0. 2.20102724e-03 0. 7.33675726e-04 8.80410895e-03 0.
      7.33675726e-04 7.33675726e-04 0. 0. 0. 1.66544393e-01 0. 0. 0. 0.
      0. 0. 4.40205447e-03 0. 1.02714598e-02 1.46735145e-03 0.
      4.40205447e-03 0. 7.33675726e-04 5.86940581e-03 0. 0.
      2.93470290e-03 7.33675726e-04 6.60308171e-03 0. 0. 2.93470290e-03
      5.13572991e-03 0. 7.33675726e-04 7.33675726e-04 7.33675726e-04 0.
      6.60308171e-03 1.46735145e-03 0. 7.33675726e-04 7.33675726e-04
      7.33675726e-04 5.86940581e-03 0. 0. 0. 0. 0. 0. 0. 0. 0. 0. 0.
      1.46735145e-03 1.46735145e-03 0. 2.93470290e-03 0. 2.20102724e-03
      1.02714598e-02 0. 7.33675726e-04 2.20102724e-03 2.93470290e-03 0.
      0. 0. 0. 7.33675726e-04 0. 0. 0. 7.33675726e-04 0. 0.
      4.40205447e-03 7.33675726e-04 2.93470290e-03 7.33675726e-04 0. 0.
      1.46735145e-03 7.33675726e-04 2.20102724e-03 7.33675726e-04 0.
      7.33675726e-04 1.46735145e-03 7.33675726e-04 7.33675726e-04
      7.33675726e-04 0. 0. 1.46735145e-03 1.46735145e-03 0. 0.
      7.33675726e-04 4.40205447e-03 0. 2.20102724e-03 0. 0.
      7.33675726e-04 2.93470290e-03 7.33675726e-04 0. 0. 1.46735145e-03
      0. 1.46735145e-03 5.86940581e-03 2.93470290e-03 0. 0.
      7.33675726e-04 5.86940581e-03 0. 7.33675726e-04 5.28246537e-02 0.
      3.66837867e-02 0. 0. 7.33675726e-04 9.53778438e-03 2.20102724e-03
      0. 0. 7.33675726e-04 7.33675726e-04 7.33675726e-04 7.33675726e-04
      0. 0. 0. 0. 0. 7.33675726e-04 7.33675726e-04 0. 7.33675726e-04 0.
      1.46735145e-03 2.27439478e-02 2.20102724e-03 0. 0. 0.
      1.83418933e-02 0. 0. 0. 0. 5.13572991e-03 0. 4.40205447e-03 0.
      3.66837857e-03 1.46735145e-03 7.33675726e-04 2.20102724e-03
      1.46735145e-03 0. 7.33675726e-04 1.46735145e-03 0. 0. 0. 0.
      7.33675726e-04 4.40205447e-03 0. 7.33675726e-04 0. 2.93470290e-03
      0. 0. 0. 7.33675726e-04 0. 5.13572991e-03 0. 0. 0. 1.68745425e-02
      7.33675726e-04 0. 7.33675726e-04 7.33675726e-04 1.17388116e-02
      7.33675726e-04 0. 1.46735145e-03 7.33675726e-04 0. 0. 0. 0. 0. 0.
      0. 1.05649307e-01 0. 0. 0. 0. 2.20102724e-03 4.40205447e-03
      1.17388116e-02 7.33675726e-04 0. 2.93470290e-03 0. 7.33675726e-04
      0. 0. 1.46735145e-03 0. 0. 7.33675726e-04 7.33675726e-04 0.
      1.46735145e-03 7.33675726e-04 0. 7.33675726e-04 0. 0.
      1.46735145e-03 7.33675726e-04 0. 0. 0. 7.33675726e-04
      7.33675726e-04 7.33675726e-04 0. 0. 0. 0. 0. 0. 0. 0. 0. 0. 0. 0.
      7.33675726e-04 0. 0. 0. 2.20102724e-03 0. 0. 0. 2.93470290e-03 0.
      0. 0. 0. 0. 0. 0. 0. 1.46735145e-03 0. 0. 0. 0. 0. 0. 0. 0.
      7.33675726e-04 0. 0. 0. 2.93470290e-03 1.46735145e-03
      2.93470290e-03 2.20102724e-03 2.42112987e-02 0. 0. 0. 0.
      3.66837857e-03 0. 7.33675726e-04 7.33675726e-04 1.46735145e-03
      2.93470290e-03 5.13572991e-03 2.93470290e-03 0. 7.33675726e-04
      2.93470290e-03 7.33675726e-04 2.20102724e-03 0. 7.33675726e-04 0.
      2.20102724e-03 0. 7.33675726e-04 0. 0. 1.46735145e-03
      7.33675726e-04 0. 0. 0. 0. 3.66837857e-03 2.93470290e-03 0. 0.
      3.66837857e-03 7.33675726e-04 0. 0. 0. 0. 0. 0. 0. 0. 0. 0. 0.
      1.46735145e-03 0. 1.46735145e-03 0. 7.33675726e-04 1.46735145e-03
      7.33675726e-04 2.93470290e-03 0. 0. 0. 0. 2.20102724e-03 0. 0.
      7.33675726e-04 0. 2.20102724e-03 0. 0. 0. 1.17388116e-02 0.
      7.33675726e-04 7.33675726e-04 7.33675726e-04 7.33675726e-04
      4.40205447e-03 0. 0. 0. 0. 7.33675726e-04 0. 0. 0. 2.20102724e-03
      0. 0. 1.46735145e-03 0. 0. 0. 0.</_>
    <_>
      0. 0. 0. 0. 0. 0. 0. 0. 0. 0. 0. 0. 0. 0. 0. 0. 1.13636367e-02 0.
      0. 0. 0. 0. 0. 0. 0. 0. 0. 0. 7.95454532e-02 0. 0. 0.
      2.27272734e-02 0. 0. 0. 0. 0. 1.13636367e-02 0. 0. 0. 0.
      1.13636367e-02 0. 0. 0. 0. 0. 0. 0. 0. 1.13636367e-02 0. 0. 0.
      1.13636367e-02 1.13636367e-02 0. 0. 0. 0. 0. 0. 0. 0. 0. 0. 0. 0.
      0. 0. 0. 1.13636367e-02 0. 0. 0. 0. 0. 0. 0. 0. 4.54545468e-02 0.
      0. 0. 0. 0. 0. 0. 1.25000000e-01 0. 0. 3.40909101e-02 0. 0. 0. 0.
      1.13636367e-02 1.13636367e-02 0. 0. 3.40909101e-02 0. 0. 0. 0. 0.
      0. 0. 0. 0. 0. 0. 0. 0. 0. 0. 0. 0. 0. 0. 0. 0. 0. 0. 0. 0. 0.
      1.59090906e-01 0. 0. 0. 0. 0. 0. 0. 0. 0. 0. 1.13636367e-02 0. 0.
      0. 2.27272734e-02 0. 0. 0. 0. 1.13636367e-02 0. 0. 0. 0. 0. 0. 0.
      0. 0. 0. 0. 0. 0. 0. 0. 0. 0. 0. 0. 0. 0. 0. 0. 0. 0. 0. 0. 0. 0.
      0. 0. 0. 0. 0. 0. 0. 0. 0. 0. 0. 0. 0. 0. 0. 0. 0. 0. 0. 0. 0. 0.
      0. 0. 0. 0. 1.13636367e-02 0. 0. 0. 0. 0. 0. 0. 0. 0. 0. 0. 0. 0.
      0. 0. 0. 0. 0. 0. 0. 0. 0. 0. 0. 0. 0. 0. 0. 0. 0. 0. 0. 0. 0. 0.
      0. 0. 1.13636367e-02 0. 3.40909101e-02 0. 0. 0. 1.13636367e-02
      1.13636367e-02 0. 0. 1.13636367e-02 0. 0. 0. 0. 0. 0. 0. 0. 0. 0.
      0. 0. 0. 0. 0. 0. 0. 0. 0. 0. 0. 0. 0. 0. 0. 0. 0. 0. 0. 0. 0. 0.
      0. 0. 1.13636367e-02 0. 2.27272734e-02 0. 0. 0. 0. 0. 0. 0. 0. 0.
      0. 0. 0. 0. 0. 0. 0. 0. 0. 0. 0. 0. 0. 0. 0. 0. 0. 0. 0. 0. 0. 0.
      0. 0. 0. 0. 4.54545468e-02 0. 0. 0. 0. 0. 0. 0. 0. 0.
      3.40909101e-02 0. 0. 0. 0. 0. 0. 0. 0. 0. 0. 0. 0. 0. 0. 0. 0. 0.
      5.68181835e-02 0. 0. 0. 0. 0. 0. 0. 0. 1.13636367e-02 0. 0. 0. 0.
      0. 0. 0. 0. 0. 0. 0. 0. 0. 1.13636367e-02 0. 0. 0. 2.27272734e-02
      0. 0. 0. 0. 0. 0. 0. 1.13636367e-02 0. 1.13636367e-02 0. 0. 0. 0.
      0. 0. 0. 0. 0. 0. 0. 0. 0. 0. 0. 0. 0. 0. 0. 0. 0. 0. 0. 0. 0. 0.
      0. 0. 1.13636367e-02 0. 0. 0. 0. 0. 0. 0. 0. 0. 0. 0. 0. 0. 0. 0.
      0. 0. 0. 0. 0. 0. 0. 0. 0. 0. 0. 0. 0. 0. 0. 0. 0. 0. 0. 0. 0. 0.
      0. 0. 0. 0. 0. 0. 0. 0. 0. 0. 0. 0. 0. 1.13636367e-02 0. 0. 0. 0.
      0. 0. 0. 0. 0. 0. 0. 0. 0. 0. 0. 0. 0. 0. 0. 0. 0. 0. 0. 0. 0. 0.
      0. 0.</_>
    <_>
      0. 0. 0. 0. 0. 0. 0. 0. 4.56620986e-03 0. 0. 0. 0. 0. 0. 0. 0. 0.
      0. 0. 0. 0. 0. 0. 0. 0. 0. 0. 9.13241971e-03 0. 0. 0.
      2.73972601e-02 9.13241971e-03 0. 0. 0. 0. 0. 0. 0. 0. 0. 0. 0. 0.
      0. 0. 0. 4.56620986e-03 0. 0. 4.56620986e-03 0. 0. 0. 0. 0.
      9.13241971e-03 0. 0. 0. 0. 9.13241971e-03 0. 0. 4.56620986e-03 0.
      0. 4.56620986e-03 0. 9.13241971e-03 0. 0. 0. 0. 0. 1.82648394e-02
      9.13241971e-03 0. 0. 0. 0. 0. 4.56620986e-03 0. 0. 4.56620986e-03
      0. 0. 9.13241971e-03 4.56620986e-03 0. 4.56620986e-03
      4.56620986e-03 0. 0. 0. 0. 5.47945201e-02 0. 0. 0. 0. 0. 0. 0. 0.
      0. 0. 0. 1.36986300e-02 0. 0. 0. 0. 0. 4.56620986e-03 0.
      4.56620986e-03 0. 0. 0. 0. 4.56620986e-03 0. 0. 0. 0.
      1.46118715e-01 4.56620986e-03 0. 0. 0. 0. 0. 0. 0. 0.
      1.36986300e-02 0. 0. 0. 9.13241971e-03 0. 0. 0. 0. 0.
      4.56620986e-03 0. 0. 0. 4.56620986e-03 0. 0. 0. 0. 1.82648394e-02
      0. 0. 0. 0. 0. 0. 0. 0. 0. 0. 0. 0. 4.56620986e-03 0. 0. 0. 0. 0.
      0. 4.56620986e-03 0. 0. 0. 0. 2.28310488e-02 0. 0. 0. 0. 0. 0. 0.
      0. 0. 0. 4.56620986e-03 0. 0. 0. 0. 0. 4.56620986e-03 0.
      9.13241971e-03 0. 0. 4.56620986e-03 0. 0. 0. 0. 0. 4.56620986e-03
      0. 0. 0. 0. 0. 0. 0. 0. 0. 9.13241971e-03 0. 0. 0. 0. 0. 0.
      4.56620986e-03 0. 0. 0. 0. 0. 0. 1.36986300e-02 4.56620986e-03 0.
      0. 0. 0. 0. 0. 4.10958901e-02 0. 4.10958901e-02 0. 0. 0. 0. 0. 0.
      0. 0. 0. 9.13241971e-03 0. 0. 0. 0. 0. 4.56620986e-03 0. 0. 0. 0.
      0. 0. 4.56620986e-03 4.56620986e-03 0. 0. 0. 1.36986300e-02 0. 0.
      0. 0. 0. 0. 0. 0. 0. 0. 0. 0. 0. 0. 0. 0. 0. 0. 0. 0. 0. 0. 0. 0.
      0. 1.36986300e-02 0. 4.56620986e-03 0. 4.56620986e-03 0.
      9.13241971e-03 0. 0. 1.36986300e-02 4.10958901e-02 0. 0.
      4.56620986e-03 0. 0. 0. 0. 0. 0. 0. 0. 0. 0. 4.56620986e-03 0. 0.
      7.30593577e-02 0. 0. 4.56620986e-03 0. 4.56620986e-03 0.
      4.56620986e-03 0. 0. 1.36986300e-02 0. 0. 0. 4.56620986e-03 0. 0.
      0. 0. 0. 0. 4.56620986e-03 0. 0. 0. 0. 0. 0. 9.13241971e-03 0. 0.
      0. 0. 0. 0. 0. 0. 0. 0. 0. 0. 0. 0. 0. 0. 0. 0. 0. 1.36986300e-02
      0. 0. 0. 0. 0. 0. 0. 0. 0. 0. 0. 0. 0. 0. 0. 0. 0. 0. 0. 0. 0. 0.
      0. 0. 0. 0. 0. 0. 0. 0. 0. 0. 4.56620986e-03 0. 0. 0. 0.
      9.13241971e-03 0. 0. 0. 0. 4.56620986e-03 4.56620986e-03
      1.36986300e-02 0. 9.13241971e-03 0. 0. 0. 0. 0. 0. 0. 0. 0. 0. 0.
      0. 0. 0. 0. 0. 0. 1.36986300e-02 0. 0. 4.56620986e-03
      4.56620986e-03 0. 0. 0. 0. 0. 0. 0. 0. 0. 0. 0. 0. 0. 0.
      4.56620986e-03 0. 0. 4.56620986e-03 0. 0. 0. 0. 4.56620986e-03 0.
      0. 0. 0. 0. 0. 1.36986300e-02 0. 0. 0. 9.13241971e-03 0. 0. 0. 0.
      4.56620986e-03 0. 0. 0. 0. 0. 9.13241971e-03 0. 0. 0. 0. 0. 0.
      4.56620986e-03 0. 0. 0. 0.</_>
    <_>
      0. 0. 0. 0. 0. 0. 0. 0. 0. 2.90697673e-03 5.81395347e-03 0. 0.
      2.90697673e-03 0. 0. 0. 0. 0. 0. 0. 0. 0. 0. 0. 0. 0. 0. 0. 0. 0.
      0. 2.61627901e-02 0. 0. 0. 0. 0. 0. 2.90697673e-03 0. 0.
      5.81395347e-03 2.90697673e-03 8.72093067e-03 0. 2.90697673e-03 0.
      0. 5.81395347e-03 0. 0. 0. 0. 0. 0. 5.81395347e-03 0. 0.
      2.90697673e-03 0. 0. 2.90697673e-03 2.90697673e-03 0. 0. 0. 0. 0.
      0. 0. 0. 0. 0. 0. 0. 0. 2.90697673e-03 0. 0. 0. 2.90697673e-03 0.
      5.81395347e-03 0. 0. 8.72093067e-03 0. 0. 0. 3.19767445e-02 0. 0.
      0. 0. 5.81395347e-03 0. 0. 0. 2.90697664e-02 0. 0. 8.72093067e-03
      0. 0. 0. 0. 0. 0. 2.90697673e-03 2.90697673e-03 0. 0. 0. 0. 0.
      2.90697673e-03 2.90697673e-03 0. 5.81395347e-03 2.90697673e-03 0.
      0. 0. 2.90697673e-03 2.90697673e-03 0. 0. 0. 6.10465109e-02 0. 0.
      0. 0. 0. 0. 5.81395347e-03 0. 5.81395347e-03 2.90697673e-03 0.
      5.81395347e-03 0. 0. 0. 0. 0. 0. 0. 8.72093067e-03 0. 0. 0. 0. 0.
      0. 8.72093067e-03 0. 1.16279069e-02 0. 1.16279069e-02 0. 0. 0.
      2.90697673e-03 0. 0. 0. 0. 0. 0. 2.90697673e-03 0. 0. 0. 0. 0. 0.
      0. 0. 0. 0. 0. 8.72093067e-03 0. 2.90697673e-03 0. 0. 0.
      2.90697673e-03 0. 0. 0. 0. 0. 2.90697673e-03 0. 0. 0. 0. 0. 0.
      2.90697673e-03 5.81395347e-03 2.90697673e-03 2.90697673e-03 0. 0.
      2.90697673e-03 0. 2.90697673e-03 0. 0. 8.72093067e-03 0. 0. 0.
      2.90697673e-03 0. 0. 0. 0. 0. 0. 5.81395347e-03 0. 0. 0. 0. 0. 0.
      0. 0. 0. 0. 5.81395347e-03 0. 0. 0. 0. 0. 0. 0. 1.74418613e-02 0.
      9.30232555e-02 0. 0. 0. 5.81395347e-03 1.16279069e-02 0. 0. 0.
      2.90697673e-03 0. 0. 0. 0. 0. 2.90697673e-03 0. 0. 0. 0. 0. 0. 0.
      2.90697673e-03 0. 0. 0. 0. 1.45348832e-02 0. 0. 0. 2.90697673e-03
      2.90697673e-03 0. 0. 0. 0. 0. 5.81395347e-03 0. 0. 0.
      1.16279069e-02 0. 5.81395347e-03 0. 2.90697673e-03 0. 0.
      2.90697673e-03 0. 0. 0. 0. 0. 2.90697673e-03 0. 0. 0.
      2.90697673e-03 0. 0. 0. 5.81395347e-03 0. 0. 0. 0. 5.81395347e-03
      0. 0. 0. 0. 2.90697673e-03 0. 0. 2.90697673e-03 0. 0. 0.
      1.45348832e-01 0. 0. 0. 0. 0. 2.90697673e-03 0. 0. 0.
      5.81395347e-03 0. 0. 2.90697673e-03 0. 1.45348832e-02
      2.90697673e-03 0. 1.16279069e-02 0. 0. 6.68604672e-02
      2.90697673e-03 0. 0. 0. 0. 0. 5.81395347e-03 0. 0. 0. 0.
      2.90697673e-03 0. 0. 0. 0. 0. 0. 0. 0. 0. 0. 0. 0. 2.90697673e-03
      0. 2.90697673e-03 0. 0. 1.74418613e-02 0. 0. 0. 1.16279069e-02 0.
      0. 0. 2.90697673e-03 0. 0. 0. 0. 0. 0. 2.90697673e-03 0. 0. 0. 0.
      0. 0. 0. 0. 0. 0. 2.90697673e-03 0. 0. 2.90697673e-03
      5.81395347e-03 2.90697673e-03 0. 0. 0. 0. 0. 0. 0. 0. 0.
      2.90697673e-03 2.90697673e-03 0. 0. 0. 2.90697673e-03 0. 0. 0. 0.
      5.81395347e-03 0. 0. 0. 0. 0. 0. 0. 0. 2.90697673e-03 0.
      5.81395347e-03 2.90697673e-03 0. 0. 5.81395347e-03 2.90697673e-03
      0. 0. 0. 2.90697673e-03 0. 0. 0. 0. 0. 2.90697673e-03 0. 0. 0. 0.
      0. 0. 0. 5.81395347e-03 0. 0. 0. 2.90697673e-03 0. 0. 0. 0. 0. 0.
      2.90697673e-03 0. 0. 0. 2.03488376e-02 0. 0. 0. 0. 0.
      2.90697673e-03 0. 0. 0. 0. 0. 0. 0. 0. 2.90697673e-03 0. 0. 0. 0.
      0. 0. 0.</_>
    <_>
      0. 1.45348837e-03 0. 0. 2.90697673e-03 1.59883723e-02 0.
      1.45348837e-03 2.90697673e-03 1.45348837e-03 0. 0. 0. 0.
      2.90697673e-03 0. 0. 0. 1.45348837e-03 0. 0. 2.90697673e-03 0. 0.
      0. 0. 0. 1.45348837e-03 2.76162792e-02 0. 4.36046533e-03 0.
      2.90697673e-03 0. 1.45348837e-03 0. 0. 1.45348837e-03 0. 0.
      4.36046533e-03 0. 4.36046533e-03 0. 4.36046533e-03 1.45348837e-03
      0. 0. 4.36046533e-03 0. 0. 0. 0. 0. 0. 0. 0. 1.45348837e-03 0. 0.
      1.45348837e-03 0. 1.45348837e-03 0. 0. 1.45348837e-03 0. 0.
      1.45348837e-03 1.45348837e-03 0. 0. 0. 1.45348837e-03 0.
      1.45348837e-03 2.47093029e-02 1.30813951e-02 0. 0. 1.45348837e-03
      2.90697673e-03 0. 1.45348837e-03 0. 2.90697673e-03 1.45348837e-03
      0. 1.45348837e-03 0. 5.81395347e-03 0. 0. 1.45348837e-03 0.
      5.81395347e-03 4.36046533e-03 0. 0. 1.45348832e-02 0. 0.
      1.45348837e-03 1.45348837e-03 0. 0. 0. 1.45348837e-03
      1.45348837e-03 2.90697673e-03 1.45348837e-03 0. 0. 0. 0.
      1.45348837e-03 0. 0. 0. 2.90697673e-03 0. 1.45348837e-03
      8.72093067e-03 0. 0. 0. 0. 0. 0. 1.46802321e-01 1.45348837e-03 0.
      0. 0. 0. 0. 7.26744160e-03 0. 3.77906971e-02 0. 0. 4.36046533e-03
      0. 0. 7.26744160e-03 0. 0. 0. 0. 0. 0. 0. 0. 1.45348832e-02 0. 0.
      0. 4.36046533e-03 0. 4.36046533e-03 2.90697673e-03 0. 0.
      1.45348837e-03 1.45348837e-03 0. 0. 0. 0. 0. 0. 0. 0. 0.
      2.90697673e-03 0. 0. 0. 1.45348837e-03 0. 0. 0. 0. 2.90697673e-03
      0. 0. 2.90697673e-03 0. 1.45348837e-03 0. 0. 0. 0. 0. 0.
      2.90697673e-03 0. 0. 0. 4.36046533e-03 0. 2.90697673e-03 0. 0. 0.
      5.81395347e-03 0. 0. 0. 0. 0. 0. 0. 8.72093067e-03 0. 0. 0.
      2.90697673e-03 0. 0. 0. 0. 0. 0. 2.90697673e-03 0. 0.
      4.36046533e-03 2.90697673e-03 0. 0. 2.90697673e-03 0. 0. 0.
      7.26744160e-03 1.45348837e-03 0. 0. 0. 5.81395347e-03 0. 0.
      3.48837227e-02 0. 4.50581387e-02 0. 0. 0. 2.90697673e-03
      1.45348837e-03 0. 0. 0. 0. 0. 0. 0. 0. 0. 1.45348837e-03 0.
      1.45348837e-03 7.26744160e-03 0. 0. 0. 1.45348837e-03 0.
      1.45348837e-03 0. 0. 0. 4.36046533e-03 0. 1.45348837e-03
      1.45348837e-03 0. 4.36046533e-03 0. 5.81395347e-03 0.
      4.36046533e-03 0. 0. 0. 2.90697673e-03 1.45348837e-03 0. 0.
      1.45348837e-03 1.45348837e-03 0. 0. 0. 4.36046533e-03 0. 0. 0. 0.
      0. 0. 0. 0. 1.45348837e-03 1.16279069e-02 0. 0. 0. 0. 0. 0. 0.
      2.90697673e-03 1.45348832e-02 0. 0. 0. 4.36046533e-03 0. 0. 0. 0.
      1.45348837e-03 0. 0. 1.46802321e-01 0. 0. 0. 0. 0. 8.72093067e-03
      5.81395347e-03 0. 0. 0. 0. 1.45348837e-03 0. 0. 1.45348837e-03 0.
      0. 0. 0. 0. 7.26744160e-03 0. 0. 0. 0. 0. 1.45348837e-03
      1.45348837e-03 0. 0. 0. 0. 0. 0. 1.45348837e-03 0. 0. 0. 0. 0. 0.
      0. 2.90697673e-03 0. 1.45348837e-03 0. 0. 0. 0. 0. 0. 0. 0. 0. 0.
      0. 0. 0. 0. 0. 0. 0. 0. 1.45348837e-03 0. 0. 0. 0. 0. 0. 0. 0. 0.
      0. 0. 0. 4.36046533e-03 0. 0. 0. 3.19767445e-02 0. 0. 0. 0.
      1.45348837e-03 0. 1.45348837e-03 0. 1.45348837e-03 0. 0.
      1.45348837e-03 0. 0. 1.45348837e-03 1.45348837e-03 0. 0. 0. 0.
      2.90697673e-03 0. 0. 0. 0. 0. 0. 0. 0. 0. 0. 0. 2.90697673e-03 0.
      0. 5.81395347e-03 5.81395347e-03 0. 0. 1.45348837e-03 0.
      1.45348837e-03 0. 0. 0. 0. 1.45348837e-03 0. 0. 0. 4.36046533e-03
      1.45348837e-03 0. 0. 2.90697673e-03 1.59883723e-02 0. 0.
      1.45348837e-03 0. 4.36046533e-03 0. 0. 5.81395347e-03 0. 0. 0. 0.
      0. 2.61627901e-02 0. 0. 0. 0. 4.36046533e-03 5.81395347e-03 0. 0.
      0. 0. 0. 0. 0. 0. 0. 0. 0. 0. 1.45348837e-03 0. 0. 0.</_>
    <_>
      0. 0. 0. 0. 0. 0. 0. 0. 6.40668496e-02 0. 0. 0. 0. 0. 0. 0. 0.
      1.11420611e-02 2.78551527e-03 5.57103055e-03 0. 0. 0. 0. 0. 0.
      2.78551527e-03 0. 1.11420611e-02 0. 0. 0. 9.47075188e-02 0. 0. 0.
      0. 0. 0. 0. 0. 0. 0. 0. 0. 0. 2.78551527e-03 0. 0. 5.01392744e-02
      0. 0. 0. 0. 0. 0. 8.35654605e-03 0. 0. 2.78551527e-03 0. 0. 0. 0.
      0. 0. 0. 0. 2.78551527e-03 0. 0. 0. 0. 0. 0. 0. 0. 0.
      2.78551527e-03 0. 0. 0. 0. 0. 0. 0. 0. 0. 0. 0. 2.33983278e-01 0.
      2.78551527e-03 0. 0. 2.78551527e-03 0. 0. 0. 0. 0. 0.
      8.35654605e-03 0. 0. 5.57103055e-03 0. 0. 0. 0. 2.78551527e-03 0.
      0. 0. 2.78551527e-03 0. 0. 0. 0. 0. 0. 0. 0. 0. 0. 0. 0. 0. 0.
      8.35654605e-03 0. 0. 0. 0. 0. 0. 0. 2.78551527e-03 2.78551527e-03
      0. 0. 0. 0. 0. 5.57103055e-03 0. 0. 0. 0. 5.57103055e-03 0. 0.
      2.78551527e-03 0. 0. 0. 8.35654605e-03 0. 0. 0. 0. 0. 0. 0. 0.
      6.96378797e-02 0. 0. 0. 0. 0. 0. 0. 0. 0. 2.78551527e-03 0. 0. 0.
      0. 0. 0. 0. 0. 0. 0. 0. 0. 0. 0. 0. 0. 0. 0. 0. 0. 0. 0. 0. 0.
      1.11420611e-02 2.78551527e-03 0. 8.35654605e-03 0. 0. 0.
      2.78551527e-03 0. 0. 0. 0. 0. 0. 0. 0. 0. 0. 0. 0. 0. 0. 0. 0. 0.
      0. 0. 0. 0. 0. 0. 0. 0. 0. 0. 0. 0. 0. 0. 0. 0. 0. 0.
      2.78551527e-03 0. 8.35654605e-03 0. 0. 0. 0. 0. 0. 0. 0. 0. 0. 0.
      0. 0. 0. 2.78551527e-03 0. 0. 0. 0. 0. 0. 0. 0. 0. 0. 0. 0. 0. 0.
      0. 0. 0. 0. 2.78551527e-03 0. 0. 0. 0. 0. 0. 0. 0. 5.57103055e-03
      0. 0. 0. 0. 0. 0. 5.57103055e-03 0. 0. 0. 0. 0. 0. 0. 0. 0.
      2.78551527e-03 0. 0. 0. 1.11420611e-02 8.35654605e-03 0.
      2.78551527e-03 0. 0. 0. 0. 0. 0. 0. 0. 0. 0. 0. 0. 0.
      1.39275761e-02 0. 2.78551527e-03 0. 0. 0. 0. 0. 0. 0.
      4.17827293e-02 0. 0. 0. 0. 0. 0. 0. 0. 0. 0. 2.78551527e-03 0. 0.
      0. 0. 0. 0. 3.06406673e-02 0. 0. 0. 0. 3.34261842e-02
      2.78551527e-03 0. 0. 8.35654605e-03 0. 0. 0. 0. 0. 0. 0. 0. 0. 0.
      0. 0. 0. 0. 0. 0. 0. 3.34261842e-02 0. 0. 0. 0. 0. 0. 0.
      2.78551527e-03 0. 0. 0. 0. 0. 0. 0. 0. 0. 0. 0. 2.78551527e-03 0.
      0. 0. 0. 0. 0. 0. 0. 0. 0. 5.57103055e-03 0. 0. 0. 0. 0.
      2.78551527e-03 0. 0. 0. 0. 0. 0. 0. 0. 0. 0. 0. 0. 0. 0. 0. 0. 0.
      0. 2.78551527e-03 0. 2.78551527e-03 0. 0. 0. 0. 0. 0. 0. 0. 0. 0.
      0. 0. 0. 0. 0. 0. 0. 0. 0. 0. 0. 0. 0. 0. 0. 0. 0. 0.
      5.01392744e-02 0. 0. 2.78551527e-03 0. 0. 0. 0. 0. 4.73537594e-02
      0. 0. 0. 0. 0. 0. 0. 0. 0. 0. 0. 2.78551527e-03 0. 0. 0. 0. 0. 0.
      0. 0. 0. 0.</_>
    <_>
      0. 0. 0. 0. 0. 7.54716992e-03 0. 0. 1.50943398e-02 0. 0. 0. 0. 0.
      0. 0. 0. 0. 0. 3.77358496e-03 3.77358496e-03 0. 0. 0. 0. 0. 0. 0.
      1.13207549e-02 0. 0. 0. 1.69811323e-01 0. 0. 0. 0. 0. 0.
      3.77358496e-03 0. 3.77358496e-03 0. 0. 1.13207549e-02 0.
      3.77358496e-03 0. 0. 4.90566045e-02 0. 0. 0. 0. 0. 3.77358496e-03
      1.88679248e-02 7.54716992e-03 0. 0. 0. 0. 0. 0. 0. 3.77358496e-03
      0. 0. 3.77358496e-03 3.77358496e-03 0. 3.77358496e-03 0. 0. 0. 0.
      0. 1.50943398e-02 3.77358496e-03 0. 7.54716992e-03 0. 0. 0.
      3.77358496e-03 0. 3.77358496e-03 0. 0. 0. 8.67924541e-02 0. 0. 0.
      0. 1.50943398e-02 3.77358496e-03 0. 0. 0. 0. 0. 1.50943398e-02 0.
      0. 0. 0. 0. 0. 0. 0. 0. 0. 0. 0. 0. 0. 0. 0. 3.77358496e-03 0. 0.
      0. 0. 3.77358496e-03 3.77358496e-03 0. 0. 0. 3.77358496e-03 0. 0.
      0. 0. 0. 0. 0. 0. 1.50943398e-02 0. 0. 0. 0. 0. 1.13207549e-02 0.
      0. 0. 0. 1.88679248e-02 0. 0. 3.77358496e-03 0. 0. 0.
      3.77358496e-03 0. 0. 3.77358496e-03 0. 0. 0. 0. 3.77358496e-03
      1.88679248e-02 0. 0. 0. 0. 0. 0. 0. 0. 0. 0. 0. 1.13207549e-02 0.
      0. 0. 0. 0. 0. 0. 0. 0. 0. 0. 0. 0. 0. 0. 0. 0. 0. 0. 0. 0.
      3.77358496e-03 0. 7.54716992e-03 0. 3.77358496e-03 0. 0. 0.
      1.13207549e-02 0. 0. 0. 0. 0. 0. 0. 0. 0. 0. 0. 0. 0. 0. 0. 0. 0.
      0. 0. 0. 0. 0. 0. 3.77358496e-03 0. 0. 0. 0. 0. 0. 0. 0. 0. 0.
      3.77358496e-03 1.50943398e-02 0. 3.77358496e-03 0. 0. 0. 0.
      1.13207549e-02 0. 0. 3.77358496e-03 0. 3.39622647e-02 0. 0. 0. 0.
      0. 0. 0. 3.77358496e-03 3.77358496e-03 0. 0. 7.54716992e-03 0. 0.
      0. 0. 0. 0. 0. 0. 0. 0. 0. 0. 0. 0. 0. 0. 0. 0. 0. 0.
      2.26415098e-02 0. 7.54716992e-03 0. 0. 0. 0. 3.77358496e-03 0. 0.
      0. 0. 0. 0. 0. 0. 0. 7.54716992e-03 0. 3.77358496e-03 0.
      1.50943398e-02 3.77358496e-03 0. 0. 0. 0. 0. 0. 0. 3.77358496e-03
      0. 0. 0. 0. 0. 0. 0. 1.50943398e-02 0. 0. 0. 0. 0. 7.54716992e-03
      0. 0. 0. 3.77358496e-03 0. 0. 0. 0. 0. 1.50943398e-02 0. 0. 0. 0.
      0. 0. 0. 0. 0. 0. 0. 2.26415098e-02 0. 0. 0. 0. 7.54716992e-03 0.
      0. 0. 3.77358496e-03 0. 0. 0. 0. 0. 0. 0. 0. 0. 0. 0. 0. 0.
      1.88679248e-02 0. 0. 0. 1.50943398e-02 0. 0. 3.77358496e-03 0. 0.
      3.77358496e-03 0. 3.77358496e-03 0. 0. 0. 0. 0. 0. 0. 0. 0. 0. 0.
      0. 0. 3.77358496e-03 3.77358496e-03 0. 0. 0. 0. 0. 0. 0.
      1.13207549e-02 0. 0. 0. 0. 0. 3.77358496e-03 3.77358496e-03 0. 0.
      1.13207549e-02 0. 3.77358496e-03 0. 0. 0. 0. 0. 0. 0. 0. 0. 0. 0.
      0. 7.54716992e-03 0. 7.54716992e-03 0. 0. 0. 0. 0. 0. 0. 0. 0. 0.
      0. 0. 0. 0. 0. 0. 3.77358496e-03 0. 0. 0. 0. 0. 0. 0. 0. 0. 0. 0.
      7.54716992e-03 0. 0. 1.50943398e-02 0. 3.77358496e-03 0. 0. 0.
      1.50943398e-02 0. 3.77358496e-03 0. 0. 0. 0. 0. 0. 0. 0. 0. 0. 0.
      0. 0. 0. 0. 0. 0. 0. 0. 0.</_>
    <_>
      0. 0. 0. 0. 0. 6.77200919e-03 0. 0. 6.77200919e-03 0. 0. 0. 0. 0.
      0. 0. 2.25733640e-03 0. 0. 0. 0. 0. 0. 0. 0. 0. 0. 0.
      1.12866815e-02 0. 0. 0. 1.12866815e-02 6.77200919e-03 0. 0. 0. 0.
      0. 0. 0. 2.25733640e-03 0. 0. 0. 0. 0. 0. 0. 9.02934559e-03 0. 0.
      0. 0. 2.25733640e-03 0. 2.25733640e-03 2.25733640e-03 0. 0. 0. 0.
      0. 0. 0. 2.25733640e-03 0. 0. 0. 0. 0. 0. 0. 0. 0. 0.
      2.48307008e-02 4.51467279e-03 0. 0. 0. 0. 0. 0. 0. 0.
      2.25733640e-03 0. 2.25733640e-03 0. 1.35440184e-02 0.
      2.25733640e-03 4.51467279e-03 0. 0. 0. 0. 0. 4.51467279e-03 0. 0.
      0. 0. 0. 0. 0. 0. 0. 0. 0. 2.25733640e-03 0. 0. 0. 0. 0. 0. 0. 0.
      0. 0. 0. 0. 4.51467279e-03 0. 0. 0. 0. 3.13769758e-01
      2.25733640e-03 0. 0. 0. 0. 0. 4.51467279e-03 0. 9.02934559e-03 0.
      0. 2.25733640e-03 2.25733640e-03 0. 2.25733640e-03 0. 0.
      2.25733640e-03 2.25733640e-03 0. 0. 0. 4.51467279e-03
      2.25733640e-03 0. 0. 2.25733640e-03 2.25733640e-03 0. 0.
      2.25733640e-03 0. 0. 0. 0. 4.51467279e-03 0. 0. 0. 0.
      2.25733640e-03 0. 0. 0. 0. 0. 0. 0. 0. 0. 2.25733640e-03 0. 0.
      2.25733640e-03 0. 0. 2.25733640e-03 0. 0. 0. 0. 0. 0. 0. 0.
      4.51467279e-03 4.51467279e-03 0. 0. 2.25733640e-03 0.
      2.25733640e-03 0. 0. 0. 0. 0. 0. 0. 2.25733640e-03 0. 0. 0.
      4.51467279e-03 0. 0. 0. 0. 0. 0. 0. 0. 0. 0. 0. 0. 0.
      4.51467279e-03 0. 0. 0. 2.25733640e-03 0. 0. 0. 0. 0. 0. 0. 0. 0.
      0. 0. 2.70880368e-02 0. 3.61173823e-02 0. 0. 0. 4.51467279e-03
      4.51467279e-03 0. 0. 0. 2.25733640e-03 2.25733640e-03 0. 0. 0. 0.
      0. 0. 0. 2.25733640e-03 0. 0. 0. 2.25733640e-03 0. 0. 0. 0. 0.
      1.12866815e-02 0. 0. 0. 0. 4.51467279e-03 0. 0. 0. 0. 0. 0. 0.
      2.25733640e-03 0. 2.25733640e-03 0. 0. 0. 0. 0. 0. 2.25733640e-03
      0. 0. 0. 2.25733640e-03 0. 0. 0. 0. 0. 2.25733640e-03 0. 0. 0.
      6.77200919e-03 0. 0. 0. 4.51467279e-03 4.51467279e-03 0. 0. 0. 0.
      0. 0. 0. 0. 0. 0. 0. 2.16704294e-01 0. 0. 0. 0. 0. 1.58013552e-02
      4.51467279e-03 0. 0. 0. 0. 0. 0. 0. 2.25733640e-03 0. 0.
      2.25733640e-03 0. 0. 2.25733640e-03 0. 0. 0. 0. 0. 4.51467279e-03
      0. 0. 0. 0. 0. 2.25733640e-03 0. 2.25733640e-03 0. 0. 0. 0. 0. 0.
      0. 0. 0. 0. 0. 0. 0. 0. 0. 0. 0. 0. 0. 0. 0. 0. 0. 4.51467279e-03
      0. 0. 0. 0. 0. 0. 0. 0. 0. 0. 0. 0. 0. 0. 0. 0. 0. 4.51467279e-03
      0. 0. 0. 6.77200919e-03 2.25733640e-03 0. 0. 0. 4.51467279e-03 0.
      0. 0. 0. 0. 0. 2.25733640e-03 0. 2.25733640e-03 0. 0. 0. 0. 0. 0.
      4.51467279e-03 0. 0. 0. 0. 0. 0. 2.25733640e-03 0. 0. 0. 0. 0.
      4.51467279e-03 0. 1.35440184e-02 2.25733640e-03 0. 0. 0. 0. 0. 0.
      0. 0. 0. 0. 0. 0. 0. 4.51467279e-03 0. 0. 0. 4.51467279e-03
      2.25733640e-03 0. 0. 0. 2.25733640e-03 0. 0. 0. 0. 0. 0. 0. 0. 0.
      1.58013552e-02 0. 2.25733640e-03 0. 0. 0. 2.25733640e-03 0. 0. 0.
      0. 0. 0. 2.25733640e-03 0. 0. 2.25733640e-03 0. 0. 0.
      4.51467279e-03 0. 0.</_>
    <_>
      0. 0. 0. 0. 2.15517241e-03 2.15517241e-03 0. 0. 1.07758623e-02 0.
      0. 0. 0. 0. 0. 0. 0. 2.15517241e-03 2.15517241e-03 0.
      2.15517241e-03 0. 0. 0. 0. 0. 0. 2.15517241e-03 0. 0. 0. 0.
      7.11206868e-02 0. 0. 0. 0. 4.31034481e-03 2.15517241e-03 0. 0. 0.
      0. 0. 6.46551698e-03 0. 2.15517241e-03 0. 2.15517241e-03
      2.58620679e-02 0. 0. 0. 0. 2.15517241e-03 0. 6.46551698e-03 0. 0.
      4.31034481e-03 0. 2.15517241e-03 0. 0. 2.15517241e-03
      2.15517241e-03 0. 0. 0. 2.15517241e-03 0. 0. 0. 0. 2.15517241e-03
      0. 4.31034481e-03 6.46551698e-03 1.50862066e-02 0. 0. 0. 0. 0. 0.
      0. 0. 4.31034481e-03 0. 0. 3.12500000e-01 0. 0. 0. 0.
      4.31034481e-03 2.15517241e-03 0. 0. 0. 0. 0. 1.07758623e-02 0. 0.
      0. 0. 2.15517241e-03 0. 0. 0. 0. 0. 0. 0. 2.15517241e-03 0. 0. 0.
      0. 0. 0. 0. 0. 0. 4.31034481e-03 0. 0. 0. 1.07758623e-02 0. 0. 0.
      0. 0. 0. 2.15517241e-03 0. 0. 0. 4.31034481e-03 0. 0. 0.
      4.31034481e-03 0. 2.15517241e-03 0. 0. 1.07758623e-02 0. 0.
      2.15517241e-03 2.15517241e-03 0. 2.15517241e-03 0. 0. 0. 0.
      2.15517241e-03 0. 0. 0. 0. 6.46551698e-03 0. 0. 0. 0. 0. 0. 0. 0.
      0. 0. 0. 0. 0. 0. 0. 0. 0. 0. 0. 0. 0. 0. 0. 0. 0. 0. 0. 0. 0. 0.
      2.15517241e-03 0. 0. 0. 4.31034481e-03 0. 0. 0. 0. 0. 0. 0. 0. 0.
      0. 0. 0. 2.15517241e-03 0. 0. 0. 0. 0. 0. 0. 2.15517241e-03 0. 0.
      0. 0. 0. 0. 0. 0. 0. 0. 0. 0. 0. 0. 4.31034481e-03 0. 0. 0.
      2.15517241e-03 0. 0. 2.15517241e-03 0. 0. 0. 2.15517241e-03 0. 0.
      2.15517241e-03 0. 0. 6.46551698e-03 0. 4.31034481e-03 0. 0. 0. 0.
      4.31034481e-03 0. 0. 2.15517241e-03 2.15517241e-03 0. 0. 0. 0. 0.
      0. 0. 0. 0. 0. 0. 2.15517241e-03 0. 2.15517241e-03 0. 0. 0. 0. 0.
      0. 2.15517241e-03 0. 0. 2.15517241e-03 0. 2.15517241e-03 0. 0. 0.
      0. 0. 0. 0. 0. 2.15517241e-03 0. 0. 0. 0. 0. 6.46551698e-03 0. 0.
      0. 4.31034490e-02 6.46551698e-03 0. 2.15517241e-03 0. 0.
      2.15517241e-03 0. 0. 0. 0. 0. 0. 0. 0. 2.15517241e-03 0.
      6.46551698e-03 0. 0. 0. 0. 0. 2.15517241e-03 0. 0. 0.
      1.27155170e-01 0. 0. 0. 0. 0. 0. 0. 0. 0. 0. 0. 0. 0. 0. 0.
      4.31034481e-03 0. 4.09482755e-02 0. 0. 0. 4.31034481e-03
      6.46551698e-03 0. 2.15517241e-03 0. 2.15517241e-03 0. 0. 0. 0. 0.
      2.15517241e-03 0. 0. 6.46551698e-03 0. 0. 0. 0. 2.15517241e-03 0.
      0. 0. 6.46551698e-03 0. 0. 0. 0. 0. 0. 0. 2.15517241e-03 0.
      2.15517241e-03 0. 0. 0. 0. 0. 0. 0. 0. 0. 0. 0. 4.31034481e-03 0.
      0. 0. 0. 0. 0. 0. 0. 4.31034481e-03 0. 0. 0. 0. 0. 0. 0. 0. 0. 0.
      0. 2.15517241e-03 0. 0. 0. 0. 2.15517241e-03 2.15517241e-03 0. 0.
      0. 0. 0. 0. 6.46551698e-03 0. 2.80172415e-02 0. 2.15517241e-03 0.
      2.15517241e-03 0. 0. 0. 0. 4.31034481e-03 0. 0. 0. 0. 0. 0. 0. 0.
      2.15517241e-03 0. 0. 0. 0. 0. 2.15517241e-03 0. 0. 2.15517241e-03
      0. 0. 0. 0. 6.46551698e-03 0. 0. 0. 0. 0. 1.29310340e-02 0. 0. 0.
      0. 0. 0. 0. 0. 0. 0. 0. 0. 0. 0. 0. 0. 0. 0. 0. 0. 0. 0.</_>
    <_>
      1.02249486e-03 1.36332656e-03 2.04498973e-03 3.40831641e-04
      3.06748482e-03 2.38582143e-03 2.72665313e-03 6.81663281e-04
      4.43081139e-03 1.02249486e-03 6.81663281e-04 3.40831652e-03
      3.40831641e-04 1.02249486e-03 1.02249486e-03 3.40831652e-03
      3.40831641e-04 2.38582143e-03 3.06748482e-03 1.36332656e-03
      6.81663281e-04 4.08997945e-03 1.36332656e-03 6.81663281e-04
      3.40831641e-04 1.70415826e-03 1.36332656e-03 6.81663281e-04
      8.17995891e-03 1.02249486e-03 3.06748482e-03 2.04498973e-03
      1.77232455e-02 3.74914799e-03 2.38582143e-03 6.81663281e-04
      6.81663281e-04 2.38582143e-03 1.02249486e-03 2.04498973e-03
      5.79413772e-03 3.40831652e-03 2.72665313e-03 2.04498973e-03
      4.77164285e-03 3.40831641e-04 1.02249486e-03 1.70415826e-03
      2.72665313e-03 1.02249496e-02 6.81663281e-04 1.02249486e-03
      1.36332656e-03 6.81663281e-04 3.06748482e-03 6.81663281e-04
      1.70415826e-03 2.38582143e-03 2.04498973e-03 3.06748482e-03
      6.81663281e-04 1.70415826e-03 1.36332656e-03 3.74914799e-03
      6.81663281e-04 2.72665313e-03 2.04498973e-03 2.04498973e-03
      2.72665313e-03 1.36332656e-03 6.81663305e-03 3.40831641e-04
      6.81663281e-04 8.17995891e-03 3.40831652e-03 6.81663281e-04
      3.74914799e-03 6.13496965e-03 3.74914799e-03 3.74914799e-03
      2.04498973e-03 2.04498973e-03 6.81663281e-04 2.04498973e-03
      2.04498973e-03 1.70415826e-03 6.81663281e-04 2.72665313e-03
      1.36332656e-03 3.40831641e-04 1.43149290e-02 1.36332656e-03
      1.02249486e-03 2.38582143e-03 3.40831641e-04 3.06748482e-03
      1.70415826e-03 1.36332656e-03 1.70415826e-03 2.38582143e-03
      1.02249486e-03 2.04498973e-03 3.06748482e-03 2.04498973e-03
      6.81663281e-04 3.40831641e-04 3.40831641e-04 2.72665313e-03
      2.38582143e-03 5.11247478e-03 2.72665313e-03 1.36332656e-03 0.
      6.81663281e-04 1.36332656e-03 1.36332656e-03 1.70415826e-03
      2.72665313e-03 6.81663281e-04 6.81663305e-03 1.02249486e-03
      1.02249486e-03 1.02249486e-03 6.81663281e-04 1.70415826e-03
      3.74914799e-03 2.04498973e-03 1.70415826e-03 4.77164285e-03
      1.56782549e-02 3.40831652e-03 1.36332656e-03 4.43081139e-03 0.
      1.02249486e-03 1.70415826e-03 5.11247478e-03 1.70415826e-03
      8.86162277e-03 5.11247478e-03 2.38582143e-03 3.40831652e-03
      1.02249486e-03 2.38582143e-03 4.08997945e-03 1.36332656e-03
      1.02249486e-03 8.86162277e-03 2.04498973e-03 2.72665313e-03
      1.02249486e-03 3.40831641e-04 1.36332656e-03 1.36332656e-03
      6.81663281e-04 2.72665313e-03 3.06748482e-03 1.36332656e-03
      7.15746451e-03 1.02249486e-03 3.06748482e-03 3.40831641e-04 0. 0.
      3.40831641e-04 3.40831641e-04 1.70415826e-03 6.81663281e-04
      6.81663281e-04 3.06748482e-03 3.40831641e-04 1.36332656e-03
      3.06748482e-03 2.04498973e-03 1.02249486e-03 0. 1.36332656e-03
      7.15746451e-03 1.70415826e-03 2.72665313e-03 1.02249486e-03
      1.02249486e-03 1.36332656e-03 2.38582143e-03 1.70415826e-03
      2.04498973e-03 2.72665313e-03 2.04498973e-03 1.02249486e-03
      4.08997945e-03 1.36332656e-03 6.81663281e-04 3.06748482e-03
      1.70415826e-03 1.02249486e-03 0. 4.77164285e-03 6.81663281e-04
      6.81663281e-04 6.47580111e-03 3.40831652e-03 2.72665313e-03
      3.06748482e-03 2.04498973e-03 3.40831641e-04 2.04498973e-03
      1.02249486e-03 2.38582143e-03 3.40831641e-04 1.02249486e-03
      3.40831652e-03 1.70415826e-03 4.08997945e-03 6.81663281e-04
      1.70415826e-03 3.40831641e-04 1.02249486e-03 5.11247478e-03
      2.04498973e-03 1.36332656e-03 2.38582143e-03 2.38582143e-03
      3.40831641e-04 1.02249486e-03 2.04498973e-03 1.70415826e-03
      1.36332656e-03 4.43081139e-03 1.36332656e-03 1.36332656e-03
      1.70415826e-03 2.04498973e-03 1.36332656e-03 3.40831641e-04
      1.02249486e-03 2.04498973e-03 6.13496965e-03 1.36332656e-03
      6.81663281e-04 1.70415826e-03 3.74914799e-03 1.70415826e-03
      2.72665313e-03 1.46557605e-02 0. 1.22699393e-02 3.40831641e-04
      1.36332656e-03 2.38582143e-03 3.06748482e-03 3.40831652e-03 0.
      6.81663281e-04 4.08997945e-03 6.81663281e-04 4.43081139e-03
      6.81663281e-04 6.81663281e-04 2.38582143e-03 1.02249486e-03
      1.36332656e-03 1.02249486e-03 1.36332656e-03 3.06748482e-03
      2.04498973e-03 3.40831641e-04 0. 1.70415826e-03 3.40831641e-04
      2.04498973e-03 1.02249486e-03 1.36332656e-03 3.40831641e-04
      4.08997945e-03 3.40831641e-04 1.02249486e-03 2.04498973e-03
      1.70415826e-03 1.70415826e-03 2.72665313e-03 1.36332656e-03
      3.40831641e-04 3.40831652e-03 2.04498973e-03 3.06748482e-03
      3.40831652e-03 1.36332656e-03 1.36332656e-03 7.83912744e-03
      2.04498973e-03 1.36332656e-03 3.40831641e-04 3.40831641e-04
      1.36332656e-03 2.04498973e-03 2.04498973e-03 6.81663281e-04
      6.81663281e-04 1.02249486e-03 2.38582143e-03 3.40831652e-03
      3.40831641e-04 1.36332656e-03 2.04498973e-03 2.72665313e-03
      3.06748482e-03 1.36332656e-03 6.81663281e-04 1.02249486e-03
      6.47580111e-03 1.02249486e-03 3.40831641e-04 1.02249486e-03
      4.43081139e-03 3.06748482e-03 3.40831641e-04 0. 1.70415826e-03
      3.40831652e-03 0. 6.81663281e-04 1.02249486e-03 3.40831641e-04
      1.02249486e-03 2.72665313e-03 3.40831641e-04 2.48807091e-02 0.
      3.40831641e-04 3.40831641e-04 1.70415826e-03 6.81663305e-03
      4.43081139e-03 6.13496965e-03 1.70415826e-03 6.81663281e-04
      4.08997945e-03 1.36332656e-03 1.02249486e-03 2.04498973e-03
      2.04498973e-03 6.81663281e-04 1.36332656e-03 3.40831641e-04
      1.36332656e-03 3.40831641e-04 1.36332656e-03 1.02249486e-03
      1.36332656e-03 3.40831641e-04 6.81663281e-04 0. 6.81663281e-04
      4.08997945e-03 1.05657810e-02 1.02249486e-03 3.40831641e-04
      1.02249486e-03 2.04498973e-03 2.38582143e-03 2.72665313e-03
      3.06748482e-03 6.81663281e-04 6.81663281e-04 1.02249486e-03
      1.02249486e-03 3.06748482e-03 1.02249486e-03 1.36332656e-03
      3.06748482e-03 0. 1.02249486e-03 2.04498973e-03 6.81663281e-04
      2.38582143e-03 1.70415826e-03 0. 3.74914799e-03 6.81663281e-04
      1.02249486e-03 3.40831641e-04 3.40831652e-03 1.02249486e-03
      3.40831641e-04 6.81663281e-04 5.45330625e-03 6.81663281e-04
      1.36332656e-03 3.40831641e-04 1.36332656e-03 6.81663281e-04
      1.02249486e-03 1.36332656e-03 0. 2.72665313e-03 3.40831641e-04
      1.02249486e-03 0. 2.04498973e-03 3.40831652e-03 6.81663281e-04
      3.40831652e-03 3.40831641e-04 4.43081139e-03 1.36332656e-03
      2.04498973e-03 1.36332656e-03 1.02249486e-03 1.36332656e-03 0.
      6.81663281e-04 1.02249486e-03 2.04498973e-03 0. 1.36332656e-03
      1.02249486e-03 2.38582143e-03 2.04498973e-03 4.77164285e-03
      4.08997945e-03 1.36332656e-03 2.04498973e-03 1.02249486e-03
      1.02249486e-03 1.36332656e-03 3.40831641e-04 1.70415826e-03
      3.40831641e-04 1.70415826e-03 6.81663281e-04 0. 0. 1.36332656e-03
      0. 0. 3.40831641e-04 2.72665313e-03 2.04498973e-03 1.70415826e-03
      7.49829598e-03 2.04498973e-03 1.70415826e-03 2.38582143e-03
      1.70415826e-03 0. 1.02249486e-03 3.40831641e-04 3.40831641e-04
      6.81663281e-04 1.36332656e-03 2.72665313e-03 0. 3.40831641e-04
      1.36332656e-03 1.36332656e-03 2.04498973e-03 3.40831641e-04
      1.70415826e-03 1.36332656e-03 3.06748482e-03 6.81663281e-04
      1.70415826e-03 4.08997945e-03 6.81663281e-04 0. 1.36332656e-03
      1.36332656e-03 1.70415826e-03 3.40831641e-04 3.40831641e-04 0.
      2.72665313e-03 1.02249486e-03 6.81663281e-04 1.36332656e-03
      1.70415826e-03 6.81663281e-04 1.36332656e-03 3.06748482e-03 0.
      1.02249486e-03 1.02249486e-03 6.81663281e-04 3.06748482e-03
      3.40831641e-04 6.81663281e-04 1.02249486e-03 1.36332656e-03
      1.70415826e-03 1.36332656e-03 6.81663281e-04 6.81663281e-04
      6.81663281e-04 3.40831641e-04 0. 1.02249486e-03 1.02249486e-03
      1.70415826e-03 6.81663281e-04 0.</_>
    <_>
      1.19712693e-03 1.19712693e-03 3.99042299e-04 7.98084599e-04
      1.19712693e-03 2.39425385e-03 1.19712693e-03 3.59138078e-03
      4.38946532e-03 0. 1.59616920e-03 1.59616920e-03 7.98084599e-04
      3.99042299e-04 1.59616920e-03 0. 2.79329601e-03 1.59616920e-03
      4.78850771e-03 2.39425385e-03 1.59616920e-03 1.59616920e-03
      2.79329601e-03 7.98084599e-04 3.99042299e-04 1.19712693e-03
      3.99042299e-04 1.19712693e-03 9.57701541e-03 7.98084599e-04
      1.99521147e-03 1.99521147e-03 1.51636070e-02 1.99521147e-03
      4.38946532e-03 3.99042299e-04 7.98084599e-04 1.19712693e-03
      7.98084599e-04 2.39425385e-03 4.78850771e-03 3.59138078e-03
      3.19233839e-03 1.99521147e-03 5.18755009e-03 1.19712693e-03
      2.39425385e-03 1.19712693e-03 2.79329601e-03 5.18755009e-03
      1.19712693e-03 1.19712693e-03 1.99521147e-03 7.98084599e-04
      4.78850771e-03 2.39425385e-03 2.39425385e-03 0. 2.39425385e-03
      3.19233839e-03 1.99521147e-03 7.98084599e-04 3.59138078e-03
      3.19233839e-03 1.19712693e-03 6.38467679e-03 2.39425385e-03
      3.99042299e-04 1.99521147e-03 1.19712693e-03 3.99042293e-03
      1.99521147e-03 1.19712693e-03 6.38467679e-03 2.79329601e-03
      2.79329601e-03 1.59616920e-03 4.78850771e-03 4.38946532e-03
      5.58659201e-03 3.19233839e-03 3.59138078e-03 0. 2.79329601e-03
      3.19233839e-03 3.99042299e-04 3.19233839e-03 7.98084599e-04 0. 0.
      1.35674383e-02 3.59138078e-03 3.99042299e-04 1.99521147e-03
      1.59616920e-03 1.99521147e-03 3.59138078e-03 1.19712693e-03
      4.78850771e-03 7.18276156e-03 1.19712693e-03 2.79329601e-03
      6.78371917e-03 1.99521147e-03 1.19712693e-03 7.98084599e-04
      1.19712693e-03 3.99042293e-03 2.79329601e-03 3.19233839e-03
      1.59616920e-03 2.39425385e-03 7.98084599e-04 1.99521147e-03
      7.98084599e-04 2.79329601e-03 1.59616920e-03 3.19233839e-03
      1.59616920e-03 9.17797256e-03 1.59616920e-03 2.39425385e-03
      5.18755009e-03 1.19712693e-03 1.19712693e-03 3.19233839e-03
      1.19712693e-03 2.79329601e-03 7.98084599e-04 1.19712688e-02
      2.39425385e-03 0. 2.79329601e-03 2.39425385e-03 1.59616920e-03
      3.99042299e-04 1.99521147e-03 1.19712693e-03 7.18276156e-03
      1.19712693e-03 2.79329601e-03 1.59616920e-03 3.99042293e-03
      1.19712693e-03 5.58659201e-03 7.98084599e-04 1.19712693e-03
      5.58659201e-03 7.98084599e-04 2.79329601e-03 7.98084599e-04
      7.98084599e-04 1.19712693e-03 2.79329601e-03 1.59616920e-03
      1.19712693e-03 2.39425385e-03 1.99521147e-03 6.38467679e-03
      1.99521147e-03 1.59616920e-03 7.98084599e-04 3.99042299e-04
      7.98084599e-04 3.19233839e-03 2.79329601e-03 2.79329601e-03
      2.39425385e-03 3.99042299e-04 2.39425385e-03 3.99042299e-04
      1.59616920e-03 1.59616920e-03 2.79329601e-03 3.59138078e-03
      3.99042299e-04 3.19233839e-03 1.59616920e-03 2.39425385e-03
      2.39425385e-03 1.19712693e-03 1.19712693e-03 7.98084599e-04
      1.99521147e-03 1.19712693e-03 1.19712693e-03 1.99521147e-03
      3.99042293e-03 7.98084599e-04 2.39425385e-03 1.19712693e-03 0.
      1.99521147e-03 1.59616920e-03 1.19712693e-03 3.59138078e-03
      4.38946532e-03 1.59616920e-03 0. 2.39425385e-03 4.38946532e-03
      4.78850771e-03 2.39425385e-03 1.99521147e-03 1.59616920e-03
      2.79329601e-03 7.98084599e-04 3.59138078e-03 1.99521147e-03
      7.98084599e-04 1.59616920e-03 1.59616920e-03 3.59138078e-03
      3.59138078e-03 1.19712693e-03 1.19712693e-03 2.39425385e-03
      3.99042293e-03 1.59616920e-03 7.98084599e-04 3.59138078e-03
      2.39425385e-03 7.98084599e-04 0. 3.59138078e-03 7.98084599e-04
      3.99042299e-04 1.59616920e-03 1.99521147e-03 2.79329601e-03
      3.99042299e-04 7.98084599e-04 1.99521147e-03 0. 3.99042299e-04
      3.59138078e-03 1.07741421e-02 3.99042299e-04 0. 1.99521147e-03
      7.98084599e-04 1.99521147e-03 2.39425385e-03 1.11731840e-02
      3.99042299e-04 1.35674383e-02 1.99521147e-03 3.19233839e-03
      2.39425385e-03 3.19233839e-03 4.38946532e-03 3.99042299e-04
      7.98084599e-04 2.39425385e-03 1.59616920e-03 2.39425385e-03
      1.19712693e-03 7.98084599e-04 1.99521147e-03 2.79329601e-03
      1.19712693e-03 7.98084599e-04 2.79329601e-03 2.39425385e-03
      2.39425385e-03 0. 3.99042299e-04 3.99042299e-04 1.99521147e-03
      7.98084599e-04 3.99042299e-04 3.99042299e-04 2.39425385e-03
      2.39425385e-03 7.98084599e-04 0. 1.59616920e-03 1.59616920e-03
      1.99521147e-03 1.99521147e-03 7.98084599e-04 3.99042299e-04
      2.79329601e-03 1.99521147e-03 1.19712693e-03 2.39425385e-03
      2.79329601e-03 1.59616920e-03 3.59138078e-03 1.19712693e-03
      1.59616920e-03 1.19712693e-03 0. 1.59616920e-03 7.98084599e-04 0.
      1.19712693e-03 1.59616920e-03 3.99042299e-04 1.99521147e-03
      7.98084599e-04 1.19712693e-03 0. 0. 7.98084599e-04 4.78850771e-03
      3.99042299e-04 0. 7.98084599e-04 5.98563440e-03 1.99521147e-03
      4.78850771e-03 2.79329601e-03 3.59138078e-03 3.59138078e-03
      1.99521147e-03 0. 1.19712693e-03 7.98084599e-04 3.99042299e-04
      3.99042299e-04 0. 7.98084599e-04 1.19712693e-03 3.19233839e-03
      1.19712693e-03 1.43655231e-02 0. 1.59616920e-03 7.98084599e-04
      1.19712693e-03 3.59138078e-03 4.38946532e-03 7.18276156e-03
      3.99042299e-04 0. 3.19233839e-03 0. 7.98084599e-04 1.19712693e-03
      1.19712693e-03 7.98084599e-04 1.59616920e-03 3.99042299e-04
      2.39425385e-03 7.98084599e-04 3.99042299e-04 1.19712693e-03
      1.19712693e-03 3.99042299e-04 1.59616920e-03 1.19712693e-03
      3.99042299e-04 2.39425385e-03 8.77893064e-03 7.98084599e-04
      3.99042299e-04 7.98084599e-04 3.99042293e-03 1.99521147e-03
      3.19233839e-03 1.99521147e-03 7.98084599e-04 3.99042299e-04
      1.19712693e-03 0. 7.98084599e-04 1.59616920e-03 1.19712693e-03
      3.99042293e-03 7.98084599e-04 3.99042299e-04 0. 1.59616920e-03
      5.18755009e-03 3.99042299e-04 7.98084599e-04 4.38946532e-03
      1.19712693e-03 3.99042299e-04 3.99042299e-04 3.19233839e-03 0.
      3.99042299e-04 0. 4.78850771e-03 2.39425385e-03 0. 3.99042299e-04
      5.18755009e-03 7.98084599e-04 3.19233839e-03 1.59616920e-03
      7.98084599e-04 2.39425385e-03 1.19712693e-03 1.19712693e-03
      1.19712693e-03 7.98084599e-04 1.59616920e-03 1.19712693e-03
      3.99042299e-04 3.99042299e-04 1.59616920e-03 7.98084599e-04
      3.59138078e-03 1.99521147e-03 2.79329601e-03 7.98084599e-04
      7.98084599e-04 3.99042299e-04 7.98084599e-04 5.58659201e-03
      1.19712693e-03 2.39425385e-03 3.99042299e-04 3.59138078e-03
      2.39425385e-03 7.98084587e-03 3.59138078e-03 3.99042299e-04
      2.79329601e-03 1.99521147e-03 1.59616920e-03 1.59616920e-03
      3.99042299e-04 3.99042299e-04 7.98084599e-04 1.19712693e-03
      7.98084599e-04 3.99042299e-04 0. 7.98084599e-04 1.19712693e-03
      3.99042299e-04 0. 1.19712693e-03 1.99521147e-03 3.99042299e-04
      9.17797256e-03 1.59616920e-03 2.39425385e-03 1.99521147e-03
      2.39425385e-03 1.99521147e-03 1.59616920e-03 3.99042299e-04
      3.99042299e-04 3.99042299e-04 3.99042299e-04 1.59616920e-03
      1.99521147e-03 0. 3.99042299e-04 7.98084599e-04 2.79329601e-03
      2.79329601e-03 1.19712693e-03 2.39425385e-03 7.98084599e-04
      1.99521147e-03 7.98084599e-04 3.19233839e-03 3.59138078e-03 0.
      1.19712693e-03 1.99521147e-03 7.98084599e-04 7.98084599e-04 0.
      7.98084599e-04 1.99521147e-03 1.59616920e-03 2.79329601e-03
      1.19712693e-03 7.98084599e-04 3.99042299e-04 1.99521147e-03
      1.59616920e-03 3.99042299e-04 1.19712693e-03 1.59616920e-03
      1.99521147e-03 2.79329601e-03 1.19712693e-03 3.99042299e-04
      1.19712693e-03 3.99042299e-04 3.99042299e-04 7.98084599e-04
      3.99042299e-04 1.19712693e-03 1.19712693e-03 0. 3.99042299e-04
      3.99042299e-04 1.19712693e-03 7.98084599e-04 1.99521147e-03 0.</_>
    <_>
      3.68324138e-04 7.36648275e-04 7.36648275e-04 7.36648275e-04
      3.68324138e-04 4.05156566e-03 7.36648275e-04 2.20994488e-03
      5.89318620e-03 1.10497244e-03 1.10497244e-03 1.84162066e-03
      7.36648275e-04 3.68324138e-04 3.68324138e-04 7.36648275e-04
      7.36648275e-04 3.31491721e-03 4.41988977e-03 3.68324138e-04
      1.47329655e-03 1.84162066e-03 3.68324138e-04 0. 3.68324138e-04
      3.68324138e-04 1.47329655e-03 3.68324138e-04 9.94475186e-03
      7.36648275e-04 1.47329655e-03 0. 3.20441984e-02 4.78821388e-03
      3.68324138e-04 0. 1.47329655e-03 1.47329655e-03 4.78821388e-03
      3.68324132e-03 2.94659310e-03 1.84162066e-03 7.36648275e-04 0.
      7.36648263e-03 1.47329655e-03 2.94659310e-03 7.36648275e-04
      7.36648275e-04 1.32596688e-02 0. 0. 1.84162066e-03 1.10497244e-03
      1.10497244e-03 7.36648275e-04 3.31491721e-03 1.47329655e-03
      2.20994488e-03 3.31491721e-03 3.68324138e-04 7.36648275e-04
      2.20994488e-03 1.84162066e-03 2.57826899e-03 4.41988977e-03
      1.10497244e-03 3.68324138e-04 2.20994488e-03 7.36648275e-04
      4.41988977e-03 1.47329655e-03 0. 9.20810364e-03 1.84162066e-03
      2.94659310e-03 3.31491721e-03 9.20810364e-03 3.31491721e-03
      1.84162066e-03 2.94659310e-03 2.20994488e-03 0. 2.94659310e-03
      3.68324138e-04 1.10497244e-03 2.20994488e-03 3.31491721e-03
      1.10497244e-03 7.36648275e-04 3.75690609e-02 1.47329655e-03
      1.84162066e-03 3.68324132e-03 7.36648275e-04 4.05156566e-03
      2.20994488e-03 3.68324138e-04 1.10497244e-03 7.73480674e-03 0.
      1.10497244e-03 6.62983442e-03 7.36648275e-04 1.47329655e-03
      1.10497244e-03 3.68324138e-04 3.68324132e-03 1.84162066e-03
      1.10497244e-03 7.36648275e-04 2.94659310e-03 7.36648275e-04
      1.10497244e-03 7.36648275e-04 1.10497244e-03 2.94659310e-03
      7.36648275e-04 0. 1.03130760e-02 7.36648275e-04 7.36648275e-04
      2.57826899e-03 7.36648275e-04 2.20994488e-03 4.05156566e-03
      1.10497244e-03 3.68324138e-04 2.20994488e-03 1.17863724e-02
      3.68324132e-03 3.68324138e-04 1.10497244e-03 3.68324138e-04 0.
      3.68324138e-04 3.68324132e-03 7.36648275e-04 3.31491721e-03
      6.62983442e-03 3.31491721e-03 1.84162066e-03 3.68324138e-04
      7.36648275e-04 6.26151031e-03 3.68324138e-04 7.36648275e-04
      8.47145543e-03 3.31491721e-03 8.83977953e-03 3.68324138e-04
      3.68324138e-04 2.20994488e-03 2.94659310e-03 3.68324138e-04
      2.20994488e-03 1.47329655e-03 1.84162066e-03 5.89318620e-03
      1.10497244e-03 1.47329655e-03 3.68324138e-04 7.36648275e-04
      3.68324138e-04 2.20994488e-03 4.05156566e-03 3.68324138e-04
      3.68324138e-04 1.10497244e-03 1.10497244e-03 0. 1.84162066e-03
      7.36648275e-04 1.47329655e-03 7.36648275e-04 1.10497244e-03
      1.84162066e-03 3.68324132e-03 2.57826899e-03 1.47329655e-03
      1.10497244e-03 0. 7.36648275e-04 7.36648275e-04 3.68324138e-04
      7.36648275e-04 1.10497244e-03 2.20994488e-03 1.84162066e-03
      2.57826899e-03 1.47329655e-03 7.36648275e-04 2.20994488e-03
      2.57826899e-03 1.10497244e-03 1.10497244e-03 5.15653798e-03
      7.36648275e-04 0. 1.84162066e-03 3.31491721e-03 9.20810364e-03
      1.84162066e-03 3.68324132e-03 7.36648275e-04 6.62983442e-03 0.
      1.10497244e-03 2.94659310e-03 3.68324138e-04 1.84162066e-03
      1.10497244e-03 3.68324132e-03 1.84162066e-03 1.84162066e-03
      3.68324138e-04 1.47329655e-03 3.68324132e-03 3.68324138e-04
      7.36648275e-04 2.57826899e-03 1.10497244e-03 1.10497244e-03
      2.20994488e-03 4.41988977e-03 1.10497244e-03 3.68324138e-04
      4.78821388e-03 1.84162066e-03 2.57826899e-03 0. 3.68324138e-04
      3.68324138e-04 7.36648275e-04 1.10497244e-03 1.47329655e-03
      9.94475186e-03 1.10497244e-03 3.68324138e-04 1.47329655e-03
      2.57826899e-03 7.36648275e-04 7.36648275e-04 1.28913447e-02
      3.68324138e-04 8.47145543e-03 7.36648275e-04 1.10497244e-03
      1.47329655e-03 3.31491721e-03 5.89318620e-03 7.36648275e-04
      3.68324138e-04 2.57826899e-03 3.68324138e-04 5.52486209e-03
      3.68324138e-04 1.10497244e-03 1.47329655e-03 1.84162066e-03
      1.47329655e-03 3.68324138e-04 7.36648275e-04 2.20994488e-03
      1.84162066e-03 3.68324138e-04 1.47329655e-03 3.68324138e-04
      3.68324132e-03 1.47329655e-03 3.68324138e-04 3.68324138e-04
      3.68324138e-04 2.94659310e-03 3.68324138e-04 3.68324138e-04
      3.68324138e-04 1.47329655e-03 3.31491721e-03 0. 7.36648275e-04
      1.47329655e-03 1.10497244e-03 1.84162066e-03 1.10497244e-03
      6.26151031e-03 1.84162066e-03 1.10497244e-03 4.78821388e-03
      7.36648275e-04 3.68324132e-03 0. 7.36648275e-04 1.10497244e-03
      3.68324138e-04 1.10497244e-03 0. 1.47329655e-03 1.47329655e-03
      2.20994488e-03 2.57826899e-03 0. 7.36648275e-04 1.47329655e-03
      1.84162066e-03 6.99815853e-03 7.36648275e-04 7.36648275e-04
      1.84162066e-03 1.76795591e-02 2.20994488e-03 1.10497244e-03
      1.84162066e-03 3.68324132e-03 2.57826899e-03 3.68324138e-04 0.
      7.36648275e-04 2.94659310e-03 3.68324138e-04 2.20994488e-03
      7.36648275e-04 7.36648275e-04 3.68324138e-04 2.20994488e-03
      7.36648275e-04 1.76795591e-02 0. 1.47329655e-03 0. 3.68324138e-04
      7.36648275e-04 7.36648275e-04 4.41988977e-03 7.36648275e-04
      1.10497244e-03 3.68324132e-03 0. 3.68324138e-04 1.47329655e-03
      2.20994488e-03 7.36648275e-04 2.57826899e-03 3.68324138e-04
      3.68324132e-03 3.68324138e-04 3.68324138e-04 2.57826899e-03
      1.10497244e-03 0. 3.68324138e-04 3.68324138e-04 2.94659310e-03
      4.05156566e-03 1.91528555e-02 0. 1.47329655e-03 1.47329655e-03
      2.20994488e-03 4.41988977e-03 2.57826899e-03 2.57826899e-03
      1.10497244e-03 1.10497244e-03 7.36648275e-04 3.68324138e-04 0.
      1.47329655e-03 3.68324138e-04 5.52486209e-03 3.68324138e-04
      7.36648275e-04 2.57826899e-03 3.68324138e-04 2.94659310e-03
      3.68324138e-04 1.84162066e-03 5.15653798e-03 7.36648275e-04 0.
      7.36648275e-04 6.99815853e-03 7.36648275e-04 7.36648275e-04
      1.10497244e-03 5.52486209e-03 7.36648275e-04 7.36648275e-04
      3.68324138e-04 2.94659310e-03 3.68324138e-04 1.84162066e-03
      1.10497244e-03 1.47329655e-03 1.47329655e-03 2.94659310e-03
      2.94659310e-03 0. 1.84162066e-03 1.10497244e-03 0. 7.36648275e-04
      3.68324138e-04 1.10497244e-03 3.68324138e-04 1.47329655e-03
      2.20994488e-03 2.20994488e-03 3.68324138e-04 0. 0. 3.68324138e-04
      1.10497244e-03 0. 1.47329655e-03 0. 4.05156566e-03 3.68324132e-03
      8.83977953e-03 2.94659310e-03 7.36648275e-04 2.57826899e-03
      1.10497244e-03 7.36648275e-04 1.84162066e-03 0. 1.10497244e-03 0.
      7.36648275e-04 7.36648275e-04 7.36648275e-04 0. 1.47329655e-03 0.
      3.68324138e-04 7.36648275e-04 1.84162066e-03 3.68324138e-04
      3.68324138e-04 9.57642775e-03 4.05156566e-03 1.10497244e-03
      3.68324138e-04 7.36648275e-04 2.20994488e-03 1.84162066e-03
      7.36648275e-04 3.68324138e-04 1.47329655e-03 7.36648275e-04
      1.10497244e-03 0. 3.68324138e-04 1.10497244e-03 7.36648275e-04
      1.10497244e-03 3.68324138e-04 7.36648275e-04 2.57826899e-03
      1.10497244e-03 1.84162066e-03 1.47329655e-03 1.84162066e-03
      2.57826899e-03 0. 2.94659310e-03 7.36648275e-04 2.20994488e-03
      3.68324138e-04 7.36648275e-04 7.36648275e-04 2.57826899e-03 0.
      3.68324132e-03 1.84162066e-03 1.10497244e-03 3.68324138e-04
      1.84162066e-03 2.94659310e-03 7.36648275e-04 3.68324138e-04
      1.47329655e-03 3.68324138e-04 1.47329655e-03 0. 0. 1.10497244e-03
      3.68324138e-04 2.94659310e-03 7.36648275e-04 0. 1.47329655e-03
      3.68324138e-04 0. 3.68324138e-04 1.10497244e-03 7.36648275e-04
      1.47329655e-03 7.36648275e-04 0.</_>
    <_>
      3.88198765e-04 3.88198765e-04 1.16459629e-03 7.76397530e-04
      1.16459629e-03 2.71739135e-03 2.32919259e-03 2.71739135e-03
      4.27018665e-03 7.76397530e-04 1.94099382e-03 7.76397530e-04
      3.88198765e-04 7.76397530e-04 7.76397530e-04 2.32919259e-03
      1.16459629e-03 2.32919259e-03 3.49378888e-03 1.55279506e-03
      1.94099382e-03 1.94099382e-03 1.55279506e-03 3.88198765e-04
      1.16459629e-03 1.55279506e-03 3.88198765e-04 7.76397530e-04
      5.43478271e-03 1.55279506e-03 7.76397530e-04 3.88198765e-04
      2.48447210e-02 8.15217383e-03 2.32919259e-03 0. 1.55279506e-03
      1.55279506e-03 2.32919259e-03 2.71739135e-03 5.43478271e-03
      3.49378888e-03 1.94099382e-03 2.32919259e-03 4.65838518e-03
      2.32919259e-03 3.49378888e-03 1.55279506e-03 2.32919259e-03
      6.59937877e-03 0. 1.16459629e-03 1.55279506e-03 3.88198765e-04
      3.88198765e-03 1.16459629e-03 2.32919259e-03 3.49378888e-03
      1.94099382e-03 5.43478271e-03 1.94099382e-03 1.55279506e-03
      1.94099382e-03 1.94099382e-03 7.76397530e-04 1.55279506e-03
      1.55279506e-03 3.88198765e-04 1.94099382e-03 7.76397530e-04
      3.88198765e-03 3.88198765e-04 1.55279506e-03 8.54037330e-03
      1.94099382e-03 2.32919259e-03 5.04658371e-03 8.54037330e-03
      5.43478271e-03 3.49378888e-03 1.16459629e-03 1.16459629e-03 0.
      4.27018665e-03 2.71739135e-03 1.16459629e-03 2.32919259e-03
      4.27018665e-03 3.88198765e-04 3.88198765e-04 1.66925471e-02
      2.71739135e-03 1.94099382e-03 2.71739135e-03 7.76397530e-04
      3.49378888e-03 2.32919259e-03 7.76397530e-04 1.94099382e-03
      5.82298171e-03 7.76397530e-04 1.94099382e-03 6.21118024e-03
      1.94099382e-03 1.16459629e-03 0. 1.16459629e-03 5.04658371e-03
      1.16459629e-03 1.16459629e-03 1.16459629e-03 3.10559012e-03
      1.94099382e-03 0. 1.55279506e-03 1.55279506e-03 7.76397530e-04
      1.94099382e-03 3.88198765e-04 7.37577677e-03 1.16459629e-03 0.
      2.32919259e-03 7.76397530e-04 1.94099382e-03 1.55279506e-03
      1.55279506e-03 2.32919259e-03 1.55279506e-03 2.29037274e-02
      2.71739135e-03 1.16459629e-03 1.94099382e-03 1.16459629e-03
      1.94099382e-03 7.76397530e-04 5.82298171e-03 1.55279506e-03
      4.65838518e-03 3.10559012e-03 2.32919259e-03 2.71739135e-03
      3.88198765e-04 3.10559012e-03 2.32919259e-03 1.55279506e-03
      7.76397530e-04 7.76397530e-03 3.88198765e-03 8.54037330e-03
      3.88198765e-04 7.76397530e-04 1.55279506e-03 2.71739135e-03
      3.88198765e-04 3.88198765e-03 3.88198765e-04 7.76397530e-04
      5.43478271e-03 1.16459629e-03 2.71739135e-03 3.88198765e-04
      3.88198765e-04 3.88198765e-04 1.16459629e-03 5.82298171e-03
      1.16459629e-03 1.16459629e-03 7.76397530e-04 3.49378888e-03
      3.88198765e-04 7.76397530e-04 3.88198765e-04 7.76397530e-04 0. 0.
      1.16459629e-03 4.27018665e-03 1.94099382e-03 1.55279506e-03
      1.55279506e-03 1.16459629e-03 1.16459629e-03 3.10559012e-03
      7.76397530e-04 0. 7.76397530e-04 1.16459629e-03 0. 3.10559012e-03
      1.94099382e-03 3.88198765e-04 2.71739135e-03 1.16459629e-03
      1.55279506e-03 7.76397530e-04 2.71739135e-03 2.32919259e-03
      1.55279506e-03 3.88198765e-03 4.27018665e-03 4.65838518e-03
      1.55279506e-03 3.88198765e-03 1.55279506e-03 2.71739135e-03
      7.76397530e-04 3.88198765e-03 1.94099382e-03 3.88198765e-04
      7.76397530e-04 1.16459629e-03 3.88198765e-03 3.10559012e-03
      7.76397530e-04 7.76397530e-04 1.55279506e-03 3.10559012e-03
      1.16459629e-03 7.76397530e-04 1.94099382e-03 3.88198765e-04
      3.88198765e-04 1.55279506e-03 1.55279506e-03 1.55279506e-03
      7.76397530e-04 4.27018665e-03 1.55279506e-03 1.16459629e-03
      7.76397530e-04 7.76397530e-04 3.88198765e-04 3.88198765e-04
      1.55279506e-03 1.94099382e-03 8.15217383e-03 1.55279506e-03
      3.88198765e-04 1.94099382e-03 1.94099382e-03 1.55279506e-03
      7.76397530e-04 1.74689442e-02 7.76397530e-04 1.51397521e-02
      7.76397530e-04 7.76397530e-04 2.71739135e-03 7.76397530e-03
      5.04658371e-03 0. 1.16459629e-03 5.04658371e-03 3.88198765e-04
      4.27018665e-03 1.16459629e-03 3.88198765e-04 1.16459629e-03
      1.94099382e-03 0. 7.76397530e-04 3.10559012e-03 2.32919259e-03
      2.32919259e-03 3.88198765e-04 1.16459629e-03 3.88198765e-04
      1.55279506e-03 2.71739135e-03 0. 0. 3.88198765e-04 1.16459629e-03
      0. 2.32919259e-03 7.76397530e-04 1.55279506e-03 3.88198765e-03
      1.94099382e-03 7.76397530e-04 3.88198765e-04 3.10559012e-03 0.
      2.71739135e-03 5.04658371e-03 3.49378888e-03 1.16459629e-03
      7.76397530e-03 3.88198765e-04 1.55279506e-03 3.88198765e-04
      1.16459629e-03 0. 7.76397530e-04 1.16459629e-03 7.76397530e-04
      7.76397530e-04 0. 1.94099382e-03 1.16459629e-03 1.16459629e-03
      7.76397530e-04 1.55279506e-03 3.88198765e-04 3.49378888e-03
      1.55279506e-03 0. 1.55279506e-03 1.24223605e-02 1.94099382e-03
      1.55279506e-03 1.94099382e-03 4.65838518e-03 3.49378888e-03
      3.88198765e-04 0. 3.88198765e-04 3.88198765e-04 0. 0. 0.
      3.88198765e-04 3.88198765e-04 1.16459629e-03 7.76397530e-04
      1.66925471e-02 0. 2.32919259e-03 3.88198765e-04 1.94099382e-03
      1.94099382e-03 2.32919259e-03 5.43478271e-03 0. 1.55279506e-03
      3.88198765e-03 7.76397530e-04 3.88198765e-04 2.32919259e-03
      1.16459629e-03 0. 1.94099382e-03 0. 2.32919259e-03 3.88198765e-04
      3.88198765e-04 3.88198765e-04 7.76397530e-04 3.88198765e-04
      3.88198765e-04 0. 7.76397530e-04 1.55279506e-03 1.51397521e-02 0.
      1.94099382e-03 1.16459629e-03 1.94099382e-03 2.32919259e-03
      2.32919259e-03 1.16459629e-03 3.88198765e-04 1.55279506e-03
      3.88198765e-04 7.76397530e-04 2.32919259e-03 0. 1.16459629e-03
      3.10559012e-03 3.88198765e-04 1.16459629e-03 3.49378888e-03
      3.88198765e-04 3.49378888e-03 1.16459629e-03 3.88198765e-04
      5.82298171e-03 3.88198765e-04 0. 1.16459629e-03 3.49378888e-03
      3.88198765e-04 7.76397530e-04 3.88198765e-04 4.65838518e-03
      1.16459629e-03 0. 0. 2.32919259e-03 1.55279506e-03 7.76397530e-04
      1.16459629e-03 7.76397530e-04 1.94099382e-03 3.88198765e-04
      1.94099382e-03 0. 1.94099382e-03 3.88198765e-04 7.76397530e-04
      1.94099382e-03 0. 5.04658371e-03 1.55279506e-03 2.71739135e-03
      1.94099382e-03 5.82298171e-03 3.88198765e-04 3.88198765e-04
      3.88198765e-04 1.16459629e-03 1.16459629e-03 2.32919259e-03
      1.94099382e-03 0. 1.94099382e-03 5.04658371e-03 6.98757777e-03
      2.71739135e-03 3.88198765e-04 7.76397530e-04 7.76397530e-04
      1.16459629e-03 3.88198765e-04 3.88198765e-04 1.16459629e-03 0.
      3.88198765e-04 7.76397530e-04 1.16459629e-03 0. 7.76397530e-04
      7.76397530e-04 1.16459629e-03 1.16459629e-03 1.55279506e-03
      1.94099382e-03 7.76397530e-04 1.51397521e-02 2.71739135e-03
      1.16459629e-03 1.16459629e-03 1.94099382e-03 1.55279506e-03
      1.16459629e-03 7.76397530e-04 3.88198765e-04 7.76397530e-04
      7.76397530e-04 7.76397530e-04 1.16459629e-03 3.88198765e-04
      3.88198765e-04 3.88198765e-04 3.49378888e-03 1.16459629e-03
      7.76397530e-04 4.27018665e-03 0. 1.16459629e-03 1.94099382e-03
      2.71739135e-03 1.55279506e-03 0. 0. 7.76397530e-04 2.71739135e-03
      7.76397530e-04 1.16459629e-03 0. 2.71739135e-03 3.88198765e-04
      1.94099382e-03 3.10559012e-03 1.55279506e-03 1.16459629e-03
      1.94099382e-03 4.27018665e-03 7.76397530e-04 0. 2.32919259e-03
      1.55279506e-03 2.32919259e-03 0. 0. 7.76397530e-04 1.16459629e-03
      1.94099382e-03 3.88198765e-04 1.16459629e-03 1.55279506e-03
      1.94099382e-03 0. 3.88198765e-04 7.76397530e-04 3.88198765e-04
      1.16459629e-03 1.16459629e-03 0.</_>
    <_>
      6.55308017e-04 2.29357812e-03 1.31061603e-03 3.27654008e-04
      2.29357812e-03 1.96592417e-03 0. 1.96592417e-03 3.27653997e-03
      1.63826998e-03 3.27654008e-04 9.82962083e-04 3.27654008e-04
      1.31061603e-03 0. 6.55308017e-04 6.55308017e-04 1.63826998e-03
      4.91480995e-03 9.82962083e-04 6.55308017e-04 1.96592417e-03
      9.82962083e-04 6.55308017e-04 9.82962083e-04 6.55308017e-04
      6.55308017e-04 1.31061603e-03 6.88073412e-03 0. 1.31061603e-03
      6.55308017e-04 2.85058990e-02 2.94888602e-03 1.96592417e-03
      6.55308017e-04 1.63826998e-03 2.62123207e-03 4.91480995e-03
      2.62123207e-03 3.93184833e-03 4.58715623e-03 9.82962083e-04
      1.31061603e-03 5.57011832e-03 9.82962083e-04 4.25950205e-03
      1.31061603e-03 1.63826998e-03 9.17431246e-03 3.27654008e-04
      6.55308017e-04 1.63826998e-03 6.55308017e-04 3.93184833e-03
      1.63826998e-03 2.62123207e-03 3.93184833e-03 3.93184833e-03
      5.24246413e-03 3.27654008e-04 6.55308017e-04 6.55308017e-04
      4.58715623e-03 3.27654008e-04 1.96592417e-03 1.63826998e-03 0.
      2.62123207e-03 9.82962083e-04 1.31061603e-03 1.63826998e-03
      1.31061603e-03 3.27653997e-03 1.31061603e-03 2.29357812e-03
      1.96592417e-03 4.91480995e-03 6.55307993e-03 9.82962083e-04
      1.96592417e-03 1.63826998e-03 6.55308017e-04 3.93184833e-03
      9.82962083e-04 1.63826998e-03 1.96592417e-03 4.58715623e-03
      9.82962083e-04 0. 3.07994764e-02 1.31061603e-03 1.31061603e-03
      2.62123207e-03 6.55308017e-04 3.93184833e-03 2.62123207e-03
      6.55308017e-04 2.29357812e-03 4.25950205e-03 6.55308017e-04
      6.55308017e-04 1.21231982e-02 6.55308017e-04 0. 0. 3.27654008e-04
      2.94888602e-03 3.27654008e-04 9.82962083e-04 9.82962083e-04
      4.58715623e-03 3.27654008e-04 1.96592417e-03 6.55308017e-04
      1.63826998e-03 4.91480995e-03 6.55308017e-04 6.55308017e-04
      5.57011832e-03 3.27654008e-04 9.82962083e-04 1.96592417e-03
      6.55308017e-04 2.94888602e-03 4.58715623e-03 0. 3.27654008e-04
      2.62123207e-03 2.49017049e-02 1.96592417e-03 3.27654008e-04
      1.63826998e-03 1.31061603e-03 3.27654008e-04 0. 4.25950205e-03
      2.62123207e-03 5.57011832e-03 6.22542622e-03 3.27653997e-03
      1.31061603e-03 9.82962083e-04 1.96592417e-03 3.93184833e-03
      6.55308017e-04 3.27654008e-04 4.25950205e-03 2.94888602e-03
      8.19134992e-03 3.27654008e-04 6.55308017e-04 1.96592417e-03
      2.94888602e-03 3.27654008e-04 3.27653997e-03 1.31061603e-03
      2.29357812e-03 4.91480995e-03 1.31061603e-03 3.27653997e-03
      6.55308017e-04 1.31061603e-03 6.55308017e-04 2.62123207e-03
      3.60419415e-03 1.63826998e-03 9.82962083e-04 0. 3.60419415e-03 0.
      1.31061603e-03 6.55308017e-04 1.31061603e-03 0. 3.27654008e-04
      1.63826998e-03 2.94888602e-03 3.27653997e-03 1.63826998e-03
      9.82962083e-04 3.27654008e-04 1.31061603e-03 3.93184833e-03
      3.27654008e-04 9.82962083e-04 6.55308017e-04 2.62123207e-03
      1.31061603e-03 9.82962083e-04 3.27654008e-04 0. 6.55308017e-04
      1.31061603e-03 1.31061603e-03 1.63826998e-03 2.29357812e-03
      6.55308017e-04 0. 2.62123207e-03 4.58715623e-03 3.93184833e-03
      3.27653997e-03 1.63826998e-03 1.63826998e-03 1.63826998e-03
      3.27654008e-04 2.62123207e-03 9.82962083e-04 9.82962083e-04
      9.82962083e-04 9.82962083e-04 3.27654008e-04 2.94888602e-03
      6.55308017e-04 3.27654008e-04 1.31061603e-03 4.25950205e-03
      1.63826998e-03 6.55308017e-04 6.55308017e-04 1.63826998e-03
      1.63826998e-03 9.82962083e-04 2.62123207e-03 9.82962083e-04 0.
      2.94888602e-03 2.62123207e-03 6.55308017e-04 3.27654008e-04
      2.62123207e-03 1.63826998e-03 1.31061603e-03 6.55308017e-04
      2.94888602e-03 7.53604202e-03 3.27654008e-04 0. 9.82962083e-04
      1.31061603e-03 1.31061603e-03 1.31061603e-03 1.63826998e-02 0.
      1.27785066e-02 1.31061603e-03 6.55308017e-04 1.96592417e-03
      3.60419415e-03 3.60419415e-03 3.27654008e-04 1.31061603e-03
      6.22542622e-03 1.63826998e-03 4.58715623e-03 9.82962083e-04
      1.96592417e-03 3.27654008e-04 1.96592417e-03 1.96592417e-03
      1.63826998e-03 1.31061603e-03 2.94888602e-03 2.29357812e-03
      3.27654008e-04 3.27654008e-04 6.55308017e-04 2.62123207e-03
      1.31061603e-03 0. 6.55308017e-04 3.27654008e-04 2.62123207e-03
      3.27654008e-04 0. 6.55308017e-04 3.27654008e-04 3.27653997e-03
      9.82962083e-04 1.63826998e-03 1.31061603e-03 2.29357812e-03
      9.82962083e-04 9.82962083e-04 4.25950205e-03 3.60419415e-03
      1.31061603e-03 5.89777203e-03 6.55308017e-04 2.29357812e-03
      3.27654008e-04 3.27654008e-04 0. 3.27654008e-04 6.55308017e-04
      3.27654008e-04 6.55308017e-04 3.27654008e-04 2.29357812e-03
      1.96592417e-03 6.55308017e-04 1.31061603e-03 1.31061603e-03
      2.62123207e-03 3.93184833e-03 1.96592417e-03 6.55308017e-04
      3.60419415e-03 2.09698565e-02 1.63826998e-03 3.27654008e-04
      9.82962083e-04 4.25950205e-03 4.91480995e-03 0. 3.27654008e-04
      6.55308017e-04 3.27654008e-04 0. 3.27654008e-04 6.55308017e-04
      6.55308017e-04 3.27654008e-04 9.82962083e-04 0. 2.06422023e-02 0.
      1.31061603e-03 6.55308017e-04 3.27654008e-04 2.62123207e-03
      1.31061603e-03 5.89777203e-03 0. 3.27654008e-04 1.17955441e-02 0.
      9.82962083e-04 6.55308017e-04 3.27654008e-04 6.55308017e-04
      6.55308017e-04 3.27654008e-04 2.62123207e-03 6.55308017e-04
      9.82962083e-04 1.63826998e-03 2.62123207e-03 3.27654008e-04
      9.82962083e-04 3.27654008e-04 1.63826998e-03 3.60419415e-03
      1.76933166e-02 6.55308017e-04 1.63826998e-03 3.27654008e-04
      2.62123207e-03 2.94888602e-03 2.62123207e-03 1.31061603e-03 0.
      1.96592417e-03 6.55308017e-04 0. 9.82962083e-04 1.63826998e-03
      1.31061603e-03 3.93184833e-03 6.55308017e-04 6.55308017e-04
      9.82962083e-04 1.31061603e-03 1.31061603e-03 3.27654008e-04
      6.55308017e-04 5.89777203e-03 0. 0. 3.27654008e-04 4.58715623e-03
      0. 1.31061603e-03 6.55308017e-04 1.04849283e-02 1.63826998e-03
      3.27654008e-04 9.82962083e-04 6.55307993e-03 6.55308017e-04
      1.63826998e-03 3.27654008e-04 6.55308017e-04 9.82962083e-04
      6.55308017e-04 1.96592417e-03 3.27654008e-04 9.82962083e-04
      1.31061603e-03 6.55308017e-04 3.27654008e-04 0. 6.55308017e-04
      6.55308017e-04 1.31061603e-03 1.31061603e-03 3.93184833e-03
      6.55308017e-04 3.27654008e-04 3.27654008e-04 9.82962083e-04
      1.63826998e-03 2.29357812e-03 1.31061603e-03 6.55308017e-04
      1.96592417e-03 3.93184833e-03 7.53604202e-03 8.19134992e-03
      1.63826998e-03 6.55308017e-04 1.96592417e-03 2.94888602e-03
      2.29357812e-03 0. 3.27654008e-04 3.27654008e-04 1.96592417e-03
      3.27654008e-04 3.27654008e-04 3.27654008e-04 9.82962083e-04 0.
      1.31061603e-03 9.82962083e-04 9.82962083e-04 9.82962083e-04
      3.27654008e-04 1.53997382e-02 1.96592417e-03 3.27653997e-03
      1.31061603e-03 1.63826998e-03 6.55308017e-04 1.63826998e-03
      3.27654008e-04 0. 3.27654008e-04 0. 1.31061603e-03 1.31061603e-03
      0. 6.55308017e-04 1.96592417e-03 1.63826998e-03 6.55308017e-04
      3.27653997e-03 1.63826998e-03 1.31061603e-03 9.82962083e-04
      3.27653997e-03 6.55308017e-04 1.96592417e-03 0. 9.82962083e-04
      6.55308017e-04 1.63826998e-03 9.82962083e-04 3.27654008e-04
      6.55308017e-04 2.62123207e-03 6.55308017e-04 1.31061603e-03
      1.96592417e-03 2.94888602e-03 9.82962083e-04 9.82962083e-04
      6.55308017e-04 0. 6.55308017e-04 1.31061603e-03 6.55308017e-04
      4.25950205e-03 0. 0. 9.82962083e-04 1.63826998e-03 1.63826998e-03
      6.55308017e-04 0. 6.55308017e-04 1.31061603e-03 3.27654008e-04
      3.27654008e-04 1.31061603e-03 1.96592417e-03 9.82962083e-04
      3.27654008e-04 3.27654008e-04</_>
    <_>
      1.02810143e-03 6.85400970e-04 1.02810143e-03 1.71350245e-03
      2.05620285e-03 2.39890348e-03 3.42700485e-04 3.08430428e-03
      5.14050713e-03 2.05620285e-03 6.85400970e-04 1.37080194e-03
      1.02810143e-03 1.02810143e-03 6.85400970e-04 6.85400970e-04
      6.85400970e-04 2.05620285e-03 5.14050713e-03 1.37080194e-03
      1.02810143e-03 2.05620285e-03 1.37080194e-03 6.85400970e-04 0.
      1.02810143e-03 1.37080194e-03 1.02810143e-03 9.25291330e-03
      1.02810143e-03 1.71350245e-03 6.85400970e-04 1.37080196e-02
      1.71350245e-03 2.74160388e-03 3.42700485e-04 2.74160388e-03
      1.37080194e-03 2.74160388e-03 1.37080194e-03 3.42700491e-03
      4.45510633e-03 1.37080194e-03 1.71350245e-03 6.85400981e-03
      1.37080194e-03 2.39890348e-03 6.85400970e-04 3.76970530e-03
      6.85400981e-03 3.42700485e-04 1.02810143e-03 3.08430428e-03
      1.02810143e-03 4.45510633e-03 3.42700485e-04 1.71350245e-03
      2.74160388e-03 2.05620285e-03 3.08430428e-03 1.71350245e-03
      3.42700485e-04 1.02810143e-03 4.45510633e-03 6.85400970e-04
      6.16860855e-03 3.08430428e-03 1.02810143e-03 2.05620285e-03
      3.08430428e-03 3.08430428e-03 1.02810143e-03 3.42700485e-04
      5.14050713e-03 2.39890348e-03 3.08430428e-03 1.02810143e-03
      8.56751204e-03 6.85400981e-03 2.74160388e-03 1.37080194e-03
      3.08430428e-03 6.85400970e-04 4.79780696e-03 1.37080194e-03
      1.02810143e-03 3.76970530e-03 4.11240570e-03 6.85400970e-04
      1.02810143e-03 8.56751204e-03 1.71350245e-03 2.05620285e-03
      3.08430428e-03 2.74160388e-03 2.39890348e-03 1.71350245e-03
      3.42700485e-04 6.85400970e-04 7.53941061e-03 1.37080194e-03
      1.02810143e-03 5.82590839e-03 1.71350245e-03 1.71350245e-03
      6.85400970e-04 6.85400970e-04 1.37080194e-03 1.37080194e-03
      3.42700491e-03 6.85400970e-04 3.08430428e-03 1.71350245e-03
      3.42700485e-04 0. 1.71350245e-03 4.11240570e-03 1.37080194e-03
      3.42700485e-04 4.45510633e-03 6.85400970e-04 1.71350245e-03
      3.42700491e-03 2.05620285e-03 2.05620285e-03 2.74160388e-03
      1.02810143e-03 1.02810143e-03 3.42700491e-03 1.54215218e-02
      3.08430428e-03 1.37080194e-03 3.08430428e-03 2.05620285e-03
      3.42700485e-04 1.02810143e-03 1.71350245e-03 2.74160388e-03
      8.91021267e-03 4.45510633e-03 2.74160388e-03 2.05620285e-03
      1.37080194e-03 3.76970530e-03 6.51130918e-03 1.02810143e-03
      1.02810143e-03 7.53941061e-03 3.76970530e-03 2.74160388e-03
      1.02810143e-03 0. 2.39890348e-03 4.45510633e-03 3.42700485e-04
      1.37080194e-03 3.42700485e-04 2.05620285e-03 4.11240570e-03
      2.05620285e-03 2.05620285e-03 1.02810143e-03 2.05620285e-03
      6.85400970e-04 2.74160388e-03 3.42700491e-03 3.42700485e-04
      1.71350245e-03 1.02810143e-03 1.37080194e-03 0. 1.02810143e-03
      1.37080194e-03 1.37080194e-03 1.02810143e-03 1.02810143e-03
      2.05620285e-03 3.76970530e-03 4.45510633e-03 2.05620285e-03
      3.08430428e-03 2.39890348e-03 1.02810143e-03 1.37080194e-03
      1.71350245e-03 2.05620285e-03 2.39890348e-03 1.71350245e-03
      1.02810143e-03 1.71350245e-03 1.02810143e-03 6.85400970e-04
      3.08430428e-03 1.37080194e-03 1.02810143e-03 3.42700485e-04
      4.11240570e-03 1.02810143e-03 1.37080194e-03 3.76970530e-03
      1.71350245e-03 3.08430428e-03 3.08430428e-03 1.37080194e-03
      3.42700485e-04 2.39890348e-03 1.71350245e-03 1.02810143e-03
      1.37080194e-03 1.71350245e-03 1.71350245e-03 1.71350245e-03
      3.42700491e-03 3.42700491e-03 3.42700485e-04 2.39890348e-03
      1.71350245e-03 3.42700491e-03 2.39890348e-03 6.85400970e-04
      2.05620285e-03 1.37080194e-03 6.85400970e-04 3.42700485e-04
      5.82590839e-03 1.02810143e-03 1.71350245e-03 3.76970530e-03
      2.05620285e-03 1.71350245e-03 2.39890348e-03 2.39890348e-03
      1.02810143e-03 6.85400970e-04 2.39890348e-03 4.79780696e-03
      7.53941061e-03 3.42700485e-04 1.02810143e-03 2.39890348e-03
      3.76970530e-03 2.39890348e-03 6.85400970e-04 1.67923234e-02
      3.42700485e-04 9.93831363e-03 1.37080194e-03 1.37080194e-03
      1.37080194e-03 5.14050713e-03 4.11240570e-03 1.02810143e-03
      1.02810143e-03 2.39890348e-03 6.85400970e-04 4.11240570e-03
      3.08430428e-03 1.37080194e-03 2.39890348e-03 2.05620285e-03
      2.39890348e-03 1.02810143e-03 2.74160388e-03 2.74160388e-03
      2.05620285e-03 1.37080194e-03 6.85400970e-04 1.02810143e-03
      6.85400970e-04 1.02810143e-03 1.02810143e-03 3.42700485e-04
      1.37080194e-03 4.45510633e-03 1.37080194e-03 3.42700485e-04
      1.02810143e-03 3.42700485e-04 1.71350245e-03 2.05620285e-03
      1.02810143e-03 3.42700485e-04 1.71350245e-03 6.85400970e-04
      2.74160388e-03 3.08430428e-03 2.74160388e-03 1.37080194e-03
      5.48320776e-03 3.42700485e-04 2.39890348e-03 1.71350245e-03
      2.74160388e-03 3.42700485e-04 3.42700485e-04 1.37080194e-03
      3.42700485e-04 1.37080194e-03 3.42700485e-04 2.05620285e-03
      3.42700491e-03 1.02810143e-03 3.42700485e-04 2.05620285e-03
      2.05620285e-03 7.88211077e-03 1.37080194e-03 0. 2.39890348e-03
      4.79780696e-03 6.85400970e-04 1.02810143e-03 2.05620285e-03
      4.11240570e-03 3.08430428e-03 1.37080194e-03 3.42700485e-04
      1.02810143e-03 2.39890348e-03 6.85400970e-04 1.02810143e-03
      6.85400970e-04 3.42700485e-04 2.05620285e-03 1.71350245e-03
      3.42700485e-04 2.15901304e-02 0. 1.37080194e-03 0. 1.02810143e-03
      2.39890348e-03 3.76970530e-03 3.08430428e-03 6.85400970e-04
      1.02810143e-03 3.76970530e-03 1.02810143e-03 1.02810143e-03
      1.37080194e-03 2.05620285e-03 1.02810143e-03 1.37080194e-03
      6.85400970e-04 2.74160388e-03 0. 3.42700485e-04 3.42700491e-03
      2.05620285e-03 3.42700485e-04 1.37080194e-03 1.02810143e-03
      1.02810143e-03 6.16860855e-03 6.51130918e-03 3.42700485e-04
      1.37080194e-03 1.37080194e-03 1.37080194e-03 1.37080194e-03
      1.71350245e-03 6.85400970e-04 1.02810143e-03 6.85400970e-04
      1.37080194e-03 3.42700485e-04 1.37080194e-03 3.42700485e-04
      3.42700485e-04 4.11240570e-03 3.42700485e-04 0. 1.02810143e-03
      1.71350245e-03 1.71350245e-03 6.85400970e-04 1.02810143e-03
      4.45510633e-03 3.42700485e-04 0. 6.85400970e-04 2.39890348e-03
      3.42700485e-04 0. 6.85400970e-04 4.45510633e-03 6.85400970e-04
      1.71350245e-03 1.71350245e-03 3.08430428e-03 1.71350245e-03
      1.71350245e-03 3.42700485e-04 0. 6.85400970e-04 1.71350245e-03
      2.74160388e-03 3.42700485e-04 1.02810143e-03 6.85400970e-04
      3.42700485e-04 6.85400970e-04 3.42700485e-04 2.39890348e-03
      1.02810143e-03 3.42700491e-03 6.85400970e-04 4.11240570e-03
      1.02810143e-03 3.42700485e-04 3.42700485e-04 1.02810143e-03
      2.74160388e-03 6.85400970e-04 3.42700485e-04 1.71350245e-03
      1.02810143e-03 2.74160388e-03 5.14050713e-03 4.45510633e-03
      1.71350245e-03 2.05620285e-03 2.39890348e-03 2.74160388e-03
      3.42700485e-04 0. 6.85400970e-04 6.85400970e-04 1.71350245e-03
      3.42700485e-04 1.02810143e-03 0. 0. 1.02810143e-03 1.37080194e-03
      0. 2.39890348e-03 2.05620285e-03 1.02810143e-03 3.76970530e-03
      2.74160388e-03 1.71350245e-03 6.85400970e-04 1.37080194e-03
      1.02810143e-03 6.85400970e-04 1.37080194e-03 6.85400970e-04
      1.71350245e-03 6.85400970e-04 2.05620285e-03 0. 3.42700485e-04
      6.85400970e-04 1.37080194e-03 1.71350245e-03 1.02810143e-03
      1.37080194e-03 3.08430428e-03 2.74160388e-03 1.02810143e-03
      2.74160388e-03 5.82590839e-03 2.39890348e-03 0. 1.02810143e-03
      3.42700485e-04 1.02810143e-03 1.02810143e-03 6.85400970e-04
      6.85400970e-04 2.74160388e-03 3.42700485e-04 1.02810143e-03
      2.05620285e-03 3.42700485e-04 1.37080194e-03 2.39890348e-03
      2.39890348e-03 1.37080194e-03 1.71350245e-03 1.71350245e-03
      3.42700485e-04 3.42700491e-03 3.42700485e-04 3.42700485e-04
      1.02810143e-03 3.42700485e-04 1.37080194e-03 1.71350245e-03
      1.71350245e-03 2.74160388e-03 3.42700491e-03 6.85400970e-04
      6.85400970e-04 1.37080194e-03 3.08430428e-03 3.42700485e-04 0. 0.</_>
    <_>
      9.11854091e-04 1.82370818e-03 1.51975674e-03 9.11854091e-04
      1.21580542e-03 3.95136746e-03 1.21580542e-03 3.03951348e-03
      3.34346481e-03 9.11854091e-04 9.11854091e-04 9.11854091e-04
      6.07902708e-04 9.11854091e-04 1.51975674e-03 6.07902708e-04
      9.11854091e-04 5.47112431e-03 4.86322166e-03 9.11854091e-04
      1.51975674e-03 1.82370818e-03 1.21580542e-03 6.07902708e-04
      3.03951354e-04 6.07902708e-04 1.21580542e-03 1.21580542e-03
      1.09422486e-02 6.07902708e-04 9.11854091e-04 1.21580542e-03
      2.21884493e-02 6.99088117e-03 2.43161083e-03 3.03951354e-04
      6.07902708e-04 2.12765951e-03 3.34346481e-03 2.43161083e-03
      3.95136746e-03 5.47112431e-03 3.03951354e-04 1.51975674e-03
      4.86322166e-03 2.12765951e-03 3.03951348e-03 9.11854091e-04
      2.43161083e-03 1.15501517e-02 6.07902708e-04 6.07902708e-04
      1.82370818e-03 6.07902708e-04 2.43161083e-03 3.03951354e-04
      3.03951348e-03 1.82370818e-03 2.43161083e-03 6.07902696e-03
      2.43161083e-03 0. 2.43161083e-03 1.51975674e-03 9.11854091e-04
      4.25531901e-03 2.43161083e-03 0. 1.51975674e-03 1.82370818e-03
      3.64741636e-03 2.73556216e-03 3.03951354e-04 7.29483273e-03
      9.11854091e-04 2.43161083e-03 2.73556216e-03 6.68692961e-03
      3.64741636e-03 9.11854091e-04 9.11854091e-04 1.82370818e-03
      6.07902708e-04 1.21580542e-03 2.12765951e-03 1.21580542e-03
      4.55927011e-03 5.47112431e-03 3.03951354e-04 6.07902708e-04
      2.52279621e-02 1.51975674e-03 6.07902708e-04 4.86322166e-03
      9.11854091e-04 5.16717322e-03 1.51975674e-03 3.03951354e-04
      9.11854091e-04 9.42249224e-03 0. 9.11854091e-04 5.16717322e-03
      2.73556216e-03 9.11854091e-04 3.03951354e-04 0. 5.16717322e-03
      3.03951354e-04 1.51975674e-03 3.03951354e-04 1.51975674e-03
      9.11854091e-04 1.51975674e-03 6.07902708e-04 1.51975674e-03
      2.12765951e-03 6.07902708e-04 3.03951354e-04 6.68692961e-03
      3.03951354e-04 0. 3.64741636e-03 3.03951354e-04 3.03951348e-03
      3.95136746e-03 1.82370818e-03 1.21580542e-03 1.21580542e-03
      2.40121577e-02 9.11854091e-04 0. 2.12765951e-03 6.07902708e-04
      1.21580542e-03 6.07902708e-04 3.34346481e-03 1.82370818e-03
      4.86322166e-03 5.47112431e-03 2.12765951e-03 3.03951348e-03
      3.03951354e-04 9.11854091e-04 7.59878382e-03 3.03951354e-04
      9.11854091e-04 6.68692961e-03 1.82370818e-03 5.47112431e-03
      6.07902708e-04 0. 2.12765951e-03 3.34346481e-03 3.03951354e-04
      2.12765951e-03 2.43161083e-03 1.51975674e-03 3.64741636e-03 0.
      2.43161083e-03 3.03951354e-04 3.03951354e-04 6.07902708e-04
      1.21580542e-03 2.43161083e-03 3.03951354e-04 1.21580542e-03 0.
      1.21580542e-03 6.07902708e-04 1.82370818e-03 6.07902708e-04 0.
      9.11854091e-04 0. 1.82370818e-03 2.73556216e-03 1.82370818e-03
      1.51975674e-03 9.11854091e-04 6.07902708e-04 0. 1.82370818e-03
      1.51975674e-03 1.82370818e-03 1.82370818e-03 1.51975674e-03
      1.21580542e-03 3.03951348e-03 0. 6.07902708e-04 2.12765951e-03
      6.07902708e-04 3.34346481e-03 1.51975674e-03 1.51975674e-03
      6.07902708e-04 9.11854091e-04 6.99088117e-03 2.73556216e-03
      2.73556216e-03 2.43161083e-03 2.12765951e-03 6.07902708e-04
      5.47112431e-03 1.51975674e-03 2.73556216e-03 1.21580542e-03
      9.11854091e-04 3.03951354e-04 2.73556216e-03 2.12765951e-03
      2.73556216e-03 1.51975674e-03 6.07902708e-04 9.11854091e-04
      3.64741636e-03 1.82370818e-03 9.11854091e-04 3.64741636e-03
      1.51975674e-03 1.21580542e-03 1.51975674e-03 3.03951348e-03
      3.03951354e-04 9.11854091e-04 4.25531901e-03 1.21580542e-03
      1.51975674e-03 9.11854091e-04 1.82370818e-03 3.03951354e-04 0.
      6.07902708e-04 3.64741636e-03 9.42249224e-03 6.07902708e-04
      3.03951354e-04 1.82370818e-03 2.73556216e-03 1.51975674e-03
      3.03951354e-04 1.51975676e-02 6.07902708e-04 1.67173240e-02
      1.21580542e-03 1.21580542e-03 6.07902708e-04 4.86322166e-03
      4.86322166e-03 0. 6.07902708e-04 4.25531901e-03 9.11854091e-04
      2.12765951e-03 9.11854091e-04 1.82370818e-03 9.11854091e-04
      2.73556216e-03 0. 6.07902708e-04 3.03951348e-03 2.12765951e-03
      9.11854091e-04 6.07902708e-04 0. 9.11854091e-04 1.51975674e-03
      9.11854091e-04 9.11854091e-04 3.03951354e-04 0. 5.16717322e-03
      9.11854091e-04 0. 1.82370818e-03 6.07902708e-04 2.73556216e-03
      1.51975674e-03 9.11854091e-04 0. 1.82370818e-03 6.07902708e-04
      6.07902708e-04 3.95136746e-03 9.11854091e-04 1.82370818e-03
      4.55927011e-03 3.03951354e-04 2.73556216e-03 3.03951354e-04
      6.07902708e-04 3.03951354e-04 9.11854091e-04 1.21580542e-03 0.
      9.11854091e-04 9.11854091e-04 2.43161083e-03 2.12765951e-03
      6.07902708e-04 1.21580542e-03 2.12765951e-03 1.51975674e-03
      4.25531901e-03 2.12765951e-03 9.11854091e-04 2.12765951e-03
      1.15501517e-02 1.82370818e-03 0. 1.51975674e-03 4.25531901e-03
      3.34346481e-03 9.11854091e-04 1.82370818e-03 1.21580542e-03
      1.21580542e-03 3.03951354e-04 0. 1.21580542e-03 3.03951354e-04
      9.11854091e-04 3.03951354e-04 3.03951354e-04 2.49240119e-02
      3.03951354e-04 9.11854091e-04 9.11854091e-04 9.11854091e-04
      3.64741636e-03 2.73556216e-03 6.99088117e-03 0. 3.03951354e-04
      5.16717322e-03 6.07902708e-04 6.07902708e-04 1.51975674e-03
      1.21580542e-03 3.03951354e-04 2.73556216e-03 6.07902708e-04
      2.12765951e-03 0. 6.07902708e-04 1.21580542e-03 1.51975674e-03
      9.11854091e-04 0. 3.03951354e-04 3.03951348e-03 2.12765951e-03
      1.76291782e-02 9.11854091e-04 3.03951354e-04 6.07902708e-04
      1.51975674e-03 1.21580542e-03 2.43161083e-03 1.21580542e-03
      6.07902708e-04 1.51975674e-03 9.11854091e-04 3.03951354e-04
      1.82370818e-03 3.03951354e-04 6.07902708e-04 3.03951348e-03
      1.21580542e-03 6.07902708e-04 1.82370818e-03 1.21580542e-03
      3.03951348e-03 6.07902708e-04 9.11854091e-04 3.34346481e-03
      6.07902708e-04 6.07902708e-04 3.03951354e-04 3.64741636e-03
      9.11854091e-04 3.03951354e-04 3.03951354e-04 4.86322166e-03
      1.51975674e-03 3.03951354e-04 6.07902708e-04 3.95136746e-03
      1.21580542e-03 4.25531901e-03 6.07902708e-04 6.07902708e-04
      6.07902708e-04 9.11854091e-04 2.43161083e-03 6.07902708e-04
      1.82370818e-03 1.21580542e-03 3.03951354e-04 1.51975674e-03
      3.03951354e-04 2.43161083e-03 9.11854091e-04 3.64741636e-03
      9.11854091e-04 3.95136746e-03 3.03951354e-04 0. 3.03951354e-04
      9.11854091e-04 2.73556216e-03 1.21580542e-03 1.82370818e-03
      1.21580542e-03 4.25531901e-03 2.12765951e-03 5.77507587e-03
      6.99088117e-03 9.11854091e-04 2.73556216e-03 1.82370818e-03
      1.51975674e-03 6.07902708e-04 3.03951354e-04 9.11854091e-04 0.
      1.82370818e-03 3.03951354e-04 9.11854091e-04 0. 6.07902708e-04
      6.07902708e-04 6.07902708e-04 3.03951354e-04 2.12765951e-03
      1.21580542e-03 9.11854091e-04 1.42857134e-02 2.12765951e-03
      3.03951348e-03 6.07902708e-04 3.95136746e-03 1.21580542e-03
      9.11854091e-04 3.03951354e-04 3.03951354e-04 1.21580542e-03
      6.07902708e-04 3.03951348e-03 6.07902708e-04 0. 9.11854091e-04
      3.03951354e-04 3.34346481e-03 9.11854091e-04 1.82370818e-03
      2.12765951e-03 1.82370818e-03 1.51975674e-03 1.82370818e-03
      2.43161083e-03 1.51975674e-03 0. 3.03951354e-04 1.21580542e-03
      2.43161083e-03 0. 6.07902708e-04 3.03951354e-04 3.34346481e-03 0.
      9.11854091e-04 1.51975674e-03 0. 1.21580542e-03 1.51975674e-03
      3.64741636e-03 0. 6.07902708e-04 9.11854091e-04 9.11854091e-04
      2.73556216e-03 6.07902708e-04 3.03951354e-04 9.11854091e-04
      6.07902708e-04 9.11854091e-04 1.21580542e-03 3.03951354e-04
      2.43161083e-03 1.51975674e-03 1.21580542e-03 6.07902708e-04
      6.07902708e-04 1.82370818e-03 3.03951354e-04 3.03951354e-04 0.</_>
    <_>
      0. 0. 0. 0. 0. 0. 0. 0. 8.28157365e-03 0. 2.07039341e-03 0. 0. 0.
      0. 0. 0. 0. 4.14078683e-03 2.07039341e-03 0. 0. 0. 0. 0. 0.
      6.21118024e-03 0. 1.03519671e-02 0. 0. 0. 5.38302287e-02 0. 0. 0.
      0. 2.07039341e-03 4.14078683e-03 2.07039341e-03 2.07039341e-03 0.
      0. 4.14078683e-03 1.03519671e-02 0. 8.28157365e-03 0.
      2.07039341e-03 4.34782617e-02 0. 0. 4.14078683e-03 0.
      2.07039341e-03 2.07039341e-03 6.21118024e-03 0. 4.14078683e-03
      4.14078683e-03 0. 0. 0. 0. 0. 0. 2.07039341e-03 0. 2.07039341e-03
      0. 0. 0. 0. 1.03519671e-02 2.07039341e-03 2.07039341e-03
      2.07039341e-03 4.14078683e-03 1.24223605e-02 0. 2.07039341e-03 0.
      4.14078683e-03 4.14078683e-03 0. 0. 6.21118024e-03 8.28157365e-03
      0. 0. 1.46997929e-01 2.07039341e-03 2.07039341e-03 0. 0.
