<?xml version="1.0"?>
<opencv_storage>
<my_svm type_id="opencv-ml-svm">
  <svm_type>NU_SVC</svm_type>
  <kernel><type>RBF</type>
    <gamma>1.</gamma></kernel>
  <nu>5.0000000000000003e-02</nu>
  <term_criteria><epsilon>2.2204460492503131e-16</epsilon>
    <iterations>5000</iterations></term_criteria>
  <var_all>1000</var_all>
  <var_count>1000</var_count>
  <class_count>2</class_count>
  <class_labels type_id="opencv-matrix">
    <rows>1</rows>
    <cols>2</cols>
    <dt>i</dt>
    <data>
      0 1</data></class_labels>
  <sv_total>429</sv_total>
  <support_vectors>
    <_>
      0. 1.33333337e-02 1.33333337e-02 0. 0. 0. 1.33333337e-02 0. 0. 0.
      0. 1.33333337e-02 0. 0. 0. 0. 0. 0. 0. 0. 0. 0. 1.33333337e-02 0.
      0. 0. 0. 0. 0. 0. 0. 0. 0. 0. 0. 0. 0. 1.33333337e-02 0. 0. 0. 0.
      0. 0. 0. 0. 0. 0. 0. 1.33333337e-02 0. 0. 0. 0. 0. 0. 0. 0. 0. 0.
      0. 0. 0. 0. 1.33333337e-02 0. 0. 0. 0. 0. 0. 0. 0. 0. 0. 0. 0. 0.
      0. 0. 1.33333337e-02 0. 0. 0. 0. 0. 0. 0. 0. 0. 0. 0.
      1.33333337e-02 0. 0. 0. 0. 0. 2.66666673e-02 0. 0. 0. 0.
      1.33333337e-02 0. 1.33333337e-02 0. 0. 0. 0. 0. 0. 0. 0. 0. 0. 0.
      0. 1.33333337e-02 0. 0. 0. 0. 0. 0. 0. 0. 0. 0. 0. 0. 0. 0. 0. 0.
      0. 0. 0. 0. 0. 1.33333337e-02 0. 0. 0. 0. 0. 0. 0. 0. 0. 0.
      1.33333337e-02 0. 0. 0. 0. 0. 0. 0. 0. 0. 0. 0. 0. 0. 0. 0. 0. 0.
      1.33333337e-02 0. 0. 0. 0. 0. 0. 1.33333337e-02 0. 0. 0. 0. 0. 0.
      0. 1.33333337e-02 0. 0. 0. 0. 0. 0. 0. 0. 0. 0. 0. 1.33333337e-02
      0. 0. 0. 0. 0. 0. 1.33333337e-02 0. 0. 0. 0. 0. 0. 0. 0. 0. 0. 0.
      0. 0. 0. 0. 1.33333337e-02 0. 0. 0. 0. 0. 0. 0. 0. 0. 0.
      2.66666673e-02 0. 0. 3.99999991e-02 0. 0. 0. 0. 0. 0. 0. 0. 0. 0.
      0. 1.33333337e-02 0. 0. 0. 0. 0. 0. 0. 0. 0. 0. 0. 0. 0. 0. 0. 0.
      0. 0. 2.66666673e-02 0. 0. 0. 0. 0. 0. 0. 0. 0. 0. 0. 0. 0. 0. 0.
      0. 0. 0. 0. 0. 0. 0. 0. 0. 0. 0. 0. 0. 0. 0. 0. 1.33333337e-02 0.
      0. 0. 0. 0. 0. 0. 0. 0. 0. 0. 0. 0. 1.33333337e-02 0. 0. 0. 0.
      1.33333337e-02 0. 1.33333337e-02 0. 0. 0. 0. 0. 0. 0. 0. 0. 0. 0.
      0. 0. 0. 0. 0. 0. 0. 0. 0. 0. 0. 0. 1.33333337e-02 0. 0. 0. 0. 0.
      0. 0. 0. 0. 0. 0. 0. 0. 1.33333337e-02 0. 0. 0. 0. 0. 0. 0. 0. 0.
      0. 0. 0. 0. 1.33333337e-02 0. 0. 0. 0. 0. 0. 0. 0. 0. 0.
      1.33333337e-02 0. 0. 0. 0. 0. 0. 0. 0. 0. 0. 0. 0. 0. 0. 0. 0. 0.
      0. 0. 0. 0. 1.33333337e-02 0. 0. 0. 0. 0. 0. 0. 0. 0. 0. 0. 0. 0.
      0. 0. 0. 0. 0. 0. 0. 0. 0. 0. 0. 0. 0. 1.33333337e-02 0. 0. 0. 0.
      0. 0. 0. 1.33333337e-02 0. 0. 0. 1.33333337e-02 0. 0. 0. 0. 0. 0.
      0. 0. 0. 0. 0. 0. 0. 0. 0. 0. 0. 0. 0. 0. 0. 0. 0. 0. 0. 0. 0. 0.
      0. 0. 0. 0. 0. 0. 0. 0. 0. 0. 0. 0. 0. 0. 0. 0. 0. 0. 0. 0. 0. 0.
      0. 0. 0. 0. 0. 0. 0. 0. 0. 0. 0. 0. 0. 0. 0. 0. 0. 1.33333337e-02
      0. 0. 0. 0. 0. 0. 0. 0. 0. 0. 0. 0. 1.33333337e-02 0. 0.
      1.33333337e-02 0. 0. 0. 0. 1.33333337e-02 0. 0. 0. 0. 0. 0. 0. 0.
      0. 0. 0. 0. 0. 0. 0. 0. 0. 1.33333337e-02 0. 0. 0. 0. 0. 0. 0. 0.
      0. 0. 0. 0. 0. 0. 0. 0. 0. 0. 0. 0. 0. 0. 0. 0. 0. 0. 0. 0. 0. 0.
      0. 0. 0. 0. 0. 0. 1.33333337e-02 0. 0. 0. 0. 0. 0. 0. 0. 0. 0. 0.
      0. 0. 0. 0. 1.33333337e-02 0. 0. 1.33333337e-02 0. 0. 0. 0. 0. 0.
      0. 0. 0. 0. 0. 0. 0. 0. 0. 0. 0. 0. 0. 0. 0. 0. 0. 0. 0. 0. 0. 0.
      0. 0. 0. 0. 0. 0. 0. 1.33333337e-02 0. 0. 0. 0. 0. 0. 0. 0. 0. 0.
      0. 0. 0. 0. 0. 0. 0. 0. 0. 0. 0. 0. 0. 0. 0. 0. 0. 0. 0. 0. 0. 0.
      1.33333337e-02 0. 0. 0. 0. 1.33333337e-02 0. 1.33333337e-02 0. 0.
      0. 0. 0. 0. 0. 0. 0. 0. 0. 0. 0. 0. 0. 0. 0. 0. 1.33333337e-02 0.
      0. 0. 0. 0. 0. 0. 0. 0. 0. 0. 0. 0. 0. 0. 0. 0. 0. 0. 0. 0. 0. 0.
      0. 0. 0. 0. 1.33333337e-02 0. 0. 0. 0. 0. 0. 0. 0. 0. 0. 0. 0. 0.
      0. 0. 0. 0. 1.33333337e-02 0. 0. 0. 0. 0. 0. 0. 0. 0. 0. 0. 0. 0.
      0. 0. 0. 0. 0. 0. 0. 0. 0. 0. 0. 0. 0. 0. 0. 0. 0. 0. 0. 0. 0. 0.
      0. 0. 0. 0. 0. 0. 0. 0. 0. 0. 0. 0. 0. 0. 0. 0. 0. 0. 0. 0. 0.
      1.33333337e-02 0. 0. 0. 0. 0. 0. 0. 0. 0. 0. 0. 0. 0. 0. 0. 0. 0.
      0. 0. 0. 0. 0. 0. 0. 0. 1.33333337e-02 1.33333337e-02 0. 0.
      1.33333337e-02 0. 0. 0. 0. 0. 0. 0. 0. 0. 1.33333337e-02 0. 0. 0.
      0. 0. 0. 0. 0. 0. 0. 0. 0. 0. 0. 0. 0. 0. 0. 0. 0. 1.33333337e-02
      0. 0. 0. 0. 0. 0. 1.33333337e-02 0. 0. 0. 0. 0. 1.33333337e-02 0.
      0. 0. 0. 0. 0. 0. 0. 0. 0. 0. 0. 0. 0. 0. 0. 0. 0. 0. 0. 0. 0. 0.
      0. 0. 0. 0. 0. 0. 0. 0. 0. 1.33333337e-02 0. 0. 0. 0. 0. 0. 0. 0.
      0. 0. 0. 0. 0. 0. 0. 0. 0. 0. 0. 0. 0. 0. 0. 0. 0. 0. 0. 0. 0. 0.
      0. 0. 0. 0. 0. 0. 0. 0. 0. 0. 0. 0. 0. 1.33333337e-02 0. 0. 0. 0.
      0. 0. 0. 0. 0. 0. 0. 0. 0. 0. 0. 0. 0. 0. 0. 0. 0. 1.33333337e-02
      0. 0. 0. 0. 0. 0. 3.99999991e-02 0. 2.66666673e-02 0. 0. 0. 0. 0.
      0. 0. 0. 0. 0. 1.33333337e-02 0. 0. 0. 0.</_>
    <_>
      0. 0. 0. 0. 0. 0. 0. 0. 0. 0. 0. 0. 0. 0. 0. 0. 0. 0. 0. 0. 0. 0.
      0. 0. 0. 0. 0. 0. 0. 0. 0. 0. 0. 0. 0. 0. 0. 0. 0. 0. 0. 0. 0. 0.
      0. 0. 0. 0. 0. 0. 0. 0. 0. 0. 0. 0. 0. 0. 0. 0. 0. 0. 0. 0.
      3.12500000e-02 0. 0. 0. 0. 0. 0. 0. 0. 0. 0. 0. 0. 3.12500000e-02
      0. 0. 0. 0. 0. 0. 0. 0. 0. 0. 0. 0. 0. 0. 0. 0. 0. 0. 0. 0. 0. 0.
      0. 0. 0. 0. 0. 0. 0. 0. 0. 0. 0. 0. 0. 0. 0. 0. 0. 0. 0. 0. 0. 0.
      0. 0. 0. 0. 0. 0. 0. 0. 0. 0. 0. 0. 0. 0. 0. 0. 0. 0. 0. 0. 0. 0.
      0. 0. 0. 0. 0. 0. 3.12500000e-02 0. 0. 0. 0. 0. 0. 0. 0. 0. 0. 0.
      0. 0. 0. 0. 0. 0. 0. 0. 0. 0. 0. 0. 0. 0. 0. 0. 0. 0. 0. 0. 0. 0.
      0. 0. 0. 0. 0. 0. 0. 0. 0. 0. 0. 0. 0. 0. 0. 0. 0. 0. 0. 0. 0.
      3.12500000e-02 0. 0. 0. 0. 0. 0. 0. 3.12500000e-02 0. 0. 0. 0. 0.
      0. 0. 0. 0. 0. 0. 0. 0. 0. 0. 0. 0. 0. 0. 0. 0. 0. 0. 0. 0. 0. 0.
      0. 0. 0. 0. 0. 0. 0. 0. 0. 0. 0. 0. 0. 0. 0. 0. 0. 0. 0. 0. 0. 0.
      0. 0. 0. 0. 0. 0. 0. 0. 0. 0. 3.12500000e-02 0. 0. 0. 0. 0. 0. 0.
      0. 0. 0. 0. 3.12500000e-02 0. 0. 0. 0. 0. 0. 3.12500000e-02 0. 0.
      0. 0. 3.12500000e-02 0. 0. 0. 0. 0. 0. 0. 0. 0. 0. 0. 0. 0. 0. 0.
      0. 0. 0. 0. 0. 0. 0. 0. 0. 3.12500000e-02 0. 0. 0. 0. 0. 0. 0. 0.
      0. 0. 0. 0. 0. 0. 0. 0. 0. 0. 0. 0. 0. 0. 0. 0. 0. 3.12500000e-02
      0. 0. 0. 0. 0. 0. 0. 0. 0. 0. 0. 0. 0. 0. 0. 3.12500000e-02 0. 0.
      0. 0. 0. 0. 0. 3.12500000e-02 0. 0. 0. 0. 0. 0. 0. 0. 0. 0. 0. 0.
      0. 0. 0. 0. 0. 0. 0. 0. 0. 0. 0. 0. 0. 0. 0. 0. 0. 0. 0. 0. 0. 0.
      0. 0. 0. 0. 0. 0. 0. 0. 0. 0. 0. 0. 0. 0. 0. 0. 0. 0. 0. 0. 0. 0.
      0. 0. 0. 0. 0. 0. 0. 0. 0. 0. 0. 0. 0. 0. 0. 0. 0. 0. 0. 0. 0. 0.
      0. 0. 0. 0. 0. 0. 0. 0. 0. 0. 3.12500000e-02 0. 0. 0. 0. 0. 0. 0.
      0. 0. 0. 0. 0. 0. 0. 0. 0. 0. 0. 0. 0. 0. 0. 0. 0. 0. 0. 0.
      3.12500000e-02 0. 0. 0. 0. 0. 0. 0. 0. 0. 0. 0. 0. 0. 0. 0. 0. 0.
      0. 0. 0. 0. 0. 0. 0. 0. 0. 0. 0. 0. 0. 0. 0. 0. 0. 0. 0. 0. 0. 0.
      0. 0. 0. 0. 0. 0. 0. 3.12500000e-02 0. 0. 0. 0. 0. 0. 0. 0. 0. 0.
      0. 0. 0. 0. 0. 0. 0. 0. 0. 0. 0. 0. 0. 0. 0. 0. 0. 0. 0. 0. 0. 0.
      0. 0. 0. 0. 0. 0. 0. 0. 0. 0. 0. 0. 0. 0. 0. 0. 0. 0. 0. 0. 0. 0.
      0. 0. 0. 0. 0. 0. 0. 0. 0. 0. 0. 0. 0. 0. 3.12500000e-02 0. 0. 0.
      0. 0. 0. 0. 0. 0. 0. 0. 0. 0. 0. 0. 0. 0. 0. 0. 0. 0. 0. 0. 0. 0.
      0. 0. 0. 0. 0. 0. 0. 0. 0. 0. 0. 0. 0. 0. 0. 0. 3.12500000e-02 0.
      0. 0. 0. 0. 0. 0. 0. 0. 0. 0. 0. 0. 0. 0. 0. 0. 0. 0. 0. 0. 0. 0.
      0. 0. 0. 0. 0. 0. 0. 0. 0. 0. 0. 0. 0. 0. 0. 0. 0. 0. 0. 0. 0. 0.
      0. 0. 0. 0. 0. 0. 0. 0. 0. 0. 0. 0. 3.12500000e-02 0. 0. 0. 0. 0.
      0. 0. 0. 0. 0. 0. 3.12500000e-02 0. 0. 0. 0. 0. 0. 0. 0. 0. 0. 0.
      0. 0. 0. 0. 0. 0. 0. 0. 0. 0. 0. 0. 0. 0. 0. 0. 0. 0. 0. 0. 0. 0.
      0. 0. 0. 0. 0. 0. 0. 0. 0. 0. 0. 0. 0. 0. 0. 0. 0. 0. 0. 0. 0. 0.
      0. 0. 0. 0. 0. 0. 0. 0. 0. 0. 0. 0. 0. 0. 0. 0. 0. 0. 0. 0. 0. 0.
      0. 0. 0. 0. 0. 0. 0. 0. 0. 0. 3.12500000e-02 0. 0. 0. 0. 0. 0. 0.
      0. 0. 0. 0. 0. 0. 0. 0. 0. 0. 0. 0. 0. 0. 0. 3.12500000e-02 0. 0.
      0. 0. 0. 0. 0. 0. 0. 3.12500000e-02 0. 0. 0. 0. 0. 0. 0. 0. 0. 0.
      0. 0. 0. 0. 0. 0. 0. 0. 0. 0. 0. 3.12500000e-02 0. 0.
      3.12500000e-02 0. 0. 0. 0. 0. 0. 3.12500000e-02 0. 0.
      3.12500000e-02 0. 0. 0. 0. 0. 0. 0. 0. 0. 0. 0. 0. 0. 0. 0. 0. 0.
      0. 0. 0. 0. 0. 0. 0. 0. 0. 0. 0. 3.12500000e-02 0. 3.12500000e-02
      0. 0. 0. 0. 0. 0. 0. 0. 0. 0. 0. 0. 0. 0. 0. 0. 0. 0. 0. 0. 0. 0.
      0. 0. 0. 0. 0. 0. 0. 0. 0. 0. 0. 0. 0. 0. 0. 0. 0. 0. 0. 0. 0. 0.
      0. 0. 0. 0. 0. 0. 0. 0. 0. 0. 0. 3.12500000e-02 0. 0. 0. 0. 0. 0.
      0. 0. 0. 0. 0. 0. 0. 0. 0. 0. 0. 0. 0. 0. 0. 0. 0. 0. 0. 0. 0.
      3.12500000e-02 0. 0. 0. 0. 3.12500000e-02 0. 0. 0. 0. 0. 0.</_>
    <_>
      0. 0. 0. 0. 0. 0. 0. 0. 0. 0. 0. 0. 0. 6.45161280e-03 0. 0. 0.
      6.45161280e-03 0. 0. 0. 0. 0. 6.45161280e-03 6.45161280e-03 0. 0.
      0. 0. 0. 0. 0. 0. 0. 0. 0. 0. 0. 0. 0. 0. 0. 1.29032256e-02 0. 0.
      0. 0. 0. 6.45161280e-03 0. 0. 0. 0. 0. 0. 0. 0. 0. 0. 0. 0. 0.
      6.45161280e-03 0. 0. 0. 6.45161280e-03 0. 6.45161280e-03 0. 0. 0.
      0. 6.45161280e-03 1.29032256e-02 0. 0. 0. 0. 0. 0. 0. 0. 0. 0. 0.
      0. 0. 0. 0. 0. 0. 0. 0. 0. 0. 0. 0. 0. 0. 0. 0. 0. 0. 0.
      6.45161280e-03 0. 0. 0. 0. 6.45161280e-03 6.45161280e-03 0. 0.
      6.45161280e-03 0. 0. 0. 6.45161280e-03 0. 0. 0. 0. 0. 0. 0. 0. 0.
      0. 1.93548389e-02 0. 0. 6.45161280e-03 0. 0. 0. 0. 0. 0.
      1.93548389e-02 0. 0. 0. 6.45161280e-03 0. 6.45161280e-03 0. 0. 0.
      0. 0. 0. 0. 0. 0. 0. 0. 0. 0. 0. 0. 0. 0. 0. 6.45161280e-03 0. 0.
      0. 0. 0. 0. 0. 0. 6.45161280e-03 0. 0. 0. 0. 0. 0. 0. 0. 0. 0. 0.
      0. 0. 0. 0. 6.45161280e-03 0. 0. 0. 0. 0. 0. 0. 0. 0. 0. 0. 0. 0.
      0. 0. 0. 6.45161280e-03 0. 0. 0. 0. 0. 0. 0. 0. 0. 0. 0. 0. 0. 0.
      0. 0. 0. 6.45161280e-03 6.45161280e-03 6.45161280e-03
      6.45161280e-03 0. 0. 0. 0. 0. 0. 0. 0. 6.45161280e-03 0. 0. 0. 0.
      6.45161280e-03 0. 0. 0. 0. 0. 0. 0. 0. 0. 0. 0. 0. 0.
      6.45161280e-03 0. 0. 0. 1.29032256e-02 0. 6.45161280e-03 0. 0. 0.
      0. 0. 0. 0. 6.45161280e-03 0. 6.45161280e-03 0. 6.45161280e-03 0.
      6.45161280e-03 0. 0. 1.29032256e-02 0. 0. 6.45161280e-03
      6.45161280e-03 6.45161280e-03 0. 0. 0. 0. 0. 0. 0. 0. 0. 0. 0. 0.
      0. 0. 6.45161280e-03 0. 0. 0. 0. 0. 0. 0. 0. 0. 0. 0. 0. 0. 0. 0.
      0. 0. 0. 0. 0. 0. 6.45161280e-03 0. 0. 6.45161280e-03 0.
      6.45161280e-03 0. 0. 0. 0. 0. 0. 0. 0. 6.45161280e-03
      6.45161280e-03 0. 0. 0. 0. 0. 0. 0. 0. 0. 0. 0. 1.93548389e-02 0.
      1.29032256e-02 0. 0. 0. 0. 0. 0. 0. 0. 6.45161280e-03 0. 0.
      1.29032256e-02 0. 0. 6.45161280e-03 6.45161280e-03 0. 0. 0. 0. 0.
      0. 6.45161280e-03 0. 0. 0. 0. 0. 0. 0. 6.45161280e-03 0. 0. 0. 0.
      0. 0. 0. 0. 0. 0. 0. 0. 0. 0. 0. 0. 0. 0. 0. 0. 0. 0. 0. 0. 0. 0.
      0. 0. 0. 0. 6.45161280e-03 0. 0. 0. 1.29032256e-02 0. 0. 0. 0. 0.
      0. 6.45161280e-03 0. 6.45161280e-03 0. 0. 6.45161280e-03 0. 0. 0.
      0. 0. 0. 0. 0. 6.45161280e-03 6.45161280e-03 0. 0. 0.
      6.45161280e-03 0. 0. 0. 0. 0. 0. 0. 6.45161280e-03 6.45161280e-03
      0. 0. 0. 0. 0. 0. 0. 0. 0. 6.45161280e-03 0. 0. 0. 0. 0. 0. 0. 0.
      0. 0. 0. 6.45161280e-03 0. 0. 0. 0. 0. 0. 6.45161280e-03 0. 0. 0.
      0. 0. 0. 0. 0. 0. 0. 0. 6.45161280e-03 0. 0. 0. 0. 0. 0. 0. 0. 0.
      0. 0. 0. 0. 0. 0. 0. 0. 0. 0. 0. 0. 0. 0. 0. 0. 0. 6.45161280e-03
      6.45161280e-03 0. 0. 0. 0. 0. 0. 0. 0. 0. 0. 0. 0. 0. 0. 0. 0. 0.
      0. 0. 0. 0. 6.45161280e-03 0. 0. 0. 6.45161280e-03 6.45161280e-03
      0. 0. 0. 6.45161280e-03 0. 0. 0. 0. 0. 0. 0. 0. 0. 0. 0. 0.
      6.45161280e-03 0. 6.45161280e-03 0. 0. 0. 0. 0. 0. 6.45161280e-03
      0. 0. 0. 0. 0. 0. 0. 0. 0. 6.45161280e-03 0. 6.45161280e-03 0. 0.
      0. 0. 0. 0. 1.29032256e-02 0. 0. 6.45161280e-03 6.45161280e-03
      6.45161280e-03 0. 0. 0. 0. 0. 0. 0. 0. 0. 0. 0. 0. 0. 0. 0. 0. 0.
      0. 0. 0. 0. 0. 0. 6.45161280e-03 6.45161280e-03 0. 6.45161280e-03
      0. 6.45161280e-03 0. 0. 6.45161280e-03 0. 0. 0. 0. 6.45161280e-03
      0. 0. 0. 0. 1.29032256e-02 0. 0. 0. 0. 0. 0. 0. 0. 0. 0. 0. 0. 0.
      6.45161280e-03 6.45161280e-03 0. 0. 0. 0. 0. 6.45161280e-03 0.
      6.45161280e-03 0. 0. 0. 0. 0. 0. 0. 0. 0. 0. 0. 0. 0. 0. 0. 0. 0.
      0. 0. 0. 0. 0. 0. 0. 0. 0. 0. 1.29032256e-02 0. 0. 0. 0. 0. 0. 0.
      0. 0. 0. 6.45161280e-03 6.45161280e-03 6.45161280e-03 0. 0. 0. 0.
      0. 0. 0. 0. 1.29032256e-02 0. 0. 0. 0. 0. 0. 0. 0. 6.45161280e-03
      6.45161280e-03 0. 6.45161280e-03 0. 0. 1.93548389e-02 0. 0. 0. 0.
      6.45161280e-03 0. 0. 0. 0. 0. 0. 0. 0. 0. 0. 0. 0. 1.29032256e-02
      0. 0. 0. 0. 1.29032256e-02 0. 0. 0. 0. 1.29032256e-02 0. 0.
      6.45161280e-03 0. 0. 0. 6.45161280e-03 0. 0. 0. 0. 0. 0. 0. 0.
      6.45161280e-03 0. 0. 6.45161280e-03 0. 0. 0. 0. 0. 0. 0. 0. 0.
      6.45161280e-03 0. 0. 0. 0. 0. 0. 0. 0. 0. 0. 0. 0. 0. 0. 0. 0. 0.
      0. 0. 6.45161280e-03 6.45161280e-03 0. 0. 0. 0. 0. 0. 0. 0. 0. 0.
      0. 0. 0. 0. 0. 0. 0. 0. 0. 0. 0. 0. 0. 6.45161280e-03 0. 0.
      6.45161280e-03 0. 0. 0. 0. 0. 0. 0. 0. 0. 0. 0. 0. 0. 0.
      6.45161280e-03 6.45161280e-03 0. 0. 0. 0. 0. 0. 0. 0. 0. 0. 0. 0.
      0. 0. 0. 0. 0. 0. 0. 0. 0. 0. 0. 0. 0. 0. 0. 0. 0. 0. 0. 0. 0. 0.
      0. 0. 0. 0. 0. 0. 0. 0. 0. 0. 0. 0. 0. 0. 6.45161280e-03 0. 0. 0.
      0. 0. 0. 0. 0. 0. 0. 0. 0. 0. 0. 0. 0. 0. 0. 0. 0. 0. 0. 0. 0. 0.
      0. 6.45161280e-03 0. 0. 0. 0. 0. 0. 0. 0. 0. 0. 6.45161280e-03 0.
      0. 6.45161280e-03 0. 0. 0. 0. 0. 0. 0. 0. 0. 0. 6.45161280e-03 0.
      6.45161280e-03 0. 0. 0. 0. 0. 0. 0. 0. 6.45161280e-03 0.
      6.45161280e-03 6.45161280e-03 0. 0. 0. 0. 0. 6.45161280e-03 0. 0.
      0. 0. 0. 0. 0. 6.45161280e-03 0. 0. 0. 0. 0. 0. 0. 0. 0. 0. 0. 0.
      0. 0. 0. 0. 0. 0. 0. 0. 0. 6.45161280e-03 6.45161280e-03</_>
    <_>
      0. 0. 0. 0. 0. 0. 0. 0. 0. 0. 0. 0. 0. 0. 0. 0. 0. 0. 0. 0.
      1.09890113e-02 0. 0. 0. 0. 0. 0. 0. 0. 0. 0. 0. 0. 0.
      1.09890113e-02 0. 0. 0. 0. 0. 1.09890113e-02 0. 0. 0. 0. 0. 0. 0.
      0. 0. 0. 0. 0. 0. 0. 1.09890113e-02 2.19780225e-02 1.09890113e-02
      1.09890113e-02 0. 0. 0. 1.09890113e-02 1.09890113e-02 0. 0. 0. 0.
      0. 0. 0. 0. 0. 0. 0. 0. 0. 0. 0. 0. 0. 0. 0. 0. 0. 0. 0. 0. 0. 0.
      0. 0. 0. 0. 0. 0. 0. 0. 0. 0. 0. 1.09890113e-02 0. 0. 0. 0. 0. 0.
      0. 0. 1.09890113e-02 0. 0. 0. 0. 0. 0. 0. 0. 0. 0. 0. 0. 0. 0. 0.
      0. 0. 0. 0. 0. 0. 1.09890113e-02 0. 0. 0. 0. 0. 0. 0. 0.
      1.09890113e-02 0. 0. 0. 0. 0. 0. 0. 0. 0. 0. 0. 0. 0. 0. 0. 0. 0.
      0. 0. 0. 0. 1.09890113e-02 0. 0. 0. 0. 0. 0. 0. 0. 0. 0. 0. 0. 0.
      0. 0. 0. 0. 0. 0. 0. 0. 0. 0. 0. 0. 0. 0. 0. 1.09890113e-02 0.
      1.09890113e-02 0. 0. 0. 0. 0. 0. 1.09890113e-02 0. 0.
      1.09890113e-02 0. 0. 1.09890113e-02 0. 0. 0. 1.09890113e-02 0. 0.
      0. 0. 2.19780225e-02 0. 1.09890113e-02 0. 0. 0. 0. 0. 0. 0.
      1.09890113e-02 0. 0. 0. 0. 0. 0. 0. 0. 0. 0. 0. 0. 0. 0. 0. 0. 0.
      0. 0. 0. 0. 0. 0. 0. 0. 0. 0. 0. 0. 0. 0. 0. 0. 0. 0. 0. 0. 0. 0.
      0. 0. 0. 0. 0. 0. 0. 0. 0. 0. 0. 0. 0. 0. 0. 0. 0. 0. 0. 0. 0. 0.
      1.09890113e-02 0. 0. 0. 0. 0. 0. 0. 0. 0. 0. 1.09890113e-02 0. 0.
      1.09890113e-02 0. 0. 1.09890113e-02 0. 0. 0. 0. 0. 0. 0. 0.
      2.19780225e-02 0. 0. 0. 0. 0. 0. 0. 1.09890113e-02 0. 0. 0. 0. 0.
      0. 0. 0. 0. 0. 0. 0. 0. 0. 0. 1.09890113e-02 0. 0. 0. 0. 0. 0. 0.
      0. 0. 0. 0. 0. 0. 0. 0. 0. 0. 0. 0. 0. 0. 0. 0. 0. 0. 0. 0. 0. 0.
      0. 0. 0. 1.09890113e-02 0. 0. 0. 0. 0. 0. 0. 0. 0. 0. 0. 0. 0. 0.
      1.09890113e-02 0. 0. 0. 1.09890113e-02 0. 0. 0. 0. 0. 0. 0. 0. 0.
      0. 0. 0. 1.09890113e-02 0. 1.09890113e-02 0. 0. 0. 0. 0. 0. 0. 0.
      0. 0. 0. 0. 0. 0. 1.09890113e-02 0. 0. 0. 0. 0. 0. 0. 0. 0. 0. 0.
      0. 0. 0. 0. 0. 1.09890113e-02 0. 0. 0. 0. 0. 1.09890113e-02
      1.09890113e-02 0. 0. 0. 0. 0. 0. 2.19780225e-02 0. 0. 0. 0. 0. 0.
      1.09890113e-02 0. 0. 0. 0. 0. 0. 0. 0. 1.09890113e-02 0. 0. 0. 0.
      0. 0. 1.09890113e-02 0. 0. 0. 0. 0. 0. 0. 0. 0. 0. 0. 0. 0. 0. 0.
      0. 0. 0. 0. 0. 0. 1.09890113e-02 0. 0. 0. 0. 0. 0. 0. 0. 0. 0. 0.
      0. 0. 0. 0. 0. 0. 0. 0. 0. 1.09890113e-02 0. 0. 0. 0. 0. 0. 0. 0.
      0. 0. 0. 0. 0. 0. 0. 0. 0. 0. 0. 0. 0. 0. 0. 0. 0. 0. 0. 0. 0. 0.
      0. 0. 0. 0. 0. 0. 0. 0. 0. 0. 1.09890113e-02 0. 0. 0. 0. 0. 0. 0.
      0. 0. 0. 0. 0. 1.09890113e-02 0. 0. 0. 1.09890113e-02
      1.09890113e-02 0. 0. 0. 0. 0. 0. 0. 0. 0. 0. 0. 0. 0. 0.
      1.09890113e-02 0. 0. 0. 0. 0. 0. 0. 0. 0. 0. 0. 0. 0. 0. 0. 0. 0.
      0. 0. 0. 0. 0. 0. 1.09890113e-02 0. 0. 0. 0. 0. 2.19780225e-02 0.
      0. 1.09890113e-02 0. 0. 0. 0. 0. 0. 0. 0. 0. 0. 0. 0. 0. 0. 0.
      1.09890113e-02 0. 0. 0. 0. 1.09890113e-02 0. 0. 0. 0. 0. 0. 0. 0.
      0. 0. 0. 0. 0. 0. 0. 1.09890113e-02 0. 0. 0. 0. 0. 0. 0. 0. 0. 0.
      0. 0. 0. 0. 0. 0. 0. 0. 0. 0. 0. 0. 0. 0. 0. 0. 0. 1.09890113e-02
      0. 0. 0. 0. 0. 0. 0. 0. 0. 0. 0. 0. 1.09890113e-02 0. 0. 0.
      1.09890113e-02 1.09890113e-02 0. 0. 0. 0. 1.09890113e-02
      1.09890113e-02 0. 0. 0. 0. 0. 0. 0. 0. 0. 0. 0. 0. 0. 0. 0. 0. 0.
      0. 0. 0. 0. 0. 0. 1.09890113e-02 0. 0. 0. 0. 0. 0. 0.
      1.09890113e-02 0. 0. 0. 0. 0. 0. 0. 0. 1.09890113e-02 0.
      1.09890113e-02 0. 0. 0. 0. 0. 0. 0. 0. 0. 0. 0. 0. 0. 0. 0. 0. 0.
      0. 0. 0. 0. 0. 0. 0. 0. 0. 0. 1.09890113e-02 0. 0. 0. 0.
      2.19780225e-02 0. 0. 0. 1.09890113e-02 0. 0. 0. 0. 0. 0. 0. 0. 0.
      0. 0. 0. 1.09890113e-02 0. 0. 0. 0. 1.09890113e-02 0. 0. 0. 0. 0.
      0. 0. 1.09890113e-02 0. 0. 0. 0. 0. 0. 0. 1.09890113e-02
      1.09890113e-02 0. 1.09890113e-02 0. 1.09890113e-02 0. 0. 0. 0. 0.
      0. 0. 0. 0. 0. 0. 0. 0. 0. 0. 0. 0. 0. 1.09890113e-02 0. 0. 0. 0.
      0. 0. 0. 0. 0. 0. 0. 0. 0. 1.09890113e-02 0. 0. 0. 0. 0. 0. 0. 0.
      0. 0. 0. 0. 1.09890113e-02 0. 0. 0. 0. 0. 0. 0. 0. 0. 0. 0. 0. 0.
      0. 0. 0. 0. 0. 0. 0. 0. 0. 0. 0. 0. 0. 0. 0. 0. 0. 0. 0. 0. 0. 0.
      0. 0. 0. 0. 0. 0. 1.09890113e-02 0. 0. 0. 0. 1.09890113e-02 0. 0.
      0. 0. 0. 0. 0. 0. 0. 0. 0. 0. 0. 0. 0. 0. 0. 0. 0. 0. 0. 0. 0. 0.
      0. 0. 0. 0. 0. 0. 1.09890113e-02 0. 0. 0. 1.09890113e-02 0. 0. 0.
      0. 0. 0. 0. 0. 0. 0. 0. 0. 1.09890113e-02 0. 0. 0. 0. 0. 0. 0. 0.
      1.09890113e-02 0. 0. 0. 0. 0. 0. 0. 0. 0. 0. 0. 0. 0. 0. 0. 0. 0.</_>
    <_>
      0. 0. 0. 0. 9.90098994e-03 0. 0. 0. 0. 0. 0. 0. 0. 0. 0. 0. 0. 0.
      0. 0. 0. 0. 0. 0. 0. 9.90098994e-03 0. 0. 0. 0. 9.90098994e-03 0.
      0. 0. 0. 0. 9.90098994e-03 0. 0. 9.90098994e-03 0. 0.
      9.90098994e-03 0. 0. 0. 0. 0. 0. 0. 0. 0. 0. 0. 0. 9.90098994e-03
      0. 0. 9.90098994e-03 0. 0. 0. 0. 0. 9.90098994e-03 0. 0. 0. 0. 0.
      0. 0. 0. 0. 0. 0. 0. 0. 0. 0. 0. 0. 0. 0. 0. 0. 0. 0. 0. 0. 0. 0.
      0. 0. 0. 0. 0. 0. 0. 0. 0. 0. 0. 0. 0. 0. 0. 0. 0. 0. 0. 0. 0. 0.
      0. 0. 0. 0. 0. 0. 0. 0. 0. 0. 0. 0. 0. 0. 0. 0. 0. 0. 0. 0.
      1.98019799e-02 9.90098994e-03 0. 0. 0. 0. 0. 0. 0. 0. 0. 0. 0. 0.
      0. 9.90098994e-03 0. 0. 0. 1.98019799e-02 0. 0. 0. 0. 0. 0.
      9.90098994e-03 0. 9.90098994e-03 0. 0. 0. 0. 0. 0. 0. 0. 0. 0. 0.
      0. 0. 0. 0. 6.93069324e-02 0. 9.90098994e-03 0. 9.90098994e-03 0.
      0. 0. 0. 0. 9.90098994e-03 0. 9.90098994e-03 0. 0. 0. 0. 0. 0. 0.
      0. 0. 0. 0. 0. 0. 0. 0. 0. 0. 0. 0. 0. 0. 0. 0. 0. 0.
      1.98019799e-02 0. 0. 0. 9.90098994e-03 0. 0. 0. 1.98019799e-02 0.
      0. 0. 0. 0. 0. 0. 0. 0. 0. 9.90098994e-03 0. 0. 0. 0. 0. 0. 0.
      9.90098994e-03 0. 0. 0. 0. 0. 0. 0. 0. 0. 0. 0. 0. 0. 0. 0. 0. 0.
      0. 0. 0. 0. 0. 0. 0. 0. 0. 0. 0. 0. 0. 0. 0. 0. 0. 0. 0. 0. 0. 0.
      0. 0. 0. 1.98019799e-02 0. 0. 0. 0. 0. 0. 0. 0. 0. 9.90098994e-03
      9.90098994e-03 0. 0. 0. 0. 0. 0. 0. 0. 9.90098994e-03 0. 0. 0. 0.
      0. 0. 0. 0. 0. 0. 0. 0. 0. 0. 0. 0. 0. 0. 0. 0. 0. 0. 0. 0. 0. 0.
      0. 9.90098994e-03 0. 0. 0. 0. 0. 0. 0. 0. 9.90098994e-03 0.
      9.90098994e-03 0. 0. 9.90098994e-03 0. 0. 0. 0. 0. 0. 0. 0. 0. 0.
      0. 0. 0. 0. 0. 0. 0. 0. 0. 0. 0. 0. 0. 0. 0. 0. 0. 0. 0. 0. 0. 0.
      0. 0. 0. 0. 0. 1.98019799e-02 0. 0. 0. 0. 0. 0. 0. 0. 0. 0. 0. 0.
      0. 0. 0. 0. 9.90098994e-03 0. 0. 0. 0. 0. 0. 0. 0. 0. 0. 0. 0. 0.
      0. 0. 0. 0. 0. 9.90098994e-03 0. 0. 0. 0. 0. 0. 9.90098994e-03 0.
      0. 0. 0. 0. 0. 0. 1.98019799e-02 0. 0. 0. 0. 0. 0. 0. 0. 0. 0. 0.
      0. 0. 0. 0. 0. 0. 0. 0. 0. 9.90098994e-03 0. 0. 0. 0. 0.
      9.90098994e-03 0. 0. 0. 9.90098994e-03 0. 0. 0. 0. 0. 0. 0. 0. 0.
      0. 0. 0. 0. 0. 0. 0. 0. 0. 0. 0. 0. 0. 0. 0. 0. 0. 0.
      9.90098994e-03 0. 0. 0. 0. 0. 0. 9.90098994e-03 0. 9.90098994e-03
      0. 0. 0. 0. 0. 9.90098994e-03 0. 9.90098994e-03 9.90098994e-03 0.
      0. 0. 0. 0. 0. 0. 0. 0. 0. 9.90098994e-03 0. 0. 0. 0. 0. 0.
      9.90098994e-03 0. 0. 0. 0. 0. 0. 0. 0. 0. 0. 0. 0. 0. 0. 0. 0.
      9.90098994e-03 0. 0. 0. 0. 0. 0. 0. 0. 0. 0. 0. 0. 0. 0. 0. 0. 0.
      0. 0. 0. 0. 0. 0. 0. 0. 0. 0. 9.90098994e-03 0. 0. 0. 0. 0. 0.
      9.90098994e-03 0. 0. 0. 0. 0. 0. 0. 0. 0. 0. 0. 0. 0. 0. 0. 0. 0.
      0. 0. 0. 0. 0. 9.90098994e-03 0. 0. 0. 9.90098994e-03 0. 0. 0. 0.
      0. 0. 0. 0. 0. 0. 0. 0. 0. 0. 0. 0. 0. 0. 0. 0. 0. 0. 0. 0. 0. 0.
      0. 0. 0. 9.90098994e-03 0. 0. 0. 9.90098994e-03 0. 0.
      9.90098994e-03 0. 0. 9.90098994e-03 0. 0. 0. 0. 0. 0. 0. 0. 0. 0.
      0. 0. 0. 0. 0. 0. 0. 0. 9.90098994e-03 0. 0. 9.90098994e-03 0. 0.
      0. 0. 0. 0. 0. 1.98019799e-02 0. 0. 0. 0. 0. 0. 0. 0. 0. 0. 0. 0.
      0. 0. 0. 0. 0. 0. 0. 0. 0. 0. 0. 0. 0. 0. 0. 0. 9.90098994e-03 0.
      0. 0. 9.90098994e-03 0. 0. 9.90098994e-03 0. 0. 0. 0. 0. 0. 0. 0.
      0. 0. 0. 0. 0. 0. 0. 0. 0. 0. 0. 0. 0. 0. 0. 0. 0. 0. 0.
      9.90098994e-03 0. 0. 0. 0. 0. 0. 0. 0. 0. 9.90098994e-03 0. 0. 0.
      0. 0. 0. 0. 0. 0. 0. 0. 0. 9.90098994e-03 0. 9.90098994e-03 0. 0.
      0. 0. 0. 0. 0. 0. 0. 0. 0. 9.90098994e-03 0. 0. 0. 0. 0. 0. 0. 0.
      0. 0. 0. 9.90098994e-03 9.90098994e-03 0. 0. 0. 0. 0. 0. 0. 0.
      9.90098994e-03 0. 0. 0. 0. 9.90098994e-03 0. 0. 0. 0. 0. 0. 0. 0.
      0. 0. 0. 0. 0. 0. 9.90098994e-03 0. 0. 0. 0. 9.90098994e-03
      9.90098994e-03 0. 0. 0. 0. 0. 0. 0. 9.90098994e-03 0. 0. 0. 0. 0.
      0. 9.90098994e-03 0. 0. 0. 0. 0. 0. 0. 0. 9.90098994e-03 0. 0. 0.
      0. 0. 9.90098994e-03 0. 0. 0. 0. 0. 0. 0. 0. 0. 0. 0.
      9.90098994e-03 0. 0. 0. 0. 0. 0. 0. 0. 0. 0. 0. 0. 0. 0. 0.
      9.90098994e-03 0. 0. 9.90098994e-03 0. 0. 0. 0. 0. 0. 0. 0. 0. 0.
      9.90098994e-03 0. 0. 0. 0. 0. 0. 0. 0. 0. 0. 0. 0. 0. 0. 0. 0. 0.
      0. 0. 0. 0. 0. 0. 0. 0. 0. 0. 0. 0. 0. 0. 9.90098994e-03 0. 0. 0.
      0. 0. 0. 0. 0. 0. 0. 0. 0. 0. 0. 9.90098994e-03 0. 0. 0. 0. 0. 0.
      0. 0. 0. 0. 0. 0. 0. 0. 0. 0. 0. 0. 0. 0. 0. 0. 0. 0. 0. 0. 0. 0.
      0. 0. 0. 0. 0. 0. 0. 0. 0. 0. 0. 0. 0. 0. 0. 9.90098994e-03 0. 0.
      0. 0. 0. 0.</_>
    <_>
      0. 0. 0. 0. 0. 0. 0. 0. 0. 0. 0. 0. 0. 0. 0. 0. 0. 0. 0. 0. 0. 0.
      0. 0. 0. 0. 0. 0. 0. 0. 0. 0. 0. 0. 0. 0. 0. 0. 0. 0. 0. 0. 0. 0.
      0. 0. 0. 0. 0. 0. 0. 0. 0. 0. 0. 0. 0. 0. 0. 0. 0. 0. 0. 0. 0. 0.
      0. 0. 0. 0. 0. 0. 0. 2.63157897e-02 0. 0. 0. 0. 0. 0. 0. 0. 0. 0.
      0. 0. 0. 0. 0. 0. 0. 0. 0. 0. 0. 0. 0. 0. 0. 0. 2.63157897e-02 0.
      0. 0. 0. 0. 0. 0. 0. 0. 0. 0. 0. 0. 0. 2.63157897e-02 0. 0. 0. 0.
      0. 0. 0. 0. 0. 0. 0. 0. 0. 0. 0. 0. 0. 0. 0. 0. 0. 0.
      2.63157897e-02 0. 0. 0. 0. 0. 0. 0. 0. 0. 0. 0. 0. 0. 0. 0. 0. 0.
      0. 0. 0. 0. 0. 0. 0. 0. 0. 0. 0. 0. 0. 0. 0. 0. 0. 0. 0. 0. 0. 0.
      0. 0. 0. 0. 0. 0. 0. 0. 0. 2.63157897e-02 0. 0. 0. 0. 0. 0. 0. 0.
      0. 0. 0. 0. 0. 0. 0. 0. 0. 0. 0. 0. 0. 0. 0. 0. 0. 2.63157897e-02
      0. 0. 0. 0. 0. 0. 0. 0. 0. 0. 0. 0. 0. 0. 0. 0. 0. 0. 0. 0. 0. 0.
      0. 0. 0. 0. 0. 0. 0. 0. 0. 0. 0. 0. 0. 0. 0. 2.63157897e-02 0. 0.
      0. 0. 0. 0. 0. 0. 0. 0. 0. 0. 0. 0. 0. 0. 0. 0. 0. 5.26315793e-02
      0. 0. 0. 0. 0. 0. 0. 0. 0. 0. 0. 0. 0. 0. 0. 0. 0. 0. 0. 0. 0. 0.
      0. 0. 0. 0. 0. 0. 0. 0. 0. 0. 0. 0. 0. 0. 0. 0. 0. 0. 0. 0. 0. 0.
      0. 0. 0. 0. 0. 0. 0. 0. 0. 0. 0. 0. 0. 0. 0. 0. 0. 0. 0. 0. 0. 0.
      0. 0. 0. 0. 0. 0. 0. 0. 0. 0. 0. 0. 0. 0. 0. 0. 0. 0. 0. 0. 0. 0.
      0. 0. 0. 0. 0. 0. 0. 0. 0. 0. 0. 0. 0. 0. 2.63157897e-02 0. 0. 0.
      0. 0. 0. 0. 0. 2.63157897e-02 0. 7.89473653e-02 0. 0. 0. 0. 0. 0.
      0. 0. 0. 0. 0. 0. 0. 0. 0. 0. 0. 0. 0. 0. 0. 0. 7.89473653e-02 0.
      0. 0. 0. 2.63157897e-02 0. 0. 0. 0. 0. 0. 0. 0. 0. 0. 0. 0.
      2.63157897e-02 0. 0. 0. 0. 0. 0. 0. 0. 2.63157897e-02 0. 0. 0. 0.
      0. 0. 0. 0. 0. 0. 0. 0. 0. 0. 0. 0. 0. 0. 0. 0. 0. 0.
      2.63157897e-02 0. 0. 0. 0. 2.63157897e-02 0. 0. 0. 0. 0. 0. 0. 0.
      0. 0. 0. 0. 0. 0. 0. 0. 0. 0. 0. 0. 0. 0. 0. 0. 0. 0. 0. 0. 0. 0.
      0. 0. 0. 0. 0. 0. 0. 0. 0. 0. 0. 0. 0. 0. 0. 0. 0. 0. 0. 0. 0. 0.
      0. 0. 0. 0. 0. 0. 0. 0. 0. 0. 0. 0. 0. 0. 0. 0. 0. 0. 0. 0. 0. 0.
      0. 0. 0. 0. 0. 0. 0. 0. 0. 2.63157897e-02 0. 0. 0. 0. 0. 0. 0. 0.
      0. 0. 0. 0. 0. 0. 0. 0. 0. 0. 0. 0. 0. 0. 0. 0. 0. 0. 0. 0. 0. 0.
      0. 0. 0. 0. 0. 0. 0. 0. 0. 0. 0. 0. 0. 0. 0. 0. 0. 0. 0. 0. 0. 0.
      0. 0. 0. 0. 0. 0. 0. 0. 0. 0. 0. 0. 0. 0. 0. 0. 0. 0. 0. 0. 0. 0.
      0. 0. 0. 0. 0. 0. 0. 0. 0. 2.63157897e-02 0. 0. 0. 0. 0. 0. 0. 0.
      0. 0. 0. 0. 0. 0. 0. 0. 0. 0. 0. 0. 0. 0. 0. 0. 0. 0. 0. 0. 0. 0.
      0. 0. 0. 0. 0. 0. 0. 0. 0. 0. 0. 0. 0. 0. 0. 0. 0. 0. 0. 0. 0. 0.
      0. 0. 0. 0. 0. 0. 0. 0. 0. 2.63157897e-02 0. 0. 0. 0. 0. 0. 0.
      2.63157897e-02 0. 0. 0. 0. 0. 0. 0. 0. 0. 0. 0. 0. 0. 0. 0. 0. 0.
      0. 0. 0. 0. 0. 0. 0. 0. 0. 0. 0. 0. 0. 0. 2.63157897e-02 0. 0. 0.
      0. 0. 0. 0. 0. 0. 0. 0. 0. 0. 0. 0. 0. 0. 0. 0. 0. 0. 0. 0. 0. 0.
      0. 0. 0. 0. 0. 0. 0. 0. 0. 0. 0. 0. 2.63157897e-02 0. 0. 0. 0. 0.
      0. 0. 0. 2.63157897e-02 0. 0. 0. 0. 0. 0. 0. 0. 0. 0. 0. 0. 0. 0.
      0. 0. 0. 0. 0. 0. 0. 0. 0. 0. 0. 0. 0. 0. 0. 0. 0. 0. 0. 0. 0. 0.
      0. 0. 0. 0. 0. 0. 0. 0. 0. 0. 2.63157897e-02 0. 0. 0. 0. 0. 0. 0.
      0. 0. 0. 0. 0. 0. 2.63157897e-02 0. 0. 0. 2.63157897e-02 0. 0. 0.
      0. 0. 0. 0. 0. 2.63157897e-02 0. 0. 0. 0. 0. 0. 0. 0. 0. 0. 0. 0.
      0. 0. 0. 0. 0. 0. 0. 0. 0. 0. 0. 0. 0. 0. 0. 0. 0. 0.
      2.63157897e-02 0. 0. 0. 0. 0. 0. 0. 0. 0. 0. 0. 0. 0. 0. 0. 0. 0.
      0. 0. 0. 0. 0. 0. 2.63157897e-02 0. 0. 0. 0. 0. 0. 0. 0.
      2.63157897e-02 0. 0. 0. 0. 0. 0. 0. 0. 0. 0. 0. 0. 0. 0. 0. 0. 0.
      0. 0. 2.63157897e-02 0. 0. 0. 0. 0. 0. 0. 0. 0. 0. 0. 0. 0.
      2.63157897e-02 0. 0. 0. 0. 0. 0. 0. 0. 0. 0. 0. 0. 0. 0. 0. 0. 0.
      0. 0. 0. 0. 0. 0. 0. 0. 0. 0. 0. 0. 0. 0. 0. 0. 0. 0. 0. 0. 0. 0.
      0. 0. 0. 0. 0. 0. 0. 0.</_>
    <_>
      0. 0. 8.77192989e-03 0. 0. 0. 0. 0. 0. 0. 0. 0. 0. 0. 0.
      8.77192989e-03 0. 0. 0. 0. 0. 0. 0. 0. 8.77192989e-03
      8.77192989e-03 0. 0. 0. 0. 0. 0. 0. 8.77192989e-03 8.77192989e-03
      0. 0. 0. 8.77192989e-03 0. 0. 0. 0. 0. 0. 1.75438598e-02 0. 0. 0.
      0. 0. 8.77192989e-03 0. 0. 0. 0. 0. 0. 0. 0. 0. 0. 0. 0. 0. 0. 0.
      0. 0. 0. 0. 0. 0. 0. 0. 0. 0. 0. 0. 0. 0. 1.75438598e-02 0. 0. 0.
      0. 0. 0. 0. 0. 0. 0. 8.77192989e-03 0. 0. 0. 8.77192989e-03 0.
      8.77192989e-03 0. 0. 0. 0. 0. 0. 0. 0. 8.77192989e-03
      8.77192989e-03 0. 0. 0. 0. 0. 0. 0. 0. 0. 8.77192989e-03 0. 0. 0.
      0. 0. 0. 0. 0. 0. 0. 0. 0. 0. 0. 0. 0. 0. 8.77192989e-03 0. 0. 0.
      0. 0. 0. 0. 0. 0. 0. 0. 0. 0. 0. 0. 8.77192989e-03 0. 0. 0. 0. 0.
      0. 0. 0. 0. 8.77192989e-03 8.77192989e-03 0. 0. 0. 0. 0. 0. 0. 0.
      0. 0. 0. 0. 0. 0. 0. 0. 0. 0. 0. 0. 0. 0. 8.77192989e-03 0. 0. 0.
      8.77192989e-03 0. 0. 0. 0. 0. 0. 0. 0. 0. 0. 0. 8.77192989e-03 0.
      0. 0. 8.77192989e-03 8.77192989e-03 0. 0. 0. 0. 0. 0. 0. 0.
      8.77192989e-03 0. 8.77192989e-03 0. 0. 0. 0. 0. 0. 0. 0. 0. 0. 0.
      0. 0. 0. 0. 8.77192989e-03 8.77192989e-03 0. 0. 0. 0. 0. 0. 0. 0.
      0. 0. 0. 0. 0. 0. 0. 0. 0. 0. 0. 0. 0. 0. 0. 0. 0. 0. 0. 0. 0. 0.
      0. 0. 0. 0. 0. 0. 0. 0. 0. 0. 0. 0. 0. 0. 0. 0. 0. 0.
      8.77192989e-03 0. 8.77192989e-03 0. 0. 0. 0. 0. 0. 0. 0. 0. 0. 0.
      0. 0. 0. 0. 0. 0. 0. 1.75438598e-02 0. 0. 0. 0. 0. 0.
      8.77192989e-03 0. 1.75438598e-02 0. 0. 0. 0. 0. 0. 0. 0. 0.
      8.77192989e-03 0. 0. 0. 0. 0. 0. 0. 0. 0. 0. 0. 0. 0. 0. 0. 0. 0.
      0. 0. 0. 0. 0. 0. 0. 8.77192989e-03 0. 0. 0. 0. 0. 8.77192989e-03
      0. 0. 0. 0. 8.77192989e-03 0. 0. 0. 1.75438598e-02 0. 0. 0. 0. 0.
      0. 0. 0. 0. 0. 8.77192989e-03 0. 0. 0. 0. 0. 0. 0. 0. 0. 0. 0.
      8.77192989e-03 8.77192989e-03 8.77192989e-03 0. 0. 0. 0. 0. 0. 0.
      0. 8.77192989e-03 0. 0. 0. 0. 0. 0. 0. 0. 0. 0. 0. 0. 0. 0. 0. 0.
      0. 0. 0. 0. 0. 0. 0. 0. 0. 0. 0. 0. 0. 8.77192989e-03 0. 0. 0. 0.
      0. 0. 0. 8.77192989e-03 0. 0. 0. 0. 1.75438598e-02 0. 0.
      8.77192989e-03 0. 0. 0. 0. 0. 0. 0. 0. 0. 0. 0. 0. 0. 0. 0. 0. 0.
      0. 8.77192989e-03 0. 0. 0. 0. 0. 0. 0. 0. 0. 0. 0. 0. 0. 0.
      8.77192989e-03 0. 0. 0. 8.77192989e-03 0. 0. 0. 0. 0. 0. 0. 0. 0.
      0. 0. 0. 0. 0. 0. 0. 0. 0. 0. 0. 0. 0. 0. 0. 0. 0. 0. 0.
      8.77192989e-03 0. 0. 0. 0. 0. 0. 8.77192989e-03 0. 0. 0. 0. 0. 0.
      0. 0. 0. 0. 0. 8.77192989e-03 0. 0. 0. 8.77192989e-03 0. 0. 0. 0.
      0. 0. 0. 0. 0. 0. 0. 0. 0. 0. 0. 0. 0. 8.77192989e-03 0. 0. 0. 0.
      0. 0. 0. 0. 0. 0. 0. 8.77192989e-03 0. 8.77192989e-03 0. 0. 0. 0.
      0. 0. 0. 0. 0. 0. 0. 0. 0. 0. 0. 0. 0. 0. 0. 0. 0. 8.77192989e-03
      0. 0. 0. 0. 0. 0. 0. 8.77192989e-03 0. 0. 0. 0. 0. 0. 0. 0. 0.
      8.77192989e-03 0. 0. 0. 0. 0. 0. 0. 0. 0. 0. 0. 0. 0. 0. 0. 0. 0.
      0. 0. 0. 0. 0. 0. 0. 0. 0. 0. 0. 0. 0. 0. 0. 0. 0. 0. 0. 0.
      8.77192989e-03 0. 0. 0. 0. 0. 0. 0. 0. 0. 8.77192989e-03 0. 0. 0.
      8.77192989e-03 0. 0. 0. 8.77192989e-03 0. 0. 0. 0. 0.
      8.77192989e-03 0. 0. 8.77192989e-03 0. 0. 0. 0. 0. 0. 0.
      8.77192989e-03 0. 0. 0. 0. 0. 0. 8.77192989e-03 0. 0. 0.
      8.77192989e-03 0. 0. 0. 0. 0. 0. 0. 0. 0. 0. 0. 0. 0. 0. 0. 0. 0.
      0. 0. 0. 0. 0. 0. 0. 8.77192989e-03 0. 0. 0. 0. 0. 0. 0. 0. 0. 0.
      0. 0. 0. 0. 0. 0. 8.77192989e-03 0. 0. 0. 0. 0. 1.75438598e-02 0.
      0. 0. 0. 0. 0. 0. 0. 8.77192989e-03 0. 0. 0. 0. 8.77192989e-03 0.
      0. 0. 0. 0. 0. 0. 0. 0. 0. 8.77192989e-03 0. 8.77192989e-03 0. 0.
      0. 1.75438598e-02 0. 0. 0. 0. 0. 0. 0. 0. 0. 0. 0. 0. 0. 0. 0. 0.
      0. 0. 0. 8.77192989e-03 0. 0. 0. 0. 0. 0. 0. 0. 0. 0. 0. 0. 0. 0.
      0. 8.77192989e-03 0. 0. 0. 0. 0. 0. 0. 0. 0. 0. 0. 0. 0. 0.
      8.77192989e-03 0. 0. 0. 0. 0. 0. 0. 8.77192989e-03 1.75438598e-02
      0. 0. 0. 0. 0. 0. 8.77192989e-03 0. 0. 0. 0. 0. 0. 0. 0. 0. 0. 0.
      0. 0. 0. 0. 0. 0. 0. 0. 0. 0. 0. 0. 0. 8.77192989e-03 0. 0. 0. 0.
      0. 8.77192989e-03 0. 0. 8.77192989e-03 0. 0. 0. 0. 0. 0. 0. 0.
      1.75438598e-02 0. 0. 0. 0. 0. 0. 0. 0. 0. 8.77192989e-03 0. 0. 0.
      0. 0. 0. 0. 0. 0. 0. 0. 0. 0. 0. 0. 0. 0. 0. 0. 8.77192989e-03 0.
      0. 0. 0. 0. 0. 0. 8.77192989e-03 8.77192989e-03 8.77192989e-03 0.
      0. 0. 8.77192989e-03 0. 0. 0. 0. 0. 8.77192989e-03 0. 0. 0. 0. 0.
      0. 0. 0. 0. 0. 0. 0. 0. 0. 0. 0. 0. 0. 0. 0. 0. 0. 8.77192989e-03
      0. 0. 0. 0. 0. 0. 0. 0. 8.77192989e-03 0. 1.75438598e-02 0. 0. 0.
      0. 8.77192989e-03 8.77192989e-03 0. 0. 0. 0. 0. 0. 0. 0. 0. 0. 0.
      0. 0. 0. 0. 0. 0. 0. 0. 0. 0. 1.75438598e-02 8.77192989e-03 0. 0.
      0. 0. 0. 0. 0.</_>
    <_>
      0. 0. 0. 0. 0. 0. 8.92857183e-03 0. 0. 0. 0. 0. 0. 0. 0. 0. 0. 0.
      0. 8.92857183e-03 0. 0. 0. 0. 0. 0. 0. 0. 0. 0. 0. 0. 0. 0. 0. 0.
      0. 0. 0. 0. 0. 0. 8.92857183e-03 0. 0. 0. 0. 0. 0. 0. 0. 0. 0. 0.
      8.92857183e-03 0. 0. 0. 0. 0. 0. 0. 8.92857183e-03 0.
      8.92857183e-03 0. 0. 0. 0. 0. 0. 0. 0. 0. 0. 0. 0. 0. 0. 0.
      8.92857183e-03 0. 0. 0. 0. 0. 0. 0. 0. 0. 0. 0. 0. 0. 0.
      8.92857183e-03 0. 0. 8.92857183e-03 8.92857183e-03 8.92857183e-03
      0. 0. 0. 0. 8.92857183e-03 0. 0. 0. 0. 0. 0. 0. 0. 0. 0. 0. 0.
      8.92857183e-03 0. 0. 0. 0. 4.46428582e-02 0. 0. 0. 0. 0. 0. 0. 0.
      0. 0. 0. 0. 0. 0. 0. 0. 0. 0. 0. 0. 0. 8.92857183e-03
      8.92857183e-03 2.67857164e-02 0. 0. 0. 0. 0. 0. 0. 0. 0. 0. 0. 0.
      0. 0. 0. 0. 0. 0. 0. 0. 0. 0. 0. 0. 0. 0. 0. 0. 8.92857183e-03
      8.92857183e-03 0. 0. 0. 0. 0. 0. 0. 0. 0. 0. 0. 0. 8.92857183e-03
      0. 0. 0. 0. 0. 0. 0. 0. 8.92857183e-03 0. 0. 8.92857183e-03 0.
      8.92857183e-03 0. 0. 0. 0. 8.92857183e-03 0. 0. 0. 0. 0. 0.
      3.57142873e-02 0. 0. 0. 0. 0. 8.92857183e-03 8.92857183e-03 0. 0.
      0. 0. 0. 0. 8.92857183e-03 0. 0. 0. 8.92857183e-03 0. 0. 0. 0. 0.
      0. 0. 0. 8.92857183e-03 0. 8.92857183e-03 0. 0. 0. 0. 0.
      8.92857183e-03 0. 0. 0. 0. 0. 0. 0. 0. 8.92857183e-03 0. 0. 0. 0.
      0. 0. 0. 0. 0. 0. 0. 0. 0. 0. 0. 0. 0. 0. 0. 0. 0. 8.92857183e-03
      0. 0. 0. 0. 0. 0. 0. 0. 0. 0. 0. 0. 0. 0. 0. 0. 0. 0. 0. 0. 0. 0.
      8.92857183e-03 0. 0. 0. 0. 0. 0. 0. 8.92857183e-03 2.67857164e-02
      0. 0. 0. 0. 0. 0. 0. 0. 0. 0. 0. 0. 0. 0. 0. 0. 0. 0. 0. 0. 0. 0.
      0. 0. 0. 0. 0. 0. 0. 0. 0. 0. 0. 0. 0. 0. 0. 0. 0. 0. 0. 0. 0. 0.
      0. 0. 0. 0. 0. 8.92857183e-03 0. 0. 0. 0. 0. 0. 0. 0. 0. 0. 0. 0.
      0. 0. 0. 0. 0. 0. 0. 0. 0. 0. 0. 0. 0. 0. 0. 0. 0. 0. 0. 0. 0.
      8.92857183e-03 0. 0. 0. 8.92857183e-03 0. 0. 0. 0. 0. 0. 0. 0. 0.
      0. 0. 0. 0. 0. 0. 0. 0. 0. 0. 0. 0. 0. 0. 0. 0. 0. 0.
      8.92857183e-03 0. 0. 0. 0. 0. 0. 0. 0. 0. 0. 0. 0. 8.92857183e-03
      0. 0. 0. 0. 0. 0. 0. 0. 0. 0. 0. 0. 0. 0. 0. 0. 0. 0. 0. 0. 0. 0.
      0. 0. 8.92857183e-03 0. 0. 0. 8.92857183e-03 0. 0. 0. 0.
      8.92857183e-03 0. 0. 0. 0. 0. 0. 0. 0. 0. 0. 0. 0. 0. 0. 0.
      8.92857183e-03 0. 0. 0. 0. 0. 0. 0. 0. 0. 0. 0. 0. 0. 0. 0. 0. 0.
      0. 0. 0. 0. 0. 0. 0. 0. 0. 8.92857183e-03 0. 0. 0. 0.
      8.92857183e-03 0. 0. 2.67857164e-02 0. 0. 0. 0. 0. 8.92857183e-03
      0. 0. 0. 3.57142873e-02 0. 0. 0. 0. 0. 0. 0. 0. 8.92857183e-03 0.
      0. 0. 0. 0. 0. 0. 0. 0. 0. 0. 0. 0. 0. 0. 0. 0. 0. 0. 0. 0. 0.
      8.92857183e-03 0. 8.92857183e-03 0. 0. 0. 8.92857183e-03 0. 0. 0.
      1.78571437e-02 0. 0. 0. 0. 8.92857183e-03 0. 0. 0. 0. 0. 0. 0. 0.
      0. 0. 0. 0. 0. 0. 0. 0. 0. 0. 0. 8.92857183e-03 0. 0. 0. 0. 0. 0.
      0. 0. 0. 0. 0. 0. 0. 0. 0. 0. 0. 0. 0. 8.92857183e-03 0.
      8.92857183e-03 0. 0. 0. 0. 0. 0. 0. 0. 0. 0. 0. 0. 8.92857183e-03
      0. 0. 0. 8.92857183e-03 0. 0. 0. 0. 0. 0. 0. 0. 0. 0. 0. 0. 0. 0.
      0. 0. 0. 0. 0. 8.92857183e-03 0. 0. 0. 8.92857183e-03 0. 0. 0. 0.
      0. 0. 0. 0. 0. 0. 0. 0. 0. 0. 0. 0. 0. 1.78571437e-02 0. 0. 0.
      8.92857183e-03 0. 0. 0. 0. 0. 0. 0. 0. 0. 0. 0. 0. 0. 0.
      1.78571437e-02 0. 0. 0. 0. 0. 0. 0. 0. 0. 0. 0. 0. 0. 0. 0. 0. 0.
      0. 0. 0. 0. 0. 0. 0. 0. 0. 0. 0. 0. 0. 0. 0. 0. 0. 0. 0. 0. 0. 0.
      0. 0. 8.92857183e-03 0. 0. 0. 0. 0. 0. 8.92857183e-03 0. 0. 0. 0.
      0. 0. 0. 0. 0. 0. 0. 0. 0. 0. 0. 0. 0. 0. 0. 0. 0. 0. 0. 0. 0. 0.
      0. 0. 0. 0. 0. 0. 0. 0. 0. 0. 0. 0. 0. 0. 0. 0. 8.92857183e-03 0.
      0. 0. 0. 0. 8.92857183e-03 0. 0. 8.92857183e-03 0. 0.
      8.92857183e-03 0. 0. 0. 0. 0. 0. 0. 0. 0. 0. 0. 8.92857183e-03 0.
      0. 0. 0. 0. 0. 8.92857183e-03 0. 1.78571437e-02 0. 0. 0. 0. 0. 0.
      0. 0. 0. 0. 0. 0. 0. 0. 0. 0. 0. 0. 0. 0. 8.92857183e-03
      8.92857183e-03 0. 0. 0. 0. 0. 0. 0. 0. 8.92857183e-03 0. 0. 0. 0.
      0. 0. 0. 0. 0. 0. 0. 8.92857183e-03 0. 8.92857183e-03 0. 0.
      8.92857183e-03 0. 0. 0. 0. 0. 0. 0. 0. 0. 0. 0. 0. 0. 0. 0. 0. 0.
      0. 0. 0. 0. 0. 0. 0. 0. 0. 0. 0. 0. 0. 0. 0. 1.78571437e-02 0. 0.
      0. 0. 0. 0. 1.78571437e-02 0. 0. 0. 0. 0. 0. 0. 0. 0. 0. 0. 0. 0.
      0. 0. 0. 0. 0. 0. 0. 0. 0. 0. 0. 0. 0. 0. 8.92857183e-03 0. 0. 0.
      0. 0. 0. 0. 0. 0. 0. 0. 0. 0. 0. 0. 0. 0. 0. 0. 0. 0. 0. 0. 0. 0.
      0. 0. 0. 0. 0. 0. 0. 0. 0. 0. 1.78571437e-02 0. 8.92857183e-03 0.
      0. 0. 0. 0. 0. 0. 0. 0. 0. 8.92857183e-03 0. 8.92857183e-03 0. 0.</_>
    <_>
      0. 8.19672085e-03 0. 0. 0. 0. 8.19672085e-03 0. 0. 0.
      8.19672085e-03 0. 0. 0. 0. 0. 0. 0. 0. 0. 0. 8.19672085e-03 0. 0.
      0. 0. 0. 0. 0. 0. 0. 0. 0. 0. 0. 0. 8.19672085e-03 0. 0. 0. 0. 0.
      0. 8.19672085e-03 0. 0. 0. 0. 0. 8.19672085e-03 0. 8.19672085e-03
      0. 0. 0. 8.19672085e-03 0. 0. 0. 0. 0. 0. 8.19672085e-03 0. 0. 0.
      0. 0. 0. 0. 0. 0. 0. 0. 0. 8.19672085e-03 0. 0. 8.19672085e-03 0.
      0. 0. 0. 1.63934417e-02 0. 1.63934417e-02 0. 0. 0. 0. 0.
      8.19672085e-03 0. 0. 0. 0. 0. 0. 8.19672085e-03 0. 0. 0. 0. 0. 0.
      0. 0. 0. 0. 8.19672085e-03 0. 0. 0. 0. 0. 0. 0. 0. 0. 0.
      8.19672085e-03 0. 0. 8.19672085e-03 0. 0. 0. 0. 0. 0.
      8.19672085e-03 0. 0. 0. 0. 8.19672085e-03 8.19672085e-03 0. 0. 0.
      0. 1.63934417e-02 0. 8.19672085e-03 0. 0. 0. 0. 0. 0. 0. 0. 0. 0.
      8.19672085e-03 0. 0. 8.19672085e-03 8.19672085e-03 0. 0. 0. 0. 0.
      0. 0. 0. 0. 8.19672085e-03 0. 0. 0. 0. 0. 0. 0. 0. 0. 0. 0. 0. 0.
      0. 0. 0. 0. 0. 0. 0. 0. 0. 0. 0. 0. 0. 0. 8.19672085e-03 0. 0. 0.
      0. 0. 0. 0. 0. 0. 8.19672085e-03 0. 0. 0. 0. 0. 0. 0. 0. 0. 0. 0.
      0. 0. 0. 0. 0. 0. 0. 0. 0. 0. 0. 8.19672085e-03 0. 0. 0. 0. 0. 0.
      0. 0. 0. 0. 0. 0. 0. 0. 0. 0. 0. 0. 0. 0. 0. 0. 0. 0. 0. 0. 0. 0.
      0. 0. 0. 0. 8.19672085e-03 0. 0. 0. 0. 0. 0. 0. 0. 8.19672085e-03
      0. 8.19672085e-03 0. 0. 0. 0. 0. 0. 0. 0. 0. 0. 0. 0. 0. 0. 0. 0.
      0. 0. 0. 8.19672085e-03 0. 0. 0. 0. 0. 0. 0. 0. 0. 0. 0. 0. 0. 0.
      0. 0. 0. 0. 0. 0. 0. 8.19672085e-03 0. 8.19672085e-03
      8.19672085e-03 0. 0. 0. 0. 0. 0. 0. 0. 0. 0. 0. 0. 0. 0. 0. 0. 0.
      0. 8.19672085e-03 0. 0. 0. 0. 8.19672085e-03 0. 8.19672085e-03 0.
      0. 0. 0. 0. 0. 0. 0. 0. 0. 0. 0. 8.19672085e-03 0. 0. 0. 0. 0. 0.
      0. 0. 0. 0. 0. 0. 0. 0. 0. 0. 0. 0. 0. 0. 0. 0. 0. 0. 0. 0. 0. 0.
      8.19672085e-03 0. 0. 0. 0. 0. 0. 0. 0. 0. 8.19672085e-03 0. 0.
      8.19672085e-03 0. 0. 0. 0. 0. 0. 0. 0. 0. 8.19672085e-03 0. 0. 0.
      0. 0. 0. 0. 0. 0. 0. 8.19672085e-03 0. 0. 0. 0. 0. 0. 0. 0. 0. 0.
      0. 0. 0. 0. 0. 0. 0. 0. 0. 8.19672085e-03 0. 0. 8.19672085e-03
      8.19672085e-03 0. 0. 0. 0. 0. 0. 0. 0. 0. 0. 0. 0. 8.19672085e-03
      0. 0. 0. 0. 0. 0. 0. 0. 0. 0. 4.91803251e-02 0. 0. 0. 0. 0. 0. 0.
      0. 0. 8.19672085e-03 0. 0. 0. 0. 0. 0. 0. 0. 0. 0. 0. 0. 0. 0. 0.
      0. 8.19672085e-03 0. 0. 0. 0. 0. 0. 0. 0. 0. 0. 0. 0. 0. 0. 0. 0.
      0. 0. 0. 0. 1.63934417e-02 0. 0. 0. 0. 0. 0. 0. 0. 0.
      8.19672085e-03 0. 8.19672085e-03 0. 0. 0. 0. 0. 1.63934417e-02
      8.19672085e-03 0. 0. 0. 0. 0. 0. 0. 0. 0. 0. 0. 0. 0. 0. 0. 0. 0.
      8.19672085e-03 0. 0. 0. 0. 0. 0. 0. 0. 0. 0. 0. 0. 0. 0. 0. 0. 0.
      0. 0. 0. 0. 0. 0. 0. 0. 0. 0. 0. 0. 0. 0. 0. 0. 0. 0. 0. 0.
      8.19672085e-03 0. 8.19672085e-03 0. 0. 0. 0. 0. 0. 0.
      8.19672085e-03 0. 0. 0. 0. 1.63934417e-02 8.19672085e-03 0. 0. 0.
      0. 0. 0. 0. 0. 0. 8.19672085e-03 0. 0. 0. 8.19672085e-03 0. 0. 0.
      0. 0. 0. 0. 0. 0. 0. 0. 0. 0. 8.19672085e-03 0. 0. 0. 0. 0. 0. 0.
      0. 0. 0. 0. 0. 0. 0. 0. 0. 0. 0. 8.19672085e-03 0. 0. 0. 0. 0. 0.
      0. 0. 0. 0. 0. 0. 0. 0. 0. 0. 0. 0. 0. 0. 0. 0. 0. 0. 0. 0.
      8.19672085e-03 0. 0. 0. 0. 0. 0. 0. 0. 0. 0. 0. 0. 8.19672085e-03
      0. 0. 0. 0. 0. 0. 0. 1.63934417e-02 0. 0. 8.19672085e-03 0. 0. 0.
      0. 0. 0. 0. 0. 0. 0. 2.45901626e-02 0. 0. 8.19672085e-03 0. 0. 0.
      0. 0. 0. 0. 0. 1.63934417e-02 0. 0. 0. 0. 0. 0. 0. 0. 0. 0. 0. 0.
      0. 0. 0. 0. 0. 8.19672085e-03 0. 0. 8.19672085e-03 0. 0. 0. 0. 0.
      0. 0. 0. 8.19672085e-03 0. 0. 0. 0. 0. 0. 0. 0. 0. 0.
      1.63934417e-02 0. 0. 0. 0. 0. 0. 0. 0. 0. 0. 0. 0. 0. 0.
      1.63934417e-02 1.63934417e-02 0. 0. 0. 8.19672085e-03 0.
      8.19672085e-03 8.19672085e-03 0. 0. 0. 0. 0. 0. 0. 0. 0. 0.
      8.19672085e-03 0. 0. 0. 0. 0. 0. 0. 0. 0. 0. 0. 0. 0. 0. 0. 0. 0.
      0. 0. 0. 0. 0. 0. 0. 0. 8.19672085e-03 0. 0. 0. 0. 0. 0. 0. 0. 0.
      0. 0. 0. 0. 0. 0. 0. 8.19672085e-03 0. 0. 0. 0. 0. 0. 0. 0.
      8.19672085e-03 0. 0. 0. 0. 0. 0. 0. 0. 0. 0. 0. 0. 8.19672085e-03
      0. 0. 0. 0. 0. 0. 0. 0. 0. 0. 0. 0. 0. 0. 0. 0. 8.19672085e-03 0.
      0. 8.19672085e-03 0. 0. 0. 0. 0. 0. 0. 0. 8.19672085e-03 0. 0. 0.
      0. 0. 0. 8.19672085e-03 1.63934417e-02 8.19672085e-03 0. 0. 0. 0.
      0. 0. 0. 0. 0. 0. 0. 0. 0. 0. 0. 0. 0. 0. 0. 0. 0. 0. 0. 0. 0. 0.
      0. 0. 0. 0. 0. 0. 0. 0. 8.19672085e-03 0. 0. 0. 0. 0. 0. 0. 0. 0.
      0. 0. 0. 0. 0. 8.19672085e-03 0. 0. 0. 0. 0. 0. 0. 0. 0. 0. 0. 0.
      0. 0. 8.19672085e-03 0. 0. 0. 0. 0. 0. 0. 8.19672085e-03
      8.19672085e-03 0. 0. 8.19672085e-03 0. 0. 0. 0. 0. 8.19672085e-03
      0. 0. 0. 0. 0. 0. 0. 0. 0. 0.</_>
    <_>
      0. 0. 9.00900923e-03 0. 0. 0. 0. 9.00900923e-03 0. 0. 0. 0. 0. 0.
      0. 0. 0. 0. 0. 0. 0. 0. 9.00900923e-03 0. 0. 0. 0. 0.
      9.00900923e-03 0. 0. 0. 0. 0. 0. 0. 9.00900923e-03 0. 0. 0. 0. 0.
      0. 0. 0. 0. 9.00900923e-03 0. 0. 0. 0. 9.00900923e-03 0. 0. 0. 0.
      0. 0. 0. 0. 0. 9.00900923e-03 0. 0. 0. 0. 0. 0. 0. 0. 0. 0. 0. 0.
      0. 0. 9.00900923e-03 0. 0. 0. 0. 0. 0. 0. 0. 0. 0. 0. 0. 0. 0. 0.
      0. 0. 0. 9.00900923e-03 0. 0. 0. 0. 0. 0. 0. 0. 0. 0. 0. 0. 0. 0.
      0. 0. 0. 0. 0. 0. 0. 0. 0. 0. 0. 0. 0. 0. 0. 0. 0. 0. 0. 0. 0. 0.
      0. 0. 0. 0. 9.00900923e-03 0. 0. 0. 0. 0. 0. 0. 0. 0. 0. 0. 0. 0.
      0. 0. 0. 0. 0. 0. 0. 0. 0. 0. 0. 0. 0. 0. 0. 0. 0. 0.
      1.80180185e-02 0. 0. 0. 0. 0. 0. 0. 9.00900923e-03 0. 0. 0. 0. 0.
      0. 0. 0. 0. 0. 0. 0. 0. 0. 0. 0. 0. 0. 9.00900923e-03 0. 0. 0. 0.
      0. 0. 9.00900923e-03 0. 0. 0. 9.00900923e-03 9.00900923e-03 0.
      9.00900923e-03 0. 0. 0. 0. 0. 9.00900923e-03 0. 0. 0.
      9.00900923e-03 0. 0. 0. 0. 0. 0. 0. 0. 0. 0. 0. 0. 0. 0. 0. 0. 0.
      0. 0. 0. 0. 0. 0. 0. 0. 0. 0. 0. 9.00900923e-03 0. 1.80180185e-02
      0. 0. 0. 0. 0. 0. 0. 0. 0. 0. 0. 0. 0. 0. 0. 0. 0. 0. 0. 0. 0. 0.
      0. 0. 0. 0. 0. 0. 0. 0. 0. 0. 0. 0. 9.00900923e-03 0. 0. 0. 0. 0.
      0. 0. 0. 9.00900923e-03 0. 0. 0. 0. 0. 0. 9.00900923e-03
      9.00900923e-03 0. 9.00900923e-03 0. 0. 0. 0. 0. 0. 0. 0. 0. 0. 0.
      0. 9.00900923e-03 0. 0. 0. 1.80180185e-02 0. 0. 0. 0. 0. 0. 0. 0.
      0. 0. 1.80180185e-02 0. 0. 0. 0. 0. 0. 0. 0. 0. 0. 0. 0. 0. 0. 0.
      0. 0. 0. 0. 0. 0. 0. 0. 0. 0. 0. 0. 0. 9.00900923e-03 0. 0.
      9.00900923e-03 0. 0. 0. 0. 0. 0. 0. 9.00900923e-03 0. 0.
      9.00900923e-03 0. 9.00900923e-03 0. 0. 0. 0. 0. 9.00900923e-03 0.
      0. 0. 0. 0. 0. 9.00900923e-03 0. 0. 0. 0. 0. 0. 0. 0. 0. 0. 0. 0.
      0. 0. 9.00900923e-03 0. 0. 0. 0. 0. 0. 0. 0. 0. 9.00900923e-03 0.
      0. 0. 0. 9.00900923e-03 1.80180185e-02 0. 0. 0. 0. 0. 0. 0. 0. 0.
      0. 0. 0. 0. 9.00900923e-03 0. 0. 0. 0. 9.00900923e-03 0. 0. 0. 0.
      0. 0. 0. 0. 0. 0. 0. 0. 0. 0. 9.00900923e-03 0. 0. 0. 0.
      9.00900923e-03 0. 9.00900923e-03 0. 0. 0. 0. 0. 0. 0. 0. 0. 0. 0.
      0. 0. 0. 9.00900923e-03 0. 0. 0. 0. 0. 0. 0. 0. 9.00900923e-03
      9.00900923e-03 0. 0. 0. 0. 0. 0. 0. 0. 0. 0. 0. 0. 0. 0. 0. 0. 0.
      0. 9.00900923e-03 9.00900923e-03 0. 0. 0. 0. 0. 0. 9.00900923e-03
      0. 0. 0. 0. 0. 0. 0. 0. 9.00900923e-03 0. 0. 0. 0. 0. 0. 0.
      9.00900923e-03 0. 0. 0. 0. 9.00900923e-03 0. 0. 0. 9.00900923e-03
      0. 0. 0. 0. 9.00900923e-03 0. 0. 9.00900923e-03 0. 0. 0. 0. 0. 0.
      0. 0. 0. 0. 0. 0. 0. 0. 0. 0. 0. 0. 9.00900923e-03 0. 0. 0. 0. 0.
      0. 0. 0. 0. 0. 0. 0. 0. 0. 0. 0. 0. 0. 0. 0. 0. 0. 0. 0. 0. 0. 0.
      0. 0. 0. 0. 0. 0. 0. 9.00900923e-03 0. 0. 1.80180185e-02 0. 0. 0.
      0. 0. 0. 0. 0. 0. 9.00900923e-03 0. 0. 0. 0. 0. 0. 0.
      9.00900923e-03 0. 0. 0. 0. 0. 0. 0. 0. 0. 0. 0. 0. 9.00900923e-03
      0. 0. 0. 9.00900923e-03 0. 0. 0. 0. 0. 9.00900923e-03
      9.00900923e-03 0. 0. 0. 0. 0. 0. 0. 0. 9.00900923e-03 0.
      9.00900923e-03 0. 0. 0. 0. 0. 0. 0. 0. 0. 0. 0. 0. 0.
      9.00900923e-03 0. 0. 0. 0. 9.00900923e-03 0. 0. 0. 0.
      9.00900923e-03 0. 0. 0. 0. 0. 0. 0. 0. 0. 0. 0. 0. 1.80180185e-02
      0. 0. 0. 0. 0. 9.00900923e-03 0. 0. 0. 0. 9.00900923e-03 0. 0. 0.
      0. 0. 0. 0. 0. 0. 0. 0. 0. 0. 0. 0. 0. 9.00900923e-03
      9.00900923e-03 0. 9.00900923e-03 0. 0. 0. 0. 0. 0. 0. 0. 0. 0. 0.
      0. 0. 0. 0. 0. 0. 0. 0. 0. 0. 0. 0. 0. 0. 0. 0. 9.00900923e-03
      9.00900923e-03 0. 0. 0. 0. 0. 0. 0. 9.00900923e-03 0. 0. 0.
      9.00900923e-03 0. 9.00900923e-03 0. 0. 0. 0. 0. 0. 0. 0. 0.
      9.00900923e-03 0. 1.80180185e-02 0. 0. 9.00900923e-03 0. 0. 0. 0.
      0. 0. 0. 0. 0. 0. 0. 0. 0. 0. 0. 9.00900923e-03 0. 0. 0. 0. 0. 0.
      0. 0. 0. 0. 0. 0. 0. 0. 0. 0. 0. 0. 0. 0. 0. 0. 9.00900923e-03 0.
      0. 9.00900923e-03 0. 0. 0. 0. 0. 0. 0. 0. 0. 0. 0. 9.00900923e-03
      0. 0. 0. 0. 0. 0. 0. 0. 0. 9.00900923e-03 9.00900923e-03 0. 0. 0.
      0. 0. 0. 0. 0. 0. 0. 0. 0. 0. 0. 0. 0. 0. 0. 0. 0. 9.00900923e-03
      0. 0. 0. 0. 0. 0. 0. 0. 0. 0. 0. 0. 0. 0. 0. 0. 0. 0. 0. 0. 0. 0.
      0. 9.00900923e-03 0. 0. 0. 1.80180185e-02 0. 0. 0. 0. 0. 0. 0. 0.
      0. 0. 0. 0. 0. 0. 0. 0. 0. 0. 0. 0. 0. 0. 0. 0. 9.00900923e-03 0.
      0. 0. 0. 0. 9.00900923e-03 0. 0. 0. 0. 0. 0. 0. 0. 0.
      9.00900923e-03 0. 0. 0. 0. 0. 0. 0. 0. 0. 9.00900923e-03 0. 0. 0.
      0. 0. 0. 0. 0. 0. 0. 0. 0. 0. 0. 0. 0. 0. 0. 0. 0. 1.80180185e-02
      0. 0. 9.00900923e-03 0. 0. 0. 0. 0. 0. 0. 0. 0. 0. 0. 0. 0. 0. 0.
      0. 0. 0. 0. 0. 0. 0. 0. 0. 0. 0.</_>
    <_>
      7.24637695e-03 7.24637695e-03 0. 7.24637695e-03 0. 0. 0.
      7.24637695e-03 0. 0. 0. 0. 0. 0. 0. 0. 0. 0. 0. 0. 0. 0. 0.
      7.24637695e-03 0. 0. 0. 0. 0. 0. 0. 0. 0. 0. 7.24637695e-03 0. 0.
      7.24637695e-03 0. 7.24637695e-03 0. 0. 0. 0. 0. 0. 0. 0. 0. 0. 0.
      0. 7.24637695e-03 0. 0. 7.24637695e-03 0. 0. 0. 0. 0. 0. 0. 0. 0.
      1.44927539e-02 0. 0. 0. 0. 0. 0. 0. 0. 0. 7.24637695e-03
      7.24637695e-03 0. 7.24637695e-03 0. 0. 0. 0. 0. 0. 0. 0.
      7.24637695e-03 0. 0. 0. 0. 7.24637695e-03 0. 0. 0. 0.
      7.24637695e-03 0. 0. 0. 7.24637695e-03 0. 0. 0. 0. 7.24637695e-03
      0. 0. 0. 0. 0. 0. 1.44927539e-02 0. 0. 0. 0. 7.24637695e-03 0. 0.
      0. 0. 0. 0. 0. 7.24637695e-03 0. 0. 0. 0. 0. 0. 7.24637695e-03 0.
      0. 0. 0. 0. 7.24637695e-03 0. 0. 0. 0. 0. 0. 0. 0. 0. 0. 0. 0.
      7.24637695e-03 0. 0. 0. 7.24637695e-03 0. 0. 0. 0. 0. 0. 0.
      7.24637695e-03 0. 7.24637695e-03 0. 0. 0. 0. 0. 0. 0. 0. 0. 0. 0.
      0. 0. 0. 0. 0. 0. 0. 0. 0. 7.24637695e-03 0. 7.24637695e-03 0. 0.
      0. 7.24637695e-03 0. 0. 0. 7.24637695e-03 7.24637695e-03 0. 0. 0.
      0. 0. 0. 0. 0. 7.24637695e-03 0. 0. 0. 0. 0. 0. 7.24637695e-03 0.
      0. 0. 1.44927539e-02 0. 0. 0. 0. 0. 0. 0. 0. 0. 0. 0. 0. 0. 0. 0.
      0. 0. 0. 0. 0. 0. 0. 0. 0. 0. 7.24637695e-03 0. 0. 0.
      7.24637695e-03 0. 0. 0. 0. 0. 0. 0. 7.24637695e-03 0. 0. 0.
      2.89855078e-02 0. 0. 0. 0. 0. 0. 0. 0. 7.24637695e-03 0.
      7.24637695e-03 0. 0. 0. 0. 0. 0. 0. 0. 0. 0. 0. 0. 0. 0. 0. 0. 0.
      0. 0. 7.24637695e-03 0. 0. 7.24637695e-03 7.24637695e-03 0. 0. 0.
      0. 0. 0. 0. 0. 0. 0. 0. 7.24637695e-03 0. 0. 0. 0. 0.
      7.24637695e-03 0. 0. 0. 0. 0. 0. 7.24637695e-03 0. 0. 0. 0. 0. 0.
      0. 0. 0. 0. 0. 0. 0. 0. 0. 0. 0. 0. 0. 0. 0. 0. 0. 0.
      7.24637695e-03 0. 0. 0. 0. 0. 0. 0. 0. 0. 0. 7.24637695e-03 0.
      7.24637695e-03 0. 0. 0. 0. 0. 0. 0. 0. 0. 0. 0. 0. 0.
      2.17391308e-02 0. 0. 0. 0. 0. 0. 0. 0. 0. 0. 0. 0. 0. 0. 0. 0. 0.
      7.24637695e-03 0. 0. 0. 0. 0. 0. 0. 0. 0. 0. 0. 0. 0. 0. 0. 0. 0.
      7.24637695e-03 0. 0. 0. 0. 0. 0. 0. 0. 0. 7.24637695e-03 0. 0. 0.
      0. 0. 0. 0. 7.24637695e-03 0. 0. 0. 0. 0. 0. 0. 0. 0. 0. 0. 0. 0.
      0. 0. 7.24637695e-03 0. 0. 0. 0. 0. 7.24637695e-03 0.
      7.24637695e-03 0. 0. 0. 0. 0. 0. 0. 0. 0. 0. 7.24637695e-03 0. 0.
      0. 0. 0. 7.24637695e-03 0. 0. 0. 0. 0. 0. 0. 0. 0. 0. 0. 0. 0.
      7.24637695e-03 7.24637695e-03 7.24637695e-03 0. 0. 0. 0. 0. 0. 0.
      0. 7.24637695e-03 0. 0. 0. 1.44927539e-02 0. 0. 0. 0. 0. 0. 0. 0.
      7.24637695e-03 0. 0. 7.24637695e-03 0. 0. 0. 0. 0. 0. 0. 0. 0. 0.
      0. 0. 0. 0. 0. 0. 7.24637695e-03 0. 7.24637695e-03 0. 0. 0. 0.
      7.24637695e-03 0. 0. 0. 0. 0. 0. 0. 0. 0. 0. 0. 0. 7.24637695e-03
      0. 0. 0. 0. 0. 7.24637695e-03 0. 0. 0. 0. 0. 0. 0. 0. 0. 0.
      7.24637695e-03 0. 0. 1.44927539e-02 0. 0. 0. 0. 0. 0. 0. 0. 0. 0.
      0. 0. 0. 0. 7.24637695e-03 0. 7.24637695e-03 7.24637695e-03
      7.24637695e-03 0. 0. 0. 7.24637695e-03 0. 7.24637695e-03 0. 0. 0.
      7.24637695e-03 0. 0. 0. 7.24637695e-03 0. 7.24637695e-03 0. 0. 0.
      0. 0. 0. 0. 0. 0. 0. 0. 0. 0. 0. 0. 0. 0. 7.24637695e-03 0. 0. 0.
      0. 0. 0. 0. 0. 0. 0. 0. 0. 0. 0. 0. 0. 0. 7.24637695e-03 0. 0. 0.
      0. 0. 0. 0. 0. 0. 0. 0. 0. 0. 0. 0. 0. 0. 0. 0. 0. 7.24637695e-03
      0. 0. 0. 0. 7.24637695e-03 0. 0. 7.24637695e-03 0. 0. 0. 0. 0. 0.
      7.24637695e-03 0. 0. 0. 0. 0. 0. 0. 0. 0. 7.24637695e-03 0. 0. 0.
      0. 0. 0. 7.24637695e-03 0. 0. 0. 0. 0. 0. 0. 0. 0. 0. 0. 0. 0. 0.
      0. 0. 0. 0. 0. 0. 0. 0. 0. 0. 0. 0. 0. 0. 0. 0. 0. 0. 0.
      7.24637695e-03 0. 0. 0. 0. 0. 0. 0. 0. 0. 0. 0. 0. 7.24637695e-03
      0. 0. 0. 0. 0. 0. 0. 0. 0. 0. 0. 0. 0. 0. 0. 0. 0. 0. 0. 0. 0. 0.
      0. 0. 0. 0. 0. 7.24637695e-03 0. 0. 0. 0. 0. 0. 0. 0. 0. 0. 0.
      7.24637695e-03 0. 0. 7.24637695e-03 7.24637695e-03 0. 0. 0. 0. 0.
      0. 0. 0. 0. 0. 0. 0. 0. 0. 0. 0. 0. 0. 0. 0. 7.24637695e-03
      7.24637695e-03 0. 0. 0. 0. 7.24637695e-03 0. 0. 0. 0. 0. 0. 0. 0.
      1.44927539e-02 0. 0. 1.44927539e-02 1.44927539e-02 0. 0. 0. 0.
      7.24637695e-03 7.24637695e-03 0. 0. 0. 0. 0. 0. 7.24637695e-03 0.
      0. 0. 0. 0. 0. 0. 0. 0. 0. 0. 0. 0. 0. 0. 0. 7.24637695e-03 0. 0.
      0. 7.24637695e-03 0. 0. 0. 0. 7.24637695e-03 0. 0. 0. 0. 0. 0. 0.
      0. 0. 0. 0. 0. 0. 0. 0. 0. 0. 0. 0. 0. 0. 0. 0. 0. 0. 0. 0.
      7.24637695e-03 0. 0. 1.44927539e-02 0. 0. 0. 0. 0. 0. 0. 0. 0. 0.
      0. 0. 7.24637695e-03 0. 0. 0. 0. 0. 0. 0. 0. 7.24637695e-03 0. 0.
      0. 0. 0. 0. 0. 0. 0. 0. 7.24637695e-03 0. 0. 0. 0. 0. 0.
      7.24637695e-03 0. 0. 0. 0. 0. 0. 0. 0. 0. 0. 0. 0. 1.44927539e-02
      0. 0. 0. 0. 0. 0. 7.24637695e-03 0. 0. 0. 0. 0. 0. 0. 0. 0. 0. 0.
      0. 0. 0. 7.24637695e-03 0. 0. 0. 7.24637695e-03 7.24637695e-03 0.
      0. 0. 0. 0. 0. 0. 0. 0. 0. 0. 0. 0. 0. 0. 0. 7.24637695e-03 0. 0.
      0. 0. 0. 0. 0. 0. 7.24637695e-03 0. 0. 0.</_>
    <_>
      0. 0. 0. 0. 0. 0. 0. 0. 0. 0. 0. 0. 0. 0. 0. 0. 0. 0. 0. 0. 0. 0.
      0. 0. 0. 0. 0. 0. 1.63934417e-02 0. 0. 0. 0. 0. 0. 0. 0. 0. 0. 0.
      0. 0. 0. 0. 0. 0. 1.63934417e-02 0. 0. 0. 0. 0. 0. 0. 0.
      1.63934417e-02 0. 1.63934417e-02 0. 0. 0. 0. 0. 0. 0. 0. 0. 0. 0.
      0. 0. 0. 0. 0. 0. 0. 0. 0. 0. 0. 1.63934417e-02 0. 0. 0. 0. 0. 0.
      0. 0. 0. 0. 0. 0. 0. 0. 0. 0. 0. 0. 0. 0. 0. 0. 0. 0. 0. 0. 0.
      1.63934417e-02 0. 0. 0. 0. 0. 0. 0. 0. 0. 0. 0. 0. 0. 0. 0. 0. 0.
      0. 0. 0. 0. 0. 0. 0. 0. 0. 0. 0. 0. 0. 0. 0. 0. 0. 0. 0.
      1.63934417e-02 0. 0. 0. 0. 0. 0. 0. 0. 0. 0. 0. 0. 0. 0. 0. 0.
      1.63934417e-02 0. 0. 0. 0. 0. 0. 0. 0. 0. 0. 0. 0. 0. 0. 0. 0. 0.
      0. 0. 0. 0. 0. 0. 0. 0. 0. 0. 1.63934417e-02 0. 0. 0. 0. 0. 0. 0.
      0. 1.63934417e-02 0. 0. 0. 0. 0. 0. 0. 0. 1.63934417e-02 0. 0. 0.
      3.27868834e-02 0. 0. 1.63934417e-02 0. 0. 0. 0. 0. 0. 0. 0. 0. 0.
      0. 0. 0. 0. 0. 0. 0. 0. 0. 0. 0. 0. 0. 0. 0. 0. 0. 0. 0. 0. 0. 0.
      0. 0. 0. 0. 0. 0. 0. 0. 0. 0. 0. 0. 0. 0. 1.63934417e-02 0. 0. 0.
      0. 0. 0. 0. 0. 0. 0. 3.27868834e-02 0. 0. 0. 0. 1.63934417e-02 0.
      0. 0. 0. 0. 1.63934417e-02 0. 0. 0. 0. 0. 0. 0. 1.63934417e-02 0.
      0. 0. 0. 0. 0. 1.63934417e-02 0. 0. 0. 0. 0. 0. 1.63934417e-02 0.
      0. 0. 0. 0. 0. 0. 0. 0. 0. 0. 0. 0. 0. 0. 0. 0. 0. 0. 0. 0. 0. 0.
      0. 0. 0. 0. 0. 0. 0. 0. 1.63934417e-02 0. 0. 0. 1.63934417e-02 0.
      0. 0. 0. 0. 0. 0. 0. 0. 0. 0. 0. 0. 0. 0. 0. 0. 0. 0. 0. 0. 0. 0.
      0. 0. 0. 0. 0. 0. 0. 0. 0. 0. 0. 0. 1.63934417e-02 0. 0. 0. 0. 0.
      0. 0. 0. 0. 0. 0. 1.63934417e-02 0. 0. 0. 0. 0. 0. 0.
      1.63934417e-02 0. 0. 0. 0. 0. 0. 0. 0. 0. 0. 0. 0. 0. 0. 0. 0. 0.
      0. 0. 0. 0. 0. 0. 0. 0. 0. 0. 0. 0. 0. 0. 0. 0. 0. 0. 0. 0. 0. 0.
      0. 0. 0. 0. 0. 1.63934417e-02 0. 0. 0. 0. 0. 0. 0. 0. 0.
      1.63934417e-02 0. 0. 0. 1.63934417e-02 0. 0. 0. 0. 0. 0. 0. 0. 0.
      1.63934417e-02 0. 0. 0. 0. 0. 0. 0. 0. 0. 0. 0. 0. 0. 0. 0. 0. 0.
      0. 0. 0. 0. 0. 0. 0. 0. 1.63934417e-02 0. 0. 0. 0. 0. 0. 0. 0. 0.
      0. 0. 0. 0. 0. 0. 0. 0. 0. 0. 0. 0. 0. 0. 0. 0. 0. 0. 0. 0. 0. 0.
      0. 1.63934417e-02 0. 0. 0. 0. 0. 0. 0. 0. 0. 3.27868834e-02 0. 0.
      0. 0. 0. 0. 0. 0. 0. 0. 0. 0. 0. 0. 0. 0. 0. 1.63934417e-02 0. 0.
      0. 1.63934417e-02 0. 0. 0. 0. 0. 0. 0. 0. 0. 0. 0. 0. 0. 0. 0. 0.
      0. 0. 0. 0. 0. 0. 0. 0. 0. 1.63934417e-02 0. 0. 0. 0. 0. 0. 0. 0.
      0. 0. 0. 0. 0. 0. 0. 0. 0. 0. 1.63934417e-02 0. 0. 0. 0. 0. 0. 0.
      0. 0. 0. 0. 0. 0. 0. 0. 0. 0. 1.63934417e-02 0. 0. 0. 0. 0. 0. 0.
      0. 0. 0. 0. 0. 0. 0. 0. 0. 0. 0. 0. 0. 0. 0. 0. 0. 0. 0. 0. 0. 0.
      0. 0. 0. 0. 0. 0. 0. 0. 0. 0. 0. 0. 0. 0. 0. 0. 0. 1.63934417e-02
      0. 0. 0. 0. 0. 0. 0. 0. 1.63934417e-02 0. 0. 0. 0. 0. 0. 0. 0. 0.
      0. 0. 0. 0. 0. 0. 0. 0. 0. 0. 0. 0. 0. 0. 0. 0. 0. 1.63934417e-02
      0. 0. 0. 0. 0. 0. 0. 0. 0. 0. 0. 0. 0. 0. 0. 0. 0. 0. 0. 0. 0. 0.
      0. 0. 0. 0. 1.63934417e-02 1.63934417e-02 0. 0. 0. 0. 0. 0. 0. 0.
      0. 1.63934417e-02 0. 0. 0. 0. 0. 0. 0. 0. 0. 0. 0. 0. 0. 0. 0. 0.
      4.91803251e-02 0. 0. 0. 0. 0. 0. 0. 0. 0. 0. 0. 0. 0. 0. 0. 0. 0.
      0. 0. 0. 0. 0. 0. 0. 0. 0. 0. 1.63934417e-02 0. 0. 0. 0. 0. 0. 0.
      0. 0. 0. 0. 0. 0. 0. 0. 0. 0. 0. 0. 0. 0. 0. 0. 0. 0. 0. 0. 0. 0.
      0. 0. 0. 0. 0. 0. 0. 0. 0. 0. 0. 1.63934417e-02 0. 0. 0. 0. 0. 0.
      0. 1.63934417e-02 0. 0. 0. 0. 0. 0. 0. 0. 0. 0. 0. 1.63934417e-02
      0. 0. 0. 0. 0. 0. 0. 0. 0. 0. 0. 0. 0. 0. 0. 0. 0. 0. 0. 0. 0.
      3.27868834e-02 0. 0. 0. 0. 0. 0. 0. 0. 0. 0. 0. 0. 0. 0.
      1.63934417e-02 0. 1.63934417e-02 0. 0. 0. 0. 0. 0. 0. 0. 0. 0. 0.
      0. 0. 0. 0. 0. 0. 0. 0. 0. 0. 0. 0. 0. 0. 0. 0. 0. 0. 0.
      1.63934417e-02 0. 0. 0. 0. 0. 0. 0. 0. 0. 0. 0. 0. 0. 0. 0. 0. 0.
      0. 0. 0. 0. 0. 0. 0. 0. 0. 0. 0. 0. 0. 0. 0. 0. 0. 1.63934417e-02
      0. 0. 0. 0. 0. 0. 0. 0. 0. 0. 0. 0. 0. 0. 0. 1.63934417e-02 0. 0.
      0. 0. 0. 0. 0. 0. 0. 0. 0. 0. 0. 0. 0. 0. 0. 0. 0. 0. 0. 0. 0.
      1.63934417e-02 0. 0. 0. 0. 0. 0.</_>
    <_>
      1.20481923e-02 0. 0. 0. 0. 0. 0. 0. 0. 0. 0. 0. 0. 0.
      1.20481923e-02 0. 0. 0. 0. 0. 1.20481923e-02 0. 0. 0. 0.
      1.20481923e-02 0. 0. 0. 0. 0. 0. 0. 0. 0. 0. 0. 0. 0. 0. 0. 0. 0.
      0. 0. 0. 0. 0. 0. 0. 0. 0. 0. 0. 0. 0. 0. 0. 1.20481923e-02 0. 0.
      0. 0. 0. 0. 0. 0. 0. 0. 0. 0. 0. 0. 0. 0. 0. 0. 0. 0. 0. 0. 0. 0.
      0. 0. 0. 0. 0. 0. 0. 0. 0. 1.20481923e-02 0. 0. 0. 0. 0. 0. 0. 0.
      0. 1.20481923e-02 1.20481923e-02 0. 0. 0. 0. 0. 0. 0. 0. 0. 0. 0.
      0. 1.20481923e-02 0. 0. 0. 0. 0. 0. 0. 0. 0. 0. 0. 0. 0. 0. 0. 0.
      0. 0. 2.40963846e-02 0. 0. 0. 0. 0. 0. 0. 0. 0. 0. 0. 0. 0. 0. 0.
      1.20481923e-02 0. 0. 0. 0. 0. 0. 0. 0. 0. 0. 0. 0. 0. 0. 0. 0.
      1.20481923e-02 1.20481923e-02 0. 0. 0. 0. 0. 0. 0. 0. 0. 0. 0. 0.
      0. 0. 0. 0. 0. 0. 0. 0. 0. 0. 0. 0. 0. 0. 0. 0. 0. 1.20481923e-02
      0. 0. 0. 0. 0. 0. 0. 0. 1.20481923e-02 1.20481923e-02 0. 0. 0. 0.
      0. 0. 0. 0. 0. 0. 0. 0. 0. 0. 0. 0. 0. 0. 0. 0. 0. 0. 0. 0.
      1.20481923e-02 0. 0. 0. 0. 0. 0. 0. 0. 0. 0. 0. 0. 0. 0. 0. 0. 0.
      0. 0. 0. 0. 0. 0. 0. 0. 0. 0. 0. 0. 0. 0. 0. 0. 0. 0. 0. 0. 0. 0.
      0. 0. 0. 0. 0. 0. 0. 1.20481923e-02 0. 1.20481923e-02 0. 0. 0. 0.
      0. 1.20481923e-02 0. 0. 0. 0. 0. 0. 0. 0. 0. 0. 0. 0. 0. 0. 0.
      1.20481923e-02 0. 0. 0. 2.40963846e-02 0. 0. 0. 0. 0. 0. 0. 0. 0.
      1.20481923e-02 0. 0. 0. 0. 0. 1.20481923e-02 0. 0. 0. 0. 0. 0. 0.
      0. 0. 0. 0. 0. 1.20481923e-02 0. 0. 0. 0. 0. 0. 0. 0. 0. 0. 0. 0.
      0. 0. 0. 0. 0. 0. 1.20481923e-02 0. 1.20481923e-02 0. 0. 0. 0. 0.
      0. 1.20481923e-02 0. 0. 0. 0. 0. 0. 1.20481923e-02 0. 0. 0. 0. 0.
      0. 0. 0. 0. 1.20481923e-02 0. 0. 0. 0. 0. 0. 0. 0. 0. 0. 0. 0. 0.
      0. 0. 0. 0. 0. 0. 0. 0. 0. 0. 0. 0. 0. 0. 0. 0. 0. 0. 0. 0. 0. 0.
      0. 0. 0. 0. 0. 1.20481923e-02 2.40963846e-02 0. 0. 0. 0. 0.
      1.20481923e-02 0. 0. 0. 0. 0. 0. 0. 1.20481923e-02 0. 0. 0. 0.
      1.20481923e-02 0. 0. 0. 0. 0. 0. 0. 0. 0. 0. 0. 0. 0.
      1.20481923e-02 0. 0. 0. 0. 0. 0. 0. 0. 0. 0. 0. 0. 0. 0. 0. 0. 0.
      1.20481923e-02 0. 0. 0. 0. 0. 0. 0. 0. 1.20481923e-02 0. 0. 0.
      1.20481923e-02 0. 0. 0. 0. 0. 0. 0. 0. 0. 0. 0. 0. 0. 0.
      1.20481923e-02 0. 0. 0. 0. 0. 0. 0. 1.20481923e-02 0. 0. 0.
      1.20481923e-02 0. 0. 0. 0. 0. 0. 0. 0. 0. 0. 0. 0. 0. 0. 0. 0. 0.
      0. 0. 0. 0. 0. 0. 0. 0. 0. 0. 0. 0. 0. 1.20481923e-02 0. 0. 0. 0.
      0. 0. 0. 1.20481923e-02 0. 0. 0. 1.20481923e-02 0. 0. 0. 0. 0. 0.
      0. 0. 0. 2.40963846e-02 0. 0. 0. 0. 0. 0. 0. 0. 0. 0. 0. 0. 0. 0.
      0. 0. 0. 0. 0. 0. 0. 0. 0. 0. 0. 0. 0. 0. 0. 0. 0. 0. 0. 0. 0. 0.
      0. 0. 0. 0. 0. 0. 0. 0. 0. 0. 0. 0. 0. 1.20481923e-02 0. 0. 0. 0.
      0. 0. 0. 1.20481923e-02 0. 0. 0. 0. 0. 0. 0. 0. 0. 0. 0. 0. 0. 0.
      0. 0. 0. 0. 0. 0. 0. 0. 0. 0. 0. 0. 0. 0. 0. 0. 0. 0. 0. 0. 0. 0.
      1.20481923e-02 0. 0. 0. 0. 0. 1.20481923e-02 0. 0. 0. 0. 0. 0. 0.
      0. 0. 0. 0. 0. 0. 0. 0. 0. 0. 0. 0. 0. 0. 0. 0. 0. 0. 0. 0. 0. 0.
      0. 0. 0. 1.20481923e-02 0. 0. 0. 0. 0. 0. 0. 1.20481923e-02 0. 0.
      0. 0. 0. 0. 0. 0. 0. 0. 0. 0. 0. 1.20481923e-02 0. 0. 0.
      2.40963846e-02 0. 0. 0. 0. 1.20481923e-02 0. 0. 0. 0. 0. 0. 0. 0.
      0. 1.20481923e-02 0. 0. 0. 0. 0. 0. 1.20481923e-02 0. 0. 0. 0. 0.
      0. 0. 0. 0. 0. 0. 0. 0. 0. 0. 0. 0. 0. 0. 1.20481923e-02 0. 0. 0.
      0. 0. 0. 0. 0. 0. 0. 0. 0. 0. 0. 0. 0. 0. 1.20481923e-02 0. 0. 0.
      0. 0. 0. 0. 0. 0. 0. 0. 0. 0. 0. 0. 0. 0. 0. 0. 0. 0. 0. 0. 0. 0.
      0. 0. 0. 0. 0. 0. 0. 0. 0. 0. 0. 0. 0. 0. 0. 0. 0. 0. 0. 0. 0. 0.
      0. 0. 0. 2.40963846e-02 0. 0. 0. 0. 0. 0. 0. 1.20481923e-02 0. 0.
      0. 0. 0. 0. 0. 0. 0. 0. 0. 0. 0. 1.20481923e-02 0. 0.
      1.20481923e-02 0. 0. 0. 0. 0. 1.20481923e-02 0. 0. 0.
      1.20481923e-02 0. 0. 0. 0. 0. 0. 0. 1.20481923e-02 0. 0. 0. 0. 0.
      0. 0. 0. 1.20481923e-02 0. 0. 1.20481923e-02 0. 0. 0. 0. 0. 0. 0.
      0. 0. 0. 0. 0. 1.20481923e-02 0. 0. 0. 0. 0. 0. 0. 0. 0. 0. 0.
      1.20481923e-02 0. 0. 0. 0. 0. 0. 0. 0. 0. 0. 0. 0. 0. 0. 0. 0. 0.
      1.20481923e-02 0. 0. 1.20481923e-02 0. 0. 0. 0. 0. 0. 0. 0. 0. 0.
      1.20481923e-02 0. 0. 0. 0. 0. 0. 0. 0. 0. 0. 0. 0. 0. 0.
      1.20481923e-02 0. 0. 0. 0. 0. 0. 0. 0. 0. 0. 0. 0. 0. 0. 0. 0. 0.
      0. 0. 0. 0. 0. 0. 0. 1.20481923e-02 0. 1.20481923e-02 0. 0.
      1.20481923e-02 0. 0.</_>
    <_>
      0. 0. 0. 1.75438598e-02 0. 0. 0. 0. 0. 0. 0. 0. 0. 0. 0. 0. 0. 0.
      0. 0. 0. 0. 0. 0. 0. 0. 0. 0. 1.75438598e-02 0. 0. 0.
      1.75438598e-02 0. 0. 0. 0. 0. 0. 0. 0. 0. 0. 0. 0. 0. 0. 0. 0. 0.
      0. 1.75438598e-02 0. 0. 0. 0. 0. 0. 0. 0. 0. 0. 0. 0. 0. 0. 0. 0.
      0. 0. 0. 0. 0. 0. 0. 0. 0. 0. 0. 0. 0. 0. 0. 0. 0. 0. 0. 0. 0. 0.
      0. 0. 0. 0. 0. 0. 0. 0. 0. 0. 0. 0. 0. 1.75438598e-02 0. 0. 0. 0.
      0. 0. 0. 1.75438598e-02 0. 1.75438598e-02 0. 0. 0. 0. 0. 0. 0. 0.
      0. 0. 0. 1.75438598e-02 0. 0. 1.75438598e-02 0. 0. 0. 0. 0. 0. 0.
      0. 0. 0. 0. 0. 0. 1.75438598e-02 0. 0. 0. 0. 0. 0. 0. 0. 0. 0. 0.
      0. 0. 0. 0. 0. 0. 0. 0. 0. 0. 0. 0. 0. 0. 0. 0. 0. 0. 0. 0. 0. 0.
      0. 1.75438598e-02 0. 0. 0. 1.75438598e-02 0. 0. 0. 0. 0. 0. 0. 0.
      0. 0. 0. 0. 0. 0. 0. 0. 0. 0. 0. 0. 0. 0. 0. 0. 0. 1.75438598e-02
      0. 0. 0. 0. 0. 0. 0. 0. 0. 0. 0. 0. 0. 0. 0. 0. 1.75438598e-02 0.
      0. 0. 0. 0. 0. 0. 0. 0. 0. 0. 0. 0. 0. 0. 0. 0. 0. 0. 0. 0. 0. 0.
      0. 0. 0. 0. 0. 0. 0. 0. 0. 0. 0. 1.75438598e-02 0. 1.75438598e-02
      0. 0. 0. 0. 0. 0. 0. 0. 0. 0. 0. 0. 0. 1.75438598e-02 0. 0. 0. 0.
      0. 0. 0. 0. 0. 0. 0. 0. 0. 0. 0. 0. 0. 0. 0. 0. 0. 0. 0. 0. 0. 0.
      0. 0. 0. 0. 0. 0. 0. 0. 0. 0. 0. 0. 0. 0. 0. 0. 0. 0. 0. 0. 0. 0.
      0. 0. 0. 0. 0. 0. 0. 0. 0. 0. 0. 0. 1.75438598e-02 0. 0. 0. 0. 0.
      0. 0. 0. 0. 0. 0. 0. 0. 0. 0. 0. 0. 0. 1.75438598e-02
      1.75438598e-02 0. 0. 0. 0. 0. 0. 0. 0. 0. 0. 0. 0. 0. 0. 0. 0. 0.
      0. 0. 1.75438598e-02 0. 0. 0. 0. 0. 0. 0. 0. 0. 0. 0. 0. 0. 0. 0.
      0. 0. 0. 0. 0. 0. 0. 0. 0. 0. 0. 0. 0. 0. 0. 0. 0. 0. 0. 0. 0. 0.
      0. 0. 0. 0. 0. 0. 0. 0. 0. 0. 0. 0. 0. 0. 0. 0. 0. 0. 0. 0. 0. 0.
      0. 0. 0. 0. 0. 0. 0. 0. 0. 0. 0. 0. 0. 0. 0. 0. 0. 0. 0. 0. 0. 0.
      0. 0. 0. 0. 1.75438598e-02 0. 0. 0. 0. 0. 0. 0. 0. 0. 0. 0. 0. 0.
      0. 0. 1.75438598e-02 0. 0. 0. 0. 0. 0. 0. 0. 0. 0. 0. 0. 0.
      1.75438598e-02 0. 0. 0. 0. 1.75438598e-02 0. 0. 0. 0. 0. 0. 0. 0.
      0. 0. 0. 1.75438598e-02 0. 0. 0. 0. 0. 0. 0. 0. 0. 0. 0. 0. 0. 0.
      1.75438598e-02 0. 0. 0. 0. 0. 0. 0. 0. 0. 0. 0. 0. 0. 0. 0.
      1.75438598e-02 0. 0. 0. 0. 0. 1.75438598e-02 0. 0. 0. 0. 0. 0. 0.
      0. 0. 1.75438598e-02 0. 0. 0. 0. 0. 0. 0. 0. 0. 0. 0. 0. 0. 0. 0.
      0. 0. 0. 0. 0. 0. 0. 0. 0. 0. 0. 0. 1.75438598e-02 0. 0. 0. 0. 0.
      0. 0. 0. 0. 0. 0. 0. 0. 0. 0. 0. 0. 0. 0. 0. 3.50877196e-02 0. 0.
      0. 0. 0. 0. 1.75438598e-02 0. 0. 0. 0. 0. 0. 0. 0. 0. 0. 0. 0. 0.
      0. 0. 0. 0. 0. 0. 0. 0. 0. 0. 0. 0. 0. 0. 0. 0. 0. 0. 0. 0. 0. 0.
      0. 0. 0. 0. 1.75438598e-02 0. 0. 0. 0. 0. 0. 1.75438598e-02 0. 0.
      0. 0. 0. 0. 0. 0. 0. 0. 0. 0. 0. 0. 0. 0. 0. 0. 0. 0. 0. 0. 0. 0.
      0. 0. 0. 0. 0. 1.75438598e-02 1.75438598e-02 0. 0. 0. 0. 0. 0.
      1.75438598e-02 0. 0. 0. 0. 0. 0. 0. 0. 0. 0. 0. 0. 0. 0. 0. 0. 0.
      0. 1.75438598e-02 0. 0. 0. 0. 0. 0. 0. 0. 0. 0. 0. 0.
      1.75438598e-02 0. 1.75438598e-02 0. 0. 0. 0. 0. 0. 0. 0. 0. 0. 0.
      0. 0. 0. 0. 0. 0. 0. 0. 0. 0. 0. 0. 0. 0. 0. 0. 0. 0. 0. 0. 0. 0.
      0. 0. 0. 0. 0. 0. 0. 0. 0. 1.75438598e-02 0. 0. 0. 0. 0. 0. 0. 0.
      0. 0. 0. 0. 0. 0. 0. 0. 0. 0. 0. 0. 0. 0. 0. 0. 0. 1.75438598e-02
      0. 0. 0. 0. 0. 0. 0. 0. 0. 0. 0. 0. 0. 0. 1.75438598e-02 0. 0. 0.
      1.75438598e-02 0. 0. 0. 0. 0. 0. 1.75438598e-02 0. 0. 0. 0.
      1.75438598e-02 0. 0. 0. 0. 0. 0. 0. 0. 0. 0. 0. 0. 0. 0. 0. 0. 0.
      0. 0. 0. 0. 0. 0. 0. 0. 0. 0. 1.75438598e-02 0. 0. 1.75438598e-02
      0. 0. 0. 0. 0. 0. 0. 0. 0. 0. 0. 0. 1.75438598e-02 0. 0. 0. 0. 0.
      0. 0. 0. 0. 0. 0. 0. 0. 0. 0. 0. 0. 0. 0. 0. 1.75438598e-02 0. 0.
      0. 1.75438598e-02 0. 0. 0. 1.75438598e-02 0. 0. 0. 1.75438598e-02
      0. 0. 0. 0. 0. 0. 0. 0. 0. 0. 0. 0. 0. 0. 0. 0. 0. 0. 0. 0. 0. 0.
      0. 0. 0. 0. 0. 0. 0. 1.75438598e-02 0. 0. 0. 0. 0. 0. 0. 0. 0. 0.
      0. 0. 0. 0. 0. 0. 0. 0. 0. 0. 0. 0. 0. 0. 0. 0. 0. 0. 0. 0. 0. 0.
      0. 0. 0. 1.75438598e-02 0. 0. 0. 0. 0. 0. 0. 0. 0. 0. 0. 0. 0. 0.
      0. 0. 0. 0. 0. 0. 0. 0. 0. 0. 0.</_>
    <_>
      0. 7.81250000e-03 0. 0. 0. 0. 0. 0. 0. 0. 0. 0. 1.56250000e-02 0.
      0. 0. 0. 7.81250000e-03 0. 0. 0. 0. 0. 7.81250000e-03 0. 0. 0. 0.
      7.81250000e-03 0. 0. 0. 0. 0. 0. 0. 0. 0. 0. 7.81250000e-03 0. 0.
      0. 0. 0. 0. 0. 0. 0. 0. 0. 7.81250000e-03 7.81250000e-03 0. 0. 0.
      0. 7.81250000e-03 7.81250000e-03 0. 0. 0. 0. 0. 0. 0. 0. 0. 0. 0.
      0. 0. 0. 0. 0. 0. 0. 0. 0. 0. 0. 0. 0. 0. 0. 7.81250000e-03 0. 0.
      0. 0. 0. 0. 0. 0. 0. 7.81250000e-03 7.81250000e-03 0. 0. 0. 0. 0.
      0. 0. 0. 0. 0. 0. 0. 0. 0. 0. 0. 7.81250000e-03 7.81250000e-03 0.
      0. 0. 0. 7.81250000e-03 0. 0. 0. 0. 0. 0. 0. 0. 0. 0. 0. 0. 0. 0.
      0. 0. 0. 0. 0. 0. 0. 0. 0. 0. 0. 0. 0. 0. 0. 0. 0. 7.81250000e-03
      0. 0. 0. 7.81250000e-03 0. 0. 0. 0. 7.81250000e-03 0. 0. 0. 0. 0.
      7.81250000e-03 0. 0. 0. 7.81250000e-03 0. 0. 0. 0. 0.
      7.81250000e-03 0. 0. 0. 0. 7.81250000e-03 0. 0. 0. 0. 0. 0. 0. 0.
      0. 0. 0. 0. 0. 0. 7.81250000e-03 0. 0. 0. 7.81250000e-03 0. 0. 0.
      7.81250000e-03 0. 7.81250000e-03 0. 0. 7.81250000e-03 0. 0.
      7.81250000e-03 0. 0. 0. 7.81250000e-03 0. 0. 0. 0. 0. 0. 0. 0. 0.
      0. 0. 0. 0. 0. 0. 0. 0. 0. 0. 0. 0. 0. 0. 0. 1.56250000e-02 0. 0.
      0. 7.81250000e-03 0. 0. 0. 0. 0. 0. 0. 0. 7.81250000e-03 0. 0.
      7.81250000e-03 0. 0. 0. 0. 0. 0. 0. 0. 0. 7.81250000e-03 0. 0. 0.
      0. 0. 0. 0. 0. 0. 0. 0. 0. 0. 0. 7.81250000e-03 7.81250000e-03 0.
      0. 0. 0. 0. 0. 0. 0. 0. 0. 0. 0. 0. 0. 0. 0. 7.81250000e-03
      7.81250000e-03 0. 0. 0. 0. 0. 0. 7.81250000e-03 0. 0. 0. 0. 0. 0.
      0. 0. 0. 0. 0. 0. 7.81250000e-03 0. 0. 0. 0. 0. 0. 0. 0. 0. 0. 0.
      0. 0. 0. 0. 0. 0. 0. 0. 7.81250000e-03 0. 0. 0. 0. 0. 0. 0. 0. 0.
      0. 7.81250000e-03 0. 0. 0. 0. 0. 0. 0. 0. 0. 0. 0. 0. 0.
      7.81250000e-03 0. 0. 0. 0. 0. 0. 0. 0. 0. 0. 0. 0. 0.
      7.81250000e-03 0. 0. 0. 0. 0. 0. 0. 0. 0. 0. 0. 0. 0. 0. 0. 0. 0.
      0. 0. 0. 0. 1.56250000e-02 0. 0. 0. 0. 0. 0. 0. 0. 0. 0. 0. 0. 0.
      0. 0. 7.81250000e-03 0. 0. 0. 0. 0. 0. 0. 0. 0. 0. 0. 0. 0. 0. 0.
      0. 0. 1.56250000e-02 7.81250000e-03 0. 1.56250000e-02 0. 0. 0. 0.
      1.56250000e-02 0. 0. 0. 0. 0. 0. 0. 0. 0. 0. 0. 0. 0. 0. 0. 0. 0.
      0. 0. 0. 0. 0. 0. 0. 7.81250000e-03 7.81250000e-03 0. 0. 0. 0. 0.
      0. 0. 0. 0. 0. 0. 0. 0. 0. 1.56250000e-02 0. 0. 0. 0. 0. 0. 0. 0.
      0. 0. 0. 0. 0. 0. 0. 0. 0. 0. 0. 0. 0. 0. 0. 0. 0. 0. 0. 0. 0.
      7.81250000e-03 0. 0. 0. 0. 0. 0. 0. 0. 0. 7.81250000e-03 0. 0. 0.
      0. 0. 0. 7.81250000e-03 0. 0. 0. 0. 0. 0. 0. 0. 7.81250000e-03 0.
      0. 0. 0. 7.81250000e-03 0. 0. 0. 0. 0. 0. 0. 0. 0. 0. 0. 0. 0. 0.
      7.81250000e-03 0. 0. 0. 0. 1.56250000e-02 0. 7.81250000e-03 0. 0.
      0. 0. 0. 0. 7.81250000e-03 0. 0. 0. 0. 0. 0. 1.56250000e-02 0.
      7.81250000e-03 0. 0. 0. 0. 7.81250000e-03 7.81250000e-03 0. 0.
      7.81250000e-03 0. 0. 0. 0. 0. 0. 0. 0. 0. 0. 0. 0. 0. 0. 0. 0. 0.
      0. 0. 0. 0. 0. 0. 0. 0. 0. 7.81250000e-03 0. 0. 0. 0. 0. 0. 0. 0.
      0. 7.81250000e-03 7.81250000e-03 0. 0. 0. 0. 0. 0. 0. 0. 0. 0. 0.
      1.56250000e-02 0. 0. 0. 0. 0. 0. 0. 7.81250000e-03 0. 0. 0. 0. 0.
      7.81250000e-03 0. 0. 0. 0. 0. 0. 0. 0. 0. 0. 0. 0. 0. 0.
      7.81250000e-03 7.81250000e-03 0. 0. 0. 7.81250000e-03 0.
      7.81250000e-03 0. 0. 0. 0. 0. 0. 7.81250000e-03 0. 7.81250000e-03
      0. 0. 0. 0. 0. 0. 0. 0. 0. 0. 7.81250000e-03 0. 0. 0. 0. 0. 0. 0.
      0. 1.56250000e-02 0. 0. 0. 7.81250000e-03 0. 0. 0. 0. 0. 0. 0. 0.
      0. 0. 0. 0. 0. 0. 0. 7.81250000e-03 0. 0. 0. 0. 0. 0. 0. 0. 0. 0.
      0. 0. 0. 0. 0. 0. 0. 0. 0. 0. 0. 0. 0. 0. 0. 0. 7.81250000e-03 0.
      0. 0. 0. 0. 0. 0. 0. 0. 0. 0. 0. 0. 7.81250000e-03 0. 0. 0. 0. 0.
      0. 0. 0. 0. 1.56250000e-02 0. 0. 0. 0. 0. 0. 0. 7.81250000e-03 0.
      0. 0. 0. 0. 0. 7.81250000e-03 7.81250000e-03 0. 0. 0. 0. 0. 0. 0.
      0. 0. 7.81250000e-03 0. 0. 0. 0. 0. 0. 0. 0. 0. 0. 0. 0.
      7.81250000e-03 0. 0. 0. 0. 0. 0. 0. 0. 0. 0. 0. 7.81250000e-03 0.
      0. 0. 0. 0. 0. 0. 0. 0. 0. 0. 0. 7.81250000e-03 0. 0. 0. 0.
      7.81250000e-03 0. 0. 0. 0. 0. 0. 0. 0. 0. 0. 0. 7.81250000e-03 0.
      0. 0. 7.81250000e-03 0. 0. 0. 0. 0. 7.81250000e-03 0. 0. 0. 0. 0.
      0. 0. 0. 0. 0. 0. 0. 7.81250000e-03 0. 0. 0. 0. 7.81250000e-03 0.
      0. 7.81250000e-03 0. 0. 0. 0. 0. 0. 0. 0. 0. 0. 1.56250000e-02
      7.81250000e-03 0. 0. 7.81250000e-03 0. 0. 0. 0. 0. 0. 0. 0. 0. 0.
      0. 0. 0. 0. 0. 0. 7.81250000e-03 7.81250000e-03 0. 0. 0. 0. 0. 0.
      0. 0. 0. 7.81250000e-03 0. 0. 0. 0. 7.81250000e-03 0.
      7.81250000e-03 0. 0. 7.81250000e-03 0. 0. 7.81250000e-03 0. 0. 0.
      0. 0. 0. 0. 0. 0. 0. 0. 0. 0. 0. 0. 0. 0. 0. 0. 0. 0. 0. 0. 0. 0.
      0. 0. 0. 0. 0. 0. 7.81250000e-03 0. 0. 0. 0. 7.81250000e-03 0. 0.
      0. 7.81250000e-03 0. 0. 0. 0. 0. 0. 0. 7.81250000e-03 0. 0. 0.</_>
    <_>
      0. 0. 0. 0. 0. 0. 0. 0. 0. 0. 0. 0. 0. 0. 0. 0. 0. 0. 0. 0. 0. 0.
      0. 0. 0. 0. 0. 0. 0. 0. 0. 0. 0. 0. 0. 0. 0. 0. 0. 0. 0. 0. 0. 0.
      0. 0. 0. 0. 0. 0. 0. 0. 0. 0. 0. 0. 0. 0. 0. 0. 0. 0. 0. 0. 0. 0.
      0. 0. 0. 0. 0. 0. 0. 0. 0. 0. 0. 0. 0. 0. 0. 0. 0. 0. 0. 0. 0. 0.
      0. 0. 0. 0. 0. 0. 0. 0. 0. 0. 0. 0. 0. 0. 0. 0. 0. 0. 0. 0. 0. 0.
      0. 0. 0. 0. 0. 0. 1.25000000e-01 0. 0. 0. 0. 0. 0. 0. 0. 0. 0. 0.
      0. 0. 0. 0. 0. 0. 0. 0. 0. 0. 0. 0. 0. 0. 0. 0. 0. 0. 0. 0. 0. 0.
      0. 0. 0. 0. 0. 0. 0. 0. 0. 0. 0. 0. 0. 0. 0. 0. 0. 0. 0. 0. 0. 0.
      0. 0. 0. 0. 0. 0. 0. 0. 0. 0. 0. 0. 0. 0. 0. 0. 0. 0. 0. 0. 0. 0.
      0. 0. 0. 0. 0. 0. 0. 0. 0. 0. 0. 0. 0. 0. 0. 0. 0. 0. 0. 0. 0. 0.
      0. 0. 0. 0. 0. 0. 0. 0. 0. 0. 0. 0. 0. 0. 0. 0. 0. 0. 0. 0. 0. 0.
      0. 0. 0. 0. 0. 0. 0. 1.25000000e-01 0. 0. 0. 0. 0. 0. 0. 0. 0. 0.
      0. 0. 0. 0. 0. 0. 0. 0. 0. 0. 0. 0. 0. 0. 0. 0. 0. 0. 0. 0. 0. 0.
      0. 0. 0. 0. 0. 0. 0. 0. 0. 0. 0. 0. 0. 0. 0. 0. 0. 0. 0. 0. 0. 0.
      0. 0. 0. 0. 0. 0. 0. 0. 0. 0. 0. 0. 0. 0. 0. 0. 0. 0. 0. 0. 0. 0.
      0. 0. 0. 0. 0. 0. 0. 0. 0. 0. 0. 0. 0. 0. 0. 0. 0. 0.
      1.25000000e-01 0. 0. 0. 0. 0. 0. 0. 0. 0. 0. 0. 0. 0. 0. 0. 0. 0.
      0. 0. 0. 0. 0. 0. 0. 0. 0. 0. 0. 0. 0. 0. 0. 0. 0. 0. 0. 0. 0. 0.
      0. 0. 0. 0. 0. 0. 0. 0. 0. 0. 0. 0. 0. 0. 0. 0. 0. 0. 0. 0. 0. 0.
      0. 0. 0. 0. 0. 0. 0. 0. 0. 0. 0. 0. 0. 0. 0. 0. 0. 0. 0. 0. 0. 0.
      0. 0. 0. 0. 0. 0. 0. 0. 0. 0. 0. 0. 0. 0. 0. 0. 0. 0. 0. 0. 0. 0.
      0. 0. 0. 0. 0. 0. 0. 0. 0. 0. 0. 0. 1.25000000e-01 0. 0. 0. 0. 0.
      0. 0. 0. 0. 0. 0. 0. 0. 0. 0. 0. 0. 0. 0. 0. 0. 0. 0. 0. 0. 0. 0.
      0. 0. 0. 0. 0. 0. 0. 0. 0. 0. 0. 0. 0. 0. 0. 0. 0. 0. 0. 0. 0. 0.
      0. 0. 0. 0. 0. 0. 0. 0. 0. 0. 0. 0. 0. 0. 0. 0. 0. 0. 0. 0. 0. 0.
      0. 0. 0. 0. 0. 0. 0. 0. 0. 0. 0. 0. 0. 0. 0. 0. 0. 0. 0. 0. 0. 0.
      0. 0. 0. 0. 0. 0. 0. 0. 0. 0. 0. 0. 0. 0. 0. 0. 0. 0. 0. 0. 0. 0.
      0. 0. 0. 0. 0. 0. 0. 0. 0. 0. 0. 0. 0. 0. 0. 0. 0. 0. 0. 0. 0. 0.
      0. 0. 0. 0. 0. 0. 0. 0. 0. 0. 0. 0. 0. 0. 0. 0. 0. 0. 0. 0. 0. 0.
      0. 0. 0. 0. 0. 0. 0. 0. 0. 0. 2.50000000e-01 0. 0. 0. 0. 0. 0. 0.
      0. 0. 0. 0. 0. 0. 0. 0. 0. 0. 0. 0. 0. 0. 0. 1.25000000e-01 0. 0.
      0. 0. 0. 0. 0. 0. 0. 0. 0. 0. 0. 0. 0. 0. 0. 0. 0. 0. 0. 0. 0. 0.
      0. 0. 0. 0. 0. 0. 1.25000000e-01 0. 0. 0. 0. 0. 0. 0. 0. 0. 0. 0.
      0. 0. 0. 0. 0. 0. 0. 0. 0. 0. 0. 0. 0. 0. 0. 0. 0. 0. 0. 0. 0. 0.
      0. 0. 0. 0. 0. 0. 0. 0. 0. 0. 0. 0. 0. 0. 0. 0. 0. 0. 0. 0. 0. 0.
      0. 0. 0. 0. 0. 0. 0. 0. 0. 0. 0. 0. 0. 0. 0. 0. 0. 0. 0. 0. 0. 0.
      0. 0. 0. 0. 0. 0. 0. 0. 0. 0. 0. 0. 0. 0. 0. 0. 0. 0. 0. 0. 0. 0.
      0. 0. 0. 0. 0. 0. 0. 0. 0. 0. 0. 0. 0. 0. 0. 0. 0. 0. 0. 0. 0. 0.
      0. 0. 0. 0. 0. 0. 0. 0. 0. 0. 0. 0. 0. 0. 0. 0. 0. 0. 0. 0. 0. 0.
      0. 0. 0. 0. 0. 0. 0. 0. 0. 0. 0. 0. 0. 0. 0. 0. 0. 0. 0. 0. 0. 0.
      0. 0. 0. 0. 0. 0. 0. 0. 0. 0. 0. 0. 0. 0. 0. 0. 0. 0. 0. 0. 0. 0.
      0. 0. 0. 0. 0. 0. 0. 0. 0. 0. 0. 0. 0. 0. 0. 0. 0. 0. 0. 0. 0. 0.
      0. 0. 0. 0. 0. 0. 0. 0. 0. 0. 0. 0. 0. 0. 0. 0. 0. 0. 0. 0. 0. 0.
      0. 0. 0. 0. 0. 0. 0. 0. 0. 0. 0. 0. 0. 0. 0. 0. 0. 0. 0. 0. 0. 0.
      0. 0. 0. 0. 0. 0. 0. 0. 0. 0. 0. 0. 0. 0. 0. 0. 0. 0. 0. 0. 0. 0.
      0. 0. 0. 0. 0. 0. 0. 0. 0. 0. 0. 0. 0. 0. 0. 0. 0. 0. 0. 0. 0. 0.
      0. 0. 0. 0. 0. 0. 0. 0. 0. 0. 0. 0. 0. 0. 0. 0. 0. 0. 0. 0.</_>
    <_>
      0. 0. 0. 0. 0. 0. 0. 0. 0. 0. 0. 0. 0. 0. 0. 0. 1.58730168e-02
      1.58730168e-02 0. 0. 0. 0. 0. 3.17460336e-02 0. 0. 0. 0. 0. 0. 0.
      0. 0. 0. 0. 0. 0. 0. 0. 0. 0. 0. 0. 0. 0. 3.17460336e-02 0. 0. 0.
      0. 0. 1.58730168e-02 0. 0. 0. 0. 0. 0. 0. 0. 0. 0. 0. 0. 0. 0. 0.
      0. 0. 0. 0. 0. 1.58730168e-02 0. 0. 0. 0. 0. 0. 0. 0. 0. 0.
      1.58730168e-02 0. 0. 0. 0. 0. 0. 0. 0. 1.58730168e-02 0. 0.
      1.58730168e-02 0. 0. 0. 0. 0. 3.17460336e-02 0. 0. 0. 0. 0. 0. 0.
      0. 0. 0. 0. 0. 0. 0. 0. 0. 4.76190522e-02 0. 0. 1.58730168e-02 0.
      1.58730168e-02 0. 0. 0. 0. 0. 0. 0. 0. 0. 0. 0. 0. 0. 0. 0. 0. 0.
      0. 0. 0. 0. 0. 1.58730168e-02 0. 0. 0. 0. 0. 0. 0. 0. 0. 0. 0. 0.
      1.58730168e-02 0. 0. 1.58730168e-02 0. 0. 0. 0. 0. 0. 0. 0. 0. 0.
      0. 0. 0. 0. 0. 0. 0. 0. 0. 0. 0. 0. 0. 0. 0. 0. 0. 0. 0. 0. 0. 0.
      0. 0. 0. 0. 0. 0. 0. 0. 0. 0. 0. 0. 0. 0. 0. 0. 0. 0. 0. 0. 0. 0.
      0. 0. 0. 0. 0. 0. 0. 0. 0. 0. 0. 0. 0. 0. 0. 0. 0. 0. 0. 0. 0. 0.
      0. 0. 0. 0. 0. 0. 0. 0. 0. 0. 0. 0. 0. 0. 0. 0. 0. 0. 0. 0. 0. 0.
      0. 0. 0. 0. 0. 0. 0. 0. 0. 0. 0. 0. 0. 0. 0. 0. 0. 0. 0. 0. 0. 0.
      1.58730168e-02 0. 0. 0. 0. 0. 0. 0. 0. 0. 0. 0. 0. 0. 0. 0. 0. 0.
      0. 0. 0. 0. 0. 0. 0. 0. 0. 0. 0. 0. 3.17460336e-02 1.58730168e-02
      0. 0. 0. 0. 0. 1.58730168e-02 0. 0. 1.58730168e-02 0. 0. 0. 0. 0.
      0. 0. 0. 0. 0. 0. 0. 0. 0. 0. 0. 0. 0. 0. 0. 0. 0. 1.58730168e-02
      0. 0. 0. 0. 0. 0. 0. 0. 0. 0. 1.58730168e-02 0. 0. 0. 0.
      1.58730168e-02 0. 0. 0. 0. 0. 0. 0. 0. 1.58730168e-02 0. 0. 0. 0.
      0. 0. 0. 0. 0. 0. 0. 0. 0. 0. 0. 0. 0. 0. 0. 0. 0. 0. 0. 0. 0.
      1.58730168e-02 0. 0. 0. 0. 0. 0. 0. 0. 0. 0. 0. 0. 0. 0. 0. 0. 0.
      0. 0. 0. 0. 0. 0. 0. 0. 0. 1.58730168e-02 0. 0. 0. 0. 0. 0. 0. 0.
      0. 0. 0. 0. 0. 0. 0. 0. 0. 0. 0. 0. 0. 0. 0. 0. 0. 0. 0. 0. 0. 0.
      0. 0. 0. 0. 0. 0. 0. 0. 0. 0. 0. 0. 0. 0. 0. 0. 0. 0. 0. 0. 0. 0.
      0. 1.58730168e-02 0. 0. 0. 0. 0. 0. 0. 0. 0. 0. 0. 0. 0. 0. 0. 0.
      0. 0. 0. 0. 0. 0. 0. 0. 0. 0. 0. 0. 0. 0. 0. 0. 0. 0. 0. 0. 0. 0.
      0. 0. 0. 0. 0. 0. 0. 0. 3.17460336e-02 0. 0. 0. 0. 0. 0. 0. 0. 0.
      0. 0. 0. 0. 0. 0. 0. 0. 0. 0. 0. 0. 0. 0. 0. 0. 0. 0.
      1.58730168e-02 0. 0. 0. 0. 0. 0. 0. 0. 0. 0. 0. 0. 0. 0. 0. 0. 0.
      0. 0. 0. 0. 0. 0. 0. 0. 0. 0. 0. 0. 0. 0. 0. 0. 0. 0. 0. 0. 0. 0.
      0. 0. 0. 0. 0. 0. 0. 0. 0. 0. 0. 0. 0. 0. 0. 1.58730168e-02 0. 0.
      0. 0. 0. 0. 0. 0. 0. 1.58730168e-02 0. 0. 0. 0. 0. 0. 0. 0. 0.
      1.58730168e-02 1.58730168e-02 0. 0. 0. 0. 0. 0. 0. 0.
      1.58730168e-02 0. 0. 0. 0. 0. 0. 0. 0. 0. 0. 0. 0. 0. 0. 0.
      1.58730168e-02 0. 0. 0. 0. 0. 0. 0. 0. 0. 0. 0. 0. 0. 0. 0. 0. 0.
      0. 0. 0. 0. 0. 0. 0. 0. 0. 0. 3.17460336e-02 0. 0. 0. 0. 0. 0. 0.
      0. 0. 0. 0. 0. 0. 0. 0. 0. 0. 0. 0. 0. 0. 3.17460336e-02 0. 0. 0.
      0. 0. 0. 0. 0. 0. 0. 0. 0. 0. 0. 0. 0. 0. 0. 0. 0. 0. 0. 0. 0. 0.
      0. 0. 0. 1.58730168e-02 0. 0. 0. 0. 0. 0. 0. 0. 0. 0. 0. 0. 0. 0.
      0. 0. 0. 0. 0. 0. 0. 0. 0. 0. 0. 0. 0. 0. 0. 0. 0. 0. 0. 0. 0. 0.
      0. 0. 0. 0. 0. 0. 0. 0. 0. 0. 3.17460336e-02 0. 0. 0. 0.
      1.58730168e-02 0. 0. 0. 0. 0. 0. 0. 0. 0. 0. 0. 0. 0. 0.
      1.58730168e-02 0. 3.17460336e-02 0. 0. 0. 0. 0. 0. 0. 0. 0. 0. 0.
      0. 0. 0. 0. 0. 1.58730168e-02 0. 0. 0. 0. 0. 0. 0. 0. 0. 0. 0. 0.
      0. 0. 1.58730168e-02 0. 0. 0. 0. 0. 0. 0. 0. 0. 0. 0. 0. 0. 0. 0.
      0. 0. 0. 0. 0. 0. 0. 0. 0. 0. 0. 0. 0. 0. 0. 0. 0. 0. 0. 0. 0. 0.
      0. 0. 0. 1.58730168e-02 0. 0. 0. 0. 1.58730168e-02 0. 0. 0. 0. 0.
      0. 0. 0. 0. 0. 0. 0. 0. 0. 0. 0. 0. 0. 0. 0. 1.58730168e-02 0. 0.
      0. 0. 0. 0. 0. 0. 0. 0. 0. 0. 0. 0. 0. 0. 0. 0. 0. 0. 0. 0. 0. 0.
      0. 0. 0. 0. 0. 1.58730168e-02 0. 0. 0. 0. 0. 0. 0. 0. 0. 0.
      1.58730168e-02 0. 0. 0. 0. 0. 0. 0. 0. 0. 0. 0. 0. 0. 0. 0. 0. 0.
      0. 0. 0. 0. 0. 0. 0. 0. 0. 0. 0. 0. 3.17460336e-02 0. 0. 0. 0. 0.
      0. 0. 0. 0. 0. 0. 0. 0. 0. 0. 0. 0. 0. 0. 0. 0. 0. 0. 0. 0. 0. 0.</_>
    <_>
      0. 0. 0. 0. 0. 0. 0. 0. 0. 0. 0. 0. 0. 0. 0. 0. 0. 0. 0. 0. 0. 0.
      0. 2.22222228e-02 0. 0. 0. 0. 0. 0. 0. 0. 2.22222228e-02 0. 0. 0.
      0. 0. 0. 0. 0. 0. 0. 0. 0. 0. 0. 0. 0. 0. 0. 0. 0. 0. 0. 0. 0. 0.
      0. 0. 0. 0. 0. 0. 0. 0. 0. 0. 0. 0. 0. 0. 0. 0. 0. 0. 0. 0. 0. 0.
      0. 0. 0. 4.44444455e-02 0. 0. 0. 0. 0. 0. 0. 0. 0. 2.22222228e-02
      0. 0. 0. 2.22222228e-02 0. 0. 0. 0. 0. 4.44444455e-02 0. 0. 0. 0.
      0. 0. 0. 0. 0. 0. 0. 0. 0. 0. 4.44444455e-02 0. 0. 0. 0.
      8.88888910e-02 0. 0. 0. 0. 0. 0. 0. 0. 0. 0. 0. 0. 0. 0. 0. 0. 0.
      0. 0. 0. 0. 0. 0. 0. 0. 0. 0. 0. 0. 2.22222228e-02 0. 0. 0. 0. 0.
      0. 0. 2.22222228e-02 0. 0. 0. 0. 0. 0. 0. 0. 0. 0. 0. 0. 0. 0. 0.
      0. 0. 0. 0. 0. 0. 0. 0. 0. 0. 0. 0. 0. 0. 0. 0. 0. 0. 0. 0. 0. 0.
      0. 0. 0. 0. 0. 0. 2.22222228e-02 0. 0. 0. 0. 0. 0. 0. 0. 0. 0. 0.
      0. 0. 0. 0. 0. 0. 0. 0. 0. 0. 0. 0. 0. 0. 0. 0. 0. 0. 0. 0. 0. 0.
      0. 0. 0. 0. 0. 0. 0. 0. 0. 0. 0. 0. 0. 0. 0. 0. 0. 0. 0. 0. 0. 0.
      0. 0. 0. 0. 0. 0. 0. 0. 0. 0. 0. 0. 0. 0. 0. 0. 0. 0. 0. 0. 0. 0.
      0. 0. 0. 0. 0. 0. 0. 0. 0. 0. 0. 0. 0. 0. 0. 0. 0. 0. 0. 0. 0. 0.
      0. 0. 0. 0. 0. 0. 0. 0. 4.44444455e-02 0. 0. 0. 0. 0. 0. 0. 0. 0.
      0. 0. 0. 0. 0. 0. 0. 0. 0. 0. 0. 0. 0. 0. 0. 0. 0. 0. 0.
      2.22222228e-02 0. 0. 0. 0. 0. 0. 0. 0. 0. 0. 0. 0. 0. 0. 0. 0. 0.
      0. 0. 0. 0. 0. 0. 0. 0. 0. 0. 0. 0. 0. 0. 0. 0. 0. 0. 0. 0.
      2.22222228e-02 0. 0. 0. 0. 0. 0. 2.22222228e-02 0. 0. 0. 0. 0.
      2.22222228e-02 0. 0. 0. 0. 0. 0. 0. 0. 0. 0. 0. 0. 0. 0.
      2.22222228e-02 0. 0. 0. 0. 0. 0. 0. 0. 0. 0. 0. 0. 0. 0. 0. 0. 0.
      0. 0. 0. 0. 0. 0. 0. 0. 0. 2.22222228e-02 2.22222228e-02 0. 0. 0.
      0. 0. 0. 0. 0. 0. 0. 0. 0. 0. 0. 0. 0. 0. 0. 0. 0. 0. 0. 0. 0. 0.
      0. 0. 0. 0. 0. 0. 0. 0. 0. 0. 0. 0. 0. 0. 0. 0. 0. 0. 0. 0. 0. 0.
      0. 0. 0. 0. 0. 0. 0. 0. 0. 0. 0. 0. 0. 0. 0. 0. 0. 0. 0. 0. 0. 0.
      0. 0. 0. 0. 0. 0. 0. 0. 0. 0. 0. 0. 0. 0. 0. 0. 0. 0. 0.
      2.22222228e-02 0. 0. 0. 0. 0. 0. 0. 0. 0. 0. 0. 0. 0. 0. 0. 0. 0.
      0. 0. 0. 0. 0. 0. 0. 0. 0. 0. 0. 0. 0. 0. 0. 0. 0. 0. 0. 0. 0. 0.
      0. 0. 0. 0. 0. 0. 0. 0. 0. 0. 0. 0. 0. 0. 0. 2.22222228e-02 0. 0.
      0. 0. 0. 0. 0. 0. 0. 0. 0. 0. 0. 0. 0. 0. 0. 0. 0. 0. 0. 0. 0. 0.
      0. 0. 0. 0. 0. 0. 0. 0. 0. 0. 0. 0. 0. 0. 0. 0. 0. 0. 0. 0.
      2.22222228e-02 0. 0. 2.22222228e-02 0. 0. 0. 0. 0. 0. 0. 0. 0. 0.
      0. 0. 0. 0. 0. 0. 2.22222228e-02 0. 0. 0. 0. 0. 0. 2.22222228e-02
      0. 0. 0. 0. 0. 0. 0. 0. 0. 0. 0. 0. 0. 0. 0. 0. 0. 0. 0. 0. 0. 0.
      0. 0. 0. 2.22222228e-02 0. 0. 0. 0. 0. 0. 0. 0. 0. 0. 0. 0. 0. 0.
      0. 0. 0. 0. 0. 0. 0. 0. 0. 0. 0. 4.44444455e-02 2.22222228e-02 0.
      0. 0. 0. 0. 0. 0. 0. 0. 0. 0. 0. 0. 0. 0. 0. 0. 0. 0. 0. 0. 0. 0.
      0. 0. 2.22222228e-02 2.22222228e-02 0. 0. 0. 0. 0. 0. 0. 0. 0. 0.
      0. 0. 0. 0. 0. 0. 0. 0. 0. 0. 0. 0. 0. 0. 0. 0. 0. 0. 0. 0. 0. 0.
      0. 0. 0. 0. 0. 0. 0. 0. 0. 0. 0. 0. 0. 0. 0. 4.44444455e-02 0. 0.
      0. 0. 0. 0. 0. 0. 0. 0. 2.22222228e-02 0. 0. 0. 0. 0. 0. 0. 0. 0.
      0. 0. 0. 0. 0. 0. 0. 0. 0. 0. 0. 0. 0. 0. 0. 0. 0. 0. 0. 0. 0. 0.
      0. 0. 0. 0. 0. 0. 0. 0. 0. 0. 0. 0. 0. 0. 0. 0. 0. 0. 0. 0. 0. 0.
      0. 0. 0. 0. 0. 0. 0. 0. 2.22222228e-02 0. 0. 0. 0. 0.
      2.22222228e-02 0. 0. 0. 0. 0. 0. 0. 0. 0. 0. 0. 0. 0. 0. 0. 0. 0.
      0. 0. 0. 0. 0. 0. 0. 0. 0. 0. 0. 0. 0. 0. 0. 0. 0. 0. 0. 0. 0. 0.
      0. 0. 0. 0. 0. 0. 0. 0. 0. 0. 0. 0. 0. 0. 0. 0. 0. 0. 0. 0. 0. 0.
      0. 0. 0. 0. 0. 0. 0. 0. 0. 2.22222228e-02 0. 0. 0. 0. 0. 0. 0. 0.
      0. 0. 0. 0. 0. 0. 0. 0. 0. 0. 0. 0. 0. 0. 0. 0. 0. 0. 0. 0. 0. 0.
      0. 0. 2.22222228e-02 0. 0. 0. 0. 0. 0. 0. 0. 0. 0. 0. 0. 0. 0. 0.
      0. 0. 0. 0. 0. 0. 0. 0. 0. 0. 0. 0. 0. 0. 0. 0. 0. 0. 0. 0. 0.</_>
    <_>
      0. 0. 0. 1.06951874e-02 0. 0. 0. 5.34759369e-03 0. 0. 0.
      5.34759369e-03 0. 0. 0. 0. 0. 5.34759369e-03 5.34759369e-03 0. 0.
      0. 0. 0. 5.34759369e-03 0. 0. 0. 1.06951874e-02 0. 5.34759369e-03
      0. 0. 0. 0. 0. 0. 0. 0. 0. 0. 5.34759369e-03 5.34759369e-03
      1.06951874e-02 0. 0. 0. 0. 0. 0. 0. 0. 0. 0. 0. 0. 0. 0. 0. 0. 0.
      0. 0. 0. 0. 0. 0. 0. 0. 0. 0. 5.34759369e-03 0. 0. 0. 0. 0. 0. 0.
      5.34759369e-03 0. 0. 0. 0. 0. 0. 0. 0. 5.34759369e-03 0. 0. 0. 0.
      0. 0. 0. 0. 0. 0. 5.34759369e-03 5.34759369e-03 0. 0. 0. 0. 0. 0.
      0. 5.34759369e-03 0. 5.34759369e-03 0. 0. 1.06951874e-02 0.
      5.34759369e-03 5.34759369e-03 0. 0. 0. 0. 5.34759369e-03 0. 0.
      5.34759369e-03 5.34759369e-03 5.34759369e-03 0. 5.34759369e-03 0.
      0. 0. 0. 0. 0. 0. 0. 0. 0. 0. 0. 0. 0. 0. 5.34759369e-03 0.
      1.06951874e-02 0. 5.34759369e-03 0. 5.34759369e-03 0. 0.
      5.34759369e-03 0. 5.34759369e-03 0. 0. 5.34759369e-03
      5.34759369e-03 0. 0. 0. 0. 0. 0. 0. 0. 0. 0. 0. 0. 0. 0. 0. 0. 0.
      0. 0. 5.34759369e-03 0. 0. 0. 5.34759369e-03 0. 5.34759369e-03 0.
      5.34759369e-03 0. 0. 0. 0. 0. 0. 0. 0. 0. 5.34759369e-03 0. 0. 0.
      0. 0. 0. 0. 5.34759369e-03 0. 0. 0. 0. 0. 0. 0. 0. 0. 0. 0.
      5.34759369e-03 0. 0. 0. 0. 0. 0. 0. 0. 0. 0. 5.34759369e-03
      5.34759369e-03 0. 0. 0. 5.34759369e-03 0. 0. 0. 5.34759369e-03
      5.34759369e-03 5.34759369e-03 0. 0. 0. 0. 5.34759369e-03
      5.34759369e-03 0. 5.34759369e-03 0. 0. 0. 0. 0. 0. 0. 0. 0. 0.
      5.34759369e-03 0. 0. 0. 0. 0. 5.34759369e-03 0. 1.06951874e-02 0.
      0. 5.34759369e-03 0. 5.34759369e-03 0. 0. 0. 0. 0. 0. 0. 0. 0. 0.
      0. 0. 0. 5.34759369e-03 0. 0. 0. 0. 0. 0. 0. 0. 0. 0. 0. 0. 0. 0.
      0. 0. 5.34759369e-03 0. 0. 0. 0. 0. 0. 5.34759369e-03 0. 0. 0. 0.
      0. 0. 0. 0. 0. 0. 0. 0. 0. 0. 5.34759369e-03 0. 0. 5.34759369e-03
      0. 0. 0. 0. 0. 0. 5.34759369e-03 0. 0. 0. 0. 0. 0. 5.34759369e-03
      0. 5.34759369e-03 5.34759369e-03 0. 5.34759369e-03 0. 0. 0. 0. 0.
      0. 0. 0. 0. 0. 0. 5.34759369e-03 0. 0. 0. 0. 0. 0. 0. 0.
      5.34759369e-03 0. 0. 0. 5.34759369e-03 0. 0. 5.34759369e-03 0. 0.
      0. 5.34759369e-03 0. 5.34759369e-03 0. 0. 0. 0. 5.34759369e-03 0.
      0. 0. 0. 0. 0. 0. 0. 0. 0. 0. 0. 0. 0. 0. 0. 0. 0. 5.34759369e-03
      0. 1.06951874e-02 0. 1.06951874e-02 0. 0. 0. 5.34759369e-03 0. 0.
      0. 0. 0. 0. 0. 0. 0. 5.34759369e-03 0. 0. 5.34759369e-03
      5.34759369e-03 0. 0. 0. 0. 0. 5.34759369e-03 5.34759369e-03 0. 0.
      0. 0. 0. 5.34759369e-03 0. 0. 0. 0. 0. 0. 0. 0. 5.34759369e-03 0.
      0. 0. 0. 0. 0. 0. 0. 0. 0. 0. 0. 0. 0. 0. 0. 0. 0. 0. 0. 0. 0.
      5.34759369e-03 0. 0. 0. 0. 0. 0. 0. 0. 0. 0. 0. 0. 0. 0. 0. 0. 0.
      0. 0. 0. 0. 0. 0. 0. 0. 0. 5.34759369e-03 0. 0. 0. 0.
      5.34759369e-03 0. 0. 0. 0. 0. 5.34759369e-03 0. 5.34759369e-03 0.
      0. 0. 0. 0. 0. 0. 0. 0. 0. 0. 0. 0. 5.34759369e-03 0. 0. 0.
      1.06951874e-02 0. 0. 0. 0. 0. 0. 0. 5.34759369e-03 0.
      5.34759369e-03 0. 0. 0. 0. 0. 0. 0. 1.06951874e-02 0. 0. 0. 0.
      5.34759369e-03 0. 0. 0. 5.34759369e-03 5.34759369e-03 0.
      5.34759369e-03 0. 0. 0. 5.34759369e-03 0. 0. 5.34759369e-03 0. 0.
      0. 0. 0. 0. 0. 0. 0. 0. 0. 5.34759369e-03 0. 0. 0. 0. 0. 0. 0.
      1.06951874e-02 5.34759369e-03 0. 0. 0. 0. 0. 0. 0. 5.34759369e-03
      0. 0. 1.60427801e-02 5.34759369e-03 0. 5.34759369e-03
      1.06951874e-02 0. 0. 0. 0. 0. 5.34759369e-03 0. 0. 0. 0. 0. 0. 0.
      0. 0. 0. 0. 1.60427801e-02 0. 0. 0. 0. 0. 5.34759369e-03 0.
      1.60427801e-02 0. 0. 5.34759369e-03 0. 5.34759369e-03
      5.34759369e-03 0. 0. 0. 0. 0. 0. 0. 0. 0. 0. 5.34759369e-03 0. 0.
      0. 0. 0. 0. 0. 0. 0. 0. 5.34759369e-03 0. 0. 1.06951874e-02 0. 0.
      0. 0. 0. 0. 5.34759369e-03 0. 0. 0. 0. 0. 0. 0. 0. 0. 0. 0. 0. 0.
      0. 0. 0. 0. 5.34759369e-03 0. 0. 0. 0. 5.34759369e-03
      5.34759369e-03 0. 5.34759369e-03 0. 5.34759369e-03 0. 0. 0. 0. 0.
      0. 0. 0. 0. 5.34759369e-03 0. 0. 0. 0. 0. 0. 0. 0. 5.34759369e-03
      0. 0. 0. 0. 0. 0. 0. 0. 0. 0. 0. 0. 0. 0. 0. 5.34759369e-03 0. 0.
      0. 5.34759369e-03 5.34759369e-03 0. 0. 0. 0. 0. 1.06951874e-02
      5.34759369e-03 0. 0. 0. 0. 0. 0. 0. 5.34759369e-03 0.
      5.34759369e-03 0. 0. 0. 0. 0. 0. 0. 0. 0. 0. 0. 0. 0. 0. 0. 0. 0.
      0. 0. 0. 0. 5.34759369e-03 0. 5.34759369e-03 0. 0. 0. 0. 0. 0. 0.
      0. 0. 0. 0. 0. 0. 0. 0. 0. 0. 0. 0. 0. 0. 5.34759369e-03 0. 0. 0.
      0. 0. 0. 0. 0. 0. 5.34759369e-03 0. 0. 0. 0. 0. 0. 0. 0. 0. 0. 0.
      0. 0. 5.34759369e-03 0. 0. 0. 0. 0. 0. 0. 0. 0. 0. 0. 0. 0.
      5.34759369e-03 5.34759369e-03 0. 0. 0. 0. 5.34759369e-03 0.
      5.34759369e-03 0. 0. 5.34759369e-03 0. 0. 0. 5.34759369e-03
      5.34759369e-03 0. 0. 0. 0. 0. 0. 0. 0. 0. 0. 0. 0. 0. 0. 0. 0. 0.
      1.06951874e-02 0. 0. 0. 0. 5.34759369e-03 1.06951874e-02 0. 0. 0.
      0. 0. 0. 0. 0. 5.34759369e-03 0. 0. 0. 0. 0. 0. 0. 0. 0.
      5.34759369e-03 0. 0. 0. 0. 0. 0. 0. 0. 0. 0. 0. 0. 0.
      1.06951874e-02 0. 0. 0. 0. 0. 0. 0. 0. 0. 0. 0. 0. 5.34759369e-03
      5.34759369e-03 1.06951874e-02 0. 0. 0. 0. 0. 0. 0. 0. 0. 0.
      5.34759369e-03 0. 0. 0. 0. 0. 0. 0. 0. 5.34759369e-03 0. 0. 0. 0.
      0. 5.34759369e-03 0. 0. 0. 0. 0. 0. 0. 0. 5.34759369e-03 0. 0. 0.
      0. 0. 1.06951874e-02 0. 0. 0. 0. 0. 0. 0. 0. 0. 0. 0.
      5.34759369e-03 5.34759369e-03 0. 0. 0. 5.34759369e-03 0. 0.
      5.34759369e-03 0. 0. 0. 0. 0. 0. 0. 0. 0. 0. 0. 0. 0. 0. 0.</_>
    <_>
      0. 0. 0. 0. 0. 9.70873795e-03 0. 0. 0. 0. 0. 0. 0. 0. 0. 0. 0. 0.
      0. 0. 0. 0. 0. 9.70873795e-03 0. 0. 9.70873795e-03 0. 0. 0. 0.
      1.94174759e-02 0. 0. 0. 0. 0. 0. 0. 0. 0. 0. 0. 0. 0. 0. 0. 0. 0.
      1.94174759e-02 0. 9.70873795e-03 0. 0. 0. 0. 0. 0. 0. 0. 0. 0. 0.
      0. 0. 9.70873795e-03 0. 0. 0. 0. 0. 0. 0. 0. 0. 0. 0. 0. 0. 0. 0.
      0. 0. 0. 0. 0. 0. 0. 9.70873795e-03 0. 0. 0. 0. 0. 0.
      9.70873795e-03 0. 0. 0. 0. 0. 0. 9.70873795e-03 0. 0.
      1.94174759e-02 0. 0. 0. 0. 0. 0. 9.70873795e-03 0. 0. 0. 0. 0. 0.
      0. 0. 0. 0. 0. 0. 0. 0. 0. 0. 0. 0. 0. 0. 0. 0. 0. 0. 0. 0. 0. 0.
      0. 0. 0. 0. 0. 0. 0. 0. 0. 0. 0. 9.70873795e-03 0. 0. 0. 0.
      9.70873795e-03 1.94174759e-02 0. 0. 0. 0. 0. 0. 0. 0.
      9.70873795e-03 0. 0. 0. 0. 0. 0. 0. 0. 0. 9.70873795e-03 0. 0.
      9.70873795e-03 0. 0. 0. 0. 0. 0. 0. 0. 0. 0. 0. 0. 0. 0. 0. 0. 0.
      0. 0. 0. 0. 0. 0. 0. 0. 0. 0. 0. 9.70873795e-03 0. 0. 0. 0. 0. 0.
      0. 0. 0. 0. 0. 0. 0. 0. 0. 0. 0. 0. 0. 0. 0. 0. 0. 0. 0. 0. 0. 0.
      0. 0. 0. 9.70873795e-03 0. 1.94174759e-02 0. 0. 9.70873795e-03 0.
      0. 0. 0. 9.70873795e-03 0. 1.94174759e-02 0. 0. 0. 0. 0. 0. 0. 0.
      0. 9.70873795e-03 0. 0. 0. 0. 0. 0. 0. 0. 0. 9.70873795e-03 0. 0.
      0. 0. 0. 0. 0. 0. 0. 0. 0. 0. 0. 0. 0. 0. 0. 0. 0. 0. 0. 0.
      9.70873795e-03 0. 0. 0. 0. 0. 0. 0. 0. 0. 9.70873795e-03 0. 0. 0.
      0. 0. 0. 0. 0. 0. 0. 0. 0. 0. 1.94174759e-02 0. 0. 0. 0. 0. 0. 0.
      0. 0. 0. 0. 9.70873795e-03 0. 0. 0. 0. 0. 0. 0. 0. 0. 0. 0. 0. 0.
      0. 0. 0. 0. 0. 0. 0. 0. 0. 0. 0. 0. 0. 0. 0. 0. 0. 0. 0. 0. 0. 0.
      0. 0. 0. 0. 0. 0. 0. 0. 0. 0. 0. 0. 0. 0. 0. 0. 0. 0. 0. 0. 0. 0.
      0. 0. 0. 9.70873795e-03 0. 0. 0. 0. 0. 0. 0. 0. 0. 0. 0.
      9.70873795e-03 0. 0. 0. 0. 0. 0. 0. 0. 0. 0. 0. 0. 0. 0. 0.
      9.70873795e-03 0. 0. 0. 0. 0. 0. 0. 0. 0. 0. 0. 0. 0. 0. 0.
      9.70873795e-03 0. 0. 0. 0. 0. 0. 0. 0. 0. 0. 0. 1.94174759e-02 0.
      0. 0. 9.70873795e-03 0. 0. 0. 0. 0. 0. 0. 0. 0. 2.91262139e-02 0.
      0. 0. 9.70873795e-03 0. 0. 0. 0. 0. 0. 0. 0. 0. 0. 9.70873795e-03
      0. 0. 0. 0. 0. 9.70873795e-03 0. 0. 0. 0. 0. 0. 0. 0. 0. 0.
      9.70873795e-03 0. 0. 0. 0. 0. 0. 0. 0. 9.70873795e-03 0. 0. 0. 0.
      0. 0. 0. 0. 0. 0. 0. 9.70873795e-03 0. 0. 0. 0. 0. 0. 0. 0. 0. 0.
      0. 0. 9.70873795e-03 0. 0. 0. 0. 0. 0. 2.91262139e-02 0. 0. 0. 0.
      0. 9.70873795e-03 0. 0. 0. 0. 0. 0. 0. 0. 0. 0. 0. 0. 0. 0. 0.
      9.70873795e-03 0. 9.70873795e-03 0. 0. 0. 9.70873795e-03 0. 0.
      9.70873795e-03 0. 0. 0. 0. 0. 0. 9.70873795e-03 0. 0. 0. 0. 0. 0.
      0. 0. 0. 0. 0. 0. 9.70873795e-03 0. 0. 0. 0. 0. 0. 0. 0. 0. 0. 0.
      0. 0. 0. 0. 0. 0. 0. 0. 0. 0. 0. 0. 0. 0. 0. 0. 0. 0. 0. 0.
      9.70873795e-03 0. 0. 0. 0. 9.70873795e-03 0. 0. 9.70873795e-03 0.
      0. 0. 0. 0. 0. 0. 1.94174759e-02 0. 0. 0. 0. 0. 0. 0. 0.
      9.70873795e-03 9.70873795e-03 0. 0. 0. 0. 0. 0. 0. 0.
      9.70873795e-03 0. 0. 0. 0. 0. 0. 0. 0. 0. 0. 0. 0. 0. 0. 0. 0. 0.
      0. 0. 0. 0. 0. 9.70873795e-03 9.70873795e-03 0. 0. 0. 0. 0. 0. 0.
      0. 0. 9.70873795e-03 0. 0. 0. 0. 0. 0. 0. 0. 0. 0. 0. 0. 0.
      9.70873795e-03 0. 0. 0. 0. 0. 0. 0. 0. 9.70873795e-03 0. 0. 0. 0.
      0. 0. 0. 0. 0. 0. 1.94174759e-02 0. 0. 0. 0. 0. 9.70873795e-03 0.
      0. 0. 0. 0. 0. 0. 0. 0. 0. 0. 0. 0. 0. 0. 0. 0. 0. 0. 0. 0. 0. 0.
      0. 0. 0. 0. 0. 0. 0. 9.70873795e-03 0. 0. 0. 0. 0. 0. 0. 0. 0. 0.
      0. 0. 0. 0. 0. 0. 0. 0. 0. 0. 9.70873795e-03 9.70873795e-03 0. 0.
      0. 0. 0. 0. 0. 0. 0. 0. 0. 0. 0. 0. 0. 0. 9.70873795e-03 0. 0. 0.
      0. 0. 0. 0. 0. 0. 0. 0. 0. 0. 0. 0. 0. 0. 0. 0. 0. 0. 0. 0. 0. 0.
      0. 0. 0. 0. 0. 0. 0. 0. 0. 0. 0. 0. 0. 0. 0. 0. 9.70873795e-03 0.
      0. 0. 0. 0. 0. 0. 0. 0. 0. 0. 0. 0. 0. 0. 0. 0. 0. 0. 0.
      1.94174759e-02 0. 0. 0. 9.70873795e-03 0. 0. 0. 0. 0. 0. 0. 0. 0.
      0. 0. 0. 0. 0. 0. 0. 0. 0. 0. 0. 0. 0. 0. 0. 0. 0. 9.70873795e-03
      0. 0. 9.70873795e-03 0. 0. 0. 0. 0. 0. 0. 0. 0. 0. 0.
      9.70873795e-03 0. 0. 0. 9.70873795e-03 0. 0. 0. 0. 9.70873795e-03
      9.70873795e-03 0. 0. 0. 0. 0. 0. 0. 0. 0. 0. 0. 0. 0. 0. 0. 0. 0.
      0. 0. 0. 0. 0. 0. 0. 0. 0. 9.70873795e-03 0. 0. 0. 0. 0. 0. 0. 0.
      0. 0. 1.94174759e-02 0. 0. 0. 0. 0. 0. 0. 0. 0. 0. 0. 0. 0. 0. 0.
      0. 0. 1.94174759e-02 0. 0. 9.70873795e-03 0. 0. 0. 0. 0. 0. 0. 0.
      0. 0. 0. 0. 0. 0. 0. 0. 9.70873795e-03 0. 0. 9.70873795e-03 0.
      9.70873795e-03 0.</_>
    <_>
      0. 0. 0. 0. 0. 0. 0. 0. 0. 0. 0. 0. 0. 0. 0. 0. 0. 0. 0. 0. 0. 0.
      0. 0. 0. 0. 0. 0. 0. 0. 0. 0. 0. 0. 0. 0. 0. 0. 0. 0. 0. 0. 0. 0.
      0. 1.51515156e-02 0. 1.51515156e-02 0. 0. 0. 0. 0. 0. 0. 0. 0. 0.
      0. 0. 1.51515156e-02 0. 0. 0. 0. 0. 0. 0. 0. 0. 0. 0. 0. 0. 0. 0.
      0. 0. 0. 0. 1.51515156e-02 0. 0. 0. 0. 0. 0. 0. 1.51515156e-02 0.
      0. 0. 0. 0. 0. 1.51515156e-02 0. 0. 0. 0. 1.51515156e-02 0. 0. 0.
      0. 0. 0. 0. 0. 0. 0. 0. 0. 0. 0. 0. 1.51515156e-02 0.
      3.03030312e-02 0. 0. 0. 0. 1.51515156e-02 0. 0. 0. 0. 0. 0. 0. 0.
      0. 0. 0. 0. 0. 0. 0. 0. 0. 0. 0. 0. 0. 0. 1.51515156e-02 0. 0. 0.
      0. 0. 0. 1.51515156e-02 0. 0. 0. 0. 1.51515156e-02 0. 0. 0. 0. 0.
      0. 0. 0. 0. 0. 0. 0. 0. 0. 0. 0. 0. 0. 0. 0. 0. 0. 0. 0. 0. 0. 0.
      0. 0. 0. 0. 0. 0. 0. 0. 0. 0. 0. 0. 0. 0. 0. 0. 0. 1.51515156e-02
      0. 0. 0. 0. 0. 0. 0. 0. 0. 0. 0. 0. 0. 0. 0. 0. 0. 0. 0. 0. 0. 0.
      0. 0. 0. 0. 0. 0. 1.51515156e-02 1.51515156e-02 0. 0. 0.
      1.51515156e-02 0. 0. 0. 0. 0. 0. 0. 0. 0. 0. 0. 0. 0. 0. 0. 0. 0.
      0. 0. 0. 0. 0. 0. 0. 0. 0. 0. 0. 0. 0. 0. 0. 0. 0. 0. 0. 0. 0.
      1.51515156e-02 0. 0. 0. 0. 0. 0. 0. 0. 0. 0. 0. 0. 0. 0. 0. 0. 0.
      0. 0. 0. 0. 0. 0. 0. 0. 0. 0. 0. 0. 0. 0. 0. 0. 0. 0. 0. 0. 0. 0.
      0. 0. 0. 0. 0. 0. 0. 0. 1.51515156e-02 0. 0. 0. 1.51515156e-02 0.
      0. 0. 0. 0. 0. 0. 0. 0. 0. 0. 0. 0. 0. 0. 0. 0. 0. 0. 0.
      1.51515156e-02 0. 1.51515156e-02 0. 0. 0. 0. 0. 0. 0. 0. 0. 0. 0.
      0. 0. 0. 0. 0. 1.51515156e-02 0. 0. 0. 0. 0. 3.03030312e-02 0. 0.
      0. 0. 0. 0. 0. 0. 0. 0. 0. 0. 0. 0. 0. 0. 0. 0. 0. 0. 0. 0. 0. 0.
      0. 0. 0. 0. 0. 0. 0. 0. 0. 0. 0. 0. 0. 0. 0. 0. 0. 0. 0. 0. 0. 0.
      0. 0. 0. 0. 0. 0. 0. 0. 0. 0. 0. 0. 0. 0. 0. 0. 0. 0. 0. 0. 0. 0.
      0. 0. 0. 0. 0. 1.51515156e-02 0. 0. 0. 0. 0. 0. 0. 0. 0. 0. 0. 0.
      0. 0. 0. 0. 0. 0. 0. 0. 0. 0. 0. 0. 0. 1.51515156e-02 0. 0. 0. 0.
      0. 0. 0. 0. 0. 0. 0. 0. 0. 0. 0. 0. 0. 0. 0. 0. 0. 0. 0. 0. 0. 0.
      0. 0. 0. 4.54545468e-02 0. 1.51515156e-02 0. 0. 0. 0. 0. 0. 0. 0.
      0. 1.51515156e-02 0. 0. 0. 0. 0. 0. 0. 0. 0. 0. 0. 0. 0. 0. 0. 0.
      0. 0. 0. 0. 0. 0. 0. 0. 0. 1.51515156e-02 0. 0. 0. 0.
      1.51515156e-02 0. 0. 0. 0. 0. 1.51515156e-02 0. 0. 0. 0. 0. 0. 0.
      0. 0. 0. 0. 0. 0. 0. 0. 0. 0. 0. 0. 0. 0. 0. 0. 0. 0. 0. 0. 0. 0.
      0. 0. 0. 0. 0. 0. 0. 0. 0. 0. 0. 0. 0. 0. 0. 0. 0. 0. 0. 0. 0. 0.
      0. 0. 0. 0. 0. 0. 0. 0. 0. 0. 0. 0. 0. 0. 3.03030312e-02 0. 0. 0.
      0. 0. 1.51515156e-02 0. 0. 0. 0. 0. 0. 0. 0. 0. 3.03030312e-02 0.
      0. 0. 0. 0. 0. 0. 0. 0. 0. 0. 0. 0. 0. 0. 0. 0. 0. 1.51515156e-02
      0. 0. 0. 0. 0. 0. 0. 4.54545468e-02 0. 0. 0. 0. 0. 0. 0. 0.
      1.51515156e-02 0. 0. 0. 0. 0. 0. 0. 0. 1.51515156e-02 0. 0. 0. 0.
      0. 0. 0. 0. 0. 0. 0. 0. 0. 1.51515156e-02 0. 0. 0. 0. 0. 0. 0. 0.
      0. 0. 0. 0. 0. 0. 0. 0. 0. 0. 0. 0. 0. 0. 0. 0. 0. 0. 0. 0. 0. 0.
      0. 0. 0. 0. 0. 1.51515156e-02 0. 0. 0. 0. 0. 0. 0. 1.51515156e-02
      0. 1.51515156e-02 0. 0. 0. 0. 0. 0. 0. 0. 0. 0. 0. 0. 0. 0. 0. 0.
      0. 0. 0. 1.51515156e-02 0. 0. 0. 0. 0. 1.51515156e-02 0. 0. 0. 0.
      0. 0. 0. 0. 0. 0. 0. 0. 0. 1.51515156e-02 0. 0. 0. 0. 0. 0. 0. 0.
      0. 0. 0. 0. 0. 0. 0. 0. 0. 0. 0. 0. 0. 0. 0. 0. 0. 0. 0. 0. 0. 0.
      0. 0. 0. 0. 0. 0. 0. 0. 0. 0. 0. 0. 0. 0. 0. 0. 0. 0. 0. 0. 0. 0.
      0. 0. 0. 0. 0. 0. 0. 0. 0. 0. 0. 0. 0. 0. 0. 0. 0. 0. 0. 0.
      3.03030312e-02 0. 0. 0. 0. 0. 0. 0. 0. 0. 0. 0. 0. 0. 0. 0. 0. 0.
      0. 0. 0. 0. 0. 0. 0. 0. 0. 0. 0. 0. 0. 1.51515156e-02 0.
      1.51515156e-02 0. 0. 0. 0. 0. 0. 0. 0. 1.51515156e-02 0. 0. 0. 0.
      0. 0. 0. 0. 1.51515156e-02 0. 0. 0. 0. 0. 1.51515156e-02
      1.51515156e-02 0. 0. 0. 0. 1.51515156e-02 0. 0. 0. 0. 0. 0. 0. 0.
      0. 0. 0. 0. 0. 0. 0. 0. 0. 0. 0. 0. 0. 0. 0. 0. 0. 0. 0. 0. 0. 0.
      0. 0. 0. 0. 0. 0. 0. 0. 0. 0. 0. 0. 0. 0. 0. 0. 0. 0.
      1.51515156e-02 0. 0. 0. 0. 0. 0. 0. 1.51515156e-02 0. 0. 0. 0. 0.
      0. 0. 0. 0. 0. 0. 0. 0. 0. 1.51515156e-02 0. 0. 0. 0. 0. 0. 0. 0.
      0. 0. 0.</_>
    <_>
      0. 0. 0. 0. 0. 0. 0. 0. 0. 0. 0. 0. 0. 0. 0. 0. 0. 0. 0. 0.
      1.85185187e-02 0. 0. 1.85185187e-02 0. 0. 0. 0. 0. 0. 0. 0.
      1.85185187e-02 0. 0. 0. 0. 0. 0. 0. 0. 0. 0. 0. 0. 0. 0. 0. 0. 0.
      0. 0. 0. 0. 0. 0. 0. 0. 0. 0. 0. 0. 0. 0. 1.85185187e-02 0. 0. 0.
      0. 0. 0. 0. 0. 0. 0. 0. 0. 0. 0. 0. 0. 0. 0. 1.85185187e-02 0. 0.
      0. 0. 0. 0. 0. 0. 1.85185187e-02 0. 0. 0. 0. 0. 0. 0. 0. 0. 0. 0.
      0. 0. 0. 0. 0. 0. 0. 0. 0. 0. 0. 0. 0. 0. 0. 1.85185187e-02 0.
      1.85185187e-02 0. 0. 0. 0. 0. 0. 0. 0. 1.85185187e-02 0. 0. 0. 0.
      0. 0. 0. 0. 0. 0. 0. 0. 0. 0. 0. 0. 0. 0. 0. 0. 0. 0. 0. 0. 0. 0.
      0. 0. 0. 1.85185187e-02 0. 0. 0. 0. 0. 0. 0. 0. 0. 0. 0. 0. 0. 0.
      0. 0. 1.85185187e-02 0. 0. 0. 0. 0. 1.85185187e-02 0. 0. 0. 0. 0.
      0. 0. 5.55555560e-02 0. 0. 0. 0. 0. 0. 0. 1.85185187e-02 0. 0. 0.
      0. 0. 0. 0. 0. 0. 0. 0. 0. 0. 0. 0. 0. 0. 0. 0. 0. 0. 0. 0. 0. 0.
      0. 0. 0. 0. 0. 0. 0. 0. 0. 0. 0. 0. 0. 0. 0. 0. 0. 0. 0. 0.
      1.85185187e-02 0. 0. 0. 0. 0. 0. 0. 0. 0. 0. 0. 0. 0. 0. 0. 0. 0.
      0. 0. 0. 0. 0. 0. 0. 0. 0. 0. 0. 0. 0. 0. 0. 0. 0. 0. 0. 0. 0. 0.
      0. 0. 0. 0. 0. 0. 0. 0. 0. 0. 0. 0. 0. 0. 0. 0. 0. 0. 0. 0. 0. 0.
      1.85185187e-02 0. 0. 0. 0. 0. 0. 0. 0. 0. 0. 0. 0. 0.
      1.85185187e-02 0. 0. 0. 0. 0. 0. 0. 0. 0. 0. 0. 0. 0. 0. 0. 0. 0.
      0. 0. 0. 0. 0. 0. 0. 0. 0. 0. 0. 0. 1.85185187e-02 0. 0. 0. 0. 0.
      0. 0. 0. 0. 0. 0. 0. 0. 0. 0. 0. 0. 0. 0. 1.85185187e-02 0. 0.
      1.85185187e-02 0. 0. 0. 0. 0. 0. 0. 0. 0. 0. 0. 0. 0. 0. 0. 0. 0.
      0. 0. 0. 0. 0. 0. 0. 0. 0. 0. 0. 0. 0. 0. 0. 0. 0. 0. 0. 0. 0. 0.
      0. 0. 0. 0. 0. 0. 0. 0. 0. 0. 0. 0. 0. 0. 0. 0. 0. 1.85185187e-02
      0. 0. 1.85185187e-02 0. 0. 0. 0. 0. 0. 0. 0. 0. 0. 0. 0. 0. 0. 0.
      0. 0. 0. 0. 0. 0. 0. 0. 0. 0. 0. 0. 0. 0. 0. 0. 0. 0. 0.
      1.85185187e-02 0. 0. 0. 0. 0. 0. 0. 0. 0. 0. 0. 0. 0. 0. 0. 0. 0.
      0. 0. 0. 0. 0. 0. 0. 0. 0. 0. 0. 0. 0. 0. 0. 1.85185187e-02 0. 0.
      0. 0. 0. 0. 0. 0. 1.85185187e-02 0. 0. 0. 0. 3.70370373e-02 0. 0.
      0. 0. 0. 0. 0. 0. 1.85185187e-02 0. 0. 0. 0. 0. 0. 0. 0.
      1.85185187e-02 0. 0. 0. 0. 0. 0. 0. 3.70370373e-02 0. 0. 0. 0. 0.
      1.85185187e-02 0. 0. 0. 0. 0. 0. 0. 0. 0. 0. 0. 0. 0. 0. 0. 0. 0.
      0. 0. 0. 1.85185187e-02 0. 0. 0. 0. 0. 0. 0. 0. 0. 0. 0. 0. 0. 0.
      0. 0. 0. 0. 0. 0. 0. 0. 0. 0. 0. 0. 0. 0. 0. 0. 0. 0. 0. 0. 0. 0.
      0. 0. 0. 0. 0. 0. 0. 0. 0. 0. 0. 0. 0. 0. 0. 0. 0. 0.
      1.85185187e-02 0. 0. 0. 0. 0. 0. 0. 0. 0. 0. 0. 0. 0. 0. 0. 0. 0.
      0. 0. 0. 0. 0. 0. 0. 0. 0. 0. 0. 0. 0. 0. 0. 0. 0. 0.
      1.85185187e-02 0. 0. 0. 0. 0. 0. 0. 0. 0. 0. 0. 0. 0. 0. 0. 0. 0.
      0. 0. 3.70370373e-02 0. 1.85185187e-02 0. 0. 0. 0. 0. 0. 0. 0. 0.
      0. 0. 3.70370373e-02 0. 0. 0. 0. 0. 0. 0. 0. 0. 0. 0. 0. 0. 0. 0.
      0. 0. 0. 0. 0. 0. 0. 0. 0. 0. 1.85185187e-02 0. 0. 0. 0. 0. 0. 0.
      0. 0. 0. 1.85185187e-02 0. 0. 0. 0. 0. 0. 0. 0. 0. 0. 0. 0. 0.
      1.85185187e-02 0. 0. 0. 0. 0. 0. 0. 0. 0. 0. 0. 0. 0. 0. 0. 0. 0.
      0. 0. 0. 0. 0. 0. 0. 0. 0. 0. 0. 0. 0. 0. 0. 0. 0. 0. 0. 0. 0. 0.
      0. 0. 0. 0. 0. 0. 1.85185187e-02 0. 0. 0. 0. 0. 0. 0. 0. 0. 0. 0.
      0. 0. 0. 0. 0. 0. 0. 0. 0. 0. 0. 1.85185187e-02 0. 0. 0. 0. 0. 0.
      0. 0. 0. 0. 0. 0. 0. 0. 0. 0. 0. 0. 0. 0. 0. 0. 0. 0. 0. 0. 0.
      1.85185187e-02 0. 0. 0. 0. 0. 0. 0. 0. 0. 0. 0. 0. 0. 0. 0. 0. 0.
      0. 0. 0. 0. 0. 0. 0. 0. 0. 0. 0. 0. 0. 0. 0. 0. 0. 0. 0. 0. 0. 0.
      0. 0. 0. 0. 0. 0. 1.85185187e-02 0. 0. 0. 0. 0. 3.70370373e-02 0.
      0. 0. 0. 0. 0. 0. 0. 0. 0. 0. 0. 0. 0. 0. 0. 0. 0. 0. 0. 0.
      1.85185187e-02 0. 0. 0. 0. 0. 0. 0. 0. 0. 0. 0. 0. 0. 0. 0. 0. 0.
      0. 0. 0. 0. 0. 0. 0. 0. 0. 0. 0. 0. 0. 0. 0. 0. 0. 0. 0. 0. 0. 0.
      0. 0. 0. 0. 0. 0. 0. 0. 0. 0. 0. 0. 1.85185187e-02 0. 0. 0. 0. 0.
      0. 0. 1.85185187e-02 0. 0. 0. 0. 0. 0. 0. 0. 0. 0. 0. 0. 0. 0. 0.
      0. 0. 0. 0. 0. 0. 0. 0.</_>
    <_>
      0. 0. 0. 0. 0. 0. 0. 0. 0. 0. 0. 0. 0. 0. 0. 1.19047621e-02 0. 0.
      0. 0. 0. 0. 1.19047621e-02 0. 0. 0. 0. 0. 0. 0. 0. 0. 0. 0. 0. 0.
      0. 0. 0. 0. 0. 0. 0. 0. 1.19047621e-02 0. 0. 0. 0. 0. 0. 0. 0. 0.
      0. 1.19047621e-02 0. 0. 0. 0. 0. 0. 0. 0. 0. 0. 0. 0. 0. 0. 0. 0.
      0. 0. 0. 0. 0. 0. 0. 0. 2.38095243e-02 0. 0. 0. 0. 0. 0. 0. 0. 0.
      0. 0. 0. 0. 0. 1.19047621e-02 0. 0. 0. 0. 0. 0. 0. 2.38095243e-02
      0. 0. 0. 0. 0. 0. 0. 0. 0. 0. 0. 0. 1.19047621e-02 0.
      1.19047621e-02 0. 0. 0. 0. 0. 0. 0. 0. 0. 0. 0. 0. 0. 0. 0.
      1.19047621e-02 0. 0. 0. 0. 0. 1.19047621e-02 0. 0. 0. 0. 0. 0. 0.
      0. 0. 0. 0. 0. 0. 0. 0. 0. 0. 0. 0. 0. 0. 0. 0. 0. 0. 0. 0. 0. 0.
      0. 0. 1.19047621e-02 0. 1.19047621e-02 0. 0. 0. 0. 0. 0. 0. 0. 0.
      0. 0. 1.19047621e-02 0. 0. 0. 0. 0. 0. 0. 0. 0. 0. 0. 0. 0. 0. 0.
      0. 0. 0. 0. 0. 0. 0. 0. 0. 0. 0. 0. 0. 0. 0. 0. 0. 0.
      1.19047621e-02 0. 0. 0. 0. 0. 0. 0. 0. 0. 0. 0. 0. 0. 0.
      1.19047621e-02 0. 0. 0. 0. 0. 0. 0. 0. 1.19047621e-02 0. 0. 0. 0.
      0. 0. 0. 0. 0. 0. 0. 0. 0. 0. 0. 0. 0. 0. 0. 0. 0. 0. 0. 0. 0. 0.
      0. 0. 0. 0. 0. 0. 1.19047621e-02 0. 0. 0. 1.19047621e-02 0. 0. 0.
      1.19047621e-02 0. 0. 0. 0. 0. 0. 0. 0. 0. 0. 0. 0. 0. 0. 0. 0. 0.
      0. 0. 0. 0. 0. 0. 0. 0. 0. 0. 1.19047621e-02 0. 0. 0.
      1.19047621e-02 0. 1.19047621e-02 0. 0. 0. 0. 1.19047621e-02 0. 0.
      0. 0. 0. 0. 0. 0. 0. 0. 0. 0. 0. 0. 0. 0. 0. 0. 0. 0. 0. 0. 0. 0.
      0. 0. 0. 0. 0. 0. 1.19047621e-02 0. 0. 0. 0. 0. 0. 0. 0. 0. 0. 0.
      1.19047621e-02 0. 0. 0. 0. 0. 0. 2.38095243e-02 0. 0. 0. 0. 0. 0.
      0. 0. 0. 0. 0. 0. 0. 0. 0. 0. 0. 1.19047621e-02 0. 0.
      1.19047621e-02 0. 0. 0. 0. 0. 0. 0. 0. 0. 0. 0. 0. 0. 0. 0. 0. 0.
      0. 0. 0. 0. 0. 0. 0. 0. 0. 0. 0. 0. 1.19047621e-02 0. 0. 0. 0. 0.
      1.19047621e-02 0. 0. 0. 0. 0. 0. 0. 0. 0. 0. 0. 0. 0. 0. 0. 0. 0.
      0. 0. 0. 0. 0. 0. 0. 0. 0. 0. 0. 1.19047621e-02 0. 1.19047621e-02
      0. 0. 0. 0. 0. 0. 0. 1.19047621e-02 0. 0. 0. 0. 0. 0. 0. 0. 0. 0.
      0. 0. 0. 0. 0. 0. 0. 0. 1.19047621e-02 0. 0. 0. 0. 0. 0. 0. 0. 0.
      0. 0. 0. 0. 0. 0. 0. 0. 0. 0. 0. 0. 0. 0. 0. 0. 0. 0. 0. 0. 0. 0.
      0. 0. 0. 0. 0. 0. 0. 0. 0. 0. 0. 0. 0. 0. 0. 0. 0. 0. 0. 0. 0. 0.
      0. 0. 0. 0. 0. 0. 0. 0. 0. 0. 0. 0. 0. 0. 0. 0. 0. 1.19047621e-02
      0. 0. 0. 0. 1.19047621e-02 0. 0. 0. 0. 0. 0. 1.19047621e-02 0.
      1.19047621e-02 0. 0. 0. 0. 0. 0. 0. 0. 0. 1.19047621e-02 0. 0. 0.
      0. 0. 1.19047621e-02 0. 0. 0. 0. 0. 0. 0. 0. 0. 0. 0. 0. 0. 0. 0.
      0. 0. 0. 0. 1.19047621e-02 0. 0. 0. 0. 0. 0. 0. 0. 1.19047621e-02
      1.19047621e-02 0. 0. 0. 1.19047621e-02 0. 0. 0. 1.19047621e-02 0.
      0. 0. 0. 0. 1.19047621e-02 0. 0. 0. 0. 0. 0. 0. 0. 0. 0. 0. 0. 0.
      0. 0. 0. 0. 2.38095243e-02 0. 0. 0. 0. 2.38095243e-02 0. 0. 0. 0.
      0. 0. 0. 0. 0. 0. 0. 0. 0. 0. 0. 0. 0. 0. 0. 0. 0. 0. 0.
      1.19047621e-02 0. 0. 0. 1.19047621e-02 0. 0. 0. 0. 0. 0. 0. 0. 0.
      0. 1.19047621e-02 0. 0. 0. 0. 0. 0. 0. 0. 1.19047621e-02 0. 0.
      1.19047621e-02 0. 0. 0. 0. 1.19047621e-02 0. 0. 1.19047621e-02 0.
