<?xml version="1.0"?>
<opencv_storage>
<my_svm type_id="opencv-ml-svm">
  <svm_type>NU_SVC</svm_type>
  <kernel><type>RBF</type>
    <gamma>1.</gamma></kernel>
  <nu>5.0000000000000003e-02</nu>
  <term_criteria><epsilon>2.2204460492503131e-16</epsilon>
    <iterations>5000</iterations></term_criteria>
  <var_all>1000</var_all>
  <var_count>1000</var_count>
  <class_count>2</class_count>
  <class_labels type_id="opencv-matrix">
    <rows>1</rows>
    <cols>2</cols>
    <dt>i</dt>
    <data>
      0 1</data></class_labels>
  <sv_total>365</sv_total>
  <support_vectors>
    <_>
      0. 0. 0. 0. 0. 0. 0. 1.04166670e-02 0. 0. 0. 0. 0. 0. 0. 0. 0. 0.
      0. 0. 0. 0. 0. 0. 0. 0. 0. 0. 0. 0. 0. 0. 0. 0. 0. 0. 0.
      1.04166670e-02 0. 0. 0. 0. 0. 0. 0. 0. 0. 0. 0. 0. 0. 0. 0. 0. 0.
      0. 0. 0. 0. 0. 0. 0. 1.04166670e-02 0. 0. 0. 0. 0. 0. 0.
      1.04166670e-02 1.04166670e-02 0. 0. 0. 0. 0. 0. 0. 0. 0.
      1.04166670e-02 0. 0. 0. 0. 0. 1.04166670e-02 0. 0. 0. 0. 0. 0. 0.
      1.04166670e-02 0. 0. 2.08333340e-02 0. 0. 0. 0. 0. 0. 0. 0. 0. 0.
      1.04166670e-02 0. 0. 0. 0. 0. 0. 0. 0. 0. 0. 0. 1.04166670e-02 0.
      1.04166670e-02 0. 0. 0. 0. 0. 0. 1.04166670e-02 0. 0. 0. 0. 0. 0.
      0. 0. 0. 0. 0. 0. 0. 0. 0. 0. 0. 0. 0. 1.04166670e-02 0. 0. 0. 0.
      0. 0. 1.04166670e-02 0. 0. 0. 0. 0. 0. 1.04166670e-02 0. 0. 0.
      1.04166670e-02 0. 0. 0. 0. 0. 0. 0. 0. 0. 0. 0. 0. 0. 0.
      1.04166670e-02 1.04166670e-02 0. 0. 0. 0. 0. 0. 0. 0. 0.
      1.04166670e-02 0. 0. 0. 0. 1.04166670e-02 0. 0. 0. 0. 0. 0. 0. 0.
      0. 0. 0. 0. 0. 0. 0. 0. 0. 0. 0. 0. 1.04166670e-02 0. 0. 0.
      1.04166670e-02 0. 0. 0. 0. 0. 0. 1.04166670e-02 0. 0. 0. 0. 0. 0.
      0. 0. 0. 0. 0. 0. 0. 0. 0. 0. 0. 0. 0. 0. 0. 0. 0. 0. 0. 0. 0. 0.
      0. 0. 0. 0. 0. 0. 1.04166670e-02 0. 0. 0. 0. 0. 0. 0. 0. 0. 0. 0.
      0. 1.04166670e-02 0. 0. 0. 0. 0. 0. 0. 0. 0. 0. 0. 0.
      1.04166670e-02 0. 0. 1.04166670e-02 0. 0. 0. 0. 1.04166670e-02 0.
      1.04166670e-02 0. 0. 0. 1.04166670e-02 0. 0. 0. 0. 1.04166670e-02
      0. 0. 0. 0. 0. 0. 0. 0. 0. 0. 0. 0. 0. 0. 0. 0. 0. 0. 0. 0. 0. 0.
      0. 1.04166670e-02 0. 0. 1.04166670e-02 0. 0. 0. 0. 0. 0. 0. 0. 0.
      0. 0. 0. 0. 0. 0. 0. 0. 0. 0. 0. 0. 0. 0. 0. 0. 0. 0. 0. 0. 0. 0.
      0. 0. 0. 0. 0. 0. 0. 0. 0. 0. 0. 1.04166670e-02 0. 0. 0. 0. 0. 0.
      1.04166670e-02 0. 1.04166670e-02 1.04166670e-02 0. 0. 0. 0. 0. 0.
      0. 0. 0. 0. 1.04166670e-02 0. 0. 0. 0. 0. 0. 0. 0. 0. 0. 0.
      1.04166670e-02 0. 0. 0. 0. 1.04166670e-02 0. 1.04166670e-02 0. 0.
      0. 0. 1.04166670e-02 0. 0. 0. 0. 0. 0. 0. 0. 0. 0. 0. 0. 0. 0. 0.
      0. 0. 0. 0. 0. 0. 1.04166670e-02 0. 0. 0. 0. 0. 0. 0. 0. 0. 0. 0.
      0. 0. 0. 0. 0. 0. 0. 0. 0. 0. 0. 0. 0. 0. 0. 0. 0. 0.
      1.04166670e-02 0. 0. 0. 0. 0. 0. 0. 0. 0. 0. 0. 0. 1.04166670e-02
      0. 0. 1.04166670e-02 0. 0. 0. 0. 0. 0. 0. 0. 0. 0. 0. 0. 0. 0. 0.
      0. 1.04166670e-02 0. 0. 0. 0. 0. 0. 0. 1.04166670e-02 0. 0. 0. 0.
      0. 0. 0. 0. 0. 0. 0. 0. 0. 0. 0. 0. 0. 0. 0. 0. 0. 0. 0. 0. 0. 0.
      0. 0. 0. 0. 0. 0. 0. 0. 0. 0. 0. 0. 0. 0. 1.04166670e-02
      1.04166670e-02 0. 0. 0. 0. 0. 0. 0. 0. 1.04166670e-02 0. 0. 0. 0.
      1.04166670e-02 0. 0. 0. 1.04166670e-02 1.04166670e-02 0. 0. 0.
      1.04166670e-02 0. 0. 0. 0. 0. 0. 0. 0. 0. 0. 0. 0. 0. 0. 0. 0. 0.
      1.04166670e-02 0. 0. 0. 0. 0. 2.08333340e-02 0. 0. 0. 0.
      1.04166670e-02 0. 0. 0. 0. 0. 0. 0. 0. 0. 0. 0. 0. 0. 0. 0. 0. 0.
      1.04166670e-02 0. 0. 0. 0. 0. 0. 0. 0. 0. 0. 0. 0. 0. 0. 0. 0. 0.
      0. 0. 1.04166670e-02 0. 0. 1.04166670e-02 0. 0. 0. 0. 0. 0. 0. 0.
      0. 0. 0. 0. 0. 0. 0. 0. 0. 0. 0. 0. 0. 0. 1.04166670e-02 0. 0. 0.
      0. 0. 0. 0. 0. 0. 0. 0. 1.04166670e-02 0. 0. 0. 0. 0. 0. 0. 0. 0.
      0. 0. 1.04166670e-02 0. 0. 0. 0. 0. 0. 0. 0. 0. 1.04166670e-02 0.
      0. 1.04166670e-02 0. 0. 1.04166670e-02 0. 0. 0. 0. 0. 0. 0. 0. 0.
      0. 0. 0. 0. 0. 0. 0. 1.04166670e-02 0. 0. 0. 0. 0. 0. 0.
      1.04166670e-02 1.04166670e-02 0. 0. 0. 0. 0. 0. 1.04166670e-02 0.
      0. 1.04166670e-02 0. 0. 0. 0. 0. 0. 0. 0. 0. 0. 0. 0. 0. 0. 0. 0.
      0. 1.04166670e-02 0. 0. 0. 0. 0. 0. 0. 0. 0. 1.04166670e-02 0. 0.
      0. 0. 0. 0. 0. 0. 0. 0. 0. 1.04166670e-02 1.04166670e-02 0. 0. 0.
      0. 0. 0. 0. 0. 0. 0. 0. 0. 0. 0. 0. 0. 0. 0. 0. 0. 0. 0. 0. 0. 0.
      0. 0. 0. 0. 0. 1.04166670e-02 0. 0. 0. 0. 1.04166670e-02 0. 0. 0.
      0. 0. 0. 0. 0. 0. 0. 0. 0. 0. 0. 0. 0. 0. 0. 0. 0. 0. 0. 0. 0. 0.
      0. 0. 0. 0. 0. 1.04166670e-02 0. 0. 0. 1.04166670e-02 0. 0. 0. 0.
      0. 0. 0. 0. 0. 0. 0. 0. 0. 0. 0. 2.08333340e-02 1.04166670e-02 0.
      0. 1.04166670e-02 0. 1.04166670e-02 0. 0. 0. 0. 0. 0. 0. 0. 0. 0.
      0. 0. 0. 0. 0. 1.04166670e-02 0. 0. 0. 0. 1.04166670e-02 0. 0. 0.
      0. 0. 0. 0. 0. 0. 0. 0. 0. 0. 0. 0. 0. 1.04166670e-02 0. 0.
      1.04166670e-02 0. 0. 0. 0. 0. 0. 0. 0. 0. 0. 0. 1.04166670e-02 0.
      0. 1.04166670e-02 0. 0. 0. 0. 0. 0. 0. 0. 0. 0. 0. 0. 0. 0. 0. 0.
      0. 1.04166670e-02 0. 0. 0. 0. 0. 0. 0. 0. 0. 0. 0. 0. 0. 0. 0. 0.
      0. 0. 0. 1.04166670e-02 0. 0. 0. 0. 0. 0. 0. 0. 0. 0. 0. 0. 0. 0.
      0. 0. 0. 0.</_>
    <_>
      0. 0. 0. 0. 1.57480314e-02 0. 7.87401572e-03 0. 0. 0. 0. 0.
      7.87401572e-03 0. 0. 0. 1.57480314e-02 0. 0. 0. 0. 0. 0. 0. 0. 0.
      0. 0. 0. 0. 0. 0. 0. 0. 0. 0. 0. 7.87401572e-03 0. 0. 0. 0. 0. 0.
      0. 0. 0. 7.87401572e-03 0. 0. 0. 0. 0. 0. 7.87401572e-03 0. 0. 0.
      2.36220472e-02 0. 0. 0. 0. 0. 7.87401572e-03 0. 0. 0. 0. 0. 0. 0.
      0. 0. 0. 7.87401572e-03 0. 0. 0. 0. 0. 0. 0. 0. 7.87401572e-03 0.
      0. 0. 0. 0. 0. 0. 7.87401572e-03 0. 0. 0. 0. 0. 0. 0. 0. 0. 0. 0.
      0. 7.87401572e-03 0. 0. 0. 0. 0. 0. 0. 0. 0. 0. 0. 7.87401572e-03
      0. 0. 0. 0. 0. 0. 0. 0. 0. 0. 0. 0. 0. 0. 0. 0. 0. 0. 0.
      1.57480314e-02 0. 0. 0. 0. 0. 0. 0. 0. 0. 7.87401572e-03 0. 0. 0.
      0. 7.87401572e-03 0. 0. 0. 0. 0. 0. 0. 0. 0. 0. 0. 0. 0. 0.
      7.87401572e-03 3.14960629e-02 7.87401572e-03 0. 0. 0. 0. 0. 0. 0.
      0. 0. 0. 0. 0. 0. 0. 0. 0. 0. 0. 0. 1.57480314e-02 0. 0. 0. 0. 0.
      0. 0. 0. 7.87401572e-03 0. 0. 0. 7.87401572e-03 0. 0. 0. 0. 0. 0.
      7.87401572e-03 0. 0. 0. 0. 0. 0. 0. 0. 0. 7.87401572e-03 0. 0. 0.
      0. 7.87401572e-03 0. 0. 0. 0. 0. 0. 0. 0. 7.87401572e-03 0. 0. 0.
      0. 0. 0. 0. 0. 0. 0. 0. 0. 0. 0. 0. 0. 0. 0. 0. 0. 0. 0. 0. 0. 0.
      0. 7.87401572e-03 0. 0. 0. 0. 0. 0. 0. 0. 0. 0. 0. 0. 0.
      7.87401572e-03 0. 0. 0. 7.87401572e-03 0. 0. 0. 0. 0. 0.
      7.87401572e-03 0. 0. 0. 0. 0. 0. 0. 0. 0. 0. 0. 0. 0. 0. 0. 0. 0.
      0. 0. 0. 0. 0. 0. 0. 0. 0. 0. 0. 0. 0. 0. 7.87401572e-03
      7.87401572e-03 0. 7.87401572e-03 0. 0. 0. 0. 0. 0. 7.87401572e-03
      0. 0. 0. 0. 0. 7.87401572e-03 0. 0. 0. 0. 0. 0. 0. 0. 0. 0. 0. 0.
      0. 0. 0. 0. 0. 0. 0. 0. 0. 0. 0. 0. 0. 0. 0. 0. 0. 0.
      7.87401572e-03 0. 7.87401572e-03 0. 0. 0. 7.87401572e-03 0. 0. 0.
      0. 7.87401572e-03 0. 0. 1.57480314e-02 0. 7.87401572e-03
      7.87401572e-03 7.87401572e-03 0. 0. 0. 0. 0. 7.87401572e-03 0. 0.
      0. 0. 0. 0. 0. 0. 0. 0. 0. 0. 0. 7.87401572e-03 0. 0.
      7.87401572e-03 0. 0. 0. 0. 0. 0. 0. 0. 0. 0. 0. 0. 0. 0. 0. 0. 0.
      0. 0. 0. 0. 0. 0. 0. 0. 0. 0. 0. 0. 0. 0. 0. 7.87401572e-03 0. 0.
      0. 7.87401572e-03 1.57480314e-02 0. 0. 0. 0. 0. 0. 0. 0. 0. 0.
      7.87401572e-03 7.87401572e-03 0. 0. 0. 0. 0. 0. 0. 0. 0. 0. 0. 0.
      7.87401572e-03 0. 0. 0. 0. 0. 0. 0. 0. 0. 0. 0. 0. 0. 0. 0. 0.
      7.87401572e-03 0. 0. 0. 0. 0. 0. 0. 7.87401572e-03 0. 0. 0. 0.
      7.87401572e-03 0. 0. 7.87401572e-03 0. 0. 0. 0. 0. 0. 0.
      7.87401572e-03 0. 0. 0. 0. 0. 0. 0. 0. 0. 0. 0. 7.87401572e-03 0.
      0. 0. 0. 0. 0. 0. 0. 0. 0. 0. 0. 0. 0. 0. 0. 0. 0. 0. 0. 0. 0. 0.
      0. 7.87401572e-03 0. 0. 0. 0. 0. 0. 0. 0. 0. 0. 7.87401572e-03 0.
      0. 0. 0. 0. 7.87401572e-03 0. 0. 0. 0. 0. 0. 0. 0. 0. 0. 0. 0. 0.
      0. 7.87401572e-03 0. 0. 0. 0. 0. 0. 0. 0. 0. 0. 0. 0. 0. 0. 0.
      7.87401572e-03 0. 0. 0. 0. 0. 0. 0. 7.87401572e-03 0. 0. 0. 0. 0.
      0. 0. 0. 0. 0. 0. 0. 7.87401572e-03 0. 0. 0. 0. 0. 0. 0. 0. 0. 0.
      0. 0. 0. 0. 0. 0. 0. 0. 0. 0. 0. 0. 0. 0. 0. 0. 0. 0. 0. 0. 0. 0.
      0. 0. 0. 0. 0. 0. 0. 0. 0. 0. 0. 0. 3.14960629e-02 0. 0.
      7.87401572e-03 0. 0. 0. 0. 0. 0. 0. 0. 0. 0. 0. 0. 7.87401572e-03
      7.87401572e-03 0. 0. 0. 7.87401572e-03 0. 7.87401572e-03 0. 0. 0.
      0. 0. 0. 7.87401572e-03 0. 0. 0. 0. 7.87401572e-03 0. 0. 0. 0. 0.
      0. 0. 0. 0. 0. 0. 0. 7.87401572e-03 0. 0. 0. 0. 0. 0. 0. 0. 0. 0.
      0. 7.87401572e-03 0. 0. 0. 0. 0. 0. 0. 0. 0. 0. 0. 7.87401572e-03
      0. 0. 0. 0. 0. 0. 0. 0. 0. 0. 0. 0. 0. 7.87401572e-03 0. 0. 0. 0.
      0. 0. 7.87401572e-03 1.57480314e-02 0. 0. 7.87401572e-03 0. 0. 0.
      0. 0. 0. 0. 0. 0. 0. 7.87401572e-03 0. 0. 7.87401572e-03 0. 0.
      7.87401572e-03 0. 0. 0. 0. 0. 0. 0. 0. 0. 0. 0. 0. 0. 0. 0. 0. 0.
      7.87401572e-03 0. 0. 0. 0. 0. 0. 0. 0. 0. 7.87401572e-03 0. 0. 0.
      0. 7.87401572e-03 0. 0. 0. 0. 0. 0. 0. 0. 0. 0. 0. 0. 0.
      7.87401572e-03 7.87401572e-03 7.87401572e-03 0. 7.87401572e-03 0.
      0. 7.87401572e-03 7.87401572e-03 0. 0. 0. 0. 0. 1.57480314e-02
      7.87401572e-03 0. 0. 0. 0. 0. 0. 0. 0. 0. 0. 0. 0. 0. 0. 0. 0. 0.
      7.87401572e-03 0. 0. 0. 0. 0. 0. 0. 0. 0. 0. 0. 0. 0. 0. 0.
      7.87401572e-03 0. 0. 7.87401572e-03 0. 0. 0. 0. 0. 0. 0. 0. 0.
      7.87401572e-03 0. 0. 0. 0. 0. 0. 0. 0. 0. 0. 0. 0. 0. 0. 0.
      7.87401572e-03 0. 0. 0. 7.87401572e-03 0. 0. 7.87401572e-03 0. 0.
      0. 0. 0. 0. 0. 0. 0. 0. 0. 0. 0. 0. 7.87401572e-03 0. 0. 0. 0. 0.
      0. 0. 0. 0. 0. 0. 0. 0. 0. 0. 0. 0. 0. 0. 0. 0. 7.87401572e-03 0.
      7.87401572e-03 0. 0. 0. 0. 0. 0. 0. 0. 0. 0. 7.87401572e-03 0.
      7.87401572e-03 0. 0. 0. 0. 0. 0. 0. 0. 0. 0. 0. 7.87401572e-03 0.
      7.87401572e-03 0. 0. 0. 0. 0. 0. 1.57480314e-02 0. 0. 0. 0. 0. 0.
      0. 0. 0. 0. 0. 0. 0. 0. 0. 0. 0. 0. 0. 0.</_>
    <_>
      0. 0. 0. 0. 0. 0. 0. 0. 0. 0. 0. 0. 0. 0. 0. 0. 0. 0. 0. 0. 0.
      1.06382975e-02 0. 1.06382975e-02 0. 0. 0. 0. 0. 0. 0. 0. 0. 0. 0.
      0. 0. 0. 0. 0. 0. 0. 0. 0. 0. 0. 2.12765951e-02 2.12765951e-02 0.
      0. 1.06382975e-02 0. 0. 0. 0. 0. 0. 0. 0. 0. 0. 0. 0. 0. 0. 0. 0.
      0. 0. 0. 0. 0. 0. 0. 0. 0. 0. 0. 0. 0. 0. 0. 0. 0. 0. 0. 0. 0. 0.
      0. 0. 0. 0. 0. 0. 0. 0. 0. 0. 0. 0. 0. 0. 1.06382975e-02 0. 0. 0.
      0. 0. 0. 0. 0. 0. 2.12765951e-02 0. 2.12765951e-02 0. 0. 0. 0. 0.
      1.06382975e-02 0. 0. 0. 0. 0. 0. 0. 1.06382975e-02 0. 0. 0. 0. 0.
      1.06382975e-02 0. 1.06382975e-02 0. 0. 0. 0. 0. 0. 0. 0. 0. 0. 0.
      0. 0. 0. 0. 0. 0. 0. 0. 0. 0. 1.06382975e-02 1.06382975e-02 0. 0.
      0. 0. 0. 0. 0. 0. 0. 0. 0. 0. 0. 0. 0. 1.06382975e-02 0. 0. 0. 0.
      0. 0. 0. 0. 0. 0. 0. 1.06382975e-02 1.06382975e-02 0. 0. 0. 0. 0.
      0. 1.06382975e-02 0. 0. 1.06382975e-02 1.06382975e-02 0. 0. 0. 0.
      0. 0. 0. 0. 0. 0. 0. 0. 0. 0. 0. 0. 0. 0. 0. 0. 0. 1.06382975e-02
      0. 1.06382975e-02 0. 0. 0. 0. 0. 0. 0. 0. 0. 0. 0. 0. 0. 0.
      1.06382975e-02 0. 0. 0. 0. 0. 0. 0. 0. 0. 0. 0. 0. 0. 0. 0. 0. 0.
      0. 0. 1.06382975e-02 0. 0. 0. 0. 1.06382975e-02 0. 0. 0. 0. 0. 0.
      0. 0. 0. 0. 0. 1.06382975e-02 0. 1.06382975e-02 0. 0. 0. 0. 0. 0.
      0. 0. 1.06382975e-02 0. 0. 0. 0. 0. 0. 0. 0. 0. 0. 0. 0. 0. 0.
      1.06382975e-02 0. 1.06382975e-02 0. 0. 0. 0. 0. 1.06382975e-02 0.
      0. 0. 0. 0. 0. 0. 0. 1.06382975e-02 2.12765951e-02 0. 0. 0. 0. 0.
      0. 0. 0. 0. 0. 0. 0. 0. 0. 0. 0. 0. 0. 0. 0. 0. 0. 0. 0. 0. 0. 0.
      0. 0. 0. 0. 0. 0. 0. 0. 0. 0. 0. 0. 0. 1.06382975e-02 0. 0. 0. 0.
      1.06382975e-02 0. 0. 0. 0. 0. 0. 0. 0. 0. 0. 0. 0. 0. 0. 0. 0. 0.
      0. 0. 0. 0. 0. 0. 0. 0. 0. 0. 0. 0. 0. 0. 0. 0. 0. 0. 0. 0. 0. 0.
      0. 0. 0. 0. 0. 0. 0. 0. 0. 0. 0. 0. 0. 0. 0. 0. 0. 0. 0. 0. 0. 0.
      0. 1.06382975e-02 0. 0. 0. 1.06382975e-02 0. 0. 0. 0. 0. 0. 0. 0.
      0. 0. 1.06382975e-02 0. 0. 0. 1.06382975e-02 0. 0. 0. 0. 0. 0. 0.
      0. 0. 0. 1.06382975e-02 1.06382975e-02 0. 0. 0. 1.06382975e-02 0.
      0. 0. 0. 0. 0. 0. 0. 0. 0. 0. 0. 0. 1.06382975e-02 0. 0. 0.
      1.06382975e-02 0. 0. 0. 0. 0. 0. 0. 0. 0. 0. 0. 0. 0. 0.
      1.06382975e-02 0. 0. 0. 0. 0. 0. 0. 0. 0. 0. 0. 0. 0. 0. 0. 0. 0.
      0. 0. 0. 0. 0. 0. 0. 0. 0. 0. 0. 0. 0. 0. 0. 0. 0. 0. 0. 0. 0. 0.
      0. 0. 0. 0. 2.12765951e-02 0. 0. 0. 1.06382975e-02 0. 0. 0. 0. 0.
      0. 0. 0. 0. 0. 0. 1.06382975e-02 0. 0. 0. 0. 0. 0. 1.06382975e-02
      1.06382975e-02 0. 0. 0. 0. 0. 0. 0. 0. 0. 0. 0. 0. 0. 0. 0. 0. 0.
      0. 0. 0. 0. 0. 1.06382975e-02 0. 0. 0. 0. 0. 1.06382975e-02 0. 0.
      1.06382975e-02 0. 0. 0. 1.06382975e-02 1.06382975e-02 0. 0. 0. 0.
      0. 0. 0. 0. 0. 0. 0. 0. 1.06382975e-02 0. 0. 0. 1.06382975e-02 0.
      0. 0. 0. 0. 0. 0. 0. 0. 0. 0. 0. 0. 0. 0. 0. 0. 0. 0. 0. 0. 0. 0.
      0. 0. 0. 0. 0. 1.06382975e-02 0. 1.06382975e-02 0. 0. 0. 0. 0. 0.
      0. 0. 0. 0. 0. 0. 0. 0. 0. 0. 1.06382975e-02 0. 0. 0. 0. 0. 0. 0.
      0. 0. 0. 0. 0. 0. 0. 0. 0. 0. 0. 0. 0. 0. 0. 2.12765951e-02 0. 0.
      0. 0. 0. 1.06382975e-02 0. 0. 0. 0. 0. 0. 0. 0. 1.06382975e-02 0.
      0. 0. 0. 0. 0. 0. 0. 0. 1.06382975e-02 0. 0. 0. 0. 0. 0. 0. 0. 0.
      0. 0. 0. 0. 0. 0. 0. 0. 0. 0. 0. 0. 0. 0. 0. 0. 0. 1.06382975e-02
      0. 0. 0. 0. 0. 0. 0. 0. 0. 0. 0. 1.06382975e-02 0. 0. 0. 0. 0. 0.
      0. 0. 0. 1.06382975e-02 0. 0. 0. 0. 0. 0. 0. 0. 0. 0. 0.
      1.06382975e-02 0. 0. 1.06382975e-02 0. 0. 0. 0. 0. 0. 0.
      1.06382975e-02 0. 1.06382975e-02 0. 1.06382975e-02 0. 0. 0. 0. 0.
      0. 0. 0. 0. 0. 0. 0. 0. 0. 0. 0. 0. 0. 0. 0. 0. 0. 0. 0. 0. 0. 0.
      0. 0. 0. 0. 0. 0. 0. 0. 0. 0. 0. 0. 0. 0. 0. 0. 0. 0. 0. 0. 0. 0.
      0. 0. 0. 0. 0. 0. 1.06382975e-02 0. 0. 0. 0. 0. 0. 0. 0. 0. 0. 0.
      0. 0. 0. 0. 1.06382975e-02 0. 0. 0. 0. 0. 0. 0. 0. 0. 0. 0. 0. 0.
      1.06382975e-02 0. 0. 0. 0. 0. 0. 0. 0. 0. 0. 0. 0. 0. 0.
      1.06382975e-02 0. 0. 0. 0. 0. 0. 0. 0. 1.06382975e-02 0. 0. 0. 0.
      0. 0. 0. 0. 0. 0. 0. 0. 0. 0. 0. 0. 0. 0. 0. 0. 1.06382975e-02 0.
      0. 1.06382975e-02 1.06382975e-02 0. 0. 0. 0. 0. 0. 0. 0. 0. 0. 0.
      0. 0. 0. 0. 1.06382975e-02 0. 0. 0. 0. 0. 0. 1.06382975e-02 0.
      1.06382975e-02 1.06382975e-02 0. 0. 0. 0. 0. 0. 0. 0. 0.
      1.06382975e-02 0. 0. 0. 0. 0. 0. 1.06382975e-02 0. 1.06382975e-02
      0. 0. 0. 0. 0. 0. 0. 0. 0. 0. 0. 0. 0. 0. 0. 0. 0. 0. 0. 0. 0. 0.
      0. 0. 0. 0. 0. 0.</_>
    <_>
      0. 0. 0. 0. 0. 0. 0. 0. 0. 0. 0. 0. 0. 0. 0. 0. 0. 0. 0. 0. 0. 0.
      0. 2.56410260e-02 0. 0. 0. 0. 0. 0. 0. 0. 1.28205130e-02 0. 0. 0.
      0. 0. 0. 0. 0. 0. 0. 0. 0. 0. 0. 0. 0. 0. 1.28205130e-02 0. 0. 0.
      0. 0. 0. 0. 0. 0. 0. 0. 0. 0. 0. 0. 0. 1.28205130e-02 0. 0. 0. 0.
      0. 0. 0. 0. 1.28205130e-02 0. 0. 1.28205130e-02 0. 0. 0. 0. 0. 0.
      0. 0. 0. 0. 0. 0. 0. 0. 0. 0. 0. 0. 0. 0. 0. 0. 0. 0.
      1.28205130e-02 0. 0. 0. 0. 0. 0. 0. 0. 0. 0. 1.28205130e-02 0. 0.
      0. 0. 0. 0. 0. 0. 0. 0. 0. 0. 0. 0. 0. 0. 0. 0. 1.28205130e-02 0.
      0. 0. 0. 0. 0. 0. 0. 0. 0. 0. 0. 0. 0. 0. 0. 0. 0. 0. 0.
      1.28205130e-02 0. 0. 0. 0. 0. 0. 0. 0. 0. 0. 0. 0. 0. 0. 0. 0. 0.
      0. 0. 0. 0. 0. 0. 0. 0. 0. 0. 0. 0. 1.28205130e-02 0. 0.
      1.28205130e-02 1.28205130e-02 0. 0. 0. 0. 0. 1.28205130e-02 0. 0.
      0. 0. 0. 0. 0. 0. 0. 0. 0. 0. 0. 0. 0. 0. 0. 0. 0. 0. 0. 0. 0. 0.
      0. 0. 0. 2.56410260e-02 0. 0. 0. 0. 1.28205130e-02 0. 0. 0. 0. 0.
      1.28205130e-02 0. 0. 0. 0. 0. 0. 0. 0. 0. 0. 0. 2.56410260e-02 0.
      0. 0. 0. 0. 0. 0. 0. 0. 0. 0. 0. 1.28205130e-02 1.28205130e-02 0.
      0. 0. 0. 0. 0. 0. 0. 0. 0. 0. 0. 0. 0. 0. 0. 0. 0. 0. 0. 0. 0. 0.
      0. 0. 0. 0. 0. 0. 0. 0. 0. 0. 0. 0. 0. 0. 0. 0. 0. 0. 0. 0. 0. 0.
      0. 0. 0. 0. 0. 0. 0. 0. 0. 0. 0. 0. 0. 0. 0. 0. 2.56410260e-02 0.
      0. 0. 0. 0. 0. 0. 0. 0. 0. 0. 0. 0. 0. 0. 0. 0. 0. 2.56410260e-02
      0. 0. 0. 0. 1.28205130e-02 0. 0. 0. 0. 0. 0. 0. 0. 1.28205130e-02
      0. 0. 0. 0. 0. 0. 0. 0. 0. 0. 1.28205130e-02 0. 0. 0. 0. 0. 0.
      1.28205130e-02 0. 0. 0. 0. 0. 0. 0. 0. 0. 0. 0. 0. 0.
      1.28205130e-02 0. 0. 0. 0. 0. 0. 0. 0. 0. 0. 0. 0. 0. 0.
      2.56410260e-02 0. 0. 0. 0. 0. 0. 0. 0. 0. 0. 0. 0. 0. 0. 0. 0. 0.
      0. 0. 0. 0. 0. 0. 0. 0. 0. 0. 1.28205130e-02 0. 0. 0. 0. 0.
      1.28205130e-02 0. 0. 0. 0. 0. 0. 0. 0. 1.28205130e-02 0. 0. 0. 0.
      0. 0. 0. 0. 0. 0. 0. 0. 0. 1.28205130e-02 0. 1.28205130e-02 0. 0.
      0. 0. 0. 0. 0. 0. 0. 0. 0. 0. 0. 0. 0. 0. 0. 0. 0. 0. 0. 0. 0. 0.
      0. 0. 0. 0. 0. 0. 0. 1.28205130e-02 0. 0. 0. 0. 0. 0. 0. 0. 0. 0.
      0. 0. 0. 0. 0. 0. 0. 0. 0. 0. 5.12820520e-02 1.28205130e-02 0. 0.
      0. 0. 0. 0. 0. 0. 0. 1.28205130e-02 0. 0. 0. 0. 0. 0.
      1.28205130e-02 0. 0. 1.28205130e-02 0. 0. 0. 0. 0. 1.28205130e-02
      0. 0. 0. 0. 0. 0. 0. 0. 0. 0. 0. 0. 0. 0. 0. 0. 0. 0. 0. 0. 0.
      1.28205130e-02 0. 0. 0. 0. 0. 0. 0. 1.28205130e-02 0. 0. 0. 0. 0.
      0. 0. 0. 0. 0. 0. 0. 0. 0. 0. 0. 0. 0. 0. 0. 0. 0. 0. 0. 0. 0. 0.
      0. 0. 0. 0. 0. 1.28205130e-02 0. 0. 0. 0. 0. 0. 0. 0. 0. 0. 0. 0.
      0. 0. 0. 0. 0. 0. 0. 0. 0. 0. 0. 0. 0. 0. 0. 0. 0. 0. 0. 0. 0. 0.
      0. 1.28205130e-02 0. 0. 0. 0. 0. 0. 0. 0. 0. 0. 0. 0. 0. 0. 0. 0.
      0. 0. 0. 0. 0. 0. 1.28205130e-02 0. 0. 0. 0. 0. 0. 0. 0. 0. 0. 0.
      0. 0. 0. 0. 0. 0. 0. 0. 0. 0. 0. 0. 0. 0. 0. 0. 0. 0. 0. 0.
      1.28205130e-02 0. 0. 0. 0. 0. 0. 0. 0. 0. 0. 0. 0. 0. 0. 0. 0.
      1.28205130e-02 0. 0. 0. 0. 0. 0. 0. 0. 0. 0. 0. 0. 0. 0. 0. 0. 0.
      0. 0. 0. 0. 0. 0. 0. 0. 0. 0. 0. 1.28205130e-02 0. 0.
      2.56410260e-02 0. 0. 0. 0. 0. 0. 0. 0. 0. 0. 0. 0. 0. 0. 0.
      1.28205130e-02 0. 0. 0. 0. 0. 1.28205130e-02 0. 0. 0. 0. 0. 0. 0.
      0. 0. 1.28205130e-02 0. 0. 0. 0. 0. 0. 0. 0. 0. 0. 0. 0. 0. 0. 0.
      0. 0. 0. 0. 0. 0. 0. 0. 0. 0. 0. 0. 0. 0. 0. 0. 0. 0. 0. 0. 0. 0.
      0. 0. 0. 0. 0. 0. 0. 0. 0. 0. 0. 1.28205130e-02 0. 0.
      1.28205130e-02 0. 0. 0. 0. 0. 0. 0. 0. 0. 0. 0. 0. 0. 0. 0. 0. 0.
      0. 0. 0. 0. 0. 0. 0. 0. 0. 1.28205130e-02 0. 0. 0. 0. 0. 0. 0.
      1.28205130e-02 0. 1.28205130e-02 0. 0. 0. 0. 1.28205130e-02 0. 0.
      0. 0. 0. 0. 0. 0. 0. 0. 0. 0. 0. 1.28205130e-02 0. 0. 0. 0. 0. 0.
      0. 0. 0. 0. 0. 1.28205130e-02 0. 0. 0. 0. 0. 0. 1.28205130e-02 0.
      0. 1.28205130e-02 0. 0. 0. 0. 0. 0. 0. 0. 0. 0. 0. 1.28205130e-02
      0. 0. 0. 0. 0. 0. 0. 1.28205130e-02 0. 0. 1.28205130e-02 0.
      1.28205130e-02 0. 0. 0. 0. 0. 0. 0. 0. 0. 0. 0. 0. 0. 0. 0. 0. 0.
      0. 0. 2.56410260e-02 0. 0. 0. 0. 0. 0. 0. 0. 0. 0. 0. 0. 0. 0. 0.
      0. 0. 0. 0. 0. 0. 0. 0. 0. 0. 0. 0. 0. 0. 0. 0. 0. 0. 0. 0. 0. 0.
      0. 0. 0. 0. 0. 0. 0. 0. 0. 0. 0.</_>
    <_>
      0. 0. 0. 0. 0. 0. 0. 0. 0. 0. 0. 0. 0. 0. 1.69491526e-02
      8.47457629e-03 0. 0. 0. 0. 0. 0. 8.47457629e-03 0. 0. 0. 0.
      8.47457629e-03 0. 0. 0. 0. 0. 0. 0. 8.47457629e-03 0.
      8.47457629e-03 0. 0. 0. 0. 0. 0. 0. 0. 0. 0. 8.47457629e-03 0.
      8.47457629e-03 0. 8.47457629e-03 0. 0. 0. 0. 0. 0. 0. 0. 0. 0. 0.
      8.47457629e-03 0. 0. 1.69491526e-02 0. 0. 0. 0. 0. 0. 0. 0. 0. 0.
      0. 0. 0. 0. 0. 0. 0. 0. 0. 0. 0. 0. 0. 8.47457629e-03 0. 0. 0. 0.
      0. 0. 0. 0. 0. 0. 0. 0. 8.47457629e-03 0. 0. 0. 1.69491526e-02 0.
      0. 8.47457629e-03 0. 0. 0. 0. 0. 0. 0. 0. 0. 0. 0. 0. 0. 0. 0. 0.
      0. 0. 1.69491526e-02 0. 0. 0. 0. 0. 0. 0. 0. 0. 0. 0. 0. 0. 0. 0.
      8.47457629e-03 0. 0. 0. 0. 0. 8.47457629e-03 0. 0. 0. 0. 0. 0. 0.
      0. 0. 0. 0. 0. 8.47457629e-03 0. 8.47457629e-03 0. 0. 0. 0. 0. 0.
      0. 0. 0. 0. 0. 0. 0. 0. 0. 0. 0. 0. 0. 0. 0. 0. 0. 0. 0. 0. 0. 0.
      0. 0. 0. 8.47457629e-03 0. 0. 0. 0. 0. 0. 0. 0. 0. 0. 0. 0. 0. 0.
      0. 0. 0. 0. 0. 0. 0. 0. 0. 0. 8.47457629e-03 0. 0. 0. 0. 0. 0. 0.
      8.47457629e-03 0. 0. 0. 0. 0. 0. 0. 0. 1.69491526e-02 0.
      1.69491526e-02 0. 0. 0. 8.47457629e-03 0. 0. 0. 0. 8.47457629e-03
      0. 0. 0. 0. 0. 0. 0. 0. 0. 0. 0. 0. 0. 0. 8.47457629e-03 0. 0. 0.
      0. 0. 0. 0. 0. 0. 0. 0. 8.47457629e-03 0. 0. 0. 0. 8.47457629e-03
      0. 0. 0. 0. 0. 0. 0. 0. 0. 0. 0. 0. 0. 0. 0. 0. 0. 0. 0. 0. 0. 0.
      0. 0. 0. 0. 0. 8.47457629e-03 0. 8.47457629e-03 0. 0. 0. 0. 0. 0.
      8.47457629e-03 0. 0. 0. 0. 0. 0. 0. 0. 8.47457629e-03 0. 0. 0. 0.
      0. 0. 0. 0. 0. 0. 0. 0. 0. 0. 8.47457629e-03 0. 0. 0.
      8.47457629e-03 0. 0. 0. 0. 0. 0. 0. 0. 0. 8.47457629e-03 0. 0. 0.
      0. 0. 0. 0. 0. 8.47457629e-03 0. 0. 0. 0. 0. 0. 0. 0. 0. 0. 0. 0.
      0. 0. 0. 0. 0. 0. 0. 0. 0. 8.47457629e-03 8.47457629e-03 0. 0. 0.
      0. 0. 0. 8.47457629e-03 0. 0. 0. 0. 0. 0. 0. 8.47457629e-03 0. 0.
      8.47457629e-03 0. 0. 0. 0. 0. 8.47457629e-03 0. 0. 0. 0. 0. 0. 0.
      0. 0. 0. 0. 0. 0. 0. 0. 0. 8.47457629e-03 0. 0. 0. 0. 0. 0. 0. 0.
      0. 0. 0. 0. 0. 0. 0. 0. 0. 0. 0. 0. 0. 0. 0. 0. 0. 0. 0. 0. 0. 0.
      0. 0. 0. 0. 0. 0. 0. 8.47457629e-03 0. 0. 0. 0. 0. 0. 0. 0. 0. 0.
      0. 8.47457629e-03 0. 0. 0. 0. 0. 0. 0. 0. 0. 0. 8.47457629e-03 0.
      8.47457629e-03 0. 0. 0. 0. 0. 0. 0. 0. 0. 0. 0. 0. 0. 0. 0. 0. 0.
      0. 0. 0. 0. 0. 0. 0. 0. 0. 0. 0. 0. 0. 8.47457629e-03 0. 0.
      8.47457629e-03 0. 0. 0. 0. 0. 0. 0. 0. 0. 0. 0. 0. 8.47457629e-03
      0. 0. 8.47457629e-03 0. 0. 0. 0. 0. 0. 0. 0. 0. 0. 0. 0. 0.
      8.47457629e-03 0. 8.47457629e-03 0. 0. 0. 0. 0. 1.69491526e-02 0.
      0. 0. 0. 0. 0. 8.47457629e-03 0. 0. 0. 0. 0. 0. 0. 0. 0. 0. 0. 0.
      0. 0. 0. 0. 0. 0. 0. 0. 0. 0. 0. 0. 0. 0. 0. 0. 0. 8.47457629e-03
      0. 0. 0. 8.47457629e-03 0. 0. 8.47457629e-03 0. 0. 0. 0. 0.
      8.47457629e-03 0. 0. 0. 0. 0. 0. 0. 0. 0. 0. 0. 0. 0. 0. 0. 0. 0.
      8.47457629e-03 0. 0. 0. 0. 0. 0. 8.47457629e-03 0. 8.47457629e-03
      0. 0. 0. 0. 0. 8.47457629e-03 0. 0. 0. 0. 0. 0. 0. 0. 0. 0. 0.
      1.69491526e-02 0. 0. 0. 0. 0. 2.54237279e-02 0. 0. 0. 0. 0. 0. 0.
      0. 0. 0. 8.47457629e-03 0. 0. 0. 0. 0. 0. 0. 0. 0. 0. 0. 0. 0. 0.
      0. 0. 0. 0. 0. 1.69491526e-02 0. 0. 0. 0. 0. 0. 0. 0. 0. 0.
      8.47457629e-03 0. 0. 0. 0. 0. 0. 0. 0. 1.69491526e-02 0. 0. 0. 0.
      0. 0. 8.47457629e-03 0. 8.47457629e-03 0. 0. 0. 0. 0. 0. 0. 0. 0.
      0. 8.47457629e-03 0. 0. 0. 0. 0. 8.47457629e-03 0. 0. 0. 0. 0. 0.
      0. 0. 0. 0. 0. 0. 0. 0. 0. 0. 0. 0. 0. 0. 0. 0. 0. 0. 0. 0. 0. 0.
      0. 0. 0. 0. 0. 0. 0. 0. 0. 0. 0. 8.47457629e-03 0. 0.
      8.47457629e-03 0. 0. 0. 0. 0. 0. 0. 0. 0. 0. 0. 0. 0.
      8.47457629e-03 0. 0. 0. 0. 0. 8.47457629e-03 0. 0. 0. 0. 0. 0. 0.
      0. 0. 0. 0. 0. 0. 0. 8.47457629e-03 8.47457629e-03 0. 0. 0.
      8.47457629e-03 0. 0. 0. 0. 0. 0. 0. 8.47457629e-03 0. 0. 0. 0. 0.
      0. 0. 0. 0. 0. 0. 0. 0. 0. 0. 0. 0. 0. 0. 0. 0. 0. 0. 0. 0.
      8.47457629e-03 0. 0. 0. 8.47457629e-03 0. 0. 0. 0. 8.47457629e-03
      0. 0. 0. 0. 0. 0. 0. 8.47457629e-03 0. 0. 8.47457629e-03 0. 0. 0.
      0. 0. 0. 0. 0. 0. 0. 8.47457629e-03 0. 0. 0. 0. 0. 8.47457629e-03
      0. 0. 0. 0. 0. 0. 0. 0. 0. 0. 0. 0. 0. 0. 0. 0. 0. 1.69491526e-02
      0. 0. 0. 0. 0. 0. 1.69491526e-02 0. 0. 0. 0. 0. 0. 0. 0. 0. 0.
      8.47457629e-03 8.47457629e-03 0. 0. 8.47457629e-03 0. 0. 0. 0. 0.
      0. 0. 8.47457629e-03 0. 0. 0. 0. 0. 0. 0. 0. 0. 0. 0. 0. 0. 0. 0.
      0. 0. 8.47457629e-03 0. 0. 0. 0. 0. 0. 0. 0. 8.47457629e-03
      8.47457629e-03 0. 0. 0. 8.47457629e-03 0. 0. 0. 0. 3.38983051e-02
      0. 0. 0. 0. 0. 0. 0. 0. 0. 0. 0. 0. 0. 0. 0.</_>
    <_>
      0. 0. 0. 0. 0. 0. 0. 0. 0. 0. 0. 0. 7.75193796e-03 0. 0. 0. 0. 0.
      0. 0. 0. 0. 0. 0. 0. 0. 7.75193796e-03 0. 0. 0. 7.75193796e-03 0.
      0. 0. 0. 0. 0. 0. 0. 0. 0. 0. 0. 0. 0. 0. 0. 0. 0. 0.
      7.75193796e-03 0. 0. 0. 0. 7.75193796e-03 7.75193796e-03 0. 0. 0.
      0. 0. 7.75193796e-03 0. 0. 0. 0. 0. 0. 0. 0. 0. 0. 0. 0. 0. 0. 0.
      0. 0. 0. 0. 0. 0. 0. 0. 0. 0. 0. 0. 0. 0. 0. 0. 0. 0. 0. 0. 0. 0.
      0. 0. 0. 0. 0. 0. 0. 0. 0. 7.75193796e-03 0. 0. 2.32558139e-02 0.
      0. 0. 0. 0. 0. 0. 0. 0. 0. 0. 7.75193796e-03 0. 0. 0. 0. 0. 0. 0.
      0. 0. 0. 0. 0. 0. 0. 0. 7.75193796e-03 0. 0. 0. 0. 0. 0. 0. 0. 0.
      0. 0. 0. 2.32558139e-02 0. 0. 7.75193796e-03 0. 0. 0. 0. 0. 0. 0.
      0. 0. 0. 0. 0. 0. 0. 0. 0. 0. 0. 0. 0. 0. 0. 0. 0. 0. 0. 0. 0.
      1.55038759e-02 7.75193796e-03 7.75193796e-03 0. 0. 0. 0. 0. 0. 0.
      0. 0. 0. 0. 0. 0. 0. 0. 0. 0. 0. 0. 7.75193796e-03 0. 0. 0. 0. 0.
      0. 0. 0. 7.75193796e-03 0. 7.75193796e-03 0. 0. 0. 0. 0.
      7.75193796e-03 0. 0. 0. 0. 0. 0. 0. 0. 0. 0. 0. 0. 0. 0. 0. 0. 0.
      0. 0. 0. 0. 0. 0. 0. 0. 0. 0. 0. 0. 0. 0. 0. 0. 0. 1.55038759e-02
      0. 0. 0. 0. 0. 0. 0. 7.75193796e-03 0. 0. 0. 0. 0. 0. 0. 0. 0. 0.
      0. 0. 0. 0. 7.75193796e-03 0. 0. 0. 7.75193796e-03 0. 0. 0. 0.
      7.75193796e-03 7.75193796e-03 7.75193796e-03 0. 0. 0. 0. 0. 0. 0.
      0. 0. 0. 0. 0. 0. 0. 0. 0. 0. 0. 0. 0. 0. 0. 0. 0. 0. 0. 0. 0. 0.
      0. 0. 0. 0. 0. 0. 0. 0. 7.75193796e-03 0. 0. 0. 0. 1.55038759e-02
      0. 0. 0. 0. 0. 0. 0. 0. 7.75193796e-03 0. 0. 0. 0. 0.
      7.75193796e-03 0. 7.75193796e-03 0. 0. 7.75193796e-03 0. 0. 0.
      7.75193796e-03 0. 0. 7.75193796e-03 1.55038759e-02 0. 0.
      7.75193796e-03 0. 0. 0. 0. 7.75193796e-03 0. 0. 0. 0. 0. 0.
      1.55038759e-02 0. 0. 0. 0. 0. 0. 0. 0. 0. 7.75193796e-03
      7.75193796e-03 7.75193796e-03 7.75193796e-03 0. 0. 0.
      7.75193796e-03 0. 0. 0. 0. 0. 0. 0. 0. 0. 0. 0. 0. 7.75193796e-03
      0. 0. 0. 0. 0. 7.75193796e-03 0. 0. 0. 0. 0. 7.75193796e-03 0. 0.
      0. 7.75193796e-03 0. 0. 0. 0. 0. 7.75193796e-03 0. 0. 0. 0. 0. 0.
      0. 0. 1.55038759e-02 0. 0. 0. 0. 0. 0. 7.75193796e-03 0. 0.
      7.75193796e-03 7.75193796e-03 0. 0. 0. 0. 0. 0. 0. 7.75193796e-03
      0. 0. 0. 0. 0. 0. 7.75193796e-03 0. 0. 0. 0. 7.75193796e-03 0. 0.
      0. 0. 0. 0. 7.75193796e-03 0. 0. 0. 0. 0. 0. 0. 0. 1.55038759e-02
      0. 0. 0. 0. 0. 0. 0. 0. 7.75193796e-03 0. 0. 0. 1.55038759e-02 0.
      7.75193796e-03 0. 0. 0. 0. 0. 0. 0. 0. 0. 0. 0. 1.55038759e-02 0.
      7.75193796e-03 0. 0. 0. 0. 0. 0. 0. 0. 0. 0. 0. 0. 0. 0. 0. 0. 0.
      0. 0. 0. 0. 0. 0. 0. 0. 0. 0. 0. 0. 0. 0. 0. 7.75193796e-03
      7.75193796e-03 0. 0. 0. 0. 0. 0. 0. 0. 0. 0. 0. 0. 0. 0. 0. 0. 0.
      0. 0. 0. 0. 0. 0. 0. 0. 0. 0. 7.75193796e-03 0. 0. 0. 0. 0. 0. 0.
      0. 0. 0. 0. 0. 0. 0. 0. 0. 0. 0. 0. 0. 0. 0. 0. 0. 0. 0. 0. 0. 0.
      0. 0. 0. 0. 0. 0. 0. 7.75193796e-03 0. 0. 0. 7.75193796e-03 0.
      7.75193796e-03 0. 0. 0. 0. 0. 0. 7.75193796e-03 0. 0. 0. 0. 0. 0.
      0. 0. 0. 0. 0. 0. 0. 0. 0. 0. 0. 1.55038759e-02 0. 0. 0. 0. 0. 0.
      0. 0. 0. 0. 7.75193796e-03 0. 0. 0. 7.75193796e-03 0. 0.
      7.75193796e-03 0. 0. 7.75193796e-03 0. 0. 0. 0. 0. 0. 0. 0. 0. 0.
      0. 0. 7.75193796e-03 0. 7.75193796e-03 0. 0. 0. 0. 0. 0. 0. 0. 0.
      0. 0. 0. 0. 0. 0. 0. 0. 0. 0. 0. 0. 0. 0. 0. 0. 0. 0. 0. 0. 0. 0.
      0. 0. 7.75193796e-03 0. 0. 0. 0. 0. 7.75193796e-03 0. 0. 0. 0. 0.
      1.55038759e-02 0. 0. 0. 0. 0. 0. 0. 0. 7.75193796e-03 0. 0. 0. 0.
      0. 0. 7.75193796e-03 0. 0. 7.75193796e-03 0. 0. 0. 0. 0.
      7.75193796e-03 7.75193796e-03 7.75193796e-03 0. 0. 0. 0. 0. 0.
      7.75193796e-03 0. 0. 0. 0. 0. 7.75193796e-03 0. 7.75193796e-03 0.
      0. 0. 0. 0. 0. 0. 0. 0. 0. 0. 0. 0. 0. 7.75193796e-03 0. 0. 0. 0.
      0. 0. 0. 0. 0. 0. 0. 7.75193796e-03 0. 0. 0. 0. 0. 7.75193796e-03
      0. 0. 7.75193796e-03 0. 0. 0. 0. 7.75193796e-03 0. 7.75193796e-03
      0. 0. 0. 0. 0. 0. 0. 0. 7.75193796e-03 0. 0. 0. 0. 0. 0. 0. 0. 0.
      0. 0. 0. 0. 0. 0. 0. 7.75193796e-03 0. 0. 0. 0. 0. 7.75193796e-03
      0. 0. 0. 0. 0. 0. 0. 0. 0. 0. 0. 1.55038759e-02 0. 0. 0. 0. 0. 0.
      0. 0. 0. 0. 0. 7.75193796e-03 7.75193796e-03 0. 0. 0. 0. 0. 0. 0.
      0. 0. 0. 0. 0. 0. 0. 0. 7.75193796e-03 7.75193796e-03
      7.75193796e-03 0. 0. 0. 0. 0. 0. 0. 0. 0. 0. 0. 0. 0. 0. 0. 0. 0.
      0. 0. 7.75193796e-03 0. 0. 0. 0. 7.75193796e-03 0. 0. 0. 0. 0. 0.
      0. 0. 0. 0. 0. 0. 0. 0. 0. 0. 0. 0. 0. 0. 7.75193796e-03
      7.75193796e-03 0. 0. 0. 0. 0. 0. 0. 0. 0. 0. 0. 0. 0. 0. 0. 0. 0.
      0. 7.75193796e-03 0. 0. 0. 0. 0. 0. 0. 0. 0. 0. 0. 0. 0. 0. 0.
      7.75193796e-03 0. 7.75193796e-03 0. 0. 0. 0. 0. 0. 0. 0. 0. 0. 0.
      0. 7.75193796e-03 0. 0. 0. 7.75193796e-03 0. 0. 0. 0. 0. 0. 0. 0.
      0. 0.</_>
    <_>
      0. 0. 0. 0. 0. 0. 0. 0. 0. 0. 0. 0. 0. 0. 0. 0. 1.08695654e-02 0.
      0. 0. 0. 0. 0. 0. 0. 0. 0. 0. 0. 0. 0. 0. 0. 0. 0. 0. 0.
      1.08695654e-02 1.08695654e-02 0. 0. 0. 0. 0. 0. 0. 1.08695654e-02
      0. 0. 0. 1.08695654e-02 0. 0. 0. 0. 0. 0. 0. 0. 0. 0. 0. 0. 0. 0.
      0. 1.08695654e-02 0. 0. 0. 0. 0. 0. 0. 0. 0. 0. 0. 0. 0.
      1.08695654e-02 0. 0. 0. 0. 0. 0. 0. 0. 0. 0. 1.08695654e-02 0.
      1.08695654e-02 0. 0. 0. 0. 0. 0. 1.08695654e-02 0. 0. 0. 0. 0. 0.
      0. 0. 0. 0. 0. 0. 0. 0. 0. 0. 0. 0. 0. 0. 0. 1.08695654e-02 0. 0.
      0. 1.08695654e-02 0. 0. 0. 0. 0. 0. 0. 0. 0. 0. 0. 0. 0. 0. 0. 0.
      0. 0. 0. 0. 1.08695654e-02 0. 0. 0. 0. 0. 0. 0. 0. 0. 0. 0. 0. 0.
      0. 0. 0. 0. 0. 0. 0. 0. 0. 0. 0. 0. 0. 0. 0. 0. 0. 0. 0. 0. 0. 0.
      0. 0. 0. 0. 0. 0. 0. 0. 0. 0. 0. 0. 0. 0. 0. 0. 0. 0. 0. 0. 0. 0.
      0. 0. 0. 0. 0. 0. 0. 0. 0. 0. 0. 0. 0. 0. 0. 0. 0. 0. 0. 0. 0. 0.
      0. 0. 0. 0. 0. 0. 1.08695654e-02 0. 0. 0. 0. 0. 1.08695654e-02 0.
      0. 0. 0. 0. 0. 0. 0. 0. 0. 0. 0. 0. 0. 0. 0. 0. 0. 0. 0. 0. 0. 0.
      0. 0. 0. 0. 0. 0. 0. 1.08695654e-02 1.08695654e-02 1.08695654e-02
      0. 0. 0. 0. 0. 0. 1.08695654e-02 0. 0. 0. 0. 0. 0. 0.
      1.08695654e-02 2.17391308e-02 0. 0. 0. 1.08695654e-02 0. 0. 0. 0.
      0. 0. 0. 0. 0. 0. 0. 0. 1.08695654e-02 0. 0. 0. 0. 0. 0. 0. 0.
      1.08695654e-02 0. 0. 0. 0. 0. 0. 0. 0. 0. 0. 0. 0. 0. 0.
      1.08695654e-02 0. 0. 0. 0. 0. 0. 0. 0. 0. 1.08695654e-02 0. 0. 0.
      1.08695654e-02 0. 0. 0. 0. 0. 0. 0. 0. 0. 0. 0. 0. 0. 0. 0. 0. 0.
      0. 0. 0. 2.17391308e-02 0. 0. 0. 0. 0. 0. 0. 0. 0. 0. 0. 0. 0. 0.
      1.08695654e-02 0. 0. 0. 0. 0. 0. 0. 0. 0. 0. 2.17391308e-02 0. 0.
      1.08695654e-02 0. 0. 0. 0. 1.08695654e-02 0. 0. 0. 0. 0. 0. 0. 0.
      0. 0. 0. 1.08695654e-02 0. 0. 0. 0. 0. 0. 0. 0. 0. 0. 0. 0. 0. 0.
      0. 0. 0. 0. 0. 0. 0. 1.08695654e-02 0. 0. 0. 0. 0. 0.
      1.08695654e-02 1.08695654e-02 0. 0. 0. 0. 0. 0. 0. 0. 0. 0. 0. 0.
      0. 0. 0. 0. 1.08695654e-02 0. 1.08695654e-02 0. 0. 0. 0.
      1.08695654e-02 0. 0. 0. 1.08695654e-02 0. 0. 0. 0. 0. 0. 0. 0. 0.
      0. 0. 0. 0. 0. 0. 0. 0. 0. 0. 0. 0. 0. 0. 0. 0. 0. 0. 0. 0. 0. 0.
      0. 1.08695654e-02 0. 1.08695654e-02 0. 0. 0. 0. 0. 0. 0. 0. 0. 0.
      0. 0. 0. 0. 0. 0. 0. 0. 0. 0. 0. 0. 0. 0. 0. 0. 0. 0. 0. 0. 0. 0.
      0. 0. 1.08695654e-02 0. 0. 0. 0. 0. 0. 0. 0. 0. 0. 1.08695654e-02
      0. 0. 0. 0. 0. 0. 0. 0. 0. 0. 0. 0. 0. 0. 0. 0. 0. 0. 0. 0. 0. 0.
      0. 0. 0. 0. 0. 0. 0. 0. 0. 0. 0. 1.08695654e-02 0. 0. 0. 0. 0. 0.
      0. 0. 0. 0. 0. 0. 0. 0. 0. 0. 0. 0. 0. 0. 0. 0. 0. 0. 0. 0. 0. 0.
      0. 1.08695654e-02 0. 0. 0. 1.08695654e-02 0. 0. 0. 0. 0. 0. 0. 0.
      0. 0. 0. 0. 0. 0. 0. 0. 0. 1.08695654e-02 0. 0. 0. 0. 0. 0. 0. 0.
      0. 0. 0. 0. 0. 0. 0. 0. 0. 0. 0. 0. 0. 0. 0. 0. 0. 0. 0. 0. 0. 0.
      0. 0. 0. 0. 0. 0. 0. 0. 0. 0. 0. 0. 0. 1.08695654e-02 0. 0. 0. 0.
      0. 2.17391308e-02 1.08695654e-02 0. 0. 0. 1.08695654e-02
      1.08695654e-02 0. 0. 0. 0. 0. 0. 0. 0. 0. 0. 0. 0. 0. 0. 0. 0. 0.
      0. 0. 0. 0. 0. 0. 0. 0. 0. 0. 0. 0. 0. 2.17391308e-02 0. 0. 0. 0.
      0. 0. 0. 0. 0. 0. 0. 0. 0. 0. 0. 0. 0. 0. 0. 0. 0. 0. 0. 0. 0. 0.
      0. 0. 0. 0. 1.08695654e-02 0. 0. 0. 0. 0. 0. 0. 0. 0. 0. 0. 0. 0.
      0. 0. 0. 1.08695654e-02 0. 0. 0. 0. 0. 0. 0. 1.08695654e-02 0. 0.
      0. 0. 0. 0. 0. 0. 1.08695654e-02 0. 1.08695654e-02 0.
      1.08695654e-02 0. 0. 0. 1.08695654e-02 0. 1.08695654e-02 0. 0. 0.
      1.08695654e-02 0. 0. 0. 0. 0. 0. 0. 0. 0. 0. 0. 0. 1.08695654e-02
      0. 1.08695654e-02 0. 1.08695654e-02 0. 0. 0. 0. 0. 0. 0. 0. 0. 0.
      0. 1.08695654e-02 0. 0. 0. 0. 0. 0. 0. 0. 0. 0. 0. 0. 0. 0. 0. 0.
      0. 0. 0. 0. 0. 1.08695654e-02 0. 0. 0. 0. 0. 0. 0. 0. 0.
      1.08695654e-02 0. 0. 0. 1.08695654e-02 0. 0. 0. 0. 0. 0. 0. 0. 0.
      0. 0. 0. 0. 0. 0. 1.08695654e-02 1.08695654e-02 0. 0. 0. 0. 0. 0.
      0. 0. 0. 0. 0. 0. 0. 0. 0. 0. 0. 0. 0. 0. 0. 0. 1.08695654e-02
      1.08695654e-02 0. 0. 0. 1.08695654e-02 0. 0. 0. 0. 1.08695654e-02
      1.08695654e-02 1.08695654e-02 0. 1.08695654e-02 0. 0. 0. 0. 0. 0.
      0. 0. 0. 0. 0. 0. 0. 0. 0. 0. 0. 0. 0. 0. 0. 0. 0. 0. 0. 0.
      1.08695654e-02 0. 0. 0. 0. 0. 1.08695654e-02 0. 0. 0. 0. 0. 0. 0.
      0. 0. 0. 0. 0. 0. 0. 2.17391308e-02 0. 0. 0. 0. 0. 0. 0. 0. 0. 0.
      0. 1.08695654e-02 0. 0. 1.08695654e-02 0. 0. 0. 0. 0. 0. 0. 0.
      1.08695654e-02 0. 0. 0. 0. 0. 1.08695654e-02 0.</_>
    <_>
      0. 8.06451589e-03 0. 0. 0. 0. 0. 0. 0. 0. 0. 0. 0. 0. 0. 0. 0.
      1.61290318e-02 0. 8.06451589e-03 0. 0. 0. 0. 0. 0. 0. 0. 0.
      8.06451589e-03 0. 0. 0. 0. 0. 0. 0. 8.06451589e-03 0. 0. 0. 0. 0.
      0. 0. 0. 8.06451589e-03 0. 0. 0. 0. 0. 0. 0. 0. 0. 0. 0. 0. 0. 0.
      8.06451589e-03 0. 0. 0. 0. 8.06451589e-03 0. 0. 0. 8.06451589e-03
      0. 0. 0. 0. 0. 0. 0. 0. 0. 0. 0. 0. 0. 0. 0. 0. 0. 0. 0.
      8.06451589e-03 0. 0. 0. 0. 0. 0. 0. 0. 0. 0. 0. 0. 0. 0. 0. 0. 0.
      0. 0. 8.06451589e-03 0. 1.61290318e-02 0. 0. 0. 0. 0. 0. 0. 0. 0.
      0. 0. 0. 0. 0. 8.06451589e-03 0. 8.06451589e-03 0. 0. 0.
      8.06451589e-03 0. 0. 0. 0. 0. 0. 0. 8.06451589e-03 0. 0. 0.
      8.06451589e-03 0. 0. 0. 0. 0. 8.06451589e-03 0. 0. 0. 0. 0. 0. 0.
      0. 0. 0. 8.06451589e-03 0. 0. 8.06451589e-03 0. 8.06451589e-03
      8.06451589e-03 0. 0. 0. 0. 0. 0. 0. 0. 0. 0. 0. 0. 0. 0. 0. 0.
      8.06451589e-03 0. 0. 0. 8.06451589e-03 0. 0. 0. 0. 0. 0. 0. 0. 0.
      0. 0. 0. 0. 0. 0. 0. 0. 0. 0. 0. 8.06451589e-03 0. 8.06451589e-03
      8.06451589e-03 0. 0. 0. 0. 0. 0. 0. 0. 0. 0. 0. 0. 8.06451589e-03
      0. 0. 0. 0. 0. 0. 0. 0. 0. 0. 0. 0. 0. 0. 0. 0. 0. 0. 0. 0.
      8.06451589e-03 0. 0. 0. 0. 0. 0. 0. 0. 0. 0. 0. 0. 0. 0.
      2.41935477e-02 1.61290318e-02 0. 0. 8.06451589e-03 0. 0. 0. 0. 0.
      0. 0. 0. 8.06451589e-03 0. 0. 0. 0. 0. 0. 0. 0. 0. 0. 0. 0. 0. 0.
      0. 8.06451589e-03 8.06451589e-03 8.06451589e-03 0. 0. 0. 0. 0.
      8.06451589e-03 8.06451589e-03 1.61290318e-02 0. 0. 0. 0. 0. 0. 0.
      0. 8.06451589e-03 0. 0. 0. 0. 0. 0. 0. 0. 0. 0. 0. 0. 0. 0. 0. 0.
      0. 0. 0. 0. 0. 0. 0. 0. 8.06451589e-03 0. 0. 0. 0. 0. 0. 0. 0. 0.
      0. 0. 0. 0. 0. 0. 8.06451589e-03 0. 0. 0. 0. 0. 0. 0.
      8.06451589e-03 0. 0. 0. 0. 8.06451589e-03 0. 0. 0. 0. 0. 0.
      8.06451589e-03 0. 0. 0. 0. 0. 0. 0. 0. 0. 0. 0. 0. 8.06451589e-03
      0. 1.61290318e-02 0. 0. 0. 8.06451589e-03 0. 0. 0. 0. 0. 0. 0. 0.
      0. 0. 0. 0. 8.06451589e-03 0. 0. 0. 0. 0. 0. 0. 8.06451589e-03 0.
      0. 0. 0. 8.06451589e-03 0. 0. 0. 0. 0. 0. 0. 0. 0. 0. 0. 0. 0. 0.
      0. 0. 0. 0. 0. 0. 0. 0. 0. 0. 8.06451589e-03 8.06451589e-03 0. 0.
      0. 0. 0. 0. 0. 0. 8.06451589e-03 0. 0. 0. 0. 0. 0. 0. 0. 0. 0. 0.
      0. 0. 0. 0. 0. 0. 0. 0. 0. 0. 8.06451589e-03 8.06451589e-03 0. 0.
      0. 0. 0. 0. 0. 0. 8.06451589e-03 0. 0. 0. 0. 0. 0. 0. 0. 0. 0. 0.
      8.06451589e-03 0. 0. 0. 0. 0. 0. 0. 0. 0. 0. 0. 0. 0. 0. 0. 0.
      8.06451589e-03 0. 0. 8.06451589e-03 0. 0. 0. 0. 0. 0.
      8.06451589e-03 0. 0. 0. 0. 0. 0. 0. 0. 0. 0. 0. 0. 8.06451589e-03
      0. 0. 0. 0. 0. 0. 0. 0. 0. 0. 0. 0. 0. 0. 0. 0. 0. 0. 0. 0. 0. 0.
      0. 8.06451589e-03 8.06451589e-03 0. 0. 8.06451589e-03 0. 0. 0. 0.
      0. 0. 8.06451589e-03 0. 0. 0. 0. 0. 0. 0. 0. 0. 0. 0. 0. 0. 0.
      8.06451589e-03 0. 0. 0. 0. 0. 0. 0. 0. 0. 8.06451589e-03 0. 0. 0.
      0. 0. 0. 0. 0. 0. 0. 0. 0. 0. 0. 0. 0. 0. 0. 0. 0. 0. 0. 0. 0. 0.
      0. 0. 0. 0. 0. 0. 0. 0. 8.06451589e-03 0. 0. 0. 0. 0. 0. 0. 0. 0.
      0. 0. 0. 0. 0. 0. 0. 0. 0. 0. 0. 0. 0. 0. 0. 0. 8.06451589e-03 0.
      0. 0. 0. 0. 8.06451589e-03 0. 8.06451589e-03 8.06451589e-03 0. 0.
      0. 0. 0. 0. 0. 0. 0. 0. 0. 0. 0. 0. 0. 0. 0. 0. 0. 0. 0. 0. 0. 0.
      0. 0. 0. 8.06451589e-03 0. 0. 0. 0. 0. 8.06451589e-03 0.
      8.06451589e-03 0. 0. 0. 0. 0. 0. 0. 0. 0. 0. 0. 0. 0. 0. 0. 0. 0.
      0. 0. 0. 0. 0. 0. 0. 8.06451589e-03 0. 0. 0. 0. 0. 0. 0. 0. 0. 0.
      0. 0. 0. 0. 0. 0. 0. 0. 0. 8.06451589e-03 0. 8.06451589e-03 0. 0.
      0. 0. 0. 0. 0. 0. 0. 0. 0. 0. 0. 0. 0. 0. 0. 0. 8.06451589e-03 0.
      0. 0. 0. 0. 8.06451589e-03 8.06451589e-03 0. 0. 0. 0. 0. 0. 0. 0.
      0. 0. 0. 0. 8.06451589e-03 0. 0. 0. 0. 0. 0. 0. 1.61290318e-02 0.
      0. 0. 0. 0. 0. 0. 0. 0. 8.06451589e-03 0. 0. 0. 0. 0. 0. 0. 0. 0.
      2.41935477e-02 0. 0. 0. 0. 0. 0. 0. 0. 0. 0. 0. 0. 0. 0. 0. 0. 0.
      0. 0. 8.06451589e-03 0. 8.06451589e-03 8.06451589e-03
      8.06451589e-03 8.06451589e-03 0. 0. 0. 0. 0. 8.06451589e-03 0. 0.
      0. 0. 0. 0. 0. 0. 0. 0. 0. 0. 0. 0. 0. 0. 0. 8.06451589e-03 0. 0.
      0. 0. 0. 0. 0. 0. 0. 0. 0. 0. 8.06451589e-03 8.06451589e-03 0. 0.
      0. 0. 0. 0. 0. 0. 0. 0. 0. 0. 0. 0. 0. 8.06451589e-03 0. 0. 0. 0.
      0. 0. 0. 0. 0. 0. 0. 0. 0. 0. 0. 0. 8.06451589e-03 0. 0. 0. 0. 0.
      0. 0. 0. 0. 0. 8.06451589e-03 0. 0. 0. 0. 0. 0. 0. 0. 0.
      8.06451589e-03 0. 0. 0. 0. 0. 8.06451589e-03 0. 0. 0. 0.
      1.61290318e-02 0. 8.06451589e-03 0. 0. 0. 0. 8.06451589e-03 0. 0.
      0. 0. 0. 8.06451589e-03 0. 0. 0. 0. 0. 0. 0. 0. 0. 0. 0. 0. 0.
      8.06451589e-03 0. 0. 8.06451589e-03 0. 8.06451589e-03 0. 0. 0.
      1.61290318e-02 0. 0. 0. 0. 0. 0. 0. 0. 0. 0. 8.06451589e-03 0. 0.
      0. 1.61290318e-02 0. 0. 8.06451589e-03 0. 0. 0.</_>
    <_>
      0. 0. 0. 0. 0. 0. 0. 0. 0. 0. 0. 0. 0. 0. 0. 0. 0. 0. 0. 0. 0. 0.
      0. 0. 1.99999996e-02 0. 0. 0. 0. 0. 0. 0. 0. 0. 0. 0. 0. 0. 0. 0.
      0. 0. 0. 0. 0. 0. 0. 0. 0. 0. 0. 0. 0. 0. 0. 0. 0. 0. 0. 0. 0. 0.
      0. 0. 0. 0. 0. 0. 0. 0. 0. 0. 0. 0. 0. 0. 0. 0. 0. 0. 0. 0. 0. 0.
      0. 0. 0. 0. 0. 0. 0. 0. 0. 0. 0. 0. 0. 0. 0. 0. 0. 0. 0. 0. 0. 0.
      0. 0. 0. 0. 0. 1.99999996e-02 0. 0. 0. 0. 0. 1.99999996e-02 0. 0.
      0. 0. 0. 0. 1.99999996e-02 0. 0. 0. 0. 0. 0. 0. 0. 0. 0. 0. 0. 0.
      0. 0. 0. 0. 0. 0. 0. 0. 0. 0. 0. 0. 1.99999996e-02 0. 0. 0. 0. 0.
      0. 0. 0. 1.99999996e-02 0. 0. 0. 0. 0. 0. 0. 0. 0. 0. 0. 0. 0. 0.
      0. 0. 0. 0. 0. 0. 0. 1.99999996e-02 0. 0. 0. 0. 0. 0. 0. 0. 0. 0.
      0. 0. 0. 0. 0. 0. 0. 0. 0. 0. 0. 0. 0. 1.99999996e-02 0.
      1.99999996e-02 0. 0. 0. 0. 0. 0. 0. 0. 0. 0. 0. 0. 0. 0. 0. 0. 0.
      0. 0. 0. 0. 0. 0. 0. 0. 0. 0. 0. 0. 0. 0. 0. 0. 0. 0. 0. 0. 0. 0.
      0. 1.99999996e-02 0. 0. 0. 0. 0. 0. 0. 0. 0. 0. 0. 0. 0. 0. 0. 0.
      0. 0. 0. 0. 0. 0. 0. 0. 0. 0. 0. 0. 0. 0. 1.99999996e-02 0. 0. 0.
      0. 0. 0. 0. 0. 0. 0. 0. 0. 0. 0. 0. 0. 0. 0. 0. 0. 0. 0. 0. 0. 0.
      0. 0. 0. 0. 0. 0. 0. 0. 0. 0. 0. 1.99999996e-02 0. 0. 0. 0. 0. 0.
      0. 0. 0. 0. 0. 0. 0. 0. 0. 0. 0. 0. 0. 0. 0. 0. 0. 0. 0. 0. 0. 0.
      0. 0. 0. 0. 0. 0. 1.99999996e-02 0. 0. 0. 0. 0. 1.99999996e-02 0.
      0. 0. 0. 0. 0. 1.99999996e-02 0. 0. 0. 0. 0. 0. 0. 0. 0. 0. 0. 0.
      0. 0. 0. 0. 0. 0. 0. 0. 0. 0. 0. 0. 0. 0. 0. 0. 0. 0. 0. 0. 0. 0.
      0. 0. 0. 0. 0. 0. 0. 0. 1.99999996e-02 0. 0. 0. 0. 0. 0. 0. 0. 0.
      0. 0. 0. 0. 0. 0. 0. 0. 0. 0. 0. 0. 0. 0. 0. 0. 0. 0. 0.
      1.99999996e-02 0. 0. 0. 0. 3.99999991e-02 0. 0. 0. 0. 0. 0. 0. 0.
      0. 0. 0. 0. 0. 0. 1.99999996e-02 0. 0. 0. 0. 1.99999996e-02 0. 0.
      3.99999991e-02 0. 0. 0. 0. 0. 0. 0. 0. 0. 0. 0. 0. 0. 0. 0. 0. 0.
      0. 0. 0. 0. 0. 0. 0. 0. 0. 0. 0. 0. 0. 0. 0. 0. 0. 0. 0. 0. 0. 0.
      0. 0. 0. 0. 0. 0. 0. 0. 0. 1.99999996e-02 0. 0. 0. 0. 0. 0. 0. 0.
      0. 0. 0. 0. 0. 0. 0. 0. 0. 0. 0. 0. 0. 0. 0. 0. 0. 0. 0. 0. 0.
      1.99999996e-02 0. 0. 0. 0. 0. 0. 0. 0. 0. 0. 0. 0. 0. 0. 0. 0. 0.
      0. 0. 0. 0. 0. 0. 0. 0. 0. 0. 0. 0. 0. 0. 0. 0. 0. 0. 0. 0. 0.
      1.99999996e-02 0. 0. 0. 0. 0. 0. 0. 0. 0. 0. 0. 0. 0. 0. 0. 0. 0.
      0. 0. 0. 0. 0. 0. 0. 0. 0. 0. 0. 0. 0. 0. 1.99999996e-02
      1.99999996e-02 0. 0. 0. 0. 0. 1.99999996e-02 0. 0. 0. 0. 0. 0. 0.
      1.99999996e-02 0. 0. 0. 0. 0. 0. 0. 0. 0. 0. 0. 1.99999996e-02 0.
      0. 0. 0. 0. 1.99999996e-02 0. 0. 0. 0. 0. 0. 0. 0. 0. 0. 0. 0. 0.
      0. 0. 0. 0. 1.99999996e-02 0. 0. 0. 0. 0. 0. 0. 0. 0. 0.
      1.99999996e-02 0. 0. 0. 0. 0. 0. 0. 0. 1.99999996e-02 0.
      1.99999996e-02 0. 0. 0. 0. 0. 0. 0. 0. 0. 0. 1.99999996e-02 0. 0.
      0. 0. 0. 0. 0. 0. 0. 0. 0. 0. 0. 0. 0. 0. 0. 0. 0. 0. 0. 0. 0. 0.
      0. 0. 0. 0. 0. 0. 0. 0. 0. 0. 0. 0. 0. 0. 0. 0. 0. 0. 0.
      1.99999996e-02 0. 0. 0. 0. 1.99999996e-02 0. 1.99999996e-02 0. 0.
      0. 0. 0. 0. 0. 0. 0. 0. 0. 0. 0. 0. 0. 0. 0. 0. 0. 0.
      1.99999996e-02 0. 0. 1.99999996e-02 0. 0. 0. 0. 0. 1.99999996e-02
      0. 0. 0. 0. 0. 0. 0. 0. 0. 0. 0. 0. 0. 0. 0. 0. 0. 0. 0. 0. 0. 0.
      0. 0. 1.99999996e-02 0. 0. 0. 0. 0. 0. 0. 0. 0. 0. 0. 0. 0. 0. 0.
      0. 0. 0. 0. 0. 0. 0. 0. 0. 0. 0. 0. 1.99999996e-02 0. 0. 0. 0. 0.
      0. 0. 0. 0. 0. 0. 0. 0. 0. 0. 0. 0. 1.99999996e-02 0. 0. 0. 0. 0.
      0. 0. 0. 0. 0. 0. 0. 0. 0. 0. 0. 0. 0. 0. 0. 0. 0. 1.99999996e-02
      0. 0. 0. 0. 0. 0. 0. 0. 0. 0. 0. 0. 0. 0. 0. 0. 0. 0. 0. 0. 0. 0.
      0. 0. 0. 0. 0. 0. 0. 0. 1.99999996e-02 0. 0. 0. 0. 0. 0. 0. 0. 0.
      0. 0. 0. 0. 0. 0. 0. 0. 0. 0. 0. 0. 0. 0. 0. 0. 0. 0. 0. 0. 0. 0.
      0. 0. 0. 0. 1.99999996e-02 0. 0. 0. 0. 0. 0. 0. 0. 0. 0. 0. 0. 0.
      0. 0. 0. 0. 0. 0. 0. 0. 0. 0. 0. 0. 0. 0. 0. 0. 0. 0. 0. 0. 0.
      1.99999996e-02 0. 0. 0. 0. 0. 0. 0. 0. 0. 0. 0. 0. 0. 0. 0. 0. 0.
      0. 0. 0. 0. 0. 0. 0.</_>
    <_>
      0. 0. 0. 0. 0. 0. 0. 0. 0. 0. 0. 0. 0. 0. 0. 0. 0. 0. 0. 0. 0. 0.
      0. 0. 0. 0. 0. 0. 0. 0. 0. 0. 0. 0. 0. 0. 0. 0. 0. 0. 0. 0. 0. 0.
      0. 0. 0. 0. 0. 0. 0. 0. 0. 0. 0. 0. 0. 0. 0. 0. 0. 0. 0. 0. 0. 0.
      0. 0. 0. 0. 0. 0. 0. 2.63157897e-02 0. 0. 0. 0. 0. 0. 0. 0. 0. 0.
      0. 0. 0. 0. 0. 0. 0. 0. 0. 0. 0. 0. 0. 0. 0. 0. 2.63157897e-02 0.
      0. 0. 0. 0. 0. 0. 0. 0. 0. 0. 0. 0. 0. 2.63157897e-02 0. 0. 0. 0.
      0. 0. 0. 0. 0. 0. 0. 0. 0. 0. 0. 0. 0. 0. 0. 0. 0. 0.
      2.63157897e-02 0. 0. 0. 0. 0. 0. 0. 0. 0. 0. 0. 0. 0. 0. 0. 0. 0.
      0. 0. 0. 0. 0. 0. 0. 0. 0. 0. 0. 0. 0. 0. 0. 0. 0. 0. 0. 0. 0. 0.
      0. 0. 0. 0. 0. 0. 0. 0. 0. 2.63157897e-02 0. 0. 0. 0. 0. 0. 0. 0.
      0. 0. 0. 0. 0. 0. 0. 0. 0. 0. 0. 0. 0. 0. 0. 0. 0. 2.63157897e-02
      0. 0. 0. 0. 0. 0. 0. 0. 0. 0. 0. 0. 0. 0. 0. 0. 0. 0. 0. 0. 0. 0.
      0. 0. 0. 0. 0. 0. 0. 0. 0. 0. 0. 0. 0. 0. 0. 2.63157897e-02 0. 0.
      0. 0. 0. 0. 0. 0. 0. 0. 0. 0. 0. 0. 0. 0. 0. 0. 0. 5.26315793e-02
      0. 0. 0. 0. 0. 0. 0. 0. 0. 0. 0. 0. 0. 0. 0. 0. 0. 0. 0. 0. 0. 0.
      0. 0. 0. 0. 0. 0. 0. 0. 0. 0. 0. 0. 0. 0. 0. 0. 0. 0. 0. 0. 0. 0.
      0. 0. 0. 0. 0. 0. 0. 0. 0. 0. 0. 0. 0. 0. 0. 0. 0. 0. 0. 0. 0. 0.
      0. 0. 0. 0. 0. 0. 0. 0. 0. 0. 0. 0. 0. 0. 0. 0. 0. 0. 0. 0. 0. 0.
      0. 0. 0. 0. 0. 0. 0. 0. 0. 0. 0. 0. 0. 0. 2.63157897e-02 0. 0. 0.
      0. 0. 0. 0. 0. 2.63157897e-02 0. 7.89473653e-02 0. 0. 0. 0. 0. 0.
      0. 0. 0. 0. 0. 0. 0. 0. 0. 0. 0. 0. 0. 0. 0. 0. 7.89473653e-02 0.
      0. 0. 0. 2.63157897e-02 0. 0. 0. 0. 0. 0. 0. 0. 0. 0. 0. 0.
      2.63157897e-02 0. 0. 0. 0. 0. 0. 0. 0. 2.63157897e-02 0. 0. 0. 0.
      0. 0. 0. 0. 0. 0. 0. 0. 0. 0. 0. 0. 0. 0. 0. 0. 0. 0.
      2.63157897e-02 0. 0. 0. 0. 2.63157897e-02 0. 0. 0. 0. 0. 0. 0. 0.
      0. 0. 0. 0. 0. 0. 0. 0. 0. 0. 0. 0. 0. 0. 0. 0. 0. 0. 0. 0. 0. 0.
      0. 0. 0. 0. 0. 0. 0. 0. 0. 0. 0. 0. 0. 0. 0. 0. 0. 0. 0. 0. 0. 0.
      0. 0. 0. 0. 0. 0. 0. 0. 0. 0. 0. 0. 0. 0. 0. 0. 0. 0. 0. 0. 0. 0.
      0. 0. 0. 0. 0. 0. 0. 0. 0. 2.63157897e-02 0. 0. 0. 0. 0. 0. 0. 0.
      0. 0. 0. 0. 0. 0. 0. 0. 0. 0. 0. 0. 0. 0. 0. 0. 0. 0. 0. 0. 0. 0.
      0. 0. 0. 0. 0. 0. 0. 0. 0. 0. 0. 0. 0. 0. 0. 0. 0. 0. 0. 0. 0. 0.
      0. 0. 0. 0. 0. 0. 0. 0. 0. 0. 0. 0. 0. 0. 0. 0. 0. 0. 0. 0. 0. 0.
      0. 0. 0. 0. 0. 0. 0. 0. 0. 2.63157897e-02 0. 0. 0. 0. 0. 0. 0. 0.
      0. 0. 0. 0. 0. 0. 0. 0. 0. 0. 0. 0. 0. 0. 0. 0. 0. 0. 0. 0. 0. 0.
      0. 0. 0. 0. 0. 0. 0. 0. 0. 0. 0. 0. 0. 0. 0. 0. 0. 0. 0. 0. 0. 0.
      0. 0. 0. 0. 0. 0. 0. 0. 0. 2.63157897e-02 0. 0. 0. 0. 0. 0. 0.
      2.63157897e-02 0. 0. 0. 0. 0. 0. 0. 0. 0. 0. 0. 0. 0. 0. 0. 0. 0.
      0. 0. 0. 0. 0. 0. 0. 0. 0. 0. 0. 0. 0. 0. 2.63157897e-02 0. 0. 0.
      0. 0. 0. 0. 0. 0. 0. 0. 0. 0. 0. 0. 0. 0. 0. 0. 0. 0. 0. 0. 0. 0.
      0. 0. 0. 0. 0. 0. 0. 0. 0. 0. 0. 0. 2.63157897e-02 0. 0. 0. 0. 0.
      0. 0. 0. 2.63157897e-02 0. 0. 0. 0. 0. 0. 0. 0. 0. 0. 0. 0. 0. 0.
      0. 0. 0. 0. 0. 0. 0. 0. 0. 0. 0. 0. 0. 0. 0. 0. 0. 0. 0. 0. 0. 0.
      0. 0. 0. 0. 0. 0. 0. 0. 0. 0. 2.63157897e-02 0. 0. 0. 0. 0. 0. 0.
      0. 0. 0. 0. 0. 0. 2.63157897e-02 0. 0. 0. 2.63157897e-02 0. 0. 0.
      0. 0. 0. 0. 0. 2.63157897e-02 0. 0. 0. 0. 0. 0. 0. 0. 0. 0. 0. 0.
      0. 0. 0. 0. 0. 0. 0. 0. 0. 0. 0. 0. 0. 0. 0. 0. 0. 0.
      2.63157897e-02 0. 0. 0. 0. 0. 0. 0. 0. 0. 0. 0. 0. 0. 0. 0. 0. 0.
      0. 0. 0. 0. 0. 0. 2.63157897e-02 0. 0. 0. 0. 0. 0. 0. 0.
      2.63157897e-02 0. 0. 0. 0. 0. 0. 0. 0. 0. 0. 0. 0. 0. 0. 0. 0. 0.
      0. 0. 2.63157897e-02 0. 0. 0. 0. 0. 0. 0. 0. 0. 0. 0. 0. 0.
      2.63157897e-02 0. 0. 0. 0. 0. 0. 0. 0. 0. 0. 0. 0. 0. 0. 0. 0. 0.
      0. 0. 0. 0. 0. 0. 0. 0. 0. 0. 0. 0. 0. 0. 0. 0. 0. 0. 0. 0. 0. 0.
      0. 0. 0. 0. 0. 0. 0. 0.</_>
    <_>
      0. 0. 0. 0. 0. 0. 0. 0. 0. 0. 0. 6.25000009e-03 0. 0. 0. 0. 0. 0.
      0. 0. 0. 0. 0. 0. 0. 6.25000009e-03 0. 0. 6.25000009e-03 0. 0. 0.
      0. 0. 0. 0. 0. 0. 0. 0. 0. 0. 6.25000009e-03 0. 0. 0.
      6.25000009e-03 0. 0. 0. 0. 0. 0. 0. 0. 0. 0. 6.25000009e-03 0. 0.
      0. 0. 0. 0. 6.25000009e-03 0. 0. 0. 0. 0. 0. 0. 0. 0.
      6.25000009e-03 0. 1.25000002e-02 0. 0. 0. 0. 0. 0. 0. 0. 0. 0. 0.
      0. 6.25000009e-03 0. 0. 6.25000009e-03 0. 0. 0. 0. 0. 0. 0. 0.
      6.25000009e-03 0. 0. 0. 0. 0. 0. 0. 0. 0. 0. 0. 0. 0. 0. 0. 0. 0.
      0. 0. 6.25000009e-03 0. 0. 0. 0. 0. 0. 0. 0. 0. 6.25000009e-03 0.
      0. 0. 0. 0. 0. 0. 0. 0. 0. 0. 0. 0. 0. 0. 6.25000009e-03 0. 0. 0.
      0. 0. 0. 0. 0. 0. 0. 6.25000009e-03 0. 0. 0. 0. 0. 0. 0. 0. 0. 0.
      0. 0. 0. 0. 1.25000002e-02 0. 0. 0. 0. 0. 0. 0. 0. 0. 0. 0. 0.
      1.25000002e-02 6.25000009e-03 0. 0. 0. 6.25000009e-03 0. 0. 0. 0.
      0. 0. 0. 0. 0. 0. 0. 0. 6.25000009e-03 0. 0. 0. 0. 0. 0.
      6.25000009e-03 6.25000009e-03 0. 0. 0. 0. 0. 0. 0. 0. 0. 0.
      6.25000009e-03 0. 0. 6.25000009e-03 0. 0. 0. 0. 0. 0. 0. 0.
      6.25000009e-03 0. 0. 0. 6.25000009e-03 0. 0. 0. 6.25000009e-03 0.
      0. 0. 0. 0. 0. 0. 1.25000002e-02 0. 0. 0. 0. 0. 0. 1.25000002e-02
      0. 6.25000009e-03 0. 0. 0. 0. 0. 0. 0. 0. 0. 0. 0. 0. 0. 0. 0. 0.
      6.25000009e-03 0. 0. 0. 0. 0. 0. 0. 0. 0. 6.25000009e-03
      6.25000009e-03 6.25000009e-03 0. 0. 0. 0. 0. 0. 0. 0. 0. 0. 0.
      1.25000002e-02 0. 6.25000009e-03 0. 6.25000009e-03 6.25000009e-03
      0. 0. 0. 0. 0. 0. 1.25000002e-02 0. 0. 0. 0. 0. 0. 0. 0. 0.
      6.25000009e-03 0. 0. 0. 0. 6.25000009e-03 0. 0. 0. 6.25000009e-03
      0. 0. 0. 0. 0. 0. 0. 0. 0. 6.25000009e-03 0. 0. 0. 0. 0. 0. 0. 0.
      0. 0. 6.25000009e-03 0. 0. 0. 6.25000009e-03 6.25000009e-03 0.
      6.25000009e-03 0. 0. 0. 6.25000009e-03 0. 6.25000009e-03 0. 0. 0.
      0. 0. 0. 0. 0. 0. 0. 0. 0. 0. 0. 0. 0. 6.25000009e-03 0. 0. 0.
      6.25000009e-03 0. 0. 0. 0. 0. 0. 0. 6.25000009e-03 0. 0. 0. 0. 0.
      0. 6.25000009e-03 0. 0. 0. 0. 0. 0. 0. 0. 0. 0. 0. 6.25000009e-03
      0. 0. 0. 6.25000009e-03 0. 0. 0. 0. 0. 0. 0. 0. 0. 0. 0. 0. 0. 0.
      0. 6.25000009e-03 0. 0. 0. 0. 0. 0. 0. 6.25000009e-03 0. 0. 0. 0.
      0. 0. 0. 0. 6.25000009e-03 0. 0. 0. 0. 0. 0. 0. 0. 0.
      6.25000009e-03 0. 0. 6.25000009e-03 0. 0. 0. 0. 0. 6.25000009e-03
      6.25000009e-03 0. 0. 0. 0. 0. 0. 3.12500000e-02 0. 0. 0. 0. 0. 0.
      0. 0. 0. 6.25000009e-03 0. 0. 0. 0. 0. 0. 0. 0. 0. 0. 0. 0. 0.
      6.25000009e-03 0. 0. 0. 0. 0. 0. 1.25000002e-02 0. 0. 0. 0.
      1.87500007e-02 0. 0. 0. 0. 0. 0. 0. 0. 0. 0. 0. 0. 0.
      6.25000009e-03 0. 0. 6.25000009e-03 0. 0. 0. 1.25000002e-02 0. 0.
      0. 0. 0. 0. 6.25000009e-03 6.25000009e-03 0. 1.25000002e-02 0. 0.
      0. 0. 0. 6.25000009e-03 0. 6.25000009e-03 0. 0. 0. 0. 0. 0. 0. 0.
      6.25000009e-03 0. 0. 0. 0. 0. 6.25000009e-03 0. 6.25000009e-03 0.
      0. 6.25000009e-03 0. 0. 0. 6.25000009e-03 0. 6.25000009e-03 0. 0.
      0. 0. 0. 0. 0. 0. 0. 0. 0. 0. 6.25000009e-03 0. 0. 0.
      6.25000009e-03 0. 0. 0. 0. 0. 0. 0. 0. 0. 0. 0. 6.25000009e-03 0.
      0. 6.25000009e-03 0. 0. 0. 0. 0. 0. 0. 6.25000009e-03 0. 0. 0. 0.
      0. 0. 0. 0. 0. 6.25000009e-03 0. 0. 0. 0. 0. 0. 0. 0. 0. 0. 0. 0.
      0. 6.25000009e-03 0. 0. 0. 0. 0. 0. 0. 0. 0. 0. 6.25000009e-03 0.
      0. 0. 0. 0. 0. 0. 0. 0. 6.25000009e-03 0. 0. 6.25000009e-03 0. 0.
      0. 0. 0. 0. 0. 0. 0. 0. 0. 6.25000009e-03 0. 0. 0. 0. 0. 0. 0. 0.
      0. 0. 0. 0. 0. 0. 0. 0. 0. 0. 0. 0. 0. 0. 1.25000002e-02 0. 0. 0.
      0. 0. 0. 0. 0. 0. 0. 0. 0. 0. 0. 0. 0. 6.25000009e-03 0. 0. 0. 0.
      0. 0. 0. 0. 6.25000009e-03 6.25000009e-03 0. 0. 0. 6.25000009e-03
      0. 0. 0. 0. 0. 0. 0. 0. 0. 0. 6.25000009e-03 0. 6.25000009e-03
      6.25000009e-03 6.25000009e-03 0. 0. 0. 0. 0. 0. 0. 0. 0. 0. 0. 0.
      0. 0. 0. 0. 0. 0. 6.25000009e-03 6.25000009e-03 0. 0. 0.
      6.25000009e-03 0. 6.25000009e-03 0. 0. 0. 0. 0. 0. 0. 0. 0.
      6.25000009e-03 0. 0. 6.25000009e-03 0. 0. 0. 0. 6.25000009e-03
      6.25000009e-03 0. 0. 0. 0. 0. 0. 0. 0. 0. 0. 0. 0. 0. 0. 0. 0.
      6.25000009e-03 0. 0. 0. 0. 0. 0. 0. 0. 0. 0. 0. 0. 0. 0. 0. 0. 0.
      0. 0. 0. 0. 6.25000009e-03 0. 0. 0. 0. 0. 0. 0. 0. 0. 0. 0. 0. 0.
      0. 0. 6.25000009e-03 0. 0. 0. 0. 0. 0. 6.25000009e-03 0. 0. 0.
      6.25000009e-03 0. 0. 0. 0. 0. 0. 0. 0. 0. 0. 0. 0. 6.25000009e-03
      0. 0. 0. 0. 0. 0. 0. 6.25000009e-03 6.25000009e-03 6.25000009e-03
      0. 0. 0. 0. 0. 0. 0. 0. 0. 0. 0. 0. 0. 1.87500007e-02 0. 0. 0. 0.
      0. 0. 0. 1.87500007e-02 0. 0. 6.25000009e-03 6.25000009e-03 0. 0.
      0. 6.25000009e-03 1.25000002e-02 0. 0. 0. 0. 0. 0. 0. 0. 0. 0. 0.
      6.25000009e-03 0. 0. 0. 0. 0. 1.87500007e-02 0. 0. 0. 0.
      6.25000009e-03 6.25000009e-03 0. 0. 6.25000009e-03 0. 0. 0. 0. 0.
      0. 0. 0. 0. 0. 0. 0. 0. 0. 0. 0. 0. 0. 0. 0. 6.25000009e-03 0. 0.
      0. 0. 0. 0. 0. 6.25000009e-03 6.25000009e-03 0. 0. 0. 0. 0. 0. 0.
      0. 0. 0. 6.25000009e-03 0. 0. 0. 0. 0. 0. 6.25000009e-03 0. 0. 0.
      0. 6.25000009e-03 0. 0. 0. 0. 0. 0.</_>
    <_>
      0. 0. 0. 0. 0. 0. 0. 0. 0. 0. 0. 0. 0. 8.47457629e-03 0. 0. 0. 0.
      0. 0. 0. 0. 0. 0. 0. 0. 0. 0. 0. 0. 0. 0. 0. 0. 0. 8.47457629e-03
      0. 0. 0. 0. 0. 0. 0. 0. 0. 8.47457629e-03 0. 0. 0. 0. 0. 0. 0. 0.
      0. 0. 0. 0. 0. 0. 0. 0. 0. 0. 0. 0. 0. 0. 0. 0. 0. 8.47457629e-03
      0. 0. 0. 0. 0. 0. 8.47457629e-03 0. 0. 0. 0. 0. 0. 0. 0.
      8.47457629e-03 0. 0. 8.47457629e-03 0. 0. 0. 0. 0. 0. 0. 0. 0. 0.
      8.47457629e-03 0. 0. 0. 0. 0. 0. 0. 0. 0. 0. 0. 0. 0. 0. 0. 0. 0.
      0. 0. 0. 0. 0. 0. 8.47457629e-03 0. 0. 0. 0. 0. 0. 0. 0. 0. 0. 0.
      0. 8.47457629e-03 0. 0. 0. 0. 0. 0. 0. 0. 0. 8.47457629e-03 0. 0.
      0. 0. 0. 0. 0. 0. 0. 0. 8.47457629e-03 0. 0. 0. 0. 8.47457629e-03
      0. 0. 0. 0. 0. 0. 0. 0. 0. 0. 0. 0. 0. 8.47457629e-03 0. 0. 0. 0.
      0. 0. 0. 0. 8.47457629e-03 0. 0. 0. 0. 0. 8.47457629e-03
      8.47457629e-03 8.47457629e-03 0. 8.47457629e-03 0. 0. 0. 0. 0. 0.
      0. 8.47457629e-03 0. 0. 0. 0. 0. 0. 0. 0. 0. 0. 0. 0.
      8.47457629e-03 0. 1.69491526e-02 0. 0. 0. 0. 0. 0. 0. 0. 0. 0. 0.
      0. 0. 0. 0. 0. 0. 0. 0. 0. 0. 0. 0. 8.47457629e-03 0. 0. 0. 0. 0.
      0. 0. 0. 8.47457629e-03 0. 0. 0. 0. 0. 0. 0. 0. 0. 0. 0. 0. 0. 0.
      0. 0. 0. 8.47457629e-03 0. 0. 0. 0. 0. 0. 0. 0. 0. 0. 0. 0.
      8.47457629e-03 0. 0. 0. 0. 0. 0. 8.47457629e-03 8.47457629e-03 0.
      8.47457629e-03 0. 0. 0. 0. 0. 0. 0. 0. 8.47457629e-03 0. 0. 0. 0.
      0. 0. 0. 0. 0. 0. 0. 0. 0. 0. 0. 0. 0. 0. 8.47457629e-03 0. 0. 0.
      0. 0. 0. 0. 0. 0. 0. 0. 0. 0. 8.47457629e-03 0. 0. 0. 0. 0. 0. 0.
      0. 8.47457629e-03 0. 0. 0. 0. 0. 0. 0. 8.47457629e-03 0. 0. 0. 0.
      0. 1.69491526e-02 0. 0. 0. 0. 0. 0. 0. 0. 0. 0. 0. 0. 0. 0. 0.
      8.47457629e-03 0. 0. 0. 0. 0. 8.47457629e-03 0. 0. 0. 0. 0. 0. 0.
      0. 0. 0. 0. 0. 0. 0. 0. 0. 0. 0. 0. 0. 0. 0. 0. 0. 0. 0. 0.
      1.69491526e-02 0. 0. 0. 0. 0. 0. 0. 0. 0. 0. 0. 0. 0. 0. 0. 0.
      1.69491526e-02 0. 0. 0. 0. 0. 0. 0. 0. 0. 0. 0. 0. 0. 0.
      8.47457629e-03 0. 0. 0. 0. 0. 8.47457629e-03 0. 0. 0.
      8.47457629e-03 0. 0. 1.69491526e-02 0. 0. 0. 0. 8.47457629e-03 0.
      0. 0. 0. 8.47457629e-03 0. 0. 0. 8.47457629e-03 0. 0. 0.
      8.47457629e-03 0. 8.47457629e-03 0. 0. 0. 0. 0. 0. 0. 0. 0. 0. 0.
      8.47457629e-03 0. 0. 0. 0. 0. 0. 8.47457629e-03 0. 0.
      8.47457629e-03 8.47457629e-03 8.47457629e-03 0. 0. 0. 0. 0. 0. 0.
      0. 0. 0. 0. 0. 0. 0. 0. 0. 8.47457629e-03 0. 0. 0. 0.
      8.47457629e-03 0. 0. 8.47457629e-03 0. 0. 0. 0. 0. 0. 0. 0. 0. 0.
      0. 8.47457629e-03 0. 0. 0. 0. 0. 0. 0. 0. 0. 0. 0. 0. 0. 0. 0. 0.
      0. 0. 0. 0. 0. 0. 0. 0. 0. 0. 0. 0. 0. 0. 0. 0. 0. 0. 0.
      8.47457629e-03 0. 0. 0. 0. 0. 0. 0. 0. 0. 8.47457629e-03 0. 0. 0.
      0. 0. 0. 0. 0. 0. 0. 0. 0. 0. 0. 8.47457629e-03 0. 0. 0.
      8.47457629e-03 0. 0. 0. 0. 0. 0. 0. 0. 0. 0. 0. 0. 0. 0.
      8.47457629e-03 0. 0. 0. 8.47457629e-03 8.47457629e-03
      1.69491526e-02 0. 0. 0. 0. 0. 0. 0. 0. 8.47457629e-03 0. 0. 0. 0.
      0. 0. 0. 0. 0. 8.47457629e-03 0. 0. 0. 0. 0. 0. 0. 0.
      8.47457629e-03 0. 0. 8.47457629e-03 0. 0. 0. 0. 0. 0.
      8.47457629e-03 0. 8.47457629e-03 0. 0. 0. 8.47457629e-03 0. 0. 0.
      0. 0. 0. 0. 0. 0. 0. 0. 0. 0. 0. 8.47457629e-03 0. 0. 0.
      8.47457629e-03 8.47457629e-03 8.47457629e-03 0. 0. 0. 0. 0. 0.
      8.47457629e-03 8.47457629e-03 0. 8.47457629e-03 0. 0. 0. 0.
      8.47457629e-03 0. 0. 0. 0. 0. 0. 0. 0. 0. 0. 0. 0. 0. 0. 0. 0. 0.
      0. 0. 8.47457629e-03 0. 0. 0. 0. 0. 0. 0. 0. 0. 0. 0. 0. 0. 0. 0.
      8.47457629e-03 8.47457629e-03 0. 0. 0. 0. 0. 0. 0. 0. 0. 0. 0. 0.
      0. 0. 0. 0. 0. 0. 0. 0. 0. 0. 0. 0. 0. 8.47457629e-03 0. 0. 0.
      8.47457629e-03 0. 0. 0. 0. 0. 0. 0. 1.69491526e-02 0. 0. 0. 0. 0.
      0. 0. 8.47457629e-03 0. 0. 0. 0. 0. 0. 8.47457629e-03 0. 0. 0. 0.
      0. 0. 0. 0. 0. 0. 0. 0. 0. 0. 0. 0. 0. 0. 0. 0. 0. 0. 0. 0. 0. 0.
      0. 0. 0. 0. 0. 0. 0. 0. 8.47457629e-03 1.69491526e-02
      8.47457629e-03 0. 0. 1.69491526e-02 0. 0. 0. 0. 0. 0. 0. 0. 0. 0.
      0. 0. 0. 0. 0. 0. 0. 8.47457629e-03 0. 0. 0. 8.47457629e-03 0. 0.
      0. 8.47457629e-03 0. 0. 0. 0. 0. 0. 0. 0. 0. 0. 0. 8.47457629e-03
      0. 0. 0. 0. 0. 0. 8.47457629e-03 0. 0. 8.47457629e-03 0. 0. 0. 0.
      0. 0. 0. 0. 0. 8.47457629e-03 0. 0. 0. 0. 0. 0. 0. 8.47457629e-03
      0. 0. 0. 0. 0. 0. 0. 0. 0. 0. 8.47457629e-03 0. 0. 8.47457629e-03
      0. 0. 0. 0. 8.47457629e-03 0. 0. 0. 0. 0. 0. 0. 0. 0. 0. 0. 0. 0.
      0. 0. 0. 0. 0. 0. 0. 8.47457629e-03 0. 0. 0. 0. 0. 0. 0. 0. 0. 0.
      0. 0. 0. 0. 0. 0. 0. 0. 0. 0. 8.47457629e-03 0. 0. 0. 0. 0.
      8.47457629e-03 0. 0. 0. 0. 0. 0. 0. 0. 0. 0. 0. 0. 0. 0. 0. 0. 0.
      0. 0. 0. 0. 8.47457629e-03 0. 8.47457629e-03 0. 0. 0. 0.
      8.47457629e-03 0. 0. 0. 0. 0. 0.</_>
    <_>
      0. 0. 0. 0. 0. 0. 0. 0. 1.23456791e-02 0. 0. 0. 0. 0. 0. 0. 0. 0.
      0. 0. 0. 0. 0. 0. 0. 0. 0. 0. 0. 0. 0. 0. 0. 0. 0. 0. 0. 0. 0. 0.
      0. 0. 0. 0. 0. 1.23456791e-02 0. 0. 0. 0. 0. 0. 0. 0. 0. 0. 0. 0.
      0. 0. 0. 0. 1.23456791e-02 0. 0. 0. 0. 0. 0. 0. 1.23456791e-02 0.
      0. 0. 0. 0. 0. 0. 0. 0. 0. 0. 0. 0. 0. 0. 0. 0. 1.23456791e-02 0.
      0. 0. 0. 0. 0. 0. 0. 0. 0. 0. 0. 0. 1.23456791e-02 0. 0. 0. 0. 0.
      0. 2.46913582e-02 0. 0. 0. 0. 0. 0. 0. 0. 0. 0. 0. 0. 0. 0.
      2.46913582e-02 0. 0. 0. 0. 1.23456791e-02 0. 0. 0. 0. 0. 0. 0.
      1.23456791e-02 0. 0. 0. 0. 0. 0. 0. 1.23456791e-02 1.23456791e-02
      0. 0. 0. 0. 0. 0. 1.23456791e-02 0. 0. 0. 0. 0. 0. 0.
      1.23456791e-02 0. 0. 1.23456791e-02 0. 0. 0. 0. 0. 0. 0. 0.
      2.46913582e-02 1.23456791e-02 0. 0. 0. 0. 0. 0. 2.46913582e-02 0.
      0. 0. 0. 0. 0. 0. 0. 0. 0. 0. 0. 0. 0. 0. 0. 0. 0. 0. 0. 0. 0. 0.
      0. 0. 0. 0. 0. 0. 0. 0. 0. 0. 0. 0. 0. 0. 0. 0. 0. 0. 0. 0. 0. 0.
      0. 0. 0. 0. 0. 0. 0. 0. 0. 0. 0. 0. 0. 0. 0. 0. 0. 1.23456791e-02
      0. 0. 0. 0. 0. 0. 0. 0. 0. 0. 0. 0. 0. 1.23456791e-02 0. 0. 0. 0.
      0. 2.46913582e-02 0. 0. 1.23456791e-02 0. 0. 0. 0. 0. 0. 0. 0. 0.
      1.23456791e-02 0. 0. 0. 0. 0. 0. 0. 0. 0. 1.23456791e-02
      1.23456791e-02 0. 0. 0. 0. 0. 0. 0. 0. 0. 0. 0. 0. 0.
      1.23456791e-02 0. 0. 0. 0. 0. 0. 0. 0. 0. 1.23456791e-02 0. 0. 0.
      0. 0. 0. 0. 0. 0. 0. 0. 0. 1.23456791e-02 0. 0. 0. 0. 0.
      1.23456791e-02 0. 0. 0. 0. 0. 0. 0. 0. 0. 0. 0. 0. 0. 0. 0. 0. 0.
      0. 0. 0. 0. 0. 0. 0. 0. 0. 0. 0. 0. 0. 0. 0. 0. 0. 0. 0. 0. 0. 0.
      0. 0. 0. 0. 0. 0. 0. 0. 0. 0. 0. 0. 0. 0. 0. 0. 0. 0. 0. 0. 0. 0.
      0. 0. 0. 0. 0. 0. 0. 0. 0. 0. 0. 0. 0. 0. 0. 0. 1.23456791e-02 0.
      0. 0. 0. 0. 0. 0. 0. 0. 0. 0. 0. 0. 0. 0. 0. 0. 0. 1.23456791e-02
      0. 0. 1.23456791e-02 0. 0. 0. 0. 0. 0. 0. 0. 1.23456791e-02 0. 0.
      0. 0. 0. 0. 0. 0. 0. 0. 0. 0. 0. 0. 0. 0. 0. 0. 0. 0. 0. 0. 0. 0.
      0. 0. 0. 0. 0. 0. 0. 0. 0. 0. 1.23456791e-02 0. 0. 0.
      1.23456791e-02 0. 0. 0. 0. 0. 0. 0. 0. 0. 0. 0. 0. 0. 0. 0. 0. 0.
      0. 0. 0. 0. 0. 0. 0. 0. 0. 0. 0. 0. 0. 0. 0. 0. 0. 0. 0.
      1.23456791e-02 1.23456791e-02 0. 0. 0. 0. 0. 0. 0. 1.23456791e-02
      0. 0. 0. 0. 0. 0. 0. 0. 0. 1.23456791e-02 0. 0. 0. 0. 0. 0. 0. 0.
      0. 0. 0. 0. 0. 0. 0. 0. 0. 0. 2.46913582e-02 0. 0. 0. 0. 0. 0.
      1.23456791e-02 0. 0. 0. 0. 0. 0. 0. 0. 0. 0. 0. 0. 0. 0. 0. 0. 0.
      0. 0. 0. 0. 0. 0. 1.23456791e-02 0. 0. 0. 0. 0. 0. 0. 0. 0. 0. 0.
      0. 0. 0. 0. 0. 0. 0. 1.23456791e-02 0. 0. 0. 0. 0. 0. 0. 0. 0. 0.
      0. 0. 0. 0. 0. 0. 0. 0. 0. 0. 0. 0. 0. 0. 1.23456791e-02 0. 0. 0.
      0. 0. 0. 0. 0. 0. 0. 0. 0. 0. 0. 0. 0. 0. 0. 0. 0. 0. 0. 0. 0. 0.
      0. 0. 0. 0. 0. 0. 0. 0. 1.23456791e-02 0. 0. 0. 0. 0. 0. 0. 0. 0.
      0. 0. 0. 0. 0. 0. 0. 0. 0. 0. 0. 0. 0. 0. 0. 0. 1.23456791e-02 0.
      0. 0. 0. 0. 0. 0. 0. 0. 0. 0. 1.23456791e-02 0. 0. 0. 0. 0. 0. 0.
      0. 0. 0. 0. 0. 0. 0. 0. 0. 0. 1.23456791e-02 0. 0. 0. 0. 0. 0.
      1.23456791e-02 0. 0. 0. 0. 0. 1.23456791e-02 0. 0. 0. 0. 0. 0. 0.
      0. 0. 1.23456791e-02 0. 0. 0. 0. 0. 0. 0. 0. 1.23456791e-02 0. 0.
      0. 0. 0. 0. 0. 0. 1.23456791e-02 0. 0. 0. 0. 0. 0. 0. 0. 0.
      1.23456791e-02 0. 0. 0. 0. 0. 0. 0. 0. 0. 1.23456791e-02 0. 0. 0.
      0. 1.23456791e-02 0. 0. 0. 0. 0. 0. 0. 1.23456791e-02 0. 0. 0. 0.
      1.23456791e-02 0. 0. 0. 0. 0. 0. 0. 1.23456791e-02 0. 0. 0. 0. 0.
      0. 0. 1.23456791e-02 1.23456791e-02 0. 0. 0. 0. 0. 0. 0.
      1.23456791e-02 0. 0. 0. 0. 0. 0. 0. 0. 0. 0. 1.23456791e-02 0. 0.
      0. 0. 0. 0. 0. 0. 0. 0. 0. 0. 1.23456791e-02 1.23456791e-02 0. 0.
      0. 0. 0. 1.23456791e-02 0. 0. 0. 0. 0. 0. 0. 0. 0. 0. 0. 0. 0. 0.
      0. 1.23456791e-02 0. 0. 0. 0. 0. 0. 0. 0. 0. 0. 0. 0. 0. 0. 0. 0.
      0. 0. 0. 0. 0. 0. 0. 0. 0. 0. 0. 1.23456791e-02 0. 0. 0. 0. 0. 0.
      0. 0. 0. 0. 0. 0. 0. 0. 0. 0. 0. 0. 0. 0. 0. 0. 0. 0. 0. 0. 0. 0.
      0. 0. 0. 0. 1.23456791e-02 0. 0. 0. 0. 0. 1.23456791e-02 0. 0. 0.
      0. 0. 0. 0. 2.46913582e-02 0. 0. 0. 0. 0. 0. 0. 0. 0. 0. 0. 0. 0.
      0. 0. 0. 0. 1.23456791e-02 0. 0. 0. 0. 0. 1.23456791e-02 0. 0. 0.
      0. 0. 0. 0. 0. 0. 0. 0. 0. 1.23456791e-02 0. 0. 0. 0. 0. 0. 0. 0.
      0. 0. 0. 0. 0. 0. 0. 0. 0.</_>
    <_>
      0. 0. 0. 0. 0. 0. 8.13008100e-03 0. 0. 8.13008100e-03 0. 0. 0. 0.
      8.13008100e-03 0. 0. 0. 0. 8.13008100e-03 0. 0. 0. 0. 0. 0. 0.
      8.13008100e-03 8.13008100e-03 0. 0. 0. 0. 8.13008100e-03 0. 0. 0.
      0. 0. 0. 0. 0. 0. 8.13008100e-03 0. 0. 0. 0. 0. 0. 0. 0. 0. 0. 0.
      0. 0. 8.13008100e-03 0. 0. 0. 0. 0. 0. 0. 0. 0. 0. 0. 0. 0.
      8.13008100e-03 0. 0. 0. 0. 0. 0. 0. 0. 8.13008100e-03 0. 0. 0. 0.
      8.13008100e-03 0. 0. 0. 8.13008100e-03 0. 0. 0. 0. 0. 0. 0. 0. 0.
      0. 0. 0. 0. 8.13008100e-03 8.13008100e-03 0. 8.13008100e-03
      8.13008100e-03 0. 0. 0. 0. 0. 0. 0. 0. 0. 0. 0. 8.13008100e-03 0.
      0. 0. 0. 0. 8.13008100e-03 0. 0. 0. 0. 0. 0. 0. 0. 0. 0.
      8.13008100e-03 0. 0. 0. 0. 0. 0. 0. 0. 0. 0. 0. 8.13008100e-03 0.
      0. 0. 0. 0. 0. 0. 0. 0. 0. 8.13008100e-03 8.13008100e-03 0. 0. 0.
      0. 0. 0. 0. 0. 0. 0. 0. 0. 0. 0. 1.62601620e-02 0. 0. 0. 0. 0. 0.
      0. 0. 0. 0. 0. 0. 0. 0. 8.13008100e-03 8.13008100e-03 0. 0. 0.
      8.13008100e-03 0. 0. 0. 0. 0. 0. 0. 0. 0. 0. 0. 0. 0. 0.
      8.13008100e-03 0. 0. 0. 0. 0. 0. 0. 0. 8.13008100e-03 0. 0. 0. 0.
      8.13008100e-03 0. 0. 0. 0. 0. 0. 0. 0. 8.13008100e-03 0. 0. 0. 0.
      0. 0. 0. 0. 0. 0. 0. 0. 8.13008100e-03 8.13008100e-03 0. 0. 0. 0.
      0. 0. 0. 0. 0. 0. 0. 0. 0. 0. 0. 0. 0. 0. 0. 0. 8.13008100e-03 0.
      0. 0. 0. 0. 0. 8.13008100e-03 0. 0. 0. 0. 8.13008100e-03 0. 0.
      8.13008100e-03 0. 0. 0. 0. 0. 0. 0. 0. 0. 0. 0. 0. 0. 0. 0. 0. 0.
      0. 0. 0. 0. 0. 0. 0. 0. 8.13008100e-03 0. 0. 0. 0. 0. 0. 0. 0. 0.
      0. 0. 0. 0. 8.13008100e-03 0. 0. 0. 0. 8.13008100e-03 0. 0.
      8.13008100e-03 0. 0. 0. 0. 0. 0. 0. 0. 0. 0. 0. 0. 0. 0. 0.
      8.13008100e-03 0. 0. 0. 8.13008100e-03 0. 0. 0. 8.13008100e-03 0.
      8.13008100e-03 0. 0. 0. 8.13008100e-03 0. 0. 8.13008100e-03 0. 0.
      0. 0. 0. 0. 0. 0. 0. 0. 0. 0. 0. 0. 0. 0. 0. 0. 0. 0. 0. 0. 0. 0.
      0. 0. 0. 0. 0. 0. 0. 0. 0. 0. 0. 0. 8.13008100e-03 0. 0. 0. 0. 0.
      0. 0. 0. 8.13008100e-03 0. 0. 8.13008100e-03 0. 0. 0. 0. 0.
      1.62601620e-02 0. 0. 8.13008100e-03 0. 0. 0. 0. 0. 0. 0. 0. 0. 0.
      0. 0. 0. 0. 0. 0. 8.13008100e-03 0. 8.13008100e-03 1.62601620e-02
      0. 0. 0. 0. 0. 0. 0. 0. 0. 0. 0. 8.13008100e-03 0. 0. 0. 0. 0. 0.
      0. 0. 8.13008100e-03 8.13008100e-03 0. 0. 0. 0. 0. 0. 0. 0. 0. 0.
      0. 0. 0. 0. 0. 0. 0. 0. 0. 0. 0. 0. 0. 0. 0. 0. 0. 0. 0. 0. 0. 0.
      8.13008100e-03 0. 0. 0. 0. 0. 0. 0. 2.43902430e-02 8.13008100e-03
      0. 0. 0. 0. 0. 0. 0. 0. 0. 0. 0. 0. 0. 8.13008100e-03 0. 0. 0. 0.
      0. 0. 8.13008100e-03 0. 8.13008100e-03 0. 0. 0. 0. 0. 0. 0. 0. 0.
      0. 0. 0. 8.13008100e-03 0. 0. 0. 0. 0. 0. 0. 0. 0. 0. 0. 0. 0.
      8.13008100e-03 0. 0. 0. 0. 0. 0. 8.13008100e-03 0. 0. 0. 0. 0. 0.
      0. 0. 0. 0. 0. 0. 0. 0. 0. 0. 0. 0. 0. 0. 0. 0. 0. 0. 0. 0. 0. 0.
      0. 0. 8.13008100e-03 0. 0. 0. 0. 0. 0. 0. 0. 0. 0. 8.13008100e-03
      0. 0. 0. 8.13008100e-03 0. 0. 0. 0. 0. 0. 0. 0. 0. 1.62601620e-02
      0. 0. 0. 0. 0. 0. 0. 8.13008100e-03 0. 0. 0. 0. 0. 0. 0. 0. 0. 0.
      0. 0. 0. 0. 0. 8.13008100e-03 0. 0. 0. 0. 8.13008100e-03 0. 0. 0.
      1.62601620e-02 0. 0. 0. 0. 0. 0. 0. 0. 0. 0. 0. 0. 0. 0. 0. 0. 0.
      0. 0. 0. 0. 0. 0. 0. 0. 0. 0. 0. 8.13008100e-03 0. 0. 0. 0. 0. 0.
      0. 0. 0. 0. 0. 8.13008100e-03 0. 0. 0. 0. 0. 0. 0. 0. 0. 0. 0. 0.
      0. 0. 8.13008100e-03 0. 0. 0. 0. 0. 0. 0. 0. 0. 0. 0. 0. 0. 0. 0.
      0. 0. 0. 8.13008100e-03 0. 0. 0. 0. 8.13008100e-03 0. 0. 0.
      8.13008100e-03 8.13008100e-03 0. 0. 0. 0. 0. 0. 0. 0.
      8.13008100e-03 0. 0. 0. 0. 0. 0. 0. 0. 0. 0. 0. 0. 0. 0. 0. 0. 0.
      0. 8.13008100e-03 0. 0. 0. 0. 0. 0. 0. 0. 0. 8.13008100e-03 0. 0.
      0. 0. 0. 0. 0. 0. 0. 0. 0. 0. 0. 0. 0. 0. 0. 0. 0. 0. 0. 0. 0. 0.
      0. 0. 8.13008100e-03 0. 0. 0. 0. 0. 0. 0. 0. 0. 0. 0. 0. 0. 0. 0.
      0. 0. 0. 0. 0. 0. 0. 0. 0. 1.62601620e-02 0. 0. 0. 0. 0. 0. 0. 0.
      0. 0. 0. 0. 1.62601620e-02 0. 0. 0. 0. 8.13008100e-03 0. 0. 0. 0.
      0. 0. 0. 0. 0. 0. 8.13008100e-03 0. 0. 0. 0. 0. 0. 0. 0. 0. 0. 0.
      0. 0. 0. 0. 0. 0. 0. 8.13008100e-03 0. 0. 0. 0. 0. 0. 0. 0. 0.
      8.13008100e-03 0. 0. 0. 0. 0. 8.13008100e-03 8.13008100e-03 0. 0.
      0. 0. 0. 0. 8.13008100e-03 0. 0. 0. 0. 0. 0. 0. 0. 0. 0. 0. 0. 0.
      8.13008100e-03 0. 0. 8.13008100e-03 0. 0. 0. 0. 0. 0. 0. 0. 0. 0.
      0. 0. 0. 8.13008100e-03 0. 0. 0. 0. 0. 0. 0. 0. 8.13008100e-03 0.
      8.13008100e-03 0. 0. 0. 0. 0. 0. 0. 0. 0. 0. 0. 0. 0. 0.
      8.13008100e-03 0. 0. 0. 0. 0. 8.13008100e-03 0. 0. 0. 0.
      8.13008100e-03 0. 0. 0. 0. 8.13008100e-03 1.62601620e-02 0.
      8.13008100e-03 0. 8.13008100e-03 1.62601620e-02 0. 0. 0.
      8.13008100e-03 0. 0. 0. 8.13008100e-03 0. 1.62601620e-02 0. 0. 0.
      0. 0. 0. 0. 0. 0. 0. 0.</_>
    <_>
      0. 0. 0. 0. 0. 0. 6.75675692e-03 0. 6.75675692e-03 0. 0. 0. 0. 0.
      0. 0. 0. 0. 0. 0. 0. 0. 0. 0. 0. 6.75675692e-03 6.75675692e-03 0.
      0. 0. 1.35135138e-02 0. 0. 6.75675692e-03 6.75675692e-03
      6.75675692e-03 0. 0. 0. 0. 0. 0. 0. 0. 0. 0. 6.75675692e-03 0. 0.
      0. 0. 0. 0. 6.75675692e-03 6.75675692e-03 0. 0. 0. 0. 0. 0. 0. 0.
      0. 6.75675692e-03 0. 0. 0. 0. 0. 0. 0. 0. 0. 0. 0. 0. 0. 0. 0. 0.
      0. 0. 0. 0. 0. 0. 6.75675692e-03 0. 0. 0. 0. 0. 0. 0. 0. 0. 0. 0.
      6.75675692e-03 0. 1.35135138e-02 0. 0. 0. 0. 6.75675692e-03 0. 0.
      6.75675692e-03 0. 0. 6.75675692e-03 0. 0. 0. 0. 0. 0. 0. 0. 0. 0.
      0. 0. 0. 0. 6.75675692e-03 0. 0. 6.75675692e-03 6.75675692e-03 0.
      0. 0. 0. 0. 0. 0. 1.35135138e-02 0. 0. 0. 0. 1.35135138e-02 0. 0.
      0. 0. 6.75675692e-03 0. 0. 6.75675692e-03 0. 0. 0. 0. 0. 0. 0. 0.
      0. 0. 0. 0. 6.75675692e-03 0. 0. 0. 0. 0. 0. 0. 0. 0. 0.
      6.75675692e-03 0. 0. 0. 0. 6.75675692e-03 0. 0. 6.75675692e-03 0.
      0. 0. 0. 0. 0. 0. 0. 0. 0. 6.75675692e-03 0. 0. 0. 6.75675692e-03
      0. 0. 0. 0. 0. 0. 0. 6.75675692e-03 0. 0. 0. 0. 0. 0.
      6.75675692e-03 0. 0. 0. 0. 0. 0. 0. 6.75675692e-03 0. 0. 0. 0. 0.
      0. 0. 0. 0. 0. 0. 0. 0. 0. 0. 0. 0. 0. 0. 6.75675692e-03 0. 0. 0.
      6.75675692e-03 0. 6.75675692e-03 0. 0. 0. 0. 0. 0. 0.
      6.75675692e-03 0. 0. 0. 0. 0. 1.35135138e-02 0. 0. 0. 0. 0. 0. 0.
      0. 0. 0. 0. 0. 0. 0. 0. 0. 0. 1.35135138e-02 6.75675692e-03 0. 0.
      0. 0. 0. 0. 0. 0. 0. 0. 0. 0. 0. 0. 0. 0. 0. 6.75675692e-03 0. 0.
      0. 0. 0. 0. 6.75675692e-03 0. 0. 0. 0. 0. 6.75675692e-03 0.
      6.75675692e-03 0. 6.75675692e-03 6.75675692e-03 6.75675692e-03 0.
      0. 0. 0. 0. 0. 0. 0. 0. 6.75675692e-03 0. 0. 6.75675692e-03 0. 0.
      0. 6.75675692e-03 0. 0. 0. 0. 0. 0. 0. 6.75675692e-03 0. 0. 0. 0.
      0. 0. 0. 6.75675692e-03 0. 0. 0. 0. 0. 0. 0. 6.75675692e-03
      6.75675692e-03 0. 0. 0. 0. 0. 0. 1.35135138e-02 0. 0. 0. 0. 0. 0.
      0. 0. 0. 0. 0. 0. 0. 0. 0. 0. 0. 0. 0. 0. 0. 0. 0. 0. 0.
      6.75675692e-03 0. 0. 0. 0. 0. 0. 0. 0. 0. 0. 0. 0. 0. 0. 0. 0. 0.
      0. 0. 0. 0. 6.75675692e-03 0. 0. 0. 1.35135138e-02 0. 0. 0. 0.
      6.75675692e-03 0. 0. 0. 6.75675692e-03 0. 0. 6.75675692e-03 0. 0.
      6.75675692e-03 0. 0. 6.75675692e-03 0. 0. 6.75675692e-03 0. 0. 0.
      6.75675692e-03 0. 0. 6.75675692e-03 0. 0. 0. 0. 0. 0. 0. 0. 0. 0.
      0. 0. 0. 0. 6.75675692e-03 0. 0. 0. 6.75675692e-03 0. 0. 0. 0. 0.
      0. 0. 0. 0. 6.75675692e-03 0. 0. 0. 0. 0. 0. 0. 0. 0. 0. 0. 0. 0.
      0. 0. 0. 0. 0. 6.75675692e-03 0. 0. 0. 0. 0. 0. 0. 0. 0. 0. 0. 0.
      0. 0. 0. 0. 0. 0. 6.75675692e-03 0. 0. 0. 0. 6.75675692e-03 0. 0.
      0. 0. 0. 6.75675692e-03 0. 0. 0. 0. 0. 0. 0. 0. 0. 0. 0. 0. 0. 0.
      0. 0. 0. 0. 0. 0. 0. 0. 0. 0. 0. 0. 0. 0. 0. 0. 0. 0. 0. 0. 0. 0.
      0. 0. 0. 0. 0. 6.75675692e-03 0. 0. 6.75675692e-03 0.
      6.75675692e-03 0. 0. 0. 6.75675692e-03 0. 0. 0. 0. 0. 0. 0. 0.
      6.75675692e-03 0. 0. 0. 0. 0. 0. 6.75675692e-03 0. 6.75675692e-03
      0. 0. 6.75675692e-03 0. 0. 0. 0. 6.75675692e-03 0. 0. 0. 0. 0. 0.
      0. 0. 0. 0. 0. 0. 0. 0. 6.75675692e-03 0. 0. 0. 0. 6.75675692e-03
      0. 6.75675692e-03 0. 0. 0. 0. 0. 0. 0. 6.75675692e-03 0. 0. 0. 0.
      0. 0. 0. 0. 0. 0. 0. 0. 0. 0. 0. 6.75675692e-03 0. 0. 0. 0. 0. 0.
      0. 0. 0. 0. 0. 0. 0. 0. 0. 0. 0. 0. 0. 0. 0. 0. 0. 0.
      6.75675692e-03 0. 0. 0. 0. 0. 6.75675692e-03 0. 0. 0. 0. 0. 0. 0.
      0. 6.75675692e-03 0. 0. 0. 0. 0. 0. 0. 0. 1.35135138e-02 0.
      6.75675692e-03 0. 0. 0. 0. 0. 0. 0. 0. 0. 0. 0. 0. 0. 0. 0. 0. 0.
      0. 0. 0. 0. 0. 0. 0. 0. 0. 0. 0. 6.75675692e-03 0. 0. 0. 0.
      6.75675692e-03 0. 0. 0. 6.75675692e-03 0. 0. 0. 1.35135138e-02
      6.75675692e-03 0. 0. 0. 0. 0. 0. 0. 0. 1.35135138e-02 0. 0. 0.
      6.75675692e-03 0. 0. 0. 0. 0. 0. 0. 0. 0. 0. 0. 0. 6.75675692e-03
      0. 0. 0. 0. 0. 0. 0. 0. 0. 0. 6.75675692e-03 0. 0. 0. 0. 0.
      1.35135138e-02 0. 0. 6.75675692e-03 0. 0. 0. 0. 0. 0. 0. 0. 0. 0.
      0. 0. 0. 0. 0. 0. 0. 6.75675692e-03 0. 0. 0. 0. 0. 0. 0.
      1.35135138e-02 0. 0. 0. 0. 0. 0. 6.75675692e-03 0. 0. 0. 0.
      6.75675692e-03 0. 6.75675692e-03 0. 0. 0. 6.75675692e-03 0. 0.
      2.02702712e-02 0. 6.75675692e-03 6.75675692e-03 0. 0. 0. 0. 0. 0.
      0. 0. 0. 0. 0. 0. 6.75675692e-03 0. 0. 6.75675692e-03
      6.75675692e-03 0. 6.75675692e-03 0. 0. 0. 0. 1.35135138e-02
      6.75675692e-03 6.75675692e-03 0. 0. 0. 0. 0. 0. 0. 0.
      6.75675692e-03 0. 0. 0. 0. 0. 0. 0. 0. 0. 0. 0. 0. 0.
      6.75675692e-03 6.75675692e-03 0. 0. 0. 0. 0. 0. 0. 0. 0. 0. 0. 0.
      0. 0. 0. 0. 0. 0. 0. 0. 0. 0. 6.75675692e-03 0. 0. 0. 0. 0.
      6.75675692e-03 0. 0. 0. 0. 0. 0. 0. 0. 0. 0. 0. 0. 0. 0. 0. 0. 0.
      0. 0. 0. 0. 0. 0. 0. 0. 0. 0. 0. 0. 0. 0. 0. 6.75675692e-03 0. 0.
      0. 0. 0. 0. 0. 0. 0. 0. 0. 0. 6.75675692e-03 0. 0. 0. 0. 0. 0.
      6.75675692e-03 0. 6.75675692e-03 1.35135138e-02 0. 0. 0. 0. 0.
      6.75675692e-03 0. 0. 0. 0. 0. 0. 0. 0. 0. 0. 0. 0. 0. 0. 0. 0. 0.
      0. 0. 0.</_>
    <_>
      0. 0. 0. 0. 0. 0. 0. 7.40740728e-03 0. 0. 0. 0. 0. 7.40740728e-03
      0. 0. 0. 0. 0. 0. 0. 0. 0. 0. 7.40740728e-03 0. 0. 0. 0. 0. 0. 0.
      0. 0. 0. 0. 0. 0. 0. 0. 0. 0. 0. 0. 0. 0. 0. 0. 0. 0. 0. 0. 0. 0.
      0. 0. 0. 0. 0. 7.40740728e-03 0. 7.40740728e-03 0. 0. 0. 0. 0. 0.
      0. 0. 0. 0. 0. 0. 7.40740728e-03 7.40740728e-03 7.40740728e-03 0.
      7.40740728e-03 7.40740728e-03 0. 0. 7.40740728e-03 0. 0. 0. 0. 0.
      0. 7.40740728e-03 0. 0. 0. 0. 0. 0. 0. 0. 0. 7.40740728e-03 0. 0.
      0. 0. 0. 0. 0. 0. 0. 0. 0. 0. 0. 0. 7.40740728e-03 0. 0. 0. 0. 0.
      0. 0. 0. 0. 0. 0. 0. 0. 0. 0. 0. 0. 0. 0. 0. 0. 0. 0. 0.
      7.40740728e-03 0. 7.40740728e-03 0. 0. 0. 0. 0. 0. 0. 0. 0. 0. 0.
      0. 0. 0. 0. 0. 0. 0. 0. 0. 0. 7.40740728e-03 0. 0. 0. 0. 0. 0.
      7.40740728e-03 0. 0. 0. 0. 0. 0. 0. 1.48148146e-02 0. 0. 0. 0. 0.
      0. 0. 0. 0. 0. 0. 0. 0. 0. 7.40740728e-03 0. 0. 0. 0. 0. 0. 0. 0.
      0. 0. 0. 1.48148146e-02 0. 0. 7.40740728e-03 0. 0. 7.40740728e-03
      0. 0. 0. 0. 0. 0. 0. 0. 0. 0. 0. 0. 0. 0. 0. 0. 0. 0. 0. 0. 0. 0.
      0. 1.48148146e-02 0. 0. 0. 1.48148146e-02 0. 0. 0. 0. 0.
      7.40740728e-03 0. 0. 0. 0. 0. 0. 0. 0. 0. 7.40740728e-03 0. 0. 0.
      0. 0. 0. 0. 0. 0. 0. 0. 0. 0. 0. 0. 0. 0. 7.40740728e-03 0. 0. 0.
      0. 0. 0. 7.40740728e-03 0. 0. 7.40740728e-03 0. 0. 7.40740728e-03
      0. 0. 0. 0. 0. 0. 0. 0. 0. 0. 0. 0. 0. 0. 0. 0. 0. 0. 0. 0. 0. 0.
      0. 0. 0. 0. 0. 0. 0. 0. 0. 0. 0. 0. 0. 0. 0. 0. 7.40740728e-03
      7.40740728e-03 0. 7.40740728e-03 0. 0. 7.40740728e-03 0. 0. 0. 0.
      0. 0. 0. 0. 0. 0. 0. 0. 0. 0. 0. 0. 0. 0. 0. 0. 0. 0. 0.
      7.40740728e-03 0. 0. 0. 0. 0. 0. 0. 0. 0. 0. 0. 0. 0. 0. 0.
      1.48148146e-02 7.40740728e-03 0. 0. 0. 0. 0. 0. 0. 0. 0.
      1.48148146e-02 7.40740728e-03 0. 0. 0. 0. 0. 0. 0. 0.
      7.40740728e-03 0. 0. 0. 0. 0. 1.48148146e-02 0. 0. 0. 0. 0. 0. 0.
      0. 0. 0. 0. 7.40740728e-03 0. 0. 0. 0. 0. 7.40740728e-03 0. 0. 0.
      0. 0. 0. 0. 7.40740728e-03 0. 0. 0. 0. 0. 0. 0. 0. 0. 0. 0. 0. 0.
      7.40740728e-03 0. 0. 0. 7.40740728e-03 0. 0. 0. 0. 0. 0. 0. 0. 0.
      0. 0. 0. 7.40740728e-03 0. 0. 7.40740728e-03 0. 0. 0. 0. 0. 0. 0.
      0. 0. 0. 0. 0. 0. 0. 0. 0. 0. 0. 0. 7.40740728e-03 0. 0. 0.
      7.40740728e-03 0. 0. 0. 0. 0. 0. 0. 0. 0. 0. 0. 0. 0.
      1.48148146e-02 0. 0. 0. 0. 0. 0. 0. 0. 0. 0. 7.40740728e-03 0. 0.
      0. 7.40740728e-03 0. 0. 0. 0. 0. 0. 0. 0. 7.40740728e-03 0. 0. 0.
      7.40740728e-03 0. 0. 0. 0. 0. 0. 0. 0. 0. 0. 0. 0. 7.40740728e-03
      0. 0. 0. 7.40740728e-03 0. 0. 0. 0. 0. 0. 0. 0. 0. 0. 0. 0. 0. 0.
      0. 0. 0. 0. 0. 0. 0. 0. 0. 1.48148146e-02 0. 0. 0. 0.
      7.40740728e-03 0. 0. 0. 0. 0. 0. 0. 0. 0. 0. 0. 0. 0.
      7.40740728e-03 0. 0. 0. 0. 0. 0. 0. 0. 0. 7.40740728e-03 0. 0.
      7.40740728e-03 0. 0. 0. 0. 0. 0. 0. 0. 0. 0. 0. 0. 0. 0. 0.
      7.40740728e-03 0. 0. 0. 0. 0. 0. 0. 0. 0. 1.48148146e-02 0. 0. 0.
      0. 0. 0. 0. 0. 0. 0. 0. 0. 0. 0. 0. 0. 0. 0. 0. 0. 0. 0. 0.
      7.40740728e-03 0. 0. 0. 0. 7.40740728e-03 7.40740728e-03 0. 0. 0.
      0. 7.40740728e-03 7.40740728e-03 0. 7.40740728e-03 0. 0.
      1.48148146e-02 0. 7.40740728e-03 0. 0. 0. 0. 7.40740728e-03 0. 0.
      0. 0. 0. 0. 0. 0. 0. 0. 0. 0. 0. 0. 0. 7.40740728e-03 0. 0. 0. 0.
      7.40740728e-03 0. 0. 0. 0. 0. 0. 0. 0. 0. 0. 0. 0. 0. 0. 0. 0. 0.
      0. 0. 0. 0. 0. 0. 0. 0. 7.40740728e-03 0. 0. 0. 0. 0. 0. 0. 0.
      1.48148146e-02 0. 0. 7.40740728e-03 0. 0. 0. 0. 0. 0. 0. 0. 0. 0.
      0. 0. 0. 0. 0. 0. 0. 0. 7.40740728e-03 0. 0. 0. 0. 0.
      7.40740728e-03 7.40740728e-03 0. 0. 0. 7.40740728e-03 0. 0. 0. 0.
      0. 7.40740728e-03 0. 0. 7.40740728e-03 0. 7.40740728e-03 0. 0.
      7.40740728e-03 0. 1.48148146e-02 0. 0. 0. 0. 0. 0. 0. 0. 0. 0. 0.
      0. 0. 0. 0. 0. 0. 0. 0. 0. 0. 0. 0. 0. 0. 0. 7.40740728e-03 0. 0.
      0. 0. 0. 0. 7.40740728e-03 0. 0. 0. 7.40740728e-03 0.
      7.40740728e-03 0. 0. 0. 7.40740728e-03 0. 7.40740728e-03 0. 0.
      7.40740728e-03 7.40740728e-03 0. 0. 0. 0. 0. 0. 0. 1.48148146e-02
      0. 0. 0. 0. 0. 0. 0. 0. 0. 0. 0. 0. 0. 0. 0. 0. 0. 0. 0. 0.
      7.40740728e-03 0. 0. 0. 0. 1.48148146e-02 7.40740728e-03 0. 0. 0.
      0. 0. 0. 0. 7.40740728e-03 7.40740728e-03 0. 7.40740728e-03 0. 0.
      7.40740728e-03 0. 0. 0. 7.40740728e-03 0. 0. 0. 7.40740728e-03 0.
      0. 0. 0. 0. 0. 0. 0. 7.40740728e-03 0. 0. 0. 0. 0. 0. 0. 0.
      7.40740728e-03 0. 0. 0. 0. 0. 0. 1.48148146e-02 0. 0. 0. 0. 0. 0.
      0. 0. 0. 0. 0. 0. 7.40740728e-03 0. 0. 0. 0. 0. 0. 7.40740728e-03
      0. 0. 7.40740728e-03 0. 0. 0. 0. 0. 0. 0. 0. 7.40740728e-03 0. 0.
      0. 0. 7.40740728e-03 0. 0. 0. 0. 0. 0. 0. 0. 0. 0. 0. 0. 0. 0.
      7.40740728e-03 7.40740728e-03 0. 0. 7.40740728e-03 7.40740728e-03
      0. 0. 0. 0. 0. 0. 0. 0. 0. 0. 0. 0. 0. 0. 0. 0. 0. 0. 0. 0. 0. 0.
      0. 0. 0. 0. 0. 0. 0. 0. 0. 0. 0. 7.40740728e-03</_>
    <_>
      0. 0. 3.56506230e-03 0. 1.78253115e-03 0. 0. 0. 0. 0.
      5.34759369e-03 3.56506230e-03 1.78253115e-03 1.78253115e-03
      1.78253115e-03 0. 0. 0. 3.56506230e-03 0. 0. 1.78253115e-03 0. 0.
      1.78253115e-03 3.56506230e-03 0. 1.78253115e-03 1.78253115e-03 0.
      0. 0. 3.56506230e-03 1.78253115e-03 0. 0. 3.56506230e-03 0. 0. 0.
      8.91265552e-03 1.60427801e-02 0. 3.56506230e-03 5.34759369e-03
      1.78253115e-03 0. 0. 1.78253115e-03 1.78253115e-03 0. 0. 0. 0. 0.
      0. 1.78253115e-03 1.78253115e-03 0. 0. 0. 0. 0. 0. 1.78253115e-03
      0. 0. 0. 0. 0. 1.78253115e-03 1.78253115e-03 1.78253115e-03 0.
      3.56506230e-03 0. 1.78253115e-03 0. 3.56506230e-03 1.78253115e-03
      0. 0. 0. 1.78253115e-03 0. 0. 0. 0. 1.78253115e-03 0. 0. 0. 0.
      7.13012461e-03 0. 1.78253115e-03 0. 0. 0. 7.13012461e-03
      3.56506230e-03 1.78253115e-03 0. 0. 0. 0. 3.56506230e-03
      3.56506230e-03 0. 0. 0. 0. 0. 1.60427801e-02 5.34759369e-03
      1.06951874e-02 3.56506230e-03 1.78253115e-03 0. 0. 0.
      5.34759369e-03 0. 0. 7.13012461e-03 1.78253115e-03 0. 0. 0. 0. 0.
      0. 0. 1.78253115e-03 0. 0. 1.78253115e-03 0. 5.34759369e-03
      1.06951874e-02 0. 0. 0. 3.56506230e-03 0. 0. 0. 0. 0. 0. 0.
      1.78253115e-03 0. 0. 0. 0. 1.78253115e-03 0. 0. 0. 5.34759369e-03
      1.78253115e-03 0. 0. 3.56506230e-03 1.78253115e-03 0. 0.
      1.78253115e-03 1.78253115e-03 0. 3.56506230e-03 3.56506230e-03
      3.56506230e-03 5.34759369e-03 0. 1.78253115e-03 0. 0. 0. 0.
      1.78253115e-03 0. 3.56506230e-03 0. 0. 0. 1.78253115e-03
      3.56506230e-03 1.78253115e-03 0. 5.34759369e-03 1.78253115e-03
      3.56506230e-03 0. 5.34759369e-03 0. 0. 3.56506230e-03 0. 0.
      1.78253115e-03 1.78253115e-03 0. 0. 1.78253115e-03 0. 0. 0. 0.
      1.78253115e-03 1.78253115e-03 0. 0. 0. 0. 0. 0. 0. 0.
      1.78253115e-03 0. 3.56506230e-03 0. 0. 0. 1.78253115e-03
      1.78253115e-03 0. 0. 0. 0. 0. 0. 0. 3.56506230e-03 0. 0. 0. 0. 0.
      1.78253115e-03 1.78253115e-03 0. 5.34759369e-03 0. 0.
      1.78253115e-03 0. 1.78253115e-03 0. 0. 0. 0. 0. 0. 0. 0.
      1.78253115e-03 5.34759369e-03 0. 0. 1.78253115e-03 0. 0. 0. 0.
      3.56506230e-03 1.78253115e-03 0. 1.78253115e-03 1.78253115e-03 0.
      1.78253115e-03 0. 0. 0. 0. 3.56506230e-03 0. 0. 0. 0. 0.
      1.78253115e-03 1.78253115e-03 0. 0. 0. 0. 0. 3.56506230e-03 0. 0.
      0. 3.56506230e-03 0. 3.56506230e-03 0. 0. 0. 1.78253115e-03
      3.56506230e-03 0. 0. 1.78253115e-03 0. 0. 1.78253115e-03
      1.78253115e-03 0. 3.56506230e-03 0. 0. 0. 0. 0. 0. 0. 0.
      1.78253115e-03 0. 0. 1.78253115e-03 0. 0. 0. 0. 1.78253115e-03 0.
      0. 3.56506230e-03 3.56506230e-03 1.78253115e-03 0. 0. 0.
      3.56506230e-03 0. 0. 0. 3.56506230e-03 0. 0. 0. 0. 1.78253115e-03
      1.78253115e-03 0. 0. 0. 5.34759369e-03 3.56506230e-03 0. 0. 0. 0.
      5.34759369e-03 1.78253115e-03 0. 0. 0. 3.56506230e-03 0. 0. 0.
      1.78253115e-03 0. 0. 0. 0. 1.78253115e-03 3.56506230e-03 0.
      1.78253115e-03 1.78253115e-03 0. 1.78253115e-03 0. 0.
      5.34759369e-03 0. 0. 0. 0. 1.06951874e-02 0. 0. 0. 0. 0. 0. 0. 0.
      1.78253115e-03 1.78253115e-03 5.34759369e-03 3.56506230e-03 0. 0.
      0. 0. 0. 0. 0. 0. 0. 0. 1.42602492e-02 0. 3.56506230e-03
      3.56506230e-03 0. 0. 0. 0. 0. 0. 0. 0. 0. 0. 1.78253115e-03
      1.78253115e-03 0. 0. 3.56506230e-03 0. 0. 0. 1.78253115e-03
      3.56506230e-03 3.56506230e-03 1.78253115e-03 0. 8.91265552e-03 0.
      0. 1.78253115e-03 3.56506230e-03 0. 1.78253115e-03 0. 0. 0.
      1.78253115e-03 8.91265552e-03 1.78253115e-03 1.78253115e-03 0. 0.
      1.78253115e-03 0. 0. 3.56506230e-03 0. 1.78253115e-03 0.
      1.78253115e-03 0. 3.56506230e-03 0. 0. 0. 0. 0. 0. 3.56506230e-03
      0. 0. 0. 0. 0. 0. 1.78253115e-03 0. 1.78253115e-03 1.78253115e-03
      0. 0. 5.34759369e-03 0. 0. 0. 0. 0. 0. 0. 0. 0. 0. 0.
      1.78253115e-03 0. 0. 0. 0. 1.78253115e-03 0. 1.78253115e-03 0. 0.
      1.78253115e-03 1.78253115e-03 0. 1.78253115e-03 0. 1.78253115e-03
      0. 0. 0. 0. 0. 0. 1.78253115e-03 0. 3.56506230e-03 0. 0. 0.
      1.78253115e-03 0. 0. 0. 0. 0. 0. 0. 0. 0. 0. 0. 0. 0. 0. 0. 0.
      1.78253115e-03 1.78253115e-03 0. 1.78253115e-03 0. 0. 0. 0.
      3.56506230e-03 1.78253115e-03 0. 0. 0. 0. 1.78253115e-03
      3.56506230e-03 0. 0. 1.78253115e-03 3.56506230e-03 0. 0. 0. 0. 0.
      0. 0. 0. 3.56506230e-03 1.78253115e-03 0. 0. 0. 0. 5.34759369e-03
      0. 1.78253115e-03 0. 0. 0. 0. 0. 0. 0. 0. 0. 0. 8.91265552e-03 0.
      0. 0. 1.78253115e-03 0. 0. 1.78253115e-03 1.78253115e-03 0. 0. 0.
      0. 1.78253115e-03 1.78253115e-03 0. 0. 1.78253115e-03 0. 0. 0.
      1.78253115e-03 0. 0. 1.78253115e-03 0. 0. 0. 0. 0. 1.78253115e-03
      1.78253115e-03 0. 0. 0. 0. 5.34759369e-03 0. 0. 0. 1.78253115e-03
      0. 0. 1.78253115e-03 1.06951874e-02 0. 0. 5.34759369e-03
      1.78253115e-03 0. 1.78253115e-03 1.78253115e-03 0. 0.
      1.78253115e-03 0. 0. 0. 1.78253115e-03 0. 0. 0. 0. 5.34759369e-03
      0. 0. 0. 0. 0. 1.78253115e-03 0. 0. 1.78253115e-03 3.56506230e-03
      0. 7.13012461e-03 0. 0. 0. 0. 0. 0. 0. 0. 0. 0. 0. 0.
      3.56506230e-03 0. 1.78253115e-03 0. 3.56506230e-03 0. 0. 0. 0. 0.
      0. 7.13012461e-03 0. 0. 0. 1.78253115e-03 0. 5.34759369e-03
      1.78253115e-03 0. 0. 1.78253115e-03 1.78253115e-03 0.
      3.56506230e-03 0. 0. 1.78253115e-03 0. 0. 0. 0. 0. 0.
      1.78253115e-03 0. 0. 0. 0. 5.34759369e-03 1.78253115e-03 0.
      1.78253115e-03 0. 1.78253115e-03 0. 0. 0. 3.56506230e-03
      1.78253115e-03 0. 1.78253115e-03 0. 3.56506230e-03 3.56506230e-03
      1.78253115e-03 0. 0. 1.78253115e-03 3.56506230e-03 3.56506230e-03
      0. 0. 0. 0. 0. 0. 1.78253115e-03 1.78253115e-03 0. 0. 0. 0. 0.
      1.78253115e-03 0. 0. 1.78253115e-03 1.78253115e-03 1.78253115e-03
      0. 1.78253115e-03 0. 1.78253115e-03 0. 3.56506230e-03 0. 0. 0. 0.
      0. 0. 3.56506230e-03 0. 1.78253115e-03 1.78253115e-03
      3.56506230e-03 0. 1.78253115e-03 0. 0. 3.56506230e-03 0. 0.
      5.34759369e-03 0. 3.56506230e-03 0. 1.78253115e-03 0. 0.
      3.56506230e-03 0. 0. 0. 0. 0. 0. 1.78253115e-03 1.78253115e-03 0.
      1.78253115e-03 0. 0. 0. 0. 0. 0. 0. 0. 0. 5.34759369e-03 0. 0.
      1.78253115e-03 0. 1.78253115e-03 0. 3.56506230e-03 0. 0. 0.
      3.56506230e-03 0. 1.78253115e-03 0. 3.56506230e-03 0. 0. 0. 0.
      3.56506230e-03 0. 1.78253115e-03 5.34759369e-03 0. 0. 0. 0.
      1.78253115e-03 1.78253115e-03 0. 1.78253115e-03 0. 0. 0. 0. 0.
      1.78253115e-03 0. 0. 1.78253115e-03 0. 0. 3.56506230e-03
      1.78253115e-03 3.56506230e-03 0. 1.78253115e-03 0. 0. 0. 0. 0. 0.
      3.56506230e-03 0. 0. 0. 1.78253115e-03 0. 1.78253115e-03 0. 0. 0.
      0. 0. 1.78253115e-03 1.78253115e-03 0. 1.78253115e-03 0.
      1.78253115e-03 0. 0. 0. 0. 0. 1.78253115e-03 0. 0. 0.
      1.78253115e-03 0. 0. 0. 0. 1.78253115e-03 0. 0. 3.56506230e-03
      1.78253115e-03 5.34759369e-03 0. 1.78253115e-03 3.56506230e-03 0.
      0. 1.78253115e-03 0. 0. 0. 0. 0. 0. 1.78253115e-03 3.56506230e-03
      5.34759369e-03 7.13012461e-03 0. 1.78253115e-03 0. 0. 0.
      3.56506230e-03 1.78253115e-03 3.56506230e-03 0. 1.78253115e-03
      1.78253115e-03 1.06951874e-02 0. 0. 1.78253115e-03 1.78253115e-03
      0. 1.78253115e-03 0. 1.78253115e-03 0. 0. 0. 0. 0. 0. 0.
      3.56506230e-03 0. 1.78253115e-03 3.56506230e-03 1.78253115e-03
      1.78253115e-03 0. 3.56506230e-03 0. 0. 1.78253115e-03 0. 0. 0. 0.
      0. 1.78253115e-03 0. 0. 1.78253115e-03 0. 0. 1.78253115e-03 0.
      1.78253115e-03 0. 5.34759369e-03 0. 3.56506230e-03 1.78253115e-03
      0. 1.78253115e-03 0. 1.78253115e-03 0. 0. 0. 0. 0. 0. 0.
      1.78253115e-03 0. 0. 3.56506230e-03 0. 0. 0. 1.06951874e-02 0. 0.
      0. 0. 0. 0. 0. 0. 0. 0. 0. 0. 0.</_>
    <_>
      9.52380989e-03 0. 9.52380989e-03 0. 0. 0. 0. 0. 0. 0. 0. 0. 0. 0.
      0. 0. 0. 0. 4.76190494e-03 0. 4.76190494e-03 0. 0. 0.
      4.76190494e-03 4.76190494e-03 0. 4.76190494e-03 0. 0. 0. 0. 0. 0.
      4.76190494e-03 0. 0. 0. 0. 0. 0. 0. 0. 0. 0. 0. 0. 0. 0.
      4.76190494e-03 0. 0. 0. 4.76190494e-03 0. 0. 0. 0. 4.76190494e-03
      0. 0. 0. 0. 0. 0. 0. 0. 0. 0. 0. 0. 0. 0. 0. 0. 0. 0. 0. 0.
      4.76190494e-03 0. 0. 0. 4.76190494e-03 0. 4.76190494e-03 0. 0.
      4.76190494e-03 9.52380989e-03 0. 0. 4.76190494e-03 0.
      4.76190494e-03 0. 4.76190494e-03 0. 0. 0. 4.76190494e-03 0. 0. 0.
      4.76190494e-03 4.76190494e-03 0. 0. 0. 0. 4.76190494e-03 0. 0.
      4.76190494e-03 0. 4.76190494e-03 0. 0. 4.76190494e-03 0. 0. 0. 0.
      4.76190494e-03 0. 0. 0. 0. 0. 0. 0. 0. 0. 0. 0. 0. 0. 0.
      4.76190494e-03 0. 0. 0. 0. 0. 0. 0. 9.52380989e-03 0. 0. 0. 0. 0.
      0. 0. 0. 0. 0. 0. 0. 0. 0. 0. 0. 4.76190494e-03 0. 4.76190494e-03
      0. 4.76190494e-03 0. 4.76190494e-03 0. 0. 0. 0. 0. 4.76190494e-03
      0. 0. 0. 0. 0. 4.76190494e-03 0. 4.76190494e-03 4.76190494e-03
      4.76190494e-03 0. 0. 4.76190494e-03 0. 0. 4.76190494e-03 0. 0. 0.
      0. 0. 0. 9.52380989e-03 0. 0. 0. 0. 0. 0. 0. 0. 0. 4.76190494e-03
      0. 0. 0. 9.52380989e-03 0. 4.76190494e-03 0. 0. 0. 4.76190494e-03
      0. 4.76190494e-03 4.76190494e-03 0. 0. 0. 0. 0. 0. 0. 0. 0. 0. 0.
      0. 4.76190494e-03 0. 0. 0. 0. 0. 0. 0. 0. 0. 0. 0. 0. 0. 0. 0. 0.
      4.76190494e-03 4.76190494e-03 0. 0. 0. 0. 4.76190494e-03 0.
      4.76190494e-03 0. 4.76190494e-03 0. 0. 4.76190494e-03 0.
      4.76190494e-03 0. 0. 0. 0. 0. 0. 0. 0. 0. 0. 0. 0. 0. 0. 0. 0.
      4.76190494e-03 0. 0. 0. 0. 0. 0. 0. 0. 0. 4.76190494e-03 0. 0. 0.
      0. 0. 0. 0. 0. 0. 0. 0. 4.76190494e-03 0. 0. 0. 4.76190494e-03 0.
      0. 0. 9.52380989e-03 0. 0. 0. 0. 0. 4.76190494e-03 0. 0.
      4.76190494e-03 0. 0. 0. 0. 0. 0. 0. 0. 0. 0. 4.76190494e-03 0. 0.
      0. 0. 0. 0. 0. 0. 0. 0. 0. 0. 4.76190494e-03 0. 4.76190494e-03 0.
      0. 0. 0. 4.76190494e-03 0. 0. 0. 0. 0. 0. 0. 0. 0. 0. 0. 0. 0. 0.
      4.76190494e-03 0. 0. 0. 0. 0. 4.76190494e-03 0. 0. 0. 0. 0. 0. 0.
      0. 0. 0. 0. 0. 0. 0. 0. 0. 9.52380989e-03 0. 0. 0. 4.76190494e-03
      0. 4.76190494e-03 0. 0. 4.76190494e-03 0. 0. 0. 0. 0. 0. 0.
      4.76190494e-03 0. 4.76190494e-03 0. 0. 0. 0. 0. 0. 0. 0. 0.
      4.76190494e-03 0. 0. 0. 0. 0. 0. 0. 0. 0. 0. 4.76190494e-03 0. 0.
      4.76190494e-03 0. 4.76190494e-03 0. 0. 0. 0. 0. 0. 0. 0. 0. 0. 0.
      0. 0. 0. 0. 4.76190494e-03 4.76190494e-03 1.90476198e-02
      4.76190494e-03 0. 0. 0. 0. 0. 0. 4.76190494e-03 4.76190494e-03
      4.76190494e-03 0. 4.76190494e-03 0. 0. 0. 0. 0. 0. 0. 0. 0.
      4.76190494e-03 0. 0. 0. 0. 0. 4.76190494e-03 0. 0. 0. 0.
      9.52380989e-03 4.76190494e-03 0. 0. 0. 0. 4.76190494e-03
      4.76190494e-03 0. 0. 4.76190494e-03 0. 0. 0. 0. 0. 0. 0. 0. 0. 0.
      0. 0. 0. 0. 0. 0. 4.76190494e-03 0. 0. 0. 0. 0. 0. 0. 0. 0. 0. 0.
      0. 0. 0. 4.76190494e-03 4.76190494e-03 0. 0. 0. 4.76190494e-03 0.
      0. 0. 0. 0. 0. 0. 0. 0. 0. 0. 0. 0. 4.76190494e-03 0. 0.
      4.76190494e-03 1.42857153e-02 0. 0. 0. 0. 0. 0. 0. 0. 0. 0. 0. 0.
      0. 0. 9.52380989e-03 4.76190494e-03 0. 0. 0. 0. 0. 4.76190494e-03
      0. 0. 0. 0. 4.76190494e-03 0. 0. 0. 0. 0. 0. 4.76190494e-03 0. 0.
      0. 4.76190494e-03 0. 0. 0. 4.76190494e-03 0. 0. 0. 0. 0. 0. 0. 0.
      0. 4.76190494e-03 0. 0. 0. 0. 0. 0. 4.76190494e-03 0. 0.
      4.76190494e-03 0. 0. 0. 0. 4.76190494e-03 0. 4.76190494e-03 0. 0.
      0. 4.76190494e-03 0. 0. 0. 0. 0. 4.76190494e-03 0. 0. 0. 0. 0. 0.
      4.76190494e-03 0. 0. 4.76190494e-03 0. 0. 0. 0. 0. 4.76190494e-03
      0. 0. 0. 4.76190494e-03 0. 0. 3.33333351e-02 0. 0. 0. 0.
      1.42857153e-02 0. 0. 0. 0. 0. 0. 4.76190494e-03 0. 0. 0. 0. 0. 0.
      0. 0. 0. 0. 0. 4.76190494e-03 0. 0. 0. 0. 0. 0. 0. 0. 0. 0.
      4.76190494e-03 0. 0. 0. 0. 0. 4.76190494e-03 0. 0. 0. 0. 0.
      4.76190494e-03 0. 0. 0. 4.76190494e-03 0. 0. 4.76190494e-03
      4.76190494e-03 0. 0. 0. 4.76190494e-03 0. 0. 0. 4.76190494e-03
      9.52380989e-03 0. 0. 0. 0. 0. 0. 9.52380989e-03 0. 0. 0. 0. 0.
      4.76190494e-03 0. 0. 0. 0. 0. 4.76190494e-03 0. 0. 0. 0. 0. 0. 0.
      0. 0. 0. 0. 0. 4.76190494e-03 0. 4.76190494e-03 0. 0. 0.
      4.76190494e-03 0. 0. 0. 0. 0. 0. 0. 0. 0. 0. 0. 0. 0. 0. 0. 0. 0.
      0. 0. 0. 0. 4.76190494e-03 4.76190494e-03 0. 0. 0. 1.42857153e-02
      4.76190494e-03 0. 4.76190494e-03 0. 0. 0. 9.52380989e-03 0. 0. 0.
      0. 4.76190494e-03 0. 0. 0. 0. 0. 0. 0. 0. 0. 0. 0. 0. 0. 0. 0. 0.
      0. 0. 0. 0. 0. 0. 0. 0. 9.52380989e-03 0. 0. 4.76190494e-03 0. 0.
      0. 9.52380989e-03 0. 0. 0. 0. 0. 0. 9.52380989e-03 0. 0.
      4.76190494e-03 4.76190494e-03 0. 4.76190494e-03 0. 4.76190494e-03
      0. 0. 0. 0. 4.76190494e-03 0. 0. 0. 0. 0. 4.76190494e-03
      4.76190494e-03 4.76190494e-03 0. 9.52380989e-03 0. 0.
      4.76190494e-03 0. 0. 0. 0. 0. 0. 4.76190494e-03 0. 0. 0. 0.
      4.76190494e-03 0. 9.52380989e-03 4.76190494e-03 0. 0. 0. 0.
      4.76190494e-03 0. 0. 0. 0. 4.76190494e-03 0. 4.76190494e-03 0. 0.
      0. 0. 0. 4.76190494e-03 0. 4.76190494e-03 0. 0. 0. 0. 0.
      4.76190494e-03 0. 0. 0. 0. 4.76190494e-03 0. 0. 0. 0. 0. 0. 0. 0.
      0. 0. 0. 0. 0. 0. 0. 0. 0. 0. 0. 4.76190494e-03 0. 0. 0. 0. 0. 0.
      0. 0. 0. 0. 0. 4.76190494e-03 0. 0. 0. 0. 4.76190494e-03 0.
      4.76190494e-03 0. 0. 0. 0. 0. 0. 0. 0. 0. 0. 0. 0. 0. 0. 0. 0. 0.
      0. 0. 0. 4.76190494e-03 0. 0. 0. 0. 0. 0. 0. 0. 0. 0. 0. 0. 0. 0.
      0. 0. 0. 0. 0. 4.76190494e-03 0. 0. 0. 0. 0. 4.76190494e-03 0. 0.
      0. 0. 0. 0. 4.76190494e-03</_>
    <_>
      0. 0. 0. 0. 0. 6.45161280e-03 0. 0. 0. 0. 0. 0. 0. 6.45161280e-03
      0. 0. 0. 0. 0. 0. 0. 0. 0. 0. 6.45161280e-03 0. 0. 0. 0. 0. 0. 0.
      6.45161280e-03 6.45161280e-03 0. 0. 0. 0. 0. 0. 0. 6.45161280e-03
      0. 1.29032256e-02 6.45161280e-03 6.45161280e-03 0. 0. 0. 0. 0. 0.
      0. 0. 0. 0. 0. 0. 0. 0. 0. 0. 0. 0. 0. 0. 0. 0. 0. 0. 0. 0. 0. 0.
      0. 6.45161280e-03 1.29032256e-02 0. 0. 0. 0. 0. 0. 0. 0. 0. 0. 0.
      0. 0. 0. 0. 6.45161280e-03 0. 0. 0. 0. 6.45161280e-03 0. 0. 0.
      6.45161280e-03 0. 1.93548389e-02 0. 0. 0. 0. 0. 0. 0.
      6.45161280e-03 0. 0. 0. 0. 0. 0. 0. 0. 6.45161280e-03 0.
      1.29032256e-02 6.45161280e-03 0. 0. 0. 0. 0. 0. 0. 2.58064512e-02
      0. 6.45161280e-03 6.45161280e-03 0. 6.45161280e-03 0. 0. 0.
      1.29032256e-02 0. 1.29032256e-02 0. 0. 0. 0. 0. 0. 0. 0. 0. 0. 0.
      0. 0. 6.45161280e-03 0. 0. 0. 0. 0. 0. 0. 0. 0. 0. 0. 0. 0. 0. 0.
      0. 0. 0. 0. 0. 0. 0. 0. 0. 0. 0. 0. 0. 6.45161280e-03 0. 0. 0. 0.
      0. 6.45161280e-03 0. 0. 0. 0. 0. 0. 0. 0. 1.29032256e-02 0. 0. 0.
      0. 0. 0. 0. 0. 0. 6.45161280e-03 0. 0. 0. 0. 6.45161280e-03 0.
      6.45161280e-03 0. 0. 0. 0. 0. 0. 0. 0. 0. 6.45161280e-03 0. 0. 0.
      0. 0. 0. 0. 0. 6.45161280e-03 0. 0. 0. 0. 6.45161280e-03 0. 0. 0.
      0. 0. 0. 0. 0. 0. 0. 0. 0. 0. 0. 0. 6.45161280e-03 0. 0. 0. 0. 0.
      0. 0. 0. 6.45161280e-03 0. 0. 0. 0. 6.45161280e-03 0. 0. 0. 0. 0.
      0. 0. 0. 0. 0. 0. 0. 0. 0. 0. 0. 0. 0. 0. 0. 0. 0. 0. 0. 0. 0. 0.
      0. 0. 0. 0. 6.45161280e-03 0. 6.45161280e-03 0. 0. 0.
      6.45161280e-03 0. 6.45161280e-03 0. 0. 0. 0. 0. 0. 0. 0. 0. 0. 0.
      6.45161280e-03 0. 0. 0. 0. 0. 0. 0. 6.45161280e-03 6.45161280e-03
      0. 0. 6.45161280e-03 0. 0. 0. 0. 0. 0. 0. 0. 0. 0. 0. 0. 0. 0. 0.
      0. 0. 6.45161280e-03 0. 6.45161280e-03 0. 1.93548389e-02 0. 0. 0.
      0. 0. 0. 0. 0. 0. 0. 0. 0. 0. 0. 0. 0. 1.29032256e-02 0. 0.
      6.45161280e-03 0. 0. 0. 0. 0. 6.45161280e-03 1.29032256e-02 0. 0.
      0. 0. 0. 0. 0. 0. 0. 0. 0. 0. 0. 0. 0. 0. 0. 0. 0. 0. 0. 0. 0.
      6.45161280e-03 0. 0. 0. 0. 0. 0. 0. 0. 0. 6.45161280e-03 0. 0.
      6.45161280e-03 0. 0. 6.45161280e-03 0. 0. 0. 0. 0. 0. 0. 0. 0. 0.
      0. 0. 0. 0. 0. 0. 0. 0. 0. 0. 0. 1.29032256e-02 0. 0. 0. 0.
      6.45161280e-03 0. 0. 0. 0. 0. 6.45161280e-03 0. 6.45161280e-03 0.
      0. 6.45161280e-03 0. 0. 0. 0. 1.29032256e-02 0. 0. 0. 0.
      6.45161280e-03 0. 0. 0. 0. 0. 0. 0. 0. 0. 0. 0. 0. 0. 0. 0. 0. 0.
      0. 0. 0. 0. 0. 0. 0. 0. 6.45161280e-03 0. 0. 0. 0. 0. 0. 0. 0. 0.
      0. 0. 0. 0. 0. 0. 6.45161280e-03 0. 0. 0. 0. 0. 0. 0. 0. 0. 0. 0.
      0. 0. 0. 0. 0. 0. 0. 0. 0. 0. 0. 0. 0. 0. 0. 0. 1.29032256e-02 0.
      6.45161280e-03 0. 0. 0. 0. 0. 0. 0. 0. 0. 0. 6.45161280e-03 0. 0.
      0. 0. 0. 0. 6.45161280e-03 0. 0. 0. 0. 0. 1.29032256e-02 0.
      6.45161280e-03 0. 0. 0. 0. 0. 0. 0. 0. 6.45161280e-03 0. 0. 0. 0.
      6.45161280e-03 1.29032256e-02 0. 0. 6.45161280e-03 0. 0. 0. 0. 0.
      0. 0. 0. 0. 6.45161280e-03 0. 0. 6.45161280e-03 0. 0. 0. 0. 0. 0.
      0. 0. 0. 0. 0. 0. 0. 0. 0. 0. 6.45161280e-03 0. 0. 0. 0. 0. 0. 0.
      0. 0. 6.45161280e-03 0. 0. 0. 6.45161280e-03 0. 0. 0. 0. 0. 0.
      6.45161280e-03 0. 6.45161280e-03 0. 0. 0. 0. 0. 0. 0. 0. 0. 0. 0.
      0. 0. 0. 0. 0. 0. 0. 0. 0. 6.45161280e-03 0. 0. 0. 6.45161280e-03
      0. 0. 0. 0. 1.29032256e-02 0. 6.45161280e-03 0. 0. 6.45161280e-03
      0. 0. 0. 0. 0. 0. 0. 0. 0. 0. 0. 0. 0. 6.45161280e-03 0. 0. 0. 0.
      0. 0. 0. 0. 0. 0. 0. 0. 0. 0. 0. 0. 0. 0. 0. 0. 6.45161280e-03
      6.45161280e-03 0. 0. 0. 0. 0. 0. 0. 6.45161280e-03 0. 0. 0. 0. 0.
      0. 6.45161280e-03 0. 0. 1.29032256e-02 0. 0. 0. 0. 0. 0. 0. 0. 0.
      0. 0. 6.45161280e-03 6.45161280e-03 0. 6.45161280e-03 0. 0. 0. 0.
      0. 0. 6.45161280e-03 0. 6.45161280e-03 0. 0. 0. 0. 0. 0. 0. 0. 0.
      6.45161280e-03 0. 0. 0. 1.29032256e-02 0. 0. 0. 0. 0. 0. 0. 0. 0.
      0. 0. 0. 0. 0. 0. 0. 0. 0. 6.45161280e-03 0. 0. 0. 0. 0.
      6.45161280e-03 0. 0. 0. 0. 6.45161280e-03 0. 0. 0. 0. 0. 0. 0. 0.
      0. 0. 0. 0. 0. 0. 0. 0. 0. 0. 0. 1.93548389e-02 0. 0. 0. 0. 0. 0.
      0. 6.45161280e-03 6.45161280e-03 0. 0. 0. 0. 0. 0. 0. 0. 0. 0. 0.
      0. 0. 6.45161280e-03 0. 0. 0. 0. 6.45161280e-03 0. 0. 0.
      6.45161280e-03 6.45161280e-03 0. 0. 0. 0. 0. 0. 0. 6.45161280e-03
      0. 0. 0. 0. 0. 0. 6.45161280e-03 0. 0. 0. 0. 0. 0. 0.
      6.45161280e-03 0. 0. 0. 0. 0. 0. 0. 6.45161280e-03 0. 0.
      1.93548389e-02 0. 0. 0. 0. 0. 0. 0. 0. 0. 0. 0. 6.45161280e-03 0.
      0. 0. 0. 0. 6.45161280e-03 0. 0. 0. 0. 0. 0. 0. 0. 0. 0. 0. 0. 0.
      0. 0. 0. 0. 0. 0. 0. 0. 0. 0. 6.45161280e-03 6.45161280e-03
      6.45161280e-03 0. 0. 0. 0. 0. 0. 0. 0. 0. 0. 0. 0. 0. 0. 0.
      6.45161280e-03 0. 0. 6.45161280e-03 0. 0. 0. 0. 0. 0. 0. 0. 0. 0.
      0. 0. 0. 0. 0. 0. 6.45161280e-03 0. 0. 0. 0. 0. 6.45161280e-03 0.
      6.45161280e-03 0. 0. 0. 0. 0. 0. 0. 0. 0. 0. 0. 0. 6.45161280e-03
      0. 0. 0. 0. 0. 0. 6.45161280e-03 0. 0. 0. 0. 0. 0.</_>
    <_>
      0. 0. 0. 0. 0. 0. 0. 0. 0. 0. 0. 0. 0. 0. 0. 0. 2.38095243e-02 0.
      0. 0. 0. 0. 0. 0. 0. 0. 0. 0. 0. 0. 0. 0. 0. 0. 0. 0. 0. 0. 0. 0.
      0. 0. 0. 0. 0. 0. 0. 0. 0. 0. 0. 0. 0. 1.19047621e-02 0.
      1.19047621e-02 0. 0. 0. 0. 0. 0. 0. 0. 1.19047621e-02 0. 0. 0. 0.
      0. 0. 0. 0. 0. 0. 0. 0. 0. 0. 0. 0. 0. 0. 0. 0. 0. 0. 0. 0. 0. 0.
      0. 0. 0. 0. 1.19047621e-02 0. 0. 0. 0. 0. 0. 0. 0. 0. 0. 0.
      1.19047621e-02 0. 0. 0. 0. 0. 0. 0. 0. 0. 0. 0. 0. 0. 0. 0. 0. 0.
      0. 0. 0. 0. 0. 0. 0. 0. 0. 0. 1.19047621e-02 0. 0. 0. 0. 0. 0. 0.
      0. 0. 0. 0. 0. 0. 0. 0. 0. 0. 0. 0. 1.19047621e-02 1.19047621e-02
      0. 0. 0. 0. 1.19047621e-02 0. 0. 1.19047621e-02 0. 0. 0. 0. 0. 0.
      0. 0. 0. 0. 0. 1.19047621e-02 0. 0. 0. 0. 0. 0. 0. 0. 0. 0. 0. 0.
      0. 0. 0. 0. 0. 0. 0. 0. 0. 0. 0. 0. 0. 0. 0. 0. 0. 1.19047621e-02
      2.38095243e-02 0. 0. 0. 0. 0. 1.19047621e-02 0. 0. 1.19047621e-02
      0. 0. 0. 0. 0. 0. 0. 0. 0. 0. 0. 0. 1.19047621e-02 0. 0. 0. 0. 0.
      0. 0. 0. 0. 0. 0. 0. 0. 0. 1.19047621e-02 0. 0. 0. 0. 0. 0. 0. 0.
      0. 0. 0. 0. 1.19047621e-02 0. 0. 0. 0. 0. 0. 0. 0. 0. 0. 0. 0. 0.
      0. 0. 0. 0. 2.38095243e-02 0. 1.19047621e-02 1.19047621e-02 0. 0.
      0. 0. 0. 0. 0. 0. 0. 0. 0. 0. 0. 0. 0. 0. 0. 0. 0. 0. 0. 0. 0. 0.
      0. 0. 1.19047621e-02 2.38095243e-02 0. 0. 0. 0. 0. 0. 0. 0. 0. 0.
      0. 1.19047621e-02 0. 0. 0. 0. 0. 0. 0. 0. 0. 0. 0. 0. 0. 0. 0. 0.
      1.19047621e-02 2.38095243e-02 0. 0. 0. 0. 0. 0. 0. 0. 0. 0. 0. 0.
      0. 0. 0. 0. 0. 1.19047621e-02 0. 0. 0. 0. 0. 0. 0. 0. 0. 0. 0. 0.
      1.19047621e-02 0. 0. 0. 0. 0. 0. 0. 0. 0. 0. 0. 0. 2.38095243e-02
      0. 0. 0. 0. 0. 0. 0. 1.19047621e-02 0. 1.19047621e-02 0. 0. 0.
      2.38095243e-02 0. 0. 0. 0. 0. 0. 0. 1.19047621e-02 0. 0. 0.
      1.19047621e-02 0. 0. 0. 0. 0. 0. 0. 0. 0. 0. 0. 0. 0. 0. 0. 0. 0.
      0. 0. 0. 0. 2.38095243e-02 0. 0. 0. 0. 0. 0. 0. 0. 0. 0. 0. 0. 0.
      0. 0. 0. 1.19047621e-02 0. 0. 0. 0. 0. 0. 0. 0. 0. 0. 0. 0. 0. 0.
      0. 0. 0. 0. 0. 0. 0. 0. 1.19047621e-02 0. 0. 0. 2.38095243e-02 0.
      0. 0. 0. 0. 0. 0. 0. 0. 0. 1.19047621e-02 0. 0. 0. 0. 0. 0. 0. 0.
      0. 0. 0. 0. 0. 0. 1.19047621e-02 0. 0. 0. 0. 1.19047621e-02 0. 0.
      0. 0. 1.19047621e-02 0. 0. 0. 0. 0. 0. 0. 0. 0. 0. 0. 0. 0.
      1.19047621e-02 0. 0. 0. 0. 0. 0. 0. 0. 0. 0. 0. 0. 0. 0. 0. 0. 0.
      0. 0. 0. 1.19047621e-02 0. 0. 0. 0. 0. 0. 0. 0. 1.19047621e-02 0.
      0. 0. 0. 0. 1.19047621e-02 0. 0. 0. 0. 0. 1.19047621e-02 0. 0. 0.
      0. 0. 0. 0. 0. 0. 0. 0. 0. 0. 0. 0. 0. 0. 0. 0. 0. 0. 0.
      1.19047621e-02 0. 0. 0. 0. 0. 0. 1.19047621e-02 0. 0. 0. 0. 0. 0.
      0. 0. 0. 0. 0. 0. 0. 0. 0. 0. 0. 0. 0. 0. 0. 0. 0. 0. 0. 0. 0. 0.
      0. 0. 0. 0. 0. 0. 0. 0. 0. 0. 0. 0. 0. 0. 0. 0. 0. 0. 0. 0. 0. 0.
      0. 1.19047621e-02 0. 0. 0. 0. 1.19047621e-02 0. 0. 0. 0.
      1.19047621e-02 1.19047621e-02 0. 1.19047621e-02 0. 0. 0. 0. 0. 0.
      0. 0. 1.19047621e-02 0. 0. 0. 0. 0. 0. 0. 0. 0. 0. 0. 0. 0. 0. 0.
      0. 0. 0. 0. 0. 0. 0. 0. 1.19047621e-02 0. 0. 0. 0. 0. 0. 0.
      1.19047621e-02 0. 0. 0. 0. 0. 0. 0. 0. 0. 0. 0. 0. 2.38095243e-02
      0. 0. 0. 0. 0. 0. 0. 0. 0. 0. 0. 0. 0. 0. 0. 0. 1.19047621e-02 0.
      0. 0. 0. 0. 1.19047621e-02 0. 0. 0. 0. 0. 0. 0. 0. 1.19047621e-02
      0. 0. 0. 0. 0. 0. 0. 0. 0. 0. 0. 0. 0. 0. 0. 0. 0. 0. 0. 0. 0. 0.
      0. 0. 0. 0. 0. 0. 0. 0. 0. 0. 0. 1.19047621e-02 0. 0. 0. 0. 0. 0.
      0. 0. 0. 0. 0. 0. 0. 0. 0. 0. 0. 0. 1.19047621e-02 0. 0. 0. 0.
      1.19047621e-02 0. 0. 0. 0. 0. 0. 0. 0. 0. 0. 1.19047621e-02 0. 0.
      0. 0. 0. 0. 0. 0. 0. 0. 0. 0. 0. 0. 0. 0. 0. 0. 0. 0. 0. 0. 0. 0.
      0. 0. 0. 0. 1.19047621e-02 0. 0. 0. 0. 0. 0. 0. 0. 0. 0. 0. 0. 0.
      0. 0. 1.19047621e-02 0. 0. 0. 0. 0. 0. 0. 1.19047621e-02 0. 0. 0.
      0. 0. 0. 0. 0. 0. 0. 0. 0. 0. 0. 0. 0. 0. 0. 0. 0. 0. 0. 0. 0. 0.
      0. 0. 0. 0. 0. 0. 0. 0. 0. 0. 0. 0. 0. 0. 0. 0. 0. 0. 0. 0.
      1.19047621e-02 0. 0. 0. 0. 1.19047621e-02 0. 0. 0. 0. 0. 0. 0. 0.
      0. 0. 0. 0. 0. 0. 0. 0. 0. 0. 0. 1.19047621e-02 0. 0. 0. 0. 0. 0.
      1.19047621e-02 0. 0. 0. 0. 0. 0. 0. 0. 0. 0. 0. 0. 0. 0. 0. 0. 0.
      0. 0. 1.19047621e-02 0. 0. 0. 0. 0. 0. 0. 0. 0. 0. 0. 0. 0. 0. 0.
      0. 0. 0. 0. 0. 0. 0. 0. 0. 0. 0. 0. 0. 0. 0. 0. 0. 0. 0.</_>
    <_>
      0. 0. 0. 0. 0. 0. 0. 0. 0. 0. 0. 0. 0. 1.21951215e-02 0. 0. 0. 0.
      1.21951215e-02 0. 0. 0. 0. 0. 1.21951215e-02 0. 0. 0. 0. 0. 0. 0.
      0. 0. 0. 0. 0. 0. 0. 0. 0. 0. 0. 0. 0. 0. 0. 0. 0. 0. 0. 0. 0. 0.
      0. 0. 0. 0. 0. 0. 0. 0. 0. 0. 0. 0. 0. 0. 0. 0. 1.21951215e-02 0.
      0. 0. 1.21951215e-02 0. 2.43902430e-02 1.21951215e-02
      1.21951215e-02 0. 0. 0. 0. 0. 0. 0. 0. 0. 0. 0. 0. 0. 0. 0. 0. 0.
      0. 0. 0. 0. 0. 0. 0. 0. 0. 0. 0. 0. 0. 0. 3.65853645e-02 0. 0.
      1.21951215e-02 1.21951215e-02 0. 1.21951215e-02 0. 0. 0. 0. 0. 0.
      0. 0. 0. 0. 0. 1.21951215e-02 0. 0. 0. 1.21951215e-02 0.
      1.21951215e-02 0. 0. 0. 0. 1.21951215e-02 0. 0. 0. 0. 0. 0. 0. 0.
      0. 0. 0. 2.43902430e-02 0. 0. 0. 0. 0. 0. 0. 0. 0. 0. 0. 0. 0. 0.
      0. 0. 0. 0. 0. 0. 0. 0. 0. 0. 0. 0. 0. 1.21951215e-02 0. 0. 0. 0.
      0. 1.21951215e-02 0. 2.43902430e-02 0. 0. 0. 0. 0. 0. 0. 0. 0. 0.
      0. 0. 0. 0. 0. 0. 0. 0. 0. 0. 0. 0. 0. 0. 0. 0. 0. 0. 0. 0.
      1.21951215e-02 0. 0. 0. 0. 0. 0. 0. 0. 0. 0. 0. 0. 0. 0. 0. 0. 0.
      0. 0. 0. 0. 0. 0. 0. 0. 0. 0. 1.21951215e-02 0. 0. 0. 0. 0. 0. 0.
      0. 0. 1.21951215e-02 0. 0. 1.21951215e-02 0. 0. 0. 0.
      1.21951215e-02 0. 0. 0. 0. 0. 0. 0. 0. 0. 0. 0. 1.21951215e-02 0.
      0. 0. 0. 0. 0. 0. 0. 0. 0. 0. 0. 0. 0. 0. 0. 0. 0. 0. 0. 0. 0. 0.
      0. 0. 0. 0. 0. 0. 0. 0. 0. 0. 0. 0. 0. 0. 0. 0. 0. 0. 0.
      1.21951215e-02 0. 0. 0. 0. 0. 0. 0. 0. 0. 0. 0. 0. 0. 0. 0. 0. 0.
      0. 0. 0. 0. 0. 0. 0. 0. 0. 0. 0. 0. 1.21951215e-02 0. 0. 0. 0. 0.
      0. 0. 1.21951215e-02 0. 0. 0. 0. 0. 0. 0. 0. 0. 0. 0. 0. 0. 0. 0.
      0. 0. 0. 0. 0. 0. 0. 0. 0. 0. 0. 0. 1.21951215e-02 0. 0. 0. 0. 0.
      0. 0. 0. 0. 0. 0. 0. 0. 0. 0. 0. 0. 0. 0. 0. 0. 0. 6.09756075e-02
      1.21951215e-02 0. 0. 0. 0. 0. 0. 0. 0. 0. 0. 0. 0. 0. 0. 0.
      1.21951215e-02 1.21951215e-02 0. 0. 0. 0. 0. 0. 0. 0. 0. 0. 0. 0.
      0. 0. 0. 0. 0. 0. 0. 2.43902430e-02 0. 0. 0. 1.21951215e-02
      1.21951215e-02 0. 2.43902430e-02 0. 0. 0. 0. 0. 1.21951215e-02 0.
      2.43902430e-02 0. 0. 0. 0. 0. 0. 0. 0. 0. 0. 0. 0. 0. 0. 0. 0. 0.
      0. 0. 0. 0. 0. 0. 0. 0. 0. 0. 0. 0. 0. 0. 0. 0. 0. 0. 0. 0. 0. 0.
      0. 0. 0. 0. 0. 0. 0. 0. 0. 0. 0. 1.21951215e-02 0. 0. 0. 0. 0. 0.
      0. 0. 0. 0. 0. 0. 0. 0. 0. 0. 0. 0. 0. 0. 0. 0. 0. 0.
      1.21951215e-02 0. 0. 0. 0. 0. 0. 0. 0. 0. 0. 0. 0. 0. 0.
      1.21951215e-02 0. 1.21951215e-02 0. 0. 0. 0. 0. 0. 0. 0. 0. 0. 0.
      0. 0. 0. 0. 0. 0. 0. 0. 0. 0. 0. 0. 0. 0. 0. 0. 0. 0. 0. 0. 0. 0.
      0. 0. 0. 0. 0. 0. 0. 0. 0. 0. 0. 0. 0. 0. 0. 0. 0. 0. 0. 0. 0. 0.
