<?xml version="1.0"?>
<opencv_storage>
<my_svm type_id="opencv-ml-svm">
  <svm_type>NU_SVC</svm_type>
  <kernel><type>RBF</type>
    <gamma>1.</gamma></kernel>
  <nu>5.0000000000000003e-02</nu>
  <term_criteria><epsilon>2.2204460492503131e-16</epsilon>
    <iterations>5000</iterations></term_criteria>
  <var_all>1000</var_all>
  <var_count>1000</var_count>
  <class_count>2</class_count>
  <class_labels type_id="opencv-matrix">
    <rows>1</rows>
    <cols>2</cols>
    <dt>i</dt>
    <data>
      0 1</data></class_labels>
  <sv_total>349</sv_total>
  <support_vectors>
    <_>
      0. 1.33333337e-02 1.33333337e-02 0. 0. 0. 1.33333337e-02 0. 0. 0.
      0. 1.33333337e-02 0. 0. 0. 0. 0. 0. 0. 0. 0. 0. 1.33333337e-02 0.
      0. 0. 0. 0. 0. 0. 0. 0. 0. 0. 0. 0. 0. 1.33333337e-02 0. 0. 0. 0.
      0. 0. 0. 0. 0. 0. 0. 1.33333337e-02 0. 0. 0. 0. 0. 0. 0. 0. 0. 0.
      0. 0. 0. 0. 1.33333337e-02 0. 0. 0. 0. 0. 0. 0. 0. 0. 0. 0. 0. 0.
      0. 0. 1.33333337e-02 0. 0. 0. 0. 0. 0. 0. 0. 0. 0. 0.
      1.33333337e-02 0. 0. 0. 0. 0. 2.66666673e-02 0. 0. 0. 0.
      1.33333337e-02 0. 1.33333337e-02 0. 0. 0. 0. 0. 0. 0. 0. 0. 0. 0.
      0. 1.33333337e-02 0. 0. 0. 0. 0. 0. 0. 0. 0. 0. 0. 0. 0. 0. 0. 0.
      0. 0. 0. 0. 0. 1.33333337e-02 0. 0. 0. 0. 0. 0. 0. 0. 0. 0.
      1.33333337e-02 0. 0. 0. 0. 0. 0. 0. 0. 0. 0. 0. 0. 0. 0. 0. 0. 0.
      1.33333337e-02 0. 0. 0. 0. 0. 0. 1.33333337e-02 0. 0. 0. 0. 0. 0.
      0. 1.33333337e-02 0. 0. 0. 0. 0. 0. 0. 0. 0. 0. 0. 1.33333337e-02
      0. 0. 0. 0. 0. 0. 1.33333337e-02 0. 0. 0. 0. 0. 0. 0. 0. 0. 0. 0.
      0. 0. 0. 0. 1.33333337e-02 0. 0. 0. 0. 0. 0. 0. 0. 0. 0.
      2.66666673e-02 0. 0. 3.99999991e-02 0. 0. 0. 0. 0. 0. 0. 0. 0. 0.
      0. 1.33333337e-02 0. 0. 0. 0. 0. 0. 0. 0. 0. 0. 0. 0. 0. 0. 0. 0.
      0. 0. 2.66666673e-02 0. 0. 0. 0. 0. 0. 0. 0. 0. 0. 0. 0. 0. 0. 0.
      0. 0. 0. 0. 0. 0. 0. 0. 0. 0. 0. 0. 0. 0. 0. 0. 1.33333337e-02 0.
      0. 0. 0. 0. 0. 0. 0. 0. 0. 0. 0. 0. 1.33333337e-02 0. 0. 0. 0.
      1.33333337e-02 0. 1.33333337e-02 0. 0. 0. 0. 0. 0. 0. 0. 0. 0. 0.
      0. 0. 0. 0. 0. 0. 0. 0. 0. 0. 0. 0. 1.33333337e-02 0. 0. 0. 0. 0.
      0. 0. 0. 0. 0. 0. 0. 0. 1.33333337e-02 0. 0. 0. 0. 0. 0. 0. 0. 0.
      0. 0. 0. 0. 1.33333337e-02 0. 0. 0. 0. 0. 0. 0. 0. 0. 0.
      1.33333337e-02 0. 0. 0. 0. 0. 0. 0. 0. 0. 0. 0. 0. 0. 0. 0. 0. 0.
      0. 0. 0. 0. 1.33333337e-02 0. 0. 0. 0. 0. 0. 0. 0. 0. 0. 0. 0. 0.
      0. 0. 0. 0. 0. 0. 0. 0. 0. 0. 0. 0. 0. 1.33333337e-02 0. 0. 0. 0.
      0. 0. 0. 1.33333337e-02 0. 0. 0. 1.33333337e-02 0. 0. 0. 0. 0. 0.
      0. 0. 0. 0. 0. 0. 0. 0. 0. 0. 0. 0. 0. 0. 0. 0. 0. 0. 0. 0. 0. 0.
      0. 0. 0. 0. 0. 0. 0. 0. 0. 0. 0. 0. 0. 0. 0. 0. 0. 0. 0. 0. 0. 0.
      0. 0. 0. 0. 0. 0. 0. 0. 0. 0. 0. 0. 0. 0. 0. 0. 0. 1.33333337e-02
      0. 0. 0. 0. 0. 0. 0. 0. 0. 0. 0. 0. 1.33333337e-02 0. 0.
      1.33333337e-02 0. 0. 0. 0. 1.33333337e-02 0. 0. 0. 0. 0. 0. 0. 0.
      0. 0. 0. 0. 0. 0. 0. 0. 0. 1.33333337e-02 0. 0. 0. 0. 0. 0. 0. 0.
      0. 0. 0. 0. 0. 0. 0. 0. 0. 0. 0. 0. 0. 0. 0. 0. 0. 0. 0. 0. 0. 0.
      0. 0. 0. 0. 0. 0. 1.33333337e-02 0. 0. 0. 0. 0. 0. 0. 0. 0. 0. 0.
      0. 0. 0. 0. 1.33333337e-02 0. 0. 1.33333337e-02 0. 0. 0. 0. 0. 0.
      0. 0. 0. 0. 0. 0. 0. 0. 0. 0. 0. 0. 0. 0. 0. 0. 0. 0. 0. 0. 0. 0.
      0. 0. 0. 0. 0. 0. 0. 1.33333337e-02 0. 0. 0. 0. 0. 0. 0. 0. 0. 0.
      0. 0. 0. 0. 0. 0. 0. 0. 0. 0. 0. 0. 0. 0. 0. 0. 0. 0. 0. 0. 0. 0.
      1.33333337e-02 0. 0. 0. 0. 1.33333337e-02 0. 1.33333337e-02 0. 0.
      0. 0. 0. 0. 0. 0. 0. 0. 0. 0. 0. 0. 0. 0. 0. 0. 1.33333337e-02 0.
      0. 0. 0. 0. 0. 0. 0. 0. 0. 0. 0. 0. 0. 0. 0. 0. 0. 0. 0. 0. 0. 0.
      0. 0. 0. 0. 1.33333337e-02 0. 0. 0. 0. 0. 0. 0. 0. 0. 0. 0. 0. 0.
      0. 0. 0. 0. 1.33333337e-02 0. 0. 0. 0. 0. 0. 0. 0. 0. 0. 0. 0. 0.
      0. 0. 0. 0. 0. 0. 0. 0. 0. 0. 0. 0. 0. 0. 0. 0. 0. 0. 0. 0. 0. 0.
      0. 0. 0. 0. 0. 0. 0. 0. 0. 0. 0. 0. 0. 0. 0. 0. 0. 0. 0. 0. 0.
      1.33333337e-02 0. 0. 0. 0. 0. 0. 0. 0. 0. 0. 0. 0. 0. 0. 0. 0. 0.
      0. 0. 0. 0. 0. 0. 0. 0. 1.33333337e-02 1.33333337e-02 0. 0.
      1.33333337e-02 0. 0. 0. 0. 0. 0. 0. 0. 0. 1.33333337e-02 0. 0. 0.
      0. 0. 0. 0. 0. 0. 0. 0. 0. 0. 0. 0. 0. 0. 0. 0. 0. 1.33333337e-02
      0. 0. 0. 0. 0. 0. 1.33333337e-02 0. 0. 0. 0. 0. 1.33333337e-02 0.
      0. 0. 0. 0. 0. 0. 0. 0. 0. 0. 0. 0. 0. 0. 0. 0. 0. 0. 0. 0. 0. 0.
      0. 0. 0. 0. 0. 0. 0. 0. 0. 1.33333337e-02 0. 0. 0. 0. 0. 0. 0. 0.
      0. 0. 0. 0. 0. 0. 0. 0. 0. 0. 0. 0. 0. 0. 0. 0. 0. 0. 0. 0. 0. 0.
      0. 0. 0. 0. 0. 0. 0. 0. 0. 0. 0. 0. 0. 1.33333337e-02 0. 0. 0. 0.
      0. 0. 0. 0. 0. 0. 0. 0. 0. 0. 0. 0. 0. 0. 0. 0. 0. 1.33333337e-02
      0. 0. 0. 0. 0. 0. 3.99999991e-02 0. 2.66666673e-02 0. 0. 0. 0. 0.
      0. 0. 0. 0. 0. 1.33333337e-02 0. 0. 0. 0.</_>
    <_>
      0. 0. 0. 0. 0. 0. 0. 0. 0. 0. 0. 0. 0. 0. 0. 0. 0. 0. 0.
      9.52380989e-03 0. 0. 0. 0. 0. 0. 0. 0. 0. 0. 0. 0. 9.52380989e-03
      0. 0. 9.52380989e-03 0. 0. 0. 0. 1.90476198e-02 0. 9.52380989e-03
      0. 0. 0. 9.52380989e-03 0. 0. 0. 0. 0. 0. 0. 0. 0. 0. 0. 0. 0. 0.
      0. 0. 0. 0. 0. 0. 0. 0. 0. 0. 0. 0. 0. 0. 0. 0. 0. 0. 0. 0. 0. 0.
      0. 0. 0. 0. 0. 0. 0. 0. 0. 0. 0. 0. 0. 9.52380989e-03 0. 0. 0.
      1.90476198e-02 0. 0. 9.52380989e-03 0. 0. 0. 0. 0. 0. 0.
      9.52380989e-03 0. 0. 0. 0. 0. 0. 0. 0. 0. 0. 0. 0. 0. 0. 0. 0. 0.
      0. 0. 0. 0. 0. 0. 0. 0. 0. 0. 0. 0. 0. 0. 0. 0. 0. 0. 0. 0. 0. 0.
      0. 0. 0. 0. 0. 9.52380989e-03 0. 9.52380989e-03 0. 0. 0. 0. 0. 0.
      0. 0. 0. 0. 0. 0. 9.52380989e-03 9.52380989e-03 0. 0. 0. 0. 0. 0.
      0. 0. 0. 0. 0. 0. 0. 9.52380989e-03 0. 0. 0. 0. 0. 0. 0. 0. 0. 0.
      9.52380989e-03 0. 0. 9.52380989e-03 0. 0. 0. 0. 9.52380989e-03 0.
      9.52380989e-03 0. 0. 0. 9.52380989e-03 0. 0. 9.52380989e-03 0. 0.
      0. 0. 0. 0. 0. 0. 0. 0. 0. 0. 0. 0. 0. 0. 0. 0. 9.52380989e-03 0.
      0. 0. 0. 0. 0. 0. 0. 0. 0. 0. 0. 0. 0. 0. 0. 0. 0. 0. 0. 0. 0. 0.
      0. 0. 9.52380989e-03 1.90476198e-02 0. 0. 0. 0. 0. 9.52380989e-03
      0. 0. 0. 0. 0. 0. 0. 0. 0. 9.52380989e-03 0. 0. 0. 0. 0. 0. 0. 0.
      0. 0. 0. 0. 0. 0. 0. 0. 0. 0. 0. 0. 9.52380989e-03 0. 0. 0. 0. 0.
      9.52380989e-03 0. 0. 9.52380989e-03 0. 0. 0. 0. 0. 0.
      1.90476198e-02 0. 0. 9.52380989e-03 0. 9.52380989e-03 0. 0. 0.
      9.52380989e-03 9.52380989e-03 9.52380989e-03 0. 0. 0.
      9.52380989e-03 0. 0. 0. 0. 0. 0. 0. 0. 0. 0. 0. 0. 0. 0. 0. 0. 0.
      0. 0. 0. 0. 0. 0. 9.52380989e-03 0. 0. 0. 0. 0. 0. 0. 0. 0. 0. 0.
      0. 0. 0. 0. 0. 0. 0. 0. 0. 0. 0. 0. 0. 0. 0. 0. 9.52380989e-03 0.
      0. 0. 0. 0. 0. 0. 0. 0. 0. 0. 0. 0. 0. 0. 0. 0. 0. 0. 0. 0. 0. 0.
      0. 0. 0. 9.52380989e-03 0. 0. 0. 0. 0. 2.85714306e-02 0. 0. 0. 0.
      0. 0. 0. 0. 0. 0. 0. 9.52380989e-03 0. 0. 0. 0. 0. 0. 0. 0. 0. 0.
      0. 0. 0. 0. 0. 0. 0. 0. 9.52380989e-03 0. 9.52380989e-03 0. 0. 0.
      9.52380989e-03 0. 0. 0. 0. 0. 0. 0. 0. 0. 0. 0. 0. 0. 0. 0. 0.
      1.90476198e-02 0. 0. 0. 0. 0. 0. 0. 0. 0. 0. 0. 0. 0. 0. 0. 0. 0.
      0. 0. 0. 0. 0. 0. 0. 0. 0. 0. 0. 2.85714306e-02 0. 0. 0. 0. 0. 0.
      0. 0. 0. 0. 0. 0. 0. 0. 0. 0. 0. 0. 0. 0. 0. 0. 0. 0. 0. 0. 0. 0.
      0. 9.52380989e-03 0. 0. 0. 0. 0. 0. 0. 0. 0. 0. 0. 0. 0. 0. 0.
      1.90476198e-02 0. 0. 0. 0. 0. 0. 0. 0. 0. 0. 0. 0. 0. 0. 0. 0. 0.
      0. 0. 0. 0. 0. 0. 0. 0. 0. 0. 0. 9.52380989e-03 9.52380989e-03 0.
      0. 0. 0. 0. 0. 0. 9.52380989e-03 0. 0. 0. 1.90476198e-02 0. 0. 0.
      0. 0. 0. 0. 0. 0. 0. 0. 0. 0. 0. 9.52380989e-03 0. 9.52380989e-03
      0. 0. 0. 0. 0. 0. 0. 0. 0. 0. 0. 0. 9.52380989e-03 9.52380989e-03
      0. 0. 0. 0. 0. 9.52380989e-03 0. 0. 0. 0. 0. 0. 0. 0. 0. 0. 0. 0.
      0. 0. 0. 0. 9.52380989e-03 0. 0. 0. 0. 9.52380989e-03 0. 0. 0. 0.
      9.52380989e-03 9.52380989e-03 0. 0. 9.52380989e-03 0. 0. 0. 0. 0.
      0. 0. 0. 0. 9.52380989e-03 0. 9.52380989e-03 0. 0. 0. 0. 0. 0. 0.
      0. 0. 0. 0. 9.52380989e-03 0. 0. 0. 0. 0. 9.52380989e-03 0. 0. 0.
      0. 0. 0. 0. 0. 0. 0. 0. 9.52380989e-03 0. 0. 0. 0. 0. 0.
      9.52380989e-03 0. 0. 0. 0. 0. 0. 0. 0. 0. 0. 0. 0. 0. 0. 0. 0.
      9.52380989e-03 0. 0. 0. 0. 0. 0. 0. 0. 9.52380989e-03 0. 0. 0. 0.
      0. 0. 0. 0. 0. 0. 0. 0. 0. 0. 0. 0. 0. 0. 0. 9.52380989e-03 0. 0.
      0. 0. 0. 0. 0. 0. 0. 0. 0. 0. 0. 9.52380989e-03 0. 0.
      9.52380989e-03 0. 0. 0. 0. 0. 0. 0. 0. 0. 0. 0. 0. 0. 0. 0.
      9.52380989e-03 0. 0. 0. 0. 0. 0. 9.52380989e-03 0. 0. 0. 0. 0. 0.
      0. 0. 0. 0. 9.52380989e-03 0. 9.52380989e-03 0. 0. 0. 0. 0. 0. 0.
      0. 0. 0. 0. 0. 0. 0. 0. 0. 0. 0. 9.52380989e-03 0. 0. 0. 0. 0. 0.
      0. 9.52380989e-03 0. 9.52380989e-03 0. 0. 0. 0. 0. 0. 0. 0. 0. 0.
      0. 0. 0. 0. 0. 0. 0. 0. 0. 0. 0. 0. 0. 0. 9.52380989e-03 0. 0. 0.
      0. 0. 0. 0. 0. 0. 0. 0. 0. 9.52380989e-03 0. 0. 0. 0. 0. 0. 0.
      9.52380989e-03 0. 0. 0. 0. 0. 0. 0. 0. 0. 0. 0. 0. 0. 0.
      9.52380989e-03 0. 0. 0. 0. 0. 0. 0. 0. 0. 0. 0. 9.52380989e-03 0.
      0. 0. 0. 0. 0. 0. 0. 0. 0. 0. 0. 0. 9.52380989e-03 0. 0. 0. 0. 0.
      0. 0. 0. 0. 0. 0. 0. 0. 0. 0. 0. 0. 0. 0. 0. 0. 9.52380989e-03 0.
      0. 0. 0. 0. 0. 0. 0. 0. 0. 9.52380989e-03 0. 0. 9.52380989e-03 0.
      0. 0. 0. 2.85714306e-02 0. 0. 0. 0. 0. 0. 0. 0. 0. 0.
      9.52380989e-03 0. 0. 0. 0. 0. 0. 0. 0. 0. 0. 0. 0. 0. 0. 0. 0.
      9.52380989e-03 0. 0. 0. 0. 0. 0. 0. 0. 0. 0. 0. 0. 0. 0.</_>
    <_>
      0. 0. 0. 0. 0. 0. 0. 0. 0. 0. 0. 0. 0. 0. 0. 0. 0. 0. 0. 0. 0. 0.
      0. 0. 0. 0. 0. 0. 0. 0. 0. 0. 9.52380989e-03 9.52380989e-03 0. 0.
      0. 0. 0. 0. 0. 0. 0. 0. 0. 0. 9.52380989e-03 0. 0. 0. 0.
      9.52380989e-03 0. 0. 0. 0. 0. 0. 0. 0. 0. 0. 0. 0. 0. 0. 0. 0. 0.
      0. 0. 0. 0. 0. 0. 0. 0. 1.90476198e-02 0. 0. 9.52380989e-03
      9.52380989e-03 0. 0. 0. 0. 0. 0. 0. 0. 0. 0. 0. 0. 9.52380989e-03
      0. 0. 0. 0. 0. 0. 0. 0. 0. 0. 0. 0. 0. 0. 0. 0. 0. 9.52380989e-03
      0. 0. 0. 0. 0. 0. 0. 9.52380989e-03 0. 0. 0. 0. 0. 0. 0. 0. 0. 0.
      0. 9.52380989e-03 9.52380989e-03 0. 0. 0. 0. 0. 0. 9.52380989e-03
      0. 0. 0. 9.52380989e-03 0. 0. 1.90476198e-02 0. 0. 0. 0. 0. 0. 0.
      0. 0. 0. 0. 9.52380989e-03 0. 0. 0. 0. 0. 0. 0. 0. 9.52380989e-03
      0. 0. 0. 0. 0. 0. 0. 0. 0. 0. 0. 0. 0. 0. 0. 0. 0. 0. 0. 0. 0. 0.
      0. 0. 0. 0. 9.52380989e-03 0. 0. 0. 0. 0. 0. 0. 0. 0. 0. 0. 0. 0.
      0. 0. 9.52380989e-03 0. 0. 0. 0. 0. 0. 0. 9.52380989e-03 0. 0.
      9.52380989e-03 0. 0. 9.52380989e-03 0. 0. 0. 0. 0. 0. 0.
      9.52380989e-03 0. 0. 0. 0. 0. 0. 0. 0. 0. 0. 0. 0. 1.90476198e-02
      0. 0. 0. 0. 0. 0. 0. 0. 0. 0. 0. 0. 0. 0. 0. 0. 0. 0. 0. 0. 0. 0.
      0. 0. 0. 0. 9.52380989e-03 0. 0. 0. 0. 9.52380989e-03 0. 0. 0. 0.
      9.52380989e-03 0. 0. 0. 0. 0. 0. 0. 0. 0. 0. 0. 0. 0. 0. 0. 0. 0.
      0. 0. 0. 0. 0. 0. 0. 0. 0. 0. 0. 0. 0. 9.52380989e-03 0. 0. 0. 0.
      0. 0. 0. 0. 0. 1.90476198e-02 0. 0. 0. 0. 0. 0. 0. 0. 0. 0. 0. 0.
      9.52380989e-03 0. 0. 0. 0. 0. 0. 0. 0. 0. 0. 0. 0. 0. 0. 0. 0. 0.
      0. 0. 0. 0. 0. 0. 0. 0. 0. 0. 0. 0. 0. 0. 0. 0. 0. 0. 0. 0. 0. 0.
      0. 0. 0. 0. 0. 0. 0. 0. 0. 0. 0. 0. 0. 0. 0. 0. 9.52380989e-03 0.
      0. 0. 0. 0. 0. 9.52380989e-03 0. 9.52380989e-03 0. 0. 0. 0. 0.
      9.52380989e-03 0. 0. 9.52380989e-03 0. 0. 0. 0. 0. 0. 0. 0. 0. 0.
      0. 0. 0. 0. 0. 0. 0. 9.52380989e-03 0. 0. 0. 0. 0. 0. 0.
      9.52380989e-03 0. 0. 0. 9.52380989e-03 0. 9.52380989e-03 0. 0. 0.
      0. 0. 0. 0. 0. 0. 0. 0. 0. 0. 0. 0. 0. 0. 0. 0. 0. 0. 0.
      9.52380989e-03 0. 0. 0. 0. 9.52380989e-03 0. 0. 0. 0. 0. 0. 0. 0.
      0. 0. 0. 0. 0. 0. 0. 0. 0. 0. 0. 0. 0. 0. 0. 9.52380989e-03 0. 0.
      0. 0. 0. 0. 0. 0. 0. 0. 0. 0. 0. 9.52380989e-03 0. 0. 0. 0. 0.
      9.52380989e-03 0. 0. 0. 0. 0. 0. 0. 0. 0. 0. 9.52380989e-03
      9.52380989e-03 9.52380989e-03 0. 0. 9.52380989e-03 0. 0. 0. 0. 0.
      0. 9.52380989e-03 0. 0. 0. 0. 0. 0. 0. 0. 9.52380989e-03 0. 0. 0.
      0. 0. 0. 0. 0. 0. 9.52380989e-03 0. 0. 0. 0. 0. 1.90476198e-02
      9.52380989e-03 9.52380989e-03 0. 0. 0. 0. 0. 0. 9.52380989e-03 0.
      0. 0. 0. 0. 0. 0. 0. 0. 0. 0. 0. 0. 0. 9.52380989e-03 0. 0. 0. 0.
      0. 0. 0. 0. 0. 0. 9.52380989e-03 0. 0. 0. 0. 0. 0. 9.52380989e-03
      0. 0. 0. 0. 0. 0. 0. 0. 0. 0. 0. 0. 0. 6.66666701e-02
      9.52380989e-03 0. 0. 0. 0. 0. 0. 0. 0. 0. 0. 0. 0. 0. 0. 0. 0. 0.
      0. 0. 0. 0. 0. 0. 0. 0. 0. 0. 9.52380989e-03 0. 0. 0. 0. 0. 0. 0.
      0. 0. 0. 0. 0. 0. 0. 9.52380989e-03 0. 0. 0. 0. 0. 0. 0. 0. 0. 0.
      0. 0. 0. 0. 0. 0. 0. 0. 9.52380989e-03 0. 0. 9.52380989e-03 0. 0.
      0. 9.52380989e-03 0. 0. 0. 0. 0. 0. 0. 0. 0. 0. 0. 0. 0. 0. 0. 0.
      0. 0. 0. 0. 0. 0. 0. 0. 0. 0. 0. 0. 0. 0. 0. 0. 0. 0. 0. 0.
      9.52380989e-03 0. 0. 0. 0. 0. 0. 0. 0. 0. 0. 0. 0. 0. 0. 0. 0. 0.
      9.52380989e-03 0. 0. 0. 0. 0. 9.52380989e-03 0. 0. 0. 0. 0. 0. 0.
      0. 0. 0. 0. 0. 0. 0. 0. 0. 0. 0. 0. 9.52380989e-03 0.
      9.52380989e-03 0. 0. 0. 0. 0. 0. 0. 9.52380989e-03 0. 0. 0. 0.
      9.52380989e-03 0. 0. 0. 0. 9.52380989e-03 0. 0. 0. 0. 0. 0. 0.
      9.52380989e-03 0. 0. 0. 0. 0. 0. 0. 0. 0. 0. 0. 0. 0. 0. 0.
      9.52380989e-03 0. 0. 0. 0. 0. 0. 0. 0. 0. 0. 0. 0. 9.52380989e-03
      0. 0. 0. 0. 0. 0. 0. 0. 0. 0. 0. 0. 0. 0. 0. 0. 0. 0. 0.
      9.52380989e-03 0. 0. 0. 0. 0. 0. 0. 0. 0. 0. 0. 0. 9.52380989e-03
      0. 0. 0. 0. 9.52380989e-03 0. 0. 0. 0. 0. 0. 0. 9.52380989e-03 0.
      0. 9.52380989e-03 0. 0. 0. 0. 9.52380989e-03 9.52380989e-03 0. 0.
      0. 0. 0. 0. 0. 0. 0. 0. 0. 9.52380989e-03 0. 0. 0. 0. 0. 0. 0. 0.
      0. 0. 0. 0. 0. 0. 0. 0. 0. 0. 0. 0. 0. 0. 0. 0. 0. 9.52380989e-03
      0. 0. 0. 0. 9.52380989e-03 0. 0. 0. 0. 0. 0. 0. 0. 0. 0. 0. 0. 0.
      0. 0. 0. 0. 0. 0. 0. 0. 0. 0. 0. 0. 0. 0. 0. 0. 9.52380989e-03 0.
      0. 0. 0. 0. 0. 9.52380989e-03 9.52380989e-03 0. 0. 0. 0. 0. 0. 0.
      0. 0. 0. 0. 0. 0. 0. 0. 0. 0. 9.52380989e-03 9.52380989e-03 0. 0.
      0. 0. 0. 1.90476198e-02 0. 0. 0. 0. 9.52380989e-03 0. 0. 0. 0. 0.
      0.</_>
    <_>
      0. 0. 0. 0. 0. 0. 0. 0. 0. 0. 0. 0. 0. 0. 0. 0. 1.16279069e-02 0.
      0. 0. 0. 0. 0. 0. 0. 0. 0. 0. 0. 0. 0. 0. 0. 0. 0. 0. 0.
      1.16279069e-02 0. 0. 0. 0. 0. 0. 0. 0. 0. 0. 0. 0. 0. 0. 0. 0. 0.
      0. 0. 0. 0. 0. 0. 0. 0. 0. 0. 0. 0. 0. 0. 0. 0. 0. 0. 0. 0. 0. 0.
      0. 0. 0. 0. 2.32558139e-02 0. 0. 0. 0. 0. 0. 0. 0. 0. 0. 0. 0.
      1.16279069e-02 0. 0. 0. 0. 0. 0. 0. 0. 0. 1.16279069e-02 0. 0. 0.
      0. 0. 0. 0. 0. 0. 0. 0. 0. 1.16279069e-02 0. 0. 1.16279069e-02 0.
      0. 0. 1.16279069e-02 0. 1.16279069e-02 0. 0. 0. 0. 0. 0. 0. 0. 0.
      0. 0. 0. 0. 0. 0. 0. 0. 0. 0. 0. 0. 0. 0. 0. 0. 0. 0. 0. 0. 0. 0.
      0. 0. 0. 0. 0. 0. 0. 0. 0. 1.16279069e-02 1.16279069e-02 0. 0. 0.
      0. 1.16279069e-02 0. 0. 1.16279069e-02 0. 0. 0. 0. 0. 0. 0. 0. 0.
      0. 0. 0. 1.16279069e-02 0. 0. 0. 0. 0. 0. 0. 0. 0. 0. 0. 0. 0. 0.
      1.16279069e-02 0. 0. 0. 0. 0. 0. 0. 0. 0. 0. 0. 0. 1.16279069e-02
      0. 0. 0. 0. 0. 0. 1.16279069e-02 0. 0. 0. 0. 0. 0. 0. 0. 0. 0.
      1.16279069e-02 0. 0. 0. 0. 0. 0. 0. 0. 0. 0. 0. 0. 0. 0. 0. 0. 0.
      0. 0. 0. 0. 0. 0. 0. 0. 0. 0. 0. 0. 0. 0. 0. 0. 0. 0. 0. 0. 0. 0.
      0. 0. 0. 1.16279069e-02 0. 0. 0. 0. 0. 1.16279069e-02 0. 0. 0. 0.
      1.16279069e-02 0. 0. 0. 0. 0. 0. 0. 0. 0. 0. 0. 0. 0.
      1.16279069e-02 0. 0. 1.16279069e-02 0. 0. 1.16279069e-02
      1.16279069e-02 0. 0. 1.16279069e-02 0. 0. 0. 0. 0. 0. 0. 0.
      1.16279069e-02 0. 0. 0. 0. 0. 0. 0. 0. 0. 1.16279069e-02
      1.16279069e-02 0. 0. 0. 0. 0. 0. 0. 0. 0. 0. 0. 0. 0. 0. 0. 0. 0.
      0. 0. 0. 0. 0. 0. 0. 0. 0. 0. 1.16279069e-02 0. 0. 0. 0.
      1.16279069e-02 0. 0. 0. 0. 0. 0. 0. 0. 0. 0. 0. 0. 0. 0. 0. 0.
      1.16279069e-02 0. 0. 1.16279069e-02 0. 0. 0. 0. 0. 1.16279069e-02
      1.16279069e-02 0. 0. 0. 0. 0. 0. 0. 0. 0. 0. 0. 0. 0. 0. 0. 0. 0.
      0. 0. 0. 0. 0. 0. 0. 0. 0. 0. 0. 0. 0. 0. 0. 0. 0. 0. 0. 0. 0. 0.
      0. 0. 0. 0. 0. 0. 0. 1.16279069e-02 0. 0. 1.16279069e-02
      1.16279069e-02 0. 0. 0. 0. 0. 0. 1.16279069e-02 1.16279069e-02
      1.16279069e-02 1.16279069e-02 0. 0. 0. 0. 0. 0. 0. 0.
      1.16279069e-02 0. 0. 0. 0. 1.16279069e-02 0. 0. 0. 0. 0. 0.
      2.32558139e-02 0. 0. 3.48837227e-02 0. 0. 0. 0. 0. 0. 0. 0. 0. 0.
      0. 0. 0. 0. 0. 0. 0. 0. 0. 0. 0. 0. 0. 0. 0. 0. 0. 0.
      1.16279069e-02 0. 0. 0. 0. 0. 0. 0. 2.32558139e-02 0. 0. 0. 0. 0.
      0. 0. 0. 0. 0. 0. 0. 0. 0. 0. 0. 0. 0. 0. 0. 0. 0. 0. 0. 0.
      1.16279069e-02 0. 0. 0. 0. 0. 0. 0. 0. 0. 0. 0. 0. 0. 0. 0. 0. 0.
      0. 0. 0. 0. 0. 0. 0. 0. 0. 0. 0. 0. 0. 0. 0. 0. 0. 0. 0.
      1.16279069e-02 2.32558139e-02 0. 0. 0. 0. 0. 0. 0. 0. 0.
      2.32558139e-02 0. 0. 0. 0. 0. 0. 0. 0. 0. 0. 0. 0. 0. 0. 0.
      1.16279069e-02 0. 0. 0. 0. 0. 0. 0. 0. 0. 0. 0. 0. 0.
      1.16279069e-02 0. 0. 0. 0. 0. 0. 0. 0. 0. 0. 0. 0. 0. 0. 0. 0. 0.
      0. 0. 0. 0. 0. 0. 0. 0. 0. 0. 0. 0. 0. 0. 0. 0. 0. 2.32558139e-02
      0. 0. 0. 0. 0. 1.16279069e-02 0. 0. 0. 0. 0. 0. 0. 0. 0. 0.
      1.16279069e-02 0. 0. 0. 0. 0. 0. 0. 0. 0. 0. 0. 0. 0. 0. 0. 0. 0.
      0. 0. 0. 0. 0. 0. 1.16279069e-02 0. 0. 0. 0. 0. 1.16279069e-02 0.
      0. 0. 0. 0. 0. 0. 0. 0. 0. 0. 0. 0. 0. 0. 0. 0. 0. 0. 0. 0. 0. 0.
      0. 0. 0. 0. 0. 0. 0. 0. 0. 0. 0. 0. 0. 0. 0. 0. 0. 0. 0. 0. 0.
      1.16279069e-02 0. 0. 0. 0. 0. 0. 0. 0. 0. 0. 0. 0. 0. 0. 0. 0. 0.
      0. 0. 0. 0. 0. 1.16279069e-02 0. 0. 0. 0. 0. 0. 0. 0. 0. 0. 0. 0.
      0. 0. 1.16279069e-02 0. 0. 0. 0. 0. 0. 0. 0. 0. 0. 0. 0. 0. 0. 0.
      0. 0. 0. 0. 0. 0. 0. 0. 0. 0. 1.16279069e-02 0. 0. 0. 0. 0. 0. 0.
      0. 1.16279069e-02 0. 0. 0. 0. 0. 0. 0. 0. 1.16279069e-02
      2.32558139e-02 0. 0. 0. 0. 0. 1.16279069e-02 0. 0. 0. 0. 0. 0. 0.
      0. 0. 0. 0. 0. 0. 0. 0. 0. 0. 0. 0. 0. 0. 0. 0. 0. 0. 0. 0. 0. 0.
      0. 0. 0. 0. 0. 0. 0. 1.16279069e-02 0. 0. 0. 0. 0. 0. 0. 0. 0. 0.
      0. 0. 0. 0. 0. 0. 0. 0. 0. 0. 0. 0. 0. 0. 0. 0. 0. 0. 0.
      1.16279069e-02 0. 0. 0. 0. 0. 0. 1.16279069e-02 0. 0. 0. 0. 0. 0.
      0. 0. 0. 0. 0. 0. 0. 0. 0. 0. 0. 0. 0. 0. 0. 0. 0. 1.16279069e-02
      0. 0. 0. 0. 0. 0. 0. 0. 0. 0. 0. 0. 0. 0. 0. 0. 0. 0. 0. 0. 0. 0.
      0. 0. 0. 0. 0. 1.16279069e-02 0. 0. 0. 1.16279069e-02 0. 0. 0.
      1.16279069e-02 0. 0. 0. 0. 0. 0. 0. 0. 0. 0. 0. 0. 0. 0.
      1.16279069e-02 0. 0. 0. 0. 0. 0. 0. 0. 0. 1.16279069e-02 0. 0. 0.
      0. 1.16279069e-02</_>
    <_>
      0. 0. 0. 0. 0. 0. 0. 0. 0. 0. 0. 0. 0. 0. 0. 0. 0. 0. 0. 0.
      1.44927539e-02 0. 0. 0. 0. 0. 0. 0. 1.44927539e-02 1.44927539e-02
      0. 0. 0. 0. 0. 0. 0. 0. 0. 0. 1.44927539e-02 0. 0. 0. 0. 0. 0. 0.
      0. 0. 0. 0. 0. 1.44927539e-02 0. 0. 0. 0. 0. 0. 0. 0. 0. 0.
      1.44927539e-02 0. 0. 0. 0. 0. 0. 0. 0. 0. 0. 0. 0. 0. 0. 0. 0. 0.
      0. 0. 0. 0. 0. 0. 0. 0. 0. 0. 0. 0. 0. 0. 0. 0. 0. 0. 0. 0. 0. 0.
      0. 0. 0. 0. 0. 0. 0. 0. 0. 0. 0. 0. 0. 0. 0. 0. 0. 0. 0. 0. 0. 0.
      0. 0. 0. 0. 0. 0. 0. 0. 0. 0. 0. 0. 0. 0. 0. 0. 0. 0. 0. 0. 0. 0.
      0. 0. 0. 0. 0. 0. 0. 0. 0. 0. 0. 0. 0. 1.44927539e-02 0. 0. 0. 0.
      0. 0. 0. 0. 0. 0. 0. 0. 0. 1.44927539e-02 0. 0. 0. 0. 0. 0. 0. 0.
      0. 0. 0. 0. 0. 0. 0. 1.44927539e-02 0. 0. 0. 0. 0. 0. 0. 0. 0. 0.
      0. 0. 0. 0. 0. 0. 0. 0. 0. 0. 0. 0. 0. 0. 0. 0. 0. 0. 0. 0. 0. 0.
      0. 0. 0. 0. 0. 0. 0. 0. 0. 0. 1.44927539e-02 0. 0. 0.
      1.44927539e-02 0. 0. 0. 1.44927539e-02 0. 0. 0. 2.89855078e-02 0.
      0. 0. 0. 0. 0. 0. 0. 0. 0. 0. 0. 0. 0. 0. 0. 0. 0. 0. 0. 0. 0. 0.
      0. 0. 0. 0. 0. 0. 0. 0. 0. 0. 0. 0. 0. 0. 0. 0. 0. 0. 0. 0. 0. 0.
      0. 0. 0. 0. 0. 0. 0. 0. 0. 0. 0. 0. 0. 0. 0. 0. 0. 0. 0. 0. 0. 0.
      0. 0. 0. 0. 0. 1.44927539e-02 0. 0. 0. 0. 0. 0. 0. 0. 0. 0. 0. 0.
      0. 0. 0. 0. 0. 0. 0. 0. 0. 0. 0. 0. 0. 0. 0. 0. 0. 0. 0. 0.
      1.44927539e-02 0. 0. 0. 0. 0. 0. 0. 0. 0. 0. 0. 4.34782617e-02 0.
      0. 0. 0. 0. 0. 0. 0. 0. 0. 0. 0. 0. 0. 0. 0. 0. 0. 0. 0. 0. 0. 0.
      0. 0. 0. 0. 0. 0. 0. 0. 0. 0. 0. 0. 0. 0. 0. 0. 0. 1.44927539e-02
      0. 0. 0. 0. 0. 0. 0. 0. 0. 0. 0. 0. 0. 0. 0. 0. 0. 0. 0.
      1.44927539e-02 0. 0. 0. 0. 0. 0. 0. 0. 0. 0. 0. 0. 0. 0. 0.
      5.79710156e-02 0. 0. 0. 0. 0. 0. 0. 0. 0. 0. 0. 0. 0. 0. 0. 0. 0.
      0. 0. 0. 0. 0. 0. 0. 0. 1.44927539e-02 0. 0. 0. 0. 1.44927539e-02
      0. 0. 0. 0. 1.44927539e-02 0. 0. 0. 0. 0. 0. 0. 0. 0. 0. 0. 0. 0.
      0. 0. 0. 0. 0. 0. 0. 0. 0. 0. 0. 0. 0. 0. 0. 0. 0. 1.44927539e-02
      0. 0. 0. 0. 1.44927539e-02 0. 0. 0. 0. 0. 0. 0. 0. 0. 0. 0. 0. 0.
      0. 0. 1.44927539e-02 1.44927539e-02 0. 0. 1.44927539e-02 0. 0. 0.
      0. 0. 0. 0. 0. 0. 0. 0. 0. 0. 0. 0. 0. 0. 0. 0. 0. 0. 0. 0. 0. 0.
      1.44927539e-02 0. 0. 0. 0. 1.44927539e-02 0. 0. 0. 0. 0. 0. 0. 0.
      0. 0. 0. 0. 0. 0. 0. 0. 0. 0. 0. 0. 1.44927539e-02 0. 0. 0. 0. 0.
      0. 0. 0. 0. 0. 0. 0. 0. 0. 0. 1.44927539e-02 0. 0. 0. 0. 0. 0. 0.
      0. 0. 0. 0. 0. 1.44927539e-02 0. 0. 0. 0. 0. 0. 0. 0. 0. 0.
      1.44927539e-02 0. 0. 0. 0. 0. 0. 0. 0. 0. 0. 1.44927539e-02 0. 0.
      1.44927539e-02 0. 0. 0. 0. 0. 0. 0. 0. 0. 0. 0. 0. 0. 0. 0. 0. 0.
      0. 1.44927539e-02 0. 0. 1.44927539e-02 0. 0. 0. 0. 0. 0. 0. 0. 0.
      1.44927539e-02 1.44927539e-02 0. 0. 0. 0. 0. 1.44927539e-02 0. 0.
      0. 1.44927539e-02 0. 0. 0. 0. 0. 0. 0. 0. 0. 0. 0. 0. 0. 0. 0. 0.
      0. 0. 0. 1.44927539e-02 0. 0. 0. 0. 0. 0. 0. 0. 0. 0. 0. 0. 0. 0.
      0. 0. 0. 1.44927539e-02 0. 0. 0. 0. 0. 0. 0. 0. 0. 0. 0. 0. 0. 0.
      0. 0. 0. 0. 0. 0. 0. 0. 0. 0. 0. 0. 0. 0. 0. 0. 0. 0. 0. 0. 0. 0.
      0. 0. 0. 0. 0. 0. 0. 0. 0. 0. 0. 0. 0. 2.89855078e-02 0. 0. 0. 0.
      0. 0. 0. 0. 0. 0. 0. 0. 0. 0. 0. 0. 0. 0. 0. 0. 1.44927539e-02 0.
      0. 0. 0. 0. 0. 0. 0. 0. 0. 0. 0. 0. 0. 0. 0. 1.44927539e-02 0. 0.
      0. 0. 0. 0. 0. 0. 0. 0. 0. 1.44927539e-02 0. 0. 0. 0. 0. 0. 0. 0.
      0. 0. 0. 0. 0. 0. 0. 0. 0. 0. 0. 0. 0. 0. 0. 0. 0. 0. 0. 0. 0. 0.
      0. 0. 0. 1.44927539e-02 0. 0. 0. 0. 0. 0. 0. 0. 0. 0. 0. 0. 0. 0.
      0. 0. 0. 0. 0. 0. 0. 0. 0. 0. 0. 0. 0. 0. 0. 0. 0. 0. 0. 0. 0. 0.
      0. 0. 0. 0. 0. 0. 0. 0. 0. 0. 0. 0. 0. 0. 1.44927539e-02 0. 0. 0.
      0. 0. 0. 1.44927539e-02 0. 0. 0. 0. 0. 0. 0. 0. 0. 1.44927539e-02
      0. 0. 0. 0. 0. 0. 0. 0. 0. 0. 0. 0. 0. 1.44927539e-02 0.
      1.44927539e-02 0. 0. 0. 0. 0. 0. 0. 0. 0. 0. 0. 0. 0. 0. 0. 0. 0.
      0. 0. 0. 0. 0. 0. 0. 0. 0. 0. 0. 0. 0. 1.44927539e-02
      1.44927539e-02 0. 1.44927539e-02 0. 0. 0. 0. 1.44927539e-02 0. 0.
      0. 0. 0. 0. 2.89855078e-02 0. 0. 0. 0. 1.44927539e-02 0.
      1.44927539e-02 0. 1.44927539e-02 0. 0. 0. 0. 0. 0.</_>
    <_>
      0. 0. 0. 0. 0. 0. 0. 0. 0. 0. 0. 0. 9.61538497e-03 0. 0. 0. 0. 0.
      0. 0. 0. 0. 0. 0. 0. 0. 0. 0. 0. 0. 9.61538497e-03 0. 0. 0. 0.
      9.61538497e-03 0. 0. 0. 0. 9.61538497e-03 0. 1.92307699e-02 0. 0.
      0. 0. 0. 0. 0. 0. 0. 0. 0. 0. 0. 0. 0. 0. 0. 0. 0. 0. 0. 0. 0. 0.
      0. 0. 0. 0. 0. 0. 0. 0. 0. 0. 0. 0. 0. 0. 0. 0. 0. 0. 0. 0. 0. 0.
      0. 0. 0. 0. 0. 0. 0. 0. 0. 0. 0. 1.92307699e-02 0. 0.
      9.61538497e-03 0. 0. 0. 0. 0. 0. 0. 9.61538497e-03 0. 0. 0. 0. 0.
      0. 9.61538497e-03 0. 0. 0. 0. 0. 0. 0. 0. 0. 0. 0. 0. 0. 0. 0. 0.
      0. 0. 0. 0. 0. 0. 0. 0. 0. 0. 0. 0. 0. 0. 0. 0. 0. 0. 0. 0. 0.
      9.61538497e-03 0. 9.61538497e-03 0. 0. 9.61538497e-03 0. 0. 0. 0.
      0. 0. 0. 0. 0. 9.61538497e-03 1.92307699e-02 0. 0. 0. 0. 0. 0. 0.
      0. 0. 9.61538497e-03 0. 0. 0. 9.61538497e-03 0. 0. 9.61538497e-03
      0. 0. 0. 0. 0. 0. 0. 9.61538497e-03 0. 0. 9.61538497e-03 0. 0. 0.
      0. 1.92307699e-02 0. 9.61538497e-03 0. 0. 0. 9.61538497e-03 0. 0.
      0. 0. 0. 0. 0. 0. 0. 0. 0. 0. 0. 0. 0. 0. 0. 0. 0. 0. 0.
      9.61538497e-03 0. 0. 0. 0. 0. 0. 0. 0. 9.61538497e-03 0. 0. 0. 0.
      0. 0. 9.61538497e-03 0. 0. 0. 0. 0. 0. 0. 0. 0. 9.61538497e-03
      9.61538497e-03 0. 0. 0. 9.61538497e-03 0. 0. 0. 0. 0. 0. 0. 0. 0.
      0. 0. 9.61538497e-03 0. 0. 0. 0. 0. 0. 0. 0. 0. 0. 0. 0. 0. 0. 0.
      0. 0. 0. 0. 0. 1.92307699e-02 0. 0. 0. 0. 0. 0. 0. 0. 0. 0. 0. 0.
      9.61538497e-03 0. 0. 0. 0. 0. 9.61538497e-03 0. 9.61538497e-03 0.
      0. 0. 9.61538497e-03 9.61538497e-03 0. 0. 0. 0. 9.61538497e-03 0.
      0. 0. 0. 0. 0. 0. 0. 0. 0. 0. 0. 0. 0. 0. 0. 0. 0. 0. 0. 0. 0. 0.
      0. 0. 0. 0. 9.61538497e-03 0. 0. 0. 0. 0. 0. 0. 0. 0. 0. 0. 0. 0.
      0. 0. 0. 0. 0. 0. 0. 0. 0. 0. 9.61538497e-03 0. 0. 0. 0. 0. 0. 0.
      0. 0. 0. 0. 0. 0. 0. 0. 0. 9.61538497e-03 0. 0. 0. 0. 0. 0. 0. 0.
      0. 9.61538497e-03 0. 0. 0. 0. 0. 1.92307699e-02 0. 0. 0. 0. 0. 0.
      0. 0. 0. 0. 0. 9.61538497e-03 0. 0. 0. 0. 0. 0. 0. 0. 0.
      9.61538497e-03 0. 0. 0. 0. 0. 0. 0. 0. 0. 0. 9.61538497e-03 0. 0.
      0. 9.61538497e-03 0. 0. 0. 0. 0. 0. 0. 0. 0. 0. 0. 0. 0. 0. 0. 0.
      1.92307699e-02 0. 0. 0. 0. 9.61538497e-03 0. 0. 0. 0. 0. 0. 0. 0.
      0. 0. 0. 0. 0. 0. 0. 0. 0. 0. 0. 0. 0. 0. 0. 1.92307699e-02 0. 0.
      0. 0. 0. 0. 0. 0. 0. 0. 0. 0. 0. 0. 0. 0. 0. 0. 0. 0. 0. 0. 0. 0.
      0. 0. 0. 0. 9.61538497e-03 9.61538497e-03 0. 0. 0. 0. 0. 0. 0. 0.
      0. 0. 0. 0. 0. 0. 0. 1.92307699e-02 0. 0. 0. 0. 0. 0. 0. 0. 0. 0.
      0. 0. 0. 0. 0. 0. 0. 0. 0. 0. 0. 0. 0. 0. 0. 0. 0. 0. 0.
      9.61538497e-03 0. 0. 0. 0. 0. 0. 0. 9.61538497e-03 0. 0. 0.
      1.92307699e-02 0. 0. 0. 0. 0. 0. 0. 0. 0. 0. 0. 0. 0. 0.
      9.61538497e-03 0. 9.61538497e-03 0. 0. 0. 0. 0. 0. 0. 0. 0. 0. 0.
      0. 9.61538497e-03 9.61538497e-03 0. 0. 0. 0. 0. 0. 0. 0. 0.
      9.61538497e-03 0. 0. 0. 0. 0. 0. 0. 0. 0. 0. 0. 0. 9.61538497e-03
      0. 0. 0. 0. 9.61538497e-03 0. 0. 0. 0. 0. 9.61538497e-03 0. 0.
      9.61538497e-03 0. 0. 0. 0. 0. 0. 0. 0. 0. 9.61538497e-03 0.
      9.61538497e-03 0. 0. 0. 0. 0. 0. 0. 0. 0. 0. 0. 9.61538497e-03 0.
      0. 0. 0. 0. 9.61538497e-03 0. 0. 0. 0. 0. 0. 0. 0. 0. 0. 0.
      9.61538497e-03 0. 0. 0. 0. 0. 0. 0. 0. 0. 0. 0. 0. 0. 0. 0. 0.
      9.61538497e-03 0. 0. 0. 0. 0. 0. 9.61538497e-03 0. 0. 0. 0. 0. 0.
      0. 0. 9.61538497e-03 0. 0. 0. 0. 0. 0. 0. 0. 0. 0. 0. 0. 0. 0. 0.
      0. 0. 0. 0. 9.61538497e-03 0. 0. 0. 0. 0. 0. 0. 0. 0. 0. 0. 0. 0.
      9.61538497e-03 0. 0. 0. 0. 0. 0. 0. 0. 0. 0. 0. 9.61538497e-03 0.
      0. 0. 0. 0. 0. 0. 0. 0. 0. 0. 0. 0. 9.61538497e-03 0. 0. 0. 0. 0.
      0. 0. 0. 0. 0. 9.61538497e-03 0. 9.61538497e-03 0. 0. 0. 0. 0. 0.
      0. 0. 0. 0. 9.61538497e-03 0. 0. 0. 0. 0. 0. 0. 9.61538497e-03 0.
      0. 0. 0. 0. 0. 0. 0. 0. 0. 0. 0. 0. 0. 0. 0. 0. 0. 0. 0. 0. 0. 0.
      0. 0. 0. 0. 0. 0. 0. 0. 0. 0. 0. 9.61538497e-03 0. 0. 0. 0. 0. 0.
      0. 0. 0. 0. 0. 0. 9.61538497e-03 0. 0. 0. 0. 0. 0. 0.
      9.61538497e-03 0. 0. 0. 0. 0. 0. 0. 0. 0. 0. 0. 0. 0. 0. 0. 0.
      9.61538497e-03 0. 0. 0. 0. 0. 0. 0. 0. 0. 9.61538497e-03 0. 0. 0.
      0. 0. 0. 0. 0. 0. 0. 0. 0. 0. 9.61538497e-03 0. 0. 0. 0. 0.
      9.61538497e-03 0. 0. 0. 0. 0. 0. 0. 0. 0. 0. 0. 0. 0. 0. 0.
      9.61538497e-03 0. 0. 0. 0. 9.61538497e-03 0. 0. 0. 0. 0. 0. 0. 0.
      0. 0. 0. 0. 0. 9.61538497e-03 0. 0. 0. 0. 0. 0. 0. 0. 0. 0.
      9.61538497e-03 0. 0. 0. 0. 9.61538497e-03 0. 0. 0. 0. 0. 0. 0. 0.
      0. 0. 0. 9.61538497e-03 9.61538497e-03 0. 0. 0. 0. 0. 0. 0. 0.
      9.61538497e-03 0. 0. 0. 0.</_>
    <_>
      7.24637695e-03 7.24637695e-03 0. 7.24637695e-03 0. 0. 0.
      7.24637695e-03 0. 0. 0. 0. 0. 0. 0. 0. 0. 0. 0. 0. 0. 0. 0.
      7.24637695e-03 0. 0. 0. 0. 0. 0. 0. 0. 0. 0. 7.24637695e-03 0. 0.
      7.24637695e-03 0. 7.24637695e-03 0. 0. 0. 0. 0. 0. 0. 0. 0. 0. 0.
      0. 7.24637695e-03 0. 0. 7.24637695e-03 0. 0. 0. 0. 0. 0. 0. 0. 0.
      1.44927539e-02 0. 0. 0. 0. 0. 0. 0. 0. 0. 7.24637695e-03
      7.24637695e-03 0. 7.24637695e-03 0. 0. 0. 0. 0. 0. 0. 0.
      7.24637695e-03 0. 0. 0. 0. 7.24637695e-03 0. 0. 0. 0.
      7.24637695e-03 0. 0. 0. 7.24637695e-03 0. 0. 0. 0. 7.24637695e-03
      0. 0. 0. 0. 0. 0. 1.44927539e-02 0. 0. 0. 0. 7.24637695e-03 0. 0.
      0. 0. 0. 0. 0. 7.24637695e-03 0. 0. 0. 0. 0. 0. 7.24637695e-03 0.
      0. 0. 0. 0. 7.24637695e-03 0. 0. 0. 0. 0. 0. 0. 0. 0. 0. 0. 0.
      7.24637695e-03 0. 0. 0. 7.24637695e-03 0. 0. 0. 0. 0. 0. 0.
      7.24637695e-03 0. 7.24637695e-03 0. 0. 0. 0. 0. 0. 0. 0. 0. 0. 0.
      0. 0. 0. 0. 0. 0. 0. 0. 0. 7.24637695e-03 0. 7.24637695e-03 0. 0.
      0. 7.24637695e-03 0. 0. 0. 7.24637695e-03 7.24637695e-03 0. 0. 0.
      0. 0. 0. 0. 0. 7.24637695e-03 0. 0. 0. 0. 0. 0. 7.24637695e-03 0.
      0. 0. 1.44927539e-02 0. 0. 0. 0. 0. 0. 0. 0. 0. 0. 0. 0. 0. 0. 0.
      0. 0. 0. 0. 0. 0. 0. 0. 0. 0. 7.24637695e-03 0. 0. 0.
      7.24637695e-03 0. 0. 0. 0. 0. 0. 0. 7.24637695e-03 0. 0. 0.
      2.89855078e-02 0. 0. 0. 0. 0. 0. 0. 0. 7.24637695e-03 0.
      7.24637695e-03 0. 0. 0. 0. 0. 0. 0. 0. 0. 0. 0. 0. 0. 0. 0. 0. 0.
      0. 0. 7.24637695e-03 0. 0. 7.24637695e-03 7.24637695e-03 0. 0. 0.
      0. 0. 0. 0. 0. 0. 0. 0. 7.24637695e-03 0. 0. 0. 0. 0.
      7.24637695e-03 0. 0. 0. 0. 0. 0. 7.24637695e-03 0. 0. 0. 0. 0. 0.
      0. 0. 0. 0. 0. 0. 0. 0. 0. 0. 0. 0. 0. 0. 0. 0. 0. 0.
      7.24637695e-03 0. 0. 0. 0. 0. 0. 0. 0. 0. 0. 7.24637695e-03 0.
      7.24637695e-03 0. 0. 0. 0. 0. 0. 0. 0. 0. 0. 0. 0. 0.
      2.17391308e-02 0. 0. 0. 0. 0. 0. 0. 0. 0. 0. 0. 0. 0. 0. 0. 0. 0.
      7.24637695e-03 0. 0. 0. 0. 0. 0. 0. 0. 0. 0. 0. 0. 0. 0. 0. 0. 0.
      7.24637695e-03 0. 0. 0. 0. 0. 0. 0. 0. 0. 7.24637695e-03 0. 0. 0.
      0. 0. 0. 0. 7.24637695e-03 0. 0. 0. 0. 0. 0. 0. 0. 0. 0. 0. 0. 0.
      0. 0. 7.24637695e-03 0. 0. 0. 0. 0. 7.24637695e-03 0.
      7.24637695e-03 0. 0. 0. 0. 0. 0. 0. 0. 0. 0. 7.24637695e-03 0. 0.
      0. 0. 0. 7.24637695e-03 0. 0. 0. 0. 0. 0. 0. 0. 0. 0. 0. 0. 0.
      7.24637695e-03 7.24637695e-03 7.24637695e-03 0. 0. 0. 0. 0. 0. 0.
      0. 7.24637695e-03 0. 0. 0. 1.44927539e-02 0. 0. 0. 0. 0. 0. 0. 0.
      7.24637695e-03 0. 0. 7.24637695e-03 0. 0. 0. 0. 0. 0. 0. 0. 0. 0.
      0. 0. 0. 0. 0. 0. 7.24637695e-03 0. 7.24637695e-03 0. 0. 0. 0.
      7.24637695e-03 0. 0. 0. 0. 0. 0. 0. 0. 0. 0. 0. 0. 7.24637695e-03
      0. 0. 0. 0. 0. 7.24637695e-03 0. 0. 0. 0. 0. 0. 0. 0. 0. 0.
      7.24637695e-03 0. 0. 1.44927539e-02 0. 0. 0. 0. 0. 0. 0. 0. 0. 0.
      0. 0. 0. 0. 7.24637695e-03 0. 7.24637695e-03 7.24637695e-03
      7.24637695e-03 0. 0. 0. 7.24637695e-03 0. 7.24637695e-03 0. 0. 0.
      7.24637695e-03 0. 0. 0. 7.24637695e-03 0. 7.24637695e-03 0. 0. 0.
      0. 0. 0. 0. 0. 0. 0. 0. 0. 0. 0. 0. 0. 0. 7.24637695e-03 0. 0. 0.
      0. 0. 0. 0. 0. 0. 0. 0. 0. 0. 0. 0. 0. 0. 7.24637695e-03 0. 0. 0.
      0. 0. 0. 0. 0. 0. 0. 0. 0. 0. 0. 0. 0. 0. 0. 0. 0. 7.24637695e-03
      0. 0. 0. 0. 7.24637695e-03 0. 0. 7.24637695e-03 0. 0. 0. 0. 0. 0.
      7.24637695e-03 0. 0. 0. 0. 0. 0. 0. 0. 0. 7.24637695e-03 0. 0. 0.
      0. 0. 0. 7.24637695e-03 0. 0. 0. 0. 0. 0. 0. 0. 0. 0. 0. 0. 0. 0.
      0. 0. 0. 0. 0. 0. 0. 0. 0. 0. 0. 0. 0. 0. 0. 0. 0. 0. 0.
      7.24637695e-03 0. 0. 0. 0. 0. 0. 0. 0. 0. 0. 0. 0. 7.24637695e-03
      0. 0. 0. 0. 0. 0. 0. 0. 0. 0. 0. 0. 0. 0. 0. 0. 0. 0. 0. 0. 0. 0.
      0. 0. 0. 0. 0. 7.24637695e-03 0. 0. 0. 0. 0. 0. 0. 0. 0. 0. 0.
      7.24637695e-03 0. 0. 7.24637695e-03 7.24637695e-03 0. 0. 0. 0. 0.
      0. 0. 0. 0. 0. 0. 0. 0. 0. 0. 0. 0. 0. 0. 0. 7.24637695e-03
      7.24637695e-03 0. 0. 0. 0. 7.24637695e-03 0. 0. 0. 0. 0. 0. 0. 0.
      1.44927539e-02 0. 0. 1.44927539e-02 1.44927539e-02 0. 0. 0. 0.
      7.24637695e-03 7.24637695e-03 0. 0. 0. 0. 0. 0. 7.24637695e-03 0.
      0. 0. 0. 0. 0. 0. 0. 0. 0. 0. 0. 0. 0. 0. 0. 7.24637695e-03 0. 0.
      0. 7.24637695e-03 0. 0. 0. 0. 7.24637695e-03 0. 0. 0. 0. 0. 0. 0.
      0. 0. 0. 0. 0. 0. 0. 0. 0. 0. 0. 0. 0. 0. 0. 0. 0. 0. 0. 0.
      7.24637695e-03 0. 0. 1.44927539e-02 0. 0. 0. 0. 0. 0. 0. 0. 0. 0.
      0. 0. 7.24637695e-03 0. 0. 0. 0. 0. 0. 0. 0. 7.24637695e-03 0. 0.
      0. 0. 0. 0. 0. 0. 0. 0. 7.24637695e-03 0. 0. 0. 0. 0. 0.
      7.24637695e-03 0. 0. 0. 0. 0. 0. 0. 0. 0. 0. 0. 0. 1.44927539e-02
      0. 0. 0. 0. 0. 0. 7.24637695e-03 0. 0. 0. 0. 0. 0. 0. 0. 0. 0. 0.
      0. 0. 0. 7.24637695e-03 0. 0. 0. 7.24637695e-03 7.24637695e-03 0.
      0. 0. 0. 0. 0. 0. 0. 0. 0. 0. 0. 0. 0. 0. 0. 7.24637695e-03 0. 0.
      0. 0. 0. 0. 0. 0. 7.24637695e-03 0. 0. 0.</_>
    <_>
      0. 0. 0. 0. 0. 0. 0. 0. 1.23456791e-02 0. 0. 0. 0. 0. 0. 0. 0. 0.
      0. 0. 0. 0. 0. 0. 0. 0. 0. 0. 0. 0. 0. 0. 0. 0. 0. 0. 0. 0. 0. 0.
      0. 0. 0. 0. 0. 1.23456791e-02 0. 0. 0. 0. 0. 0. 0. 0. 0. 0. 0. 0.
      0. 0. 0. 0. 1.23456791e-02 0. 0. 0. 0. 0. 0. 0. 1.23456791e-02 0.
      0. 0. 0. 0. 0. 0. 0. 0. 0. 0. 0. 0. 0. 0. 0. 0. 1.23456791e-02 0.
      0. 0. 0. 0. 0. 0. 0. 0. 0. 0. 0. 0. 1.23456791e-02 0. 0. 0. 0. 0.
      0. 2.46913582e-02 0. 0. 0. 0. 0. 0. 0. 0. 0. 0. 0. 0. 0. 0.
      2.46913582e-02 0. 0. 0. 0. 1.23456791e-02 0. 0. 0. 0. 0. 0. 0.
      1.23456791e-02 0. 0. 0. 0. 0. 0. 0. 1.23456791e-02 1.23456791e-02
      0. 0. 0. 0. 0. 0. 1.23456791e-02 0. 0. 0. 0. 0. 0. 0.
      1.23456791e-02 0. 0. 1.23456791e-02 0. 0. 0. 0. 0. 0. 0. 0.
      2.46913582e-02 1.23456791e-02 0. 0. 0. 0. 0. 0. 2.46913582e-02 0.
      0. 0. 0. 0. 0. 0. 0. 0. 0. 0. 0. 0. 0. 0. 0. 0. 0. 0. 0. 0. 0. 0.
      0. 0. 0. 0. 0. 0. 0. 0. 0. 0. 0. 0. 0. 0. 0. 0. 0. 0. 0. 0. 0. 0.
      0. 0. 0. 0. 0. 0. 0. 0. 0. 0. 0. 0. 0. 0. 0. 0. 0. 1.23456791e-02
      0. 0. 0. 0. 0. 0. 0. 0. 0. 0. 0. 0. 0. 1.23456791e-02 0. 0. 0. 0.
      0. 2.46913582e-02 0. 0. 1.23456791e-02 0. 0. 0. 0. 0. 0. 0. 0. 0.
      1.23456791e-02 0. 0. 0. 0. 0. 0. 0. 0. 0. 1.23456791e-02
      1.23456791e-02 0. 0. 0. 0. 0. 0. 0. 0. 0. 0. 0. 0. 0.
      1.23456791e-02 0. 0. 0. 0. 0. 0. 0. 0. 0. 1.23456791e-02 0. 0. 0.
      0. 0. 0. 0. 0. 0. 0. 0. 0. 1.23456791e-02 0. 0. 0. 0. 0.
      1.23456791e-02 0. 0. 0. 0. 0. 0. 0. 0. 0. 0. 0. 0. 0. 0. 0. 0. 0.
      0. 0. 0. 0. 0. 0. 0. 0. 0. 0. 0. 0. 0. 0. 0. 0. 0. 0. 0. 0. 0. 0.
      0. 0. 0. 0. 0. 0. 0. 0. 0. 0. 0. 0. 0. 0. 0. 0. 0. 0. 0. 0. 0. 0.
      0. 0. 0. 0. 0. 0. 0. 0. 0. 0. 0. 0. 0. 0. 0. 0. 1.23456791e-02 0.
      0. 0. 0. 0. 0. 0. 0. 0. 0. 0. 0. 0. 0. 0. 0. 0. 0. 1.23456791e-02
      0. 0. 1.23456791e-02 0. 0. 0. 0. 0. 0. 0. 0. 1.23456791e-02 0. 0.
      0. 0. 0. 0. 0. 0. 0. 0. 0. 0. 0. 0. 0. 0. 0. 0. 0. 0. 0. 0. 0. 0.
      0. 0. 0. 0. 0. 0. 0. 0. 0. 0. 1.23456791e-02 0. 0. 0.
      1.23456791e-02 0. 0. 0. 0. 0. 0. 0. 0. 0. 0. 0. 0. 0. 0. 0. 0. 0.
      0. 0. 0. 0. 0. 0. 0. 0. 0. 0. 0. 0. 0. 0. 0. 0. 0. 0. 0.
      1.23456791e-02 1.23456791e-02 0. 0. 0. 0. 0. 0. 0. 1.23456791e-02
      0. 0. 0. 0. 0. 0. 0. 0. 0. 1.23456791e-02 0. 0. 0. 0. 0. 0. 0. 0.
      0. 0. 0. 0. 0. 0. 0. 0. 0. 0. 2.46913582e-02 0. 0. 0. 0. 0. 0.
      1.23456791e-02 0. 0. 0. 0. 0. 0. 0. 0. 0. 0. 0. 0. 0. 0. 0. 0. 0.
      0. 0. 0. 0. 0. 0. 1.23456791e-02 0. 0. 0. 0. 0. 0. 0. 0. 0. 0. 0.
      0. 0. 0. 0. 0. 0. 0. 1.23456791e-02 0. 0. 0. 0. 0. 0. 0. 0. 0. 0.
      0. 0. 0. 0. 0. 0. 0. 0. 0. 0. 0. 0. 0. 0. 1.23456791e-02 0. 0. 0.
      0. 0. 0. 0. 0. 0. 0. 0. 0. 0. 0. 0. 0. 0. 0. 0. 0. 0. 0. 0. 0. 0.
      0. 0. 0. 0. 0. 0. 0. 0. 1.23456791e-02 0. 0. 0. 0. 0. 0. 0. 0. 0.
      0. 0. 0. 0. 0. 0. 0. 0. 0. 0. 0. 0. 0. 0. 0. 0. 1.23456791e-02 0.
      0. 0. 0. 0. 0. 0. 0. 0. 0. 0. 1.23456791e-02 0. 0. 0. 0. 0. 0. 0.
      0. 0. 0. 0. 0. 0. 0. 0. 0. 0. 1.23456791e-02 0. 0. 0. 0. 0. 0.
      1.23456791e-02 0. 0. 0. 0. 0. 1.23456791e-02 0. 0. 0. 0. 0. 0. 0.
      0. 0. 1.23456791e-02 0. 0. 0. 0. 0. 0. 0. 0. 1.23456791e-02 0. 0.
      0. 0. 0. 0. 0. 0. 1.23456791e-02 0. 0. 0. 0. 0. 0. 0. 0. 0.
      1.23456791e-02 0. 0. 0. 0. 0. 0. 0. 0. 0. 1.23456791e-02 0. 0. 0.
      0. 1.23456791e-02 0. 0. 0. 0. 0. 0. 0. 1.23456791e-02 0. 0. 0. 0.
      1.23456791e-02 0. 0. 0. 0. 0. 0. 0. 1.23456791e-02 0. 0. 0. 0. 0.
      0. 0. 1.23456791e-02 1.23456791e-02 0. 0. 0. 0. 0. 0. 0.
      1.23456791e-02 0. 0. 0. 0. 0. 0. 0. 0. 0. 0. 1.23456791e-02 0. 0.
      0. 0. 0. 0. 0. 0. 0. 0. 0. 0. 1.23456791e-02 1.23456791e-02 0. 0.
      0. 0. 0. 1.23456791e-02 0. 0. 0. 0. 0. 0. 0. 0. 0. 0. 0. 0. 0. 0.
      0. 1.23456791e-02 0. 0. 0. 0. 0. 0. 0. 0. 0. 0. 0. 0. 0. 0. 0. 0.
      0. 0. 0. 0. 0. 0. 0. 0. 0. 0. 0. 1.23456791e-02 0. 0. 0. 0. 0. 0.
      0. 0. 0. 0. 0. 0. 0. 0. 0. 0. 0. 0. 0. 0. 0. 0. 0. 0. 0. 0. 0. 0.
      0. 0. 0. 0. 1.23456791e-02 0. 0. 0. 0. 0. 1.23456791e-02 0. 0. 0.
      0. 0. 0. 0. 2.46913582e-02 0. 0. 0. 0. 0. 0. 0. 0. 0. 0. 0. 0. 0.
      0. 0. 0. 0. 1.23456791e-02 0. 0. 0. 0. 0. 1.23456791e-02 0. 0. 0.
      0. 0. 0. 0. 0. 0. 0. 0. 0. 1.23456791e-02 0. 0. 0. 0. 0. 0. 0. 0.
      0. 0. 0. 0. 0. 0. 0. 0. 0.</_>
    <_>
      0. 0. 0. 0. 0. 0. 0. 7.40740728e-03 0. 0. 0. 0. 0. 7.40740728e-03
      0. 0. 0. 0. 0. 0. 0. 0. 0. 0. 7.40740728e-03 0. 0. 0. 0. 0. 0. 0.
      0. 0. 0. 0. 0. 0. 0. 0. 0. 0. 0. 0. 0. 0. 0. 0. 0. 0. 0. 0. 0. 0.
      0. 0. 0. 0. 0. 7.40740728e-03 0. 7.40740728e-03 0. 0. 0. 0. 0. 0.
      0. 0. 0. 0. 0. 0. 7.40740728e-03 7.40740728e-03 7.40740728e-03 0.
      7.40740728e-03 7.40740728e-03 0. 0. 7.40740728e-03 0. 0. 0. 0. 0.
      0. 7.40740728e-03 0. 0. 0. 0. 0. 0. 0. 0. 0. 7.40740728e-03 0. 0.
      0. 0. 0. 0. 0. 0. 0. 0. 0. 0. 0. 0. 7.40740728e-03 0. 0. 0. 0. 0.
      0. 0. 0. 0. 0. 0. 0. 0. 0. 0. 0. 0. 0. 0. 0. 0. 0. 0. 0.
      7.40740728e-03 0. 7.40740728e-03 0. 0. 0. 0. 0. 0. 0. 0. 0. 0. 0.
      0. 0. 0. 0. 0. 0. 0. 0. 0. 0. 7.40740728e-03 0. 0. 0. 0. 0. 0.
      7.40740728e-03 0. 0. 0. 0. 0. 0. 0. 1.48148146e-02 0. 0. 0. 0. 0.
      0. 0. 0. 0. 0. 0. 0. 0. 0. 7.40740728e-03 0. 0. 0. 0. 0. 0. 0. 0.
      0. 0. 0. 1.48148146e-02 0. 0. 7.40740728e-03 0. 0. 7.40740728e-03
      0. 0. 0. 0. 0. 0. 0. 0. 0. 0. 0. 0. 0. 0. 0. 0. 0. 0. 0. 0. 0. 0.
      0. 1.48148146e-02 0. 0. 0. 1.48148146e-02 0. 0. 0. 0. 0.
      7.40740728e-03 0. 0. 0. 0. 0. 0. 0. 0. 0. 7.40740728e-03 0. 0. 0.
      0. 0. 0. 0. 0. 0. 0. 0. 0. 0. 0. 0. 0. 0. 7.40740728e-03 0. 0. 0.
      0. 0. 0. 7.40740728e-03 0. 0. 7.40740728e-03 0. 0. 7.40740728e-03
      0. 0. 0. 0. 0. 0. 0. 0. 0. 0. 0. 0. 0. 0. 0. 0. 0. 0. 0. 0. 0. 0.
      0. 0. 0. 0. 0. 0. 0. 0. 0. 0. 0. 0. 0. 0. 0. 0. 7.40740728e-03
      7.40740728e-03 0. 7.40740728e-03 0. 0. 7.40740728e-03 0. 0. 0. 0.
      0. 0. 0. 0. 0. 0. 0. 0. 0. 0. 0. 0. 0. 0. 0. 0. 0. 0. 0.
      7.40740728e-03 0. 0. 0. 0. 0. 0. 0. 0. 0. 0. 0. 0. 0. 0. 0.
      1.48148146e-02 7.40740728e-03 0. 0. 0. 0. 0. 0. 0. 0. 0.
      1.48148146e-02 7.40740728e-03 0. 0. 0. 0. 0. 0. 0. 0.
      7.40740728e-03 0. 0. 0. 0. 0. 1.48148146e-02 0. 0. 0. 0. 0. 0. 0.
      0. 0. 0. 0. 7.40740728e-03 0. 0. 0. 0. 0. 7.40740728e-03 0. 0. 0.
      0. 0. 0. 0. 7.40740728e-03 0. 0. 0. 0. 0. 0. 0. 0. 0. 0. 0. 0. 0.
      7.40740728e-03 0. 0. 0. 7.40740728e-03 0. 0. 0. 0. 0. 0. 0. 0. 0.
      0. 0. 0. 7.40740728e-03 0. 0. 7.40740728e-03 0. 0. 0. 0. 0. 0. 0.
      0. 0. 0. 0. 0. 0. 0. 0. 0. 0. 0. 0. 7.40740728e-03 0. 0. 0.
      7.40740728e-03 0. 0. 0. 0. 0. 0. 0. 0. 0. 0. 0. 0. 0.
      1.48148146e-02 0. 0. 0. 0. 0. 0. 0. 0. 0. 0. 7.40740728e-03 0. 0.
      0. 7.40740728e-03 0. 0. 0. 0. 0. 0. 0. 0. 7.40740728e-03 0. 0. 0.
      7.40740728e-03 0. 0. 0. 0. 0. 0. 0. 0. 0. 0. 0. 0. 7.40740728e-03
      0. 0. 0. 7.40740728e-03 0. 0. 0. 0. 0. 0. 0. 0. 0. 0. 0. 0. 0. 0.
      0. 0. 0. 0. 0. 0. 0. 0. 0. 1.48148146e-02 0. 0. 0. 0.
      7.40740728e-03 0. 0. 0. 0. 0. 0. 0. 0. 0. 0. 0. 0. 0.
      7.40740728e-03 0. 0. 0. 0. 0. 0. 0. 0. 0. 7.40740728e-03 0. 0.
      7.40740728e-03 0. 0. 0. 0. 0. 0. 0. 0. 0. 0. 0. 0. 0. 0. 0.
      7.40740728e-03 0. 0. 0. 0. 0. 0. 0. 0. 0. 1.48148146e-02 0. 0. 0.
      0. 0. 0. 0. 0. 0. 0. 0. 0. 0. 0. 0. 0. 0. 0. 0. 0. 0. 0. 0.
      7.40740728e-03 0. 0. 0. 0. 7.40740728e-03 7.40740728e-03 0. 0. 0.
      0. 7.40740728e-03 7.40740728e-03 0. 7.40740728e-03 0. 0.
      1.48148146e-02 0. 7.40740728e-03 0. 0. 0. 0. 7.40740728e-03 0. 0.
      0. 0. 0. 0. 0. 0. 0. 0. 0. 0. 0. 0. 0. 7.40740728e-03 0. 0. 0. 0.
      7.40740728e-03 0. 0. 0. 0. 0. 0. 0. 0. 0. 0. 0. 0. 0. 0. 0. 0. 0.
      0. 0. 0. 0. 0. 0. 0. 0. 7.40740728e-03 0. 0. 0. 0. 0. 0. 0. 0.
      1.48148146e-02 0. 0. 7.40740728e-03 0. 0. 0. 0. 0. 0. 0. 0. 0. 0.
      0. 0. 0. 0. 0. 0. 0. 0. 7.40740728e-03 0. 0. 0. 0. 0.
      7.40740728e-03 7.40740728e-03 0. 0. 0. 7.40740728e-03 0. 0. 0. 0.
      0. 7.40740728e-03 0. 0. 7.40740728e-03 0. 7.40740728e-03 0. 0.
      7.40740728e-03 0. 1.48148146e-02 0. 0. 0. 0. 0. 0. 0. 0. 0. 0. 0.
      0. 0. 0. 0. 0. 0. 0. 0. 0. 0. 0. 0. 0. 0. 0. 7.40740728e-03 0. 0.
      0. 0. 0. 0. 7.40740728e-03 0. 0. 0. 7.40740728e-03 0.
      7.40740728e-03 0. 0. 0. 7.40740728e-03 0. 7.40740728e-03 0. 0.
      7.40740728e-03 7.40740728e-03 0. 0. 0. 0. 0. 0. 0. 1.48148146e-02
      0. 0. 0. 0. 0. 0. 0. 0. 0. 0. 0. 0. 0. 0. 0. 0. 0. 0. 0. 0.
      7.40740728e-03 0. 0. 0. 0. 1.48148146e-02 7.40740728e-03 0. 0. 0.
      0. 0. 0. 0. 7.40740728e-03 7.40740728e-03 0. 7.40740728e-03 0. 0.
      7.40740728e-03 0. 0. 0. 7.40740728e-03 0. 0. 0. 7.40740728e-03 0.
      0. 0. 0. 0. 0. 0. 0. 7.40740728e-03 0. 0. 0. 0. 0. 0. 0. 0.
      7.40740728e-03 0. 0. 0. 0. 0. 0. 1.48148146e-02 0. 0. 0. 0. 0. 0.
      0. 0. 0. 0. 0. 0. 7.40740728e-03 0. 0. 0. 0. 0. 0. 7.40740728e-03
      0. 0. 7.40740728e-03 0. 0. 0. 0. 0. 0. 0. 0. 7.40740728e-03 0. 0.
      0. 0. 7.40740728e-03 0. 0. 0. 0. 0. 0. 0. 0. 0. 0. 0. 0. 0. 0.
      7.40740728e-03 7.40740728e-03 0. 0. 7.40740728e-03 7.40740728e-03
      0. 0. 0. 0. 0. 0. 0. 0. 0. 0. 0. 0. 0. 0. 0. 0. 0. 0. 0. 0. 0. 0.
      0. 0. 0. 0. 0. 0. 0. 0. 0. 0. 0. 7.40740728e-03</_>
    <_>
      0. 0. 0. 1.75438598e-02 0. 0. 0. 0. 0. 0. 0. 0. 0. 0. 0. 0. 0. 0.
      0. 0. 0. 0. 0. 0. 0. 0. 0. 0. 1.75438598e-02 0. 0. 0.
      1.75438598e-02 0. 0. 0. 0. 0. 0. 0. 0. 0. 0. 0. 0. 0. 0. 0. 0. 0.
      0. 1.75438598e-02 0. 0. 0. 0. 0. 0. 0. 0. 0. 0. 0. 0. 0. 0. 0. 0.
      0. 0. 0. 0. 0. 0. 0. 0. 0. 0. 0. 0. 0. 0. 0. 0. 0. 0. 0. 0. 0. 0.
      0. 0. 0. 0. 0. 0. 0. 0. 0. 0. 0. 0. 0. 1.75438598e-02 0. 0. 0. 0.
      0. 0. 0. 1.75438598e-02 0. 1.75438598e-02 0. 0. 0. 0. 0. 0. 0. 0.
      0. 0. 0. 1.75438598e-02 0. 0. 1.75438598e-02 0. 0. 0. 0. 0. 0. 0.
      0. 0. 0. 0. 0. 0. 1.75438598e-02 0. 0. 0. 0. 0. 0. 0. 0. 0. 0. 0.
      0. 0. 0. 0. 0. 0. 0. 0. 0. 0. 0. 0. 0. 0. 0. 0. 0. 0. 0. 0. 0. 0.
      0. 1.75438598e-02 0. 0. 0. 1.75438598e-02 0. 0. 0. 0. 0. 0. 0. 0.
      0. 0. 0. 0. 0. 0. 0. 0. 0. 0. 0. 0. 0. 0. 0. 0. 0. 1.75438598e-02
      0. 0. 0. 0. 0. 0. 0. 0. 0. 0. 0. 0. 0. 0. 0. 0. 1.75438598e-02 0.
      0. 0. 0. 0. 0. 0. 0. 0. 0. 0. 0. 0. 0. 0. 0. 0. 0. 0. 0. 0. 0. 0.
      0. 0. 0. 0. 0. 0. 0. 0. 0. 0. 0. 1.75438598e-02 0. 1.75438598e-02
      0. 0. 0. 0. 0. 0. 0. 0. 0. 0. 0. 0. 0. 1.75438598e-02 0. 0. 0. 0.
      0. 0. 0. 0. 0. 0. 0. 0. 0. 0. 0. 0. 0. 0. 0. 0. 0. 0. 0. 0. 0. 0.
      0. 0. 0. 0. 0. 0. 0. 0. 0. 0. 0. 0. 0. 0. 0. 0. 0. 0. 0. 0. 0. 0.
      0. 0. 0. 0. 0. 0. 0. 0. 0. 0. 0. 0. 1.75438598e-02 0. 0. 0. 0. 0.
      0. 0. 0. 0. 0. 0. 0. 0. 0. 0. 0. 0. 0. 1.75438598e-02
      1.75438598e-02 0. 0. 0. 0. 0. 0. 0. 0. 0. 0. 0. 0. 0. 0. 0. 0. 0.
      0. 0. 1.75438598e-02 0. 0. 0. 0. 0. 0. 0. 0. 0. 0. 0. 0. 0. 0. 0.
      0. 0. 0. 0. 0. 0. 0. 0. 0. 0. 0. 0. 0. 0. 0. 0. 0. 0. 0. 0. 0. 0.
      0. 0. 0. 0. 0. 0. 0. 0. 0. 0. 0. 0. 0. 0. 0. 0. 0. 0. 0. 0. 0. 0.
      0. 0. 0. 0. 0. 0. 0. 0. 0. 0. 0. 0. 0. 0. 0. 0. 0. 0. 0. 0. 0. 0.
      0. 0. 0. 0. 1.75438598e-02 0. 0. 0. 0. 0. 0. 0. 0. 0. 0. 0. 0. 0.
      0. 0. 1.75438598e-02 0. 0. 0. 0. 0. 0. 0. 0. 0. 0. 0. 0. 0.
      1.75438598e-02 0. 0. 0. 0. 1.75438598e-02 0. 0. 0. 0. 0. 0. 0. 0.
      0. 0. 0. 1.75438598e-02 0. 0. 0. 0. 0. 0. 0. 0. 0. 0. 0. 0. 0. 0.
      1.75438598e-02 0. 0. 0. 0. 0. 0. 0. 0. 0. 0. 0. 0. 0. 0. 0.
      1.75438598e-02 0. 0. 0. 0. 0. 1.75438598e-02 0. 0. 0. 0. 0. 0. 0.
      0. 0. 1.75438598e-02 0. 0. 0. 0. 0. 0. 0. 0. 0. 0. 0. 0. 0. 0. 0.
      0. 0. 0. 0. 0. 0. 0. 0. 0. 0. 0. 0. 1.75438598e-02 0. 0. 0. 0. 0.
      0. 0. 0. 0. 0. 0. 0. 0. 0. 0. 0. 0. 0. 0. 0. 3.50877196e-02 0. 0.
      0. 0. 0. 0. 1.75438598e-02 0. 0. 0. 0. 0. 0. 0. 0. 0. 0. 0. 0. 0.
      0. 0. 0. 0. 0. 0. 0. 0. 0. 0. 0. 0. 0. 0. 0. 0. 0. 0. 0. 0. 0. 0.
      0. 0. 0. 0. 1.75438598e-02 0. 0. 0. 0. 0. 0. 1.75438598e-02 0. 0.
      0. 0. 0. 0. 0. 0. 0. 0. 0. 0. 0. 0. 0. 0. 0. 0. 0. 0. 0. 0. 0. 0.
      0. 0. 0. 0. 0. 1.75438598e-02 1.75438598e-02 0. 0. 0. 0. 0. 0.
      1.75438598e-02 0. 0. 0. 0. 0. 0. 0. 0. 0. 0. 0. 0. 0. 0. 0. 0. 0.
      0. 1.75438598e-02 0. 0. 0. 0. 0. 0. 0. 0. 0. 0. 0. 0.
      1.75438598e-02 0. 1.75438598e-02 0. 0. 0. 0. 0. 0. 0. 0. 0. 0. 0.
      0. 0. 0. 0. 0. 0. 0. 0. 0. 0. 0. 0. 0. 0. 0. 0. 0. 0. 0. 0. 0. 0.
      0. 0. 0. 0. 0. 0. 0. 0. 0. 1.75438598e-02 0. 0. 0. 0. 0. 0. 0. 0.
      0. 0. 0. 0. 0. 0. 0. 0. 0. 0. 0. 0. 0. 0. 0. 0. 0. 1.75438598e-02
      0. 0. 0. 0. 0. 0. 0. 0. 0. 0. 0. 0. 0. 0. 1.75438598e-02 0. 0. 0.
      1.75438598e-02 0. 0. 0. 0. 0. 0. 1.75438598e-02 0. 0. 0. 0.
      1.75438598e-02 0. 0. 0. 0. 0. 0. 0. 0. 0. 0. 0. 0. 0. 0. 0. 0. 0.
      0. 0. 0. 0. 0. 0. 0. 0. 0. 0. 1.75438598e-02 0. 0. 1.75438598e-02
      0. 0. 0. 0. 0. 0. 0. 0. 0. 0. 0. 0. 1.75438598e-02 0. 0. 0. 0. 0.
      0. 0. 0. 0. 0. 0. 0. 0. 0. 0. 0. 0. 0. 0. 0. 1.75438598e-02 0. 0.
      0. 1.75438598e-02 0. 0. 0. 1.75438598e-02 0. 0. 0. 1.75438598e-02
      0. 0. 0. 0. 0. 0. 0. 0. 0. 0. 0. 0. 0. 0. 0. 0. 0. 0. 0. 0. 0. 0.
      0. 0. 0. 0. 0. 0. 0. 1.75438598e-02 0. 0. 0. 0. 0. 0. 0. 0. 0. 0.
      0. 0. 0. 0. 0. 0. 0. 0. 0. 0. 0. 0. 0. 0. 0. 0. 0. 0. 0. 0. 0. 0.
      0. 0. 0. 1.75438598e-02 0. 0. 0. 0. 0. 0. 0. 0. 0. 0. 0. 0. 0. 0.
      0. 0. 0. 0. 0. 0. 0. 0. 0. 0. 0.</_>
    <_>
      0. 3.24675329e-02 0. 0. 0. 0. 0. 0. 0. 0. 0. 0. 0. 0.
      6.49350649e-03 0. 0. 0. 0. 0. 0. 0. 0. 0. 0. 6.49350649e-03 0. 0.
      0. 0. 0. 0. 0. 0. 0. 0. 6.49350649e-03 6.49350649e-03 0. 0. 0. 0.
      0. 0. 1.94805190e-02 6.49350649e-03 6.49350649e-03 0. 0.
      6.49350649e-03 0. 1.29870130e-02 0. 0. 6.49350649e-03 0. 0. 0. 0.
      0. 0. 0. 0. 0. 0. 0. 0. 0. 0. 0. 6.49350649e-03 0. 0. 0. 0. 0. 0.
      0. 0. 0. 0. 0. 0. 0. 0. 0. 0. 0. 0. 0. 0. 0. 0. 1.29870130e-02 0.
      0. 0. 0. 0. 0. 6.49350649e-03 0. 0. 0. 0. 0. 0. 0. 0. 0. 0. 0. 0.
      0. 0. 0. 0. 0. 1.29870130e-02 6.49350649e-03 0. 0. 0.
      6.49350649e-03 0. 0. 0. 0. 0. 0. 6.49350649e-03 0. 0. 0. 0. 0. 0.
      0. 0. 0. 0. 0. 0. 0. 0. 0. 0. 1.29870130e-02 0. 0. 0. 0. 0. 0. 0.
      0. 0. 0. 0. 0. 0. 0. 0. 0. 0. 0. 0. 0. 0. 0. 0. 0. 6.49350649e-03
      0. 0. 0. 0. 0. 6.49350658e-02 0. 0. 0. 0. 0. 6.49350649e-03 0. 0.
      0. 0. 0. 0. 0. 0. 0. 0. 0. 0. 0. 0. 0. 6.49350649e-03 0. 0. 0. 0.
      6.49350649e-03 0. 0. 0. 0. 0. 0. 6.49350649e-03 0. 0. 0. 0. 0.
      6.49350649e-03 6.49350649e-03 0. 0. 0. 0. 0. 0. 0. 0. 0. 0. 0. 0.
      6.49350649e-03 0. 0. 0. 0. 0. 0. 0. 0. 0. 0. 0. 0. 0. 0. 0. 0. 0.
      0. 1.94805190e-02 0. 0. 0. 0. 0. 0. 0. 0. 0. 0. 0. 0. 0.
      6.49350649e-03 0. 0. 1.29870130e-02 0. 0. 0. 0. 1.29870130e-02 0.
      0. 0. 0. 0. 0. 0. 0. 0. 0. 0. 0. 0. 0. 0. 0. 0. 0. 0. 0. 0. 0. 0.
      0. 0. 6.49350649e-03 0. 0. 0. 0. 0. 0. 0. 0. 0. 0. 0.
      6.49350649e-03 0. 1.94805190e-02 0. 0. 0. 0. 0. 0. 0. 0.
      6.49350649e-03 0. 6.49350649e-03 0. 0. 0. 0. 0. 0. 0. 0. 0. 0. 0.
      0. 0. 0. 0. 0. 0. 0. 0. 0. 0. 0. 0. 0. 0. 0. 0. 6.49350649e-03 0.
      0. 0. 0. 0. 0. 0. 0. 0. 0. 0. 6.49350649e-03 0. 0. 0. 0. 0. 0. 0.
      0. 6.49350649e-03 0. 0. 0. 0. 0. 0. 0. 0. 0. 0. 0. 6.49350649e-03
      6.49350649e-03 0. 0. 0. 0. 0. 0. 0. 0. 0. 0. 0. 0. 0.
      6.49350649e-03 0. 0. 0. 0. 0. 0. 0. 0. 0. 0. 0. 0. 0.
      6.49350649e-03 0. 0. 0. 0. 0. 6.49350649e-03 0. 0. 0. 0. 0. 0. 0.
      0. 6.49350649e-03 6.49350649e-03 0. 0. 0. 0. 0. 0. 6.49350649e-03
      0. 0. 1.94805190e-02 0. 0. 6.49350649e-03 0. 1.29870130e-02 0. 0.
      0. 0. 0. 0. 0. 6.49350649e-03 0. 0. 0. 0. 0. 0. 0. 0. 0. 0. 0. 0.
      6.49350649e-03 0. 0. 6.49350649e-03 0. 0. 1.29870130e-02 0. 0. 0.
      0. 0. 0. 0. 0. 0. 0. 0. 0. 0. 0. 6.49350649e-03 0. 0. 0. 0. 0. 0.
      0. 0. 1.29870130e-02 0. 0. 0. 0. 6.49350649e-03 0. 0. 0. 0.
      1.29870130e-02 6.49350649e-03 0. 0. 0. 0. 0. 6.49350649e-03
      1.94805190e-02 6.49350649e-03 0. 0. 0. 0. 0. 0. 0. 0. 0. 0. 0. 0.
      0. 0. 0. 0. 0. 0. 0. 6.49350649e-03 0. 6.49350649e-03
      2.59740259e-02 0. 0. 0. 0. 0. 0. 0. 0. 0. 0. 0. 0. 0. 0. 0. 0. 0.
      0. 0. 0. 0. 0. 0. 0. 0. 0. 0. 0. 0. 0. 1.94805190e-02 0. 0. 0. 0.
      0. 0. 1.29870130e-02 0. 6.49350649e-03 0. 6.49350649e-03 0. 0. 0.
      6.49350649e-03 6.49350649e-03 0. 0. 0. 0. 0. 0. 0. 0. 0. 0. 0. 0.
      0. 0. 0. 0. 0. 0. 0. 0. 0. 0. 0. 0. 0. 0. 0. 0. 0. 0. 0. 0. 0.
      6.49350649e-03 0. 6.49350649e-03 1.29870130e-02 0. 0. 0. 0.
      6.49350649e-03 0. 0. 0. 0. 0. 0. 0. 0. 0. 0. 0. 0. 0. 0. 0. 0. 0.
      0. 0. 0. 0. 0. 0. 0. 0. 0. 0. 0. 0. 0. 0. 0. 0. 0. 0. 0. 0. 0. 0.
      0. 0. 0. 0. 0. 0. 0. 0. 0. 0. 0. 0. 0. 0. 0. 6.49350649e-03 0. 0.
      0. 0. 0. 0. 0. 0. 0. 0. 0. 0. 0. 0. 0. 0. 0. 0. 0. 0. 0.
      6.49350649e-03 0. 0. 0. 0. 0. 0. 0. 1.94805190e-02 0. 0. 0. 0. 0.
      0. 0. 0. 0. 0. 0. 0. 0. 0. 0. 0. 0. 0. 0. 0. 0. 0. 0.
      6.49350649e-03 0. 0. 0. 0. 0. 0. 0. 0. 0. 0. 0. 0. 0. 0. 0. 0. 0.
      0. 0. 6.49350649e-03 0. 0. 0. 0. 0. 0. 0. 0. 0. 0. 0. 0. 0.
      6.49350649e-03 6.49350649e-03 0. 0. 0. 0. 0. 0. 0. 0.
      6.49350649e-03 0. 0. 0. 1.29870130e-02 0. 0. 0. 0. 6.49350649e-03
      0. 0. 0. 0. 0. 6.49350649e-03 0. 0. 0. 0. 0. 0. 0. 0. 0. 0. 0. 0.
      0. 0. 0. 0. 0. 0. 0. 0. 0. 0. 0. 0. 6.49350649e-03 0. 0. 0. 0. 0.
      0. 1.29870130e-02 0. 6.49350649e-03 6.49350649e-03 0. 0. 0. 0. 0.
      0. 0. 0. 0. 0. 0. 0. 0. 0. 0. 0. 0. 6.49350649e-03 0. 0. 0. 0. 0.
      0. 0. 0. 0. 0. 0. 0. 0. 0. 0. 0. 0. 0. 0. 0. 0. 0. 0.
      6.49350649e-03 0. 0. 0. 0. 0. 0. 0. 0. 6.49350649e-03 0. 0. 0. 0.
      0. 0. 0. 0. 0. 0. 0. 6.49350649e-03 6.49350649e-03 0. 0. 0. 0. 0.
      0. 0. 0. 0. 0. 0. 0. 0. 0. 0. 0. 0. 0. 0. 0. 0. 0. 0. 0. 0. 0. 0.
      0. 0. 0. 0. 0. 0. 0. 0. 6.49350649e-03 0. 0. 0. 0. 0. 0. 0. 0.
      6.49350649e-03 0. 0. 0. 0. 0. 0. 0. 0. 0. 0. 6.49350649e-03 0. 0.
      0. 0. 0. 0. 0. 0. 0. 0. 0. 0. 0. 0. 0. 0. 0. 0. 0. 1.29870130e-02
      0. 0. 0. 0. 6.49350649e-03 0. 0. 0. 6.49350649e-03 0. 0. 0. 0.
      1.94805190e-02 0. 0. 0. 6.49350649e-03 0. 0. 6.49350649e-03 0. 0.
      0. 0. 6.49350649e-03 0. 0. 6.49350649e-03</_>
    <_>
      0. 0. 3.56506230e-03 0. 1.78253115e-03 0. 0. 0. 0. 0.
      5.34759369e-03 3.56506230e-03 1.78253115e-03 1.78253115e-03
      1.78253115e-03 0. 0. 0. 3.56506230e-03 0. 0. 1.78253115e-03 0. 0.
      1.78253115e-03 3.56506230e-03 0. 1.78253115e-03 1.78253115e-03 0.
      0. 0. 3.56506230e-03 1.78253115e-03 0. 0. 3.56506230e-03 0. 0. 0.
      8.91265552e-03 1.60427801e-02 0. 3.56506230e-03 5.34759369e-03
      1.78253115e-03 0. 0. 1.78253115e-03 1.78253115e-03 0. 0. 0. 0. 0.
      0. 1.78253115e-03 1.78253115e-03 0. 0. 0. 0. 0. 0. 1.78253115e-03
      0. 0. 0. 0. 0. 1.78253115e-03 1.78253115e-03 1.78253115e-03 0.
      3.56506230e-03 0. 1.78253115e-03 0. 3.56506230e-03 1.78253115e-03
      0. 0. 0. 1.78253115e-03 0. 0. 0. 0. 1.78253115e-03 0. 0. 0. 0.
      7.13012461e-03 0. 1.78253115e-03 0. 0. 0. 7.13012461e-03
      3.56506230e-03 1.78253115e-03 0. 0. 0. 0. 3.56506230e-03
      3.56506230e-03 0. 0. 0. 0. 0. 1.60427801e-02 5.34759369e-03
      1.06951874e-02 3.56506230e-03 1.78253115e-03 0. 0. 0.
      5.34759369e-03 0. 0. 7.13012461e-03 1.78253115e-03 0. 0. 0. 0. 0.
      0. 0. 1.78253115e-03 0. 0. 1.78253115e-03 0. 5.34759369e-03
      1.06951874e-02 0. 0. 0. 3.56506230e-03 0. 0. 0. 0. 0. 0. 0.
      1.78253115e-03 0. 0. 0. 0. 1.78253115e-03 0. 0. 0. 5.34759369e-03
      1.78253115e-03 0. 0. 3.56506230e-03 1.78253115e-03 0. 0.
      1.78253115e-03 1.78253115e-03 0. 3.56506230e-03 3.56506230e-03
      3.56506230e-03 5.34759369e-03 0. 1.78253115e-03 0. 0. 0. 0.
      1.78253115e-03 0. 3.56506230e-03 0. 0. 0. 1.78253115e-03
      3.56506230e-03 1.78253115e-03 0. 5.34759369e-03 1.78253115e-03
      3.56506230e-03 0. 5.34759369e-03 0. 0. 3.56506230e-03 0. 0.
      1.78253115e-03 1.78253115e-03 0. 0. 1.78253115e-03 0. 0. 0. 0.
      1.78253115e-03 1.78253115e-03 0. 0. 0. 0. 0. 0. 0. 0.
      1.78253115e-03 0. 3.56506230e-03 0. 0. 0. 1.78253115e-03
      1.78253115e-03 0. 0. 0. 0. 0. 0. 0. 3.56506230e-03 0. 0. 0. 0. 0.
      1.78253115e-03 1.78253115e-03 0. 5.34759369e-03 0. 0.
      1.78253115e-03 0. 1.78253115e-03 0. 0. 0. 0. 0. 0. 0. 0.
      1.78253115e-03 5.34759369e-03 0. 0. 1.78253115e-03 0. 0. 0. 0.
      3.56506230e-03 1.78253115e-03 0. 1.78253115e-03 1.78253115e-03 0.
      1.78253115e-03 0. 0. 0. 0. 3.56506230e-03 0. 0. 0. 0. 0.
      1.78253115e-03 1.78253115e-03 0. 0. 0. 0. 0. 3.56506230e-03 0. 0.
      0. 3.56506230e-03 0. 3.56506230e-03 0. 0. 0. 1.78253115e-03
      3.56506230e-03 0. 0. 1.78253115e-03 0. 0. 1.78253115e-03
      1.78253115e-03 0. 3.56506230e-03 0. 0. 0. 0. 0. 0. 0. 0.
      1.78253115e-03 0. 0. 1.78253115e-03 0. 0. 0. 0. 1.78253115e-03 0.
      0. 3.56506230e-03 3.56506230e-03 1.78253115e-03 0. 0. 0.
      3.56506230e-03 0. 0. 0. 3.56506230e-03 0. 0. 0. 0. 1.78253115e-03
      1.78253115e-03 0. 0. 0. 5.34759369e-03 3.56506230e-03 0. 0. 0. 0.
      5.34759369e-03 1.78253115e-03 0. 0. 0. 3.56506230e-03 0. 0. 0.
      1.78253115e-03 0. 0. 0. 0. 1.78253115e-03 3.56506230e-03 0.
      1.78253115e-03 1.78253115e-03 0. 1.78253115e-03 0. 0.
      5.34759369e-03 0. 0. 0. 0. 1.06951874e-02 0. 0. 0. 0. 0. 0. 0. 0.
      1.78253115e-03 1.78253115e-03 5.34759369e-03 3.56506230e-03 0. 0.
      0. 0. 0. 0. 0. 0. 0. 0. 1.42602492e-02 0. 3.56506230e-03
      3.56506230e-03 0. 0. 0. 0. 0. 0. 0. 0. 0. 0. 1.78253115e-03
      1.78253115e-03 0. 0. 3.56506230e-03 0. 0. 0. 1.78253115e-03
      3.56506230e-03 3.56506230e-03 1.78253115e-03 0. 8.91265552e-03 0.
      0. 1.78253115e-03 3.56506230e-03 0. 1.78253115e-03 0. 0. 0.
      1.78253115e-03 8.91265552e-03 1.78253115e-03 1.78253115e-03 0. 0.
      1.78253115e-03 0. 0. 3.56506230e-03 0. 1.78253115e-03 0.
      1.78253115e-03 0. 3.56506230e-03 0. 0. 0. 0. 0. 0. 3.56506230e-03
      0. 0. 0. 0. 0. 0. 1.78253115e-03 0. 1.78253115e-03 1.78253115e-03
      0. 0. 5.34759369e-03 0. 0. 0. 0. 0. 0. 0. 0. 0. 0. 0.
      1.78253115e-03 0. 0. 0. 0. 1.78253115e-03 0. 1.78253115e-03 0. 0.
      1.78253115e-03 1.78253115e-03 0. 1.78253115e-03 0. 1.78253115e-03
      0. 0. 0. 0. 0. 0. 1.78253115e-03 0. 3.56506230e-03 0. 0. 0.
      1.78253115e-03 0. 0. 0. 0. 0. 0. 0. 0. 0. 0. 0. 0. 0. 0. 0. 0.
      1.78253115e-03 1.78253115e-03 0. 1.78253115e-03 0. 0. 0. 0.
      3.56506230e-03 1.78253115e-03 0. 0. 0. 0. 1.78253115e-03
      3.56506230e-03 0. 0. 1.78253115e-03 3.56506230e-03 0. 0. 0. 0. 0.
      0. 0. 0. 3.56506230e-03 1.78253115e-03 0. 0. 0. 0. 5.34759369e-03
      0. 1.78253115e-03 0. 0. 0. 0. 0. 0. 0. 0. 0. 0. 8.91265552e-03 0.
      0. 0. 1.78253115e-03 0. 0. 1.78253115e-03 1.78253115e-03 0. 0. 0.
      0. 1.78253115e-03 1.78253115e-03 0. 0. 1.78253115e-03 0. 0. 0.
      1.78253115e-03 0. 0. 1.78253115e-03 0. 0. 0. 0. 0. 1.78253115e-03
      1.78253115e-03 0. 0. 0. 0. 5.34759369e-03 0. 0. 0. 1.78253115e-03
      0. 0. 1.78253115e-03 1.06951874e-02 0. 0. 5.34759369e-03
      1.78253115e-03 0. 1.78253115e-03 1.78253115e-03 0. 0.
      1.78253115e-03 0. 0. 0. 1.78253115e-03 0. 0. 0. 0. 5.34759369e-03
      0. 0. 0. 0. 0. 1.78253115e-03 0. 0. 1.78253115e-03 3.56506230e-03
      0. 7.13012461e-03 0. 0. 0. 0. 0. 0. 0. 0. 0. 0. 0. 0.
      3.56506230e-03 0. 1.78253115e-03 0. 3.56506230e-03 0. 0. 0. 0. 0.
      0. 7.13012461e-03 0. 0. 0. 1.78253115e-03 0. 5.34759369e-03
      1.78253115e-03 0. 0. 1.78253115e-03 1.78253115e-03 0.
      3.56506230e-03 0. 0. 1.78253115e-03 0. 0. 0. 0. 0. 0.
      1.78253115e-03 0. 0. 0. 0. 5.34759369e-03 1.78253115e-03 0.
      1.78253115e-03 0. 1.78253115e-03 0. 0. 0. 3.56506230e-03
      1.78253115e-03 0. 1.78253115e-03 0. 3.56506230e-03 3.56506230e-03
      1.78253115e-03 0. 0. 1.78253115e-03 3.56506230e-03 3.56506230e-03
      0. 0. 0. 0. 0. 0. 1.78253115e-03 1.78253115e-03 0. 0. 0. 0. 0.
      1.78253115e-03 0. 0. 1.78253115e-03 1.78253115e-03 1.78253115e-03
      0. 1.78253115e-03 0. 1.78253115e-03 0. 3.56506230e-03 0. 0. 0. 0.
      0. 0. 3.56506230e-03 0. 1.78253115e-03 1.78253115e-03
      3.56506230e-03 0. 1.78253115e-03 0. 0. 3.56506230e-03 0. 0.
      5.34759369e-03 0. 3.56506230e-03 0. 1.78253115e-03 0. 0.
      3.56506230e-03 0. 0. 0. 0. 0. 0. 1.78253115e-03 1.78253115e-03 0.
      1.78253115e-03 0. 0. 0. 0. 0. 0. 0. 0. 0. 5.34759369e-03 0. 0.
      1.78253115e-03 0. 1.78253115e-03 0. 3.56506230e-03 0. 0. 0.
      3.56506230e-03 0. 1.78253115e-03 0. 3.56506230e-03 0. 0. 0. 0.
      3.56506230e-03 0. 1.78253115e-03 5.34759369e-03 0. 0. 0. 0.
      1.78253115e-03 1.78253115e-03 0. 1.78253115e-03 0. 0. 0. 0. 0.
      1.78253115e-03 0. 0. 1.78253115e-03 0. 0. 3.56506230e-03
      1.78253115e-03 3.56506230e-03 0. 1.78253115e-03 0. 0. 0. 0. 0. 0.
      3.56506230e-03 0. 0. 0. 1.78253115e-03 0. 1.78253115e-03 0. 0. 0.
      0. 0. 1.78253115e-03 1.78253115e-03 0. 1.78253115e-03 0.
      1.78253115e-03 0. 0. 0. 0. 0. 1.78253115e-03 0. 0. 0.
      1.78253115e-03 0. 0. 0. 0. 1.78253115e-03 0. 0. 3.56506230e-03
      1.78253115e-03 5.34759369e-03 0. 1.78253115e-03 3.56506230e-03 0.
      0. 1.78253115e-03 0. 0. 0. 0. 0. 0. 1.78253115e-03 3.56506230e-03
      5.34759369e-03 7.13012461e-03 0. 1.78253115e-03 0. 0. 0.
      3.56506230e-03 1.78253115e-03 3.56506230e-03 0. 1.78253115e-03
      1.78253115e-03 1.06951874e-02 0. 0. 1.78253115e-03 1.78253115e-03
      0. 1.78253115e-03 0. 1.78253115e-03 0. 0. 0. 0. 0. 0. 0.
      3.56506230e-03 0. 1.78253115e-03 3.56506230e-03 1.78253115e-03
      1.78253115e-03 0. 3.56506230e-03 0. 0. 1.78253115e-03 0. 0. 0. 0.
      0. 1.78253115e-03 0. 0. 1.78253115e-03 0. 0. 1.78253115e-03 0.
      1.78253115e-03 0. 5.34759369e-03 0. 3.56506230e-03 1.78253115e-03
      0. 1.78253115e-03 0. 1.78253115e-03 0. 0. 0. 0. 0. 0. 0.
      1.78253115e-03 0. 0. 3.56506230e-03 0. 0. 0. 1.06951874e-02 0. 0.
      0. 0. 0. 0. 0. 0. 0. 0. 0. 0. 0.</_>
    <_>
      2.22717156e-03 0. 0. 0. 0. 0. 0. 0. 2.22717156e-03 0. 0. 0.
      2.22717156e-03 0. 0. 0. 0. 2.22717156e-03 0. 0. 0. 2.22717156e-03
      2.22717156e-03 0. 0. 4.45434311e-03 2.22717156e-03 0. 0. 0. 0.
      2.22717156e-03 6.68151490e-03 0. 0. 0. 0. 2.22717156e-03 0. 0.
      4.45434311e-03 0. 4.45434311e-03 3.11804023e-02 2.00445447e-02 0.
      0. 2.22717156e-03 0. 0. 0. 0. 0. 0. 0. 0. 4.45434311e-03 0. 0. 0.
      0. 2.22717156e-03 0. 0. 0. 2.22717156e-03 0. 0. 0. 0. 0. 0. 0.
      2.22717156e-03 0. 2.22717156e-03 0. 0. 0. 0. 2.22717156e-03 0. 0.
      0. 0. 0. 0. 0. 2.22717156e-03 2.22717156e-03 0. 0. 4.45434311e-03
      2.00445447e-02 0. 0. 2.22717156e-03 0. 0. 2.22717156e-03
      4.45434311e-03 0. 0. 0. 0. 0. 0. 2.22717156e-03 0. 2.22717156e-03
      2.22717156e-03 2.22717156e-03 0. 4.45434311e-03 4.45434311e-03
      2.22717156e-03 2.22717156e-03 0. 6.68151490e-03 0. 0. 0. 0.
      2.22717156e-03 2.22717156e-03 0. 0. 0. 0. 0. 0. 0. 0.
      2.22717156e-03 2.22717156e-03 2.22717156e-03 0. 0. 0.
      2.22717156e-03 0. 0. 0. 0. 4.45434311e-03 0. 0. 2.22717156e-03 0.
      0. 0. 2.22717156e-03 0. 4.45434311e-03 0. 0. 0. 0. 0.
      2.22717156e-03 0. 0. 0. 0. 0. 0. 0. 4.45434311e-03 0. 0. 0. 0.
      2.22717156e-03 0. 0. 0. 0. 0. 0. 0. 0. 2.22717156e-03
      2.22717156e-03 6.68151490e-03 2.22717156e-03 0. 0. 2.22717156e-03
      0. 0. 0. 1.33630298e-02 0. 0. 2.22717156e-03 0. 0. 0. 0. 0. 0.
      2.22717156e-03 0. 0. 0. 0. 0. 0. 0. 2.22717156e-03 0. 0.
      2.22717156e-03 2.22717156e-03 0. 0. 2.22717156e-03 2.22717156e-03
      0. 2.22717156e-03 0. 0. 0. 0. 0. 2.22717156e-03 0. 0. 0. 0. 0. 0.
      0. 0. 2.22717156e-03 4.45434311e-03 0. 0. 0. 2.22717156e-03 0.
      2.22717156e-03 2.22717156e-03 0. 4.45434311e-03 0. 0. 0. 0. 0. 0.
      4.45434311e-03 0. 0. 0. 0. 0. 0. 0. 0. 0. 2.22717156e-03 0. 0. 0.
      2.22717156e-03 0. 4.45434311e-03 0. 4.45434311e-03 0. 0. 0. 0. 0.
      0. 0. 0. 0. 0. 0. 0. 0. 2.22717156e-03 0. 0. 0. 0. 2.22717156e-03
      0. 0. 6.68151490e-03 2.22717156e-03 0. 2.22717156e-03 0. 0. 0.
      4.45434311e-03 0. 2.22717156e-03 0. 0. 0. 0. 2.22717156e-03
      2.22717156e-03 2.22717156e-03 0. 0. 0. 0. 0. 0. 2.22717156e-03 0.
      0. 0. 2.22717156e-03 0. 2.22717156e-03 0. 6.68151490e-03 0.
      4.45434311e-03 0. 2.22717156e-03 2.22717156e-03 0. 0. 0.
      2.22717156e-03 0. 0. 0. 0. 2.22717156e-03 4.45434311e-03 0.
      2.22717156e-03 0. 0. 2.22717156e-03 2.22717156e-03 0. 0. 0.
      2.22717156e-03 4.45434311e-03 0. 0. 0. 0. 4.45434311e-03 0. 0.
      2.22717156e-03 6.68151490e-03 0. 0. 0. 0. 4.45434311e-03
      2.22717156e-03 0. 0. 0. 0. 2.22717156e-03 0. 0. 0. 0. 0.
      2.22717156e-03 0. 0. 4.45434311e-03 0. 0. 0. 0. 2.22717156e-03 0.
      2.22717156e-03 2.22717156e-03 0. 0. 0. 2.22717156e-03 0. 0. 0. 0.
      6.68151490e-03 2.22717156e-03 0. 0. 4.45434311e-03 0.
      4.45434311e-03 0. 0. 2.22717156e-03 0. 0. 0. 0. 2.22717151e-02 0.
      0. 0. 2.22717156e-03 0. 2.22717156e-03 0. 2.22717156e-03 0. 0. 0.
      0. 0. 0. 0. 0. 0. 0. 0. 0. 0. 2.22717156e-03 0. 2.22717156e-03 0.
      4.45434311e-03 2.22717156e-03 0. 0. 0. 0. 2.22717156e-03 0. 0. 0.
      2.22717156e-03 0. 1.55902011e-02 0. 0. 4.45434311e-03 0.
      2.22717156e-03 4.45434311e-03 4.45434311e-03 0. 0. 0. 0. 0. 0.
      2.22717156e-03 2.22717156e-03 0. 0. 0. 0. 2.22717156e-03
      4.45434311e-03 2.22717156e-03 2.22717156e-03 0. 0. 2.22717156e-03
      0. 0. 0. 2.22717156e-03 0. 2.22717156e-03 0. 2.22717156e-03 0.
      4.45434311e-03 0. 0. 0. 2.22717156e-03 2.22717156e-03 0. 0. 0. 0.
      0. 0. 0. 0. 2.22717156e-03 2.22717156e-03 0. 0. 0. 0. 0.
      2.22717156e-03 4.45434311e-03 0. 2.22717156e-03 2.22717156e-03 0.
      0. 0. 0. 0. 0. 2.22717156e-03 0. 0. 0. 0. 0. 0. 2.22717156e-03 0.
      0. 0. 0. 4.45434311e-03 0. 2.22717156e-03 0. 0. 2.22717156e-03 0.
      0. 0. 2.22717156e-03 0. 0. 2.22717156e-03 4.45434311e-03 0.
      4.45434311e-03 2.22717156e-03 0. 0. 2.22717156e-03 0.
      4.45434311e-03 1.33630298e-02 0. 0. 8.90868623e-03 0.
      2.22717156e-03 0. 0. 0. 0. 0. 2.22717156e-03 0. 0. 0.
      4.45434311e-03 0. 0. 0. 0. 4.45434311e-03 2.22717156e-03 0. 0.
      2.22717156e-03 2.22717156e-03 0. 0. 0. 0. 0. 0. 0. 0. 0. 0.
      4.45434311e-03 0. 0. 0. 0. 4.45434311e-03 2.22717156e-03 0. 0. 0.
      2.22717156e-03 0. 0. 0. 0. 0. 6.68151490e-03 0. 0. 0. 0.
      2.22717156e-03 0. 0. 2.22717156e-03 0. 0. 0. 0. 0. 0.
      2.22717156e-03 0. 0. 0. 1.33630298e-02 0. 0. 0. 0. 0. 0. 0. 0.
      1.11358576e-02 0. 0. 1.11358576e-02 0. 0. 0. 0. 2.22717156e-03
      2.22717156e-03 2.22717156e-03 0. 2.22717156e-03 0. 0. 0. 0. 0. 0.
      0. 0. 4.45434311e-03 0. 2.22717156e-03 2.22717156e-03 0. 0.
      2.22717156e-03 0. 0. 0. 4.45434311e-03 0. 0. 0. 0. 0.
      2.22717156e-03 0. 0. 2.22717156e-03 0. 2.22717156e-03
      2.22717156e-03 2.22717156e-03 0. 0. 0. 2.22717156e-03 0. 0. 0. 0.
      2.22717156e-03 0. 0. 0. 0. 0. 0. 0. 2.22717156e-03 0.
      2.22717156e-03 0. 0. 2.22717156e-03 2.22717156e-03 0. 0. 0. 0. 0.
      2.22717156e-03 0. 0. 0. 0. 0. 4.45434311e-03 0. 2.22717156e-03
      2.22717156e-03 4.45434311e-03 2.22717156e-03 0. 0. 0.
      2.22717156e-03 0. 0. 0. 4.45434311e-03 0. 0. 0. 0. 0.
      4.45434311e-03 0. 0. 0. 2.22717156e-03 2.22717156e-03 0. 0. 0. 0.
      2.22717156e-03 0. 0. 0. 4.45434311e-03 6.68151490e-03 0. 0. 0. 0.
      0. 0. 0. 0. 2.22717156e-03 1.11358576e-02 0. 0. 0. 0. 0.
      2.22717156e-03 2.22717156e-03 0. 2.22717156e-03 0. 0. 0. 0. 0. 0.
      0. 2.22717156e-03 0. 0. 2.22717156e-03 6.68151490e-03
      2.22717156e-03 0. 0. 2.22717156e-03 0. 0. 2.22717156e-03
      4.45434311e-03 2.22717156e-03 0. 0. 0. 0. 2.22717156e-03 0. 0. 0.
      0. 0. 0. 2.22717156e-03 0. 0. 0. 0. 0. 0. 4.45434311e-03
      4.45434311e-03 0. 0. 6.68151490e-03 0. 0. 0. 4.45434311e-03 0.
      4.45434311e-03 4.45434311e-03 0. 0. 0. 0. 2.22717156e-03 0. 0. 0.
      0. 6.68151490e-03 0. 0. 0. 2.22717156e-03 0. 0. 4.45434311e-03 0.
      0. 4.45434311e-03 4.45434311e-03 0. 0. 0. 2.22717156e-03 0. 0. 0.
      2.22717156e-03 0. 0. 0. 0. 0. 0. 0. 4.45434311e-03 0. 0.
      2.22717156e-03 0. 0. 0. 0. 0. 0. 0. 0. 0. 2.22717156e-03 0. 0.
      2.22717156e-03 0. 0. 0. 0. 0. 0. 0. 0. 0. 0. 0. 2.22717156e-03 0.
      2.22717156e-03 0. 0. 0. 0. 0. 0. 1.11358576e-02 0. 0. 0. 0. 0.
      2.22717156e-03 0. 2.22717156e-03 2.22717156e-03 0. 0.
      6.68151490e-03 2.22717156e-03 0. 0. 0. 0. 0. 0. 0. 0.
      2.22717156e-03 1.11358576e-02 0. 0. 0. 0. 0. 0. 0. 0. 0. 0. 0. 0.
      0. 0. 0. 0. 0. 0. 0. 0. 0. 0. 0. 0. 0. 0. 2.22717156e-03 0. 0.
      2.22717156e-03 0. 0. 0. 0. 0. 4.45434311e-03 0. 0. 0. 0. 0.
      2.22717156e-03 0. 0. 2.22717156e-03 0. 0. 0. 0. 2.22717156e-03
      2.22717156e-03 0. 0. 0. 0. 4.45434311e-03 0. 2.22717156e-03 0. 0.
      0. 0. 0. 4.45434311e-03 0. 4.45434311e-03 0. 0. 0. 0.
      2.22717156e-03 0. 0. 0. 0. 0. 0. 2.22717156e-03 0. 0. 0. 0.
      2.22717156e-03 6.68151490e-03 0. 0. 0. 2.22717156e-03 0. 0. 0.</_>
    <_>
      0. 0. 0. 0. 0. 1.53846154e-02 0. 0. 0. 0. 0. 0. 0. 0. 0. 0. 0. 0.
      0. 0. 0. 0. 0. 0. 0. 0. 0. 0. 0. 0. 0. 0. 0. 0. 0. 0. 0. 0. 0. 0.
      0. 1.53846154e-02 0. 0. 0. 0. 0. 0. 0. 0. 0. 0. 0. 0. 0. 0.
      1.53846154e-02 0. 0. 0. 0. 0. 0. 0. 0. 0. 0. 0. 0. 0. 0. 0. 0. 0.
      0. 0. 0. 0. 0. 0. 0. 0. 0. 0. 0. 0. 0. 0. 0. 0. 0. 0. 0. 0.
      1.53846154e-02 0. 1.53846154e-02 0. 0. 0. 1.53846154e-02 0.
      1.53846154e-02 0. 0. 1.53846154e-02 0. 0. 0. 0. 0. 0. 0. 0.
      1.53846154e-02 0. 0. 0. 0. 0. 0. 0. 0. 0. 0. 0. 0. 0. 0.
      1.53846154e-02 0. 0. 0. 0. 0. 0. 0. 0. 0. 0. 0. 0. 0.
      1.53846154e-02 0. 0. 0. 0. 0. 3.07692308e-02 0. 0. 0. 0.
      1.53846154e-02 1.53846154e-02 1.53846154e-02 1.53846154e-02
      1.53846154e-02 0. 0. 0. 0. 0. 0. 0. 0. 0. 0. 0. 0. 0. 0. 0. 0. 0.
      0. 0. 1.53846154e-02 0. 0. 0. 0. 0. 0. 0. 0. 0. 1.53846154e-02 0.
      0. 0. 0. 0. 0. 0. 0. 0. 0. 0. 0. 0. 0. 0. 0. 0. 0. 0. 0. 0. 0. 0.
      0. 0. 0. 0. 0. 0. 0. 0. 0. 0. 0. 0. 0. 0. 0. 0. 1.53846154e-02 0.
      0. 0. 0. 0. 0. 0. 1.53846154e-02 0. 0. 0. 0. 0. 0. 0. 0.
      1.53846154e-02 0. 0. 0. 0. 0. 0. 0. 0. 0. 0. 0. 0. 0. 0. 0. 0. 0.
      0. 0. 0. 0. 0. 0. 0. 0. 0. 0. 0. 0. 0. 0. 0. 0. 0. 0. 0. 0. 0. 0.
      0. 0. 0. 0. 1.53846154e-02 0. 0. 0. 1.53846154e-02 0. 0. 0. 0. 0.
      0. 0. 0. 0. 0. 0. 0. 0. 0. 0. 0. 0. 0. 0. 0. 0. 1.53846154e-02 0.
      0. 0. 0. 0. 1.53846154e-02 0. 0. 0. 0. 0. 0. 0. 0. 0. 0. 0. 0. 0.
      0. 0. 0. 0. 0. 0. 0. 0. 0. 0. 0. 0. 0. 0. 0. 0. 0. 0. 0. 0. 0. 0.
      0. 0. 1.53846154e-02 0. 0. 1.53846154e-02 0. 0. 0. 0. 0. 0. 0. 0.
      0. 0. 0. 0. 0. 1.53846154e-02 0. 0. 0. 0. 0. 0. 0. 0. 0. 0. 0. 0.
      0. 0. 0. 0. 0. 0. 0. 0. 0. 0. 1.53846154e-02 1.53846154e-02 0. 0.
      0. 0. 0. 0. 0. 0. 1.53846154e-02 0. 0. 1.53846154e-02 0. 0. 0. 0.
      0. 0. 0. 0. 0. 0. 0. 0. 0. 0. 1.53846154e-02 0. 0. 0. 0. 0. 0. 0.
      0. 0. 0. 0. 0. 0. 0. 0. 0. 0. 0. 0. 0. 1.53846154e-02 0. 0. 0. 0.
      0. 0. 0. 0. 0. 0. 0. 0. 0. 0. 0. 0. 0. 0. 0. 0. 0. 0.
      1.53846154e-02 0. 0. 0. 0. 0. 0. 0. 0. 0. 0. 0. 0. 0. 0. 0. 0. 0.
      0. 0. 0. 0. 1.53846154e-02 0. 0. 0. 0. 0. 0. 0. 0. 0. 0. 0. 0. 0.
      0. 0. 0. 0. 0. 0. 0. 0. 0. 0. 0. 0. 0. 0. 0. 0. 0. 1.53846154e-02
      0. 0. 0. 0. 0. 0. 0. 0. 0. 0. 0. 0. 0. 0. 0. 1.53846154e-02 0.
      1.53846154e-02 0. 0. 0. 1.53846154e-02 0. 0. 0. 0. 0. 0. 0. 0. 0.
      0. 0. 0. 0. 0. 0. 0. 0. 0. 0. 0. 0. 0. 0. 0. 0. 0. 0. 0. 0. 0. 0.
      0. 0. 0. 0. 0. 1.53846154e-02 0. 0. 1.53846154e-02 0. 0. 0. 0. 0.
      0. 0. 0. 0. 0. 0. 0. 0. 0. 0. 0. 0. 0. 0. 0. 0. 0. 0. 0. 0. 0. 0.
      0. 0. 0. 0. 0. 0. 0. 0. 0. 0. 0. 0. 0. 0. 0. 0. 0. 0. 0. 0. 0. 0.
      0. 0. 0. 0. 0. 0. 0. 0. 0. 0. 0. 0. 0. 0. 0. 0. 0. 0. 0. 0. 0. 0.
      0. 0. 0. 0. 0. 0. 0. 0. 0. 0. 0. 0. 0. 0. 0. 0. 0. 0. 0.
      1.53846154e-02 0. 0. 0. 0. 1.53846154e-02 0. 0. 0. 0.
      1.53846154e-02 0. 0. 0. 0. 0. 0. 0. 0. 0. 0. 0. 0. 0. 0. 0. 0. 0.
      0. 0. 0. 0. 0. 0. 0. 0. 0. 0. 0. 0. 0. 0. 0. 0. 0. 0. 0. 0. 0. 0.
      1.53846154e-02 0. 0. 0. 0. 0. 0. 0. 0. 0. 0. 0. 0. 0. 0. 0. 0. 0.
      0. 0. 0. 0. 0. 0. 0. 0. 1.53846154e-02 0. 0. 0. 0. 0. 0. 0. 0. 0.
      0. 0. 0. 0. 0. 0. 0. 0. 0. 0. 0. 0. 0. 0. 0. 0. 0. 0. 0.
      1.53846154e-02 0. 0. 1.53846154e-02 0. 0. 0. 0. 0. 0. 0. 0. 0. 0.
      1.53846154e-02 0. 0. 0. 0. 0. 0. 0. 0. 0. 0. 0. 0. 0. 0. 0.
      1.53846154e-02 0. 1.53846154e-02 0. 0. 0. 0. 0. 0. 0. 0. 0. 0. 0.
      1.53846154e-02 0. 0. 0. 0. 0. 0. 0. 0. 0. 0. 0. 0. 0. 0. 0. 0.
      1.53846154e-02 0. 1.53846154e-02 0. 0. 0. 0. 0. 0. 1.53846154e-02
      1.53846154e-02 0. 0. 0. 0. 0. 0. 0. 0. 0. 0. 0. 0. 0. 0. 0. 0. 0.
      0. 0. 0. 0. 0. 0. 0. 0. 0. 0. 0. 0. 0. 0. 0. 0. 1.53846154e-02 0.
      0. 0. 0. 0. 0. 1.53846154e-02 0. 0. 0. 0. 0. 0. 0. 0. 0. 0. 0. 0.
      0. 0. 0. 0. 0. 0. 0. 0. 0. 0. 0. 0. 0. 0. 0. 0. 0. 0. 0. 0. 0. 0.
      0. 0. 0. 0. 0. 1.53846154e-02 0. 0. 0. 0. 0. 0. 0. 0. 0. 0. 0. 0.
      0. 0. 0. 0. 0. 0. 0. 0. 0. 0. 0. 0. 0. 0. 0. 0. 0. 0. 0. 0. 0. 0.
      0. 0. 0. 0. 0. 0. 0. 0. 0. 1.53846154e-02 0. 0. 0. 1.53846154e-02
      0. 0. 0. 0. 0. 0. 0. 0. 0. 0. 0. 1.53846154e-02 0. 0. 0. 0. 0.</_>
    <_>
      0. 0. 0. 0. 0. 0. 0. 0. 0. 0. 0. 0. 0. 0. 0. 0. 0. 0. 0. 0. 0. 0.
      1.19047621e-02 0. 1.19047621e-02 0. 0. 0. 0. 0. 0. 0. 0. 0. 0. 0.
      0. 0. 0. 0. 0. 0. 0. 0. 0. 1.19047621e-02 0. 1.19047621e-02 0. 0.
      0. 0. 0. 0. 0. 0. 0. 0. 0. 0. 0. 0. 0. 0. 0. 0. 0. 0. 0. 0. 0. 0.
      0. 0. 0. 0. 0. 0. 0. 0. 0. 0. 1.19047621e-02 0. 0. 0. 0. 0. 0. 0.
      0. 0. 0. 0. 0. 0. 1.19047621e-02 0. 0. 0. 0. 0. 0. 0. 0. 0. 0. 0.
      0. 0. 0. 0. 1.19047621e-02 0. 0. 0. 0. 0. 1.19047621e-02 0. 0. 0.
      0. 1.19047621e-02 0. 0. 0. 0. 0. 0. 0. 0. 0. 0. 0. 0. 0. 0. 0. 0.
      0. 0. 0. 0. 0. 0. 0. 0. 0. 0. 0. 0. 0. 1.19047621e-02 0. 0. 0. 0.
      0. 0. 0. 0. 0. 0. 0. 1.19047621e-02 0. 0. 0. 0. 0. 1.19047621e-02
      0. 0. 0. 0. 0. 0. 0. 0. 0. 0. 0. 0. 0. 0. 1.19047621e-02 0. 0. 0.
      0. 0. 0. 0. 0. 0. 0. 0. 0. 0. 0. 0. 0. 1.19047621e-02 0. 0. 0. 0.
      0. 0. 0. 0. 0. 0. 1.19047621e-02 0. 0. 0. 0. 0. 0. 0. 0. 0.
      1.19047621e-02 0. 1.19047621e-02 0. 0. 0. 0. 0. 0. 0. 0. 0.
      1.19047621e-02 0. 1.19047621e-02 0. 0. 0. 0. 0. 0. 0. 0. 0. 0. 0.
      0. 0. 0. 0. 0. 0. 0. 0. 0. 0. 0. 0. 0. 0. 0. 0. 0. 1.19047621e-02
      0. 0. 0. 0. 0. 0. 0. 0. 0. 0. 0. 0. 0. 0. 0. 0. 0. 0. 0. 0. 0. 0.
      0. 0. 0. 0. 0. 0. 0. 0. 0. 0. 1.19047621e-02 0. 0. 0. 0. 0. 0. 0.
      0. 0. 0. 0. 0. 0. 0. 0. 1.19047621e-02 0. 0. 0. 0. 0. 0. 0. 0. 0.
      0. 0. 0. 2.38095243e-02 0. 0. 1.19047621e-02 0. 0. 0. 0. 0. 0. 0.
      0. 0. 0. 0. 0. 0. 0. 0. 0. 0. 0. 0. 0. 0. 0. 0. 0. 0. 0. 0. 0. 0.
      0. 0. 0. 0. 0. 0. 0. 0. 1.19047621e-02 0. 0. 0. 0. 0. 0. 0. 0. 0.
      0. 0. 0. 0. 0. 0. 0. 0. 0. 0. 0. 0. 0. 0. 0. 0. 0. 0.
      2.38095243e-02 0. 1.19047621e-02 0. 0. 0. 0. 0. 0. 0. 0. 0. 0. 0.
      0. 0. 0. 0. 0. 0. 0. 0. 0. 0. 1.19047621e-02 0. 1.19047621e-02 0.
      0. 0. 0. 0. 0. 0. 0. 0. 0. 1.19047621e-02 0. 0. 0. 0. 0. 0. 0. 0.
      0. 0. 0. 0. 0. 0. 0. 0. 0. 0. 0. 0. 0. 1.19047621e-02 0. 0. 0. 0.
      0. 0. 0. 0. 1.19047621e-02 0. 1.19047621e-02 0. 0. 0. 0. 0. 0. 0.
      0. 1.19047621e-02 0. 1.19047621e-02 0. 0. 0. 0. 1.19047621e-02 0.
      0. 0. 0. 0. 0. 0. 0. 0. 0. 0. 1.19047621e-02 0. 0. 0. 0. 0. 0. 0.
      0. 0. 0. 0. 0. 0. 1.19047621e-02 0. 0. 0. 0. 0. 0. 0. 0. 0. 0. 0.
      0. 0. 0. 0. 1.19047621e-02 0. 0. 0. 0. 0. 0. 0. 0. 0. 0.
      1.19047621e-02 0. 0. 0. 0. 1.19047621e-02 0. 0. 0. 0.
      1.19047621e-02 0. 0. 0. 0. 0. 0. 0. 0. 0. 0. 0. 1.19047621e-02 0.
      0. 0. 1.19047621e-02 0. 0. 0. 0. 0. 0. 0. 0. 0. 0. 0. 0. 0. 0. 0.
      0. 0. 0. 0. 0. 0. 0. 0. 0. 0. 0. 0. 0. 0. 0. 1.19047621e-02 0. 0.
      0. 0. 0. 0. 0. 0. 0. 0. 0. 0. 0. 0. 0. 0. 0. 0. 0. 0. 0. 0. 0. 0.
      0. 0. 0. 0. 0. 0. 0. 0. 0. 0. 0. 1.19047621e-02 0. 0. 0. 0.
      1.19047621e-02 0. 0. 0. 0. 1.19047621e-02 1.19047621e-02 0. 0. 0.
      0. 1.19047621e-02 0. 0. 0. 0. 0. 0. 0. 0. 0. 0. 0. 0. 0. 0.
      1.19047621e-02 0. 0. 1.19047621e-02 0. 0. 0. 0. 0. 0.
      1.19047621e-02 0. 1.19047621e-02 0. 0. 0. 0. 0. 0. 0. 0. 0. 0. 0.
      0. 0. 1.19047621e-02 0. 1.19047621e-02 1.19047621e-02 0.
      1.19047621e-02 0. 1.19047621e-02 0. 0. 0. 0. 0. 0. 0. 0.
      1.19047621e-02 0. 0. 0. 0. 0. 0. 0. 0. 0. 0. 0. 0. 0. 0. 0. 0. 0.
      0. 0. 0. 0. 0. 0. 0. 0. 1.19047621e-02 0. 0. 0. 0. 0. 0.
      1.19047621e-02 0. 0. 0. 0. 0. 0. 1.19047621e-02 1.19047621e-02 0.
      0. 0. 0. 0. 0. 0. 0. 0. 0. 0. 0. 0. 0. 0. 0. 0. 0. 0. 0. 0. 0. 0.
      0. 0. 0. 0. 0. 0. 0. 0. 0. 1.19047621e-02 0. 0. 0. 0. 0. 0. 0. 0.
      0. 0. 1.19047621e-02 0. 0. 0. 0. 0. 0. 0. 0. 0. 0. 0. 0.
      1.19047621e-02 0. 0. 0. 0. 0. 0. 0. 0. 0. 0. 0. 0. 0. 0. 0. 0. 0.
      0. 0. 0. 0. 0. 0. 0. 0. 1.19047621e-02 0. 1.19047621e-02 0. 0. 0.
      0. 0. 0. 0. 1.19047621e-02 1.19047621e-02 1.19047621e-02 0. 0. 0.
      0. 0. 0. 0. 0. 0. 0. 0. 0. 0. 1.19047621e-02 0. 0. 0. 0. 0. 0. 0.
      0. 0. 0. 0. 0. 0. 0. 0. 0. 0. 0. 0. 0. 1.19047621e-02 0. 0. 0. 0.
      0. 0. 0. 0. 0. 0. 0. 0. 0. 0. 0. 0. 0. 0. 1.19047621e-02 0. 0. 0.
      0. 0. 1.19047621e-02 0. 0. 0. 0. 0. 0. 0. 0. 0. 0. 1.19047621e-02
      0. 0. 1.19047621e-02 1.19047621e-02 0. 1.19047621e-02 0. 0. 0. 0.
      0. 0. 0. 0. 0. 0. 0. 0. 0. 0. 0. 0. 0. 0. 0. 0. 0. 0. 0. 0. 0. 0.
      0. 0. 0. 0. 1.19047621e-02 0. 0. 0. 0. 0. 0. 0. 0. 0. 0. 0. 0. 0.
      0. 0. 0. 0. 0. 0. 0. 0. 0. 0. 1.19047621e-02 0. 0. 0. 0. 0. 0. 0.
      0. 0. 0. 0. 0. 0. 0. 0. 0. 0. 0. 0. 0. 0. 0. 0. 0. 0. 0. 0. 0.</_>
    <_>
      0. 2.12765951e-02 0. 0. 0. 0. 0. 0. 0. 0. 0. 0. 0. 0. 0. 0. 0. 0.
      0. 0. 0. 0. 0. 0. 0. 0. 0. 0. 0. 0. 0. 0. 0. 0. 0. 0. 0. 0. 0. 0.
      0. 0. 0. 0. 0. 0. 0. 0. 0. 0. 0. 0. 0. 0. 0. 0. 0. 4.25531901e-02
      0. 0. 0. 0. 0. 0. 0. 0. 0. 0. 0. 0. 0. 0. 0. 0. 0. 0. 0. 0. 0. 0.
      0. 0. 0. 0. 0. 0. 0. 0. 0. 0. 0. 0. 0. 0. 0. 0. 0. 0. 0. 0.
      2.12765951e-02 0. 0. 0. 0. 0. 0. 0. 0. 0. 0. 0. 0. 0. 0. 0. 0. 0.
      2.12765951e-02 2.12765951e-02 0. 0. 0. 0. 2.12765951e-02 0. 0. 0.
      0. 0. 0. 0. 0. 0. 0. 0. 0. 0. 0. 0. 0. 0. 0. 0. 0. 0. 0. 0. 0. 0.
      0. 0. 0. 0. 0. 0. 0. 0. 0. 0. 0. 0. 0. 0. 0. 0. 0. 0. 0. 0. 0. 0.
      0. 0. 0. 0. 0. 0. 0. 0. 0. 0. 0. 0. 0. 0. 0. 0. 2.12765951e-02
      2.12765951e-02 0. 0. 0. 0. 0. 0. 0. 0. 0. 0. 0. 0. 0. 0. 0. 0. 0.
      0. 0. 0. 0. 0. 0. 0. 0. 0. 0. 0. 0. 0. 0. 0. 2.12765951e-02 0. 0.
      0. 0. 0. 0. 0. 0. 0. 0. 0. 0. 0. 0. 0. 0. 0. 0. 0. 0. 0. 0. 0. 0.
      0. 0. 2.12765951e-02 0. 0. 0. 0. 0. 0. 0. 0. 0. 0. 0. 0. 0. 0. 0.
      0. 0. 0. 0. 0. 0. 2.12765951e-02 0. 0. 0. 0. 0. 0. 0. 0. 0. 0. 0.
      0. 0. 0. 0. 0. 0. 0. 0. 0. 0. 0. 0. 0. 0. 0. 0. 0. 0. 0. 0. 0. 0.
      0. 0. 0. 0. 0. 0. 0. 0. 0. 0. 0. 0. 0. 0. 0. 0. 0. 0. 0. 0. 0. 0.
      0. 4.25531901e-02 0. 0. 0. 0. 0. 0. 0. 0. 0. 0. 0. 0. 0. 0. 0. 0.
      2.12765951e-02 0. 0. 0. 0. 0. 0. 0. 0. 0. 0. 0. 0. 0. 0. 0. 0. 0.
      0. 0. 0. 0. 0. 0. 0. 0. 0. 0. 0. 0. 0. 0. 0. 0. 0. 0. 0. 0. 0. 0.
      0. 0. 0. 0. 0. 0. 0. 0. 0. 0. 0. 0. 0. 0. 0. 0. 0. 0. 0. 0. 0. 0.
      0. 4.25531901e-02 0. 0. 0. 0. 0. 0. 0. 0. 0. 0. 0. 0. 0. 0. 0.
      2.12765951e-02 0. 0. 0. 0. 0. 0. 0. 0. 0. 0. 0. 0. 0. 0. 0. 0. 0.
      0. 0. 0. 0. 0. 0. 0. 0. 0. 0. 0. 0. 0. 0. 0. 0. 0. 0. 0. 0. 0. 0.
      0. 0. 0. 0. 0. 0. 0. 0. 0. 0. 0. 0. 0. 0. 0. 0. 0. 0. 0. 0. 0. 0.
      0. 0. 0. 0. 0. 0. 0. 0. 0. 0. 0. 0. 0. 0. 0. 0. 0. 0. 0.
      2.12765951e-02 0. 0. 0. 0. 0. 0. 0. 0. 0. 0. 0. 0. 0. 0. 0. 0. 0.
      0. 2.12765951e-02 0. 2.12765951e-02 0. 0. 0. 0. 0. 0. 0. 0. 0. 0.
      0. 0. 0. 0. 0. 0. 0. 0. 0. 0. 0. 0. 0. 0. 0. 0. 0. 0. 0. 0. 0. 0.
      0. 0. 0. 0. 0. 0. 0. 0. 0. 0. 0. 0. 0. 0. 0. 0. 0. 0. 0. 0. 0. 0.
      0. 0. 0. 0. 0. 0. 0. 0. 0. 0. 0. 0. 0. 0. 0. 0. 0. 0. 0. 0. 0. 0.
      0. 0. 0. 0. 0. 0. 0. 0. 0. 0. 0. 0. 0. 0. 0. 0. 0. 0. 0. 0. 0. 0.
      0. 0. 0. 0. 0. 0. 4.25531901e-02 2.12765951e-02 0. 0. 0. 0. 0. 0.
      0. 0. 0. 0. 0. 0. 0. 0. 2.12765951e-02 0. 0. 0. 0. 0. 0. 0. 0. 0.
      0. 0. 0. 0. 0. 0. 0. 0. 0. 0. 2.12765951e-02 0. 0. 0. 0. 0. 0. 0.
      0. 0. 0. 0. 0. 0. 2.12765951e-02 0. 0. 0. 0. 0. 0. 0. 0. 0. 0.
      2.12765951e-02 0. 0. 0. 0. 0. 0. 0. 0. 2.12765951e-02 0. 0. 0. 0.
      0. 0. 0. 0. 0. 0. 0. 0. 0. 0. 0. 0. 0. 0. 0. 2.12765951e-02 0. 0.
      0. 0. 0. 0. 0. 0. 0. 0. 0. 0. 0. 0. 0. 0. 0. 0. 0. 0. 0. 0. 0. 0.
      0. 0. 0. 0. 0. 0. 0. 0. 0. 0. 0. 0. 0. 0. 0. 0. 0. 0. 0. 0. 0. 0.
      0. 0. 0. 0. 0. 0. 0. 0. 0. 0. 0. 0. 0. 0. 2.12765951e-02 0. 0. 0.
      0. 0. 0. 2.12765951e-02 0. 0. 0. 0. 0. 0. 0. 0. 0. 0.
      6.38297871e-02 0. 0. 0. 0. 0. 0. 0. 0. 0. 0. 0. 0. 0. 0. 0. 0. 0.
      0. 0. 0. 0. 0. 0. 0. 0. 0. 0. 0. 0. 0. 0. 0. 0. 0. 0. 0. 0. 0. 0.
      0. 0. 4.25531901e-02 0. 0. 0. 0. 0. 0. 0. 0. 0. 0. 0. 0. 0. 0. 0.
      0. 0. 0. 0. 2.12765951e-02 2.12765951e-02 0. 0. 0. 0. 0. 0.
      2.12765951e-02 0. 0. 0. 2.12765951e-02 0. 0. 0. 2.12765951e-02 0.
      0. 0. 0. 0. 0. 0. 0. 0. 0. 0. 0. 0. 0. 0. 0. 0. 0. 0. 0. 0. 0. 0.
      0. 0. 0. 0. 0. 0. 0. 0. 0. 0. 0. 0. 0. 0. 0. 0. 0. 0. 0. 0. 0. 0.
      0. 0. 0. 0. 2.12765951e-02 0. 0. 2.12765951e-02 0. 0. 0. 0. 0. 0.
      0. 0. 0. 0. 2.12765951e-02 0. 0. 0. 0. 0. 0. 0. 0. 0. 0. 0. 0. 0.
      0. 0. 0. 0. 0. 0. 0. 0. 0. 0. 0. 0. 0. 0. 0. 0. 2.12765951e-02 0.
      0. 0. 0. 0. 0. 0. 0. 0. 0. 0. 0. 0. 2.12765951e-02 0. 0. 0. 0. 0.
      0. 0. 0. 0. 0. 0. 0. 0.</_>
    <_>
      1.31578948e-02 0. 0. 0. 0. 0. 0. 0. 0. 0. 0. 1.31578948e-02 0. 0.
      0. 0. 0. 0. 0. 0. 0. 0. 0. 0. 0. 0. 0. 0. 0. 0. 0. 0. 0. 0. 0.
      1.31578948e-02 0. 0. 0. 0. 0. 0. 0. 0. 0. 0. 1.31578948e-02 0. 0.
      0. 0. 0. 0. 0. 0. 1.31578948e-02 0. 0. 0. 0. 0. 0. 0. 0. 0. 0. 0.
      0. 0. 0. 0. 0. 0. 0. 0. 0. 0. 0. 0. 0. 0. 0. 0. 0. 0. 0. 0. 0. 0.
      0. 0. 0. 0. 0. 0. 0. 0. 0. 0. 0. 0. 0. 0. 0. 0. 0. 0. 0. 0. 0. 0.
      0. 0. 0. 0. 2.63157897e-02 0. 0. 0. 0. 0. 0. 0. 0. 1.31578948e-02
      0. 0. 0. 0. 0. 0. 0. 0. 0. 0. 0. 0. 0. 0. 0. 0. 0. 0. 0. 0. 0.
      1.31578948e-02 0. 0. 0. 1.31578948e-02 0. 0. 0. 1.31578948e-02 0.
      0. 1.31578948e-02 1.31578948e-02 1.31578948e-02 0. 0. 0. 0. 0. 0.
      0. 0. 0. 0. 0. 0. 0. 1.31578948e-02 1.31578948e-02 0. 0. 0. 0. 0.
      0. 0. 0. 0. 0. 0. 0. 0. 0. 0. 1.31578948e-02 0. 0. 0. 0. 0. 0. 0.
      0. 0. 0. 0. 0. 0. 0. 0. 0. 0. 0. 0. 0. 0. 0. 0. 0. 0. 0. 0.
      1.31578948e-02 0. 1.31578948e-02 0. 1.31578948e-02 0. 0. 0. 0.
      2.63157897e-02 1.31578948e-02 0. 0. 0. 0. 0. 0. 0. 0. 0. 0. 0. 0.
      0. 1.31578948e-02 0. 0. 0. 0. 0. 0. 0. 1.31578948e-02 0. 0. 0. 0.
      0. 0. 0. 0. 1.31578948e-02 0. 0. 0. 0. 1.31578948e-02 0. 0. 0. 0.
      0. 0. 0. 0. 0. 0. 0. 0. 0. 0. 0. 0. 0. 0. 0. 0. 0. 0. 0. 0. 0. 0.
      0. 0. 0. 0. 0. 0. 0. 0. 0. 0. 0. 0. 0. 0. 0. 0. 0. 0. 0. 0.
      1.31578948e-02 0. 0. 0. 0. 0. 0. 0. 1.31578948e-02 0. 0. 0.
      1.31578948e-02 0. 0. 0. 0. 0. 0. 0. 0. 1.31578948e-02 0. 0. 0. 0.
      0. 0. 0. 0. 0. 0. 0. 0. 0. 0. 0. 0. 0. 0. 0. 0. 0. 0. 0. 0. 0. 0.
      0. 0. 0. 0. 0. 0. 0. 0. 0. 0. 0. 1.31578948e-02 1.31578948e-02
      1.31578948e-02 0. 0. 0. 0. 0. 0. 0. 1.31578948e-02 0. 0. 0. 0. 0.
      0. 0. 0. 0. 0. 0. 0. 0. 0. 0. 0. 0. 0. 0. 0. 0. 0. 0. 0. 0. 0. 0.
      1.31578948e-02 0. 0. 0. 0. 0. 0. 0. 0. 0. 0. 0. 0. 0. 0. 0. 0. 0.
      1.31578948e-02 0. 0. 0. 0. 0. 0. 0. 0. 0. 0. 0. 0. 0. 0. 0. 0. 0.
      0. 0. 0. 0. 0. 0. 0. 0. 0. 0. 0. 0. 0. 0. 0. 1.31578948e-02 0.
      1.31578948e-02 0. 0. 0. 0. 0. 0. 0. 0. 0. 0. 0. 0. 1.31578948e-02
      0. 0. 0. 0. 0. 0. 0. 0. 0. 0. 0. 0. 0. 0. 0. 0. 0. 0. 0. 0. 0. 0.
      1.31578948e-02 0. 1.31578948e-02 0. 0. 0. 0. 0. 0. 0. 0. 0. 0. 0.
      0. 0. 1.31578948e-02 0. 0. 0. 0. 0. 0. 0. 0. 0. 0. 1.31578948e-02
      0. 0. 0. 0. 0. 0. 0. 0. 0. 0. 0. 0. 0. 0. 0. 0. 0. 0. 0. 0. 0. 0.
      0. 0. 0. 0. 0. 0. 0. 0. 0. 0. 0. 0. 0. 0. 0. 0. 0. 0. 0. 0. 0. 0.
      0. 0. 0. 0. 0. 0. 0. 0. 0. 0. 0. 0. 0. 0. 0. 0. 0. 1.31578948e-02
      0. 0. 0. 0. 1.31578948e-02 0. 0. 1.31578948e-02 0. 1.31578948e-02
      0. 0. 0. 0. 0. 0. 1.31578948e-02 0. 0. 0. 0. 0. 0. 0. 0. 0. 0.
      1.31578948e-02 0. 0. 0. 0. 0. 0. 0. 0. 0. 0. 0. 0. 0. 0. 0. 0.
      1.31578948e-02 0. 0. 0. 0. 1.31578948e-02 0. 0. 0. 0. 0. 0. 0. 0.
      0. 0. 0. 0. 0. 0. 0. 0. 0. 0. 0. 0. 0. 0. 0. 0. 0. 1.31578948e-02
      0. 0. 0. 0. 0. 0. 0. 0. 0. 0. 0. 0. 0. 0. 0. 0. 0. 0. 0. 0. 0. 0.
      0. 0. 0. 0. 0. 0. 0. 0. 0. 1.31578948e-02 0. 0. 0. 0. 0. 0. 0. 0.
      1.31578948e-02 0. 0. 0. 1.31578948e-02 0. 0. 0. 0. 0. 0. 0. 0. 0.
      0. 0. 0. 1.31578948e-02 0. 0. 0. 0. 0. 0. 0. 0. 0. 0. 0. 0. 0. 0.
      0. 0. 0. 0. 0. 0. 0. 0. 0. 0. 0. 0. 0. 0. 0. 0. 0. 0. 0. 0. 0. 0.
      0. 0. 0. 0. 0. 0. 0. 0. 0. 0. 0. 0. 0. 0. 0. 0. 0. 0. 0. 0. 0. 0.
      0. 0. 1.31578948e-02 0. 0. 0. 0. 0. 0. 0. 0. 0. 0. 0. 0. 0. 0. 0.
      0. 0. 0. 0. 0. 0. 0. 0. 1.31578948e-02 0. 0. 0. 0. 0. 0. 0. 0. 0.
      0. 0. 0. 0. 0. 0. 0. 0. 0. 0. 0. 0. 0. 0. 0. 0. 1.31578948e-02 0.
      0. 0. 0. 1.31578948e-02 0. 0. 0. 1.31578948e-02 0. 0. 0. 0. 0. 0.
      0. 0. 0. 0. 0. 0. 0. 1.31578948e-02 0. 0. 0. 0. 2.63157897e-02 0.
      0. 0. 0. 0. 0. 0. 0. 0. 0. 0. 0. 0. 0. 0. 0. 0. 0. 0. 0. 0. 0.
      2.63157897e-02 0. 1.31578948e-02 0. 0. 0. 0. 0. 0. 0. 0. 0. 0. 0.
      0. 0. 0. 0. 0. 0. 0. 0. 0. 0. 0. 0. 0. 0. 0. 0. 0. 0. 0. 0. 0. 0.
      0. 0. 0. 0. 0. 2.63157897e-02 0. 0. 0. 0. 0. 0. 0. 0. 0. 0. 0. 0.
      0. 0. 0. 0. 0. 0. 0. 0. 0. 0. 0. 2.63157897e-02 0. 0. 0. 0. 0.
      1.31578948e-02 0. 0. 0. 0. 0. 0. 0. 0. 0. 0. 0. 0. 0. 0. 0. 0.
      1.31578948e-02 0. 0. 0. 0. 0. 0. 0. 0. 0. 0. 0. 0. 0. 0. 0. 0. 0.
      0. 0. 1.31578948e-02 0. 0. 0. 0. 0. 1.31578948e-02 0. 0. 0.</_>
    <_>
      0. 0. 0. 0. 0. 0. 0. 0. 0. 1.17647061e-02 0. 0. 0. 0. 0. 0.
      1.17647061e-02 0. 0. 0. 0. 0. 0. 0. 0. 0. 0. 1.17647061e-02 0. 0.
      0. 0. 0. 0. 0. 0. 0. 0. 0. 0. 1.17647061e-02 0. 0. 0. 0.
      1.17647061e-02 0. 0. 0. 0. 0. 0. 0. 0. 0. 0. 0. 1.17647061e-02 0.
      0. 0. 0. 0. 0. 0. 0. 0. 0. 0. 0. 0. 0. 0. 0. 0. 0. 0. 0. 0. 0. 0.
      0. 0. 0. 0. 1.17647061e-02 0. 0. 0. 1.17647061e-02 0. 0. 0. 0. 0.
      0. 0. 0. 0. 0. 0. 1.17647061e-02 0. 0. 0. 0. 0. 0. 0. 0. 0. 0. 0.
      0. 0. 0. 1.17647061e-02 0. 0. 0. 0. 0. 0. 0. 0. 0. 0.
      1.17647061e-02 0. 0. 1.17647061e-02 0. 0. 0. 0. 0. 0. 0. 0. 0. 0.
      0. 0. 0. 0. 0. 0. 0. 0. 0. 0. 0. 0. 0. 0. 0. 0. 0. 0. 0. 0. 0.
      1.17647061e-02 0. 0. 1.17647061e-02 1.17647061e-02 0. 0. 0. 0. 0.
      0. 0. 0. 0. 0. 0. 0. 0. 0. 0. 0. 0. 0. 0. 1.17647061e-02 0. 0. 0.
      0. 0. 0. 0. 0. 1.17647061e-02 0. 0. 0. 1.17647061e-02 0. 0. 0. 0.
      0. 1.17647061e-02 0. 0. 0. 0. 0. 0. 0. 0. 0. 0. 0. 1.17647061e-02
      0. 0. 0. 0. 0. 1.17647061e-02 0. 0. 0. 0. 0. 0. 0. 0. 0.
      1.17647061e-02 0. 0. 0. 0. 0. 0. 0. 0. 0. 0. 0. 1.17647061e-02 0.
      0. 0. 0. 1.17647061e-02 0. 0. 0. 0. 0. 0. 0. 0. 0. 0. 0.
      1.17647061e-02 0. 0. 0. 1.17647061e-02 0. 0. 0. 0. 0. 0. 0.
      1.17647061e-02 0. 0. 0. 0. 0. 0. 0. 0. 0. 0. 0. 0. 0. 0. 0. 0. 0.
      0. 0. 0. 0. 1.17647061e-02 0. 0. 1.17647061e-02 0. 0. 0. 0. 0. 0.
      1.17647061e-02 0. 0. 1.17647061e-02 0. 0. 0. 0. 0. 0. 0. 0.
      1.17647061e-02 1.17647061e-02 0. 0. 0. 0. 0. 0. 0. 1.17647061e-02
      0. 0. 0. 1.17647061e-02 0. 0. 0. 0. 0. 0. 0. 1.17647061e-02 0. 0.
      0. 0. 0. 0. 0. 0. 0. 0. 0. 0. 0. 0. 1.17647061e-02 0. 0. 0. 0. 0.
      0. 0. 0. 0. 0. 0. 0. 0. 0. 0. 1.17647061e-02 0. 0. 0. 0. 0. 0. 0.
      0. 0. 0. 0. 0. 0. 0. 0. 0. 1.17647061e-02 0. 0. 0. 0. 0.
      1.17647061e-02 0. 0. 0. 0. 0. 0. 0. 0. 0. 0. 0. 0. 0. 0.
      1.17647061e-02 0. 0. 0. 1.17647061e-02 0. 0. 0. 0. 1.17647061e-02
      0. 0. 0. 0. 0. 0. 0. 0. 0. 0. 0. 0. 0. 0. 0. 0. 0. 0. 0. 0. 0. 0.
      0. 0. 0. 0. 1.17647061e-02 0. 2.35294122e-02 0. 0. 0. 0. 0. 0. 0.
      0. 0. 0. 0. 0. 0. 1.17647061e-02 0. 0. 0. 0. 0. 0. 0. 0. 0. 0. 0.
      0. 0. 0. 0. 0. 0. 0. 1.17647061e-02 0. 0. 0. 1.17647061e-02 0. 0.
      0. 0. 1.17647061e-02 0. 0. 0. 0. 0. 0. 0. 0. 0. 0. 0. 0. 0. 0. 0.
      0. 0. 0. 1.17647061e-02 0. 0. 0. 0. 0. 0. 0. 0. 0. 0. 0. 0. 0. 0.
      2.35294122e-02 0. 0. 0. 0. 0. 0. 0. 0. 1.17647061e-02 0. 0. 0. 0.
      0. 0. 0. 0. 0. 0. 0. 0. 0. 0. 0. 0. 1.17647061e-02 0. 0. 0. 0. 0.
      0. 1.17647061e-02 0. 0. 1.17647061e-02 0. 0. 0. 0. 0. 0. 0. 0. 0.
      0. 0. 0. 0. 0. 0. 0. 0. 0. 0. 0. 1.17647061e-02 0. 0. 0. 0. 0. 0.
      0. 0. 0. 0. 0. 0. 0. 0. 0. 1.17647061e-02 0. 0. 0. 0.
      1.17647061e-02 0. 0. 0. 0. 0. 0. 0. 0. 0. 0. 0. 0. 0. 0. 0. 0. 0.
      0. 0. 0. 0. 0. 0. 0. 0. 0. 0. 1.17647061e-02 0. 0. 0. 0. 0. 0. 0.
      0. 0. 0. 0. 0. 0. 0. 0. 0. 0. 0. 0. 0. 0. 0. 0. 0. 0. 0. 0. 0. 0.
      0. 0. 0. 0. 1.17647061e-02 0. 0. 0. 0. 0. 0. 0. 0. 0. 0. 0. 0. 0.
      1.17647061e-02 0. 0. 0. 0. 1.17647061e-02 0. 0. 0. 0. 0. 0. 0. 0.
      1.17647061e-02 0. 0. 0. 0. 0. 0. 0. 0. 0. 0. 0. 0. 0. 0. 0. 0. 0.
      0. 0. 0. 0. 0. 0. 0. 0. 0. 0. 0. 0. 0. 0. 0. 0. 0. 1.17647061e-02
      0. 0. 1.17647061e-02 0. 0. 0. 0. 0. 0. 0. 0. 0. 0. 0. 0. 0. 0. 0.
      0. 0. 0. 1.17647061e-02 0. 1.17647061e-02 0. 0. 0. 0.
      1.17647061e-02 0. 0. 0. 0. 0. 0. 0. 0. 0. 0. 0. 0. 0. 0. 0. 0. 0.
      0. 0. 0. 0. 0. 0. 0. 0. 0. 0. 0. 0. 1.17647061e-02 0. 0. 0. 0. 0.
      0. 0. 0. 0. 0. 0. 0. 0. 0. 0. 0. 0. 0. 1.17647061e-02 0. 0. 0. 0.
      0. 0. 0. 0. 0. 0. 0. 0. 0. 1.17647061e-02 0. 0. 0. 0. 0. 0. 0. 0.
      0. 0. 0. 0. 0. 0. 0. 0. 0. 0. 0. 0. 0. 0. 0. 0. 0. 0. 0. 0. 0. 0.
      0. 0. 0. 0. 0. 0. 0. 0. 0. 0. 0. 0. 0. 3.52941193e-02 0. 0. 0. 0.
      0. 0. 0. 0. 1.17647061e-02 0. 0. 0. 0. 0. 0. 0. 0. 0. 0. 0. 0. 0.
      0. 0. 0. 0. 0. 0. 0. 0. 0. 0. 0. 0. 0. 0. 0. 0. 0. 0. 0. 0. 0. 0.
      0. 0. 0. 0. 0. 0. 0. 1.17647061e-02 0. 0. 0. 0. 0. 0. 0. 0. 0. 0.
      0. 0. 1.17647061e-02 1.17647061e-02 0. 0. 0. 0. 0. 0. 0. 0. 0. 0.
      0. 0. 0. 0. 0. 0. 0. 0. 0. 0. 0. 0. 0. 0. 0. 0. 0. 0. 0. 0. 0. 0.
      0. 0. 1.17647061e-02 0. 1.17647061e-02 0. 0. 0. 0. 0. 0. 0. 0.
      1.17647061e-02 0. 0. 1.17647061e-02 0. 0. 0. 0. 0. 0. 0. 0. 0. 0.
      0. 0. 0. 0. 0. 0. 0. 0. 0. 0. 0. 1.17647061e-02 0.</_>
    <_>
      0. 0. 0. 0. 0. 0. 0. 0. 0. 0. 0. 0. 0. 0. 3.50877196e-02
      8.77192989e-03 0. 0. 0. 0. 0. 0. 0. 0. 0. 8.77192989e-03 0. 0. 0.
      0. 0. 0. 0. 8.77192989e-03 0. 0. 0. 8.77192989e-03 0. 0. 0. 0.
      8.77192989e-03 0. 0. 0. 0. 0. 0. 0. 0. 0. 0. 0. 8.77192989e-03 0.
      0. 0. 0. 0. 0. 0. 0. 0. 0. 0. 0. 0. 8.77192989e-03 0. 0. 0. 0. 0.
      0. 0. 0. 8.77192989e-03 0. 0. 1.75438598e-02 0. 0. 0. 0. 0. 0. 0.
      1.75438598e-02 0. 0. 0. 0. 0. 0. 0. 0. 0. 0. 0. 0. 0.
      8.77192989e-03 0. 0. 0. 0. 0. 0. 0. 8.77192989e-03 0. 0. 0. 0. 0.
      0. 0. 0. 0. 0. 0. 8.77192989e-03 0. 0. 0. 0. 0. 0. 0. 0. 0. 0. 0.
      0. 0. 0. 0. 0. 0. 0. 0. 0. 0. 0. 0. 0. 0. 0. 0. 0. 0. 0.
      8.77192989e-03 0. 0. 8.77192989e-03 0. 0. 0. 0. 0. 0. 0. 0. 0. 0.
      0. 0. 0. 8.77192989e-03 0. 0. 0. 8.77192989e-03 0. 8.77192989e-03
      0. 0. 0. 0. 0. 0. 0. 0. 0. 0. 0. 0. 0. 0. 8.77192989e-03 0. 0. 0.
      0. 0. 0. 0. 0. 0. 0. 0. 0. 0. 0. 0. 0. 0. 0. 0. 0. 0.
      8.77192989e-03 0. 0. 0. 0. 0. 0. 0. 0. 0. 0. 0. 0. 0. 0. 0. 0. 0.
      0. 8.77192989e-03 8.77192989e-03 0. 0. 0. 0. 0. 0. 0. 0. 0. 0.
      8.77192989e-03 0. 0. 0. 0. 0. 0. 0. 0. 0. 0. 0. 0. 0. 0. 0. 0. 0.
      0. 8.77192989e-03 0. 0. 0. 8.77192989e-03 0. 0. 0. 0.
      8.77192989e-03 0. 0. 0. 0. 0. 0. 0. 0. 0. 0. 0. 0. 0. 0. 0. 0. 0.
      0. 0. 0. 0. 0. 0. 0. 0. 0. 8.77192989e-03 0. 0. 0. 0. 0. 0. 0. 0.
      0. 0. 0. 0. 0. 0. 0. 0. 0. 0. 0. 0. 0. 0. 0. 0. 0. 0. 0.
      8.77192989e-03 0. 0. 0. 0. 0. 0. 0. 0. 0. 0. 0. 0. 8.77192989e-03
      0. 2.63157897e-02 0. 0. 0. 0. 8.77192989e-03 0. 0. 0. 0.
      8.77192989e-03 0. 0. 0. 0. 1.75438598e-02 0. 0. 0. 0. 0. 0. 0. 0.
      0. 0. 0. 0. 8.77192989e-03 0. 0. 0. 0. 0. 0. 8.77192989e-03 0. 0.
      0. 0. 0. 0. 0. 0. 0. 0. 0. 0. 0. 0. 0. 0. 0. 0. 0. 0. 0. 0. 0. 0.
      0. 8.77192989e-03 0. 0. 0. 0. 8.77192989e-03 0. 0. 0. 0. 0. 0. 0.
      0. 0. 0. 0. 0. 0. 0. 0. 0. 0. 0. 0. 8.77192989e-03 0. 0. 0. 0.
      8.77192989e-03 1.75438598e-02 8.77192989e-03 0. 8.77192989e-03 0.
      0. 0. 0. 0. 0. 0. 0. 0. 0. 8.77192989e-03 0. 0. 0. 0. 0. 0. 0.
      8.77192989e-03 0. 8.77192989e-03 0. 0. 0. 0. 0. 0. 0. 0.
      8.77192989e-03 0. 0. 0. 0. 1.75438598e-02 0. 0. 0. 0. 0. 0.
      8.77192989e-03 0. 0. 0. 0. 0. 0. 0. 0. 0. 0. 0. 0. 0. 0. 0. 0. 0.
      0. 0. 0. 0. 0. 0. 0. 0. 0. 0. 0. 0. 8.77192989e-03 0. 0. 0. 0. 0.
      0. 8.77192989e-03 0. 0. 0. 8.77192989e-03 0. 8.77192989e-03
      8.77192989e-03 0. 0. 0. 0. 8.77192989e-03 8.77192989e-03 0. 0. 0.
      0. 0. 0. 0. 0. 0. 0. 8.77192989e-03 0. 0. 0. 0. 0. 0. 0.
      8.77192989e-03 0. 0. 0. 0. 0. 0. 0. 0. 0. 0. 0. 0. 0. 0.
      8.77192989e-03 0. 0. 0. 0. 0. 0. 0. 0. 0. 0. 8.77192989e-03 0. 0.
      0. 0. 0. 8.77192989e-03 0. 0. 0. 0. 0. 0. 0. 8.77192989e-03
      8.77192989e-03 0. 0. 0. 0. 0. 0. 0. 0. 0. 0. 0. 0. 0. 0. 0. 0. 0.
      0. 0. 0. 0. 0. 0. 0. 0. 0. 1.75438598e-02 0. 0. 0. 0. 0. 0. 0. 0.
      0. 0. 0. 0. 0. 0. 8.77192989e-03 0. 0. 0. 0. 0. 0. 0. 0. 0. 0. 0.
      0. 0. 8.77192989e-03 0. 0. 0. 0. 0. 0. 0. 0. 0. 0. 0. 0. 0. 0. 0.
      0. 0. 0. 0. 0. 8.77192989e-03 0. 0. 8.77192989e-03 0. 0. 0.
      1.75438598e-02 0. 0. 0. 0. 8.77192989e-03 0. 0. 0. 0. 0. 0. 0. 0.
      0. 0. 0. 8.77192989e-03 0. 0. 0. 0. 0. 0. 0. 0. 1.75438598e-02 0.
      0. 0. 0. 0. 0. 0. 0. 0. 0. 0. 0. 0. 0. 0. 0. 0. 0. 0. 0. 0. 0. 0.
      0. 0. 0. 0. 0. 0. 0. 0. 8.77192989e-03 0. 0. 0. 0. 0. 0. 0. 0. 0.
      0. 0. 0. 0. 0. 0. 0. 0. 0. 0. 0. 0. 0. 0. 0. 0. 0. 0. 0. 0. 0. 0.
      0. 0. 0. 0. 0. 0. 8.77192989e-03 0. 0. 0. 0. 0. 0. 0. 0. 0.
      8.77192989e-03 0. 0. 0. 0. 0. 8.77192989e-03 0. 0. 0. 0. 0. 0. 0.
      8.77192989e-03 0. 0. 0. 0. 0. 0. 0. 0. 0. 8.77192989e-03 0. 0. 0.
      0. 8.77192989e-03 0. 8.77192989e-03 0. 0. 0. 0. 0. 0. 0. 0. 0. 0.
      0. 0. 0. 0. 0. 8.77192989e-03 8.77192989e-03 0. 0. 0. 0. 0. 0. 0.
      0. 0. 0. 0. 0. 0. 0. 0. 0. 8.77192989e-03 0. 0. 0. 8.77192989e-03
      0. 0. 8.77192989e-03 0. 0. 0. 0. 0. 0. 0. 8.77192989e-03 0.
      8.77192989e-03 0. 0. 0. 0. 0. 0. 0. 0. 0. 0. 0. 8.77192989e-03 0.
      8.77192989e-03 0. 0. 0. 0. 0. 0. 0. 0. 0. 0. 0. 0. 0. 0. 0. 0. 0.
      0. 8.77192989e-03 1.75438598e-02 0. 0. 0. 0. 0. 0. 0. 0. 0. 0. 0.
      8.77192989e-03 0. 0. 0. 0. 0. 0. 0. 0. 0. 0. 0. 0. 0. 0. 0. 0. 0.
      0. 0. 0. 0. 0. 0. 0. 0. 0. 0. 0. 1.75438598e-02 0. 0. 0. 0. 0. 0.
      0. 0. 0. 0. 0. 0. 0. 0. 0. 0. 0. 0. 0. 0. 1.75438598e-02 0. 0. 0.
      8.77192989e-03 0. 0. 0. 0. 0. 0. 0. 0. 0. 0. 0. 0. 0. 0. 0. 0. 0.
      0. 0. 0. 0. 0. 0. 0. 0. 0. 1.75438598e-02 0. 0. 0. 0. 0. 0. 0. 0.
      8.77192989e-03 0. 0.</_>
    <_>
      0. 0. 1.19047621e-02 0. 0. 0. 0. 0. 0. 0. 0. 0. 0. 0. 0. 0. 0. 0.
      0. 0. 0. 0. 0. 0. 0. 0. 0. 0. 0. 1.19047621e-02 0. 0. 0. 0. 0. 0.
      0. 0. 0. 0. 0. 0. 0. 1.19047621e-02 0. 1.19047621e-02 0. 0. 0. 0.
      0. 0. 0. 0. 0. 0. 0. 0. 0. 0. 0. 0. 0. 1.19047621e-02 0.
      1.19047621e-02 0. 0. 0. 0. 0. 0. 0. 0. 0. 0. 0. 0. 0. 0. 0. 0. 0.
      0. 0. 0. 0. 0. 0. 0. 0. 0. 0. 0. 0. 0. 1.19047621e-02 0. 0.
      1.19047621e-02 0. 0. 0. 0. 0. 0. 0. 0. 0. 0. 0. 0. 0. 0. 0. 0. 0.
      0. 0. 0. 0. 1.19047621e-02 0. 0. 0. 0. 0. 0. 0. 0. 0. 0. 0. 0. 0.
      0. 1.19047621e-02 0. 0. 1.19047621e-02 0. 0. 1.19047621e-02 0. 0.
      0. 0. 0. 0. 0. 0. 0. 0. 0. 0. 0. 1.19047621e-02 0. 0. 0. 0.
      2.38095243e-02 0. 0. 0. 0. 0. 0. 0. 0. 0. 0. 0. 0. 1.19047621e-02
      0. 0. 0. 0. 0. 0. 0. 0. 0. 0. 0. 0. 0. 0. 0. 0. 1.19047621e-02 0.
      1.19047621e-02 0. 0. 0. 0. 0. 0. 0. 0. 0. 0. 0. 0. 0. 0. 0. 0.
      1.19047621e-02 0. 0. 0. 0. 0. 0. 0. 0. 0. 0. 0. 1.19047621e-02 0.
      0. 0. 1.19047621e-02 0. 0. 0. 0. 0. 0. 0. 0. 0. 0. 0. 0. 0. 0. 0.
      0. 0. 1.19047621e-02 1.19047621e-02 0. 0. 0. 0. 0. 0. 0. 0. 0. 0.
      0. 0. 0. 0. 0. 0. 0. 0. 0. 0. 0. 0. 0. 0. 0. 0. 0. 0. 0. 0. 0. 0.
      0. 1.19047621e-02 0. 0. 0. 0. 0. 0. 1.19047621e-02 0. 0.
      1.19047621e-02 0. 0. 0. 0. 0. 0. 0. 0. 0. 1.19047621e-02 0. 0. 0.
      0. 0. 0. 0. 1.19047621e-02 1.19047621e-02 0. 0. 0. 0. 0.
      2.38095243e-02 0. 0. 0. 1.19047621e-02 0. 0. 0. 0. 0. 0. 0. 0. 0.
      0. 0. 0. 0. 0. 0. 0. 0. 0. 0. 0. 1.19047621e-02 1.19047621e-02 0.
      0. 0. 1.19047621e-02 1.19047621e-02 0. 0. 0. 0. 0. 0. 0. 0. 0. 0.
      0. 0. 0. 0. 0. 0. 0. 0. 0. 0. 0. 0. 0. 0. 0. 0. 0. 0.
      2.38095243e-02 0. 0. 1.19047621e-02 0. 0. 0. 0. 0. 0. 0. 0. 0. 0.
      0. 0. 0. 0. 0. 0. 0. 0. 0. 0. 1.19047621e-02 0. 0. 0.
      1.19047621e-02 0. 0. 0. 0. 0. 0. 1.19047621e-02 0. 0. 0. 0. 0. 0.
      0. 0. 0. 1.19047621e-02 0. 0. 0. 0. 0. 0. 0. 0. 0. 0. 0. 0.
      1.19047621e-02 0. 0. 0. 0. 1.19047621e-02 0. 0. 0. 0. 0. 0.
      1.19047621e-02 0. 1.19047621e-02 0. 0. 0. 0. 0. 0. 0. 0. 0. 0. 0.
      0. 0. 0. 0. 0. 0. 0. 0. 0. 0. 0. 0. 0. 0. 0. 0. 0. 0. 0. 0. 0. 0.
      0. 0. 0. 0. 0. 0. 0. 0. 0. 0. 0. 0. 0. 0. 0. 0. 0. 1.19047621e-02
      0. 0. 0. 0. 0. 0. 0. 0. 0. 0. 0. 0. 0. 1.19047621e-02 0. 0. 0. 0.
      0. 0. 0. 0. 0. 0. 0. 0. 0. 0. 0. 0. 0. 0. 0. 0. 0. 0.
      1.19047621e-02 0. 0. 0. 0. 0. 0. 0. 0. 0. 0. 0. 0. 1.19047621e-02
      0. 0. 0. 0. 0. 0. 0. 0. 0. 0. 0. 0. 0. 1.19047621e-02 0. 0. 0. 0.
      0. 0. 0. 0. 0. 0. 0. 0. 0. 0. 0. 0. 0. 0. 0. 0. 0. 1.19047621e-02
      0. 0. 0. 0. 0. 0. 0. 0. 0. 0. 0. 0. 0. 0. 0. 0. 0. 0. 0. 0. 0. 0.
      0. 0. 0. 0. 0. 0. 0. 0. 0. 0. 0. 0. 0. 0. 0. 0. 0. 0. 0. 0. 0. 0.
      0. 1.19047621e-02 0. 0. 0. 0. 0. 0. 0. 0. 0. 0. 1.19047621e-02 0.
      0. 0. 0. 0. 0. 0. 0. 0. 0. 0. 0. 0. 0. 0. 0. 0. 0. 0. 0. 0. 0.
      1.19047621e-02 1.19047621e-02 0. 0. 0. 0. 0. 0. 0. 0. 0. 0.
      2.38095243e-02 0. 0. 0. 1.19047621e-02 0. 0. 0. 0. 0. 0. 0. 0.
      1.19047621e-02 0. 0. 0. 0. 0. 2.38095243e-02 0. 0. 0. 0. 0. 0. 0.
      0. 0. 1.19047621e-02 0. 0. 0. 0. 0. 0. 0. 0. 0. 0. 0. 0. 0. 0. 0.
      0. 0. 0. 0. 0. 0. 0. 0. 0. 0. 0. 0. 0. 0. 0. 0. 0. 0. 0. 0. 0. 0.
      0. 0. 0. 0. 0. 0. 0. 0. 1.19047621e-02 1.19047621e-02 0. 0. 0. 0.
      0. 0. 0. 0. 0. 0. 0. 0. 0. 0. 0. 0. 0. 0. 0. 0. 0. 0. 0.
      1.19047621e-02 0. 0. 0. 0. 0. 0. 0. 0. 0. 0. 0. 0. 0. 0. 0. 0. 0.
      0. 0. 0. 0. 0. 0. 0. 0. 0. 0. 0. 0. 0. 0. 0. 0. 0. 0. 0. 0. 0. 0.
      0. 0. 0. 0. 0. 1.19047621e-02 0. 0. 0. 0. 0. 0. 0. 0. 0. 0. 0. 0.
      0. 0. 0. 1.19047621e-02 0. 0. 0. 0. 0. 1.19047621e-02 0. 0. 0. 0.
      0. 1.19047621e-02 0. 0. 0. 0. 0. 0. 0. 0. 0. 0. 0. 0. 0. 0. 0. 0.
      0. 0. 1.19047621e-02 0. 0. 0. 0. 0. 0. 0. 0. 0. 0. 1.19047621e-02
      0. 0. 0. 0. 0. 0. 0. 0. 0. 0. 0. 0. 0. 1.19047621e-02 0. 0. 0. 0.
      0. 0. 0. 0. 0. 0. 0. 0. 0. 1.19047621e-02 0. 0. 0. 0.
      1.19047621e-02 0. 1.19047621e-02 1.19047621e-02 0. 0. 0. 0. 0. 0.
      0. 0. 0. 0. 0. 0. 0. 0. 0. 0. 0. 1.19047621e-02 0. 0. 0. 0. 0. 0.
      0. 0. 0. 0. 0. 0. 0. 0. 0. 0. 0. 0. 0. 0. 0. 0. 0. 0. 0. 0. 0.
      1.19047621e-02 0. 0. 1.19047621e-02 1.19047621e-02 0. 0. 0. 0. 0.
      0. 0. 1.19047621e-02 0. 1.19047621e-02 0. 0. 0. 0. 0. 0. 0. 0. 0.
      0. 0. 0. 0. 0. 0. 0. 0. 0. 0. 0. 0. 0. 0. 0. 0.</_>
    <_>
      0. 0. 0. 0. 0. 0. 0. 0. 0. 0. 0. 0. 0. 0. 0. 0. 2.38095243e-02 0.
      0. 0. 0. 0. 2.38095243e-02 0. 0. 2.38095243e-02 2.38095243e-02 0.
      2.38095243e-02 0. 0. 0. 0. 0. 0. 0. 0. 0. 0. 0. 0. 0.
      2.38095243e-02 0. 0. 0. 0. 0. 0. 0. 0. 0. 0. 0. 0. 0. 0. 0. 0. 0.
      0. 0. 0. 0. 0. 0. 0. 0. 0. 0. 0. 0. 0. 0. 0. 0. 0. 0. 0. 0. 0. 0.
      0. 0. 0. 0. 0. 0. 0. 0. 0. 0. 0. 0. 0. 0. 2.38095243e-02 0.
      2.38095243e-02 0. 0. 0. 0. 0. 0. 0. 0. 0. 0. 0. 0. 0. 0. 0. 0. 0.
      0. 0. 0. 0. 0. 0. 0. 0. 0. 0. 0. 0. 0. 0. 0. 0. 0. 0. 0. 0. 0. 0.
      0. 0. 0. 0. 0. 0. 0. 0. 0. 0. 0. 0. 0. 0. 2.38095243e-02 0. 0. 0.
      0. 0. 0. 0. 0. 0. 0. 0. 0. 0. 0. 0. 0. 0. 0. 0. 0. 0. 0. 0. 0.
      2.38095243e-02 0. 0. 0. 0. 0. 0. 0. 0. 0. 0. 0. 0. 0. 0. 0. 0. 0.
      0. 0. 0. 2.38095243e-02 0. 0. 0. 0. 0. 0. 0. 0. 0. 0. 0. 0. 0. 0.
      0. 0. 0. 0. 0. 0. 0. 0. 0. 0. 0. 2.38095243e-02 0. 0. 0. 0. 0. 0.
      0. 0. 0. 0. 0. 0. 2.38095243e-02 0. 0. 0. 0. 0. 0. 0. 0. 0. 0. 0.
      0. 0. 0. 0. 0. 0. 0. 0. 0. 0. 0. 0. 0. 0. 0. 0. 0. 0. 0. 0. 0. 0.
      0. 0. 0. 0. 0. 0. 0. 0. 0. 0. 0. 0. 0. 0. 0. 0. 0. 0. 0. 0. 0. 0.
      0. 0. 0. 0. 0. 0. 0. 0. 0. 0. 0. 0. 4.76190485e-02 0. 0. 0. 0. 0.
      0. 0. 0. 2.38095243e-02 0. 0. 0. 0. 0. 0. 0. 0. 0. 0. 0. 0. 0. 0.
      0. 0. 0. 0. 0. 0. 0. 0. 0. 0. 0. 0. 0. 0. 0. 0. 0. 0. 0. 0. 0. 0.
      0. 0. 0. 0. 0. 0. 0. 0. 0. 0. 0. 0. 0. 0. 2.38095243e-02 0. 0. 0.
      0. 0. 0. 0. 0. 0. 0. 2.38095243e-02 0. 2.38095243e-02 0. 0. 0. 0.
      0. 0. 0. 0. 0. 0. 0. 0. 0. 0. 0. 0. 0. 0. 0. 0. 0. 2.38095243e-02
      0. 0. 0. 0. 0. 0. 0. 0. 0. 0. 0. 0. 0. 0. 0. 0. 0. 0. 0.
      2.38095243e-02 2.38095243e-02 0. 0. 0. 0. 2.38095243e-02 0. 0. 0.
      0. 0. 0. 0. 0. 0. 0. 0. 0. 0. 0. 0. 0. 0. 0. 0. 0. 0. 0. 0. 0. 0.
      0. 0. 0. 0. 0. 0. 0. 0. 0. 0. 0. 0. 0. 0. 0. 0. 0. 2.38095243e-02
      0. 0. 0. 0. 0. 0. 0. 0. 2.38095243e-02 0. 0. 0. 0. 0.
      2.38095243e-02 0. 0. 0. 0. 0. 0. 0. 0. 0. 0. 0. 0. 0. 0. 0. 0. 0.
      0. 0. 0. 0. 0. 0. 0. 0. 0. 0. 0. 0. 0. 0. 0. 0. 0. 0. 0. 0. 0. 0.
      0. 0. 0. 0. 0. 2.38095243e-02 0. 0. 0. 0. 2.38095243e-02 0.
      2.38095243e-02 0. 0. 0. 0. 0. 0. 0. 0. 0. 0. 0. 0. 0. 0. 0. 0.
      2.38095243e-02 0. 2.38095243e-02 0. 0. 0. 0. 0. 0. 0. 0. 0. 0. 0.
      2.38095243e-02 0. 0. 0. 0. 0. 0. 0. 0. 0. 0. 0. 0. 0. 0. 0. 0. 0.
      0. 0. 0. 0. 0. 0. 0. 0. 0. 0. 0. 0. 0. 0. 0. 0. 0. 0. 0. 0. 0. 0.
      0. 0. 0. 0. 0. 0. 0. 0. 0. 0. 0. 0. 2.38095243e-02 0. 0. 0. 0. 0.
      0. 0. 0. 0. 0. 0. 0. 0. 0. 0. 0. 0. 0. 0. 0. 2.38095243e-02 0. 0.
      0. 0. 0. 0. 0. 0. 0. 0. 0. 0. 0. 0. 0. 0. 0. 0. 0. 0. 0. 0. 0. 0.
      0. 0. 0. 0. 0. 0. 0. 0. 0. 0. 0. 0. 0. 0. 0. 0. 0. 0. 0. 0. 0. 0.
      0. 0. 0. 0. 0. 0. 0. 0. 0. 0. 0. 0. 0. 0. 0. 0. 0. 0. 0. 0. 0. 0.
      0. 2.38095243e-02 0. 0. 0. 0. 0. 0. 0. 0. 0. 0. 0. 0. 0. 0. 0. 0.
      0. 0. 0. 0. 0. 0. 0. 0. 0. 0. 2.38095243e-02 0. 0. 0. 0. 0. 0. 0.
      2.38095243e-02 0. 0. 0. 0. 0. 0. 0. 0. 0. 0. 0. 0. 0.
      2.38095243e-02 0. 0. 0. 0. 0. 0. 0. 0. 0. 0. 0. 0. 0. 0. 0. 0. 0.
      0. 0. 0. 0. 0. 0. 0. 0. 0. 0. 0. 0. 0. 0. 0. 0. 0. 0. 0. 0. 0. 0.
      0. 0. 0. 0. 0. 0. 0. 0. 0. 0. 0. 0. 0. 0. 0. 0. 0. 0. 0. 0.
      2.38095243e-02 0. 0. 0. 0. 0. 0. 0. 0. 0. 0. 0. 0. 0. 0. 0. 0. 0.
      0. 0. 0. 0. 0. 0. 0. 0. 0. 0. 0. 0. 0. 0. 0. 0. 0. 0. 0. 0. 0. 0.
      0. 0. 0. 0. 0. 0. 0. 0. 0. 0. 0. 0. 0. 0. 0. 0. 0. 0. 0. 0. 0. 0.
      0. 0. 0. 0. 0. 0. 0. 0. 0. 0. 0. 0. 0. 0. 0. 0. 0. 0. 0. 0. 0. 0.
      0. 0. 0. 0. 0. 0. 0. 0. 0. 0. 0. 0. 0. 0. 0. 0. 0. 0. 0. 0. 0. 0.
      0. 0. 0. 0. 0. 0. 0. 0. 0. 0. 0. 0. 0. 0. 0. 0. 0. 0. 0. 0. 0. 0.
      0. 0. 0. 0. 0. 0. 0. 0. 2.38095243e-02 0. 0. 0. 0. 0. 0. 0. 0. 0.
      0. 0. 0. 0. 0. 0. 0. 0. 0. 0. 0. 2.38095243e-02 0. 0. 0. 0. 0. 0.
      0. 0. 0. 0. 0. 0. 0. 0. 0. 0. 0. 0. 0. 0. 2.38095243e-02 0. 0.</_>
    <_>
      0. 0. 0. 0. 0. 0. 0. 0. 0. 0. 0. 0. 0. 0. 0. 0. 0. 0. 0. 0. 0. 0.
      0. 0. 0. 0. 0. 0. 0. 0. 0. 0. 0. 0. 0. 0. 0. 0. 0. 0. 0. 0. 0.
      4.65116277e-02 0. 0. 0. 0. 0. 0. 0. 0. 0. 4.65116277e-02 0.
      2.32558139e-02 2.32558139e-02 0. 0. 0. 0. 0. 0. 0. 0. 0. 0. 0. 0.
      0. 0. 0. 0. 0. 0. 0. 0. 0. 0. 0. 0. 0. 0. 0. 0. 0. 0. 0. 0. 0. 0.
      0. 0. 0. 0. 0. 0. 0. 0. 0. 0. 0. 0. 0. 0. 0. 0. 0. 0. 0. 0. 0. 0.
      0. 0. 0. 2.32558139e-02 0. 0. 0. 0. 0. 0. 0. 0. 0. 0. 0. 0. 0. 0.
      0. 0. 0. 0. 0. 0. 0. 0. 2.32558139e-02 0. 0. 0. 0. 0. 0. 0. 0. 0.
      0. 0. 0. 0. 0. 0. 0. 0. 0. 0. 0. 0. 0. 0. 0. 0. 0. 0. 0. 0.
      2.32558139e-02 0. 0. 0. 0. 0. 0. 0. 0. 0. 0. 0. 0. 0. 0. 0. 0. 0.
      0. 0. 0. 0. 0. 0. 2.32558139e-02 0. 0. 0. 0. 0. 0. 0. 0. 0. 0. 0.
