<?xml version="1.0"?>
<opencv_storage>
<my_svm type_id="opencv-ml-svm">
  <svm_type>NU_SVC</svm_type>
  <kernel><type>RBF</type>
    <gamma>1.</gamma></kernel>
  <nu>5.0000000000000003e-02</nu>
  <term_criteria><epsilon>2.2204460492503131e-16</epsilon>
    <iterations>5000</iterations></term_criteria>
  <var_all>1000</var_all>
  <var_count>1000</var_count>
  <class_count>2</class_count>
  <class_labels type_id="opencv-matrix">
    <rows>1</rows>
    <cols>2</cols>
    <dt>i</dt>
    <data>
      0 1</data></class_labels>
  <sv_total>479</sv_total>
  <support_vectors>
    <_>
      0. 0. 0. 0. 0. 0. 0. 0. 0. 0. 0. 0. 0. 0. 0. 0. 0. 0. 0. 0. 0. 0.
      0. 0. 0. 0. 0. 0. 0. 0. 1.17647061e-02 0. 0. 0. 0. 0. 0. 0. 0. 0.
      0. 0. 0. 0. 0. 0. 0. 0. 0. 0. 0. 0. 0. 0. 0. 0. 0. 0. 0. 0. 0. 0.
      1.17647061e-02 0. 0. 0. 0. 0. 0. 0. 0. 0. 1.17647061e-02 0. 0. 0.
      0. 0. 0. 0. 0. 1.17647061e-02 0. 0. 0. 0. 0. 0. 0. 0. 0. 0. 0. 0.
      0. 0. 0. 0. 0. 0. 1.17647061e-02 0. 0. 0. 0. 0. 0. 0. 0. 0. 0. 0.
      0. 0. 0. 0. 0. 0. 0. 0. 0. 0. 0. 0. 1.17647061e-02 1.17647061e-02
      1.17647061e-02 0. 0. 0. 0. 0. 0. 0. 0. 0. 0. 0. 0. 0. 0. 0. 0. 0.
      0. 0. 0. 0. 0. 0. 0. 0. 0. 0. 0. 0. 0. 0. 0. 0. 0. 0. 0. 0. 0. 0.
      0. 0. 0. 0. 0. 0. 0. 0. 0. 0. 0. 0. 0. 0. 0. 0. 0. 0. 0. 0. 0. 0.
      0. 0. 1.17647061e-02 0. 0. 0. 0. 0. 0. 1.17647061e-02 0. 0. 0. 0.
      0. 0. 0. 0. 0. 0. 0. 1.17647061e-02 0. 0. 0. 0. 0. 0. 0. 0. 0. 0.
      0. 0. 0. 0. 0. 0. 0. 0. 0. 0. 0. 0. 0. 1.17647061e-02 0.
      1.17647061e-02 1.17647061e-02 0. 0. 0. 1.17647061e-02 0. 0. 0. 0.
      1.17647061e-02 0. 0. 0. 1.17647061e-02 0. 0. 0. 0. 0. 0. 0. 0. 0.
      0. 0. 0. 0. 0. 0. 0. 0. 1.17647061e-02 0. 1.17647061e-02 0. 0. 0.
      0. 0. 0. 0. 0. 0. 0. 0. 0. 0. 0. 0. 0. 0. 0. 0. 0. 0. 0. 0. 0. 0.
      0. 0. 0. 0. 0. 0. 0. 2.35294122e-02 0. 0. 0. 0. 0. 0. 0. 0. 0. 0.
      0. 0. 0. 0. 0. 1.17647061e-02 0. 0. 0. 2.35294122e-02 0. 0. 0. 0.
      0. 0. 0. 0. 0. 1.17647061e-02 0. 0. 0. 0. 0. 0. 0. 0. 0. 0. 0. 0.
      0. 0. 0. 0. 0. 0. 0. 0. 0. 0. 0. 0. 0. 3.52941193e-02 0. 0. 0. 0.
      0. 0. 0. 0. 0. 0. 0. 0. 0. 0. 0. 0. 0. 0. 0. 0. 0. 0. 0. 0. 0. 0.
      0. 0. 0. 0. 0. 0. 0. 0. 0. 0. 0. 0. 0. 0. 0. 0. 0. 1.17647061e-02
      0. 0. 0. 0. 0. 0. 0. 0. 0. 0. 2.35294122e-02 0. 0. 0. 0. 0. 0. 0.
      0. 0. 1.17647061e-02 0. 0. 1.17647061e-02 0. 0. 0. 0. 0. 0. 0. 0.
      0. 0. 0. 0. 0. 1.17647061e-02 0. 0. 0. 0. 0. 0. 0. 0. 0. 0. 0. 0.
      0. 0. 1.17647061e-02 0. 0. 0. 0. 0. 0. 0. 0. 0. 0. 0. 0. 0. 0. 0.
      0. 0. 0. 0. 0. 0. 1.17647061e-02 0. 0. 0. 0. 0. 0. 0. 0. 0. 0. 0.
      0. 0. 1.17647061e-02 0. 0. 0. 0. 0. 0. 0. 0. 0. 0. 1.17647061e-02
      0. 0. 0. 0. 0. 0. 0. 0. 0. 0. 0. 3.52941193e-02 0. 0. 0. 0.
      1.17647061e-02 0. 0. 0. 0. 0. 1.17647061e-02 0. 0. 0. 0. 0. 0. 0.
      0. 0. 1.17647061e-02 0. 0. 0. 0. 0. 0. 0. 0. 0. 2.35294122e-02 0.
      0. 1.17647061e-02 1.17647061e-02 0. 0. 0. 0. 0. 0. 1.17647061e-02
      0. 0. 0. 0. 0. 0. 0. 0. 0. 1.17647061e-02 0. 0. 0. 0. 0. 0. 0.
      1.17647061e-02 0. 0. 0. 0. 0. 0. 0. 0. 0. 0. 0. 0. 0. 0. 0. 0. 0.
      0. 0. 0. 0. 0. 0. 0. 0. 1.17647061e-02 0. 0. 1.17647061e-02 0. 0.
      0. 0. 0. 0. 0. 0. 0. 0. 0. 0. 0. 0. 0. 0. 0. 0. 0. 0. 0. 0. 0. 0.
      0. 0. 0. 1.17647061e-02 0. 0. 0. 0. 0. 0. 0. 0. 0. 0. 0. 0. 0. 0.
      0. 0. 0. 1.17647061e-02 0. 0. 0. 1.17647061e-02 0. 0.
      1.17647061e-02 0. 0. 0. 0. 0. 0. 0. 0. 0. 0. 0. 0. 0. 0. 0. 0. 0.
      0. 0. 0. 0. 0. 0. 0. 0. 0. 0. 0. 0. 0. 0. 0. 0. 0. 0. 0. 0. 0. 0.
      0. 0. 0. 0. 2.35294122e-02 1.17647061e-02 0. 0. 0. 0. 0. 0.
      2.35294122e-02 0. 0. 0. 0. 0. 0. 0. 0. 0. 0. 0. 0. 0. 0. 0. 0.
      1.17647061e-02 0. 0. 1.17647061e-02 0. 0. 0. 0. 0. 0. 0. 0. 0. 0.
      0. 0. 0. 0. 0. 0. 0. 0. 0. 0. 0. 0. 0. 0. 0. 0. 0. 0. 0. 0. 0. 0.
      1.17647061e-02 0. 0. 0. 0. 0. 0. 1.17647061e-02 0. 0. 0. 0. 0. 0.
      0. 0. 0. 1.17647061e-02 0. 0. 0. 0. 0. 0. 2.35294122e-02 0. 0. 0.
      0. 0. 0. 0. 0. 0. 0. 0. 0. 0. 0. 0. 0. 1.17647061e-02 0. 0. 0.
      1.17647061e-02 0. 0. 1.17647061e-02 0. 0. 0. 0. 0. 0. 0. 0. 0. 0.
      0. 0. 0. 0. 0. 0. 0. 0. 0. 0. 0. 0. 0. 0. 0. 0. 0. 0. 0. 0. 0.
      1.17647061e-02 0. 0. 0. 0. 0. 0. 0. 1.17647061e-02 0. 0. 0. 0. 0.
      0. 0. 0. 0. 0. 0. 0. 0. 0. 0. 0. 0. 0. 0. 0. 0. 0. 1.17647061e-02
      0. 0. 0. 0. 0. 0. 0. 0. 0. 0. 0. 0. 0. 0. 0. 0. 0. 0. 0. 0. 0. 0.
      0. 1.17647061e-02 0. 1.17647061e-02 0. 0. 0. 0. 0. 0.
      1.17647061e-02 0. 0. 0. 0. 0. 0. 0. 0. 0. 0. 2.35294122e-02 0. 0.
      0. 0. 0. 0. 0. 0. 0. 0. 0. 0. 0. 0. 0. 0. 0. 0. 0. 0. 0. 0. 0. 0.
      0. 0. 1.17647061e-02 0. 0. 0. 0. 0. 1.17647061e-02 0.
      1.17647061e-02 0. 0. 0. 0. 0. 0. 0. 0. 0. 0. 0. 0. 0. 0. 0. 0. 0.
      0. 0. 0. 0. 1.17647061e-02 0. 0. 0. 0. 0. 1.17647061e-02 0. 0. 0.
      0. 0. 0. 0. 0. 0. 0. 0. 0. 0. 0. 0. 0. 0. 0. 0. 0.</_>
    <_>
      0. 0. 0. 0. 0. 0. 0. 7.57575780e-03 0. 0. 0. 0. 0. 0. 0. 0. 0. 0.
      0. 0. 7.57575780e-03 0. 0. 0. 0. 0. 0. 0. 0. 0. 0. 0. 0. 0. 0. 0.
      0. 0. 7.57575780e-03 0. 0. 0. 0. 0. 0. 0. 0. 0. 0. 0. 0. 0. 0.
      7.57575780e-03 0. 0. 0. 0. 0. 0. 0. 0. 7.57575780e-03 0. 0. 0.
      7.57575780e-03 0. 0. 0. 0. 0. 0. 0. 7.57575780e-03 0. 0. 0. 0. 0.
      0. 1.51515156e-02 0. 0. 0. 0. 0. 0. 0. 0. 0. 0. 0. 0. 0. 0. 0. 0.
      0. 0. 0. 0. 0. 0. 0. 0. 0. 0. 0. 0. 0. 0. 0. 0. 7.57575780e-03 0.
      0. 0. 0. 0. 0. 0. 7.57575780e-03 0. 0. 0. 0. 0. 0. 0. 0. 0. 0. 0.
      0. 0. 0. 7.57575780e-03 0. 0. 0. 7.57575780e-03 0. 7.57575780e-03
      0. 0. 0. 0. 0. 0. 0. 0. 0. 0. 0. 0. 0. 0. 0. 0. 0. 0. 0. 0. 0.
      7.57575780e-03 0. 0. 0. 0. 0. 0. 0. 7.57575780e-03 0. 0. 0. 0. 0.
      0. 0. 0. 0. 0. 0. 0. 0. 0. 0. 0. 0. 0. 0. 7.57575780e-03 0. 0. 0.
      0. 0. 0. 0. 0. 7.57575780e-03 0. 0. 0. 0. 0. 7.57575780e-03 0. 0.
      0. 0. 0. 0. 0. 0. 0. 0. 0. 0. 0. 0. 0. 0. 0. 0. 0. 0. 0. 0. 0. 0.
      7.57575780e-03 7.57575780e-03 0. 0. 0. 0. 7.57575780e-03 0. 0. 0.
      0. 0. 0. 0. 0. 0. 0. 0. 0. 0. 7.57575780e-03 0. 0. 0. 0. 0. 0. 0.
      0. 0. 0. 0. 0. 0. 7.57575780e-03 0. 0. 7.57575780e-03 0. 0. 0. 0.
      0. 0. 7.57575780e-03 0. 0. 0. 7.57575780e-03 0. 0. 0. 0. 0. 0. 0.
      0. 0. 0. 7.57575780e-03 0. 0. 0. 0. 0. 0. 0. 0. 0. 1.51515156e-02
      0. 0. 0. 7.57575780e-03 0. 0. 0. 0. 0. 0. 0. 0. 0. 0. 0. 0.
      7.57575780e-03 7.57575780e-03 0. 3.03030312e-02 0. 0. 0. 0. 0. 0.
      0. 0. 0. 0. 0. 0. 0. 0. 0. 0. 0. 0. 1.51515156e-02 0. 0.
      7.57575780e-03 0. 0. 0. 0. 0. 0. 0. 0. 1.51515156e-02 0. 0. 0. 0.
      7.57575780e-03 0. 0. 0. 0. 0. 0. 0. 0. 0. 0. 0. 0. 0. 0. 0. 0. 0.
      0. 0. 0. 7.57575780e-03 0. 0. 0. 7.57575780e-03 7.57575780e-03 0.
      0. 0. 0. 0. 0. 0. 0. 0. 0. 0. 7.57575780e-03 0. 0. 0. 0. 0. 0. 0.
      0. 0. 0. 0. 0. 7.57575780e-03 0. 7.57575780e-03 0. 7.57575780e-03
      0. 7.57575780e-03 0. 0. 0. 0. 0. 0. 0. 0. 0. 0. 0. 0.
      7.57575780e-03 0. 7.57575780e-03 0. 7.57575780e-03 0. 0.
      7.57575780e-03 0. 0. 0. 0. 7.57575780e-03 0. 0. 0. 0. 0. 0. 0. 0.
      0. 0. 0. 0. 0. 0. 0. 0. 0. 0. 0. 0. 0. 0. 0. 0. 0. 0. 0.
      7.57575780e-03 0. 7.57575780e-03 0. 0. 0. 0. 0. 0. 0. 0. 0. 0. 0.
      0. 0. 0. 0. 0. 0. 0. 0. 0. 0. 0. 0. 0. 0. 0. 0. 0. 0. 0. 0. 0.
      7.57575780e-03 0. 0. 0. 0. 0. 0. 0. 0. 0. 0. 1.51515156e-02 0. 0.
      0. 0. 0. 0. 0. 0. 0. 0. 0. 7.57575780e-03 7.57575780e-03 0. 0.
      7.57575780e-03 0. 0. 0. 0. 1.51515156e-02 0. 0. 7.57575780e-03
      7.57575780e-03 7.57575780e-03 0. 0. 0. 0. 7.57575780e-03 0. 0. 0.
      0. 0. 0. 0. 0. 0. 0. 0. 0. 0. 0. 0. 0. 0. 0. 7.57575780e-03
      7.57575780e-03 0. 0. 0. 0. 0. 7.57575780e-03 0. 7.57575780e-03 0.
      0. 0. 0. 0. 0. 7.57575780e-03 0. 0. 0. 0. 0. 0. 0. 0. 0. 0. 0. 0.
      0. 0. 0. 0. 0. 0. 0. 0. 7.57575780e-03 0. 0. 7.57575780e-03 0. 0.
      0. 0. 0. 0. 0. 0. 0. 0. 7.57575780e-03 0. 0. 7.57575780e-03 0. 0.
      0. 7.57575780e-03 0. 7.57575780e-03 0. 0. 7.57575780e-03 0. 0. 0.
      0. 0. 0. 0. 0. 0. 0. 0. 0. 0. 0. 0. 0. 0. 0. 0. 0. 0. 0. 0.
      7.57575780e-03 0. 1.51515156e-02 0. 0. 0. 0. 0. 0. 7.57575780e-03
      1.51515156e-02 0. 7.57575780e-03 0. 0. 7.57575780e-03 0. 0. 0. 0.
      0. 0. 0. 0. 0. 0. 0. 0. 7.57575780e-03 0. 0. 0. 0. 0. 0.
      7.57575780e-03 0. 0. 0. 7.57575780e-03 0. 0. 0. 0. 0.
      7.57575780e-03 0. 7.57575780e-03 0. 0. 0. 0. 0. 0. 0. 0. 0. 0. 0.
      0. 0. 0. 0. 0. 0. 0. 0. 0. 0. 0. 0. 0. 0. 0. 0. 0. 0. 0. 0. 0. 0.
      0. 0. 0. 0. 0. 0. 0. 7.57575780e-03 0. 0. 0. 0. 0. 0. 0. 0.
      7.57575780e-03 0. 0. 7.57575780e-03 0. 0. 0. 0. 0. 0. 0. 0. 0. 0.
      0. 0. 7.57575780e-03 0. 0. 0. 0. 7.57575780e-03 7.57575780e-03 0.
      0. 0. 0. 0. 0. 0. 1.51515156e-02 0. 0. 0. 0. 0. 7.57575780e-03
      7.57575780e-03 7.57575780e-03 0. 7.57575780e-03 0. 0. 0. 0. 0. 0.
      0. 0. 0. 0. 0. 0. 0. 0. 0. 0. 0. 7.57575780e-03 0. 0. 0. 0. 0. 0.
      0. 0. 0. 0. 0. 7.57575780e-03 0. 7.57575780e-03 0. 0. 0. 0.
      7.57575780e-03 0. 0. 7.57575780e-03 7.57575780e-03 0. 0. 0. 0.
      1.51515156e-02 0. 0. 0. 0. 0. 0. 0. 7.57575780e-03 0. 0. 0. 0. 0.
      0. 0. 0. 0. 0. 0. 0. 0. 0. 0. 0. 0. 0. 0. 0. 7.57575780e-03 0. 0.
      0. 0. 0. 0. 0. 0. 0. 0. 0. 0. 0. 0. 0. 0. 7.57575780e-03
      7.57575780e-03 0. 0. 7.57575780e-03 0. 0. 0. 0. 0. 0. 0.
      7.57575780e-03 0. 0. 0. 0. 0. 0. 0. 0. 0. 0. 0. 0. 0. 0. 0. 0.
      7.57575780e-03 0. 0. 0. 0. 0. 0. 7.57575780e-03 0. 0. 0. 0. 0. 0.
      0. 0. 7.57575780e-03 0. 0. 0. 7.57575780e-03 0. 0. 0. 0. 0. 0. 0.
      0. 0. 0. 7.57575780e-03 0. 0. 0. 0. 0. 0. 0. 0. 0. 0. 0. 0. 0. 0.
      0. 0. 2.27272734e-02 0. 0. 0. 0. 0. 7.57575780e-03 0. 0.
      7.57575780e-03 0. 0. 0. 0. 0. 0. 0. 0. 0. 0. 0. 0. 0. 0. 0. 0. 0.
      0. 0. 0. 0. 0. 0. 0. 0. 0. 7.57575780e-03 0. 0. 0. 0. 0. 0.</_>
    <_>
      0. 0. 8.92857183e-03 0. 0. 0. 0. 0. 0. 0. 0. 0. 0. 8.92857183e-03
      0. 0. 0. 0. 1.78571437e-02 0. 8.92857183e-03 0. 0. 0.
      8.92857183e-03 0. 0. 0. 0. 0. 0. 0. 0. 0. 0. 0. 0. 0. 0. 0. 0. 0.
      0. 0. 0. 0. 0. 0. 0. 0. 0. 0. 0. 0. 0. 0. 0. 0. 8.92857183e-03 0.
      0. 0. 0. 0. 0. 0. 0. 0. 0. 0. 0. 0. 0. 0. 8.92857183e-03 0. 0. 0.
      0. 0. 0. 8.92857183e-03 0. 8.92857183e-03 0. 0. 0. 0.
      8.92857183e-03 8.92857183e-03 0. 0. 0. 0. 0. 0. 0. 0. 0. 0. 0. 0.
      0. 0. 0. 8.92857183e-03 0. 0. 0. 0. 0. 0. 0. 0. 0. 0. 0. 0. 0.
      8.92857183e-03 0. 0. 0. 0. 0. 0. 0. 0. 0. 0. 0. 0. 0. 0.
      8.92857183e-03 0. 0. 0. 0. 0. 8.92857183e-03 8.92857183e-03 0. 0.
      0. 0. 0. 0. 0. 0. 0. 0. 0. 0. 0. 0. 0. 0. 8.92857183e-03 0. 0. 0.
      0. 0. 0. 0. 0. 0. 8.92857183e-03 0. 0. 8.92857183e-03 0. 0. 0. 0.
      0. 0. 0. 0. 0. 0. 0. 0. 0. 0. 0. 0. 0. 0. 0. 0. 0. 0. 0. 0. 0. 0.
      0. 0. 0. 0. 0. 0. 8.92857183e-03 0. 0. 0. 0. 0. 8.92857183e-03 0.
      0. 0. 0. 0. 0. 0. 0. 0. 0. 0. 0. 8.92857183e-03 0. 0. 0. 0. 0. 0.
      0. 0. 0. 0. 0. 0. 0. 0. 0. 0. 0. 8.92857183e-03 0. 0. 0. 0. 0. 0.
      0. 0. 0. 8.92857183e-03 8.92857183e-03 0. 0. 0. 0. 0. 0. 0. 0. 0.
      0. 0. 0. 0. 0. 0. 0. 0. 0. 0. 0. 0. 0. 0. 0. 0. 0. 0. 0. 0. 0. 0.
      0. 0. 0. 0. 0. 0. 0. 0. 1.78571437e-02 0. 0. 0. 0. 0. 0. 0. 0. 0.
      0. 0. 0. 0. 0. 8.92857183e-03 0. 0. 0. 0. 0. 0. 0. 0. 0. 0. 0. 0.
      0. 0. 8.92857183e-03 0. 8.92857183e-03 0. 0. 0. 0. 0. 0. 0. 0.
      8.92857183e-03 0. 0. 0. 0. 0. 0. 0. 0. 8.92857183e-03 0. 0. 0. 0.
      0. 0. 0. 0. 0. 0. 0. 0. 0. 0. 0. 0. 0. 0. 0. 0. 0. 1.78571437e-02
      0. 0. 0. 0. 0. 0. 0. 0. 0. 0. 8.92857183e-03 0. 0. 0. 0. 0. 0.
      1.78571437e-02 0. 0. 0. 0. 0. 0. 0. 0. 0. 0. 0. 0. 0.
      8.92857183e-03 0. 0. 0. 0. 8.92857183e-03 8.92857183e-03 0. 0. 0.
      0. 0. 0. 0. 0. 0. 0. 0. 0. 0. 0. 1.78571437e-02 0. 8.92857183e-03
      0. 0. 0. 8.92857183e-03 0. 0. 0. 0. 0. 0. 0. 0. 0. 0. 0. 0. 0. 0.
      0. 0. 0. 1.78571437e-02 0. 8.92857183e-03 0. 0. 8.92857183e-03 0.
      0. 0. 0. 0. 2.67857164e-02 0. 0. 0. 0. 0. 0. 0. 8.92857183e-03
      8.92857183e-03 0. 0. 0. 0. 8.92857183e-03 0. 8.92857183e-03 0. 0.
      0. 0. 0. 0. 0. 0. 0. 0. 0. 8.92857183e-03 0. 0. 0. 0. 0. 0. 0. 0.
      0. 0. 0. 0. 0. 0. 0. 1.78571437e-02 0. 0. 0. 0. 0. 0. 0. 0. 0. 0.
      0. 0. 0. 0. 0. 0. 0. 0. 0. 0. 0. 0. 0. 0. 0. 0. 0. 0. 0.
      8.92857183e-03 0. 1.78571437e-02 0. 0. 0. 0. 0. 0. 0. 0. 0. 0. 0.
      0. 0. 0. 8.92857183e-03 0. 0. 0. 0. 0. 8.92857183e-03 0. 0. 0. 0.
      8.92857183e-03 0. 0. 0. 0. 0. 0. 8.92857183e-03 0. 0.
      8.92857183e-03 8.92857183e-03 0. 0. 0. 0. 0. 0. 0. 0. 0. 0.
      8.92857183e-03 0. 0. 0. 8.92857183e-03 0. 0. 0. 0. 8.92857183e-03
      0. 0. 0. 0. 0. 0. 0. 0. 0. 0. 0. 0. 0. 0. 0. 0. 0. 0. 0. 0. 0. 0.
      0. 0. 0. 0. 0. 0. 0. 1.78571437e-02 0. 0. 0. 1.78571437e-02 0. 0.
      8.92857183e-03 0. 0. 0. 0. 0. 0. 0. 0. 0. 0. 8.92857183e-03 0. 0.
      0. 0. 0. 0. 0. 0. 0. 0. 0. 0. 0. 0. 0. 0. 0. 0. 0. 0. 0. 0. 0. 0.
      0. 0. 0. 0. 0. 0. 0. 0. 0. 0. 0. 0. 0. 0. 0. 0. 8.92857183e-03 0.
      0. 0. 8.92857183e-03 8.92857183e-03 0. 0. 0. 0. 0. 0. 0. 0. 0. 0.
      0. 0. 0. 0. 0. 0. 0. 0. 0. 0. 0. 0. 0. 0. 0. 8.92857183e-03 0. 0.
      0. 0. 0. 0. 0. 0. 0. 0. 0. 0. 0. 0. 0. 0. 0. 0. 0. 0. 0. 0. 0. 0.
      0. 0. 0. 0. 0. 0. 8.92857183e-03 0. 0. 0. 0. 0. 0. 0. 0. 0. 0.
      8.92857183e-03 0. 0. 0. 0. 0. 0. 0. 0. 0. 0. 0. 0. 0. 0. 0.
      8.92857183e-03 0. 0. 0. 0. 0. 3.57142873e-02 8.92857183e-03 0. 0.
      0. 0. 0. 0. 0. 0. 0. 0. 0. 0. 0. 0. 0. 0. 0. 0. 0. 0. 0. 0. 0. 0.
      0. 0. 0. 0. 0. 0. 0. 0. 0. 0. 0. 8.92857183e-03 0. 0. 0. 0. 0. 0.
      0. 0. 0. 0. 0. 0. 0. 0. 0. 0. 0. 0. 0. 0. 8.92857183e-03 0. 0. 0.
      0. 0. 0. 0. 0. 0. 0. 0. 0. 0. 0. 0. 0. 0. 0. 0. 0. 0. 0. 0. 0. 0.
      0. 0. 0. 0. 8.92857183e-03 0. 0. 0. 0. 0. 8.92857183e-03 0. 0. 0.
      0. 0. 0. 8.92857183e-03 0. 0. 0. 0. 0. 0. 0. 0. 0. 0. 0. 0. 0.
      8.92857183e-03 0. 0. 0. 0. 0. 0. 1.78571437e-02 0. 0. 0. 0. 0. 0.
      0. 8.92857183e-03 0. 0. 8.92857183e-03 0. 0. 0. 0. 0. 0. 0. 0. 0.
      0. 0. 0. 0. 0. 0. 8.92857183e-03 1.78571437e-02 0. 0. 0.
      8.92857183e-03 0. 8.92857183e-03 0. 0. 0. 8.92857183e-03
      8.92857183e-03 0. 0. 0. 0. 0. 0. 0. 0. 8.92857183e-03 0. 0. 0. 0.
      8.92857183e-03 0. 0. 0. 0. 0. 0. 0. 0. 0. 0. 0. 0. 0. 0. 0. 0. 0.
      0. 0. 8.92857183e-03 0. 0. 0. 0. 0. 0. 0. 0. 0. 8.92857183e-03 0.
      0. 0. 8.92857183e-03 0. 0. 0. 0. 0. 0. 0. 0. 0. 0. 0. 0. 0. 0.
      8.92857183e-03 0. 0. 0. 0. 0. 0.</_>
    <_>
      0. 0. 0. 0. 0. 0. 0. 0. 0. 0. 0. 0. 0. 0. 0. 2.22222228e-02 0. 0.
      0. 0. 0. 2.22222228e-02 0. 0. 0. 0. 0. 0. 0. 0. 0. 0. 0. 0. 0. 0.
      0. 0. 0. 0. 0. 0. 0. 0. 0. 0. 0. 0. 0. 0. 0. 0. 0. 0. 0.
      2.22222228e-02 0. 0. 0. 0. 0. 0. 0. 0. 0. 0. 0. 0. 0. 0. 0. 0. 0.
      0. 0. 0. 0. 0. 0. 0. 0. 0. 0. 0. 0. 0. 0. 0. 0. 0. 0. 0. 0. 0. 0.
      0. 0. 0. 0. 0. 0. 0. 0. 0. 0. 0. 0. 0. 0. 0. 0. 0. 0. 0. 0. 0. 0.
      0. 0. 0. 0. 0. 0. 0. 0. 0. 2.22222228e-02 0. 0. 0. 0. 0. 0. 0. 0.
      0. 0. 0. 0. 0. 0. 0. 0. 0. 0. 0. 0. 0. 0. 0. 0. 0. 0. 0. 0. 0. 0.
      0. 0. 0. 2.22222228e-02 0. 0. 0. 0. 0. 0. 0. 0. 0. 0. 0. 0. 0. 0.
      0. 0. 0. 0. 0. 0. 0. 0. 0. 0. 0. 0. 0. 2.22222228e-02 0. 0. 0. 0.
      0. 0. 0. 0. 0. 0. 0. 0. 0. 0. 0. 0. 0. 0. 0. 0. 0. 0. 0. 0. 0. 0.
      0. 0. 0. 0. 0. 0. 0. 0. 0. 0. 0. 0. 0. 0. 0. 0. 0. 0. 0. 0. 0. 0.
      0. 0. 0. 0. 0. 0. 0. 0. 0. 0. 0. 0. 0. 0. 0. 0. 0. 0. 0. 0. 0. 0.
      0. 0. 0. 0. 0. 0. 0. 0. 0. 2.22222228e-02 0. 0. 0. 0. 0. 0.
      2.22222228e-02 0. 0. 0. 0. 0. 0. 0. 0. 0. 0. 0. 0. 0.
      2.22222228e-02 0. 0. 0. 0. 0. 2.22222228e-02 0. 0. 0. 0. 0. 0. 0.
      0. 0. 0. 0. 0. 0. 0. 0. 0. 2.22222228e-02 0. 0. 0. 0. 0. 0. 0. 0.
      0. 6.66666701e-02 0. 0. 0. 0. 0. 0. 0. 0. 0. 0. 0. 0. 0. 0.
      2.22222228e-02 0. 0. 0. 0. 0. 0. 0. 0. 0. 0. 0. 0. 0. 0. 0. 0. 0.
      0. 0. 0. 0. 0. 0. 0. 0. 0. 2.22222228e-02 0. 0. 0. 0. 0. 0. 0. 0.
      0. 0. 0. 0. 0. 0. 0. 0. 0. 0. 2.22222228e-02 0. 0. 0. 0. 0. 0. 0.
      0. 0. 0. 0. 0. 0. 2.22222228e-02 0. 0. 0. 0. 0. 0. 0. 0. 0. 0. 0.
      0. 0. 0. 0. 0. 0. 0. 0. 0. 0. 0. 0. 0. 0. 0. 0. 0. 0.
      2.22222228e-02 0. 0. 0. 0. 0. 0. 0. 0. 0. 0. 0. 0. 0.
      2.22222228e-02 0. 0. 0. 0. 2.22222228e-02 0. 0. 0. 2.22222228e-02
      0. 0. 0. 0. 0. 0. 0. 0. 0. 0. 0. 0. 0. 0. 0. 0. 0. 0. 0. 0. 0. 0.
      0. 0. 0. 0. 0. 0. 0. 0. 0. 0. 0. 0. 0. 0. 0. 0. 0. 0. 0. 0. 0. 0.
      0. 0. 0. 0. 0. 0. 0. 0. 0. 0. 0. 0. 2.22222228e-02 0. 0. 0. 0. 0.
      0. 0. 2.22222228e-02 0. 0. 0. 0. 0. 0. 0. 0. 0. 0. 0. 0. 0. 0. 0.
      0. 0. 0. 0. 0. 0. 0. 0. 0. 0. 0. 0. 0. 0. 2.22222228e-02 0. 0. 0.
      0. 0. 0. 0. 0. 2.22222228e-02 0. 0. 0. 0. 0. 0. 2.22222228e-02 0.
      0. 0. 0. 0. 0. 0. 0. 0. 0. 0. 0. 0. 0. 0. 0. 0. 0. 0. 0. 0. 0. 0.
      0. 0. 0. 0. 0. 0. 0. 0. 0. 0. 0. 0. 0. 0. 0. 0. 0. 0. 0. 0. 0. 0.
      0. 0. 0. 0. 0. 0. 0. 0. 0. 0. 0. 0. 0. 0. 0. 0. 0. 0.
      2.22222228e-02 0. 0. 0. 2.22222228e-02 0. 0. 0. 0. 0. 0. 0. 0. 0.
      0. 0. 0. 0. 0. 0. 0. 0. 2.22222228e-02 0. 0. 0. 0. 0. 0. 0. 0. 0.
      0. 0. 0. 0. 0. 0. 0. 0. 0. 0. 0. 0. 0. 0. 0. 0. 0. 0. 0. 0. 0. 0.
      0. 0. 0. 0. 0. 0. 0. 0. 0. 2.22222228e-02 2.22222228e-02 0. 0. 0.
      0. 0. 0. 0. 0. 0. 0. 0. 2.22222228e-02 0. 0. 0. 0. 0. 0. 0. 0. 0.
      0. 0. 0. 0. 0. 0. 0. 0. 0. 0. 0. 0. 0. 0. 0. 2.22222228e-02 0. 0.
      0. 0. 0. 0. 0. 0. 0. 0. 0. 0. 0. 0. 0. 0. 0. 0. 0. 0. 0. 0. 0. 0.
      0. 0. 0. 0. 0. 0. 0. 0. 0. 0. 0. 0. 0. 0. 0. 0. 0. 0. 0. 0. 0. 0.
      0. 0. 0. 0. 0. 0. 0. 0. 0. 0. 0. 4.44444455e-02 0. 0. 0. 0. 0. 0.
      0. 0. 0. 0. 0. 0. 0. 0. 0. 2.22222228e-02 0. 0. 0. 0. 0. 0. 0. 0.
      0. 0. 0. 0. 0. 0. 0. 0. 0. 0. 0. 0. 0. 0. 0. 0. 0. 0. 0. 0. 0. 0.
      2.22222228e-02 0. 0. 0. 0. 0. 0. 0. 0. 0. 0. 0. 0. 0. 0. 0. 0. 0.
      0. 0. 0. 0. 0. 0. 0. 0. 0. 0. 0. 0. 0. 0. 0. 2.22222228e-02 0. 0.
      0. 0. 0. 0. 0. 0. 0. 0. 0. 0. 0. 0. 0. 0. 0. 0. 0. 0. 0. 0. 0. 0.
      0. 0. 0. 0. 0. 0. 0. 0. 0. 0. 0. 0. 0. 0. 0. 2.22222228e-02 0. 0.
      0. 0. 2.22222228e-02 0. 0. 0. 0. 0. 0. 0. 0. 0. 0. 0.
      2.22222228e-02 0. 0. 0. 0. 0. 0. 0. 0. 2.22222228e-02 0. 0. 0. 0.
      0. 0. 0. 0. 0. 0. 0. 0. 0. 0. 0. 2.22222228e-02 0. 0. 0. 0. 0. 0.
      0. 0. 0. 0. 0. 0. 0. 0. 0. 0. 0. 0. 0. 0. 0. 0. 0. 0. 0. 0. 0. 0.
      2.22222228e-02 0. 0. 0. 0. 0. 0. 0. 0. 0. 0. 0. 0. 0. 0. 0. 0. 0.
      0. 0. 0. 0. 0. 0. 0.</_>
    <_>
      0. 0. 0. 0. 1.57480314e-02 0. 7.87401572e-03 0. 0. 0. 0. 0.
      7.87401572e-03 0. 0. 0. 1.57480314e-02 0. 0. 0. 0. 0. 0. 0. 0. 0.
      0. 0. 0. 0. 0. 0. 0. 0. 0. 0. 0. 7.87401572e-03 0. 0. 0. 0. 0. 0.
      0. 0. 0. 7.87401572e-03 0. 0. 0. 0. 0. 0. 7.87401572e-03 0. 0. 0.
      2.36220472e-02 0. 0. 0. 0. 0. 7.87401572e-03 0. 0. 0. 0. 0. 0. 0.
      0. 0. 0. 7.87401572e-03 0. 0. 0. 0. 0. 0. 0. 0. 7.87401572e-03 0.
      0. 0. 0. 0. 0. 0. 7.87401572e-03 0. 0. 0. 0. 0. 0. 0. 0. 0. 0. 0.
      0. 7.87401572e-03 0. 0. 0. 0. 0. 0. 0. 0. 0. 0. 0. 7.87401572e-03
      0. 0. 0. 0. 0. 0. 0. 0. 0. 0. 0. 0. 0. 0. 0. 0. 0. 0. 0.
      1.57480314e-02 0. 0. 0. 0. 0. 0. 0. 0. 0. 7.87401572e-03 0. 0. 0.
      0. 7.87401572e-03 0. 0. 0. 0. 0. 0. 0. 0. 0. 0. 0. 0. 0. 0.
      7.87401572e-03 3.14960629e-02 7.87401572e-03 0. 0. 0. 0. 0. 0. 0.
      0. 0. 0. 0. 0. 0. 0. 0. 0. 0. 0. 0. 1.57480314e-02 0. 0. 0. 0. 0.
      0. 0. 0. 7.87401572e-03 0. 0. 0. 7.87401572e-03 0. 0. 0. 0. 0. 0.
      7.87401572e-03 0. 0. 0. 0. 0. 0. 0. 0. 0. 7.87401572e-03 0. 0. 0.
      0. 7.87401572e-03 0. 0. 0. 0. 0. 0. 0. 0. 7.87401572e-03 0. 0. 0.
      0. 0. 0. 0. 0. 0. 0. 0. 0. 0. 0. 0. 0. 0. 0. 0. 0. 0. 0. 0. 0. 0.
      0. 7.87401572e-03 0. 0. 0. 0. 0. 0. 0. 0. 0. 0. 0. 0. 0.
      7.87401572e-03 0. 0. 0. 7.87401572e-03 0. 0. 0. 0. 0. 0.
      7.87401572e-03 0. 0. 0. 0. 0. 0. 0. 0. 0. 0. 0. 0. 0. 0. 0. 0. 0.
      0. 0. 0. 0. 0. 0. 0. 0. 0. 0. 0. 0. 0. 0. 7.87401572e-03
      7.87401572e-03 0. 7.87401572e-03 0. 0. 0. 0. 0. 0. 7.87401572e-03
      0. 0. 0. 0. 0. 7.87401572e-03 0. 0. 0. 0. 0. 0. 0. 0. 0. 0. 0. 0.
      0. 0. 0. 0. 0. 0. 0. 0. 0. 0. 0. 0. 0. 0. 0. 0. 0. 0.
      7.87401572e-03 0. 7.87401572e-03 0. 0. 0. 7.87401572e-03 0. 0. 0.
      0. 7.87401572e-03 0. 0. 1.57480314e-02 0. 7.87401572e-03
      7.87401572e-03 7.87401572e-03 0. 0. 0. 0. 0. 7.87401572e-03 0. 0.
      0. 0. 0. 0. 0. 0. 0. 0. 0. 0. 0. 7.87401572e-03 0. 0.
      7.87401572e-03 0. 0. 0. 0. 0. 0. 0. 0. 0. 0. 0. 0. 0. 0. 0. 0. 0.
      0. 0. 0. 0. 0. 0. 0. 0. 0. 0. 0. 0. 0. 0. 0. 7.87401572e-03 0. 0.
      0. 7.87401572e-03 1.57480314e-02 0. 0. 0. 0. 0. 0. 0. 0. 0. 0.
      7.87401572e-03 7.87401572e-03 0. 0. 0. 0. 0. 0. 0. 0. 0. 0. 0. 0.
      7.87401572e-03 0. 0. 0. 0. 0. 0. 0. 0. 0. 0. 0. 0. 0. 0. 0. 0.
      7.87401572e-03 0. 0. 0. 0. 0. 0. 0. 7.87401572e-03 0. 0. 0. 0.
      7.87401572e-03 0. 0. 7.87401572e-03 0. 0. 0. 0. 0. 0. 0.
      7.87401572e-03 0. 0. 0. 0. 0. 0. 0. 0. 0. 0. 0. 7.87401572e-03 0.
      0. 0. 0. 0. 0. 0. 0. 0. 0. 0. 0. 0. 0. 0. 0. 0. 0. 0. 0. 0. 0. 0.
      0. 7.87401572e-03 0. 0. 0. 0. 0. 0. 0. 0. 0. 0. 7.87401572e-03 0.
      0. 0. 0. 0. 7.87401572e-03 0. 0. 0. 0. 0. 0. 0. 0. 0. 0. 0. 0. 0.
      0. 7.87401572e-03 0. 0. 0. 0. 0. 0. 0. 0. 0. 0. 0. 0. 0. 0. 0.
      7.87401572e-03 0. 0. 0. 0. 0. 0. 0. 7.87401572e-03 0. 0. 0. 0. 0.
      0. 0. 0. 0. 0. 0. 0. 7.87401572e-03 0. 0. 0. 0. 0. 0. 0. 0. 0. 0.
      0. 0. 0. 0. 0. 0. 0. 0. 0. 0. 0. 0. 0. 0. 0. 0. 0. 0. 0. 0. 0. 0.
      0. 0. 0. 0. 0. 0. 0. 0. 0. 0. 0. 0. 3.14960629e-02 0. 0.
      7.87401572e-03 0. 0. 0. 0. 0. 0. 0. 0. 0. 0. 0. 0. 7.87401572e-03
      7.87401572e-03 0. 0. 0. 7.87401572e-03 0. 7.87401572e-03 0. 0. 0.
      0. 0. 0. 7.87401572e-03 0. 0. 0. 0. 7.87401572e-03 0. 0. 0. 0. 0.
      0. 0. 0. 0. 0. 0. 0. 7.87401572e-03 0. 0. 0. 0. 0. 0. 0. 0. 0. 0.
      0. 7.87401572e-03 0. 0. 0. 0. 0. 0. 0. 0. 0. 0. 0. 7.87401572e-03
      0. 0. 0. 0. 0. 0. 0. 0. 0. 0. 0. 0. 0. 7.87401572e-03 0. 0. 0. 0.
      0. 0. 7.87401572e-03 1.57480314e-02 0. 0. 7.87401572e-03 0. 0. 0.
      0. 0. 0. 0. 0. 0. 0. 7.87401572e-03 0. 0. 7.87401572e-03 0. 0.
      7.87401572e-03 0. 0. 0. 0. 0. 0. 0. 0. 0. 0. 0. 0. 0. 0. 0. 0. 0.
      7.87401572e-03 0. 0. 0. 0. 0. 0. 0. 0. 0. 7.87401572e-03 0. 0. 0.
      0. 7.87401572e-03 0. 0. 0. 0. 0. 0. 0. 0. 0. 0. 0. 0. 0.
      7.87401572e-03 7.87401572e-03 7.87401572e-03 0. 7.87401572e-03 0.
      0. 7.87401572e-03 7.87401572e-03 0. 0. 0. 0. 0. 1.57480314e-02
      7.87401572e-03 0. 0. 0. 0. 0. 0. 0. 0. 0. 0. 0. 0. 0. 0. 0. 0. 0.
      7.87401572e-03 0. 0. 0. 0. 0. 0. 0. 0. 0. 0. 0. 0. 0. 0. 0.
      7.87401572e-03 0. 0. 7.87401572e-03 0. 0. 0. 0. 0. 0. 0. 0. 0.
      7.87401572e-03 0. 0. 0. 0. 0. 0. 0. 0. 0. 0. 0. 0. 0. 0. 0.
      7.87401572e-03 0. 0. 0. 7.87401572e-03 0. 0. 7.87401572e-03 0. 0.
      0. 0. 0. 0. 0. 0. 0. 0. 0. 0. 0. 0. 7.87401572e-03 0. 0. 0. 0. 0.
      0. 0. 0. 0. 0. 0. 0. 0. 0. 0. 0. 0. 0. 0. 0. 0. 7.87401572e-03 0.
      7.87401572e-03 0. 0. 0. 0. 0. 0. 0. 0. 0. 0. 7.87401572e-03 0.
      7.87401572e-03 0. 0. 0. 0. 0. 0. 0. 0. 0. 0. 0. 7.87401572e-03 0.
      7.87401572e-03 0. 0. 0. 0. 0. 0. 1.57480314e-02 0. 0. 0. 0. 0. 0.
      0. 0. 0. 0. 0. 0. 0. 0. 0. 0. 0. 0. 0. 0.</_>
    <_>
      0. 0. 0. 0. 0. 0. 0. 0. 0. 0. 0. 0. 0. 0. 0. 0. 0. 0. 0. 0. 0.
      1.06382975e-02 0. 1.06382975e-02 0. 0. 0. 0. 0. 0. 0. 0. 0. 0. 0.
      0. 0. 0. 0. 0. 0. 0. 0. 0. 0. 0. 2.12765951e-02 2.12765951e-02 0.
      0. 1.06382975e-02 0. 0. 0. 0. 0. 0. 0. 0. 0. 0. 0. 0. 0. 0. 0. 0.
      0. 0. 0. 0. 0. 0. 0. 0. 0. 0. 0. 0. 0. 0. 0. 0. 0. 0. 0. 0. 0. 0.
      0. 0. 0. 0. 0. 0. 0. 0. 0. 0. 0. 0. 0. 0. 1.06382975e-02 0. 0. 0.
      0. 0. 0. 0. 0. 0. 2.12765951e-02 0. 2.12765951e-02 0. 0. 0. 0. 0.
      1.06382975e-02 0. 0. 0. 0. 0. 0. 0. 1.06382975e-02 0. 0. 0. 0. 0.
      1.06382975e-02 0. 1.06382975e-02 0. 0. 0. 0. 0. 0. 0. 0. 0. 0. 0.
      0. 0. 0. 0. 0. 0. 0. 0. 0. 0. 1.06382975e-02 1.06382975e-02 0. 0.
      0. 0. 0. 0. 0. 0. 0. 0. 0. 0. 0. 0. 0. 1.06382975e-02 0. 0. 0. 0.
      0. 0. 0. 0. 0. 0. 0. 1.06382975e-02 1.06382975e-02 0. 0. 0. 0. 0.
      0. 1.06382975e-02 0. 0. 1.06382975e-02 1.06382975e-02 0. 0. 0. 0.
      0. 0. 0. 0. 0. 0. 0. 0. 0. 0. 0. 0. 0. 0. 0. 0. 0. 1.06382975e-02
      0. 1.06382975e-02 0. 0. 0. 0. 0. 0. 0. 0. 0. 0. 0. 0. 0. 0.
      1.06382975e-02 0. 0. 0. 0. 0. 0. 0. 0. 0. 0. 0. 0. 0. 0. 0. 0. 0.
      0. 0. 1.06382975e-02 0. 0. 0. 0. 1.06382975e-02 0. 0. 0. 0. 0. 0.
      0. 0. 0. 0. 0. 1.06382975e-02 0. 1.06382975e-02 0. 0. 0. 0. 0. 0.
      0. 0. 1.06382975e-02 0. 0. 0. 0. 0. 0. 0. 0. 0. 0. 0. 0. 0. 0.
      1.06382975e-02 0. 1.06382975e-02 0. 0. 0. 0. 0. 1.06382975e-02 0.
      0. 0. 0. 0. 0. 0. 0. 1.06382975e-02 2.12765951e-02 0. 0. 0. 0. 0.
      0. 0. 0. 0. 0. 0. 0. 0. 0. 0. 0. 0. 0. 0. 0. 0. 0. 0. 0. 0. 0. 0.
      0. 0. 0. 0. 0. 0. 0. 0. 0. 0. 0. 0. 0. 1.06382975e-02 0. 0. 0. 0.
      1.06382975e-02 0. 0. 0. 0. 0. 0. 0. 0. 0. 0. 0. 0. 0. 0. 0. 0. 0.
      0. 0. 0. 0. 0. 0. 0. 0. 0. 0. 0. 0. 0. 0. 0. 0. 0. 0. 0. 0. 0. 0.
      0. 0. 0. 0. 0. 0. 0. 0. 0. 0. 0. 0. 0. 0. 0. 0. 0. 0. 0. 0. 0. 0.
      0. 1.06382975e-02 0. 0. 0. 1.06382975e-02 0. 0. 0. 0. 0. 0. 0. 0.
      0. 0. 1.06382975e-02 0. 0. 0. 1.06382975e-02 0. 0. 0. 0. 0. 0. 0.
      0. 0. 0. 1.06382975e-02 1.06382975e-02 0. 0. 0. 1.06382975e-02 0.
      0. 0. 0. 0. 0. 0. 0. 0. 0. 0. 0. 0. 1.06382975e-02 0. 0. 0.
      1.06382975e-02 0. 0. 0. 0. 0. 0. 0. 0. 0. 0. 0. 0. 0. 0.
      1.06382975e-02 0. 0. 0. 0. 0. 0. 0. 0. 0. 0. 0. 0. 0. 0. 0. 0. 0.
      0. 0. 0. 0. 0. 0. 0. 0. 0. 0. 0. 0. 0. 0. 0. 0. 0. 0. 0. 0. 0. 0.
      0. 0. 0. 0. 2.12765951e-02 0. 0. 0. 1.06382975e-02 0. 0. 0. 0. 0.
      0. 0. 0. 0. 0. 0. 1.06382975e-02 0. 0. 0. 0. 0. 0. 1.06382975e-02
      1.06382975e-02 0. 0. 0. 0. 0. 0. 0. 0. 0. 0. 0. 0. 0. 0. 0. 0. 0.
      0. 0. 0. 0. 0. 1.06382975e-02 0. 0. 0. 0. 0. 1.06382975e-02 0. 0.
      1.06382975e-02 0. 0. 0. 1.06382975e-02 1.06382975e-02 0. 0. 0. 0.
      0. 0. 0. 0. 0. 0. 0. 0. 1.06382975e-02 0. 0. 0. 1.06382975e-02 0.
      0. 0. 0. 0. 0. 0. 0. 0. 0. 0. 0. 0. 0. 0. 0. 0. 0. 0. 0. 0. 0. 0.
      0. 0. 0. 0. 0. 1.06382975e-02 0. 1.06382975e-02 0. 0. 0. 0. 0. 0.
      0. 0. 0. 0. 0. 0. 0. 0. 0. 0. 1.06382975e-02 0. 0. 0. 0. 0. 0. 0.
      0. 0. 0. 0. 0. 0. 0. 0. 0. 0. 0. 0. 0. 0. 0. 2.12765951e-02 0. 0.
      0. 0. 0. 1.06382975e-02 0. 0. 0. 0. 0. 0. 0. 0. 1.06382975e-02 0.
      0. 0. 0. 0. 0. 0. 0. 0. 1.06382975e-02 0. 0. 0. 0. 0. 0. 0. 0. 0.
      0. 0. 0. 0. 0. 0. 0. 0. 0. 0. 0. 0. 0. 0. 0. 0. 0. 1.06382975e-02
      0. 0. 0. 0. 0. 0. 0. 0. 0. 0. 0. 1.06382975e-02 0. 0. 0. 0. 0. 0.
      0. 0. 0. 1.06382975e-02 0. 0. 0. 0. 0. 0. 0. 0. 0. 0. 0.
      1.06382975e-02 0. 0. 1.06382975e-02 0. 0. 0. 0. 0. 0. 0.
      1.06382975e-02 0. 1.06382975e-02 0. 1.06382975e-02 0. 0. 0. 0. 0.
      0. 0. 0. 0. 0. 0. 0. 0. 0. 0. 0. 0. 0. 0. 0. 0. 0. 0. 0. 0. 0. 0.
      0. 0. 0. 0. 0. 0. 0. 0. 0. 0. 0. 0. 0. 0. 0. 0. 0. 0. 0. 0. 0. 0.
      0. 0. 0. 0. 0. 0. 1.06382975e-02 0. 0. 0. 0. 0. 0. 0. 0. 0. 0. 0.
      0. 0. 0. 0. 1.06382975e-02 0. 0. 0. 0. 0. 0. 0. 0. 0. 0. 0. 0. 0.
      1.06382975e-02 0. 0. 0. 0. 0. 0. 0. 0. 0. 0. 0. 0. 0. 0.
      1.06382975e-02 0. 0. 0. 0. 0. 0. 0. 0. 1.06382975e-02 0. 0. 0. 0.
      0. 0. 0. 0. 0. 0. 0. 0. 0. 0. 0. 0. 0. 0. 0. 0. 1.06382975e-02 0.
      0. 1.06382975e-02 1.06382975e-02 0. 0. 0. 0. 0. 0. 0. 0. 0. 0. 0.
      0. 0. 0. 0. 1.06382975e-02 0. 0. 0. 0. 0. 0. 1.06382975e-02 0.
      1.06382975e-02 1.06382975e-02 0. 0. 0. 0. 0. 0. 0. 0. 0.
      1.06382975e-02 0. 0. 0. 0. 0. 0. 1.06382975e-02 0. 1.06382975e-02
      0. 0. 0. 0. 0. 0. 0. 0. 0. 0. 0. 0. 0. 0. 0. 0. 0. 0. 0. 0. 0. 0.
      0. 0. 0. 0. 0. 0.</_>
    <_>
      0. 0. 0. 0. 0. 0. 0. 0. 0. 0. 0. 0. 0. 0. 0. 9.80392192e-03 0. 0.
      0. 0. 0. 0. 0. 0. 0. 0. 0. 0. 0. 0. 0. 0. 0. 0. 0. 0. 0. 0. 0. 0.
      0. 0. 0. 0. 0. 0. 0. 0. 0. 0. 9.80392192e-03 0. 9.80392192e-03 0.
      0. 0. 0. 9.80392192e-03 9.80392192e-03 0. 0. 0. 0. 0.
      9.80392192e-03 0. 0. 0. 0. 0. 0. 0. 0. 0. 0. 0. 0. 0.
      9.80392192e-03 0. 0. 2.94117667e-02 9.80392192e-03 0. 0. 0. 0. 0.
      0. 0. 0. 0. 0. 0. 0. 0. 0. 0. 0. 0. 0. 0. 0. 0. 0. 0. 0. 0. 0. 0.
      0. 0. 9.80392192e-03 0. 0. 0. 0. 0. 0. 9.80392192e-03 0.
      9.80392192e-03 0. 9.80392192e-03 0. 0. 0. 0. 0. 0. 9.80392192e-03
      0. 0. 9.80392192e-03 0. 0. 0. 0. 0. 0. 0. 1.96078438e-02 0. 0. 0.
      0. 0. 0. 0. 0. 0. 0. 0. 9.80392192e-03 0. 0. 9.80392192e-03 0. 0.
      0. 0. 0. 0. 9.80392192e-03 0. 0. 0. 0. 1.96078438e-02 0. 0. 0. 0.
      0. 0. 0. 0. 0. 0. 0. 0. 0. 0. 0. 0. 0. 0. 0. 0. 0. 0. 0.
      1.96078438e-02 0. 9.80392192e-03 0. 0. 0. 0. 0. 0. 0. 0. 0. 0. 0.
      0. 0. 0. 0. 0. 0. 0. 0. 0. 0. 0. 0. 9.80392192e-03 0. 0. 0. 0. 0.
      0. 0. 0. 0. 0. 0. 0. 0. 0. 0. 0. 0. 0. 0. 0. 0. 0. 0. 0. 0. 0. 0.
      0. 0. 0. 0. 0. 0. 0. 0. 0. 0. 0. 0. 0. 0. 0. 0. 0. 0. 0. 0.
      9.80392192e-03 0. 9.80392192e-03 0. 0. 0. 0. 0. 0. 0. 0.
      9.80392192e-03 9.80392192e-03 0. 0. 0. 9.80392192e-03 0. 0. 0. 0.
      0. 0. 0. 0. 0. 0. 0. 0. 0. 0. 0. 0. 1.96078438e-02 0. 0. 0.
      9.80392192e-03 0. 0. 0. 0. 0. 0. 0. 9.80392192e-03 9.80392192e-03
      0. 0. 0. 0. 0. 0. 0. 0. 0. 0. 0. 0. 0. 0. 0. 0. 0. 0. 0. 0. 0. 0.
      0. 0. 0. 0. 0. 0. 0. 9.80392192e-03 0. 0. 0. 0. 0. 0. 0. 0. 0.
      9.80392192e-03 0. 0. 9.80392192e-03 9.80392192e-03 9.80392192e-03
      0. 0. 0. 0. 0. 0. 0. 0. 0. 9.80392192e-03 0. 0. 0. 0. 0. 0. 0. 0.
      0. 0. 0. 9.80392192e-03 0. 0. 0. 0. 0. 0. 0. 0. 9.80392192e-03 0.
      0. 0. 0. 0. 0. 0. 0. 0. 0. 0. 0. 0. 0. 9.80392192e-03
      9.80392192e-03 0. 0. 0. 0. 0. 0. 0. 0. 0. 0. 0. 0. 9.80392192e-03
      0. 9.80392192e-03 0. 0. 0. 0. 0. 0. 0. 0. 0. 0. 0. 0. 0. 0. 0. 0.
      0. 0. 0. 0. 0. 0. 0. 1.96078438e-02 0. 0. 0. 0. 0. 0.
      9.80392192e-03 0. 0. 0. 0. 0. 0. 0. 0. 0. 0. 0. 0. 0. 0. 0. 0. 0.
      0. 0. 0. 9.80392192e-03 0. 0. 0. 0. 0. 0. 0. 0. 0. 0. 0.
      9.80392192e-03 0. 0. 0. 0. 0. 0. 0. 0. 0. 0. 0. 9.80392192e-03 0.
      0. 0. 0. 0. 0. 0. 9.80392192e-03 0. 0. 0. 0. 0. 0. 0. 0.
      9.80392192e-03 0. 0. 0. 0. 0. 0. 0. 0. 0. 0. 0. 0. 0. 0. 0. 0. 0.
      0. 0. 0. 0. 0. 0. 0. 0. 9.80392192e-03 0. 0. 0. 0. 0. 0. 0. 0. 0.
      0. 0. 0. 0. 0. 0. 0. 0. 0. 0. 0. 0. 0. 0. 0. 0. 0. 0. 0. 0.
      9.80392192e-03 0. 0. 9.80392192e-03 0. 0. 0. 9.80392192e-03 0. 0.
      0. 0. 0. 0. 0. 0. 0. 0. 0. 0. 0. 0. 0. 0. 0. 9.80392192e-03 0.
      9.80392192e-03 0. 0. 0. 0. 0. 0. 0. 0. 0. 9.80392192e-03 0. 0. 0.
      0. 0. 0. 0. 0. 0. 0. 0. 0. 0. 0. 0. 0. 0. 0. 0. 9.80392192e-03 0.
      0. 0. 0. 0. 0. 0. 0. 0. 0. 0. 0. 0. 9.80392192e-03 0. 0. 0. 0. 0.
      0. 0. 0. 0. 0. 0. 0. 0. 0. 0. 0. 0. 0. 9.80392192e-03 0. 0. 0. 0.
      0. 0. 0. 0. 9.80392192e-03 0. 0. 0. 0. 0. 0. 0. 0. 0. 0. 0. 0. 0.
      0. 0. 0. 0. 0. 0. 0. 0. 0. 0. 0. 0. 0. 0. 0. 0. 0. 0. 0. 0. 0. 0.
      0. 0. 0. 0. 0. 0. 9.80392192e-03 0. 0. 0. 0. 0. 0. 0. 0. 0. 0. 0.
      0. 0. 0. 0. 0. 9.80392192e-03 9.80392192e-03 0. 0. 0.
      9.80392192e-03 0. 0. 0. 0. 0. 9.80392192e-03 0. 0. 0. 0. 0. 0. 0.
      0. 0. 0. 0. 0. 0. 0. 0. 0. 9.80392192e-03 0. 0. 0. 9.80392192e-03
      0. 0. 0. 0. 0. 0. 9.80392192e-03 0. 0. 0. 0. 0. 9.80392192e-03 0.
      0. 0. 0. 0. 1.96078438e-02 0. 0. 0. 0. 9.80392192e-03
      9.80392192e-03 0. 1.96078438e-02 0. 0. 0. 0. 0. 0. 0. 0. 0. 0. 0.
      0. 0. 0. 0. 0. 9.80392192e-03 0. 0. 0. 0. 0. 0. 0. 0. 0. 0. 0. 0.
      0. 0. 0. 0. 0. 0. 0. 0. 0. 0. 0. 0. 0. 0. 0. 0. 0. 0. 0. 0. 0. 0.
      9.80392192e-03 0. 0. 0. 0. 0. 0. 0. 9.80392192e-03 0. 0. 0. 0. 0.
      0. 0. 0. 0. 0. 9.80392192e-03 0. 0. 0. 9.80392192e-03 0. 0. 0. 0.
      9.80392192e-03 0. 0. 0. 0. 0. 0. 0. 0. 0. 9.80392192e-03 0. 0. 0.
      0. 0. 9.80392192e-03 0. 0. 0. 0. 0. 0. 9.80392192e-03 0. 0. 0. 0.
      0. 9.80392192e-03 0. 0. 0. 0. 0. 0. 0. 0. 0. 0. 0. 0. 0.
      9.80392192e-03 0. 0. 0. 0. 0. 9.80392192e-03 0. 0. 0. 0. 0. 0. 0.
      0. 0. 0. 0. 0. 0. 9.80392192e-03 0. 0. 0. 0. 0. 0. 0. 0. 0. 0. 0.
      9.80392192e-03 0. 0. 9.80392192e-03 0. 0. 0. 0. 0. 0. 0. 0. 0. 0.
      0. 0. 0. 0. 0. 0. 9.80392192e-03 9.80392192e-03 0. 0. 0. 0. 0. 0.
      0. 0. 0. 0. 0. 0. 0. 0. 0. 0. 0. 0. 0. 0. 0. 0. 0. 0. 0. 0. 0.
      9.80392192e-03 0. 0. 0. 0. 0. 0. 0. 0. 0. 0.</_>
    <_>
      0. 0. 0. 0. 0. 0. 9.52380989e-03 0. 0. 0. 9.52380989e-03 0. 0. 0.
      0. 0. 9.52380989e-03 0. 0. 1.90476198e-02 0. 0. 0. 0. 0.
      1.90476198e-02 0. 0. 0. 0. 0. 0. 0. 9.52380989e-03 0. 0. 0.
      9.52380989e-03 0. 0. 0. 0. 0. 0. 0. 0. 0. 0. 0. 0. 0. 0. 0. 0. 0.
      1.90476198e-02 0. 0. 0. 0. 0. 0. 0. 0. 9.52380989e-03 0. 0. 0. 0.
      0. 0. 0. 0. 0. 0. 0. 0. 9.52380989e-03 0. 0. 1.90476198e-02 0. 0.
      0. 0. 1.90476198e-02 0. 0. 0. 0. 0. 0. 0. 0. 0. 0. 0. 0. 0. 0. 0.
      0. 0. 0. 0. 0. 0. 0. 0. 0. 0. 0. 0. 0. 0. 0. 0. 0. 0. 0. 0. 0. 0.
      0. 0. 0. 0. 0. 0. 0. 0. 0. 0. 0. 0. 0. 0. 0. 0. 0. 0. 0. 0. 0. 0.
      0. 0. 0. 0. 9.52380989e-03 0. 0. 0. 0. 0. 0. 0. 0. 9.52380989e-03
      0. 0. 0. 0. 0. 0. 0. 0. 0. 9.52380989e-03 0. 0. 0. 0. 0. 0. 0. 0.
      9.52380989e-03 0. 0. 0. 0. 0. 0. 0. 9.52380989e-03 0. 0. 0. 0. 0.
      0. 0. 0. 0. 0. 0. 0. 0. 0. 9.52380989e-03 0. 0. 0. 0. 0. 0. 0.
      9.52380989e-03 0. 0. 0. 0. 0. 0. 0. 0. 0. 0. 0. 0. 0. 0. 0. 0. 0.
      0. 0. 0. 0. 0. 0. 0. 0. 0. 0. 0. 0. 0. 0. 0. 0. 0. 0. 0. 0.
      9.52380989e-03 0. 0. 0. 0. 0. 0. 0. 0. 0. 0. 0. 0. 0. 0. 0. 0. 0.
      0. 0. 0. 0. 0. 0. 0. 9.52380989e-03 0. 0. 0. 0. 9.52380989e-03 0.
      0. 0. 0. 0. 0. 0. 0. 0. 0. 0. 0. 9.52380989e-03 0. 0. 0. 0. 0. 0.
      0. 0. 0. 0. 0. 0. 0. 0. 0. 0. 0. 0. 0. 0. 0. 0. 0. 9.52380989e-03
      0. 0. 0. 0. 0. 0. 0. 9.52380989e-03 0. 0. 0. 0. 0. 0. 0. 0. 0.
      9.52380989e-03 0. 0. 0. 0. 0. 0. 0. 0. 0. 0. 9.52380989e-03 0. 0.
      0. 0. 9.52380989e-03 0. 0. 0. 0. 0. 0. 0. 0. 0. 0. 0.
      9.52380989e-03 0. 0. 0. 0. 9.52380989e-03 0. 0. 0. 0. 0. 0. 0. 0.
      0. 0. 0. 0. 0. 0. 0. 0. 0. 0. 0. 0. 0. 0. 0. 0. 0. 3.80952395e-02
      0. 0. 0. 9.52380989e-03 0. 0. 0. 0. 0. 0. 0. 0. 0. 0. 0. 0.
      9.52380989e-03 0. 9.52380989e-03 0. 0. 0. 0. 0. 9.52380989e-03 0.
      0. 0. 0. 0. 0. 0. 0. 0. 0. 0. 0. 0. 0. 0. 0. 0. 0. 0. 0. 0. 0. 0.
      0. 0. 2.85714306e-02 0. 0. 0. 0. 0. 0. 0. 0. 0. 0. 0. 0. 0.
      1.90476198e-02 0. 0. 0. 0. 0. 9.52380989e-03 0. 0. 0. 0. 0. 0. 0.
      0. 0. 0. 0. 1.90476198e-02 0. 9.52380989e-03 0. 0. 0. 0. 0. 0. 0.
      0. 0. 0. 0. 0. 0. 0. 0. 0. 0. 0. 0. 0. 0. 0. 0. 0. 9.52380989e-03
      9.52380989e-03 0. 0. 0. 0. 0. 0. 0. 0. 0. 0. 0. 0. 0. 0. 0. 0. 0.
      0. 2.85714306e-02 0. 0. 0. 0. 0. 9.52380989e-03 0. 0. 0. 0. 0. 0.
      0. 0. 0. 0. 0. 0. 0. 0. 0. 0. 0. 0. 0. 0. 0. 0. 0. 0. 0. 0. 0. 0.
      0. 0. 0. 0. 0. 0. 9.52380989e-03 0. 0. 1.90476198e-02 0. 0. 0.
      9.52380989e-03 0. 0. 0. 0. 9.52380989e-03 0. 0. 0. 0. 0. 0. 0. 0.
      0. 9.52380989e-03 0. 0. 0. 0. 0. 0. 0. 0. 0. 0. 0. 0. 0. 0. 0. 0.
      0. 0. 0. 0. 0. 0. 0. 0. 0. 0. 0. 0. 0. 0. 0. 0. 0. 0. 0. 0. 0. 0.
      0. 0. 0. 0. 0. 0. 0. 0. 0. 0. 0. 0. 0. 0. 0. 0. 0. 9.52380989e-03
      0. 0. 0. 9.52380989e-03 0. 0. 0. 0. 0. 0. 0. 0. 9.52380989e-03 0.
      0. 0. 0. 0. 0. 0. 0. 0. 0. 0. 9.52380989e-03 0. 0. 0.
      1.90476198e-02 0. 0. 9.52380989e-03 0. 0. 0. 0. 0. 0. 0. 0. 0. 0.
      0. 0. 0. 0. 0. 0. 0. 0. 0. 0. 0. 0. 0. 0. 0. 0. 0. 0. 0. 0. 0. 0.
      0. 0. 0. 0. 0. 0. 0. 0. 0. 0. 0. 9.52380989e-03 0. 0. 0. 0. 0. 0.
      0. 0. 0. 0. 9.52380989e-03 0. 0. 9.52380989e-03 0. 0. 0. 0. 0. 0.
      0. 0. 0. 0. 0. 0. 0. 0. 0. 0. 0. 1.90476198e-02 0. 0. 0. 0. 0. 0.
      0. 0. 1.90476198e-02 9.52380989e-03 0. 9.52380989e-03 0. 0. 0. 0.
      0. 0. 0. 0. 0. 9.52380989e-03 9.52380989e-03 9.52380989e-03 0. 0.
      0. 0. 0. 0. 0. 0. 0. 0. 0. 0. 0. 0. 0. 9.52380989e-03 0. 0. 0. 0.
      0. 0. 0. 0. 0. 9.52380989e-03 0. 0. 0. 0. 0. 0. 0. 0. 0. 0. 0.
      9.52380989e-03 0. 0. 0. 0. 0. 0. 0. 0. 0. 0. 0. 0. 0. 0. 0. 0. 0.
      0. 0. 0. 0. 0. 0. 0. 0. 0. 0. 0. 0. 0. 0. 0. 0. 0. 0. 0. 0. 0.
      9.52380989e-03 9.52380989e-03 9.52380989e-03 0. 9.52380989e-03 0.
      0. 0. 0. 0. 0. 0. 0. 9.52380989e-03 0. 0. 0. 0. 0. 0. 0. 0. 0. 0.
      0. 0. 0. 0. 9.52380989e-03 0. 9.52380989e-03 0. 0. 0.
      9.52380989e-03 0. 0. 0. 0. 0. 0. 0. 0. 0. 0. 0. 0. 0. 0. 0. 0. 0.
      0. 0. 0. 0. 0. 0. 0. 0. 0. 0. 0. 0. 0. 9.52380989e-03 0. 0. 0. 0.
      0. 0. 0. 0. 0. 0. 0. 0. 0. 0. 0. 0. 0. 0. 0. 0. 0. 0. 0. 0. 0. 0.
      0. 0. 0. 0. 0. 0. 0. 0. 0. 0. 0. 0. 0. 0. 0. 0. 9.52380989e-03 0.
      0. 0. 0. 0. 9.52380989e-03 9.52380989e-03 0. 0. 0. 0. 0. 0. 0. 0.
      0. 0. 0. 9.52380989e-03 0. 0. 9.52380989e-03 0. 0. 9.52380989e-03
      0. 0. 0. 0. 0. 0. 0. 0. 0. 0. 0. 2.85714306e-02 0. 9.52380989e-03
      0. 0. 0. 0.</_>
    <_>
      0. 0. 9.90098994e-03 0. 0. 0. 0. 0. 0. 0. 9.90098994e-03 0. 0. 0.
      0. 0. 0. 0. 0. 0. 0. 0. 0. 0. 0. 0. 0. 0. 0. 0. 9.90098994e-03 0.
      0. 0. 0. 0. 0. 0. 0. 0. 0. 0. 0. 1.98019799e-02 0. 0. 0. 0. 0. 0.
      0. 0. 9.90098994e-03 0. 0. 0. 0. 0. 0. 0. 0. 9.90098994e-03 0. 0.
      0. 0. 0. 0. 0. 0. 0. 0. 0. 0. 9.90098994e-03 0. 0. 0. 0. 0. 0.
      9.90098994e-03 0. 0. 1.98019799e-02 0. 0. 0. 0. 0. 0.
      9.90098994e-03 0. 0. 0. 0. 0. 0. 9.90098994e-03 0. 0. 0. 0. 0. 0.
      0. 0. 0. 0. 0. 0. 0. 9.90098994e-03 0. 0. 0. 0. 0. 0. 0. 0. 0. 0.
      9.90098994e-03 0. 0. 0. 0. 0. 0. 0. 0. 0. 0. 0. 0. 0. 0. 0. 0. 0.
      9.90098994e-03 0. 9.90098994e-03 0. 0. 0. 0. 0. 0. 0. 0. 0. 0. 0.
      9.90098994e-03 9.90098994e-03 0. 0. 0. 0. 0. 0. 0. 0. 0. 0. 0. 0.
      0. 0. 0. 0. 0. 0. 0. 0. 0. 0. 0. 0. 0. 0. 0. 0. 0. 0. 0. 0. 0.
      9.90098994e-03 0. 0. 9.90098994e-03 0. 0. 0. 9.90098994e-03
      9.90098994e-03 0. 0. 0. 0. 0. 0. 0. 0. 0. 0. 0. 0. 0. 0. 0. 0. 0.
      0. 0. 0. 0. 0. 0. 0. 0. 0. 0. 0. 9.90098994e-03 0. 0. 0. 0. 0. 0.
      0. 0. 0. 0. 0. 0. 1.98019799e-02 0. 0. 0. 0. 0. 0. 0. 0. 0. 0. 0.
      0. 0. 0. 9.90098994e-03 0. 0. 0. 0. 0. 0. 0. 0. 0. 0. 0. 0.
      9.90098994e-03 0. 0. 0. 0. 0. 0. 0. 0. 9.90098994e-03 0. 0. 0. 0.
      0. 0. 0. 0. 0. 0. 0. 0. 9.90098994e-03 0. 0. 0. 0. 0. 0. 0. 0. 0.
      0. 0. 0. 0. 0. 0. 0. 0. 0. 0. 9.90098994e-03 0. 9.90098994e-03 0.
      0. 0. 0. 0. 0. 0. 0. 0. 0. 9.90098994e-03 0. 0. 0. 0. 0. 0. 0. 0.
      0. 0. 0. 0. 0. 9.90098994e-03 0. 0. 0. 0. 9.90098994e-03
      9.90098994e-03 0. 0. 0. 0. 0. 0. 0. 0. 0. 0. 0. 0. 0.
      9.90098994e-03 0. 0. 0. 0. 0. 0. 0. 9.90098994e-03 9.90098994e-03
      0. 0. 0. 0. 0. 0. 0. 0. 0. 0. 0. 0. 0. 0. 0. 0. 9.90098994e-03 0.
      0. 0. 0. 9.90098994e-03 0. 0. 0. 0. 0. 9.90098994e-03 0.
      9.90098994e-03 0. 0. 0. 0. 0. 0. 0. 0. 0. 0. 0. 0. 0. 0. 0. 0. 0.
      0. 0. 0. 9.90098994e-03 0. 0. 9.90098994e-03 0. 0. 0. 0. 0. 0. 0.
      0. 0. 0. 0. 0. 0. 9.90098994e-03 9.90098994e-03 9.90098994e-03 0.
      0. 0. 9.90098994e-03 0. 9.90098994e-03 9.90098994e-03
      9.90098994e-03 9.90098994e-03 0. 9.90098994e-03 0. 0.
      9.90098994e-03 0. 0. 0. 0. 0. 0. 0. 0. 0. 0. 0. 0. 0. 0. 0. 0. 0.
      0. 0. 0. 0. 0. 0. 0. 0. 0. 0. 0. 0. 0. 0. 0. 0. 0. 0. 0. 0. 0. 0.
      0. 0. 0. 0. 0. 0. 0. 0. 0. 0. 0. 0. 0. 0. 0. 0. 0. 0. 0. 0. 0. 0.
      0. 0. 9.90098994e-03 0. 0. 0. 0. 0. 0. 0. 0. 0. 0. 0. 0. 0. 0.
      9.90098994e-03 0. 0. 0. 0. 0. 0. 0. 0. 0. 0. 0. 0. 0. 0. 0. 0. 0.
      9.90098994e-03 0. 0. 0. 0. 0. 0. 0. 0. 0. 0. 0. 9.90098994e-03 0.
      0. 0. 0. 0. 0. 0. 0. 0. 0. 0. 0. 0. 0. 0. 0. 0. 0. 0. 0. 0. 0. 0.
      0. 0. 0. 0. 0. 0. 0. 0. 0. 0. 0. 0. 0. 0. 0. 0. 0. 0. 0. 0. 0. 0.
      0. 0. 0. 0. 0. 0. 0. 0. 0. 0. 0. 0. 0. 0. 0. 0. 0. 0. 0. 0. 0. 0.
      0. 0. 0. 0. 0. 0. 0. 0. 0. 9.90098994e-03 0. 0. 9.90098994e-03 0.
      9.90098994e-03 0. 0. 0. 0. 0. 0. 0. 0. 0. 0. 0. 0. 0. 0. 0. 0. 0.
      0. 9.90098994e-03 0. 1.98019799e-02 0. 0. 0. 0. 0. 0. 0. 0. 0. 0.
      0. 0. 0. 0. 0. 9.90098994e-03 0. 0. 0. 0. 0. 0. 0. 0. 0. 0.
      9.90098994e-03 0. 0. 0. 0. 0. 0. 0. 0. 0. 0. 0. 0. 0. 0. 0. 0. 0.
      9.90098994e-03 0. 0. 0. 9.90098994e-03 0. 0. 9.90098994e-03 0. 0.
      0. 0. 0. 0. 0. 0. 0. 0. 0. 9.90098994e-03 0. 0. 9.90098994e-03 0.
      9.90098994e-03 0. 0. 0. 0. 0. 0. 0. 0. 0. 0. 1.98019799e-02 0. 0.
      0. 0. 0. 0. 0. 0. 0. 0. 0. 0. 0. 0. 0. 0. 9.90098994e-03 0. 0. 0.
      0. 0. 0. 0. 0. 0. 1.98019799e-02 0. 9.90098994e-03 0.
      9.90098994e-03 0. 0. 0. 0. 0. 0. 0. 9.90098994e-03 0. 0. 0. 0. 0.
      0. 0. 0. 0. 0. 0. 0. 0. 0. 0. 0. 0. 0. 0. 0. 0. 0. 0. 0. 0. 0. 0.
      9.90098994e-03 0. 0. 0. 0. 0. 0. 0. 0. 0. 0. 9.90098994e-03 0. 0.
      0. 0. 0. 9.90098994e-03 0. 0. 0. 0. 0. 0. 0. 0. 0. 0. 0. 0. 0. 0.
      0. 1.98019799e-02 0. 9.90098994e-03 0. 0. 0. 0. 0. 0. 0. 0. 0. 0.
      0. 0. 0. 0. 0. 0. 0. 0. 9.90098994e-03 0. 0. 9.90098994e-03
      9.90098994e-03 0. 0. 0. 0. 0. 0. 0. 0. 0. 0. 0. 0. 9.90098994e-03
      0. 0. 0. 0. 9.90098994e-03 0. 0. 0. 0. 0. 0. 9.90098994e-03 0. 0.
      0. 0. 0. 0. 0. 0. 0. 9.90098994e-03 0. 9.90098994e-03 0. 0. 0. 0.
      9.90098994e-03 0. 0. 0. 0. 0. 0. 0. 0. 9.90098994e-03 0. 0. 0. 0.
      0. 0. 0. 0. 0. 0. 0. 0. 0. 0. 0. 0. 0. 0. 0. 0. 0. 9.90098994e-03
      0. 9.90098994e-03 0. 0. 0. 0. 0. 0. 0. 0. 0. 0. 0. 0. 0. 0. 0. 0.
      0. 0. 0. 0. 0. 0. 0. 0. 0. 0. 0. 0. 0. 9.90098994e-03 0. 0. 0. 0.
      0. 0. 0. 0. 0. 9.90098994e-03 0. 0. 0. 0. 0. 0. 0. 0. 0. 0. 0. 0.
      0. 0. 0. 0. 0.</_>
    <_>
      0. 2.53164563e-02 0. 0. 0. 0. 1.26582282e-02 0. 1.26582282e-02 0.
      0. 0. 0. 0. 0. 0. 0. 0. 0. 0. 0. 0. 0. 0. 0. 0. 0. 0. 0. 0. 0. 0.
      0. 0. 0. 0. 0. 0. 0. 0. 0. 0. 1.26582282e-02 0. 0. 0. 0. 0. 0. 0.
      0. 2.53164563e-02 0. 0. 0. 0. 0. 0. 0. 0. 0. 0. 0. 0. 0. 0. 0. 0.
      0. 0. 0. 0. 1.26582282e-02 0. 1.26582282e-02 0. 1.26582282e-02 0.
      0. 0. 2.53164563e-02 0. 0. 0. 0. 0. 0. 0. 0. 0. 1.26582282e-02 0.
      0. 0. 0. 0. 0. 0. 0. 0. 0. 0. 0. 0. 0. 0. 0. 0. 0. 0. 0. 0. 0. 0.
      0. 0. 0. 0. 0. 2.53164563e-02 0. 0. 0. 0. 0. 0. 0. 0. 0. 0. 0. 0.
      0. 0. 0. 0. 0. 0. 0. 0. 0. 0. 0. 0. 0. 1.26582282e-02 0. 0. 0. 0.
      0. 0. 0. 0. 0. 0. 0. 0. 0. 0. 0. 0. 0. 0. 0. 0. 0. 0. 0. 0. 0. 0.
      0. 0. 0. 0. 1.26582282e-02 0. 0. 0. 0. 0. 0. 0. 0. 0. 0. 0. 0. 0.
      0. 0. 0. 0. 0. 0. 0. 0. 0. 0. 0. 0. 1.26582282e-02 0. 0. 0. 0. 0.
      0. 0. 0. 0. 0. 0. 0. 0. 0. 0. 0. 0. 0. 0. 0. 0. 1.26582282e-02 0.
      0. 0. 1.26582282e-02 0. 0. 0. 0. 1.26582282e-02 0. 0. 0. 0. 0. 0.
      0. 1.26582282e-02 0. 0. 0. 0. 1.26582282e-02 0. 0. 0. 0. 0. 0. 0.
      0. 0. 0. 0. 0. 0. 0. 0. 0. 0. 1.26582282e-02 0. 0. 0. 0. 0. 0. 0.
      0. 1.26582282e-02 0. 0. 0. 0. 0. 0. 0. 0. 0. 0. 0. 1.26582282e-02
      0. 0. 0. 0. 0. 0. 0. 0. 0. 0. 0. 0. 0. 0. 0. 0. 0. 0. 0. 0. 0. 0.
      0. 0. 0. 0. 0. 0. 0. 0. 0. 0. 0. 0. 0. 0. 0. 0. 0. 0. 0. 0. 0. 0.
      1.26582282e-02 0. 0. 0. 0. 0. 0. 0. 0. 0. 0. 0. 0. 0. 0. 0. 0. 0.
      0. 0. 0. 0. 0. 0. 0. 0. 0. 0. 0. 0. 0. 0. 0. 0. 0. 0. 0. 0. 0. 0.
      0. 0. 0. 0. 0. 0. 0. 0. 0. 0. 0. 0. 0. 0. 0. 0. 0. 0. 0. 0.
      1.26582282e-02 0. 0. 0. 0. 0. 0. 0. 0. 0. 0. 0. 0. 0. 0. 0. 0. 0.
      0. 0. 0. 0. 0. 0. 0. 0. 0. 0. 0. 0. 0. 0. 0. 0. 0. 0. 0. 0. 0. 0.
      0. 0. 0. 0. 0. 0. 0. 0. 0. 0. 0. 1.26582282e-02 1.26582282e-02 0.
      1.26582282e-02 1.26582282e-02 0. 0. 0. 0. 0. 0. 0. 0. 0. 0. 0. 0.
      0. 0. 0. 0. 1.26582282e-02 0. 0. 0. 1.26582282e-02 1.26582282e-02
      0. 0. 0. 0. 0. 1.26582282e-02 0. 0. 0. 0. 0. 1.26582282e-02 0. 0.
      0. 0. 0. 0. 0. 0. 0. 0. 0. 1.26582282e-02 0. 1.26582282e-02 0.
      1.26582282e-02 0. 0. 0. 0. 0. 0. 0. 0. 0. 0. 0. 0. 1.26582282e-02
      0. 0. 0. 0. 1.26582282e-02 1.26582282e-02 0. 0. 0. 0. 0. 0. 0. 0.
      2.53164563e-02 0. 0. 0. 0. 0. 0. 0. 0. 0. 0. 0. 0. 0. 0. 0. 0. 0.
      0. 0. 0. 0. 0. 0. 0. 0. 0. 1.26582282e-02 0. 0. 0. 0. 0. 0. 0. 0.
      0. 0. 0. 0. 0. 1.26582282e-02 0. 0. 0. 0. 0. 0. 0. 0. 0. 0. 0. 0.
      0. 0. 0. 0. 0. 0. 0. 0. 0. 0. 0. 0. 0. 0. 0. 0. 0. 0. 0. 0. 0. 0.
      0. 0. 0. 0. 0. 0. 0. 0. 0. 0. 0. 0. 0. 0. 0. 0. 0. 0. 0. 0. 0. 0.
      0. 0. 0. 0. 0. 0. 0. 0. 0. 0. 0. 0. 0. 1.26582282e-02 0. 0. 0. 0.
      0. 0. 0. 0. 0. 0. 0. 0. 0. 0. 0. 0. 0. 0. 0. 0. 0. 0. 0. 0. 0. 0.
      0. 0. 0. 1.26582282e-02 0. 0. 0. 0. 0. 0. 0. 0. 0. 0. 0. 0. 0. 0.
      1.26582282e-02 0. 0. 0. 0. 0. 0. 0. 0. 0. 0. 1.26582282e-02 0. 0.
      0. 0. 0. 0. 0. 0. 0. 0. 0. 0. 0. 0. 0. 0. 1.26582282e-02 0. 0.
      1.26582282e-02 0. 2.53164563e-02 0. 0. 0. 0. 0. 0. 0.
      1.26582282e-02 0. 1.26582282e-02 0. 0. 0. 0. 0. 0. 0. 0. 0. 0. 0.
      0. 0. 0. 0. 0. 0. 0. 0. 0. 0. 0. 0. 0. 0. 0. 0. 0. 0. 0. 0. 0. 0.
      0. 0. 0. 0. 0. 0. 0. 0. 0. 0. 0. 0. 0. 0. 0. 2.53164563e-02 0. 0.
      0. 0. 0. 0. 0. 0. 3.79746854e-02 0. 0. 0. 0. 0. 0. 0. 0. 0. 0. 0.
      0. 0. 0. 0. 0. 0. 2.53164563e-02 0. 0. 0. 0. 0. 0. 0. 0.
      1.26582282e-02 0. 1.26582282e-02 0. 0. 0. 0. 0. 0. 0. 0. 0. 0. 0.
      0. 0. 0. 1.26582282e-02 0. 0. 0. 0. 0. 1.26582282e-02 0.
      1.26582282e-02 0. 0. 0. 0. 0. 0. 0. 0. 0. 0. 0. 0. 0. 0. 0.
      1.26582282e-02 0. 0. 0. 0. 0. 0. 0. 0. 0. 0. 0. 0. 0. 0. 0. 0. 0.
      0. 0. 0. 0. 0. 1.26582282e-02 1.26582282e-02 0. 0. 0. 0. 0. 0. 0.
      0. 0. 0. 0. 0. 0. 0. 0. 0. 0. 0. 0. 0. 0. 0. 0. 0. 0. 0. 0. 0. 0.
      0. 0. 0. 0. 0. 0. 0. 0. 0. 0. 0. 0. 0. 0. 0. 1.26582282e-02 0. 0.
      0. 0. 0. 0. 0. 0. 0. 0. 0. 0. 0. 0. 0. 0. 0. 0. 0. 0. 0. 0. 0. 0.
      0. 0. 0. 0. 0. 0. 0. 1.26582282e-02 0. 0. 0. 0. 1.26582282e-02 0.
      0. 0. 0. 0. 0. 0. 0. 0. 0. 0. 0. 0. 0. 0. 1.26582282e-02 0. 0. 0.
      0. 0. 0. 0. 0. 0. 0. 1.26582282e-02 0. 0. 1.26582282e-02 0. 0. 0.
      0. 0. 0. 0. 0. 1.26582282e-02 0. 0. 0. 0. 0. 0.</_>
    <_>
      0. 0. 0. 0. 0. 0. 0. 0. 0. 0. 0. 0. 0. 0. 0. 0. 0. 0. 0. 0. 0. 0.
      0. 0. 9.34579410e-03 1.86915882e-02 0. 0. 9.34579410e-03 0. 0. 0.
      0. 9.34579410e-03 0. 0. 0. 0. 0. 0. 0. 0. 0. 0. 0. 0. 0. 0. 0. 0.
      0. 0. 0. 0. 0. 0. 0. 0. 0. 0. 0. 0. 0. 0. 0. 9.34579410e-03 0. 0.
      0. 0. 0. 0. 0. 0. 0. 0. 0. 0. 0. 0. 0. 9.34579410e-03 0. 0. 0. 0.
      9.34579410e-03 0. 0. 0. 0. 0. 0. 0. 0. 9.34579410e-03 0. 0. 0. 0.
      0. 0. 0. 0. 0. 0. 9.34579410e-03 0. 0. 0. 0. 0. 0. 0. 0. 0. 0. 0.
      0. 9.34579410e-03 9.34579410e-03 0. 0. 0. 0. 0. 0. 0. 0. 0. 0. 0.
      0. 0. 0. 0. 9.34579410e-03 0. 0. 0. 0. 0. 0. 0. 0. 0. 0. 0. 0. 0.
      0. 0. 0. 9.34579410e-03 0. 0. 0. 0. 0. 0. 0. 0. 9.34579410e-03 0.
      0. 0. 0. 0. 0. 0. 0. 0. 0. 9.34579410e-03 9.34579410e-03 0. 0. 0.
      0. 0. 0. 0. 9.34579410e-03 0. 0. 0. 0. 0. 0. 9.34579410e-03 0. 0.
      0. 9.34579410e-03 9.34579410e-03 0. 0. 0. 0. 0. 9.34579410e-03 0.
      0. 0. 0. 0. 0. 9.34579410e-03 0. 0. 0. 0. 0. 0. 0. 0. 0.
      1.86915882e-02 0. 0. 0. 0. 0. 9.34579410e-03 0. 9.34579410e-03 0.
      0. 0. 0. 0. 0. 0. 0. 0. 0. 0. 0. 0. 0. 0. 0. 0. 0. 0. 0. 0.
      9.34579410e-03 9.34579410e-03 0. 0. 0. 0. 0. 0. 0. 0. 0. 0. 0. 0.
      0. 0. 0. 0. 0. 0. 0. 0. 0. 0. 0. 9.34579410e-03 0. 0. 0. 0. 0. 0.
      0. 0. 0. 0. 9.34579410e-03 0. 0. 0. 0. 0. 0. 0. 0. 0. 0. 0. 0. 0.
      0. 9.34579410e-03 9.34579410e-03 0. 0. 0. 0. 0. 0. 0. 0. 0. 0. 0.
      0. 0. 1.86915882e-02 0. 0. 0. 0. 0. 0. 0. 0. 0. 0. 0. 0. 0. 0. 0.
      0. 0. 0. 0. 0. 0. 0. 0. 0. 9.34579410e-03 0. 0. 0. 1.86915882e-02
      0. 0. 0. 0. 0. 0. 0. 0. 0. 0. 0. 0. 0. 1.86915882e-02 0. 0. 0. 0.
      9.34579410e-03 0. 0. 0. 0. 0. 0. 0. 0. 0. 0. 9.34579410e-03 0. 0.
      0. 0. 0. 0. 0. 0. 0. 0. 0. 0. 0. 0. 0. 0. 0. 0. 0. 0. 0. 0. 0. 0.
      0. 0. 0. 0. 0. 9.34579410e-03 0. 0. 0. 0. 0. 0. 0. 0. 0. 0.
      9.34579410e-03 0. 0. 0. 0. 0. 0. 9.34579410e-03 0. 0. 0. 0. 0. 0.
      0. 0. 0. 0. 0. 0. 0. 0. 0. 0. 0. 0. 0. 0. 0. 0. 0. 0. 0. 0. 0. 0.
      0. 0. 0. 2.80373823e-02 0. 0. 0. 0. 0. 0. 0. 0. 0. 0. 0.
      1.86915882e-02 9.34579410e-03 0. 0. 0. 9.34579410e-03 0. 0. 0. 0.
      0. 0. 0. 0. 0. 0. 0. 0. 0. 0. 0. 0. 0. 0. 0. 0. 0. 0. 0. 0. 0. 0.
      0. 9.34579410e-03 0. 0. 0. 0. 0. 0. 0. 0. 0. 0. 0. 0. 0. 0. 0.
      9.34579410e-03 0. 0. 0. 0. 9.34579410e-03 0. 0. 9.34579410e-03 0.
      0. 0. 0. 0. 0. 2.80373823e-02 0. 9.34579410e-03 0. 0. 0. 0. 0. 0.
      0. 0. 0. 0. 1.86915882e-02 0. 0. 0. 0. 0. 0. 0. 0. 0. 0. 0. 0. 0.
      0. 0. 0. 0. 0. 0. 0. 0. 0. 0. 0. 0. 0. 0. 0. 0. 0. 0. 0. 0. 0. 0.
      0. 0. 0. 0. 0. 0. 0. 0. 0. 0. 0. 0. 0. 0. 0. 0. 0. 0. 0. 0. 0. 0.
      0. 0. 9.34579410e-03 0. 0. 0. 0. 0. 0. 0. 0. 9.34579410e-03 0. 0.
      0. 0. 0. 0. 0. 0. 0. 0. 0. 0. 9.34579410e-03 9.34579410e-03 0. 0.
      0. 0. 0. 0. 0. 0. 0. 9.34579410e-03 0. 9.34579410e-03 0. 0.
      9.34579410e-03 0. 0. 0. 0. 0. 0. 0. 0. 0. 0. 0. 0. 0. 0. 0. 0.
      9.34579410e-03 0. 9.34579410e-03 0. 0. 0. 9.34579410e-03 0. 0. 0.
      0. 0. 0. 0. 0. 0. 0. 0. 0. 0. 0. 0. 0. 0. 0. 0. 0. 0. 0. 0. 0. 0.
      9.34579410e-03 0. 0. 0. 0. 0. 0. 0. 0. 0. 0. 0. 0. 9.34579410e-03
      0. 0. 0. 0. 0. 0. 0. 0. 0. 0. 0. 0. 0. 0. 0. 0. 0. 0. 0. 0. 0. 0.
      0. 0. 0. 0. 9.34579410e-03 0. 0. 0. 9.34579410e-03 0. 0. 0. 0. 0.
      0. 0. 0. 0. 0. 0. 0. 0. 9.34579410e-03 0. 0. 0. 9.34579410e-03 0.
      0. 0. 9.34579410e-03 0. 0. 0. 0. 0. 0. 9.34579410e-03 0. 0. 0. 0.
      0. 0. 9.34579410e-03 9.34579410e-03 0. 0. 0. 0. 0. 0. 0.
      9.34579410e-03 0. 0. 0. 0. 0. 0. 0. 0. 0. 0. 0. 9.34579410e-03 0.
      0. 0. 0. 0. 0. 0. 0. 0. 0. 0. 0. 0. 0. 0. 0. 0. 0. 0. 0. 0. 0. 0.
      0. 0. 0. 0. 0. 0. 0. 0. 0. 0. 0. 0. 9.34579410e-03 9.34579410e-03
      0. 9.34579410e-03 0. 0. 0. 0. 0. 0. 0. 0. 0. 0. 0. 0. 0. 0. 0. 0.
      0. 9.34579410e-03 0. 0. 0. 0. 0. 0. 0. 0. 0. 0. 0. 0. 0. 0. 0. 0.
      0. 0. 0. 0. 0. 0. 0. 1.86915882e-02 0. 1.86915882e-02 0. 0. 0. 0.
      0. 0. 0. 0. 0. 0. 0. 0. 0. 0. 0. 0. 0. 0. 0. 0. 0. 0. 0. 0. 0. 0.
      0. 0. 0. 0. 0. 0. 0. 0. 0. 0. 0. 0. 0. 0. 0. 0. 0. 0. 0. 0. 0. 0.
      0. 0. 0. 0. 0. 0. 0. 0. 0. 0. 0. 0. 0. 0. 9.34579410e-03 0.
      9.34579410e-03 0. 0. 0. 0. 0. 0. 9.34579410e-03 9.34579410e-03 0.
      0. 0. 0. 9.34579410e-03 9.34579410e-03 0. 0. 0. 0. 0.
      9.34579410e-03 9.34579410e-03 0. 0. 0. 0. 0. 0. 0. 0. 0. 0.
      9.34579410e-03 9.34579410e-03 9.34579410e-03 9.34579410e-03 0. 0.
      9.34579410e-03 0. 0. 0. 0. 0. 0. 0. 0. 0. 9.34579410e-03 0. 0. 0.
      0. 0. 0. 0. 0. 9.34579410e-03 0. 0. 0. 0. 0.</_>
    <_>
      0. 0. 0. 0. 0. 0. 0. 1.78571437e-02 0. 0. 0. 0. 0. 0. 0. 0. 0. 0.
      0. 0. 0. 0. 0. 0. 0. 0. 0. 0. 0. 0. 0. 0. 0. 0. 1.78571437e-02 0.
      0. 0. 0. 0. 0. 0. 0. 0. 0. 0. 0. 0. 0. 0. 0. 0. 0. 1.78571437e-02
      0. 0. 0. 0. 0. 0. 0. 0. 0. 0. 0. 0. 0. 0. 0. 0. 0. 0. 0. 0. 0. 0.
      0. 0. 0. 0. 0. 1.78571437e-02 0. 0. 0. 1.78571437e-02 0. 0. 0. 0.
      0. 0. 0. 0. 0. 0. 0. 0. 0. 0. 0. 1.78571437e-02 0. 0. 0. 0.
      1.78571437e-02 1.78571437e-02 0. 0. 0. 0. 0. 0. 0. 0. 0. 0. 0. 0.
      0. 0. 0. 0. 0. 0. 0. 0. 0. 0. 0. 0. 0. 0. 0. 0. 0. 0. 0. 0.
      1.78571437e-02 1.78571437e-02 0. 0. 0. 0. 0. 0. 0. 0. 0. 0. 0. 0.
      0. 0. 0. 0. 0. 0. 0. 0. 0. 0. 0. 0. 0. 0. 1.78571437e-02 0. 0. 0.
      0. 0. 0. 0. 0. 0. 0. 0. 0. 0. 0. 0. 0. 0. 0. 0. 0. 0. 0. 0. 0. 0.
      0. 0. 0. 0. 0. 0. 0. 0. 0. 0. 0. 0. 0. 0. 0. 0. 0. 0.
      1.78571437e-02 0. 0. 0. 1.78571437e-02 0. 0. 0. 1.78571437e-02 0.
      0. 0. 0. 0. 0. 0. 0. 0. 0. 0. 0. 0. 0. 0. 0. 0. 0. 0. 0. 0. 0.
      3.57142873e-02 0. 0. 0. 0. 0. 0. 1.78571437e-02 0. 0. 0. 0. 0. 0.
      0. 0. 0. 0. 0. 0. 0. 0. 0. 0. 0. 0. 0. 0. 0. 1.78571437e-02 0. 0.
      0. 0. 0. 0. 0. 0. 0. 1.78571437e-02 0. 0. 0. 0. 0. 0. 0. 0. 0.
      1.78571437e-02 0. 0. 1.78571437e-02 0. 0. 0. 0. 0. 0. 0. 0. 0. 0.
      0. 0. 0. 0. 0. 0. 0. 0. 0. 0. 1.78571437e-02 0. 0. 0. 0. 0. 0. 0.
      0. 0. 0. 0. 0. 1.78571437e-02 0. 1.78571437e-02 0. 0. 0. 0. 0. 0.
      0. 0. 0. 0. 0. 0. 0. 1.78571437e-02 0. 0. 0. 0. 0. 0. 0. 0. 0. 0.
      0. 0. 0. 0. 0. 0. 0. 0. 0. 0. 0. 0. 0. 0. 0. 0. 0. 0. 0. 0. 0. 0.
      0. 0. 0. 0. 0. 0. 0. 0. 0. 0. 0. 0. 0. 0. 0. 0. 0. 0. 0. 0. 0. 0.
      0. 0. 0. 0. 0. 0. 0. 0. 0. 0. 1.78571437e-02 0. 0. 0. 0. 0. 0. 0.
      0. 0. 0. 0. 0. 0. 0. 0. 0. 0. 0. 0. 0. 0. 0. 0. 0. 0. 0. 0. 0. 0.
      0. 1.78571437e-02 0. 0. 0. 0. 0. 0. 0. 0. 0. 0. 0. 0. 0. 0. 0. 0.
      0. 0. 0. 0. 0. 0. 0. 0. 0. 0. 0. 0. 0. 0. 0. 0. 0. 0. 0. 0. 0. 0.
      1.78571437e-02 0. 0. 0. 0. 0. 0. 0. 0. 0. 0. 0. 0. 0. 0. 0. 0. 0.
      0. 0. 0. 0. 0. 0. 0. 0. 0. 0. 0. 0. 0. 0. 0. 0. 0. 0. 0.
      1.78571437e-02 0. 0. 0. 0. 0. 0. 0. 0. 0. 0. 0. 0. 0. 0. 0. 0. 0.
      0. 0. 0. 0. 0. 0. 0. 0. 0. 0. 0. 0. 0. 0. 0. 0. 0. 0. 0. 0. 0. 0.
      0. 0. 0. 0. 0. 0. 0. 1.78571437e-02 0. 0. 0. 0. 0. 0. 0. 0. 0. 0.
      0. 0. 0. 0. 0. 0. 0. 0. 0. 1.78571437e-02 0. 0. 0. 0. 0. 0. 0. 0.
      0. 0. 0. 0. 0. 0. 0. 0. 0. 0. 0. 0. 0. 0. 0. 0. 1.78571437e-02 0.
      0. 0. 0. 0. 0. 0. 0. 0. 0. 0. 0. 0. 0. 0. 0. 0. 0. 0. 0. 0. 0. 0.
      0. 0. 0. 0. 0. 0. 0. 0. 0. 1.78571437e-02 0. 0. 0. 1.78571437e-02
      0. 1.78571437e-02 0. 0. 0. 0. 0. 1.78571437e-02 0. 0. 0. 0. 0. 0.
      0. 0. 0. 0. 0. 0. 0. 3.57142873e-02 0. 1.78571437e-02 0. 0. 0.
      1.78571437e-02 0. 0. 0. 0. 0. 0. 0. 0. 0. 0. 0. 0. 0. 0. 0. 0. 0.
      0. 0. 0. 0. 0. 0. 0. 0. 0. 0. 0. 0. 0. 0. 0. 0. 0. 0. 0. 0. 0. 0.
      0. 0. 1.78571437e-02 0. 0. 0. 0. 0. 0. 0. 0. 0. 0. 0. 0. 0. 0. 0.
      0. 0. 0. 0. 0. 0. 0. 0. 0. 0. 0. 0. 0. 0. 0. 0. 0. 0. 0. 0. 0. 0.
      1.78571437e-02 0. 0. 0. 0. 0. 0. 0. 0. 0. 1.78571437e-02
      1.78571437e-02 0. 0. 0. 0. 0. 0. 0. 0. 0. 0. 0. 0. 0. 0. 0. 0. 0.
      0. 0. 0. 0. 0. 0. 0. 0. 0. 0. 0. 0. 0. 0. 0. 0. 0. 0. 0. 0. 0.
      1.78571437e-02 0. 3.57142873e-02 0. 0. 0. 0. 0. 0. 0. 0. 0. 0. 0.
      0. 0. 0. 0. 0. 0. 0. 0. 1.78571437e-02 0. 0. 0. 0. 0. 0. 0. 0. 0.
      0. 0. 0. 0. 0. 0. 0. 0. 0. 0. 0. 0. 0. 0. 0. 0. 0. 0. 0. 0. 0. 0.
      1.78571437e-02 0. 0. 0. 0. 0. 0. 0. 0. 0. 0. 0. 0. 0. 0. 0. 0. 0.
      0. 0. 1.78571437e-02 0. 0. 0. 0. 0. 0. 0. 0. 0. 0. 0. 0. 0. 0.
      1.78571437e-02 0. 0. 0. 0. 0. 0. 0. 0. 0. 0. 0. 0. 0. 0. 0. 0. 0.
      1.78571437e-02 0. 0. 0. 1.78571437e-02 1.78571437e-02 0. 0. 0. 0.
      0. 0. 0. 0. 0. 0. 0. 0. 0. 0. 0. 0. 0. 0. 0. 0. 0. 0. 0. 0.
      1.78571437e-02 0. 0. 0. 0. 0. 0. 0. 0. 0. 0. 0. 0. 0. 0. 0. 0. 0.
      0. 0. 0. 0. 0. 0. 0. 0. 0. 0. 0. 0. 0. 0. 0. 0. 0. 0. 0. 0. 0. 0.
      0. 0. 0. 0. 0. 0. 0. 0. 0. 0. 0. 0. 1.78571437e-02 0. 0. 0. 0. 0.
      0.</_>
    <_>
      0. 0. 0. 0. 0. 0. 0. 0. 0. 0. 0. 0. 0. 0. 0. 0. 0. 0. 0. 0. 0. 0.
      0. 2.56410260e-02 0. 0. 0. 0. 0. 0. 0. 0. 1.28205130e-02 0. 0. 0.
      0. 0. 0. 0. 0. 0. 0. 0. 0. 0. 0. 0. 0. 0. 1.28205130e-02 0. 0. 0.
      0. 0. 0. 0. 0. 0. 0. 0. 0. 0. 0. 0. 0. 1.28205130e-02 0. 0. 0. 0.
      0. 0. 0. 0. 1.28205130e-02 0. 0. 1.28205130e-02 0. 0. 0. 0. 0. 0.
      0. 0. 0. 0. 0. 0. 0. 0. 0. 0. 0. 0. 0. 0. 0. 0. 0. 0.
      1.28205130e-02 0. 0. 0. 0. 0. 0. 0. 0. 0. 0. 1.28205130e-02 0. 0.
      0. 0. 0. 0. 0. 0. 0. 0. 0. 0. 0. 0. 0. 0. 0. 0. 1.28205130e-02 0.
      0. 0. 0. 0. 0. 0. 0. 0. 0. 0. 0. 0. 0. 0. 0. 0. 0. 0. 0.
      1.28205130e-02 0. 0. 0. 0. 0. 0. 0. 0. 0. 0. 0. 0. 0. 0. 0. 0. 0.
      0. 0. 0. 0. 0. 0. 0. 0. 0. 0. 0. 0. 1.28205130e-02 0. 0.
      1.28205130e-02 1.28205130e-02 0. 0. 0. 0. 0. 1.28205130e-02 0. 0.
      0. 0. 0. 0. 0. 0. 0. 0. 0. 0. 0. 0. 0. 0. 0. 0. 0. 0. 0. 0. 0. 0.
      0. 0. 0. 2.56410260e-02 0. 0. 0. 0. 1.28205130e-02 0. 0. 0. 0. 0.
      1.28205130e-02 0. 0. 0. 0. 0. 0. 0. 0. 0. 0. 0. 2.56410260e-02 0.
      0. 0. 0. 0. 0. 0. 0. 0. 0. 0. 0. 1.28205130e-02 1.28205130e-02 0.
      0. 0. 0. 0. 0. 0. 0. 0. 0. 0. 0. 0. 0. 0. 0. 0. 0. 0. 0. 0. 0. 0.
      0. 0. 0. 0. 0. 0. 0. 0. 0. 0. 0. 0. 0. 0. 0. 0. 0. 0. 0. 0. 0. 0.
      0. 0. 0. 0. 0. 0. 0. 0. 0. 0. 0. 0. 0. 0. 0. 0. 2.56410260e-02 0.
      0. 0. 0. 0. 0. 0. 0. 0. 0. 0. 0. 0. 0. 0. 0. 0. 0. 2.56410260e-02
      0. 0. 0. 0. 1.28205130e-02 0. 0. 0. 0. 0. 0. 0. 0. 1.28205130e-02
      0. 0. 0. 0. 0. 0. 0. 0. 0. 0. 1.28205130e-02 0. 0. 0. 0. 0. 0.
      1.28205130e-02 0. 0. 0. 0. 0. 0. 0. 0. 0. 0. 0. 0. 0.
      1.28205130e-02 0. 0. 0. 0. 0. 0. 0. 0. 0. 0. 0. 0. 0. 0.
      2.56410260e-02 0. 0. 0. 0. 0. 0. 0. 0. 0. 0. 0. 0. 0. 0. 0. 0. 0.
      0. 0. 0. 0. 0. 0. 0. 0. 0. 0. 1.28205130e-02 0. 0. 0. 0. 0.
      1.28205130e-02 0. 0. 0. 0. 0. 0. 0. 0. 1.28205130e-02 0. 0. 0. 0.
      0. 0. 0. 0. 0. 0. 0. 0. 0. 1.28205130e-02 0. 1.28205130e-02 0. 0.
      0. 0. 0. 0. 0. 0. 0. 0. 0. 0. 0. 0. 0. 0. 0. 0. 0. 0. 0. 0. 0. 0.
      0. 0. 0. 0. 0. 0. 0. 1.28205130e-02 0. 0. 0. 0. 0. 0. 0. 0. 0. 0.
      0. 0. 0. 0. 0. 0. 0. 0. 0. 0. 5.12820520e-02 1.28205130e-02 0. 0.
      0. 0. 0. 0. 0. 0. 0. 1.28205130e-02 0. 0. 0. 0. 0. 0.
      1.28205130e-02 0. 0. 1.28205130e-02 0. 0. 0. 0. 0. 1.28205130e-02
      0. 0. 0. 0. 0. 0. 0. 0. 0. 0. 0. 0. 0. 0. 0. 0. 0. 0. 0. 0. 0.
      1.28205130e-02 0. 0. 0. 0. 0. 0. 0. 1.28205130e-02 0. 0. 0. 0. 0.
      0. 0. 0. 0. 0. 0. 0. 0. 0. 0. 0. 0. 0. 0. 0. 0. 0. 0. 0. 0. 0. 0.
      0. 0. 0. 0. 0. 1.28205130e-02 0. 0. 0. 0. 0. 0. 0. 0. 0. 0. 0. 0.
      0. 0. 0. 0. 0. 0. 0. 0. 0. 0. 0. 0. 0. 0. 0. 0. 0. 0. 0. 0. 0. 0.
      0. 1.28205130e-02 0. 0. 0. 0. 0. 0. 0. 0. 0. 0. 0. 0. 0. 0. 0. 0.
      0. 0. 0. 0. 0. 0. 1.28205130e-02 0. 0. 0. 0. 0. 0. 0. 0. 0. 0. 0.
      0. 0. 0. 0. 0. 0. 0. 0. 0. 0. 0. 0. 0. 0. 0. 0. 0. 0. 0. 0.
      1.28205130e-02 0. 0. 0. 0. 0. 0. 0. 0. 0. 0. 0. 0. 0. 0. 0. 0.
      1.28205130e-02 0. 0. 0. 0. 0. 0. 0. 0. 0. 0. 0. 0. 0. 0. 0. 0. 0.
      0. 0. 0. 0. 0. 0. 0. 0. 0. 0. 0. 1.28205130e-02 0. 0.
      2.56410260e-02 0. 0. 0. 0. 0. 0. 0. 0. 0. 0. 0. 0. 0. 0. 0.
      1.28205130e-02 0. 0. 0. 0. 0. 1.28205130e-02 0. 0. 0. 0. 0. 0. 0.
      0. 0. 1.28205130e-02 0. 0. 0. 0. 0. 0. 0. 0. 0. 0. 0. 0. 0. 0. 0.
      0. 0. 0. 0. 0. 0. 0. 0. 0. 0. 0. 0. 0. 0. 0. 0. 0. 0. 0. 0. 0. 0.
      0. 0. 0. 0. 0. 0. 0. 0. 0. 0. 0. 1.28205130e-02 0. 0.
      1.28205130e-02 0. 0. 0. 0. 0. 0. 0. 0. 0. 0. 0. 0. 0. 0. 0. 0. 0.
      0. 0. 0. 0. 0. 0. 0. 0. 0. 1.28205130e-02 0. 0. 0. 0. 0. 0. 0.
      1.28205130e-02 0. 1.28205130e-02 0. 0. 0. 0. 1.28205130e-02 0. 0.
      0. 0. 0. 0. 0. 0. 0. 0. 0. 0. 0. 1.28205130e-02 0. 0. 0. 0. 0. 0.
      0. 0. 0. 0. 0. 1.28205130e-02 0. 0. 0. 0. 0. 0. 1.28205130e-02 0.
      0. 1.28205130e-02 0. 0. 0. 0. 0. 0. 0. 0. 0. 0. 0. 1.28205130e-02
      0. 0. 0. 0. 0. 0. 0. 1.28205130e-02 0. 0. 1.28205130e-02 0.
      1.28205130e-02 0. 0. 0. 0. 0. 0. 0. 0. 0. 0. 0. 0. 0. 0. 0. 0. 0.
      0. 0. 2.56410260e-02 0. 0. 0. 0. 0. 0. 0. 0. 0. 0. 0. 0. 0. 0. 0.
      0. 0. 0. 0. 0. 0. 0. 0. 0. 0. 0. 0. 0. 0. 0. 0. 0. 0. 0. 0. 0. 0.
      0. 0. 0. 0. 0. 0. 0. 0. 0. 0. 0.</_>
    <_>
      0. 0. 0. 0. 0. 0. 0. 0. 0. 0. 0. 0. 1.19047621e-02 0.
      1.19047621e-02 0. 0. 0. 0. 0. 0. 0. 0. 0. 0. 0. 0. 0. 0. 0. 0. 0.
      0. 0. 0. 0. 0. 0. 0. 0. 0. 0. 1.19047621e-02 0. 0. 0. 0. 0. 0. 0.
      0. 0. 0. 0. 0. 0. 0. 0. 0. 1.19047621e-02 0. 0. 0. 0. 0. 0. 0. 0.
      0. 0. 0. 0. 0. 0. 1.19047621e-02 0. 1.19047621e-02 0. 0. 0. 0. 0.
      0. 0. 0. 0. 0. 0. 0. 0. 0. 0. 1.19047621e-02 0. 0. 0. 0. 0. 0. 0.
      0. 1.19047621e-02 0. 0. 1.19047621e-02 0. 0. 0. 0. 0. 0. 0. 0.
      1.19047621e-02 0. 0. 0. 0. 0. 0. 0. 0. 0. 0. 2.38095243e-02 0. 0.
      0. 0. 0. 0. 0. 0. 0. 0. 0. 1.19047621e-02 0. 0. 0. 0. 0. 0. 0.
      1.19047621e-02 0. 0. 0. 0. 0. 1.19047621e-02 0. 0. 0. 0. 0. 0. 0.
      0. 0. 0. 1.19047621e-02 1.19047621e-02 0. 0. 0. 0. 0. 0. 0. 0. 0.
      0. 0. 0. 0. 0. 0. 0. 0. 0. 0. 0. 0. 0. 0. 0. 0. 0. 0. 0. 0. 0. 0.
      0. 0. 0. 0. 0. 0. 0. 0. 0. 0. 0. 0. 0. 0. 0. 0. 0. 0. 0. 0. 0. 0.
      0. 1.19047621e-02 0. 0. 0. 0. 2.38095243e-02 0. 0. 0. 0. 0. 0. 0.
      0. 0. 0. 0. 0. 0. 0. 0. 0. 0. 0. 0. 0. 0. 0. 0. 0. 0. 0. 0. 0. 0.
      0. 0. 0. 0. 0. 0. 1.19047621e-02 0. 1.19047621e-02 1.19047621e-02
      1.19047621e-02 0. 0. 0. 0. 0. 1.19047621e-02 0. 0. 0. 0. 0. 0. 0.
      0. 0. 0. 0. 0. 0. 1.19047621e-02 0. 0. 0. 0. 0. 1.19047621e-02 0.
      0. 0. 1.19047621e-02 0. 0. 0. 0. 0. 0. 0. 0. 0. 0. 0. 0. 0. 0. 0.
      0. 0. 0. 0. 0. 0. 0. 0. 0. 0. 0. 0. 0. 0. 0. 0. 0. 0. 0.
      2.38095243e-02 0. 0. 0. 0. 0. 0. 0. 0. 0. 0. 0. 0. 0. 0. 0. 0. 0.
      0. 0. 0. 0. 0. 0. 0. 0. 0. 0. 0. 0. 0. 0. 0. 0. 1.19047621e-02 0.
      0. 1.19047621e-02 0. 0. 0. 0. 0. 0. 0. 1.19047621e-02 0. 0. 0. 0.
      0. 0. 0. 0. 0. 0. 0. 0. 0. 0. 0. 0. 0. 0. 0. 0. 0. 0. 0. 0. 0. 0.
      0. 0. 0. 0. 0. 0. 0. 0. 0. 0. 0. 0. 0. 0. 0. 0. 0. 0. 0. 0. 0. 0.
      0. 0. 0. 0. 0. 0. 0. 0. 0. 1.19047621e-02 0. 0. 0. 0. 0.
      1.19047621e-02 0. 0. 0. 2.38095243e-02 0. 0. 0. 0. 0. 0. 0. 0. 0.
      0. 0. 0. 0. 0. 0. 0. 0. 0. 1.19047621e-02 0. 0. 0. 0. 0. 0. 0. 0.
      0. 0. 1.19047621e-02 0. 0. 0. 0. 0. 0. 0. 0. 0. 0. 0. 0. 0. 0. 0.
      0. 0. 0. 0. 0. 0. 0. 0. 0. 0. 0. 0. 0. 0. 0. 0. 0. 0.
      1.19047621e-02 0. 0. 0. 0. 0. 0. 0. 0. 0. 0. 0. 0. 0. 0. 0. 0. 0.
      0. 0. 0. 0. 0. 0. 0. 0. 0. 0. 0. 0. 0. 0. 0. 0. 0. 0. 0. 0.
      1.19047621e-02 0. 0. 1.19047621e-02 0. 0. 0. 0. 0. 0. 0. 0. 0. 0.
      0. 0. 0. 0. 0. 0. 0. 0. 0. 0. 0. 0. 0. 0. 0. 0. 0. 0. 0. 0. 0. 0.
      1.19047621e-02 1.19047621e-02 0. 0. 0. 0. 1.19047621e-02 0. 0. 0.
      0. 0. 0. 0. 0. 0. 0. 0. 0. 0. 0. 0. 0. 0. 0. 0. 0. 0. 0. 0. 0. 0.
      0. 0. 0. 0. 0. 1.19047621e-02 0. 0. 0. 0. 0. 0. 0. 0. 0. 0. 0. 0.
      0. 0. 0. 0. 0. 0. 0. 0. 0. 0. 0. 0. 0. 0. 0. 0. 2.38095243e-02 0.
      0. 0. 0. 0. 0. 2.38095243e-02 0. 0. 0. 0. 0. 0. 0. 0. 0. 0. 0. 0.
      0. 0. 2.38095243e-02 0. 0. 0. 0. 0. 0. 0. 0. 0. 0. 0. 0. 0. 0. 0.
      0. 0. 0. 0. 0. 0. 0. 0. 0. 0. 0. 0. 0. 0. 0. 0. 0. 0.
      1.19047621e-02 0. 0. 0. 0. 2.38095243e-02 0. 0. 1.19047621e-02 0.
      0. 0. 0. 0. 0. 1.19047621e-02 0. 0. 0. 0. 0. 0. 0. 0.
      1.19047621e-02 0. 0. 0. 0. 0. 1.19047621e-02 0. 0. 0. 0. 0. 0. 0.
      0. 2.38095243e-02 0. 0. 0. 0. 0. 0. 0. 0. 0. 0. 0. 0. 0. 0. 0. 0.
      0. 0. 0. 0. 0. 0. 0. 0. 0. 0. 0. 0. 0. 0. 0. 0. 0. 0. 0. 0. 0. 0.
      0. 0. 0. 0. 1.19047621e-02 0. 0. 0. 1.19047621e-02 0. 0. 0. 0. 0.
      0. 0. 0. 0. 0. 0. 0. 0. 0. 0. 0. 0. 0. 0. 0. 0. 0. 0. 0. 0. 0. 0.
      0. 0. 0. 0. 0. 0. 0. 0. 2.38095243e-02 0. 0. 0. 0. 0. 0. 0. 0. 0.
      0. 0. 0. 0. 0. 0. 0. 0. 0. 0. 0. 0. 0. 0. 0. 0. 0. 0. 0. 0. 0. 0.
      0. 0. 0. 0. 0. 0. 1.19047621e-02 0. 0. 0. 0. 0. 0. 0. 0. 0. 0. 0.
      0. 0. 0. 0. 0. 0. 0. 0. 0. 0. 0. 0. 0. 0. 1.19047621e-02 0. 0. 0.
      0. 0. 2.38095243e-02 0. 0. 0. 0. 0. 1.19047621e-02 0. 0. 0. 0. 0.
      0. 0. 0. 0. 0. 1.19047621e-02 0. 0. 0. 0. 0. 0. 0. 1.19047621e-02
      0. 0. 0. 0. 0. 0. 0. 1.19047621e-02 0. 0. 0. 0. 0. 0. 0. 0. 0.
      2.38095243e-02 0. 0. 1.19047621e-02 0. 0. 0. 0. 0. 0. 0. 0. 0. 0.
      0. 0. 1.19047621e-02 0. 0. 1.19047621e-02 0. 0. 0. 0.
      1.19047621e-02 0. 0. 0. 0. 0. 0. 0. 0. 0. 0. 0. 0. 0. 0. 0. 0. 0.
      0. 0. 1.19047621e-02 0. 1.19047621e-02 0. 0. 0. 0. 0. 0. 0. 0. 0.
      0. 0. 0. 0. 2.38095243e-02 0. 0. 1.19047621e-02 0.</_>
    <_>
      0. 0. 0. 0. 0. 0. 0. 0. 0. 0. 0. 0. 0. 6.45161280e-03 0. 0. 0.
      6.45161280e-03 0. 0. 0. 0. 0. 6.45161280e-03 6.45161280e-03 0. 0.
      0. 0. 0. 0. 0. 0. 0. 0. 0. 0. 0. 0. 0. 0. 0. 1.29032256e-02 0. 0.
      0. 0. 0. 6.45161280e-03 0. 0. 0. 0. 0. 0. 0. 0. 0. 0. 0. 0. 0.
      6.45161280e-03 0. 0. 0. 6.45161280e-03 0. 6.45161280e-03 0. 0. 0.
      0. 6.45161280e-03 1.29032256e-02 0. 0. 0. 0. 0. 0. 0. 0. 0. 0. 0.
      0. 0. 0. 0. 0. 0. 0. 0. 0. 0. 0. 0. 0. 0. 0. 0. 0. 0. 0.
      6.45161280e-03 0. 0. 0. 0. 6.45161280e-03 6.45161280e-03 0. 0.
      6.45161280e-03 0. 0. 0. 6.45161280e-03 0. 0. 0. 0. 0. 0. 0. 0. 0.
      0. 1.93548389e-02 0. 0. 6.45161280e-03 0. 0. 0. 0. 0. 0.
      1.93548389e-02 0. 0. 0. 6.45161280e-03 0. 6.45161280e-03 0. 0. 0.
      0. 0. 0. 0. 0. 0. 0. 0. 0. 0. 0. 0. 0. 0. 0. 6.45161280e-03 0. 0.
      0. 0. 0. 0. 0. 0. 6.45161280e-03 0. 0. 0. 0. 0. 0. 0. 0. 0. 0. 0.
      0. 0. 0. 0. 6.45161280e-03 0. 0. 0. 0. 0. 0. 0. 0. 0. 0. 0. 0. 0.
      0. 0. 0. 6.45161280e-03 0. 0. 0. 0. 0. 0. 0. 0. 0. 0. 0. 0. 0. 0.
      0. 0. 0. 6.45161280e-03 6.45161280e-03 6.45161280e-03
      6.45161280e-03 0. 0. 0. 0. 0. 0. 0. 0. 6.45161280e-03 0. 0. 0. 0.
      6.45161280e-03 0. 0. 0. 0. 0. 0. 0. 0. 0. 0. 0. 0. 0.
      6.45161280e-03 0. 0. 0. 1.29032256e-02 0. 6.45161280e-03 0. 0. 0.
      0. 0. 0. 0. 6.45161280e-03 0. 6.45161280e-03 0. 6.45161280e-03 0.
      6.45161280e-03 0. 0. 1.29032256e-02 0. 0. 6.45161280e-03
      6.45161280e-03 6.45161280e-03 0. 0. 0. 0. 0. 0. 0. 0. 0. 0. 0. 0.
      0. 0. 6.45161280e-03 0. 0. 0. 0. 0. 0. 0. 0. 0. 0. 0. 0. 0. 0. 0.
      0. 0. 0. 0. 0. 0. 6.45161280e-03 0. 0. 6.45161280e-03 0.
      6.45161280e-03 0. 0. 0. 0. 0. 0. 0. 0. 6.45161280e-03
      6.45161280e-03 0. 0. 0. 0. 0. 0. 0. 0. 0. 0. 0. 1.93548389e-02 0.
      1.29032256e-02 0. 0. 0. 0. 0. 0. 0. 0. 6.45161280e-03 0. 0.
      1.29032256e-02 0. 0. 6.45161280e-03 6.45161280e-03 0. 0. 0. 0. 0.
      0. 6.45161280e-03 0. 0. 0. 0. 0. 0. 0. 6.45161280e-03 0. 0. 0. 0.
      0. 0. 0. 0. 0. 0. 0. 0. 0. 0. 0. 0. 0. 0. 0. 0. 0. 0. 0. 0. 0. 0.
      0. 0. 0. 0. 6.45161280e-03 0. 0. 0. 1.29032256e-02 0. 0. 0. 0. 0.
      0. 6.45161280e-03 0. 6.45161280e-03 0. 0. 6.45161280e-03 0. 0. 0.
      0. 0. 0. 0. 0. 6.45161280e-03 6.45161280e-03 0. 0. 0.
      6.45161280e-03 0. 0. 0. 0. 0. 0. 0. 6.45161280e-03 6.45161280e-03
      0. 0. 0. 0. 0. 0. 0. 0. 0. 6.45161280e-03 0. 0. 0. 0. 0. 0. 0. 0.
      0. 0. 0. 6.45161280e-03 0. 0. 0. 0. 0. 0. 6.45161280e-03 0. 0. 0.
      0. 0. 0. 0. 0. 0. 0. 0. 6.45161280e-03 0. 0. 0. 0. 0. 0. 0. 0. 0.
      0. 0. 0. 0. 0. 0. 0. 0. 0. 0. 0. 0. 0. 0. 0. 0. 0. 6.45161280e-03
      6.45161280e-03 0. 0. 0. 0. 0. 0. 0. 0. 0. 0. 0. 0. 0. 0. 0. 0. 0.
      0. 0. 0. 0. 6.45161280e-03 0. 0. 0. 6.45161280e-03 6.45161280e-03
      0. 0. 0. 6.45161280e-03 0. 0. 0. 0. 0. 0. 0. 0. 0. 0. 0. 0.
      6.45161280e-03 0. 6.45161280e-03 0. 0. 0. 0. 0. 0. 6.45161280e-03
      0. 0. 0. 0. 0. 0. 0. 0. 0. 6.45161280e-03 0. 6.45161280e-03 0. 0.
      0. 0. 0. 0. 1.29032256e-02 0. 0. 6.45161280e-03 6.45161280e-03
      6.45161280e-03 0. 0. 0. 0. 0. 0. 0. 0. 0. 0. 0. 0. 0. 0. 0. 0. 0.
      0. 0. 0. 0. 0. 0. 6.45161280e-03 6.45161280e-03 0. 6.45161280e-03
      0. 6.45161280e-03 0. 0. 6.45161280e-03 0. 0. 0. 0. 6.45161280e-03
      0. 0. 0. 0. 1.29032256e-02 0. 0. 0. 0. 0. 0. 0. 0. 0. 0. 0. 0. 0.
      6.45161280e-03 6.45161280e-03 0. 0. 0. 0. 0. 6.45161280e-03 0.
      6.45161280e-03 0. 0. 0. 0. 0. 0. 0. 0. 0. 0. 0. 0. 0. 0. 0. 0. 0.
      0. 0. 0. 0. 0. 0. 0. 0. 0. 0. 1.29032256e-02 0. 0. 0. 0. 0. 0. 0.
      0. 0. 0. 6.45161280e-03 6.45161280e-03 6.45161280e-03 0. 0. 0. 0.
      0. 0. 0. 0. 1.29032256e-02 0. 0. 0. 0. 0. 0. 0. 0. 6.45161280e-03
      6.45161280e-03 0. 6.45161280e-03 0. 0. 1.93548389e-02 0. 0. 0. 0.
      6.45161280e-03 0. 0. 0. 0. 0. 0. 0. 0. 0. 0. 0. 0. 1.29032256e-02
      0. 0. 0. 0. 1.29032256e-02 0. 0. 0. 0. 1.29032256e-02 0. 0.
      6.45161280e-03 0. 0. 0. 6.45161280e-03 0. 0. 0. 0. 0. 0. 0. 0.
      6.45161280e-03 0. 0. 6.45161280e-03 0. 0. 0. 0. 0. 0. 0. 0. 0.
      6.45161280e-03 0. 0. 0. 0. 0. 0. 0. 0. 0. 0. 0. 0. 0. 0. 0. 0. 0.
      0. 0. 6.45161280e-03 6.45161280e-03 0. 0. 0. 0. 0. 0. 0. 0. 0. 0.
      0. 0. 0. 0. 0. 0. 0. 0. 0. 0. 0. 0. 0. 6.45161280e-03 0. 0.
      6.45161280e-03 0. 0. 0. 0. 0. 0. 0. 0. 0. 0. 0. 0. 0. 0.
      6.45161280e-03 6.45161280e-03 0. 0. 0. 0. 0. 0. 0. 0. 0. 0. 0. 0.
      0. 0. 0. 0. 0. 0. 0. 0. 0. 0. 0. 0. 0. 0. 0. 0. 0. 0. 0. 0. 0. 0.
      0. 0. 0. 0. 0. 0. 0. 0. 0. 0. 0. 0. 0. 0. 6.45161280e-03 0. 0. 0.
      0. 0. 0. 0. 0. 0. 0. 0. 0. 0. 0. 0. 0. 0. 0. 0. 0. 0. 0. 0. 0. 0.
      0. 6.45161280e-03 0. 0. 0. 0. 0. 0. 0. 0. 0. 0. 6.45161280e-03 0.
      0. 6.45161280e-03 0. 0. 0. 0. 0. 0. 0. 0. 0. 0. 6.45161280e-03 0.
      6.45161280e-03 0. 0. 0. 0. 0. 0. 0. 0. 6.45161280e-03 0.
      6.45161280e-03 6.45161280e-03 0. 0. 0. 0. 0. 6.45161280e-03 0. 0.
      0. 0. 0. 0. 0. 6.45161280e-03 0. 0. 0. 0. 0. 0. 0. 0. 0. 0. 0. 0.
      0. 0. 0. 0. 0. 0. 0. 0. 0. 6.45161280e-03 6.45161280e-03</_>
    <_>
      0. 0. 0. 0. 0. 0. 0. 0. 0. 0. 0. 0. 0. 1.01010101e-02 0. 0. 0. 0.
      0. 0. 0. 0. 0. 0. 0. 0. 0. 0. 0. 0. 0. 0. 0. 0. 0. 0. 0. 0. 0. 0.
      0. 0. 0. 0. 0. 0. 0. 0. 0. 0. 0. 0. 1.01010101e-02 0. 0. 0. 0. 0.
      0. 0. 0. 0. 1.01010101e-02 0. 0. 0. 0. 0. 0. 0. 0. 0. 0. 0. 0. 0.
      0. 0. 0. 0. 1.01010101e-02 2.02020202e-02 0. 0. 0. 1.01010101e-02
      0. 0. 0. 0. 0. 0. 0. 0. 0. 0. 0. 0. 0. 0. 0. 0. 0. 0. 0. 0.
      1.01010101e-02 0. 0. 0. 0. 0. 0. 0. 0. 0. 0. 0. 0. 0.
      1.01010101e-02 0. 0. 1.01010101e-02 0. 0. 0. 0. 0. 0. 0.
      1.01010101e-02 0. 0. 0. 0. 0. 0. 1.01010101e-02 0. 2.02020202e-02
      1.01010101e-02 0. 0. 0. 0. 0. 0. 0. 0. 0. 0. 1.01010101e-02 0. 0.
      0. 0. 0. 0. 1.01010101e-02 0. 0. 0. 0. 0. 0. 2.02020202e-02 0.
      2.02020202e-02 0. 0. 0. 0. 0. 0. 0. 0. 0. 0. 0. 0. 1.01010101e-02
      0. 0. 0. 0. 0. 0. 0. 0. 1.01010101e-02 0. 0. 0. 0. 0.
      1.01010101e-02 0. 0. 1.01010101e-02 0. 0. 0. 0. 0. 0. 0. 0. 0. 0.
      0. 0. 0. 0. 0. 0. 0. 0. 0. 0. 0. 0. 0. 1.01010101e-02 0. 0. 0. 0.
      0. 0. 0. 1.01010101e-02 0. 1.01010101e-02 0. 0. 0. 0. 0. 0. 0. 0.
      0. 0. 0. 0. 0. 0. 0. 0. 0. 0. 0. 0. 0. 0. 0. 0. 0. 1.01010101e-02
      0. 0. 0. 0. 0. 0. 0. 0. 0. 0. 1.01010101e-02 0. 0. 0. 0. 0. 0. 0.
      0. 0. 0. 0. 0. 0. 0. 0. 0. 0. 0. 1.01010101e-02 0. 0. 0. 0. 0. 0.
      0. 2.02020202e-02 0. 0. 0. 0. 0. 0. 0. 0. 1.01010101e-02 0. 0. 0.
      0. 0. 0. 1.01010101e-02 1.01010101e-02 0. 0. 0. 0. 0. 0. 0. 0. 0.
      0. 0. 0. 0. 0. 0. 0. 0. 0. 0. 0. 0. 0. 0. 0. 0. 0. 0. 0. 0.
      1.01010101e-02 0. 0. 0. 0. 0. 0. 0. 0. 0. 0. 0. 0. 0. 0. 0. 0. 0.
      0. 0. 0. 0. 0. 1.01010101e-02 0. 0. 0. 0. 0. 0. 0. 1.01010101e-02
      0. 0. 0. 0. 0. 0. 0. 0. 0. 0. 1.01010101e-02 0. 0. 0. 0. 0.
      1.01010101e-02 0. 0. 0. 0. 0. 1.01010101e-02 0. 0. 0. 0.
      1.01010101e-02 0. 0. 0. 0. 0. 0. 0. 0. 0. 0. 1.01010101e-02 0. 0.
      0. 0. 1.01010101e-02 0. 0. 0. 0. 0. 0. 0. 0. 0. 0. 0. 0. 0. 0. 0.
      0. 0. 0. 0. 0. 0. 0. 0. 0. 1.01010101e-02 0. 0. 0. 0. 0. 0.
      1.01010101e-02 0. 0. 1.01010101e-02 0. 0. 0. 0. 1.01010101e-02 0.
      0. 0. 0. 0. 0. 0. 0. 0. 0. 0. 0. 0. 0. 0. 0. 0. 0. 0. 0. 0. 0. 0.
      0. 0. 0. 0. 0. 0. 0. 0. 0. 0. 0. 0. 0. 0. 0. 0. 0. 0. 0. 0. 0. 0.
      0. 0. 0. 0. 0. 0. 0. 0. 0. 0. 0. 0. 0. 0. 0. 0. 0. 0. 0.
      1.01010101e-02 0. 0. 0. 0. 0. 0. 0. 0. 0. 0. 0. 0. 0. 0. 0. 0. 0.
      0. 0. 0. 0. 0. 0. 0. 0. 0. 0. 0. 0. 0. 0. 0. 0. 0. 0. 0. 0. 0. 0.
      0. 0. 0. 0. 0. 0. 0. 0. 0. 0. 0. 0. 1.01010101e-02 0. 0.
      1.01010101e-02 0. 0. 0. 0. 0. 0. 0. 0. 0. 0. 0. 0. 0. 0. 0. 0. 0.
      0. 0. 0. 0. 1.01010101e-02 0. 0. 0. 0. 0. 4.04040404e-02 0. 0. 0.
      0. 0. 0. 0. 0. 0. 0. 0. 0. 0. 0. 0. 0. 0. 0. 0. 0. 0. 0. 0. 0. 0.
      0. 1.01010101e-02 0. 0. 0. 0. 0. 0. 0. 0. 1.01010101e-02 0. 0. 0.
      0. 0. 0. 0. 0. 0. 0. 0. 0. 0. 0. 0. 0. 0. 0. 0. 0. 0. 0. 0. 0. 0.
      0. 0. 0. 0. 1.01010101e-02 0. 1.01010101e-02 0. 3.03030312e-02 0.
      1.01010101e-02 0. 0. 0. 0. 0. 0. 1.01010101e-02 0. 0. 0. 0. 0. 0.
      0. 0. 0. 0. 0. 0. 2.02020202e-02 0. 0. 0. 0. 0. 1.01010101e-02 0.
      0. 0. 0. 0. 0. 0. 0. 1.01010101e-02 0. 0. 0. 0. 0. 0. 0.
      1.01010101e-02 0. 0. 0. 0. 0. 0. 0. 0. 0. 0. 0. 0. 0. 0. 0. 0. 0.
      0. 0. 0. 0. 0. 0. 0. 0. 0. 0. 0. 0. 0. 1.01010101e-02 0.
      1.01010101e-02 0. 0. 1.01010101e-02 0. 1.01010101e-02
      1.01010101e-02 0. 0. 0. 0. 0. 0. 0. 0. 0. 0. 0. 0. 0. 0. 0. 0. 0.
      0. 0. 0. 0. 0. 0. 1.01010101e-02 0. 0. 0. 0. 0. 0. 1.01010101e-02
      0. 0. 1.01010101e-02 0. 0. 0. 0. 0. 0. 0. 0. 1.01010101e-02 0. 0.
      0. 0. 0. 0. 0. 0. 0. 1.01010101e-02 0. 0. 0. 0. 0. 0. 0. 0. 0. 0.
      0. 0. 0. 0. 0. 2.02020202e-02 0. 0. 0. 0. 0. 0. 0. 0. 0. 0. 0. 0.
      0. 0. 0. 0. 0. 1.01010101e-02 0. 0. 0. 0. 0. 0. 0. 0. 0. 0. 0. 0.
      0. 1.01010101e-02 1.01010101e-02 0. 0. 0. 0. 0. 0. 0. 0. 0. 0. 0.
      0. 0. 0. 0. 1.01010101e-02 0. 0. 0. 0. 0. 0. 0. 0. 0. 0. 0. 0. 0.
      0. 0. 0. 0. 0. 3.03030312e-02 0. 0. 0. 0. 0. 0. 0. 0. 0. 0.
      1.01010101e-02 0. 0. 0. 0. 0. 0. 0. 0. 0. 0. 0. 0. 0. 0.
      1.01010101e-02 0. 0. 0. 1.01010101e-02 0. 0. 1.01010101e-02 0. 0.
      0. 0. 1.01010101e-02 0. 0. 0. 0. 0. 0. 0. 0. 0. 0. 1.01010101e-02
      0. 0. 0. 0. 0. 0. 0. 0. 0. 0. 0. 0. 0. 0. 0. 1.01010101e-02 0. 0.
      0. 0. 0. 0. 0. 0. 0. 0. 0. 0. 0. 0. 0. 0. 0. 0. 0. 0.
      1.01010101e-02 0. 0. 0. 0. 0. 0. 1.01010101e-02 0. 0. 0. 0. 0. 0.
      0. 0.</_>
    <_>
      0. 0. 0. 0. 0. 0. 1.51515156e-02 0. 0. 0. 0. 0. 0. 0. 0. 0. 0. 0.
      0. 0. 0. 0. 0. 0. 0. 0. 0. 0. 0. 0. 0. 0. 0. 0. 0. 0. 0. 0. 0. 0.
      0. 0. 0. 0. 0. 0. 0. 0. 7.57575780e-03 0. 7.57575780e-03
      7.57575780e-03 7.57575780e-03 0. 0. 0. 0. 7.57575780e-03 0. 0. 0.
      0. 7.57575780e-03 7.57575780e-03 0. 0. 0. 0. 7.57575780e-03 0.
      7.57575780e-03 0. 0. 0. 0. 0. 0. 0. 0. 0. 0. 0. 0. 0. 0. 0. 0. 0.
      0. 0. 0. 0. 7.57575780e-03 0. 0. 0. 0. 0. 0. 0. 0. 0. 0. 0. 0. 0.
      0. 0. 0. 0. 0. 0. 0. 0. 0. 0. 0. 0. 0. 0. 0. 0. 0. 0. 0. 0. 0. 0.
      0. 0. 0. 0. 7.57575780e-03 0. 0. 0. 7.57575780e-03 7.57575780e-03
      0. 0. 7.57575780e-03 0. 0. 0. 0. 0. 0. 0. 0. 0. 0. 7.57575780e-03
      0. 0. 0. 0. 0. 0. 0. 0. 7.57575780e-03 0. 0. 0. 7.57575780e-03 0.
      0. 0. 0. 0. 0. 0. 0. 0. 0. 0. 0. 0. 0. 0. 0. 0. 0. 0. 0. 0. 0. 0.
      0. 7.57575780e-03 0. 0. 0. 0. 0. 7.57575780e-03 0. 0. 0. 0. 0. 0.
      0. 0. 7.57575780e-03 0. 0. 0. 0. 0. 0. 0. 0. 0. 0. 0. 0. 0. 0. 0.
      7.57575780e-03 0. 0. 0. 0. 0. 0. 0. 0. 0. 0. 7.57575780e-03 0. 0.
      7.57575780e-03 0. 0. 0. 0. 0. 7.57575780e-03 0. 7.57575780e-03 0.
      0. 0. 0. 0. 0. 0. 0. 0. 0. 0. 0. 0. 0. 0. 0. 7.57575780e-03 0. 0.
      7.57575780e-03 0. 0. 7.57575780e-03 0. 0. 0. 0. 7.57575780e-03 0.
      0. 0. 0. 0. 0. 0. 0. 0. 0. 0. 0. 0. 0. 0. 7.57575780e-03 0. 0. 0.
      0. 1.51515156e-02 0. 0. 0. 0. 7.57575780e-03 0. 0. 0. 0. 0.
      7.57575780e-03 7.57575780e-03 7.57575780e-03 0. 0. 0. 0. 0. 0.
      1.51515156e-02 0. 0. 0. 1.51515156e-02 0. 7.57575780e-03 0. 0. 0.
      7.57575780e-03 1.51515156e-02 0. 0. 0. 0. 0. 7.57575780e-03 0. 0.
      0. 0. 0. 0. 0. 0. 0. 0. 0. 0. 0. 0. 0. 0. 0. 0. 0. 7.57575780e-03
      0. 0. 0. 0. 0. 0. 0. 7.57575780e-03 0. 0. 0. 7.57575780e-03 0. 0.
      0. 7.57575780e-03 0. 0. 0. 0. 0. 0. 0. 7.57575780e-03 0. 0. 0. 0.
      0. 0. 7.57575780e-03 0. 0. 0. 0. 0. 0. 0. 0. 0. 0. 7.57575780e-03
      0. 0. 0. 0. 0. 0. 0. 0. 0. 0. 0. 0. 0. 0. 0. 0. 0. 0.
      1.51515156e-02 0. 0. 0. 0. 7.57575780e-03 0. 0. 0. 0. 0. 0. 0. 0.
      0. 0. 7.57575780e-03 0. 0. 0. 0. 0. 0. 0. 0. 7.57575780e-03 0. 0.
      0. 0. 0. 7.57575780e-03 0. 0. 0. 0. 0. 0. 0. 0. 0. 0. 0. 0. 0. 0.
      0. 0. 0. 0. 0. 0. 0. 0. 0. 0. 0. 0. 0. 0. 0. 0. 0. 0. 0. 0. 0.
      7.57575780e-03 0. 0. 0. 0. 0. 0. 0. 0. 0. 0. 0. 7.57575780e-03 0.
      0. 0. 0. 0. 7.57575780e-03 0. 0. 0. 0. 7.57575780e-03 0. 0. 0. 0.
      0. 0. 0. 0. 7.57575780e-03 0. 0. 0. 0. 0. 7.57575780e-03 0. 0. 0.
      0. 7.57575780e-03 0. 0. 0. 0. 0. 0. 0. 7.57575780e-03 0. 0.
      7.57575780e-03 0. 0. 0. 0. 0. 0. 0. 0. 0. 0. 0. 0. 0. 0. 0. 0. 0.
      0. 0. 0. 0. 0. 0. 0. 0. 0. 0. 0. 0. 0. 0. 0. 0. 0. 0. 0. 0. 0. 0.
      0. 0. 0. 0. 0. 0. 0. 0. 0. 0. 0. 0. 0. 7.57575780e-03 0. 0. 0. 0.
      0. 0. 0. 0. 0. 0. 0. 0. 7.57575780e-03 0. 7.57575780e-03 0. 0. 0.
      0. 0. 0. 0. 0. 0. 0. 0. 7.57575780e-03 0. 7.57575780e-03 0. 0. 0.
      0. 0. 0. 0. 0. 0. 0. 0. 0. 0. 0. 0. 0. 7.57575780e-03 0. 0. 0. 0.
      0. 0. 0. 0. 0. 0. 0. 0. 0. 0. 0. 0. 0. 0. 0. 0. 7.57575780e-03 0.
      0. 0. 7.57575780e-03 0. 7.57575780e-03 0. 0. 0. 0. 0. 0. 0. 0. 0.
      0. 7.57575780e-03 0. 7.57575780e-03 7.57575780e-03 0. 0. 0. 0. 0.
      0. 0. 0. 0. 0. 0. 0. 0. 0. 0. 7.57575780e-03 1.51515156e-02
      7.57575780e-03 0. 0. 0. 0. 0. 0. 2.27272734e-02 0. 0. 0. 0. 0.
      7.57575780e-03 0. 0. 0. 0. 0. 0. 0. 0. 0. 0. 1.51515156e-02 0. 0.
      0. 0. 0. 0. 0. 0. 0. 0. 0. 7.57575780e-03 0. 7.57575780e-03 0. 0.
      0. 0. 0. 0. 0. 0. 0. 0. 0. 0. 0. 0. 0. 0. 0. 0. 0. 0. 0.
      7.57575780e-03 0. 0. 0. 0. 0. 0. 7.57575780e-03 0. 0. 0. 0. 0.
      7.57575780e-03 0. 0. 0. 0. 0. 0. 0. 0. 7.57575780e-03 0. 0. 0. 0.
      7.57575780e-03 0. 0. 7.57575780e-03 0. 0. 0. 0. 0. 7.57575780e-03
      0. 0. 0. 0. 7.57575780e-03 0. 0. 0. 7.57575780e-03 0. 0. 0. 0.
      7.57575780e-03 0. 0. 0. 7.57575780e-03 0. 0. 0. 0. 0. 0. 0.
      7.57575780e-03 0. 0. 0. 0. 0. 0. 7.57575780e-03 0. 0. 0. 0. 0. 0.
      0. 0. 0. 0. 7.57575780e-03 0. 0. 0. 0. 0. 0. 0. 1.51515156e-02 0.
      0. 0. 1.51515156e-02 0. 0. 0. 0. 0. 0. 0. 0. 0. 7.57575780e-03 0.
      7.57575780e-03 0. 0. 0. 0. 0. 0. 0. 7.57575780e-03 0. 0.
      7.57575780e-03 0. 0. 0. 0. 0. 0. 0. 7.57575780e-03 0. 0.
      7.57575780e-03 0. 0. 0. 0. 7.57575780e-03 0. 0. 0. 0. 0. 0. 0.
      7.57575780e-03 0. 0. 0. 0. 0. 7.57575780e-03 0. 0. 0. 0. 0.
      7.57575780e-03 0. 0. 0. 0. 0. 0. 0. 0. 7.57575780e-03 0. 0. 0. 0.
      0. 0. 7.57575780e-03 0. 0. 0. 7.57575780e-03 0. 0. 0. 0. 0. 0. 0.
      0. 7.57575780e-03 0. 0. 0. 0. 0. 0. 7.57575780e-03 0. 0. 0. 0. 0.
      0. 0. 0. 0. 0. 0. 0. 0. 0. 0. 7.57575780e-03 0. 0. 0.
      7.57575780e-03 7.57575780e-03 0. 0. 0. 0. 0. 0. 0. 0.
      7.57575780e-03 0. 0. 0. 0. 0. 0. 0. 0. 0. 0. 0. 0. 0. 0. 0. 0. 0.
      0. 0. 0. 0. 0. 7.57575780e-03 0. 0. 0. 0. 0. 0. 0. 0.
      7.57575780e-03 0. 0.</_>
    <_>
      0. 0. 0. 0. 0. 0. 0. 0. 0. 0. 0. 0. 0. 0. 0. 0. 1.08695654e-02 0.
      0. 0. 0. 0. 0. 0. 0. 0. 0. 0. 0. 0. 0. 0. 0. 0. 0. 0. 0.
      1.08695654e-02 1.08695654e-02 0. 0. 0. 0. 0. 0. 0. 1.08695654e-02
      0. 0. 0. 1.08695654e-02 0. 0. 0. 0. 0. 0. 0. 0. 0. 0. 0. 0. 0. 0.
      0. 1.08695654e-02 0. 0. 0. 0. 0. 0. 0. 0. 0. 0. 0. 0. 0.
      1.08695654e-02 0. 0. 0. 0. 0. 0. 0. 0. 0. 0. 1.08695654e-02 0.
      1.08695654e-02 0. 0. 0. 0. 0. 0. 1.08695654e-02 0. 0. 0. 0. 0. 0.
      0. 0. 0. 0. 0. 0. 0. 0. 0. 0. 0. 0. 0. 0. 0. 1.08695654e-02 0. 0.
      0. 1.08695654e-02 0. 0. 0. 0. 0. 0. 0. 0. 0. 0. 0. 0. 0. 0. 0. 0.
      0. 0. 0. 0. 1.08695654e-02 0. 0. 0. 0. 0. 0. 0. 0. 0. 0. 0. 0. 0.
      0. 0. 0. 0. 0. 0. 0. 0. 0. 0. 0. 0. 0. 0. 0. 0. 0. 0. 0. 0. 0. 0.
      0. 0. 0. 0. 0. 0. 0. 0. 0. 0. 0. 0. 0. 0. 0. 0. 0. 0. 0. 0. 0. 0.
      0. 0. 0. 0. 0. 0. 0. 0. 0. 0. 0. 0. 0. 0. 0. 0. 0. 0. 0. 0. 0. 0.
      0. 0. 0. 0. 0. 0. 1.08695654e-02 0. 0. 0. 0. 0. 1.08695654e-02 0.
      0. 0. 0. 0. 0. 0. 0. 0. 0. 0. 0. 0. 0. 0. 0. 0. 0. 0. 0. 0. 0. 0.
      0. 0. 0. 0. 0. 0. 0. 1.08695654e-02 1.08695654e-02 1.08695654e-02
      0. 0. 0. 0. 0. 0. 1.08695654e-02 0. 0. 0. 0. 0. 0. 0.
      1.08695654e-02 2.17391308e-02 0. 0. 0. 1.08695654e-02 0. 0. 0. 0.
      0. 0. 0. 0. 0. 0. 0. 0. 1.08695654e-02 0. 0. 0. 0. 0. 0. 0. 0.
      1.08695654e-02 0. 0. 0. 0. 0. 0. 0. 0. 0. 0. 0. 0. 0. 0.
      1.08695654e-02 0. 0. 0. 0. 0. 0. 0. 0. 0. 1.08695654e-02 0. 0. 0.
      1.08695654e-02 0. 0. 0. 0. 0. 0. 0. 0. 0. 0. 0. 0. 0. 0. 0. 0. 0.
      0. 0. 0. 2.17391308e-02 0. 0. 0. 0. 0. 0. 0. 0. 0. 0. 0. 0. 0. 0.
      1.08695654e-02 0. 0. 0. 0. 0. 0. 0. 0. 0. 0. 2.17391308e-02 0. 0.
      1.08695654e-02 0. 0. 0. 0. 1.08695654e-02 0. 0. 0. 0. 0. 0. 0. 0.
      0. 0. 0. 1.08695654e-02 0. 0. 0. 0. 0. 0. 0. 0. 0. 0. 0. 0. 0. 0.
      0. 0. 0. 0. 0. 0. 0. 1.08695654e-02 0. 0. 0. 0. 0. 0.
      1.08695654e-02 1.08695654e-02 0. 0. 0. 0. 0. 0. 0. 0. 0. 0. 0. 0.
      0. 0. 0. 0. 1.08695654e-02 0. 1.08695654e-02 0. 0. 0. 0.
      1.08695654e-02 0. 0. 0. 1.08695654e-02 0. 0. 0. 0. 0. 0. 0. 0. 0.
      0. 0. 0. 0. 0. 0. 0. 0. 0. 0. 0. 0. 0. 0. 0. 0. 0. 0. 0. 0. 0. 0.
      0. 1.08695654e-02 0. 1.08695654e-02 0. 0. 0. 0. 0. 0. 0. 0. 0. 0.
      0. 0. 0. 0. 0. 0. 0. 0. 0. 0. 0. 0. 0. 0. 0. 0. 0. 0. 0. 0. 0. 0.
      0. 0. 1.08695654e-02 0. 0. 0. 0. 0. 0. 0. 0. 0. 0. 1.08695654e-02
      0. 0. 0. 0. 0. 0. 0. 0. 0. 0. 0. 0. 0. 0. 0. 0. 0. 0. 0. 0. 0. 0.
      0. 0. 0. 0. 0. 0. 0. 0. 0. 0. 0. 1.08695654e-02 0. 0. 0. 0. 0. 0.
      0. 0. 0. 0. 0. 0. 0. 0. 0. 0. 0. 0. 0. 0. 0. 0. 0. 0. 0. 0. 0. 0.
      0. 1.08695654e-02 0. 0. 0. 1.08695654e-02 0. 0. 0. 0. 0. 0. 0. 0.
      0. 0. 0. 0. 0. 0. 0. 0. 0. 1.08695654e-02 0. 0. 0. 0. 0. 0. 0. 0.
      0. 0. 0. 0. 0. 0. 0. 0. 0. 0. 0. 0. 0. 0. 0. 0. 0. 0. 0. 0. 0. 0.
      0. 0. 0. 0. 0. 0. 0. 0. 0. 0. 0. 0. 0. 1.08695654e-02 0. 0. 0. 0.
      0. 2.17391308e-02 1.08695654e-02 0. 0. 0. 1.08695654e-02
      1.08695654e-02 0. 0. 0. 0. 0. 0. 0. 0. 0. 0. 0. 0. 0. 0. 0. 0. 0.
      0. 0. 0. 0. 0. 0. 0. 0. 0. 0. 0. 0. 0. 2.17391308e-02 0. 0. 0. 0.
      0. 0. 0. 0. 0. 0. 0. 0. 0. 0. 0. 0. 0. 0. 0. 0. 0. 0. 0. 0. 0. 0.
      0. 0. 0. 0. 1.08695654e-02 0. 0. 0. 0. 0. 0. 0. 0. 0. 0. 0. 0. 0.
      0. 0. 0. 1.08695654e-02 0. 0. 0. 0. 0. 0. 0. 1.08695654e-02 0. 0.
      0. 0. 0. 0. 0. 0. 1.08695654e-02 0. 1.08695654e-02 0.
      1.08695654e-02 0. 0. 0. 1.08695654e-02 0. 1.08695654e-02 0. 0. 0.
      1.08695654e-02 0. 0. 0. 0. 0. 0. 0. 0. 0. 0. 0. 0. 1.08695654e-02
      0. 1.08695654e-02 0. 1.08695654e-02 0. 0. 0. 0. 0. 0. 0. 0. 0. 0.
      0. 1.08695654e-02 0. 0. 0. 0. 0. 0. 0. 0. 0. 0. 0. 0. 0. 0. 0. 0.
      0. 0. 0. 0. 0. 1.08695654e-02 0. 0. 0. 0. 0. 0. 0. 0. 0.
      1.08695654e-02 0. 0. 0. 1.08695654e-02 0. 0. 0. 0. 0. 0. 0. 0. 0.
      0. 0. 0. 0. 0. 0. 1.08695654e-02 1.08695654e-02 0. 0. 0. 0. 0. 0.
      0. 0. 0. 0. 0. 0. 0. 0. 0. 0. 0. 0. 0. 0. 0. 0. 1.08695654e-02
      1.08695654e-02 0. 0. 0. 1.08695654e-02 0. 0. 0. 0. 1.08695654e-02
      1.08695654e-02 1.08695654e-02 0. 1.08695654e-02 0. 0. 0. 0. 0. 0.
      0. 0. 0. 0. 0. 0. 0. 0. 0. 0. 0. 0. 0. 0. 0. 0. 0. 0. 0. 0.
      1.08695654e-02 0. 0. 0. 0. 0. 1.08695654e-02 0. 0. 0. 0. 0. 0. 0.
      0. 0. 0. 0. 0. 0. 0. 2.17391308e-02 0. 0. 0. 0. 0. 0. 0. 0. 0. 0.
      0. 1.08695654e-02 0. 0. 1.08695654e-02 0. 0. 0. 0. 0. 0. 0. 0.
      1.08695654e-02 0. 0. 0. 0. 0. 1.08695654e-02 0.</_>
    <_>
      0. 8.06451589e-03 0. 0. 0. 0. 0. 0. 0. 0. 0. 0. 0. 0. 0. 0. 0.
      1.61290318e-02 0. 8.06451589e-03 0. 0. 0. 0. 0. 0. 0. 0. 0.
      8.06451589e-03 0. 0. 0. 0. 0. 0. 0. 8.06451589e-03 0. 0. 0. 0. 0.
      0. 0. 0. 8.06451589e-03 0. 0. 0. 0. 0. 0. 0. 0. 0. 0. 0. 0. 0. 0.
      8.06451589e-03 0. 0. 0. 0. 8.06451589e-03 0. 0. 0. 8.06451589e-03
      0. 0. 0. 0. 0. 0. 0. 0. 0. 0. 0. 0. 0. 0. 0. 0. 0. 0. 0.
      8.06451589e-03 0. 0. 0. 0. 0. 0. 0. 0. 0. 0. 0. 0. 0. 0. 0. 0. 0.
      0. 0. 8.06451589e-03 0. 1.61290318e-02 0. 0. 0. 0. 0. 0. 0. 0. 0.
      0. 0. 0. 0. 0. 8.06451589e-03 0. 8.06451589e-03 0. 0. 0.
      8.06451589e-03 0. 0. 0. 0. 0. 0. 0. 8.06451589e-03 0. 0. 0.
      8.06451589e-03 0. 0. 0. 0. 0. 8.06451589e-03 0. 0. 0. 0. 0. 0. 0.
      0. 0. 0. 8.06451589e-03 0. 0. 8.06451589e-03 0. 8.06451589e-03
      8.06451589e-03 0. 0. 0. 0. 0. 0. 0. 0. 0. 0. 0. 0. 0. 0. 0. 0.
      8.06451589e-03 0. 0. 0. 8.06451589e-03 0. 0. 0. 0. 0. 0. 0. 0. 0.
      0. 0. 0. 0. 0. 0. 0. 0. 0. 0. 0. 8.06451589e-03 0. 8.06451589e-03
      8.06451589e-03 0. 0. 0. 0. 0. 0. 0. 0. 0. 0. 0. 0. 8.06451589e-03
      0. 0. 0. 0. 0. 0. 0. 0. 0. 0. 0. 0. 0. 0. 0. 0. 0. 0. 0. 0.
      8.06451589e-03 0. 0. 0. 0. 0. 0. 0. 0. 0. 0. 0. 0. 0. 0.
      2.41935477e-02 1.61290318e-02 0. 0. 8.06451589e-03 0. 0. 0. 0. 0.
      0. 0. 0. 8.06451589e-03 0. 0. 0. 0. 0. 0. 0. 0. 0. 0. 0. 0. 0. 0.
      0. 8.06451589e-03 8.06451589e-03 8.06451589e-03 0. 0. 0. 0. 0.
      8.06451589e-03 8.06451589e-03 1.61290318e-02 0. 0. 0. 0. 0. 0. 0.
      0. 8.06451589e-03 0. 0. 0. 0. 0. 0. 0. 0. 0. 0. 0. 0. 0. 0. 0. 0.
      0. 0. 0. 0. 0. 0. 0. 0. 8.06451589e-03 0. 0. 0. 0. 0. 0. 0. 0. 0.
      0. 0. 0. 0. 0. 0. 8.06451589e-03 0. 0. 0. 0. 0. 0. 0.
      8.06451589e-03 0. 0. 0. 0. 8.06451589e-03 0. 0. 0. 0. 0. 0.
      8.06451589e-03 0. 0. 0. 0. 0. 0. 0. 0. 0. 0. 0. 0. 8.06451589e-03
      0. 1.61290318e-02 0. 0. 0. 8.06451589e-03 0. 0. 0. 0. 0. 0. 0. 0.
      0. 0. 0. 0. 8.06451589e-03 0. 0. 0. 0. 0. 0. 0. 8.06451589e-03 0.
      0. 0. 0. 8.06451589e-03 0. 0. 0. 0. 0. 0. 0. 0. 0. 0. 0. 0. 0. 0.
      0. 0. 0. 0. 0. 0. 0. 0. 0. 0. 8.06451589e-03 8.06451589e-03 0. 0.
      0. 0. 0. 0. 0. 0. 8.06451589e-03 0. 0. 0. 0. 0. 0. 0. 0. 0. 0. 0.
      0. 0. 0. 0. 0. 0. 0. 0. 0. 0. 8.06451589e-03 8.06451589e-03 0. 0.
      0. 0. 0. 0. 0. 0. 8.06451589e-03 0. 0. 0. 0. 0. 0. 0. 0. 0. 0. 0.
      8.06451589e-03 0. 0. 0. 0. 0. 0. 0. 0. 0. 0. 0. 0. 0. 0. 0. 0.
      8.06451589e-03 0. 0. 8.06451589e-03 0. 0. 0. 0. 0. 0.
      8.06451589e-03 0. 0. 0. 0. 0. 0. 0. 0. 0. 0. 0. 0. 8.06451589e-03
      0. 0. 0. 0. 0. 0. 0. 0. 0. 0. 0. 0. 0. 0. 0. 0. 0. 0. 0. 0. 0. 0.
      0. 8.06451589e-03 8.06451589e-03 0. 0. 8.06451589e-03 0. 0. 0. 0.
      0. 0. 8.06451589e-03 0. 0. 0. 0. 0. 0. 0. 0. 0. 0. 0. 0. 0. 0.
      8.06451589e-03 0. 0. 0. 0. 0. 0. 0. 0. 0. 8.06451589e-03 0. 0. 0.
      0. 0. 0. 0. 0. 0. 0. 0. 0. 0. 0. 0. 0. 0. 0. 0. 0. 0. 0. 0. 0. 0.
      0. 0. 0. 0. 0. 0. 0. 0. 8.06451589e-03 0. 0. 0. 0. 0. 0. 0. 0. 0.
      0. 0. 0. 0. 0. 0. 0. 0. 0. 0. 0. 0. 0. 0. 0. 0. 8.06451589e-03 0.
      0. 0. 0. 0. 8.06451589e-03 0. 8.06451589e-03 8.06451589e-03 0. 0.
      0. 0. 0. 0. 0. 0. 0. 0. 0. 0. 0. 0. 0. 0. 0. 0. 0. 0. 0. 0. 0. 0.
      0. 0. 0. 8.06451589e-03 0. 0. 0. 0. 0. 8.06451589e-03 0.
      8.06451589e-03 0. 0. 0. 0. 0. 0. 0. 0. 0. 0. 0. 0. 0. 0. 0. 0. 0.
      0. 0. 0. 0. 0. 0. 0. 8.06451589e-03 0. 0. 0. 0. 0. 0. 0. 0. 0. 0.
      0. 0. 0. 0. 0. 0. 0. 0. 0. 8.06451589e-03 0. 8.06451589e-03 0. 0.
      0. 0. 0. 0. 0. 0. 0. 0. 0. 0. 0. 0. 0. 0. 0. 0. 8.06451589e-03 0.
      0. 0. 0. 0. 8.06451589e-03 8.06451589e-03 0. 0. 0. 0. 0. 0. 0. 0.
      0. 0. 0. 0. 8.06451589e-03 0. 0. 0. 0. 0. 0. 0. 1.61290318e-02 0.
      0. 0. 0. 0. 0. 0. 0. 0. 8.06451589e-03 0. 0. 0. 0. 0. 0. 0. 0. 0.
      2.41935477e-02 0. 0. 0. 0. 0. 0. 0. 0. 0. 0. 0. 0. 0. 0. 0. 0. 0.
      0. 0. 8.06451589e-03 0. 8.06451589e-03 8.06451589e-03
      8.06451589e-03 8.06451589e-03 0. 0. 0. 0. 0. 8.06451589e-03 0. 0.
      0. 0. 0. 0. 0. 0. 0. 0. 0. 0. 0. 0. 0. 0. 0. 8.06451589e-03 0. 0.
      0. 0. 0. 0. 0. 0. 0. 0. 0. 0. 8.06451589e-03 8.06451589e-03 0. 0.
      0. 0. 0. 0. 0. 0. 0. 0. 0. 0. 0. 0. 0. 8.06451589e-03 0. 0. 0. 0.
      0. 0. 0. 0. 0. 0. 0. 0. 0. 0. 0. 0. 8.06451589e-03 0. 0. 0. 0. 0.
      0. 0. 0. 0. 0. 8.06451589e-03 0. 0. 0. 0. 0. 0. 0. 0. 0.
      8.06451589e-03 0. 0. 0. 0. 0. 8.06451589e-03 0. 0. 0. 0.
      1.61290318e-02 0. 8.06451589e-03 0. 0. 0. 0. 8.06451589e-03 0. 0.
      0. 0. 0. 8.06451589e-03 0. 0. 0. 0. 0. 0. 0. 0. 0. 0. 0. 0. 0.
      8.06451589e-03 0. 0. 8.06451589e-03 0. 8.06451589e-03 0. 0. 0.
      1.61290318e-02 0. 0. 0. 0. 0. 0. 0. 0. 0. 0. 8.06451589e-03 0. 0.
      0. 1.61290318e-02 0. 0. 8.06451589e-03 0. 0. 0.</_>
    <_>
      0. 1.87500007e-02 0. 0. 0. 0. 0. 0. 0. 0. 0. 0. 0. 0. 0. 0. 0. 0.
      0. 0. 0. 0. 0. 1.87500007e-02 0. 0. 0. 0. 0. 0. 0. 0. 0. 0. 0. 0.
      0. 0. 0. 6.25000009e-03 0. 0. 0. 0. 0. 0. 6.25000009e-03 0. 0.
      6.25000009e-03 0. 6.25000009e-03 0. 0. 0. 0. 6.25000009e-03 0. 0.
      0. 0. 0. 0. 0. 0. 0. 6.25000009e-03 0. 0. 0. 0. 0. 0. 0. 0. 0. 0.
      0. 0. 0. 0. 0. 0. 0. 0. 0. 0. 0. 0. 0. 0. 0. 6.25000009e-03 0. 0.
      0. 0. 0. 0. 6.25000009e-03 0. 0. 0. 0. 2.50000004e-02 0. 0. 0.
      6.25000009e-03 6.25000009e-03 0. 0. 0. 0. 0. 6.25000009e-03 0. 0.
      6.25000009e-03 0. 0. 0. 0. 0. 0. 0. 0. 0. 6.25000009e-03 0. 0. 0.
      0. 6.25000009e-03 0. 0. 0. 0. 0. 0. 0. 0. 0. 0. 0. 0. 0. 0. 0.
      6.25000009e-03 0. 0. 6.25000009e-03 0. 0. 0. 0. 0. 0. 0. 0. 0. 0.
      0. 0. 0. 0. 0. 0. 0. 0. 0. 0. 0. 0. 0. 0. 6.25000009e-03 0. 0. 0.
      0. 6.25000009e-03 0. 0. 0. 0. 0. 0. 0. 0. 0. 0. 0. 0. 0. 0. 0. 0.
      6.25000009e-03 0. 0. 0. 0. 0. 0. 6.25000009e-03 0. 0.
      6.25000009e-03 0. 0. 0. 0. 0. 0. 0. 0. 0. 0. 0. 0. 0.
      6.25000009e-03 0. 0. 0. 0. 0. 6.25000009e-03 0. 6.25000009e-03 0.
      0. 0. 0. 6.25000009e-03 0. 0. 0. 0. 0. 0. 0. 1.25000002e-02 0. 0.
      0. 0. 0. 0. 0. 0. 6.25000009e-03 6.25000009e-03 0. 0. 0. 0. 0. 0.
      0. 0. 0. 0. 0. 0. 0. 0. 0. 1.25000002e-02 0. 0. 0. 6.25000009e-03
      0. 0. 0. 6.25000009e-03 0. 0. 0. 0. 0. 6.25000009e-03 0.
      6.25000009e-03 0. 6.25000009e-03 6.25000009e-03 1.25000002e-02 0.
      0. 0. 0. 0. 0. 1.25000002e-02 0. 0. 0. 0. 0. 0. 0. 0.
      1.25000002e-02 0. 0. 1.25000002e-02 0. 0. 0. 6.25000009e-03 0. 0.
      0. 0. 0. 0. 0. 0. 0. 0. 0. 0. 0. 0. 0. 0. 0. 0. 0. 0.
      1.25000002e-02 0. 0. 0. 0. 0. 0. 0. 0. 0. 6.25000009e-03 0. 0. 0.
      0. 0. 0. 0. 0. 0. 0. 0. 0. 0. 0. 0. 0. 0. 0. 0. 0. 0. 0. 0. 0. 0.
      0. 0. 0. 0. 0. 0. 0. 0. 0. 0. 0. 6.25000009e-03 0. 0. 0. 0. 0. 0.
      1.25000002e-02 0. 0. 6.25000009e-03 0. 0. 0. 6.25000009e-03
      6.25000009e-03 0. 0. 0. 0. 0. 0. 0. 0. 0. 0. 0. 0. 0. 0.
      6.25000009e-03 6.25000009e-03 0. 0. 0. 0. 1.25000002e-02 0. 0. 0.
      0. 0. 0. 0. 0. 0. 0. 0. 0. 0. 6.25000009e-03 0. 0. 0. 0. 0. 0. 0.
      0. 6.25000009e-03 0. 0. 0. 0. 1.25000002e-02 0. 0. 0. 0. 0. 0.
      6.25000009e-03 0. 0. 0. 0. 0. 6.25000009e-03 0. 0. 0. 0.
      6.25000009e-03 6.25000009e-03 6.25000009e-03 0. 0. 0. 0.
      6.25000009e-03 0. 0. 0. 6.25000009e-03 6.25000009e-03 0.
      6.25000009e-03 0. 0. 0. 0. 0. 6.25000009e-03 0. 0. 6.25000009e-03
      0. 0. 0. 0. 0. 0. 6.25000009e-03 0. 0. 0. 0. 0. 0. 0. 0. 0. 0. 0.
      0. 0. 0. 0. 6.25000009e-03 0. 0. 0. 0. 6.25000009e-03 0. 0. 0.
      6.25000009e-03 0. 6.25000009e-03 6.25000009e-03 6.25000009e-03 0.
      0. 6.25000009e-03 0. 6.25000009e-03 0. 0. 0. 0. 0. 0. 0.
      6.25000009e-03 0. 0. 0. 0. 0. 0. 6.25000009e-03 0. 0.
      6.25000009e-03 0. 0. 0. 0. 0. 0. 0. 0. 0. 0. 0. 0. 0. 0. 0.
      6.25000009e-03 0. 0. 6.25000009e-03 0. 0. 0. 0. 0. 0. 0. 0. 0. 0.
      0. 0. 0. 0. 6.25000009e-03 0. 0. 0. 0. 0. 6.25000009e-03 0. 0. 0.
      0. 0. 0. 0. 0. 6.25000009e-03 0. 0. 0. 0. 0. 0. 6.25000009e-03 0.
      0. 0. 0. 0. 0. 0. 0. 6.25000009e-03 0. 0. 0. 0. 0. 0. 0. 0.
      6.25000009e-03 0. 0. 6.25000009e-03 0. 0. 0. 0. 0. 0. 0. 0. 0. 0.
      0. 0. 0. 0. 6.25000009e-03 0. 0. 0. 0. 0. 0. 0. 6.25000009e-03 0.
      0. 0. 0. 0. 0. 0. 0. 0. 0. 0. 0. 0. 0. 0. 0. 0. 0. 0. 0. 0. 0. 0.
      0. 0. 0. 0. 0. 0. 0. 0. 0. 0. 0. 0. 0. 0. 0. 0. 0. 0. 0. 0. 0.
      1.25000002e-02 0. 0. 6.25000009e-03 0. 0. 0. 6.25000009e-03 0. 0.
      0. 6.25000009e-03 0. 0. 6.25000009e-03 0. 6.25000009e-03 0. 0.
      1.25000002e-02 0. 0. 0. 6.25000009e-03 0. 0. 0. 6.25000009e-03 0.
      0. 0. 0. 0. 0. 0. 6.25000009e-03 0. 0. 0. 0. 0. 0. 6.25000009e-03
      6.25000009e-03 0. 0. 0. 0. 0. 0. 6.25000009e-03 0. 0. 0. 0. 0. 0.
      0. 0. 0. 0. 0. 0. 0. 0. 0. 0. 0. 6.25000009e-03 0. 0. 0. 0. 0. 0.
      1.25000002e-02 0. 6.25000009e-03 0. 0. 0. 0. 0. 0. 0. 0.
      6.25000009e-03 0. 0. 0. 0. 6.25000009e-03 0. 0. 0. 0. 0. 0. 0. 0.
      0. 0. 6.25000009e-03 0. 6.25000009e-03 0. 0. 0. 0. 6.25000009e-03
      0. 0. 0. 0. 0. 0. 0. 0. 0. 6.25000009e-03 0. 6.25000009e-03 0.
      6.25000009e-03 0. 0. 0. 0. 0. 0. 0. 0. 0. 0. 0. 6.25000009e-03 0.
      0. 0. 6.25000009e-03 0. 0. 0. 0. 0. 0. 0. 0. 0. 0. 0. 0. 0.
      6.25000009e-03 0. 0. 0. 0. 0. 0. 0. 6.25000009e-03 0. 0. 0. 0. 0.
      0. 0. 0. 0. 0. 0. 0. 0. 0. 0. 0. 0. 0. 0. 0. 0. 0. 0. 0. 0. 0. 0.
      6.25000009e-03 0. 0. 0. 0. 0. 0. 0. 0. 0. 6.25000009e-03 0. 0.
      6.25000009e-03 0. 0. 0. 0. 0. 0. 0. 0. 0. 0. 0. 0. 6.25000009e-03
      0. 0. 0. 0. 0. 0. 0. 0. 0. 0. 6.25000009e-03 0. 6.25000009e-03 0.
      0. 0. 0. 0. 0. 0. 0. 0. 6.25000009e-03 0. 0. 0. 0. 0. 0.
      6.25000009e-03 6.25000009e-03 0. 0. 0. 0. 0. 6.25000009e-03 0. 0.
      0. 0. 0. 0. 0. 0. 0. 6.25000009e-03 0. 0. 0. 0. 6.25000009e-03 0.
      0. 0. 0. 0. 6.25000009e-03 0. 6.25000009e-03 0. 0. 0.
      1.25000002e-02 0. 0. 6.25000009e-03 0. 0. 0. 6.25000009e-03 0. 0.
      0. 0. 6.25000009e-03 6.25000009e-03 0. 0. 0. 6.25000009e-03 0.
      6.25000009e-03 0. 0. 0. 0. 0. 0. 0. 0. 0. 0. 0.</_>
    <_>
      0. 0. 0. 0. 9.90098994e-03 0. 0. 0. 0. 0. 0. 0. 0. 0. 0. 0. 0. 0.
      0. 0. 0. 0. 0. 0. 0. 9.90098994e-03 0. 0. 0. 0. 9.90098994e-03 0.
      0. 0. 0. 0. 9.90098994e-03 0. 0. 9.90098994e-03 0. 0.
      9.90098994e-03 0. 0. 0. 0. 0. 0. 0. 0. 0. 0. 0. 0. 9.90098994e-03
      0. 0. 9.90098994e-03 0. 0. 0. 0. 0. 9.90098994e-03 0. 0. 0. 0. 0.
      0. 0. 0. 0. 0. 0. 0. 0. 0. 0. 0. 0. 0. 0. 0. 0. 0. 0. 0. 0. 0. 0.
      0. 0. 0. 0. 0. 0. 0. 0. 0. 0. 0. 0. 0. 0. 0. 0. 0. 0. 0. 0. 0. 0.
      0. 0. 0. 0. 0. 0. 0. 0. 0. 0. 0. 0. 0. 0. 0. 0. 0. 0. 0. 0.
      1.98019799e-02 9.90098994e-03 0. 0. 0. 0. 0. 0. 0. 0. 0. 0. 0. 0.
      0. 9.90098994e-03 0. 0. 0. 1.98019799e-02 0. 0. 0. 0. 0. 0.
      9.90098994e-03 0. 9.90098994e-03 0. 0. 0. 0. 0. 0. 0. 0. 0. 0. 0.
      0. 0. 0. 0. 6.93069324e-02 0. 9.90098994e-03 0. 9.90098994e-03 0.
      0. 0. 0. 0. 9.90098994e-03 0. 9.90098994e-03 0. 0. 0. 0. 0. 0. 0.
      0. 0. 0. 0. 0. 0. 0. 0. 0. 0. 0. 0. 0. 0. 0. 0. 0. 0.
      1.98019799e-02 0. 0. 0. 9.90098994e-03 0. 0. 0. 1.98019799e-02 0.
      0. 0. 0. 0. 0. 0. 0. 0. 0. 9.90098994e-03 0. 0. 0. 0. 0. 0. 0.
      9.90098994e-03 0. 0. 0. 0. 0. 0. 0. 0. 0. 0. 0. 0. 0. 0. 0. 0. 0.
      0. 0. 0. 0. 0. 0. 0. 0. 0. 0. 0. 0. 0. 0. 0. 0. 0. 0. 0. 0. 0. 0.
      0. 0. 0. 1.98019799e-02 0. 0. 0. 0. 0. 0. 0. 0. 0. 9.90098994e-03
      9.90098994e-03 0. 0. 0. 0. 0. 0. 0. 0. 9.90098994e-03 0. 0. 0. 0.
      0. 0. 0. 0. 0. 0. 0. 0. 0. 0. 0. 0. 0. 0. 0. 0. 0. 0. 0. 0. 0. 0.
      0. 9.90098994e-03 0. 0. 0. 0. 0. 0. 0. 0. 9.90098994e-03 0.
      9.90098994e-03 0. 0. 9.90098994e-03 0. 0. 0. 0. 0. 0. 0. 0. 0. 0.
      0. 0. 0. 0. 0. 0. 0. 0. 0. 0. 0. 0. 0. 0. 0. 0. 0. 0. 0. 0. 0. 0.
      0. 0. 0. 0. 0. 1.98019799e-02 0. 0. 0. 0. 0. 0. 0. 0. 0. 0. 0. 0.
      0. 0. 0. 0. 9.90098994e-03 0. 0. 0. 0. 0. 0. 0. 0. 0. 0. 0. 0. 0.
      0. 0. 0. 0. 0. 9.90098994e-03 0. 0. 0. 0. 0. 0. 9.90098994e-03 0.
      0. 0. 0. 0. 0. 0. 1.98019799e-02 0. 0. 0. 0. 0. 0. 0. 0. 0. 0. 0.
      0. 0. 0. 0. 0. 0. 0. 0. 0. 9.90098994e-03 0. 0. 0. 0. 0.
      9.90098994e-03 0. 0. 0. 9.90098994e-03 0. 0. 0. 0. 0. 0. 0. 0. 0.
      0. 0. 0. 0. 0. 0. 0. 0. 0. 0. 0. 0. 0. 0. 0. 0. 0. 0.
      9.90098994e-03 0. 0. 0. 0. 0. 0. 9.90098994e-03 0. 9.90098994e-03
      0. 0. 0. 0. 0. 9.90098994e-03 0. 9.90098994e-03 9.90098994e-03 0.
      0. 0. 0. 0. 0. 0. 0. 0. 0. 9.90098994e-03 0. 0. 0. 0. 0. 0.
      9.90098994e-03 0. 0. 0. 0. 0. 0. 0. 0. 0. 0. 0. 0. 0. 0. 0. 0.
      9.90098994e-03 0. 0. 0. 0. 0. 0. 0. 0. 0. 0. 0. 0. 0. 0. 0. 0. 0.
      0. 0. 0. 0. 0. 0. 0. 0. 0. 0. 9.90098994e-03 0. 0. 0. 0. 0. 0.
      9.90098994e-03 0. 0. 0. 0. 0. 0. 0. 0. 0. 0. 0. 0. 0. 0. 0. 0. 0.
      0. 0. 0. 0. 0. 9.90098994e-03 0. 0. 0. 9.90098994e-03 0. 0. 0. 0.
      0. 0. 0. 0. 0. 0. 0. 0. 0. 0. 0. 0. 0. 0. 0. 0. 0. 0. 0. 0. 0. 0.
      0. 0. 0. 9.90098994e-03 0. 0. 0. 9.90098994e-03 0. 0.
      9.90098994e-03 0. 0. 9.90098994e-03 0. 0. 0. 0. 0. 0. 0. 0. 0. 0.
      0. 0. 0. 0. 0. 0. 0. 0. 9.90098994e-03 0. 0. 9.90098994e-03 0. 0.
      0. 0. 0. 0. 0. 1.98019799e-02 0. 0. 0. 0. 0. 0. 0. 0. 0. 0. 0. 0.
      0. 0. 0. 0. 0. 0. 0. 0. 0. 0. 0. 0. 0. 0. 0. 0. 9.90098994e-03 0.
      0. 0. 9.90098994e-03 0. 0. 9.90098994e-03 0. 0. 0. 0. 0. 0. 0. 0.
      0. 0. 0. 0. 0. 0. 0. 0. 0. 0. 0. 0. 0. 0. 0. 0. 0. 0. 0.
      9.90098994e-03 0. 0. 0. 0. 0. 0. 0. 0. 0. 9.90098994e-03 0. 0. 0.
      0. 0. 0. 0. 0. 0. 0. 0. 0. 9.90098994e-03 0. 9.90098994e-03 0. 0.
      0. 0. 0. 0. 0. 0. 0. 0. 0. 9.90098994e-03 0. 0. 0. 0. 0. 0. 0. 0.
      0. 0. 0. 9.90098994e-03 9.90098994e-03 0. 0. 0. 0. 0. 0. 0. 0.
      9.90098994e-03 0. 0. 0. 0. 9.90098994e-03 0. 0. 0. 0. 0. 0. 0. 0.
      0. 0. 0. 0. 0. 0. 9.90098994e-03 0. 0. 0. 0. 9.90098994e-03
      9.90098994e-03 0. 0. 0. 0. 0. 0. 0. 9.90098994e-03 0. 0. 0. 0. 0.
      0. 9.90098994e-03 0. 0. 0. 0. 0. 0. 0. 0. 9.90098994e-03 0. 0. 0.
      0. 0. 9.90098994e-03 0. 0. 0. 0. 0. 0. 0. 0. 0. 0. 0.
      9.90098994e-03 0. 0. 0. 0. 0. 0. 0. 0. 0. 0. 0. 0. 0. 0. 0.
      9.90098994e-03 0. 0. 9.90098994e-03 0. 0. 0. 0. 0. 0. 0. 0. 0. 0.
      9.90098994e-03 0. 0. 0. 0. 0. 0. 0. 0. 0. 0. 0. 0. 0. 0. 0. 0. 0.
      0. 0. 0. 0. 0. 0. 0. 0. 0. 0. 0. 0. 0. 0. 9.90098994e-03 0. 0. 0.
      0. 0. 0. 0. 0. 0. 0. 0. 0. 0. 0. 9.90098994e-03 0. 0. 0. 0. 0. 0.
      0. 0. 0. 0. 0. 0. 0. 0. 0. 0. 0. 0. 0. 0. 0. 0. 0. 0. 0. 0. 0. 0.
      0. 0. 0. 0. 0. 0. 0. 0. 0. 0. 0. 0. 0. 0. 0. 9.90098994e-03 0. 0.
      0. 0. 0. 0.</_>
    <_>
      0. 0. 0. 0. 0. 0. 0. 0. 0. 0. 0. 0. 0. 0. 0. 1.61290318e-02 0.
      1.61290318e-02 0. 0. 0. 0. 0. 0. 0. 0. 0. 0. 0. 0. 0. 0. 0. 0. 0.
      0. 0. 0. 0. 0. 0. 0. 0. 0. 0. 0. 0. 0. 0. 3.22580636e-02 0. 0.
      1.61290318e-02 0. 0. 0. 0. 0. 0. 0. 0. 0. 0. 0. 0. 0. 0. 0. 0. 0.
      0. 0. 0. 0. 1.61290318e-02 0. 0. 0. 0. 0. 0. 0. 0. 3.22580636e-02
      0. 0. 0. 0. 0. 0. 0. 0. 0. 0. 0. 0. 0. 0. 0. 0. 0. 0. 0.
      1.61290318e-02 0. 0. 0. 0. 0. 0. 0. 0. 0. 0. 0. 0. 0. 0. 0. 0. 0.
      0. 0. 0. 0. 0. 0. 0. 0. 0. 0. 0. 0. 0. 0. 0. 0. 0. 0. 0. 0. 0. 0.
      0. 0. 0. 0. 0. 0. 0. 0. 1.61290318e-02 0. 0. 0. 0. 0. 0. 0. 0. 0.
      0. 0. 0. 0. 0. 0. 0. 0. 0. 1.61290318e-02 0. 0. 1.61290318e-02 0.
      0. 0. 0. 0. 0. 0. 0. 0. 0. 0. 0. 0. 0. 0. 0. 0. 0. 0. 0. 0. 0. 0.
      0. 0. 0. 1.61290318e-02 0. 0. 0. 1.61290318e-02 0. 1.61290318e-02
      0. 0. 0. 0. 0. 0. 0. 0. 0. 0. 0. 0. 0. 0. 0. 0. 0. 0.
      1.61290318e-02 0. 0. 0. 0. 0. 0. 0. 0. 0. 0. 0. 0. 0. 0. 0. 0. 0.
      0. 0. 0. 0. 0. 0. 0. 0. 0. 0. 0. 0. 0. 0. 0. 0. 0. 0. 0. 0. 0. 0.
      0. 0. 0. 0. 0. 0. 0. 0. 1.61290318e-02 0. 0. 0. 0. 0. 0. 0. 0. 0.
      0. 0. 0. 0. 0. 0. 0. 0. 0. 0. 0. 0. 0. 0. 0. 0. 0. 0. 0. 0. 0. 0.
      0. 0. 0. 0. 0. 0. 0. 0. 0. 1.61290318e-02 0. 0. 0. 0. 0. 0. 0. 0.
      0. 0. 0. 0. 0. 0. 0. 0. 0. 0. 0. 0. 0. 0. 1.61290318e-02 0. 0. 0.
      0. 0. 0. 0. 0. 0. 0. 0. 0. 0. 0. 0. 0. 0. 0. 0. 0. 0. 0. 0. 0. 0.
      0. 0. 0. 0. 0. 0. 0. 0. 1.61290318e-02 0. 0. 0. 0. 0. 0. 0. 0. 0.
      0. 0. 0. 0. 0. 1.61290318e-02 0. 0. 0. 0. 0. 0. 0. 0. 0. 0. 0.
      1.61290318e-02 0. 0. 0. 0. 0. 0. 0. 0. 0. 0. 0. 0. 0. 0. 0. 0. 0.
      0. 0. 0. 0. 0. 1.61290318e-02 0. 0. 0. 0. 0. 0. 0. 0. 0. 0. 0. 0.
      1.61290318e-02 0. 0. 0. 0. 0. 0. 0. 0. 0. 0. 0. 0. 0. 0. 0. 0. 0.
      1.61290318e-02 0. 0. 0. 0. 0. 1.61290318e-02 0. 0. 0. 0. 0. 0. 0.
      0. 0. 0. 0. 0. 0. 0. 0. 0. 0. 0. 0. 0. 0. 0. 0. 0. 0. 0. 0. 0. 0.
      0. 0. 0. 0. 0. 0. 0. 0. 4.83870953e-02 0. 0. 0. 0. 0. 0. 0. 0. 0.
      0. 0. 0. 0. 0. 3.22580636e-02 0. 0. 0. 0. 0. 0. 0. 0. 0. 0. 0. 0.
      0. 0. 0. 0. 0. 0. 0. 0. 0. 0. 0. 1.61290318e-02 0. 0. 0. 0. 0. 0.
      0. 0. 0. 0. 0. 0. 0. 0. 0. 0. 0. 1.61290318e-02 0. 0. 0. 0. 0. 0.
      0. 1.61290318e-02 0. 1.61290318e-02 0. 0. 0. 0. 0. 0. 0. 0. 0. 0.
      0. 0. 0. 0. 0. 0. 0. 0. 0. 0. 0. 0. 1.61290318e-02 0. 0. 0. 0. 0.
      0. 0. 0. 0. 0. 0. 0. 0. 0. 0. 0. 0. 0. 0. 0. 0. 0. 0. 0. 0. 0. 0.
      0. 0. 0. 0. 0. 0. 0. 0. 0. 0. 0. 0. 0. 0. 0. 0. 1.61290318e-02 0.
      0. 0. 0. 0. 0. 0. 0. 0. 1.61290318e-02 0. 0. 0. 0. 1.61290318e-02
      1.61290318e-02 0. 1.61290318e-02 0. 0. 0. 0. 0. 0. 0. 0. 0. 0. 0.
      0. 0. 0. 0. 0. 0. 0. 0. 0. 0. 0. 0. 0. 0. 0. 0. 0. 0. 0. 0. 0. 0.
      0. 0. 0. 0. 0. 0. 0. 0. 0. 0. 0. 0. 0. 0. 0. 0. 0. 0. 0. 0.
      1.61290318e-02 0. 0. 1.61290318e-02 0. 0. 0. 0. 0. 0. 0. 0. 0. 0.
      0. 0. 0. 0. 0. 0. 0. 0. 0. 0. 0. 0. 0. 0. 0. 0. 0. 0. 0. 0. 0. 0.
      0. 0. 0. 0. 1.61290318e-02 0. 0. 1.61290318e-02 0. 0. 0. 0. 0. 0.
      0. 0. 0. 0. 0. 0. 0. 1.61290318e-02 0. 0. 0. 0. 0. 0. 0. 0. 0.
      1.61290318e-02 0. 0. 0. 0. 0. 0. 0. 0. 0. 0. 1.61290318e-02 0. 0.
      0. 1.61290318e-02 0. 0. 0. 0. 0. 0. 0. 0. 0. 0. 0. 0. 0. 0. 0. 0.
      0. 0. 0. 0. 0. 0. 0. 0. 0. 0. 0. 0. 0. 0. 0. 0. 0. 0. 0. 0. 0. 0.
      0. 0. 0. 0. 0. 0. 1.61290318e-02 0. 0. 0. 0. 0. 0. 0. 0. 0. 0. 0.
      0. 0. 0. 0. 0. 0. 0. 0. 0. 0. 0. 0. 0. 0. 0. 0. 0. 0. 0. 0. 0. 0.
      0. 0. 0. 0. 0. 0. 0. 0. 0. 0. 0. 0. 0. 0. 0. 0. 0. 0. 0. 0. 0. 0.
      0. 0. 0. 0. 0. 0. 0. 0. 0. 0. 0. 0. 0. 0. 0. 0. 0. 0. 0. 0.
      1.61290318e-02 0. 0. 0. 0. 0. 1.61290318e-02 0. 0. 0. 0. 0.
      3.22580636e-02 0. 0. 0. 0. 0. 0. 1.61290318e-02 0. 0. 0. 0. 0. 0.
