<?xml version="1.0"?>
<opencv_storage>
<my_svm type_id="opencv-ml-svm">
  <svm_type>NU_SVC</svm_type>
  <kernel><type>RBF</type>
    <gamma>1.</gamma></kernel>
  <nu>5.0000000000000003e-02</nu>
  <term_criteria><epsilon>2.2204460492503131e-16</epsilon>
    <iterations>5000</iterations></term_criteria>
  <var_all>1000</var_all>
  <var_count>1000</var_count>
  <class_count>2</class_count>
  <class_labels type_id="opencv-matrix">
    <rows>1</rows>
    <cols>2</cols>
    <dt>i</dt>
    <data>
      0 1</data></class_labels>
  <sv_total>424</sv_total>
  <support_vectors>
    <_>
      0. 0. 9.90098994e-03 0. 0. 0. 0. 0. 0. 0. 9.90098994e-03 0. 0. 0.
      0. 0. 0. 0. 0. 0. 0. 0. 0. 0. 0. 0. 0. 0. 0. 0. 9.90098994e-03 0.
      0. 0. 0. 0. 0. 0. 0. 0. 0. 0. 0. 1.98019799e-02 0. 0. 0. 0. 0. 0.
      0. 0. 9.90098994e-03 0. 0. 0. 0. 0. 0. 0. 0. 9.90098994e-03 0. 0.
      0. 0. 0. 0. 0. 0. 0. 0. 0. 0. 9.90098994e-03 0. 0. 0. 0. 0. 0.
      9.90098994e-03 0. 0. 1.98019799e-02 0. 0. 0. 0. 0. 0.
      9.90098994e-03 0. 0. 0. 0. 0. 0. 9.90098994e-03 0. 0. 0. 0. 0. 0.
      0. 0. 0. 0. 0. 0. 0. 9.90098994e-03 0. 0. 0. 0. 0. 0. 0. 0. 0. 0.
      9.90098994e-03 0. 0. 0. 0. 0. 0. 0. 0. 0. 0. 0. 0. 0. 0. 0. 0. 0.
      9.90098994e-03 0. 9.90098994e-03 0. 0. 0. 0. 0. 0. 0. 0. 0. 0. 0.
      9.90098994e-03 9.90098994e-03 0. 0. 0. 0. 0. 0. 0. 0. 0. 0. 0. 0.
      0. 0. 0. 0. 0. 0. 0. 0. 0. 0. 0. 0. 0. 0. 0. 0. 0. 0. 0. 0. 0.
      9.90098994e-03 0. 0. 9.90098994e-03 0. 0. 0. 9.90098994e-03
      9.90098994e-03 0. 0. 0. 0. 0. 0. 0. 0. 0. 0. 0. 0. 0. 0. 0. 0. 0.
      0. 0. 0. 0. 0. 0. 0. 0. 0. 0. 0. 9.90098994e-03 0. 0. 0. 0. 0. 0.
      0. 0. 0. 0. 0. 0. 1.98019799e-02 0. 0. 0. 0. 0. 0. 0. 0. 0. 0. 0.
      0. 0. 0. 9.90098994e-03 0. 0. 0. 0. 0. 0. 0. 0. 0. 0. 0. 0.
      9.90098994e-03 0. 0. 0. 0. 0. 0. 0. 0. 9.90098994e-03 0. 0. 0. 0.
      0. 0. 0. 0. 0. 0. 0. 0. 9.90098994e-03 0. 0. 0. 0. 0. 0. 0. 0. 0.
      0. 0. 0. 0. 0. 0. 0. 0. 0. 0. 9.90098994e-03 0. 9.90098994e-03 0.
      0. 0. 0. 0. 0. 0. 0. 0. 0. 9.90098994e-03 0. 0. 0. 0. 0. 0. 0. 0.
      0. 0. 0. 0. 0. 9.90098994e-03 0. 0. 0. 0. 9.90098994e-03
      9.90098994e-03 0. 0. 0. 0. 0. 0. 0. 0. 0. 0. 0. 0. 0.
      9.90098994e-03 0. 0. 0. 0. 0. 0. 0. 9.90098994e-03 9.90098994e-03
      0. 0. 0. 0. 0. 0. 0. 0. 0. 0. 0. 0. 0. 0. 0. 0. 9.90098994e-03 0.
      0. 0. 0. 9.90098994e-03 0. 0. 0. 0. 0. 9.90098994e-03 0.
      9.90098994e-03 0. 0. 0. 0. 0. 0. 0. 0. 0. 0. 0. 0. 0. 0. 0. 0. 0.
      0. 0. 0. 9.90098994e-03 0. 0. 9.90098994e-03 0. 0. 0. 0. 0. 0. 0.
      0. 0. 0. 0. 0. 0. 9.90098994e-03 9.90098994e-03 9.90098994e-03 0.
      0. 0. 9.90098994e-03 0. 9.90098994e-03 9.90098994e-03
      9.90098994e-03 9.90098994e-03 0. 9.90098994e-03 0. 0.
      9.90098994e-03 0. 0. 0. 0. 0. 0. 0. 0. 0. 0. 0. 0. 0. 0. 0. 0. 0.
      0. 0. 0. 0. 0. 0. 0. 0. 0. 0. 0. 0. 0. 0. 0. 0. 0. 0. 0. 0. 0. 0.
      0. 0. 0. 0. 0. 0. 0. 0. 0. 0. 0. 0. 0. 0. 0. 0. 0. 0. 0. 0. 0. 0.
      0. 0. 9.90098994e-03 0. 0. 0. 0. 0. 0. 0. 0. 0. 0. 0. 0. 0. 0.
      9.90098994e-03 0. 0. 0. 0. 0. 0. 0. 0. 0. 0. 0. 0. 0. 0. 0. 0. 0.
      9.90098994e-03 0. 0. 0. 0. 0. 0. 0. 0. 0. 0. 0. 9.90098994e-03 0.
      0. 0. 0. 0. 0. 0. 0. 0. 0. 0. 0. 0. 0. 0. 0. 0. 0. 0. 0. 0. 0. 0.
      0. 0. 0. 0. 0. 0. 0. 0. 0. 0. 0. 0. 0. 0. 0. 0. 0. 0. 0. 0. 0. 0.
      0. 0. 0. 0. 0. 0. 0. 0. 0. 0. 0. 0. 0. 0. 0. 0. 0. 0. 0. 0. 0. 0.
      0. 0. 0. 0. 0. 0. 0. 0. 0. 9.90098994e-03 0. 0. 9.90098994e-03 0.
      9.90098994e-03 0. 0. 0. 0. 0. 0. 0. 0. 0. 0. 0. 0. 0. 0. 0. 0. 0.
      0. 9.90098994e-03 0. 1.98019799e-02 0. 0. 0. 0. 0. 0. 0. 0. 0. 0.
      0. 0. 0. 0. 0. 9.90098994e-03 0. 0. 0. 0. 0. 0. 0. 0. 0. 0.
      9.90098994e-03 0. 0. 0. 0. 0. 0. 0. 0. 0. 0. 0. 0. 0. 0. 0. 0. 0.
      9.90098994e-03 0. 0. 0. 9.90098994e-03 0. 0. 9.90098994e-03 0. 0.
      0. 0. 0. 0. 0. 0. 0. 0. 0. 9.90098994e-03 0. 0. 9.90098994e-03 0.
      9.90098994e-03 0. 0. 0. 0. 0. 0. 0. 0. 0. 0. 1.98019799e-02 0. 0.
      0. 0. 0. 0. 0. 0. 0. 0. 0. 0. 0. 0. 0. 0. 9.90098994e-03 0. 0. 0.
      0. 0. 0. 0. 0. 0. 1.98019799e-02 0. 9.90098994e-03 0.
      9.90098994e-03 0. 0. 0. 0. 0. 0. 0. 9.90098994e-03 0. 0. 0. 0. 0.
      0. 0. 0. 0. 0. 0. 0. 0. 0. 0. 0. 0. 0. 0. 0. 0. 0. 0. 0. 0. 0. 0.
      9.90098994e-03 0. 0. 0. 0. 0. 0. 0. 0. 0. 0. 9.90098994e-03 0. 0.
      0. 0. 0. 9.90098994e-03 0. 0. 0. 0. 0. 0. 0. 0. 0. 0. 0. 0. 0. 0.
      0. 1.98019799e-02 0. 9.90098994e-03 0. 0. 0. 0. 0. 0. 0. 0. 0. 0.
      0. 0. 0. 0. 0. 0. 0. 0. 9.90098994e-03 0. 0. 9.90098994e-03
      9.90098994e-03 0. 0. 0. 0. 0. 0. 0. 0. 0. 0. 0. 0. 9.90098994e-03
      0. 0. 0. 0. 9.90098994e-03 0. 0. 0. 0. 0. 0. 9.90098994e-03 0. 0.
      0. 0. 0. 0. 0. 0. 0. 9.90098994e-03 0. 9.90098994e-03 0. 0. 0. 0.
      9.90098994e-03 0. 0. 0. 0. 0. 0. 0. 0. 9.90098994e-03 0. 0. 0. 0.
      0. 0. 0. 0. 0. 0. 0. 0. 0. 0. 0. 0. 0. 0. 0. 0. 0. 9.90098994e-03
      0. 9.90098994e-03 0. 0. 0. 0. 0. 0. 0. 0. 0. 0. 0. 0. 0. 0. 0. 0.
      0. 0. 0. 0. 0. 0. 0. 0. 0. 0. 0. 0. 0. 9.90098994e-03 0. 0. 0. 0.
      0. 0. 0. 0. 0. 9.90098994e-03 0. 0. 0. 0. 0. 0. 0. 0. 0. 0. 0. 0.
      0. 0. 0. 0. 0.</_>
    <_>
      0. 2.53164563e-02 0. 0. 0. 0. 1.26582282e-02 0. 1.26582282e-02 0.
      0. 0. 0. 0. 0. 0. 0. 0. 0. 0. 0. 0. 0. 0. 0. 0. 0. 0. 0. 0. 0. 0.
      0. 0. 0. 0. 0. 0. 0. 0. 0. 0. 1.26582282e-02 0. 0. 0. 0. 0. 0. 0.
      0. 2.53164563e-02 0. 0. 0. 0. 0. 0. 0. 0. 0. 0. 0. 0. 0. 0. 0. 0.
      0. 0. 0. 0. 1.26582282e-02 0. 1.26582282e-02 0. 1.26582282e-02 0.
      0. 0. 2.53164563e-02 0. 0. 0. 0. 0. 0. 0. 0. 0. 1.26582282e-02 0.
      0. 0. 0. 0. 0. 0. 0. 0. 0. 0. 0. 0. 0. 0. 0. 0. 0. 0. 0. 0. 0. 0.
      0. 0. 0. 0. 0. 2.53164563e-02 0. 0. 0. 0. 0. 0. 0. 0. 0. 0. 0. 0.
      0. 0. 0. 0. 0. 0. 0. 0. 0. 0. 0. 0. 0. 1.26582282e-02 0. 0. 0. 0.
      0. 0. 0. 0. 0. 0. 0. 0. 0. 0. 0. 0. 0. 0. 0. 0. 0. 0. 0. 0. 0. 0.
      0. 0. 0. 0. 1.26582282e-02 0. 0. 0. 0. 0. 0. 0. 0. 0. 0. 0. 0. 0.
      0. 0. 0. 0. 0. 0. 0. 0. 0. 0. 0. 0. 1.26582282e-02 0. 0. 0. 0. 0.
      0. 0. 0. 0. 0. 0. 0. 0. 0. 0. 0. 0. 0. 0. 0. 0. 1.26582282e-02 0.
      0. 0. 1.26582282e-02 0. 0. 0. 0. 1.26582282e-02 0. 0. 0. 0. 0. 0.
      0. 1.26582282e-02 0. 0. 0. 0. 1.26582282e-02 0. 0. 0. 0. 0. 0. 0.
      0. 0. 0. 0. 0. 0. 0. 0. 0. 0. 1.26582282e-02 0. 0. 0. 0. 0. 0. 0.
      0. 1.26582282e-02 0. 0. 0. 0. 0. 0. 0. 0. 0. 0. 0. 1.26582282e-02
      0. 0. 0. 0. 0. 0. 0. 0. 0. 0. 0. 0. 0. 0. 0. 0. 0. 0. 0. 0. 0. 0.
      0. 0. 0. 0. 0. 0. 0. 0. 0. 0. 0. 0. 0. 0. 0. 0. 0. 0. 0. 0. 0. 0.
      1.26582282e-02 0. 0. 0. 0. 0. 0. 0. 0. 0. 0. 0. 0. 0. 0. 0. 0. 0.
      0. 0. 0. 0. 0. 0. 0. 0. 0. 0. 0. 0. 0. 0. 0. 0. 0. 0. 0. 0. 0. 0.
      0. 0. 0. 0. 0. 0. 0. 0. 0. 0. 0. 0. 0. 0. 0. 0. 0. 0. 0. 0.
      1.26582282e-02 0. 0. 0. 0. 0. 0. 0. 0. 0. 0. 0. 0. 0. 0. 0. 0. 0.
      0. 0. 0. 0. 0. 0. 0. 0. 0. 0. 0. 0. 0. 0. 0. 0. 0. 0. 0. 0. 0. 0.
      0. 0. 0. 0. 0. 0. 0. 0. 0. 0. 0. 1.26582282e-02 1.26582282e-02 0.
      1.26582282e-02 1.26582282e-02 0. 0. 0. 0. 0. 0. 0. 0. 0. 0. 0. 0.
      0. 0. 0. 0. 1.26582282e-02 0. 0. 0. 1.26582282e-02 1.26582282e-02
      0. 0. 0. 0. 0. 1.26582282e-02 0. 0. 0. 0. 0. 1.26582282e-02 0. 0.
      0. 0. 0. 0. 0. 0. 0. 0. 0. 1.26582282e-02 0. 1.26582282e-02 0.
      1.26582282e-02 0. 0. 0. 0. 0. 0. 0. 0. 0. 0. 0. 0. 1.26582282e-02
      0. 0. 0. 0. 1.26582282e-02 1.26582282e-02 0. 0. 0. 0. 0. 0. 0. 0.
      2.53164563e-02 0. 0. 0. 0. 0. 0. 0. 0. 0. 0. 0. 0. 0. 0. 0. 0. 0.
      0. 0. 0. 0. 0. 0. 0. 0. 0. 1.26582282e-02 0. 0. 0. 0. 0. 0. 0. 0.
      0. 0. 0. 0. 0. 1.26582282e-02 0. 0. 0. 0. 0. 0. 0. 0. 0. 0. 0. 0.
      0. 0. 0. 0. 0. 0. 0. 0. 0. 0. 0. 0. 0. 0. 0. 0. 0. 0. 0. 0. 0. 0.
      0. 0. 0. 0. 0. 0. 0. 0. 0. 0. 0. 0. 0. 0. 0. 0. 0. 0. 0. 0. 0. 0.
      0. 0. 0. 0. 0. 0. 0. 0. 0. 0. 0. 0. 0. 1.26582282e-02 0. 0. 0. 0.
      0. 0. 0. 0. 0. 0. 0. 0. 0. 0. 0. 0. 0. 0. 0. 0. 0. 0. 0. 0. 0. 0.
      0. 0. 0. 1.26582282e-02 0. 0. 0. 0. 0. 0. 0. 0. 0. 0. 0. 0. 0. 0.
      1.26582282e-02 0. 0. 0. 0. 0. 0. 0. 0. 0. 0. 1.26582282e-02 0. 0.
      0. 0. 0. 0. 0. 0. 0. 0. 0. 0. 0. 0. 0. 0. 1.26582282e-02 0. 0.
      1.26582282e-02 0. 2.53164563e-02 0. 0. 0. 0. 0. 0. 0.
      1.26582282e-02 0. 1.26582282e-02 0. 0. 0. 0. 0. 0. 0. 0. 0. 0. 0.
      0. 0. 0. 0. 0. 0. 0. 0. 0. 0. 0. 0. 0. 0. 0. 0. 0. 0. 0. 0. 0. 0.
      0. 0. 0. 0. 0. 0. 0. 0. 0. 0. 0. 0. 0. 0. 0. 2.53164563e-02 0. 0.
      0. 0. 0. 0. 0. 0. 3.79746854e-02 0. 0. 0. 0. 0. 0. 0. 0. 0. 0. 0.
      0. 0. 0. 0. 0. 0. 2.53164563e-02 0. 0. 0. 0. 0. 0. 0. 0.
      1.26582282e-02 0. 1.26582282e-02 0. 0. 0. 0. 0. 0. 0. 0. 0. 0. 0.
      0. 0. 0. 1.26582282e-02 0. 0. 0. 0. 0. 1.26582282e-02 0.
      1.26582282e-02 0. 0. 0. 0. 0. 0. 0. 0. 0. 0. 0. 0. 0. 0. 0.
      1.26582282e-02 0. 0. 0. 0. 0. 0. 0. 0. 0. 0. 0. 0. 0. 0. 0. 0. 0.
      0. 0. 0. 0. 0. 1.26582282e-02 1.26582282e-02 0. 0. 0. 0. 0. 0. 0.
      0. 0. 0. 0. 0. 0. 0. 0. 0. 0. 0. 0. 0. 0. 0. 0. 0. 0. 0. 0. 0. 0.
      0. 0. 0. 0. 0. 0. 0. 0. 0. 0. 0. 0. 0. 0. 0. 1.26582282e-02 0. 0.
      0. 0. 0. 0. 0. 0. 0. 0. 0. 0. 0. 0. 0. 0. 0. 0. 0. 0. 0. 0. 0. 0.
      0. 0. 0. 0. 0. 0. 0. 1.26582282e-02 0. 0. 0. 0. 1.26582282e-02 0.
      0. 0. 0. 0. 0. 0. 0. 0. 0. 0. 0. 0. 0. 0. 1.26582282e-02 0. 0. 0.
      0. 0. 0. 0. 0. 0. 0. 1.26582282e-02 0. 0. 1.26582282e-02 0. 0. 0.
      0. 0. 0. 0. 0. 1.26582282e-02 0. 0. 0. 0. 0. 0.</_>
    <_>
      0. 0. 0. 1.21951215e-02 0. 0. 0. 0. 0. 0. 0. 0. 0. 0. 0. 0. 0. 0.
      0. 0. 0. 0. 0. 1.21951215e-02 0. 0. 0. 1.21951215e-02 0. 0. 0.
      1.21951215e-02 0. 0. 0. 0. 0. 0. 0. 0. 1.21951215e-02 0.
      1.21951215e-02 0. 0. 0. 1.21951215e-02 0. 0. 0. 0. 0. 0. 0. 0. 0.
      0. 0. 0. 0. 0. 0. 0. 0. 0. 0. 0. 0. 0. 0. 1.21951215e-02 0. 0. 0.
      0. 0. 2.43902430e-02 0. 0. 0. 0. 0. 0. 0. 0. 0. 0. 0.
      1.21951215e-02 0. 0. 0. 0. 0. 0. 0. 0. 0. 1.21951215e-02 0. 0. 0.
      0. 0. 0. 2.43902430e-02 0. 0. 0. 0. 1.21951215e-02 0. 0. 0.
      1.21951215e-02 0. 0. 0. 1.21951215e-02 0. 0. 0. 0. 0. 0. 0. 0. 0.
      0. 0. 0. 0. 0. 0. 0. 0. 1.21951215e-02 0. 0. 0. 0. 0. 0. 0. 0. 0.
      0. 0. 0. 0. 0. 0. 0. 0. 0. 0. 0. 0. 0. 0. 0. 0. 0. 0. 0. 0. 0. 0.
      0. 0. 0. 0. 0. 0. 0. 0. 0. 0. 0. 0. 0. 0. 0. 0. 0. 0. 0.
      1.21951215e-02 1.21951215e-02 0. 0. 0. 0. 0. 0. 1.21951215e-02 0.
      0. 0. 0. 0. 1.21951215e-02 0. 0. 0. 0. 0. 0. 0. 0. 0. 0. 0. 0. 0.
      0. 0. 0. 0. 0. 0. 0. 1.21951215e-02 0. 0. 0. 0. 0. 1.21951215e-02
      0. 0. 0. 0. 0. 0. 0. 0. 0. 0. 0. 0. 0. 0. 0. 0. 0. 0. 0. 0. 0. 0.
      0. 0. 0. 0. 0. 0. 0. 0. 1.21951215e-02 0. 0. 0. 0. 0. 0. 0. 0. 0.
      0. 1.21951215e-02 2.43902430e-02 0. 0. 0. 0. 0. 0. 0. 0. 0. 0. 0.
      0. 0. 0. 0. 0. 0. 0. 0. 0. 0. 0. 0. 0. 0. 0. 0. 0. 0. 0.
      1.21951215e-02 0. 0. 0. 0. 0. 0. 0. 0. 0. 0. 1.21951215e-02 0. 0.
      0. 0. 0. 0. 0. 0. 1.21951215e-02 0. 1.21951215e-02 0. 0. 0. 0. 0.
      0. 0. 0. 0. 0. 0. 0. 1.21951215e-02 0. 0. 0. 0. 0. 1.21951215e-02
      0. 0. 0. 0. 1.21951215e-02 0. 0. 0. 0. 0. 0. 0. 0. 0. 0.
      1.21951215e-02 0. 0. 0. 0. 0. 0. 0. 0. 0. 0. 0. 0. 0. 0. 0. 0. 0.
      0. 0. 0. 0. 0. 0. 2.43902430e-02 0. 0. 0. 0. 0. 0. 0. 0. 0. 0. 0.
      0. 0. 0. 0. 0. 0. 0. 0. 0. 0. 0. 0. 0. 0. 0. 0. 0. 0. 0. 0. 0. 0.
      1.21951215e-02 0. 0. 0. 0. 0. 0. 0. 1.21951215e-02 0. 0. 0. 0. 0.
      0. 0. 0. 0. 0. 0. 1.21951215e-02 0. 0. 0. 0. 0. 0. 1.21951215e-02
      0. 0. 0. 0. 0. 0. 0. 0. 0. 1.21951215e-02 0. 0. 0. 1.21951215e-02
      0. 0. 0. 0. 0. 0. 0. 0. 0. 0. 0. 0. 0. 0. 0. 0. 0. 0. 0. 0. 0. 0.
      0. 1.21951215e-02 0. 0. 0. 0. 0. 0. 0. 0. 0. 0. 0. 0. 0.
      2.43902430e-02 0. 0. 0. 0. 0. 2.43902430e-02 0. 0. 0. 0. 0. 0. 0.
      0. 0. 0. 0. 0. 0. 1.21951215e-02 0. 0. 0. 1.21951215e-02 0. 0.
      1.21951215e-02 0. 0. 0. 0. 0. 0. 0. 1.21951215e-02 0. 0. 0. 0. 0.
      0. 0. 0. 0. 0. 0. 0. 0. 0. 0. 0. 0. 0. 0. 0. 0. 0. 0. 0. 0. 0. 0.
      0. 0. 0. 0. 0. 0. 0. 0. 0. 0. 0. 0. 0. 0. 0. 0. 0. 0. 0. 0. 0. 0.
      0. 0. 0. 0. 0. 0. 0. 0. 0. 0. 0. 0. 0. 0. 0. 0. 0. 0. 0. 0. 0. 0.
      0. 1.21951215e-02 0. 0. 0. 0. 0. 0. 0. 0. 0. 0. 1.21951215e-02 0.
      0. 0. 0. 0. 1.21951215e-02 0. 0. 0. 0. 0. 0. 0. 0. 1.21951215e-02
      0. 0. 0. 0. 1.21951215e-02 0. 0. 0. 0. 0. 0. 0. 0. 0. 0. 0. 0. 0.
      0. 0. 0. 1.21951215e-02 0. 0. 0. 0. 0. 0. 0. 0. 0. 0. 0. 0. 0. 0.
      0. 0. 0. 0. 0. 0. 0. 0. 0. 0. 0. 0. 0. 0. 0. 0. 0. 0. 0. 0. 0. 0.
      0. 0. 0. 0. 0. 0. 0. 0. 0. 0. 0. 0. 0. 0. 0. 1.21951215e-02 0. 0.
      0. 0. 1.21951215e-02 1.21951215e-02 0. 0. 0. 0. 0. 0. 0. 0. 0. 0.
      0. 0. 0. 0. 0. 1.21951215e-02 0. 0. 0. 0. 0. 0. 0. 0. 0.
      1.21951215e-02 0. 1.21951215e-02 0. 0. 0. 0. 0. 0. 0. 0. 0. 0. 0.
      0. 0. 0. 0. 0. 0. 1.21951215e-02 0. 0. 0. 0. 0. 0. 0. 0. 0. 0. 0.
      2.43902430e-02 0. 0. 0. 0. 0. 0. 0. 0. 0. 0. 0. 0. 0. 0. 0. 0. 0.
      0. 0. 0. 1.21951215e-02 0. 0. 0. 0. 0. 0. 0. 0. 0. 0. 0. 0.
      1.21951215e-02 0. 0. 0. 0. 0. 0. 0. 0. 0. 0. 0. 0. 0. 0. 0. 0. 0.
      0. 0. 0. 0. 0. 0. 0. 0. 0. 0. 0. 0. 0. 0. 0. 0. 0. 0. 0. 0.
      1.21951215e-02 0. 0. 0. 0. 0. 0. 1.21951215e-02 0. 0. 0. 0. 0. 0.
      0. 0. 0. 0. 1.21951215e-02 0. 0. 0. 0. 0. 0. 1.21951215e-02 0. 0.
      0. 0. 2.43902430e-02 0. 0. 0. 0. 0. 0. 0. 0. 0. 0. 0. 0. 0. 0. 0.
      0. 0. 0. 0. 0. 0. 0. 0. 0. 0. 0. 0. 0. 0. 0. 0. 0. 1.21951215e-02
      0. 0. 0. 0. 0. 1.21951215e-02 0. 0. 0. 0. 0. 0. 0. 0. 0. 0. 0. 0.
      0. 0. 0. 0. 0. 0. 0. 0. 0. 0. 0. 0. 0. 0. 0. 1.21951215e-02 0. 0.
      0. 0. 0. 0. 0. 0. 0. 0. 0. 0. 0. 0. 0. 0. 0. 0. 0. 0.
      1.21951215e-02 0. 0. 0. 0. 0. 0. 0. 0. 0. 0. 0. 0. 0. 0. 0. 0. 0.
      0. 1.21951215e-02 0. 0. 0. 0. 1.21951215e-02 0. 0. 0. 0. 0. 0. 0.
      0. 0. 0. 0. 0. 0. 0. 0. 0. 0.</_>
    <_>
      0. 0. 0. 0. 0. 0. 0. 0. 0. 0. 0. 0. 0. 0. 0. 0. 0. 0. 0. 0. 0. 0.
      0. 2.56410260e-02 0. 0. 0. 0. 0. 0. 0. 0. 1.28205130e-02 0. 0. 0.
      0. 0. 0. 0. 0. 0. 0. 0. 0. 0. 0. 0. 0. 0. 1.28205130e-02 0. 0. 0.
      0. 0. 0. 0. 0. 0. 0. 0. 0. 0. 0. 0. 0. 1.28205130e-02 0. 0. 0. 0.
      0. 0. 0. 0. 1.28205130e-02 0. 0. 1.28205130e-02 0. 0. 0. 0. 0. 0.
      0. 0. 0. 0. 0. 0. 0. 0. 0. 0. 0. 0. 0. 0. 0. 0. 0. 0.
      1.28205130e-02 0. 0. 0. 0. 0. 0. 0. 0. 0. 0. 1.28205130e-02 0. 0.
      0. 0. 0. 0. 0. 0. 0. 0. 0. 0. 0. 0. 0. 0. 0. 0. 1.28205130e-02 0.
      0. 0. 0. 0. 0. 0. 0. 0. 0. 0. 0. 0. 0. 0. 0. 0. 0. 0. 0.
      1.28205130e-02 0. 0. 0. 0. 0. 0. 0. 0. 0. 0. 0. 0. 0. 0. 0. 0. 0.
      0. 0. 0. 0. 0. 0. 0. 0. 0. 0. 0. 0. 1.28205130e-02 0. 0.
      1.28205130e-02 1.28205130e-02 0. 0. 0. 0. 0. 1.28205130e-02 0. 0.
      0. 0. 0. 0. 0. 0. 0. 0. 0. 0. 0. 0. 0. 0. 0. 0. 0. 0. 0. 0. 0. 0.
      0. 0. 0. 2.56410260e-02 0. 0. 0. 0. 1.28205130e-02 0. 0. 0. 0. 0.
      1.28205130e-02 0. 0. 0. 0. 0. 0. 0. 0. 0. 0. 0. 2.56410260e-02 0.
      0. 0. 0. 0. 0. 0. 0. 0. 0. 0. 0. 1.28205130e-02 1.28205130e-02 0.
      0. 0. 0. 0. 0. 0. 0. 0. 0. 0. 0. 0. 0. 0. 0. 0. 0. 0. 0. 0. 0. 0.
      0. 0. 0. 0. 0. 0. 0. 0. 0. 0. 0. 0. 0. 0. 0. 0. 0. 0. 0. 0. 0. 0.
      0. 0. 0. 0. 0. 0. 0. 0. 0. 0. 0. 0. 0. 0. 0. 0. 2.56410260e-02 0.
      0. 0. 0. 0. 0. 0. 0. 0. 0. 0. 0. 0. 0. 0. 0. 0. 0. 2.56410260e-02
      0. 0. 0. 0. 1.28205130e-02 0. 0. 0. 0. 0. 0. 0. 0. 1.28205130e-02
      0. 0. 0. 0. 0. 0. 0. 0. 0. 0. 1.28205130e-02 0. 0. 0. 0. 0. 0.
      1.28205130e-02 0. 0. 0. 0. 0. 0. 0. 0. 0. 0. 0. 0. 0.
      1.28205130e-02 0. 0. 0. 0. 0. 0. 0. 0. 0. 0. 0. 0. 0. 0.
      2.56410260e-02 0. 0. 0. 0. 0. 0. 0. 0. 0. 0. 0. 0. 0. 0. 0. 0. 0.
      0. 0. 0. 0. 0. 0. 0. 0. 0. 0. 1.28205130e-02 0. 0. 0. 0. 0.
      1.28205130e-02 0. 0. 0. 0. 0. 0. 0. 0. 1.28205130e-02 0. 0. 0. 0.
      0. 0. 0. 0. 0. 0. 0. 0. 0. 1.28205130e-02 0. 1.28205130e-02 0. 0.
      0. 0. 0. 0. 0. 0. 0. 0. 0. 0. 0. 0. 0. 0. 0. 0. 0. 0. 0. 0. 0. 0.
      0. 0. 0. 0. 0. 0. 0. 1.28205130e-02 0. 0. 0. 0. 0. 0. 0. 0. 0. 0.
      0. 0. 0. 0. 0. 0. 0. 0. 0. 0. 5.12820520e-02 1.28205130e-02 0. 0.
      0. 0. 0. 0. 0. 0. 0. 1.28205130e-02 0. 0. 0. 0. 0. 0.
      1.28205130e-02 0. 0. 1.28205130e-02 0. 0. 0. 0. 0. 1.28205130e-02
      0. 0. 0. 0. 0. 0. 0. 0. 0. 0. 0. 0. 0. 0. 0. 0. 0. 0. 0. 0. 0.
      1.28205130e-02 0. 0. 0. 0. 0. 0. 0. 1.28205130e-02 0. 0. 0. 0. 0.
      0. 0. 0. 0. 0. 0. 0. 0. 0. 0. 0. 0. 0. 0. 0. 0. 0. 0. 0. 0. 0. 0.
      0. 0. 0. 0. 0. 1.28205130e-02 0. 0. 0. 0. 0. 0. 0. 0. 0. 0. 0. 0.
      0. 0. 0. 0. 0. 0. 0. 0. 0. 0. 0. 0. 0. 0. 0. 0. 0. 0. 0. 0. 0. 0.
      0. 1.28205130e-02 0. 0. 0. 0. 0. 0. 0. 0. 0. 0. 0. 0. 0. 0. 0. 0.
      0. 0. 0. 0. 0. 0. 1.28205130e-02 0. 0. 0. 0. 0. 0. 0. 0. 0. 0. 0.
      0. 0. 0. 0. 0. 0. 0. 0. 0. 0. 0. 0. 0. 0. 0. 0. 0. 0. 0. 0.
      1.28205130e-02 0. 0. 0. 0. 0. 0. 0. 0. 0. 0. 0. 0. 0. 0. 0. 0.
      1.28205130e-02 0. 0. 0. 0. 0. 0. 0. 0. 0. 0. 0. 0. 0. 0. 0. 0. 0.
      0. 0. 0. 0. 0. 0. 0. 0. 0. 0. 0. 1.28205130e-02 0. 0.
      2.56410260e-02 0. 0. 0. 0. 0. 0. 0. 0. 0. 0. 0. 0. 0. 0. 0.
      1.28205130e-02 0. 0. 0. 0. 0. 1.28205130e-02 0. 0. 0. 0. 0. 0. 0.
      0. 0. 1.28205130e-02 0. 0. 0. 0. 0. 0. 0. 0. 0. 0. 0. 0. 0. 0. 0.
      0. 0. 0. 0. 0. 0. 0. 0. 0. 0. 0. 0. 0. 0. 0. 0. 0. 0. 0. 0. 0. 0.
      0. 0. 0. 0. 0. 0. 0. 0. 0. 0. 0. 1.28205130e-02 0. 0.
      1.28205130e-02 0. 0. 0. 0. 0. 0. 0. 0. 0. 0. 0. 0. 0. 0. 0. 0. 0.
      0. 0. 0. 0. 0. 0. 0. 0. 0. 1.28205130e-02 0. 0. 0. 0. 0. 0. 0.
      1.28205130e-02 0. 1.28205130e-02 0. 0. 0. 0. 1.28205130e-02 0. 0.
      0. 0. 0. 0. 0. 0. 0. 0. 0. 0. 0. 1.28205130e-02 0. 0. 0. 0. 0. 0.
      0. 0. 0. 0. 0. 1.28205130e-02 0. 0. 0. 0. 0. 0. 1.28205130e-02 0.
      0. 1.28205130e-02 0. 0. 0. 0. 0. 0. 0. 0. 0. 0. 0. 1.28205130e-02
      0. 0. 0. 0. 0. 0. 0. 1.28205130e-02 0. 0. 1.28205130e-02 0.
      1.28205130e-02 0. 0. 0. 0. 0. 0. 0. 0. 0. 0. 0. 0. 0. 0. 0. 0. 0.
      0. 0. 2.56410260e-02 0. 0. 0. 0. 0. 0. 0. 0. 0. 0. 0. 0. 0. 0. 0.
      0. 0. 0. 0. 0. 0. 0. 0. 0. 0. 0. 0. 0. 0. 0. 0. 0. 0. 0. 0. 0. 0.
      0. 0. 0. 0. 0. 0. 0. 0. 0. 0. 0.</_>
    <_>
      0. 0. 0. 0. 0. 0. 0. 0. 0. 0. 0. 0. 0. 0. 0. 0. 0. 0. 0. 0. 0. 0.
      0. 0. 1.99999996e-02 0. 0. 0. 0. 0. 0. 0. 0. 0. 0. 0. 0. 0. 0. 0.
      0. 0. 0. 0. 0. 0. 0. 0. 0. 0. 0. 0. 0. 0. 0. 0. 0. 0. 0. 0. 0. 0.
      0. 0. 0. 0. 0. 0. 0. 0. 0. 0. 0. 0. 0. 0. 0. 0. 0. 0. 0. 0. 0. 0.
      0. 0. 0. 0. 0. 0. 0. 0. 0. 0. 0. 0. 0. 0. 0. 0. 0. 0. 0. 0. 0. 0.
      0. 0. 0. 0. 0. 1.99999996e-02 0. 0. 0. 0. 0. 1.99999996e-02 0. 0.
      0. 0. 0. 0. 1.99999996e-02 0. 0. 0. 0. 0. 0. 0. 0. 0. 0. 0. 0. 0.
      0. 0. 0. 0. 0. 0. 0. 0. 0. 0. 0. 0. 1.99999996e-02 0. 0. 0. 0. 0.
      0. 0. 0. 1.99999996e-02 0. 0. 0. 0. 0. 0. 0. 0. 0. 0. 0. 0. 0. 0.
      0. 0. 0. 0. 0. 0. 0. 1.99999996e-02 0. 0. 0. 0. 0. 0. 0. 0. 0. 0.
      0. 0. 0. 0. 0. 0. 0. 0. 0. 0. 0. 0. 0. 1.99999996e-02 0.
      1.99999996e-02 0. 0. 0. 0. 0. 0. 0. 0. 0. 0. 0. 0. 0. 0. 0. 0. 0.
      0. 0. 0. 0. 0. 0. 0. 0. 0. 0. 0. 0. 0. 0. 0. 0. 0. 0. 0. 0. 0. 0.
      0. 1.99999996e-02 0. 0. 0. 0. 0. 0. 0. 0. 0. 0. 0. 0. 0. 0. 0. 0.
      0. 0. 0. 0. 0. 0. 0. 0. 0. 0. 0. 0. 0. 0. 1.99999996e-02 0. 0. 0.
      0. 0. 0. 0. 0. 0. 0. 0. 0. 0. 0. 0. 0. 0. 0. 0. 0. 0. 0. 0. 0. 0.
      0. 0. 0. 0. 0. 0. 0. 0. 0. 0. 0. 1.99999996e-02 0. 0. 0. 0. 0. 0.
      0. 0. 0. 0. 0. 0. 0. 0. 0. 0. 0. 0. 0. 0. 0. 0. 0. 0. 0. 0. 0. 0.
      0. 0. 0. 0. 0. 0. 1.99999996e-02 0. 0. 0. 0. 0. 1.99999996e-02 0.
      0. 0. 0. 0. 0. 1.99999996e-02 0. 0. 0. 0. 0. 0. 0. 0. 0. 0. 0. 0.
      0. 0. 0. 0. 0. 0. 0. 0. 0. 0. 0. 0. 0. 0. 0. 0. 0. 0. 0. 0. 0. 0.
      0. 0. 0. 0. 0. 0. 0. 0. 1.99999996e-02 0. 0. 0. 0. 0. 0. 0. 0. 0.
      0. 0. 0. 0. 0. 0. 0. 0. 0. 0. 0. 0. 0. 0. 0. 0. 0. 0. 0.
      1.99999996e-02 0. 0. 0. 0. 3.99999991e-02 0. 0. 0. 0. 0. 0. 0. 0.
      0. 0. 0. 0. 0. 0. 1.99999996e-02 0. 0. 0. 0. 1.99999996e-02 0. 0.
      3.99999991e-02 0. 0. 0. 0. 0. 0. 0. 0. 0. 0. 0. 0. 0. 0. 0. 0. 0.
      0. 0. 0. 0. 0. 0. 0. 0. 0. 0. 0. 0. 0. 0. 0. 0. 0. 0. 0. 0. 0. 0.
      0. 0. 0. 0. 0. 0. 0. 0. 0. 1.99999996e-02 0. 0. 0. 0. 0. 0. 0. 0.
      0. 0. 0. 0. 0. 0. 0. 0. 0. 0. 0. 0. 0. 0. 0. 0. 0. 0. 0. 0. 0.
      1.99999996e-02 0. 0. 0. 0. 0. 0. 0. 0. 0. 0. 0. 0. 0. 0. 0. 0. 0.
      0. 0. 0. 0. 0. 0. 0. 0. 0. 0. 0. 0. 0. 0. 0. 0. 0. 0. 0. 0. 0.
      1.99999996e-02 0. 0. 0. 0. 0. 0. 0. 0. 0. 0. 0. 0. 0. 0. 0. 0. 0.
      0. 0. 0. 0. 0. 0. 0. 0. 0. 0. 0. 0. 0. 0. 1.99999996e-02
      1.99999996e-02 0. 0. 0. 0. 0. 1.99999996e-02 0. 0. 0. 0. 0. 0. 0.
      1.99999996e-02 0. 0. 0. 0. 0. 0. 0. 0. 0. 0. 0. 1.99999996e-02 0.
      0. 0. 0. 0. 1.99999996e-02 0. 0. 0. 0. 0. 0. 0. 0. 0. 0. 0. 0. 0.
      0. 0. 0. 0. 1.99999996e-02 0. 0. 0. 0. 0. 0. 0. 0. 0. 0.
      1.99999996e-02 0. 0. 0. 0. 0. 0. 0. 0. 1.99999996e-02 0.
      1.99999996e-02 0. 0. 0. 0. 0. 0. 0. 0. 0. 0. 1.99999996e-02 0. 0.
      0. 0. 0. 0. 0. 0. 0. 0. 0. 0. 0. 0. 0. 0. 0. 0. 0. 0. 0. 0. 0. 0.
      0. 0. 0. 0. 0. 0. 0. 0. 0. 0. 0. 0. 0. 0. 0. 0. 0. 0. 0.
      1.99999996e-02 0. 0. 0. 0. 1.99999996e-02 0. 1.99999996e-02 0. 0.
      0. 0. 0. 0. 0. 0. 0. 0. 0. 0. 0. 0. 0. 0. 0. 0. 0. 0.
      1.99999996e-02 0. 0. 1.99999996e-02 0. 0. 0. 0. 0. 1.99999996e-02
      0. 0. 0. 0. 0. 0. 0. 0. 0. 0. 0. 0. 0. 0. 0. 0. 0. 0. 0. 0. 0. 0.
      0. 0. 1.99999996e-02 0. 0. 0. 0. 0. 0. 0. 0. 0. 0. 0. 0. 0. 0. 0.
      0. 0. 0. 0. 0. 0. 0. 0. 0. 0. 0. 0. 1.99999996e-02 0. 0. 0. 0. 0.
      0. 0. 0. 0. 0. 0. 0. 0. 0. 0. 0. 0. 1.99999996e-02 0. 0. 0. 0. 0.
      0. 0. 0. 0. 0. 0. 0. 0. 0. 0. 0. 0. 0. 0. 0. 0. 0. 1.99999996e-02
      0. 0. 0. 0. 0. 0. 0. 0. 0. 0. 0. 0. 0. 0. 0. 0. 0. 0. 0. 0. 0. 0.
      0. 0. 0. 0. 0. 0. 0. 0. 1.99999996e-02 0. 0. 0. 0. 0. 0. 0. 0. 0.
      0. 0. 0. 0. 0. 0. 0. 0. 0. 0. 0. 0. 0. 0. 0. 0. 0. 0. 0. 0. 0. 0.
      0. 0. 0. 0. 1.99999996e-02 0. 0. 0. 0. 0. 0. 0. 0. 0. 0. 0. 0. 0.
      0. 0. 0. 0. 0. 0. 0. 0. 0. 0. 0. 0. 0. 0. 0. 0. 0. 0. 0. 0. 0.
      1.99999996e-02 0. 0. 0. 0. 0. 0. 0. 0. 0. 0. 0. 0. 0. 0. 0. 0. 0.
      0. 0. 0. 0. 0. 0. 0.</_>
    <_>
      0. 0. 0. 0. 0. 8.33333377e-03 0. 0. 0. 0. 0. 0. 0. 0. 0. 0. 0. 0.
      0. 0. 0. 8.33333377e-03 0. 0. 0. 0. 0. 0. 0. 0. 0. 0.
      8.33333377e-03 0. 0. 0. 0. 0. 8.33333377e-03 0. 0. 0. 0. 0.
      1.66666675e-02 0. 0. 0. 0. 0. 0. 0. 0. 0. 0. 0. 0. 0. 0. 0. 0. 0.
      0. 8.33333377e-03 0. 0. 0. 0. 0. 0. 0. 0. 0. 0. 0. 0. 0.
      8.33333377e-03 0. 8.33333377e-03 0. 0. 0. 0. 0. 0. 0. 0. 0. 0. 0.
      0. 0. 1.66666675e-02 0. 0. 0. 0. 0. 0. 8.33333377e-03 0. 0.
      1.66666675e-02 0. 0. 0. 8.33333377e-03 0. 8.33333377e-03 0. 0. 0.
      0. 0. 0. 8.33333377e-03 0. 0. 0. 0. 8.33333377e-03 0. 0. 0. 0. 0.
      8.33333377e-03 0. 0. 0. 0. 0. 0. 0. 0. 0. 8.33333377e-03 0. 0. 0.
      0. 0. 0. 8.33333377e-03 0. 0. 0. 0. 0. 0. 0. 0. 0. 0. 0. 0. 0. 0.
      0. 0. 0. 0. 0. 0. 0. 0. 0. 0. 0. 0. 0. 0. 0. 0. 8.33333377e-03 0.
      0. 0. 8.33333377e-03 0. 0. 0. 0. 8.33333377e-03 0. 0. 0. 0. 0. 0.
      1.66666675e-02 8.33333377e-03 0. 0. 0. 0. 0. 0. 0. 0. 0. 0. 0. 0.
      0. 0. 0. 0. 8.33333377e-03 0. 0. 0. 0. 8.33333377e-03 0. 0. 0. 0.
      8.33333377e-03 0. 0. 8.33333377e-03 0. 0. 0. 0. 0. 0. 0. 0. 0. 0.
      0. 0. 0. 0. 8.33333377e-03 0. 0. 0. 0. 0. 0. 0. 0. 0. 0. 0. 0. 0.
      0. 0. 0. 0. 8.33333377e-03 0. 0. 0. 0. 0. 0. 0. 8.33333377e-03 0.
      0. 0. 0. 0. 0. 0. 0. 0. 0. 8.33333377e-03 0. 0. 0. 8.33333377e-03
      0. 0. 0. 0. 0. 0. 0. 0. 0. 8.33333377e-03 8.33333377e-03 0. 0. 0.
      0. 8.33333377e-03 0. 0. 0. 8.33333377e-03 0. 0. 0. 0. 0. 0. 0. 0.
      0. 0. 0. 0. 0. 0. 0. 0. 0. 0. 0. 8.33333377e-03 0. 0. 0. 0. 0. 0.
      0. 0. 0. 0. 0. 0. 0. 0. 0. 0. 8.33333377e-03 0. 0. 0. 0. 0. 0. 0.
      0. 0. 0. 0. 0. 8.33333377e-03 0. 0. 0. 0. 8.33333377e-03 0. 0. 0.
      1.66666675e-02 0. 0. 0. 0. 0. 0. 0. 0. 0. 0. 0. 0. 0. 0. 0. 0. 0.
      0. 0. 0. 0. 0. 0. 0. 0. 0. 0. 0. 0. 0. 0. 0. 0. 0. 8.33333377e-03
      0. 0. 0. 0. 8.33333377e-03 0. 0. 0. 8.33333377e-03 8.33333377e-03
      0. 0. 0. 0. 8.33333377e-03 0. 0. 0. 0. 0. 0. 0. 0. 0. 0. 0. 0. 0.
      0. 0. 0. 0. 0. 0. 0. 0. 0. 0. 0. 0. 0. 0. 0. 8.33333377e-03 0. 0.
      0. 0. 0. 0. 0. 0. 0. 0. 8.33333377e-03 0. 0. 0. 0. 0.
      8.33333377e-03 8.33333377e-03 0. 8.33333377e-03 0. 0. 0. 0. 0. 0.
      0. 0. 0. 0. 1.66666675e-02 8.33333377e-03 0. 0. 0. 0. 0. 0.
      8.33333377e-03 0. 0. 0. 0. 0. 0. 0. 0. 0. 0. 0. 0. 8.33333377e-03
      0. 0. 8.33333377e-03 0. 0. 0. 0. 0. 0. 0. 0. 0. 0. 0. 0.
      8.33333377e-03 0. 8.33333377e-03 8.33333377e-03 0. 0. 0. 0.
      8.33333377e-03 0. 0. 0. 0. 0. 0. 8.33333377e-03 0. 8.33333377e-03
      0. 0. 0. 0. 0. 0. 0. 0. 0. 0. 0. 0. 0. 0. 0. 8.33333377e-03 0. 0.
      0. 0. 0. 0. 0. 0. 8.33333377e-03 0. 0. 0. 0. 0. 0. 0.
      8.33333377e-03 0. 0. 0. 0. 0. 0. 0. 0. 1.66666675e-02
      8.33333377e-03 0. 0. 0. 0. 0. 0. 0. 0. 0. 0. 8.33333377e-03 0. 0.
      0. 0. 0. 0. 0. 8.33333377e-03 8.33333377e-03 8.33333377e-03 0. 0.
      0. 0. 0. 0. 0. 0. 0. 0. 0. 0. 0. 0. 0. 0. 0. 0. 0. 8.33333377e-03
      0. 0. 0. 0. 0. 0. 0. 0. 0. 8.33333377e-03 0. 0. 0. 0. 0. 0.
      8.33333377e-03 8.33333377e-03 0. 0. 0. 0. 8.33333377e-03 0. 0. 0.
      0. 0. 0. 0. 0. 0. 0. 0. 8.33333377e-03 0. 0. 0. 0. 0. 0. 0. 0. 0.
      0. 0. 8.33333377e-03 0. 8.33333377e-03 0. 0. 0. 0. 0. 0. 0. 0. 0.
      0. 0. 0. 0. 0. 0. 0. 0. 0. 0. 8.33333377e-03 0. 0. 0. 0. 0. 0.
      8.33333377e-03 0. 0. 0. 0. 0. 0. 0. 0. 0. 1.66666675e-02 0. 0. 0.
      0. 0. 0. 0. 0. 0. 0. 0. 0. 0. 0. 0. 0. 8.33333377e-03 0. 0. 0. 0.
      0. 0. 0. 0. 0. 0. 0. 0. 0. 0. 0. 0. 0. 0. 0. 0. 0. 0. 0. 0. 0. 0.
      0. 0. 0. 0. 0. 0. 0. 0. 0. 0. 8.33333377e-03 0. 0. 0. 0. 0.
      8.33333377e-03 0. 8.33333377e-03 8.33333377e-03 0. 0. 0. 0. 0. 0.
      0. 0. 0. 0. 0. 0. 0. 0. 0. 0. 0. 0. 0. 0. 8.33333377e-03 0. 0. 0.
      0. 8.33333377e-03 0. 8.33333377e-03 0. 0. 8.33333377e-03 0. 0. 0.
      0. 0. 0. 0. 0. 0. 0. 0. 0. 0. 0. 0. 0. 0. 0. 0. 0. 8.33333377e-03
      0. 0. 0. 0. 0. 0. 0. 0. 0. 0. 0. 0. 0. 0. 0. 0. 0. 0. 0. 0. 0. 0.
      0. 0. 0. 8.33333377e-03 8.33333377e-03 0. 0. 0. 0. 0.
      8.33333377e-03 0. 0. 0. 0. 0. 0. 0. 0. 0. 0. 0. 0. 0. 0. 0.
      8.33333377e-03 0. 0. 0. 0. 0. 0. 0. 8.33333377e-03 0. 0. 0. 0. 0.
      0. 0. 0. 8.33333377e-03 0. 0. 0. 8.33333377e-03 8.33333377e-03 0.
      0. 0. 0. 0. 0. 0. 0. 0. 0. 0. 0. 0. 0. 0. 0. 1.66666675e-02 0. 0.
      0. 0. 0. 0. 0. 8.33333377e-03 0. 0. 0. 8.33333377e-03 0. 0. 0.
      8.33333377e-03 0. 0. 0. 8.33333377e-03 0. 0. 0. 0. 0. 0. 0. 0. 0.
      0. 0. 0. 8.33333377e-03 0. 0. 0. 8.33333377e-03 0. 0. 0. 0. 0.
      8.33333377e-03 0. 0. 0. 0. 0. 0. 0. 8.33333377e-03 0. 0. 0. 0. 0.
      0. 8.33333377e-03 0. 0. 0. 0. 0. 0. 0. 0. 0. 0. 0. 0. 0. 0. 0. 0.
      0. 0. 0. 0. 0. 0. 0. 0. 0. 0. 0. 0. 8.33333377e-03 0. 0. 0. 0. 0.
      0. 0. 0. 0. 0. 0. 0. 0. 0. 0. 0. 0. 0.</_>
    <_>
      0. 0. 0. 0. 0. 1.33333337e-02 1.33333337e-02 0. 0. 0. 0. 0.
      1.33333337e-02 0. 0. 0. 0. 0. 0. 0. 0. 0. 0. 0. 0. 0. 0. 0. 0. 0.
      0. 2.66666673e-02 0. 0. 0. 0. 0. 0. 0. 0. 0. 0. 0. 0.
      1.33333337e-02 2.66666673e-02 0. 0. 0. 0. 0. 0. 0. 0. 0. 0. 0. 0.
      0. 0. 0. 0. 0. 1.33333337e-02 1.33333337e-02 0. 0. 0. 0. 0. 0. 0.
      0. 0. 0. 0. 0. 0. 0. 0. 0. 0. 0. 0. 0. 0. 0. 0. 0. 0. 0. 0. 0. 0.
      0. 0. 0. 0. 0. 0. 0. 0. 0. 0. 0. 0. 0. 0. 0. 0. 0. 0. 0. 0. 0. 0.
      0. 0. 0. 0. 0. 0. 0. 0. 0. 0. 0. 0. 0. 0. 0. 0. 0. 0. 0. 0. 0. 0.
      0. 0. 0. 1.33333337e-02 0. 0. 0. 0. 0. 0. 0. 0. 0. 0. 0.
      1.33333337e-02 0. 0. 0. 0. 0. 0. 0. 0. 0. 0. 1.33333337e-02 0. 0.
      0. 0. 0. 0. 0. 0. 1.33333337e-02 0. 0. 0. 0. 0. 0. 0. 0. 0. 0. 0.
      0. 0. 0. 0. 0. 0. 1.33333337e-02 0. 1.33333337e-02 0. 0. 0. 0. 0.
      0. 0. 0. 0. 0. 0. 1.33333337e-02 0. 0. 0. 0. 0. 0. 0. 0. 0. 0. 0.
      0. 0. 0. 0. 0. 0. 1.33333337e-02 0. 0. 0. 0. 0. 0. 0. 0. 0. 0. 0.
      0. 0. 0. 0. 0. 0. 0. 0. 0. 0. 0. 0. 0. 0. 0. 0. 0. 0. 0. 0. 0. 0.
      0. 0. 0. 0. 0. 0. 0. 1.33333337e-02 0. 0. 0. 0. 0. 0. 0. 0. 0. 0.
      0. 1.33333337e-02 0. 0. 0. 0. 0. 0. 0. 0. 0. 0. 0. 2.66666673e-02
      0. 0. 0. 1.33333337e-02 0. 0. 0. 0. 1.33333337e-02 0. 0. 0. 0. 0.
      0. 0. 0. 0. 0. 0. 0. 1.33333337e-02 0. 0. 2.66666673e-02 0. 0. 0.
      0. 0. 0. 0. 1.33333337e-02 0. 1.33333337e-02 0. 0. 0. 0. 0. 0. 0.
      0. 0. 0. 0. 0. 0. 0. 0. 0. 0. 0. 0. 1.33333337e-02 0. 0. 0. 0. 0.
      0. 0. 0. 0. 0. 0. 0. 0. 0. 0. 0. 0. 0. 0. 0. 0. 0. 0. 0.
      2.66666673e-02 0. 0. 0. 0. 0. 0. 0. 0. 0. 0. 0. 0. 0. 0. 0. 0. 0.
      0. 0. 0. 0. 0. 0. 0. 0. 0. 0. 0. 0. 0. 0. 0. 0. 0. 0. 0. 0. 0. 0.
      0. 0. 0. 0. 0. 0. 0. 0. 0. 0. 0. 0. 0. 0. 0. 1.33333337e-02 0. 0.
      0. 0. 0. 0. 0. 0. 0. 0. 0. 0. 0. 0. 0. 0. 0. 1.33333337e-02
      1.33333337e-02 0. 0. 0. 0. 0. 0. 0. 0. 0. 0. 0. 0. 0. 0. 0. 0. 0.
      0. 0. 0. 0. 0. 0. 0. 0. 3.99999991e-02 0. 0. 0. 0. 0. 0. 0. 0. 0.
      0. 0. 0. 0. 0. 0. 0. 0. 0. 0. 0. 0. 0. 0. 0. 0. 0. 0. 0. 0. 0. 0.
      0. 0. 0. 0. 0. 0. 1.33333337e-02 0. 0. 0. 0. 0. 0. 0. 0. 0. 0. 0.
      0. 0. 0. 0. 1.33333337e-02 1.33333337e-02 0. 0. 0. 0. 0. 0. 0. 0.
      0. 0. 0. 1.33333337e-02 0. 0. 0. 0. 0. 0. 0. 0. 0. 0. 0. 0. 0. 0.
      0. 0. 0. 0. 0. 1.33333337e-02 0. 0. 0. 1.33333337e-02 0. 0. 0. 0.
      1.33333337e-02 0. 0. 1.33333337e-02 0. 0. 0. 0. 0. 0. 0. 0. 0. 0.
      0. 0. 0. 0. 0. 0. 0. 0. 0. 0. 0. 0. 0. 0. 0. 0. 0. 0. 0. 0. 0. 0.
      0. 0. 0. 0. 0. 0. 0. 1.33333337e-02 0. 0. 0. 0. 0. 0. 0. 0. 0. 0.
      0. 0. 0. 0. 0. 1.33333337e-02 0. 0. 0. 0. 0. 0. 0. 0. 0. 0. 0. 0.
      0. 0. 0. 0. 0. 0. 0. 0. 0. 0. 0. 0. 0. 0. 0. 0. 0. 0. 0. 0. 0. 0.
      1.33333337e-02 0. 0. 0. 1.33333337e-02 0. 0. 0. 0. 0. 0. 0. 0. 0.
      0. 0. 0. 0. 0. 0. 0. 0. 0. 0. 0. 0. 0. 0. 0. 0. 0. 0. 0. 0. 0. 0.
      0. 1.33333337e-02 0. 0. 0. 0. 0. 0. 1.33333337e-02 0. 0. 0. 0. 0.
      0. 0. 0. 0. 1.33333337e-02 0. 0. 0. 0. 0. 0. 0. 0. 0. 0. 0. 0. 0.
      0. 0. 0. 0. 0. 0. 0. 0. 0. 0. 0. 0. 0. 0. 0. 0. 0. 0. 0. 0.
      1.33333337e-02 0. 0. 0. 0. 1.33333337e-02 0. 0. 0. 0.
      1.33333337e-02 0. 0. 0. 0. 0. 1.33333337e-02 0. 0. 0. 0. 0. 0.
      3.99999991e-02 0. 0. 0. 0. 0. 0. 0. 0. 0. 0. 0. 0. 0. 0.
      1.33333337e-02 0. 0. 0. 0. 1.33333337e-02 0. 0. 0. 0. 0. 0. 0. 0.
      0. 0. 0. 0. 0. 0. 0. 0. 0. 0. 0. 0. 0. 0. 0. 0. 0. 0. 0. 0. 0. 0.
      0. 1.33333337e-02 0. 0. 0. 0. 0. 0. 0. 0. 1.33333337e-02 0. 0. 0.
      0. 0. 0. 0. 0. 0. 0. 0. 0. 0. 1.33333337e-02 0. 0. 0. 0. 0. 0. 0.
      0. 0. 0. 0. 0. 0. 0. 1.33333337e-02 0. 0. 0. 1.33333337e-02 0. 0.
      0. 0. 0. 0. 1.33333337e-02 0. 0. 0. 0. 0. 0. 0. 0. 0. 0. 0. 0. 0.
      0. 0. 0. 0. 0. 0. 0. 0. 0. 2.66666673e-02 0. 0. 0. 0. 0. 0. 0. 0.
      0. 0. 0. 0. 0. 0. 0. 1.33333337e-02 0. 0. 0. 0. 0. 0. 0. 0. 0.
      1.33333337e-02 0. 0. 0. 0. 0. 0. 0. 0. 0. 0. 0. 0. 0. 0. 0. 0. 0.
      0. 0. 0. 0. 0. 0. 0. 0. 0. 0. 0. 0. 0. 0. 0. 0. 0. 0. 0. 0. 0. 0.
      0. 0. 0. 0. 0. 0. 0. 0. 0. 0. 0. 0. 0. 0. 0. 0. 1.33333337e-02 0.
      0. 0. 0. 0. 0. 1.33333337e-02 0. 0. 0. 0. 0. 0. 0. 0. 0. 0. 0. 0.
      0. 1.33333337e-02 0. 0. 0.</_>
    <_>
      0. 0. 0. 0. 0. 0. 0. 0. 0. 0. 0. 0. 0. 0. 0. 0. 0. 0. 0. 0.
      1.13636367e-02 0. 1.13636367e-02 0. 0. 0. 1.13636367e-02 0. 0.
      1.13636367e-02 0. 0. 0. 0. 0. 0. 0. 0. 0. 0. 0. 0. 0. 0.
      1.13636367e-02 0. 0. 0. 0. 0. 0. 0. 0. 0. 0. 0. 0. 0. 0. 0. 0. 0.
      0. 0. 0. 0. 0. 0. 0. 0. 0. 0. 0. 0. 0. 0. 0. 0. 0. 0. 0. 0. 0. 0.
      0. 0. 0. 0. 1.13636367e-02 0. 1.13636367e-02 0. 0. 0. 0. 0.
      1.13636367e-02 0. 0. 0. 0. 0. 0. 0. 0. 0. 0. 0. 0. 0. 0. 0. 0. 0.
      0. 0. 0. 0. 1.13636367e-02 0. 0. 0. 0. 0. 1.13636367e-02 0. 0. 0.
      0. 0. 0. 0. 0. 0. 1.13636367e-02 0. 0. 1.13636367e-02 0. 0. 0. 0.
      0. 0. 0. 0. 0. 0. 0. 0. 0. 0. 0. 0. 0. 0. 0. 0. 0. 0. 0.
      1.13636367e-02 0. 0. 0. 0. 0. 0. 0. 0. 0. 0. 0. 0. 0. 0. 0. 0. 0.
      0. 0. 0. 0. 0. 1.13636367e-02 0. 0. 0. 0. 0. 0. 0. 0. 0. 0. 0. 0.
      0. 0. 0. 0. 0. 0. 0. 0. 0. 0. 0. 1.13636367e-02 0. 0. 0. 0. 0. 0.
      0. 0. 0. 0. 0. 0. 0. 0. 0. 0. 0. 0. 0. 0. 0. 0. 0. 0. 0. 0. 0. 0.
      0. 0. 0. 0. 0. 0. 0. 0. 0. 1.13636367e-02 0. 0. 0. 0. 0. 0. 0. 0.
      0. 0. 0. 0. 0. 0. 0. 0. 0. 0. 0. 1.13636367e-02 0. 0. 0. 0. 0. 0.
      0. 0. 0. 0. 0. 0. 0. 0. 0. 0. 0. 0. 0. 0. 0. 0. 0. 0. 0. 0. 0. 0.
      0. 0. 0. 0. 0. 0. 0. 0. 0. 0. 0. 0. 0. 0. 0. 0. 0. 0.
      1.13636367e-02 0. 0. 2.27272734e-02 0. 0. 0. 0. 0. 0. 0.
      1.13636367e-02 0. 0. 0. 0. 0. 0. 0. 1.13636367e-02 0. 0. 0. 0. 0.
      0. 0. 2.27272734e-02 0. 0. 0. 0. 0. 0. 0. 0. 1.13636367e-02 0. 0.
      0. 0. 0. 0. 0. 0. 0. 0. 0. 0. 0. 0. 0. 0. 0. 0. 0. 0. 0. 0. 0. 0.
      0. 0. 0. 1.13636367e-02 0. 0. 0. 0. 0. 0. 0. 0. 0. 0. 0. 0.
      1.13636367e-02 0. 0. 0. 0. 0. 0. 0. 0. 0. 1.13636367e-02 0. 0. 0.
      0. 0. 0. 0. 0. 0. 0. 0. 0. 0. 0. 0. 0. 0. 0. 0. 0. 0. 0. 0.
      1.13636367e-02 0. 0. 0. 0. 0. 0. 0. 0. 0. 0. 0. 1.13636367e-02 0.
      0. 0. 0. 0. 0. 0. 1.13636367e-02 0. 0. 0. 1.13636367e-02 0. 0. 0.
      0. 0. 0. 0. 0. 0. 0. 0. 0. 0. 0. 0. 0. 0. 0. 0. 0. 0. 0. 0. 0. 0.
      0. 0. 0. 0. 0. 0. 0. 0. 0. 0. 0. 0. 0. 0. 0. 0. 0. 0. 0. 0. 0. 0.
      1.13636367e-02 0. 0. 0. 1.13636367e-02 0. 1.13636367e-02 0. 0. 0.
      1.13636367e-02 0. 0. 0. 0. 0. 0. 1.13636367e-02 0. 0. 0. 0. 0. 0.
      0. 0. 0. 0. 0. 1.13636367e-02 0. 1.13636367e-02 0. 0. 0. 0. 0. 0.
      0. 0. 0. 0. 0. 1.13636367e-02 0. 0. 0. 0. 0. 0. 0. 0.
      1.13636367e-02 0. 0. 0. 0. 0. 0. 0. 0. 0. 0. 0. 0. 0. 0. 0. 0. 0.
      0. 0. 0. 0. 0. 0. 0. 0. 0. 0. 0. 0. 0. 0. 0. 0. 0. 0. 0.
      1.13636367e-02 0. 0. 0. 0. 0. 0. 0. 0. 0. 1.13636367e-02 0.
      1.13636367e-02 0. 0. 0. 0. 0. 0. 0. 0. 0. 0. 1.13636367e-02 0. 0.
      0. 0. 0. 0. 1.13636367e-02 0. 0. 0. 3.40909101e-02 1.13636367e-02
      0. 0. 0. 0. 0. 0. 0. 0. 0. 0. 0. 0. 0. 0. 0. 0. 0. 0. 0. 0. 0. 0.
      1.13636367e-02 0. 0. 0. 1.13636367e-02 0. 0. 0. 0. 1.13636367e-02
      0. 0. 0. 0. 1.13636367e-02 0. 0. 0. 0. 0. 0. 0. 0. 0.
      1.13636367e-02 0. 0. 1.13636367e-02 0. 0. 0. 0. 0. 0. 0. 0. 0. 0.
      0. 0. 0. 0. 0. 0. 0. 0. 1.13636367e-02 0. 0. 0. 0. 0. 0. 0. 0. 0.
      0. 0. 1.13636367e-02 0. 0. 0. 0. 0. 0. 0. 0. 0. 0. 0. 0. 0. 0. 0.
      0. 0. 0. 0. 0. 0. 0. 0. 0. 0. 0. 0. 0. 0. 0. 0. 0. 0. 0.
      1.13636367e-02 0. 0. 0. 0. 0. 0. 0. 0. 0. 0. 1.13636367e-02 0. 0.
      0. 1.13636367e-02 0. 0. 0. 0. 0. 0. 0. 0. 0. 0. 0. 0. 0. 0. 0. 0.
      0. 0. 0. 0. 0. 0. 1.13636367e-02 0. 1.13636367e-02 0. 0. 0.
      2.27272734e-02 0. 0. 0. 1.13636367e-02 0. 0. 0. 0. 0. 0.
      1.13636367e-02 0. 0. 1.13636367e-02 0. 0. 0. 0. 1.13636367e-02 0.
      0. 0. 0. 0. 0. 0. 0. 0. 0. 0. 0. 0. 0. 0. 0. 0. 0. 0. 0. 0. 0. 0.
      0. 0. 0. 0. 0. 0. 0. 1.13636367e-02 0. 0. 0. 2.27272734e-02 0. 0.
      1.13636367e-02 0. 0. 0. 0. 0. 0. 0. 0. 0. 0. 0. 0. 0. 0. 0. 0.
      1.13636367e-02 0. 0. 0. 0. 0. 0. 1.13636367e-02 0. 1.13636367e-02
      0. 0. 0. 0. 0. 0. 0. 0. 0. 0. 0. 1.13636367e-02 0. 0. 0. 0. 0. 0.
      0. 0. 0. 0. 0. 0. 0. 1.13636367e-02 0. 0. 1.13636367e-02 0.
      1.13636367e-02 0. 0. 0. 0. 0. 0. 0. 0. 0. 1.13636367e-02 0. 0. 0.
      0. 0. 0. 1.13636367e-02 0. 0. 0. 0. 1.13636367e-02 0. 0. 0. 0. 0.
      0. 0. 0. 0. 0. 0. 0. 0. 0. 0. 0. 0. 0. 0. 0. 0. 0. 0. 0. 0. 0. 0.
      0. 0. 0. 0. 0. 0. 0. 0. 0. 0. 0. 0. 0. 0. 0. 0. 0. 0. 0. 0. 0. 0.
      1.13636367e-02 0. 0. 0. 0. 0. 0. 0. 0. 2.27272734e-02 0. 0. 0. 0.
      0. 0. 0. 0. 0. 0. 0. 0. 1.13636367e-02 0. 0. 0. 1.13636367e-02 0.
      0. 0. 0. 0. 0. 0.</_>
    <_>
      0. 1.36986300e-02 0. 0. 0. 0. 0. 0. 0. 0. 0. 0. 0. 0. 0. 0. 0. 0.
      0. 0. 0. 0. 0. 0. 0. 1.36986300e-02 0. 0. 0. 0. 0. 0. 0. 0.
      1.36986300e-02 1.36986300e-02 1.36986300e-02 0. 0. 0. 0. 0. 0. 0.
      0. 0. 0. 0. 0. 0. 0. 1.36986300e-02 0. 0. 0. 0. 0. 0. 0. 0. 0. 0.
      0. 0. 0. 0. 0. 0. 0. 0. 0. 0. 1.36986300e-02 0. 0. 0.
      1.36986300e-02 0. 0. 0. 0. 0. 0. 0. 0. 0. 0. 0. 0. 0. 0. 0. 0. 0.
      0. 0. 0. 0. 0. 0. 0. 0. 0. 2.73972601e-02 1.36986300e-02 0. 0. 0.
      0. 0. 0. 0. 0. 0. 0. 1.36986300e-02 0. 0. 0. 0. 0. 0.
      1.36986300e-02 0. 0. 0. 0. 0. 0. 0. 0. 0. 0. 0. 0. 0. 0. 0. 0. 0.
      0. 1.36986300e-02 0. 0. 0. 0. 0. 0. 0. 0. 0. 0. 0. 0. 0. 0. 0.
      1.36986300e-02 0. 0. 0. 0. 0. 0. 0. 0. 0. 0. 0. 0. 0. 0. 0. 0. 0.
      0. 2.73972601e-02 0. 0. 0. 0. 0. 0. 0. 0. 0. 0. 0. 0.
      1.36986300e-02 0. 0. 0. 0. 0. 0. 0. 0. 0. 0. 0. 0. 0. 0. 0.
      1.36986300e-02 0. 0. 0. 0. 0. 0. 0. 0. 0. 0. 0. 0. 0. 0. 0. 0. 0.
      0. 0. 0. 0. 0. 0. 0. 1.36986300e-02 0. 1.36986300e-02 0. 0. 0. 0.
      0. 0. 0. 0. 0. 0. 0. 0. 0. 1.36986300e-02 1.36986300e-02 0. 0. 0.
      0. 0. 0. 0. 0. 0. 0. 1.36986300e-02 0. 0. 0. 0. 0. 0. 0. 0. 0. 0.
      0. 0. 1.36986300e-02 0. 0. 0. 0. 0. 0. 0. 0. 0. 0. 0. 0. 0.
      2.73972601e-02 0. 0. 0. 0. 0. 0. 0. 0. 0. 0. 0. 0. 0. 0. 0. 0. 0.
      0. 0. 0. 0. 0. 0. 0. 0. 0. 0. 1.36986300e-02 0. 0. 1.36986300e-02
      0. 1.36986300e-02 0. 0. 0. 0. 0. 1.36986300e-02 0. 0. 0. 0. 0. 0.
      0. 0. 0. 0. 0. 0. 1.36986300e-02 0. 0. 0. 0. 0. 0. 0. 0. 0. 0. 0.
      0. 0. 0. 0. 0. 0. 0. 0. 0. 0. 0. 0. 0. 0. 0. 0. 0. 0. 0. 0. 0. 0.
      0. 0. 1.36986300e-02 0. 0. 0. 0. 1.36986300e-02 0. 0. 0. 0. 0. 0.
      0. 0. 0. 0. 0. 0. 0. 0. 0. 0. 0. 0. 0. 0. 1.36986300e-02 0. 0. 0.
      0. 0. 1.36986300e-02 0. 0. 0. 0. 0. 0. 0. 0. 0. 0. 0. 0. 0. 0. 0.
      0. 0. 0. 0. 0. 0. 0. 0. 0. 0. 0. 0. 0. 0. 0. 0. 0. 0. 0. 0. 0. 0.
      0. 0. 0. 0. 0. 0. 0. 0. 0. 0. 0. 0. 0. 0. 0. 0. 0. 0. 0. 0. 0. 0.
      0. 0. 0. 0. 0. 0. 0. 0. 0. 0. 0. 0. 0. 0. 0. 0. 1.36986300e-02 0.
      0. 0. 0. 0. 0. 0. 0. 0. 0. 0. 0. 0. 0. 0. 0. 0. 0. 0. 0. 0. 0. 0.
      0. 0. 0. 0. 0. 0. 0. 0. 1.36986300e-02 1.36986300e-02 0. 0.
      1.36986300e-02 0. 0. 0. 0. 0. 0. 0. 0. 0. 0. 0. 0. 0. 0. 0. 0. 0.
      0. 0. 0. 0. 0. 0. 0. 0. 0. 0. 1.36986300e-02 0. 0. 0. 0. 0. 0. 0.
      0. 0. 0. 0. 0. 0. 0. 0. 0. 1.36986300e-02 0. 0. 0. 0. 0. 0. 0. 0.
      0. 0. 0. 0. 0. 0. 0. 0. 0. 0. 0. 0. 0. 0. 0. 0. 0. 0. 0. 0. 0.
      1.36986300e-02 0. 0. 0. 0. 0. 0. 0. 0. 0. 0. 0. 0. 0.
      1.36986300e-02 0. 0. 0. 1.36986300e-02 0. 0. 0. 0. 0. 0. 0. 0. 0.
      0. 0. 0. 0. 0. 0. 0. 0. 0. 0. 0. 0. 0. 0. 0. 0. 0. 0. 0. 0. 0. 0.
      0. 0. 0. 0. 0. 0. 0. 0. 0. 0. 1.36986300e-02 0. 0. 0. 0. 0. 0. 0.
      0. 0. 0. 1.36986300e-02 0. 0. 0. 0. 0. 0. 0. 0. 0. 0. 0. 0. 0. 0.
      0. 0. 0. 1.36986300e-02 0. 0. 0. 0. 0. 0. 0. 0. 0. 0. 0. 0. 0. 0.
      0. 0. 0. 0. 0. 0. 0. 0. 0. 0. 0. 0. 0. 0. 0. 0. 0. 0. 0. 0. 0. 0.
      0. 0. 0. 0. 1.36986300e-02 0. 0. 0. 0. 0. 0. 0. 0. 0. 0. 0. 0. 0.
      1.36986300e-02 0. 0. 0. 0. 0. 0. 0. 1.36986300e-02 0. 0. 0. 0. 0.
      0. 0. 0. 0. 0. 0. 0. 0. 0. 0. 0. 0. 0. 0. 0. 0. 0. 0. 0. 0. 0. 0.
      0. 0. 0. 0. 0. 0. 0. 0. 0. 0. 0. 0. 0. 0. 0. 1.36986300e-02
      1.36986300e-02 0. 0. 1.36986300e-02 0. 0. 0. 0. 0. 0. 0. 0. 0. 0.
      0. 0. 0. 0. 0. 0. 0. 0. 0. 0. 0. 0. 0. 0. 0. 0. 1.36986300e-02 0.
      0. 0. 0. 0. 0. 0. 0. 0. 1.36986300e-02 0. 0. 0. 0. 0. 0. 0. 0. 0.
      0. 0. 1.36986300e-02 0. 1.36986300e-02 0. 0. 1.36986300e-02 0. 0.
      0. 0. 0. 0. 0. 1.36986300e-02 0. 0. 0. 0. 0. 0. 0. 0. 0.
      1.36986300e-02 0. 0. 0. 0. 0. 0. 1.36986300e-02 0. 0.
      1.36986300e-02 0. 0. 1.36986300e-02 0. 0. 0. 0. 0. 0. 0. 0.
      1.36986300e-02 0. 1.36986300e-02 0. 0. 0. 0. 0. 0. 0. 0.
      1.36986300e-02 0. 1.36986300e-02 0. 0. 0. 1.36986300e-02 0. 0. 0.
      0. 0. 0. 0. 0. 0. 0. 0. 0. 0. 0. 1.36986300e-02 0. 0. 0. 0. 0. 0.
      0. 0. 0. 0. 0. 0. 0. 1.36986300e-02 0. 0. 0. 1.36986300e-02 0. 0.
      0. 0. 0. 0. 0. 0. 0. 0. 0. 0. 0. 0. 0. 0. 0. 0. 0. 0. 0. 0. 0. 0.
      0. 0. 0. 0. 0. 0. 0. 0. 0. 0. 0. 0. 1.36986300e-02 0. 0. 0. 0. 0.
      0. 0. 0. 0. 0. 0. 0. 0. 0. 0. 0. 0. 0. 0. 0. 0. 0. 0. 0. 0. 0. 0.</_>
    <_>
      0. 0. 9.00900923e-03 0. 0. 0. 0. 9.00900923e-03 0. 0. 0. 0. 0. 0.
      0. 0. 0. 0. 0. 0. 0. 0. 9.00900923e-03 0. 0. 0. 0. 0.
      9.00900923e-03 0. 0. 0. 0. 0. 0. 0. 9.00900923e-03 0. 0. 0. 0. 0.
      0. 0. 0. 0. 9.00900923e-03 0. 0. 0. 0. 9.00900923e-03 0. 0. 0. 0.
      0. 0. 0. 0. 0. 9.00900923e-03 0. 0. 0. 0. 0. 0. 0. 0. 0. 0. 0. 0.
      0. 0. 9.00900923e-03 0. 0. 0. 0. 0. 0. 0. 0. 0. 0. 0. 0. 0. 0. 0.
      0. 0. 0. 9.00900923e-03 0. 0. 0. 0. 0. 0. 0. 0. 0. 0. 0. 0. 0. 0.
      0. 0. 0. 0. 0. 0. 0. 0. 0. 0. 0. 0. 0. 0. 0. 0. 0. 0. 0. 0. 0. 0.
      0. 0. 0. 0. 9.00900923e-03 0. 0. 0. 0. 0. 0. 0. 0. 0. 0. 0. 0. 0.
      0. 0. 0. 0. 0. 0. 0. 0. 0. 0. 0. 0. 0. 0. 0. 0. 0. 0.
      1.80180185e-02 0. 0. 0. 0. 0. 0. 0. 9.00900923e-03 0. 0. 0. 0. 0.
      0. 0. 0. 0. 0. 0. 0. 0. 0. 0. 0. 0. 0. 9.00900923e-03 0. 0. 0. 0.
      0. 0. 9.00900923e-03 0. 0. 0. 9.00900923e-03 9.00900923e-03 0.
      9.00900923e-03 0. 0. 0. 0. 0. 9.00900923e-03 0. 0. 0.
      9.00900923e-03 0. 0. 0. 0. 0. 0. 0. 0. 0. 0. 0. 0. 0. 0. 0. 0. 0.
      0. 0. 0. 0. 0. 0. 0. 0. 0. 0. 0. 9.00900923e-03 0. 1.80180185e-02
      0. 0. 0. 0. 0. 0. 0. 0. 0. 0. 0. 0. 0. 0. 0. 0. 0. 0. 0. 0. 0. 0.
      0. 0. 0. 0. 0. 0. 0. 0. 0. 0. 0. 0. 9.00900923e-03 0. 0. 0. 0. 0.
      0. 0. 0. 9.00900923e-03 0. 0. 0. 0. 0. 0. 9.00900923e-03
      9.00900923e-03 0. 9.00900923e-03 0. 0. 0. 0. 0. 0. 0. 0. 0. 0. 0.
      0. 9.00900923e-03 0. 0. 0. 1.80180185e-02 0. 0. 0. 0. 0. 0. 0. 0.
      0. 0. 1.80180185e-02 0. 0. 0. 0. 0. 0. 0. 0. 0. 0. 0. 0. 0. 0. 0.
      0. 0. 0. 0. 0. 0. 0. 0. 0. 0. 0. 0. 0. 9.00900923e-03 0. 0.
      9.00900923e-03 0. 0. 0. 0. 0. 0. 0. 9.00900923e-03 0. 0.
      9.00900923e-03 0. 9.00900923e-03 0. 0. 0. 0. 0. 9.00900923e-03 0.
      0. 0. 0. 0. 0. 9.00900923e-03 0. 0. 0. 0. 0. 0. 0. 0. 0. 0. 0. 0.
      0. 0. 9.00900923e-03 0. 0. 0. 0. 0. 0. 0. 0. 0. 9.00900923e-03 0.
      0. 0. 0. 9.00900923e-03 1.80180185e-02 0. 0. 0. 0. 0. 0. 0. 0. 0.
      0. 0. 0. 0. 9.00900923e-03 0. 0. 0. 0. 9.00900923e-03 0. 0. 0. 0.
      0. 0. 0. 0. 0. 0. 0. 0. 0. 0. 9.00900923e-03 0. 0. 0. 0.
      9.00900923e-03 0. 9.00900923e-03 0. 0. 0. 0. 0. 0. 0. 0. 0. 0. 0.
      0. 0. 0. 9.00900923e-03 0. 0. 0. 0. 0. 0. 0. 0. 9.00900923e-03
      9.00900923e-03 0. 0. 0. 0. 0. 0. 0. 0. 0. 0. 0. 0. 0. 0. 0. 0. 0.
      0. 9.00900923e-03 9.00900923e-03 0. 0. 0. 0. 0. 0. 9.00900923e-03
      0. 0. 0. 0. 0. 0. 0. 0. 9.00900923e-03 0. 0. 0. 0. 0. 0. 0.
      9.00900923e-03 0. 0. 0. 0. 9.00900923e-03 0. 0. 0. 9.00900923e-03
      0. 0. 0. 0. 9.00900923e-03 0. 0. 9.00900923e-03 0. 0. 0. 0. 0. 0.
      0. 0. 0. 0. 0. 0. 0. 0. 0. 0. 0. 0. 9.00900923e-03 0. 0. 0. 0. 0.
      0. 0. 0. 0. 0. 0. 0. 0. 0. 0. 0. 0. 0. 0. 0. 0. 0. 0. 0. 0. 0. 0.
      0. 0. 0. 0. 0. 0. 0. 9.00900923e-03 0. 0. 1.80180185e-02 0. 0. 0.
      0. 0. 0. 0. 0. 0. 9.00900923e-03 0. 0. 0. 0. 0. 0. 0.
      9.00900923e-03 0. 0. 0. 0. 0. 0. 0. 0. 0. 0. 0. 0. 9.00900923e-03
      0. 0. 0. 9.00900923e-03 0. 0. 0. 0. 0. 9.00900923e-03
      9.00900923e-03 0. 0. 0. 0. 0. 0. 0. 0. 9.00900923e-03 0.
      9.00900923e-03 0. 0. 0. 0. 0. 0. 0. 0. 0. 0. 0. 0. 0.
      9.00900923e-03 0. 0. 0. 0. 9.00900923e-03 0. 0. 0. 0.
      9.00900923e-03 0. 0. 0. 0. 0. 0. 0. 0. 0. 0. 0. 0. 1.80180185e-02
      0. 0. 0. 0. 0. 9.00900923e-03 0. 0. 0. 0. 9.00900923e-03 0. 0. 0.
      0. 0. 0. 0. 0. 0. 0. 0. 0. 0. 0. 0. 0. 9.00900923e-03
      9.00900923e-03 0. 9.00900923e-03 0. 0. 0. 0. 0. 0. 0. 0. 0. 0. 0.
      0. 0. 0. 0. 0. 0. 0. 0. 0. 0. 0. 0. 0. 0. 0. 0. 9.00900923e-03
      9.00900923e-03 0. 0. 0. 0. 0. 0. 0. 9.00900923e-03 0. 0. 0.
      9.00900923e-03 0. 9.00900923e-03 0. 0. 0. 0. 0. 0. 0. 0. 0.
      9.00900923e-03 0. 1.80180185e-02 0. 0. 9.00900923e-03 0. 0. 0. 0.
      0. 0. 0. 0. 0. 0. 0. 0. 0. 0. 0. 9.00900923e-03 0. 0. 0. 0. 0. 0.
      0. 0. 0. 0. 0. 0. 0. 0. 0. 0. 0. 0. 0. 0. 0. 0. 9.00900923e-03 0.
      0. 9.00900923e-03 0. 0. 0. 0. 0. 0. 0. 0. 0. 0. 0. 9.00900923e-03
      0. 0. 0. 0. 0. 0. 0. 0. 0. 9.00900923e-03 9.00900923e-03 0. 0. 0.
      0. 0. 0. 0. 0. 0. 0. 0. 0. 0. 0. 0. 0. 0. 0. 0. 0. 9.00900923e-03
      0. 0. 0. 0. 0. 0. 0. 0. 0. 0. 0. 0. 0. 0. 0. 0. 0. 0. 0. 0. 0. 0.
      0. 9.00900923e-03 0. 0. 0. 1.80180185e-02 0. 0. 0. 0. 0. 0. 0. 0.
      0. 0. 0. 0. 0. 0. 0. 0. 0. 0. 0. 0. 0. 0. 0. 0. 9.00900923e-03 0.
      0. 0. 0. 0. 9.00900923e-03 0. 0. 0. 0. 0. 0. 0. 0. 0.
      9.00900923e-03 0. 0. 0. 0. 0. 0. 0. 0. 0. 9.00900923e-03 0. 0. 0.
      0. 0. 0. 0. 0. 0. 0. 0. 0. 0. 0. 0. 0. 0. 0. 0. 0. 1.80180185e-02
      0. 0. 9.00900923e-03 0. 0. 0. 0. 0. 0. 0. 0. 0. 0. 0. 0. 0. 0. 0.
      0. 0. 0. 0. 0. 0. 0. 0. 0. 0. 0.</_>
    <_>
      0. 0. 0. 1.25000002e-02 0. 0. 0. 0. 0. 0. 0. 0. 0. 0. 0. 0. 0. 0.
      0. 0. 0. 0. 0. 0. 0. 0. 0. 1.25000002e-02 1.25000002e-02 0. 0. 0.
      0. 0. 0. 0. 0. 0. 0. 0. 0. 0. 3.75000015e-02 0. 0. 0. 0. 0. 0. 0.
      0. 0. 0. 0. 0. 0. 1.25000002e-02 1.25000002e-02 0. 0. 0. 0. 0. 0.
      0. 0. 0. 0. 0. 0. 0. 0. 0. 0. 0. 0. 0. 0. 0. 0. 0. 0. 0. 0. 0. 0.
      0. 0. 0. 0. 0. 0. 0. 0. 0. 0. 0. 0. 2.50000004e-02 0. 0. 0. 0. 0.
      0. 0. 0. 0. 0. 0. 0. 0. 0. 1.25000002e-02 0. 0. 0. 0.
      1.25000002e-02 0. 0. 0. 0. 0. 0. 0. 0. 0. 0. 0. 0. 0. 0. 0. 0. 0.
      0. 0. 0. 0. 0. 0. 0. 0. 0. 0. 0. 0. 0. 0. 1.25000002e-02 0. 0. 0.
      0. 0. 0. 0. 0. 0. 0. 0. 0. 0. 0. 0. 0. 1.25000002e-02 0. 0. 0. 0.
      0. 0. 0. 0. 0. 0. 0. 0. 0. 0. 0. 0. 0. 0. 0. 0. 0. 0. 0. 0. 0. 0.
      0. 0. 0. 0. 0. 0. 0. 0. 0. 0. 0. 0. 0. 0. 0. 0. 0. 0. 0. 0. 0. 0.
      0. 0. 0. 0. 0. 0. 0. 0. 0. 0. 0. 0. 0. 0. 0. 0. 0. 0. 0.
      1.25000002e-02 0. 0. 0. 0. 0. 0. 0. 0. 1.25000002e-02 0. 0. 0. 0.
      0. 0. 0. 0. 0. 0. 0. 0. 0. 0. 0. 0. 0. 0. 0. 0. 0. 2.50000004e-02
      0. 0. 0. 0. 0. 0. 0. 0. 0. 0. 0. 0. 0. 0. 0. 1.25000002e-02 0. 0.
      0. 0. 0. 0. 0. 0. 0. 0. 0. 0. 0. 0. 0. 1.25000002e-02 0. 0. 0. 0.
      0. 0. 0. 0. 0. 0. 0. 0. 0. 0. 0. 0. 0. 0. 0. 0. 0. 0. 0.
      1.25000002e-02 0. 7.50000030e-02 0. 0. 0. 1.25000002e-02 0. 0. 0.
      1.25000002e-02 0. 0. 0. 0. 0. 0. 0. 0. 0. 0. 0. 0. 0. 0. 0. 0. 0.
      0. 0. 0. 0. 0. 0. 0. 0. 0. 0. 0. 0. 0. 0. 0. 0. 0. 0. 0. 0. 0.
      1.25000002e-02 0. 0. 0. 0. 0. 0. 0. 0. 0. 0. 0. 0. 0. 0. 0. 0. 0.
      0. 0. 0. 0. 0. 0. 0. 0. 0. 0. 0. 0. 0. 0. 0. 0. 0. 0. 0. 0. 0. 0.
      0. 0. 0. 0. 0. 0. 0. 0. 0. 0. 0. 1.25000002e-02 0. 0. 0. 0. 0. 0.
      0. 0. 0. 0. 0. 0. 0. 0. 0. 0. 0. 0. 0. 0. 0. 0. 0. 0.
      1.25000002e-02 0. 0. 0. 0. 0. 0. 0. 0. 0. 0. 0. 0. 0. 0. 0. 0. 0.
      0. 0. 0. 0. 0. 0. 0. 1.25000002e-02 0. 0. 0. 0. 0. 0. 0. 0. 0. 0.
      0. 0. 0. 0. 0. 0. 0. 0. 0. 0. 0. 0. 0. 0. 0. 0. 0. 0. 0. 0. 0. 0.
      0. 0. 0. 0. 0. 0. 0. 0. 0. 0. 0. 0. 0. 0. 0. 0. 0. 0. 0. 0. 0.
      1.25000002e-02 1.25000002e-02 0. 0. 0. 0. 0. 0. 0. 0. 0. 0. 0. 0.
      0. 1.25000002e-02 0. 0. 0. 1.25000002e-02 0. 0. 0. 0. 0. 0. 0. 0.
      0. 0. 0. 0. 1.25000002e-02 0. 0. 2.50000004e-02 1.25000002e-02 0.
      0. 1.25000002e-02 0. 0. 0. 0. 0. 0. 0. 0. 0. 0. 0. 0. 0. 0. 0. 0.
      0. 0. 0. 1.25000002e-02 0. 2.50000004e-02 0. 0. 0. 0. 0. 0. 0. 0.
      0. 0. 0. 0. 0. 0. 0. 0. 0. 0. 0. 0. 2.50000004e-02 0. 0. 0. 0. 0.
      0. 0. 0. 0. 0. 0. 0. 0. 0. 1.25000002e-02 0. 0. 0. 0. 0. 0. 0. 0.
      0. 0. 0. 0. 0. 0. 0. 0. 0. 0. 0. 0. 0. 1.25000002e-02 0. 0. 0. 0.
      0. 0. 1.25000002e-02 0. 0. 0. 0. 0. 0. 0. 0. 0. 0. 0. 0. 0. 0. 0.
      0. 0. 0. 0. 0. 0. 0. 0. 0. 0. 0. 0. 0. 0. 0. 0. 0. 0. 0. 0. 0. 0.
      0. 0. 0. 0. 0. 0. 0. 0. 1.25000002e-02 0. 0. 0. 0. 0. 0. 0. 0. 0.
      0. 1.25000002e-02 0. 0. 0. 0. 0. 0. 0. 0. 0. 0. 0. 0. 0. 0. 0. 0.
      0. 0. 0. 0. 0. 0. 0. 0. 0. 0. 0. 0. 0. 0. 0. 0. 0. 0. 0. 0. 0. 0.
      0. 3.75000015e-02 0. 0. 0. 0. 0. 0. 0. 0. 0. 0. 0. 0. 0. 0. 0. 0.
      0. 0. 1.25000002e-02 0. 0. 0. 1.25000002e-02 0. 0. 0. 0. 0. 0. 0.
      0. 0. 0. 0. 0. 0. 0. 0. 0. 0. 0. 0. 0. 1.25000002e-02 0. 0. 0. 0.
      0. 0. 1.25000002e-02 0. 0. 0. 0. 0. 2.50000004e-02 0. 0. 0. 0. 0.
      0. 0. 0. 0. 0. 0. 0. 0. 0. 0. 0. 1.25000002e-02 0. 0.
      1.25000002e-02 0. 0. 0. 1.25000002e-02 0. 0. 0. 1.25000002e-02 0.
      0. 0. 0. 0. 1.25000002e-02 0. 0. 0. 0. 0. 0. 0. 2.50000004e-02 0.
      1.25000002e-02 0. 1.25000002e-02 0. 0. 0. 0. 0. 0. 2.50000004e-02
      0. 0. 0. 0. 0. 0. 0. 0. 0. 0. 1.25000002e-02 0. 0. 0. 0. 0. 0. 0.
      0. 0. 0. 0. 0. 0. 0. 1.25000002e-02 0. 0. 0. 0. 0. 0. 0. 0. 0. 0.
      0. 0. 0. 0. 2.50000004e-02 0. 0. 0. 0. 0. 0. 0. 0. 0. 0. 0. 0. 0.
      0. 0. 0. 0. 0. 0. 0. 0. 0. 0. 0. 0. 0. 0. 0. 0. 1.25000002e-02 0.
      1.25000002e-02 0. 0. 0. 0. 0. 0. 0. 0. 0. 0. 0. 0. 0. 0. 0. 0. 0.
      0. 0. 0. 0. 1.25000002e-02 0. 0. 0. 0. 0. 0. 0. 0. 0. 0. 0. 0. 0.
      0. 0. 0. 0. 0. 0. 0. 0. 0. 0. 0. 0. 0. 0. 0. 0. 0. 0. 0. 0. 0. 0.
      0. 0. 1.25000002e-02 0. 0. 0. 0. 0. 0. 0.</_>
    <_>
      0. 0. 0. 0. 0. 0. 8.13008100e-03 0. 0. 8.13008100e-03 0. 0. 0. 0.
      8.13008100e-03 0. 0. 0. 0. 8.13008100e-03 0. 0. 0. 0. 0. 0. 0.
      8.13008100e-03 8.13008100e-03 0. 0. 0. 0. 8.13008100e-03 0. 0. 0.
      0. 0. 0. 0. 0. 0. 8.13008100e-03 0. 0. 0. 0. 0. 0. 0. 0. 0. 0. 0.
      0. 0. 8.13008100e-03 0. 0. 0. 0. 0. 0. 0. 0. 0. 0. 0. 0. 0.
      8.13008100e-03 0. 0. 0. 0. 0. 0. 0. 0. 8.13008100e-03 0. 0. 0. 0.
      8.13008100e-03 0. 0. 0. 8.13008100e-03 0. 0. 0. 0. 0. 0. 0. 0. 0.
      0. 0. 0. 0. 8.13008100e-03 8.13008100e-03 0. 8.13008100e-03
      8.13008100e-03 0. 0. 0. 0. 0. 0. 0. 0. 0. 0. 0. 8.13008100e-03 0.
      0. 0. 0. 0. 8.13008100e-03 0. 0. 0. 0. 0. 0. 0. 0. 0. 0.
      8.13008100e-03 0. 0. 0. 0. 0. 0. 0. 0. 0. 0. 0. 8.13008100e-03 0.
      0. 0. 0. 0. 0. 0. 0. 0. 0. 8.13008100e-03 8.13008100e-03 0. 0. 0.
      0. 0. 0. 0. 0. 0. 0. 0. 0. 0. 0. 1.62601620e-02 0. 0. 0. 0. 0. 0.
      0. 0. 0. 0. 0. 0. 0. 0. 8.13008100e-03 8.13008100e-03 0. 0. 0.
      8.13008100e-03 0. 0. 0. 0. 0. 0. 0. 0. 0. 0. 0. 0. 0. 0.
      8.13008100e-03 0. 0. 0. 0. 0. 0. 0. 0. 8.13008100e-03 0. 0. 0. 0.
      8.13008100e-03 0. 0. 0. 0. 0. 0. 0. 0. 8.13008100e-03 0. 0. 0. 0.
      0. 0. 0. 0. 0. 0. 0. 0. 8.13008100e-03 8.13008100e-03 0. 0. 0. 0.
      0. 0. 0. 0. 0. 0. 0. 0. 0. 0. 0. 0. 0. 0. 0. 0. 8.13008100e-03 0.
      0. 0. 0. 0. 0. 8.13008100e-03 0. 0. 0. 0. 8.13008100e-03 0. 0.
      8.13008100e-03 0. 0. 0. 0. 0. 0. 0. 0. 0. 0. 0. 0. 0. 0. 0. 0. 0.
      0. 0. 0. 0. 0. 0. 0. 0. 8.13008100e-03 0. 0. 0. 0. 0. 0. 0. 0. 0.
      0. 0. 0. 0. 8.13008100e-03 0. 0. 0. 0. 8.13008100e-03 0. 0.
      8.13008100e-03 0. 0. 0. 0. 0. 0. 0. 0. 0. 0. 0. 0. 0. 0. 0.
      8.13008100e-03 0. 0. 0. 8.13008100e-03 0. 0. 0. 8.13008100e-03 0.
      8.13008100e-03 0. 0. 0. 8.13008100e-03 0. 0. 8.13008100e-03 0. 0.
      0. 0. 0. 0. 0. 0. 0. 0. 0. 0. 0. 0. 0. 0. 0. 0. 0. 0. 0. 0. 0. 0.
      0. 0. 0. 0. 0. 0. 0. 0. 0. 0. 0. 0. 8.13008100e-03 0. 0. 0. 0. 0.
      0. 0. 0. 8.13008100e-03 0. 0. 8.13008100e-03 0. 0. 0. 0. 0.
      1.62601620e-02 0. 0. 8.13008100e-03 0. 0. 0. 0. 0. 0. 0. 0. 0. 0.
      0. 0. 0. 0. 0. 0. 8.13008100e-03 0. 8.13008100e-03 1.62601620e-02
      0. 0. 0. 0. 0. 0. 0. 0. 0. 0. 0. 8.13008100e-03 0. 0. 0. 0. 0. 0.
      0. 0. 8.13008100e-03 8.13008100e-03 0. 0. 0. 0. 0. 0. 0. 0. 0. 0.
      0. 0. 0. 0. 0. 0. 0. 0. 0. 0. 0. 0. 0. 0. 0. 0. 0. 0. 0. 0. 0. 0.
      8.13008100e-03 0. 0. 0. 0. 0. 0. 0. 2.43902430e-02 8.13008100e-03
      0. 0. 0. 0. 0. 0. 0. 0. 0. 0. 0. 0. 0. 8.13008100e-03 0. 0. 0. 0.
      0. 0. 8.13008100e-03 0. 8.13008100e-03 0. 0. 0. 0. 0. 0. 0. 0. 0.
      0. 0. 0. 8.13008100e-03 0. 0. 0. 0. 0. 0. 0. 0. 0. 0. 0. 0. 0.
      8.13008100e-03 0. 0. 0. 0. 0. 0. 8.13008100e-03 0. 0. 0. 0. 0. 0.
      0. 0. 0. 0. 0. 0. 0. 0. 0. 0. 0. 0. 0. 0. 0. 0. 0. 0. 0. 0. 0. 0.
      0. 0. 8.13008100e-03 0. 0. 0. 0. 0. 0. 0. 0. 0. 0. 8.13008100e-03
      0. 0. 0. 8.13008100e-03 0. 0. 0. 0. 0. 0. 0. 0. 0. 1.62601620e-02
      0. 0. 0. 0. 0. 0. 0. 8.13008100e-03 0. 0. 0. 0. 0. 0. 0. 0. 0. 0.
      0. 0. 0. 0. 0. 8.13008100e-03 0. 0. 0. 0. 8.13008100e-03 0. 0. 0.
      1.62601620e-02 0. 0. 0. 0. 0. 0. 0. 0. 0. 0. 0. 0. 0. 0. 0. 0. 0.
      0. 0. 0. 0. 0. 0. 0. 0. 0. 0. 0. 8.13008100e-03 0. 0. 0. 0. 0. 0.
      0. 0. 0. 0. 0. 8.13008100e-03 0. 0. 0. 0. 0. 0. 0. 0. 0. 0. 0. 0.
      0. 0. 8.13008100e-03 0. 0. 0. 0. 0. 0. 0. 0. 0. 0. 0. 0. 0. 0. 0.
      0. 0. 0. 8.13008100e-03 0. 0. 0. 0. 8.13008100e-03 0. 0. 0.
      8.13008100e-03 8.13008100e-03 0. 0. 0. 0. 0. 0. 0. 0.
      8.13008100e-03 0. 0. 0. 0. 0. 0. 0. 0. 0. 0. 0. 0. 0. 0. 0. 0. 0.
      0. 8.13008100e-03 0. 0. 0. 0. 0. 0. 0. 0. 0. 8.13008100e-03 0. 0.
      0. 0. 0. 0. 0. 0. 0. 0. 0. 0. 0. 0. 0. 0. 0. 0. 0. 0. 0. 0. 0. 0.
      0. 0. 8.13008100e-03 0. 0. 0. 0. 0. 0. 0. 0. 0. 0. 0. 0. 0. 0. 0.
      0. 0. 0. 0. 0. 0. 0. 0. 0. 1.62601620e-02 0. 0. 0. 0. 0. 0. 0. 0.
      0. 0. 0. 0. 1.62601620e-02 0. 0. 0. 0. 8.13008100e-03 0. 0. 0. 0.
      0. 0. 0. 0. 0. 0. 8.13008100e-03 0. 0. 0. 0. 0. 0. 0. 0. 0. 0. 0.
      0. 0. 0. 0. 0. 0. 0. 8.13008100e-03 0. 0. 0. 0. 0. 0. 0. 0. 0.
      8.13008100e-03 0. 0. 0. 0. 0. 8.13008100e-03 8.13008100e-03 0. 0.
      0. 0. 0. 0. 8.13008100e-03 0. 0. 0. 0. 0. 0. 0. 0. 0. 0. 0. 0. 0.
      8.13008100e-03 0. 0. 8.13008100e-03 0. 0. 0. 0. 0. 0. 0. 0. 0. 0.
      0. 0. 0. 8.13008100e-03 0. 0. 0. 0. 0. 0. 0. 0. 8.13008100e-03 0.
      8.13008100e-03 0. 0. 0. 0. 0. 0. 0. 0. 0. 0. 0. 0. 0. 0.
      8.13008100e-03 0. 0. 0. 0. 0. 8.13008100e-03 0. 0. 0. 0.
      8.13008100e-03 0. 0. 0. 0. 8.13008100e-03 1.62601620e-02 0.
      8.13008100e-03 0. 8.13008100e-03 1.62601620e-02 0. 0. 0.
      8.13008100e-03 0. 0. 0. 8.13008100e-03 0. 1.62601620e-02 0. 0. 0.
      0. 0. 0. 0. 0. 0. 0. 0.</_>
    <_>
      0. 0. 0. 7.75193796e-03 0. 0. 0. 0. 0. 0. 0. 0. 0. 0. 0. 0.
      7.75193796e-03 0. 0. 0. 0. 0. 0. 0. 7.75193796e-03 0. 0.
      7.75193796e-03 0. 0. 0. 0. 0. 0. 0. 0. 7.75193796e-03
      7.75193796e-03 0. 7.75193796e-03 0. 0. 0. 0. 0. 0. 0. 0. 0. 0. 0.
      0. 0. 0. 0. 0. 0. 7.75193796e-03 0. 0. 0. 0. 0. 0. 0. 0. 0. 0. 0.
      0. 0. 0. 7.75193796e-03 0. 1.55038759e-02 0. 0. 0. 0. 0. 0.
      7.75193796e-03 0. 0. 0. 0. 0. 0. 7.75193796e-03 0. 0.
      7.75193796e-03 0. 0. 0. 0. 0. 0. 7.75193796e-03 0. 0. 0. 0. 0. 0.
      0. 0. 0. 7.75193796e-03 7.75193796e-03 0. 0. 0. 0. 0. 0. 0. 0. 0.
      0. 0. 0. 7.75193796e-03 0. 0. 0. 0. 0. 0. 0. 0. 0. 0. 0.
      7.75193796e-03 0. 7.75193796e-03 0. 0. 0. 0. 0. 0. 0. 0. 0. 0. 0.
      0. 0. 0. 0. 0. 1.55038759e-02 0. 7.75193796e-03 0. 7.75193796e-03
      0. 0. 0. 0. 0. 0. 0. 0. 0. 0. 0. 0. 0. 0. 1.55038759e-02 0.
      7.75193796e-03 0. 0. 0. 0. 0. 7.75193796e-03 0. 0. 0. 0. 0. 0.
      1.55038759e-02 0. 0. 0. 7.75193796e-03 0. 0. 0. 0. 7.75193796e-03
      0. 0. 0. 0. 0. 0. 0. 0. 0. 0. 0. 0. 0. 0. 0. 7.75193796e-03 0. 0.
      0. 0. 2.32558139e-02 0. 0. 0. 0. 0. 0. 7.75193796e-03 0. 0.
      7.75193796e-03 0. 0. 0. 0. 0. 0. 0. 0. 0. 0. 0. 0. 0. 0. 0. 0. 0.
      0. 0. 0. 0. 7.75193796e-03 0. 0. 0. 0. 0. 0. 0. 0. 0. 0. 0. 0. 0.
      0. 0. 0. 0. 0. 0. 0. 0. 0. 0. 0. 0. 0. 0. 0. 0. 0. 0. 0. 0. 0. 0.
      0. 0. 0. 0. 0. 0. 0. 0. 7.75193796e-03 0. 0. 0. 0. 0. 0. 0.
      7.75193796e-03 0. 0. 0. 0. 1.55038759e-02 0. 0. 7.75193796e-03 0.
      0. 0. 0. 0. 0. 0. 0. 0. 0. 0. 7.75193796e-03 0. 0. 0.
      7.75193796e-03 0. 0. 0. 0. 0. 0. 0. 1.55038759e-02 0. 0.
      7.75193796e-03 0. 0. 0. 0. 0. 0. 0. 7.75193796e-03 0. 0. 0. 0. 0.
      0. 0. 0. 0. 0. 0. 7.75193796e-03 0. 0. 0. 0. 1.55038759e-02 0. 0.
      0. 7.75193796e-03 7.75193796e-03 0. 7.75193796e-03 0. 0. 0. 0. 0.
      0. 0. 0. 0. 0. 0. 0. 0. 0. 0. 0. 0. 0. 0. 0. 0. 7.75193796e-03 0.
      0. 0. 0. 0. 0. 0. 0. 0. 7.75193796e-03 0. 0. 0. 0. 0. 0. 0. 0. 0.
      0. 0. 0. 7.75193796e-03 0. 0. 0. 0. 0. 0. 7.75193796e-03 0. 0. 0.
      0. 0. 0. 0. 0. 0. 0. 0. 0. 0. 0. 0. 0. 7.75193796e-03 0. 0. 0. 0.
      0. 0. 0. 0. 0. 0. 0. 0. 0. 0. 7.75193796e-03 0. 0. 0. 0. 0. 0. 0.
      0. 7.75193796e-03 0. 0. 7.75193796e-03 0. 0. 7.75193796e-03
      7.75193796e-03 0. 0. 0. 0. 0. 0. 0. 0. 0. 7.75193796e-03 0. 0. 0.
      0. 0. 0. 0. 0. 0. 0. 0. 0. 7.75193796e-03 0. 0. 0. 0. 0. 0. 0. 0.
      0. 7.75193796e-03 0. 0. 0. 0. 7.75193796e-03 0. 0. 0. 0. 0.
      7.75193796e-03 0. 0. 7.75193796e-03 0. 0. 0. 0. 0. 0. 0. 0. 0. 0.
      0. 0. 1.55038759e-02 0. 0. 0. 0. 0. 0. 0. 0. 0. 0. 0. 0. 0. 0. 0.
      0. 0. 0. 0. 0. 0. 0. 0. 0. 0. 0. 0. 0. 0. 0. 0. 0. 0. 0. 0. 0. 0.
      0. 0. 0. 0. 0. 7.75193796e-03 0. 7.75193796e-03 0. 0. 0. 0. 0. 0.
      0. 0. 0. 0. 0. 0. 0. 0. 0. 0. 0. 0. 0. 0. 0. 0. 0. 0. 0. 0. 0. 0.
      0. 0. 7.75193796e-03 0. 0. 0. 0. 0. 0. 0. 0. 0. 0. 0. 0.
      7.75193796e-03 0. 7.75193796e-03 0. 7.75193796e-03 7.75193796e-03
      0. 0. 0. 0. 0. 0. 0. 0. 0. 0. 0. 7.75193796e-03 7.75193796e-03 0.
      0. 0. 0. 0. 0. 0. 0. 0. 0. 0. 0. 0. 0. 0. 0. 0. 0. 0. 0. 0. 0. 0.
      7.75193796e-03 0. 0. 0. 0. 0. 0. 0. 0. 0. 0. 0. 0. 0. 0. 0.
      7.75193796e-03 0. 0. 0. 0. 0. 0. 0. 0. 0. 0. 0. 0. 0. 0. 0. 0. 0.
      0. 7.75193796e-03 0. 0. 0. 0. 7.75193796e-03 0. 7.75193796e-03
      1.55038759e-02 0. 0. 0. 0. 0. 0. 7.75193796e-03 0. 7.75193796e-03
      0. 0. 0. 0. 0. 0. 0. 0. 0. 0. 0. 0. 0. 0. 7.75193796e-03 0. 0. 0.
      0. 0. 0. 0. 0. 0. 7.75193796e-03 0. 0. 0. 0. 0. 0. 0.
      7.75193796e-03 0. 0. 0. 0. 0. 0. 0. 7.75193796e-03 0. 0. 0. 0. 0.
      0. 7.75193796e-03 0. 0. 0. 1.55038759e-02 0. 7.75193796e-03 0. 0.
      7.75193796e-03 0. 0. 0. 0. 0. 0. 0. 0. 0. 0. 0. 1.55038759e-02
      7.75193796e-03 0. 0. 0. 1.55038759e-02 0. 0. 0. 0. 0. 0. 0.
      7.75193796e-03 7.75193796e-03 0. 0. 0. 0. 7.75193796e-03 0. 0. 0.
      0. 0. 0. 0. 0. 0. 0. 0. 0. 0. 0. 0. 0. 0. 0. 0. 0. 0. 0. 0.
      7.75193796e-03 0. 0. 0. 0. 0. 0. 0. 0. 7.75193796e-03 0. 0. 0. 0.
      0. 0. 7.75193796e-03 7.75193796e-03 0. 0. 0. 7.75193796e-03 0. 0.
      7.75193796e-03 0. 0. 0. 0. 0. 0. 0. 0. 0. 0. 0. 0. 0. 0. 0. 0. 0.
      0. 0. 0. 7.75193796e-03 0. 7.75193796e-03 0. 0. 0. 0. 0. 0. 0. 0.
      0. 0. 0. 0. 7.75193796e-03 0. 7.75193796e-03 0. 0. 0. 0. 0. 0. 0.
      0. 1.55038759e-02 0. 7.75193796e-03 0. 0. 0. 0. 0. 0. 0. 0. 0. 0.
      0. 0. 0. 0. 0. 0. 0. 0. 0. 0. 0. 0. 0. 0. 0. 0. 0. 0. 0. 0. 0. 0.
      0. 7.75193796e-03 0. 0. 0. 0. 0. 0. 0. 0. 0. 0. 0. 0. 0. 0. 0.
      7.75193796e-03 0. 0. 0. 0. 0. 0. 0. 0. 0. 7.75193796e-03 0. 0. 0.
      0. 7.75193796e-03 0. 0. 0. 0. 0. 0. 0. 0. 0. 0. 0. 0. 0. 0. 0. 0.
      0. 0. 0. 0. 7.75193796e-03 0. 0. 0. 0. 0. 0. 0. 0. 7.75193796e-03
      0. 0. 0. 0. 7.75193796e-03 0. 0. 0.</_>
    <_>
      0. 0. 0. 0. 0. 0. 0. 7.40740728e-03 0. 0. 0. 0. 0. 7.40740728e-03
      0. 0. 0. 0. 0. 0. 0. 0. 0. 0. 7.40740728e-03 0. 0. 0. 0. 0. 0. 0.
      0. 0. 0. 0. 0. 0. 0. 0. 0. 0. 0. 0. 0. 0. 0. 0. 0. 0. 0. 0. 0. 0.
      0. 0. 0. 0. 0. 7.40740728e-03 0. 7.40740728e-03 0. 0. 0. 0. 0. 0.
      0. 0. 0. 0. 0. 0. 7.40740728e-03 7.40740728e-03 7.40740728e-03 0.
      7.40740728e-03 7.40740728e-03 0. 0. 7.40740728e-03 0. 0. 0. 0. 0.
      0. 7.40740728e-03 0. 0. 0. 0. 0. 0. 0. 0. 0. 7.40740728e-03 0. 0.
      0. 0. 0. 0. 0. 0. 0. 0. 0. 0. 0. 0. 7.40740728e-03 0. 0. 0. 0. 0.
      0. 0. 0. 0. 0. 0. 0. 0. 0. 0. 0. 0. 0. 0. 0. 0. 0. 0. 0.
      7.40740728e-03 0. 7.40740728e-03 0. 0. 0. 0. 0. 0. 0. 0. 0. 0. 0.
      0. 0. 0. 0. 0. 0. 0. 0. 0. 0. 7.40740728e-03 0. 0. 0. 0. 0. 0.
      7.40740728e-03 0. 0. 0. 0. 0. 0. 0. 1.48148146e-02 0. 0. 0. 0. 0.
      0. 0. 0. 0. 0. 0. 0. 0. 0. 7.40740728e-03 0. 0. 0. 0. 0. 0. 0. 0.
      0. 0. 0. 1.48148146e-02 0. 0. 7.40740728e-03 0. 0. 7.40740728e-03
      0. 0. 0. 0. 0. 0. 0. 0. 0. 0. 0. 0. 0. 0. 0. 0. 0. 0. 0. 0. 0. 0.
      0. 1.48148146e-02 0. 0. 0. 1.48148146e-02 0. 0. 0. 0. 0.
      7.40740728e-03 0. 0. 0. 0. 0. 0. 0. 0. 0. 7.40740728e-03 0. 0. 0.
      0. 0. 0. 0. 0. 0. 0. 0. 0. 0. 0. 0. 0. 0. 7.40740728e-03 0. 0. 0.
      0. 0. 0. 7.40740728e-03 0. 0. 7.40740728e-03 0. 0. 7.40740728e-03
      0. 0. 0. 0. 0. 0. 0. 0. 0. 0. 0. 0. 0. 0. 0. 0. 0. 0. 0. 0. 0. 0.
      0. 0. 0. 0. 0. 0. 0. 0. 0. 0. 0. 0. 0. 0. 0. 0. 7.40740728e-03
      7.40740728e-03 0. 7.40740728e-03 0. 0. 7.40740728e-03 0. 0. 0. 0.
      0. 0. 0. 0. 0. 0. 0. 0. 0. 0. 0. 0. 0. 0. 0. 0. 0. 0. 0.
      7.40740728e-03 0. 0. 0. 0. 0. 0. 0. 0. 0. 0. 0. 0. 0. 0. 0.
      1.48148146e-02 7.40740728e-03 0. 0. 0. 0. 0. 0. 0. 0. 0.
      1.48148146e-02 7.40740728e-03 0. 0. 0. 0. 0. 0. 0. 0.
      7.40740728e-03 0. 0. 0. 0. 0. 1.48148146e-02 0. 0. 0. 0. 0. 0. 0.
      0. 0. 0. 0. 7.40740728e-03 0. 0. 0. 0. 0. 7.40740728e-03 0. 0. 0.
      0. 0. 0. 0. 7.40740728e-03 0. 0. 0. 0. 0. 0. 0. 0. 0. 0. 0. 0. 0.
      7.40740728e-03 0. 0. 0. 7.40740728e-03 0. 0. 0. 0. 0. 0. 0. 0. 0.
      0. 0. 0. 7.40740728e-03 0. 0. 7.40740728e-03 0. 0. 0. 0. 0. 0. 0.
      0. 0. 0. 0. 0. 0. 0. 0. 0. 0. 0. 0. 7.40740728e-03 0. 0. 0.
      7.40740728e-03 0. 0. 0. 0. 0. 0. 0. 0. 0. 0. 0. 0. 0.
      1.48148146e-02 0. 0. 0. 0. 0. 0. 0. 0. 0. 0. 7.40740728e-03 0. 0.
      0. 7.40740728e-03 0. 0. 0. 0. 0. 0. 0. 0. 7.40740728e-03 0. 0. 0.
      7.40740728e-03 0. 0. 0. 0. 0. 0. 0. 0. 0. 0. 0. 0. 7.40740728e-03
      0. 0. 0. 7.40740728e-03 0. 0. 0. 0. 0. 0. 0. 0. 0. 0. 0. 0. 0. 0.
      0. 0. 0. 0. 0. 0. 0. 0. 0. 1.48148146e-02 0. 0. 0. 0.
      7.40740728e-03 0. 0. 0. 0. 0. 0. 0. 0. 0. 0. 0. 0. 0.
      7.40740728e-03 0. 0. 0. 0. 0. 0. 0. 0. 0. 7.40740728e-03 0. 0.
      7.40740728e-03 0. 0. 0. 0. 0. 0. 0. 0. 0. 0. 0. 0. 0. 0. 0.
      7.40740728e-03 0. 0. 0. 0. 0. 0. 0. 0. 0. 1.48148146e-02 0. 0. 0.
      0. 0. 0. 0. 0. 0. 0. 0. 0. 0. 0. 0. 0. 0. 0. 0. 0. 0. 0. 0.
      7.40740728e-03 0. 0. 0. 0. 7.40740728e-03 7.40740728e-03 0. 0. 0.
      0. 7.40740728e-03 7.40740728e-03 0. 7.40740728e-03 0. 0.
      1.48148146e-02 0. 7.40740728e-03 0. 0. 0. 0. 7.40740728e-03 0. 0.
      0. 0. 0. 0. 0. 0. 0. 0. 0. 0. 0. 0. 0. 7.40740728e-03 0. 0. 0. 0.
      7.40740728e-03 0. 0. 0. 0. 0. 0. 0. 0. 0. 0. 0. 0. 0. 0. 0. 0. 0.
      0. 0. 0. 0. 0. 0. 0. 0. 7.40740728e-03 0. 0. 0. 0. 0. 0. 0. 0.
      1.48148146e-02 0. 0. 7.40740728e-03 0. 0. 0. 0. 0. 0. 0. 0. 0. 0.
      0. 0. 0. 0. 0. 0. 0. 0. 7.40740728e-03 0. 0. 0. 0. 0.
      7.40740728e-03 7.40740728e-03 0. 0. 0. 7.40740728e-03 0. 0. 0. 0.
      0. 7.40740728e-03 0. 0. 7.40740728e-03 0. 7.40740728e-03 0. 0.
      7.40740728e-03 0. 1.48148146e-02 0. 0. 0. 0. 0. 0. 0. 0. 0. 0. 0.
      0. 0. 0. 0. 0. 0. 0. 0. 0. 0. 0. 0. 0. 0. 0. 7.40740728e-03 0. 0.
      0. 0. 0. 0. 7.40740728e-03 0. 0. 0. 7.40740728e-03 0.
      7.40740728e-03 0. 0. 0. 7.40740728e-03 0. 7.40740728e-03 0. 0.
      7.40740728e-03 7.40740728e-03 0. 0. 0. 0. 0. 0. 0. 1.48148146e-02
      0. 0. 0. 0. 0. 0. 0. 0. 0. 0. 0. 0. 0. 0. 0. 0. 0. 0. 0. 0.
      7.40740728e-03 0. 0. 0. 0. 1.48148146e-02 7.40740728e-03 0. 0. 0.
      0. 0. 0. 0. 7.40740728e-03 7.40740728e-03 0. 7.40740728e-03 0. 0.
      7.40740728e-03 0. 0. 0. 7.40740728e-03 0. 0. 0. 7.40740728e-03 0.
      0. 0. 0. 0. 0. 0. 0. 7.40740728e-03 0. 0. 0. 0. 0. 0. 0. 0.
      7.40740728e-03 0. 0. 0. 0. 0. 0. 1.48148146e-02 0. 0. 0. 0. 0. 0.
      0. 0. 0. 0. 0. 0. 7.40740728e-03 0. 0. 0. 0. 0. 0. 7.40740728e-03
      0. 0. 7.40740728e-03 0. 0. 0. 0. 0. 0. 0. 0. 7.40740728e-03 0. 0.
      0. 0. 7.40740728e-03 0. 0. 0. 0. 0. 0. 0. 0. 0. 0. 0. 0. 0. 0.
      7.40740728e-03 7.40740728e-03 0. 0. 7.40740728e-03 7.40740728e-03
      0. 0. 0. 0. 0. 0. 0. 0. 0. 0. 0. 0. 0. 0. 0. 0. 0. 0. 0. 0. 0. 0.
      0. 0. 0. 0. 0. 0. 0. 0. 0. 0. 0. 7.40740728e-03</_>
    <_>
      0. 1.12359552e-02 0. 0. 0. 0. 0. 0. 0. 0. 0. 0. 0. 0. 0. 0. 0. 0.
      0. 0. 5.61797759e-03 0. 0. 0. 0. 0. 0. 5.61797759e-03 0. 0. 0. 0.
      0. 5.61797759e-03 0. 0. 0. 0. 0. 0. 0. 0. 0. 0. 0. 0. 0. 0. 0. 0.
      0. 0. 0. 0. 0. 5.61797759e-03 0. 0. 0. 0. 0. 5.61797759e-03 0.
      5.61797759e-03 0. 0. 0. 5.61797759e-03 0. 5.61797759e-03 0. 0. 0.
      0. 0. 0. 5.61797759e-03 5.61797759e-03 0. 0. 5.61797759e-03 0. 0.
      0. 0. 0. 1.12359552e-02 0. 0. 0. 5.61797759e-03 0. 0. 0. 0. 0. 0.
      0. 0. 0. 0. 0. 0. 0. 0. 0. 0. 0. 0. 0. 0. 5.61797759e-03 0.
      1.12359552e-02 5.61797759e-03 0. 0. 0. 5.61797759e-03 0. 0. 0. 0.
      1.12359552e-02 0. 0. 0. 0. 0. 0. 0. 0. 0. 0. 0. 5.61797759e-03
      5.61797759e-03 5.61797759e-03 0. 0. 0. 5.61797759e-03 0. 0. 0.
      5.61797759e-03 0. 0. 5.61797759e-03 0. 5.61797759e-03
      5.61797759e-03 0. 0. 0. 0. 0. 0. 0. 0. 0. 0. 0. 0. 0. 0. 0. 0.
      1.12359552e-02 0. 0. 0. 0. 0. 0. 0. 0. 0. 0. 0. 0. 0. 0. 0. 0. 0.
      0. 0. 0. 5.61797759e-03 5.61797759e-03 0. 0. 0. 0. 0. 0. 0. 0. 0.
      0. 0. 0. 0. 0. 0. 0. 0. 0. 0. 0. 0. 5.61797759e-03 0. 0. 0.
      5.61797759e-03 0. 0. 0. 0. 0. 0. 0. 0. 0. 0. 0. 5.61797759e-03 0.
      0. 0. 0. 0. 0. 0. 0. 0. 0. 0. 0. 0. 0. 0. 0. 0. 0. 0.
      5.61797759e-03 0. 0. 0. 5.61797759e-03 0. 0. 0. 5.61797759e-03 0.
      0. 0. 0. 0. 5.61797759e-03 5.61797759e-03 5.61797759e-03 0. 0.
      5.61797759e-03 0. 0. 0. 0. 0. 0. 0. 0. 0. 5.61797759e-03 0. 0. 0.
      5.61797759e-03 0. 0. 0. 0. 0. 1.12359552e-02 0. 5.61797759e-03 0.
      0. 0. 0. 0. 0. 0. 0. 0. 0. 5.61797759e-03 0. 1.12359552e-02 0. 0.
      0. 0. 0. 5.61797759e-03 5.61797759e-03 1.12359552e-02 0. 0. 0.
      5.61797759e-03 0. 0. 0. 0. 0. 0. 0. 5.61797759e-03 5.61797759e-03
      0. 5.61797759e-03 0. 0. 0. 0. 0. 0. 0. 0. 0. 0. 0. 0. 0. 0.
      5.61797759e-03 0. 0. 5.61797759e-03 0. 1.12359552e-02 0. 0.
      5.61797759e-03 0. 0. 5.61797759e-03 5.61797759e-03 0.
      1.68539323e-02 0. 0. 0. 0. 0. 0. 5.61797759e-03 0. 0.
      5.61797759e-03 0. 0. 0. 0. 5.61797759e-03 0. 0. 0. 5.61797759e-03
      0. 5.61797759e-03 0. 5.61797759e-03 0. 0. 0. 0. 0. 0.
      5.61797759e-03 0. 0. 5.61797759e-03 0. 0. 5.61797759e-03 0. 0. 0.
      0. 0. 0. 0. 0. 0. 0. 0. 0. 0. 0. 0. 0. 0. 0. 0. 0. 0. 0. 0. 0. 0.
      0. 0. 0. 0. 0. 0. 0. 0. 0. 0. 0. 0. 0. 5.61797759e-03 0. 0. 0. 0.
      0. 0. 0. 0. 0. 0. 0. 5.61797759e-03 0. 0. 0. 0. 0. 1.12359552e-02
      0. 0. 0. 0. 0. 0. 0. 0. 0. 1.12359552e-02 0. 0. 0. 0. 0.
      5.61797759e-03 0. 1.12359552e-02 5.61797759e-03 0. 0. 0. 0. 0. 0.
      0. 0. 0. 0. 0. 0. 0. 0. 5.61797759e-03 0. 0. 0. 0. 0. 0. 0. 0.
      5.61797759e-03 0. 0. 0. 0. 0. 5.61797759e-03 0. 5.61797759e-03 0.
      0. 0. 0. 0. 0. 5.61797759e-03 5.61797759e-03 0. 0. 0. 0. 0. 0. 0.
      0. 0. 0. 0. 0. 0. 0. 0. 0. 5.61797759e-03 0. 0. 0. 0. 0. 0. 0. 0.
      0. 0. 0. 0. 0. 5.61797759e-03 0. 0. 0. 0. 0. 0. 0. 0.
      5.61797759e-03 0. 0. 5.61797759e-03 0. 0. 0. 0. 0. 0. 0. 0. 0. 0.
      0. 5.61797759e-03 0. 0. 0. 0. 0. 0. 0. 0. 1.12359552e-02
      5.61797759e-03 0. 0. 5.61797759e-03 0. 0. 0. 0. 0. 5.61797759e-03
      0. 0. 0. 0. 0. 0. 0. 0. 0. 0. 0. 0. 0. 0. 0. 0. 0. 0. 0.
      5.61797759e-03 0. 0. 0. 0. 0. 0. 0. 0. 0. 0. 5.61797759e-03 0. 0.
      0. 0. 5.61797759e-03 0. 0. 0. 0. 1.12359552e-02 5.61797759e-03 0.
      0. 5.61797759e-03 0. 0. 0. 0. 0. 0. 0. 0. 0. 0. 0. 0. 0. 0. 0. 0.
      0. 5.61797759e-03 0. 5.61797759e-03 0. 0. 0. 0. 0. 0. 0. 0.
      5.61797759e-03 5.61797759e-03 0. 0. 0. 5.61797759e-03 0. 0. 0. 0.
      0. 0. 0. 5.61797759e-03 0. 5.61797759e-03 0. 5.61797759e-03 0. 0.
      0. 0. 0. 0. 5.61797759e-03 0. 0. 5.61797759e-03 0. 0. 0.
      5.61797759e-03 0. 0. 0. 0. 5.61797759e-03 0. 0. 0. 0. 0. 0. 0. 0.
      0. 0. 0. 0. 0. 0. 0. 0. 0. 0. 0. 0. 1.12359552e-02 0. 0. 0. 0. 0.
      0. 0. 0. 0. 0. 0. 0. 0. 0. 5.61797759e-03 0. 0. 5.61797759e-03 0.
      0. 0. 0. 0. 0. 1.12359552e-02 5.61797759e-03 5.61797759e-03 0. 0.
      0. 0. 0. 5.61797759e-03 5.61797759e-03 0. 0. 0. 0. 0. 0. 0. 0. 0.
      0. 0. 5.61797759e-03 0. 0. 0. 0. 0. 0. 0. 0. 0. 0. 0. 0.
      5.61797759e-03 5.61797759e-03 0. 5.61797759e-03 0. 0. 0. 0. 0. 0.
      0. 0. 0. 0. 0. 1.12359552e-02 0. 0. 5.61797759e-03 0. 0. 0. 0. 0.
      5.61797759e-03 0. 0. 0. 0. 0. 0. 0. 0. 0. 0. 0. 0. 0. 0. 0. 0. 0.
      5.61797759e-03 0. 0. 0. 0. 5.61797759e-03 0. 0. 0. 0. 0.
      5.61797759e-03 0. 0. 0. 0. 0. 0. 0. 5.61797759e-03 0.
      5.61797759e-03 5.61797759e-03 0. 0. 0. 0. 0. 0. 0. 0. 0.
      5.61797759e-03 5.61797759e-03 0. 0. 0. 0. 0. 0. 0. 0. 0.
      5.61797759e-03 0. 0. 0. 1.12359552e-02 0. 0. 0. 0. 0. 0. 0. 0. 0.
      0. 0. 0. 0. 0. 0. 0. 5.61797759e-03 0. 0. 0. 0. 0. 0.
      5.61797759e-03 0. 0. 0. 0. 0. 0. 0. 0. 0. 0. 0. 0. 0. 0. 0. 0. 0.
      0. 5.61797759e-03 0. 5.61797759e-03 0. 0. 0. 0. 0. 0.
      5.61797759e-03 0. 0. 0. 0. 0. 0. 0. 0. 0. 0. 0. 0. 0. 0. 0. 0. 0.
      0. 0. 5.61797759e-03 0. 0. 0. 0. 0. 0. 5.61797759e-03 0. 0.
      5.61797759e-03 5.61797759e-03 0. 0. 0. 0. 0. 0. 5.61797759e-03 0.
      0. 5.61797759e-03 5.61797759e-03 5.61797759e-03 0. 0. 0. 0. 0. 0.
      0. 0. 0. 0. 5.61797759e-03 0. 0. 5.61797759e-03 0. 0. 0.
      5.61797759e-03 0. 0. 5.61797759e-03 0. 0. 0. 0. 0. 0. 0. 0. 0. 0.
      0. 0. 0. 0. 5.61797759e-03 0. 5.61797759e-03 1.68539323e-02 0.
      1.12359552e-02 0. 0. 0. 0.</_>
    <_>
      1.83150184e-03 0. 9.15750919e-04 2.74725282e-03 1.83150184e-03 0.
      0. 9.15750919e-04 0. 0. 1.83150184e-03 0. 0. 1.83150184e-03
      9.15750919e-04 9.15750919e-04 0. 0. 2.74725282e-03 0. 0.
      2.74725282e-03 9.15750919e-04 0. 1.83150184e-03 9.15750919e-04
      9.15750919e-04 1.83150184e-03 0. 0. 9.15750919e-04 2.74725282e-03
      9.15750919e-04 2.74725282e-03 9.15750919e-04 0. 9.15750919e-04
      9.15750919e-04 1.83150184e-03 9.15750919e-04 1.83150184e-03
      2.74725282e-03 9.15750919e-04 3.66300368e-03 0. 1.83150184e-03
      9.15750919e-04 0. 9.15750919e-04 9.15750919e-04 9.15750919e-04
      2.74725282e-03 0. 0. 9.15750919e-04 9.15750919e-04 0. 0. 0. 0.
      9.15750919e-04 2.74725282e-03 9.15750919e-04 9.15750919e-04
      9.15750919e-04 0. 0. 9.15750919e-04 0. 0. 9.15750919e-04 0.
      9.15750919e-04 2.74725282e-03 0. 9.15750919e-04 9.15750919e-04 0.
      3.66300368e-03 9.15750919e-04 3.66300368e-03 0. 9.15750919e-04 0.
      9.15750919e-04 0. 0. 9.15750919e-04 0. 0. 0. 0. 1.83150184e-03
      3.66300368e-03 9.15750919e-04 2.74725282e-03 0. 9.15750919e-04 0.
      0. 2.74725282e-03 1.83150184e-03 9.15750919e-04 9.15750919e-04
      9.15750919e-04 0. 0. 1.83150184e-03 0. 0. 3.66300368e-03
      1.83150184e-03 9.15750919e-04 0. 2.74725282e-03 0. 1.83150184e-03
      1.83150184e-03 9.15750919e-04 9.15750919e-04 1.83150184e-03
      9.15750919e-04 1.83150184e-03 3.66300368e-03 0. 9.15750919e-04
      9.15750919e-04 0. 9.15750919e-04 1.83150184e-03 0. 1.83150184e-03
      0. 1.83150184e-03 1.83150184e-03 0. 0. 0. 1.83150184e-03
      9.15750919e-04 0. 0. 1.83150184e-03 1.83150184e-03 9.15750919e-04
      9.15750919e-04 0. 0. 9.15750919e-04 0. 1.83150184e-03
      9.15750919e-04 0. 1.83150184e-03 9.15750919e-04 0. 9.15750919e-04
      9.15750919e-04 9.15750919e-04 0. 9.15750919e-04 1.83150184e-03
      1.83150184e-03 0. 1.83150184e-03 0. 0. 1.83150184e-03 0.
      9.15750919e-04 9.15750919e-04 9.15750919e-04 1.83150184e-03
      2.74725282e-03 9.15750919e-04 4.57875477e-03 0. 9.15750919e-04 0.
      9.15750919e-04 0. 9.15750919e-04 4.57875477e-03 0. 0.
      9.15750919e-04 1.83150184e-03 9.15750919e-04 0. 9.15750919e-04 0.
      0. 1.83150184e-03 9.15750919e-04 1.83150184e-03 0. 9.15750919e-04
      0. 1.83150184e-03 9.15750919e-04 9.15750919e-04 0. 0.
      1.83150184e-03 9.15750919e-04 3.66300368e-03 1.83150184e-03
      1.83150184e-03 1.83150184e-03 0. 2.74725282e-03 1.83150184e-03
      1.83150184e-03 0. 9.15750919e-04 9.15750919e-04 0. 0.
      2.74725282e-03 9.15750919e-04 3.66300368e-03 3.66300368e-03
      1.83150184e-03 1.83150184e-03 0. 2.74725282e-03 0. 0.
      9.15750919e-04 3.66300368e-03 1.83150184e-03 9.15750919e-04 0. 0.
      0. 2.74725282e-03 1.83150184e-03 0. 0. 0. 1.83150184e-03 0.
      4.57875477e-03 2.74725282e-03 0. 0. 9.15750919e-04 1.83150184e-03
      0. 9.15750919e-04 0. 0. 9.15750919e-04 0. 0. 0. 9.15750919e-04
      2.74725282e-03 1.83150184e-03 3.66300368e-03 1.83150184e-03
      9.15750919e-04 9.15750919e-04 9.15750919e-04 1.83150184e-03 0.
      2.74725282e-03 1.83150184e-03 9.15750919e-04 2.74725282e-03 0.
      9.15750919e-04 1.83150184e-03 1.83150184e-03 9.15750919e-04
      9.15750919e-04 1.83150184e-03 0. 0. 0. 0. 3.66300368e-03 0.
      2.74725282e-03 9.15750919e-04 2.74725282e-03 9.15750919e-04
      3.66300368e-03 1.83150184e-03 9.15750919e-04 1.83150184e-03
      1.83150184e-03 0. 0. 9.15750919e-04 9.15750919e-04 0. 0. 0. 0.
      2.74725282e-03 0. 0. 0. 9.15750919e-04 9.15750919e-04 0.
      9.15750919e-04 0. 1.83150184e-03 9.15750919e-04 1.83150184e-03
      1.83150184e-03 0. 9.15750919e-04 1.83150184e-03 2.74725282e-03
      2.74725282e-03 0. 1.83150184e-03 0. 0. 9.15750919e-04
      1.83150184e-03 1.83150184e-03 1.83150184e-03 1.83150184e-03
      1.83150184e-03 1.83150184e-03 9.15750919e-04 0. 9.15750919e-04 0.
      0. 0. 9.15750919e-04 9.15750919e-04 2.74725282e-03 9.15750919e-04
      0. 0. 2.74725282e-03 9.15750919e-04 0. 3.66300368e-03 0.
      1.83150184e-03 1.83150184e-03 0. 2.74725282e-03 0. 0.
      9.15750919e-04 9.15750919e-04 0. 1.83150184e-03 1.83150184e-03
      1.83150184e-03 9.15750919e-04 1.83150184e-03 0. 0. 1.83150184e-03
      0. 0. 1.83150184e-03 0. 0. 9.15750919e-04 0. 0. 0. 9.15750919e-04
      9.15750919e-04 9.15750919e-04 1.83150184e-03 0. 9.15750919e-04
      9.15750919e-04 1.83150184e-03 2.74725282e-03 0. 9.15750919e-04
      9.15750919e-04 1.83150184e-03 1.83150184e-03 0. 9.15750919e-04
      1.83150184e-03 9.15750919e-04 9.15750919e-04 9.15750919e-04
      9.15750919e-04 0. 0. 0. 9.15750919e-04 2.74725282e-03
      9.15750919e-04 9.15750919e-04 9.15750919e-04 1.83150184e-03
      1.83150184e-03 9.15750919e-04 0. 0. 1.83150184e-03 4.57875477e-03
      7.32600736e-03 0. 9.15750919e-04 0. 2.74725282e-03 0. 0. 0. 0.
      9.15750919e-04 1.83150184e-03 1.83150184e-03 0. 9.15750919e-04
      9.15750919e-04 1.83150184e-03 1.83150184e-03 0. 0. 0. 0.
      9.15750919e-04 0. 0. 1.83150184e-03 9.15750919e-04 9.15750919e-04
      2.74725282e-03 0. 2.74725282e-03 1.83150184e-03 0. 9.15750919e-04
      0. 9.15750919e-04 0. 9.15750919e-04 0. 3.66300368e-03
      2.74725282e-03 1.83150184e-03 0. 9.15750919e-04 0. 0.
      9.15750919e-04 0. 4.57875477e-03 1.83150184e-03 9.15750919e-04
      2.74725282e-03 0. 9.15750919e-04 0. 2.74725282e-03 0.
      9.15750919e-04 1.83150184e-03 9.15750919e-04 1.83150184e-03 0.
      3.66300368e-03 0. 0. 0. 1.83150184e-03 9.15750919e-04 0. 0. 0.
      9.15750919e-04 0. 0. 9.15750919e-04 9.15750919e-04 9.15750919e-04
      9.15750919e-04 0. 2.74725282e-03 9.15750919e-04 0. 0. 0. 0.
      1.83150184e-03 0. 9.15750919e-04 9.15750919e-04 9.15750919e-04
      9.15750919e-04 0. 0. 2.74725282e-03 0. 1.83150184e-03
      9.15750919e-04 1.83150184e-03 1.83150184e-03 9.15750919e-04
      1.83150184e-03 3.66300368e-03 2.74725282e-03 9.15750919e-04
      9.15750919e-04 4.57875477e-03 9.15750919e-04 9.15750919e-04
      9.15750919e-04 1.83150184e-03 0. 0. 9.15750919e-04 1.83150184e-03
      2.74725282e-03 0. 9.15750919e-04 0. 9.15750919e-04 0.
      9.15750919e-04 0. 4.57875477e-03 9.15750919e-04 0. 0. 0. 0. 0. 0.
      9.15750919e-04 0. 0. 9.15750919e-04 0. 9.15750919e-04 0. 0.
      2.74725282e-03 9.15750919e-04 9.15750919e-04 0. 0. 0. 0.
      9.15750919e-04 9.15750919e-04 2.74725282e-03 1.83150184e-03
      2.74725282e-03 9.15750919e-04 0. 0. 0. 0. 1.83150184e-03 0. 0.
      1.83150184e-03 9.15750919e-04 0. 3.66300368e-03 0. 9.15750919e-04
      1.83150184e-03 3.66300368e-03 2.74725282e-03 9.15750919e-04
      3.66300368e-03 0. 3.66300368e-03 0. 1.83150184e-03 9.15750919e-04
      9.15750919e-04 9.15750919e-04 9.15750919e-04 5.49450563e-03
      9.15750919e-04 4.57875477e-03 0. 9.15750919e-04 0. 2.74725282e-03
      9.15750919e-04 1.83150184e-03 2.74725282e-03 0. 0. 0.
      9.15750919e-04 1.83150184e-03 0. 2.74725282e-03 0. 1.83150184e-03
      0. 0. 2.74725282e-03 9.15750919e-04 0. 2.74725282e-03 0. 0. 0.
      9.15750919e-04 0. 1.83150184e-03 1.83150184e-03 1.83150184e-03 0.
      0. 5.49450563e-03 1.83150184e-03 2.74725282e-03 1.83150184e-03
      2.74725282e-03 9.15750919e-04 0. 0. 0. 9.15750919e-04
      9.15750919e-04 0. 4.57875477e-03 1.83150184e-03 2.74725282e-03
      9.15750919e-04 2.74725282e-03 9.15750919e-04 2.74725282e-03
      1.83150184e-03 9.15750919e-04 0. 0. 0. 0. 0. 0. 0. 2.74725282e-03
      9.15750919e-04 9.15750919e-04 0. 9.15750919e-04 9.15750919e-04
      1.83150184e-03 1.83150184e-03 0. 9.15750919e-04 2.74725282e-03 0.
      0. 0. 1.83150184e-03 9.15750919e-04 0. 9.15750919e-04
      9.15750919e-04 2.74725282e-03 1.83150184e-03 9.15750919e-04 0. 0.
      3.66300368e-03 9.15750919e-04 0. 1.83150184e-03 1.83150184e-03
      3.66300368e-03 9.15750919e-04 1.83150184e-03 0. 1.83150184e-03
      1.83150184e-03 1.83150184e-03 9.15750919e-04 0. 3.66300368e-03
      2.74725282e-03 1.83150184e-03 1.83150184e-03 9.15750919e-04
      9.15750919e-04 1.83150184e-03 9.15750919e-04 2.74725282e-03
      2.74725282e-03 0. 0. 9.15750919e-04 1.83150184e-03 9.15750919e-04
      2.74725282e-03 1.83150184e-03 0. 0. 0. 0. 1.83150184e-03
      1.83150184e-03 9.15750919e-04 0. 0. 2.74725282e-03 0.
      1.83150184e-03 0. 9.15750919e-04 0. 0. 1.83150184e-03 0. 0. 0. 0.
      2.74725282e-03 0. 9.15750919e-04 1.83150184e-03 0. 1.83150184e-03
      0. 2.74725282e-03 2.74725282e-03 9.15750919e-04 0. 9.15750919e-04
      1.83150184e-03 9.15750919e-04 0. 1.83150184e-03 0. 0.
      9.15750919e-04 0. 0. 9.15750919e-04 0. 0. 0. 9.15750919e-04
      1.83150184e-03 1.83150184e-03 2.74725282e-03 0. 1.83150184e-03
      9.15750919e-04 0. 0. 0. 0. 9.15750919e-04 9.15750919e-04
      1.83150184e-03 1.83150184e-03 0. 1.83150184e-03 9.15750919e-04
      9.15750919e-04 1.83150184e-03 4.57875477e-03 0. 0. 0. 0. 0. 0. 0.
      0. 1.83150184e-03 0. 9.15750919e-04 9.15750919e-04 9.15750919e-04
      0. 9.15750919e-04 1.83150184e-03 9.15750919e-04 9.15750919e-04 0.
      0. 0. 9.15750919e-04 2.74725282e-03 0. 1.83150184e-03
      9.15750919e-04 0. 0. 9.15750919e-04 9.15750919e-04 9.15750919e-04
      0. 0. 9.15750919e-04 0. 0. 9.15750919e-04 9.15750919e-04
      9.15750919e-04 9.15750919e-04 0. 9.15750919e-04 0. 0.
      9.15750919e-04 9.15750919e-04 0. 9.15750919e-04 9.15750919e-04
      2.74725282e-03 0. 0. 9.15750919e-04 9.15750919e-04 1.83150184e-03
      1.83150184e-03 0. 6.41025649e-03 1.83150184e-03 0. 0.
      9.15750919e-04 2.74725282e-03 1.83150184e-03 1.83150184e-03 0. 0.
      9.15750919e-04 0. 0. 1.83150184e-03 9.15750919e-04 9.15750919e-04
      0. 9.15750919e-04 9.15750919e-04 1.83150184e-03 9.15750919e-04
      1.83150184e-03 0. 0. 9.15750919e-04 0. 0. 0. 2.74725282e-03
      9.15750919e-04 0. 0. 0. 9.15750919e-04 9.15750919e-04 0.
      1.83150184e-03 9.15750919e-04 0. 0. 9.15750919e-04 0. 0.
      9.15750919e-04 9.15750919e-04 0. 9.15750919e-04 0. 4.57875477e-03
      0. 9.15750919e-04 0. 0. 0. 1.83150184e-03 0. 9.15750919e-04
      9.15750919e-04 2.74725282e-03 3.66300368e-03 0. 0. 0.
      4.57875477e-03 0. 0. 0. 0. 1.83150184e-03 9.15750919e-04 0.
      2.74725282e-03 9.15750919e-04 0. 9.15750919e-04 2.74725282e-03
      9.15750919e-04 9.15750919e-04 3.66300368e-03 9.15750919e-04
      1.83150184e-03 1.83150184e-03 9.15750919e-04 0. 0. 0.
      9.15750919e-04 0. 0. 0. 0. 0. 0. 4.57875477e-03 1.83150184e-03
      9.15750919e-04 1.83150184e-03 2.74725282e-03 9.15750919e-04 0. 0.
      1.83150184e-03 9.15750919e-04 9.15750919e-04 3.66300368e-03 0.
      9.15750919e-04 9.15750919e-04 0. 0. 0. 9.15750919e-04
      2.74725282e-03 9.15750919e-04 0. 0. 1.83150184e-03 1.83150184e-03
      0. 1.83150184e-03 0. 9.15750919e-04 9.15750919e-04 9.15750919e-04
      9.15750919e-04 9.15750919e-04 9.15750919e-04 9.15750919e-04
      9.15750919e-04 0. 0. 0. 9.15750919e-04 0. 1.83150184e-03 0.
      1.83150184e-03 0. 1.83150184e-03 9.15750919e-04 0. 9.15750919e-04
      0. 9.15750919e-04 9.15750919e-04 3.66300368e-03 0. 2.74725282e-03
      0. 9.15750919e-04 0. 0. 1.83150184e-03 0. 1.83150184e-03
      1.83150184e-03 9.15750919e-04 0. 0. 9.15750919e-04 2.74725282e-03
      9.15750919e-04 0. 0. 0. 9.15750919e-04 2.74725282e-03
      9.15750919e-04 9.15750919e-04 0. 0. 0. 9.15750919e-04
      9.15750919e-04</_>
    <_>
      0. 1.87969930e-03 3.75939859e-03 3.75939859e-03 0. 0. 0. 0.
      1.87969930e-03 0. 0. 1.87969930e-03 3.75939859e-03 0. 0. 0. 0. 0.
      1.87969930e-03 0. 1.87969930e-03 0. 0. 0. 0. 1.87969930e-03 0. 0.
      0. 0. 0. 0. 5.63909765e-03 3.75939859e-03 0. 0. 0. 0. 0. 0.
      3.75939859e-03 0. 1.87969930e-03 5.63909765e-03 7.51879718e-03
      5.63909765e-03 1.87969930e-03 0. 0. 0. 3.75939859e-03 0. 0. 0. 0.
      1.12781953e-02 3.75939859e-03 0. 0. 0. 1.87969930e-03 0. 0. 0.
      1.87969930e-03 0. 0. 0. 0. 0. 0. 0. 0. 0. 0. 0. 1.87969930e-03 0.
      0. 0. 0. 0. 1.87969930e-03 0. 0. 0. 0. 0. 5.63909765e-03 0. 0. 0.
      0. 5.63909765e-03 0. 1.87969930e-03 7.51879718e-03 5.63909765e-03
      0. 1.87969930e-03 1.87969930e-03 1.87969930e-03 0. 1.87969930e-03
      0. 0. 1.87969930e-03 0. 0. 1.87969930e-03 1.87969930e-03 0. 0.
      3.75939859e-03 1.87969930e-03 0. 0. 0. 1.50375944e-02 0.
      1.87969930e-03 1.87969930e-03 0. 0. 1.87969930e-03 0. 0. 0. 0.
      1.87969930e-03 0. 1.87969930e-03 0. 1.87969930e-03 0. 0. 0. 0. 0.
      1.87969930e-03 0. 0. 0. 0. 0. 0. 1.87969930e-03 3.75939859e-03 0.
      0. 0. 0. 0. 0. 0. 0. 3.75939859e-03 0. 0. 0. 0. 1.87969930e-03
      1.87969930e-03 0. 1.87969930e-03 0. 0. 1.87969930e-03 0. 0. 0. 0.
      0. 0. 1.87969930e-03 0. 0. 0. 0. 0. 0. 1.87969930e-03 0.
      1.87969930e-03 0. 1.87969930e-03 1.87969930e-03 0. 0. 0.
      3.75939859e-03 0. 0. 0. 1.87969930e-03 0. 0. 0. 0. 1.87969930e-03
      0. 1.87969930e-03 0. 0. 1.87969930e-03 0. 0. 1.87969930e-03
      1.87969930e-03 0. 3.75939859e-03 0. 0. 1.87969930e-03
      1.87969930e-03 0. 0. 0. 0. 0. 3.75939859e-03 1.87969930e-03 0. 0.
      5.63909765e-03 1.87969930e-03 0. 0. 0. 0. 1.87969930e-03 0.
      1.87969930e-03 0. 1.87969930e-03 1.87969930e-03 1.87969930e-03 0.
      0. 1.87969930e-03 0. 1.87969930e-03 3.75939859e-03 0.
      3.75939859e-03 9.39849671e-03 0. 1.87969930e-03 0. 7.51879718e-03
      0. 3.75939859e-03 0. 0. 0. 0. 0. 5.63909765e-03 1.87969930e-03
      3.75939859e-03 0. 1.87969930e-03 0. 0. 1.87969930e-03 0. 0.
      1.87969930e-03 0. 0. 0. 0. 0. 0. 0. 1.87969930e-03 0. 0. 0. 0. 0.
      0. 1.87969930e-03 0. 0. 1.87969930e-03 0. 0. 3.75939859e-03 0. 0.
      1.87969930e-03 0. 0. 5.63909765e-03 0. 0. 1.87969930e-03 0. 0. 0.
      0. 1.87969930e-03 1.87969930e-03 0. 3.75939859e-03 0.
      1.87969930e-03 0. 1.87969930e-03 0. 0. 0. 7.51879718e-03
      1.87969930e-03 0. 0. 0. 0. 0. 0. 0. 1.87969930e-03 0. 0. 0. 0.
      1.87969930e-03 0. 0. 0. 0. 1.87969930e-03 0. 1.87969930e-03 0.
      3.75939859e-03 0. 5.63909765e-03 0. 0. 0. 0. 1.87969930e-03 0. 0.
      1.87969930e-03 0. 0. 0. 0. 3.75939859e-03 1.87969930e-03 0. 0. 0.
      0. 0. 0. 0. 0. 0. 3.75939859e-03 0. 0. 0. 1.87969930e-03 0. 0. 0.
      0. 3.75939859e-03 0. 0. 3.75939859e-03 0. 5.63909765e-03 0. 0. 0.
      1.87969930e-03 0. 0. 0. 0. 1.87969930e-03 1.87969930e-03 0. 0. 0.
      0. 0. 0. 0. 3.75939859e-03 0. 0. 0. 1.87969930e-03 0.
      1.87969930e-03 1.87969930e-03 1.87969930e-03 0. 0. 0. 0. 0.
      7.51879718e-03 1.87969930e-03 1.87969930e-03 0. 3.75939859e-03 0.
      0. 0. 0. 0. 0. 0. 0. 0. 0. 0. 3.75939859e-03 1.87969930e-03
      3.75939859e-03 0. 0. 0. 1.87969930e-03 0. 0. 1.87969930e-03 0. 0.
      0. 1.87969930e-03 0. 0. 3.75939859e-03 0. 0. 0. 0. 0.
      1.87969930e-03 1.87969930e-03 1.87969930e-03 0. 0. 0. 0. 0. 0.
      1.87969930e-03 0. 1.87969930e-03 1.87969930e-03 0. 1.87969930e-03
      1.87969930e-03 1.87969930e-03 5.63909765e-03 1.87969930e-03 0.
      1.87969930e-03 0. 0. 5.63909765e-03 1.87969930e-03 0.
      9.39849671e-03 0. 1.87969930e-03 0. 0. 3.75939859e-03
      3.75939859e-03 0. 0. 0. 1.87969930e-03 0. 0. 0. 0. 1.87969930e-03
      0. 0. 0. 0. 0. 0. 0. 1.87969930e-03 1.87969930e-03 0. 0.
      1.87969930e-03 0. 0. 3.75939859e-03 0. 5.63909765e-03 0. 0. 0.
      3.75939859e-03 3.75939859e-03 0. 1.87969930e-03 1.87969930e-03 0.
      1.87969930e-03 0. 0. 1.87969930e-03 0. 1.12781953e-02 0. 0. 0.
      1.87969930e-03 0. 1.87969930e-03 0. 0. 1.87969930e-03
      3.75939859e-03 0. 0. 0. 0. 1.87969930e-03 0. 3.75939859e-03 0.
      3.75939859e-03 0. 3.75939859e-03 0. 1.87969930e-03 3.75939859e-03
      0. 3.75939859e-03 0. 1.87969930e-03 0. 0. 0. 1.87969930e-03 0.
      1.87969930e-03 1.87969930e-03 3.75939859e-03 1.87969930e-03 0.
      3.75939859e-03 0. 0. 0. 3.75939859e-03 0. 0. 5.63909765e-03 0. 0.
      0. 1.31578948e-02 0. 0. 0. 0. 1.87969930e-03 0. 0. 0. 0.
      1.87969930e-03 0. 0. 0. 1.87969930e-03 0. 0. 0. 1.87969930e-03 0.
      1.87969930e-03 1.87969930e-03 0. 0. 1.87969930e-03 1.87969930e-03
      1.87969930e-03 1.87969930e-03 0. 0. 0. 1.87969930e-03 0.
      1.87969930e-03 0. 0. 1.87969930e-03 0. 0. 1.87969930e-03 0. 0.
      1.87969930e-03 0. 0. 0. 1.87969930e-03 1.87969930e-03 0. 0.
      3.75939859e-03 0. 1.87969930e-03 0. 0. 0. 0. 0. 0. 1.12781953e-02
      0. 0. 1.87969930e-03 1.87969930e-03 0. 3.75939859e-03 0. 0. 0.
      1.87969930e-03 0. 1.87969930e-03 1.87969930e-03 7.51879718e-03 0.
      0. 0. 0. 1.87969930e-03 0. 0. 0. 0. 1.87969930e-03 0.
      1.12781953e-02 0. 1.87969930e-03 3.75939859e-03 0. 3.75939859e-03
      0. 0. 0. 0. 0. 0. 0. 1.87969930e-03 0. 0. 0. 0. 1.87969930e-03 0.
      0. 0. 0. 0. 3.75939859e-03 0. 5.63909765e-03 3.75939859e-03 0. 0.
      0. 1.87969930e-03 0. 0. 0. 0. 0. 0. 0. 1.87969930e-03 0. 0. 0. 0.
      0. 0. 0. 1.87969930e-03 0. 0. 0. 0. 3.75939859e-03 0. 0. 0. 0.
      1.87969930e-03 0. 0. 0. 0. 0. 1.87969930e-03 3.75939859e-03
      1.87969930e-03 0. 1.69172939e-02 0. 0. 0. 1.87969930e-03
      1.87969930e-03 0. 0. 0. 1.87969930e-03 3.75939859e-03 0. 0. 0.
      1.87969930e-03 0. 0. 0. 0. 0. 0. 0. 3.75939859e-03 0. 0. 0. 0.
      1.87969930e-03 3.75939859e-03 1.12781953e-02 0. 1.87969930e-03
      1.87969930e-03 0. 0. 0. 0. 0. 0. 0. 0. 0. 1.87969930e-03 0. 0. 0.
      0. 0. 1.87969930e-03 3.75939859e-03 1.87969930e-03 0. 0.
      1.87969930e-03 0. 1.87969930e-03 0. 0. 1.87969930e-03
      2.63157897e-02 0. 0. 1.87969930e-03 3.75939859e-03 1.87969930e-03
      1.87969930e-03 0. 0. 1.87969930e-03 0. 0. 0. 0. 0. 0. 0. 0. 0. 0.
      0. 0. 0. 0. 1.87969930e-03 0. 1.87969930e-03 0. 0. 0.
      3.75939859e-03 3.75939859e-03 0. 0. 1.87969930e-03 1.87969930e-03
      0. 1.87969930e-03 0. 0. 1.87969930e-03 0. 0. 0. 1.87969930e-03 0.
      0. 5.63909765e-03 0. 1.87969930e-03 1.87969930e-03 0. 0. 0.
      7.51879718e-03 0. 0. 0. 0. 0. 0. 1.87969930e-03 0. 0. 0. 0. 0.
      3.75939859e-03 0. 0. 1.87969930e-03 5.63909765e-03 1.87969930e-03
      0. 0. 0. 0. 0. 0. 1.87969930e-03 0. 0. 0. 3.75939859e-03
      1.87969930e-03 0. 0. 0. 0. 0. 0. 1.87969930e-03 0. 0. 0.
      1.87969930e-03 0. 0. 5.63909765e-03 1.87969930e-03 0. 0.
      1.87969930e-03 0. 1.87969930e-03 5.63909765e-03 0. 1.87969930e-03
      0. 0. 0. 0. 1.87969930e-03 0. 5.63909765e-03 0. 0. 9.39849671e-03
      0. 0. 0. 1.87969930e-03 1.87969930e-03 0. 0. 0. 0. 1.87969930e-03
      1.87969930e-03 1.87969930e-03 3.75939859e-03 0. 0. 1.87969930e-03
      0. 7.51879718e-03 1.87969930e-03 0. 0. 0. 0. 0. 0. 3.75939859e-03
      0. 0. 0. 0. 1.87969930e-03 1.87969930e-03 7.51879718e-03
      3.75939859e-03 1.87969930e-03 0. 1.87969930e-03 0. 0.
      1.87969930e-03 1.87969930e-03 1.87969930e-03 0. 0. 0. 0. 0.
      1.87969930e-03 0. 0. 1.87969930e-03 1.87969930e-03 1.87969930e-03
      0. 0. 0. 0. 0. 0. 1.87969930e-03 0. 0. 0. 0. 1.87969930e-03 0. 0.
      0. 1.87969930e-03 0. 0. 0. 0. 0. 1.87969930e-03 0. 0. 0. 0. 0. 0.
      0. 0. 0. 0. 0. 0. 0. 0. 0. 3.75939859e-03 0. 0. 1.87969930e-03
      1.87969930e-03 1.87969930e-03 0. 0. 0. 1.87969930e-03 0.
      1.87969930e-03</_>
    <_>
      0. 0. 0. 0. 0. 0. 9.52380989e-03 0. 0. 0. 0. 0. 0. 0. 0. 0. 0.
      9.52380989e-03 0. 0. 0. 0. 0. 0. 0. 0. 0. 0. 0. 0. 0. 0. 0. 0. 0.
      0. 0. 0. 0. 0. 0. 0. 0. 0. 0. 0. 0. 0. 0. 0. 0. 0. 0. 0. 0. 0. 0.
      0. 0. 0. 0. 0. 0. 0. 0. 9.52380989e-03 0. 9.52380989e-03
      9.52380989e-03 0. 0. 0. 0. 0. 0. 1.90476198e-02 9.52380989e-03 0.
      0. 0. 0. 0. 0. 0. 0. 9.52380989e-03 0. 0. 9.52380989e-03 0. 0. 0.
      9.52380989e-03 0. 0. 0. 0. 0. 0. 0. 0. 0. 0. 0. 0. 0.
      9.52380989e-03 0. 0. 0. 0. 0. 0. 0. 0. 0. 9.52380989e-03 0. 0. 0.
      0. 0. 9.52380989e-03 0. 0. 0. 0. 0. 0. 0. 0. 0. 0. 0. 0. 0. 0. 0.
      0. 0. 0. 0. 0. 0. 0. 0. 0. 0. 0. 0. 0. 0. 0. 0. 0. 0. 0. 0. 0. 0.
      0. 0. 0. 0. 0. 0. 9.52380989e-03 0. 0. 0. 9.52380989e-03 0. 0. 0.
      0. 0. 0. 0. 0. 0. 0. 9.52380989e-03 0. 0. 0. 9.52380989e-03 0. 0.
      0. 0. 0. 0. 0. 9.52380989e-03 0. 0. 0. 0. 0. 0. 0. 0. 0. 0. 0. 0.
      0. 0. 0. 0. 0. 0. 0. 0. 0. 0. 0. 0. 0. 0. 0. 0. 0. 0. 0. 0. 0. 0.
      0. 0. 0. 9.52380989e-03 0. 0. 0. 0. 0. 0. 0. 0. 0. 9.52380989e-03
      0. 0. 0. 0. 0. 0. 0. 0. 0. 0. 0. 0. 0. 0. 0. 0. 0. 0. 0. 0. 0. 0.
      0. 2.85714306e-02 0. 9.52380989e-03 0. 0. 0. 0. 0. 9.52380989e-03
      0. 0. 0. 0. 0. 0. 0. 0. 0. 0. 0. 9.52380989e-03 0. 0. 0. 0. 0. 0.
      0. 0. 1.90476198e-02 0. 0. 0. 0. 0. 0. 0. 0. 0. 0. 0. 0.
      9.52380989e-03 0. 0. 0. 0. 0. 0. 0. 0. 0. 0. 0. 0. 9.52380989e-03
      0. 0. 0. 0. 0. 0. 0. 0. 0. 0. 0. 0. 0. 0. 0. 0. 0. 0. 0. 0. 0. 0.
      0. 0. 9.52380989e-03 9.52380989e-03 0. 0. 0. 0. 0. 0. 0. 0. 0. 0.
      0. 0. 0. 0. 0. 0. 0. 0. 0. 0. 0. 0. 0. 0. 0. 9.52380989e-03 0. 0.
      0. 0. 0. 0. 0. 0. 0. 0. 0. 0. 0. 0. 0. 0. 0. 1.90476198e-02 0. 0.
      0. 9.52380989e-03 0. 0. 0. 0. 0. 9.52380989e-03 0. 9.52380989e-03
      0. 0. 0. 0. 9.52380989e-03 9.52380989e-03 0. 0. 0. 9.52380989e-03
      0. 0. 0. 0. 0. 0. 0. 0. 0. 0. 0. 0. 0. 0. 0. 0. 0. 0. 0. 0. 0. 0.
      0. 0. 0. 0. 0. 0. 0. 0. 0. 0. 0. 9.52380989e-03 9.52380989e-03 0.
      9.52380989e-03 9.52380989e-03 0. 0. 0. 0. 0. 0. 0. 0. 0.
      9.52380989e-03 0. 0. 0. 0. 0. 0. 0. 0. 0. 0. 0. 0. 0. 0. 0. 0. 0.
      0. 0. 9.52380989e-03 0. 0. 0. 0. 0. 0. 9.52380989e-03 0. 0. 0. 0.
      9.52380989e-03 0. 0. 0. 0. 0. 0. 0. 0. 0. 0. 0. 0. 0. 0. 0. 0. 0.
      0. 1.90476198e-02 0. 0. 0. 0. 0. 0. 0. 0. 0. 0. 0. 0. 0. 0. 0. 0.
      0. 0. 0. 0. 0. 9.52380989e-03 0. 0. 0. 0. 9.52380989e-03 0. 0. 0.
      0. 0. 0. 0. 0. 9.52380989e-03 0. 0. 0. 0. 0. 0. 0. 0. 0. 0. 0. 0.
      0. 0. 0. 9.52380989e-03 0. 9.52380989e-03 0. 0. 9.52380989e-03 0.
      1.90476198e-02 0. 0. 0. 9.52380989e-03 0. 0. 0. 0. 0. 0. 0. 0.
      9.52380989e-03 0. 0. 0. 0. 0. 0. 0. 0. 0. 0. 0. 0. 0. 0. 0. 0. 0.
      0. 0. 0. 0. 0. 0. 0. 9.52380989e-03 0. 0. 9.52380989e-03 0. 0. 0.
      0. 0. 0. 9.52380989e-03 0. 0. 0. 0. 0. 0. 0. 0. 0. 0. 0. 0. 0. 0.
      0. 0. 0. 0. 0. 9.52380989e-03 0. 0. 0. 0. 0. 0. 0. 0. 0. 0. 0. 0.
      0. 0. 0. 0. 0. 0. 0. 0. 0. 0. 0. 0. 0. 0. 0. 0. 0. 0.
      9.52380989e-03 0. 9.52380989e-03 0. 0. 0. 0. 0. 0. 0. 0.
      9.52380989e-03 0. 0. 0. 0. 0. 0. 0. 0. 0. 0. 9.52380989e-03 0.
      9.52380989e-03 0. 0. 0. 0. 0. 0. 9.52380989e-03 9.52380989e-03 0.
      0. 0. 0. 9.52380989e-03 0. 0. 0. 0. 0. 0. 0. 0. 0. 0. 0.
      1.90476198e-02 0. 9.52380989e-03 0. 0. 0. 0. 0. 0. 0. 0. 0.
      1.90476198e-02 0. 0. 0. 0. 0. 0. 0. 0. 0. 0. 0. 0. 0. 0. 0. 0. 0.
      0. 9.52380989e-03 0. 0. 0. 0. 0. 0. 0. 0. 0. 0. 0. 0. 0. 0. 0. 0.
      0. 0. 0. 0. 0. 0. 0. 0. 0. 0. 0. 9.52380989e-03 0. 0. 0. 0. 0. 0.
      0. 0. 0. 0. 0. 0. 0. 0. 0. 0. 0. 0. 0. 0. 0. 0. 0. 0. 0. 0. 0. 0.
      0. 9.52380989e-03 0. 0. 0. 0. 0. 0. 0. 0. 0. 0. 0. 0. 0. 0.
      9.52380989e-03 0. 0. 0. 0. 0. 0. 0. 0. 0. 0. 0. 0. 0. 0. 0.
      9.52380989e-03 0. 0. 0. 0. 0. 0. 0. 0. 0. 0. 0. 0. 0. 0. 0. 0.
      9.52380989e-03 0. 0. 0. 0. 0. 0. 0. 0. 0. 0. 0. 2.85714306e-02 0.
      0. 0. 0. 0. 9.52380989e-03 0. 0. 0. 0. 0. 0. 0. 0. 0.
      9.52380989e-03 0. 0. 0. 0. 9.52380989e-03 0. 1.90476198e-02 0. 0.
      0. 0. 0. 9.52380989e-03 0. 0. 0. 0. 0. 0. 0. 0. 0. 0. 0. 0. 0. 0.
      9.52380989e-03 0. 0. 0. 9.52380989e-03 0. 9.52380989e-03 0. 0. 0.
      0. 0. 0. 0. 0. 0. 0. 0. 0. 0. 0. 0. 0. 9.52380989e-03 0. 0. 0. 0.
      0. 0. 9.52380989e-03 0. 0. 0. 9.52380989e-03 0. 0. 0. 0. 0. 0. 0.
      0. 0. 0. 0. 0. 0. 0. 0. 0. 0. 0. 9.52380989e-03 0. 0. 0. 0.
      1.90476198e-02 0. 0. 0. 0. 0. 0. 0. 0. 0. 0. 0. 0. 0. 0. 0. 0. 0.
      0. 0. 0. 0. 9.52380989e-03 0. 0. 0. 0. 0. 0. 9.52380989e-03 0.</_>
    <_>
      0. 0. 0. 0. 0. 0. 0. 0. 0. 0. 0. 0. 0. 0. 0. 0. 0. 0. 0. 0. 0. 0.
      1.19047621e-02 0. 1.19047621e-02 0. 0. 0. 0. 0. 0. 0. 0. 0. 0. 0.
      0. 0. 0. 0. 0. 0. 0. 0. 0. 1.19047621e-02 0. 1.19047621e-02 0. 0.
      0. 0. 0. 0. 0. 0. 0. 0. 0. 0. 0. 0. 0. 0. 0. 0. 0. 0. 0. 0. 0. 0.
      0. 0. 0. 0. 0. 0. 0. 0. 0. 0. 1.19047621e-02 0. 0. 0. 0. 0. 0. 0.
      0. 0. 0. 0. 0. 0. 1.19047621e-02 0. 0. 0. 0. 0. 0. 0. 0. 0. 0. 0.
      0. 0. 0. 0. 1.19047621e-02 0. 0. 0. 0. 0. 1.19047621e-02 0. 0. 0.
      0. 1.19047621e-02 0. 0. 0. 0. 0. 0. 0. 0. 0. 0. 0. 0. 0. 0. 0. 0.
      0. 0. 0. 0. 0. 0. 0. 0. 0. 0. 0. 0. 0. 1.19047621e-02 0. 0. 0. 0.
      0. 0. 0. 0. 0. 0. 0. 1.19047621e-02 0. 0. 0. 0. 0. 1.19047621e-02
      0. 0. 0. 0. 0. 0. 0. 0. 0. 0. 0. 0. 0. 0. 1.19047621e-02 0. 0. 0.
      0. 0. 0. 0. 0. 0. 0. 0. 0. 0. 0. 0. 0. 1.19047621e-02 0. 0. 0. 0.
      0. 0. 0. 0. 0. 0. 1.19047621e-02 0. 0. 0. 0. 0. 0. 0. 0. 0.
      1.19047621e-02 0. 1.19047621e-02 0. 0. 0. 0. 0. 0. 0. 0. 0.
      1.19047621e-02 0. 1.19047621e-02 0. 0. 0. 0. 0. 0. 0. 0. 0. 0. 0.
      0. 0. 0. 0. 0. 0. 0. 0. 0. 0. 0. 0. 0. 0. 0. 0. 0. 1.19047621e-02
      0. 0. 0. 0. 0. 0. 0. 0. 0. 0. 0. 0. 0. 0. 0. 0. 0. 0. 0. 0. 0. 0.
      0. 0. 0. 0. 0. 0. 0. 0. 0. 0. 1.19047621e-02 0. 0. 0. 0. 0. 0. 0.
      0. 0. 0. 0. 0. 0. 0. 0. 1.19047621e-02 0. 0. 0. 0. 0. 0. 0. 0. 0.
      0. 0. 0. 2.38095243e-02 0. 0. 1.19047621e-02 0. 0. 0. 0. 0. 0. 0.
      0. 0. 0. 0. 0. 0. 0. 0. 0. 0. 0. 0. 0. 0. 0. 0. 0. 0. 0. 0. 0. 0.
      0. 0. 0. 0. 0. 0. 0. 0. 1.19047621e-02 0. 0. 0. 0. 0. 0. 0. 0. 0.
      0. 0. 0. 0. 0. 0. 0. 0. 0. 0. 0. 0. 0. 0. 0. 0. 0. 0.
      2.38095243e-02 0. 1.19047621e-02 0. 0. 0. 0. 0. 0. 0. 0. 0. 0. 0.
      0. 0. 0. 0. 0. 0. 0. 0. 0. 0. 1.19047621e-02 0. 1.19047621e-02 0.
      0. 0. 0. 0. 0. 0. 0. 0. 0. 1.19047621e-02 0. 0. 0. 0. 0. 0. 0. 0.
      0. 0. 0. 0. 0. 0. 0. 0. 0. 0. 0. 0. 0. 1.19047621e-02 0. 0. 0. 0.
      0. 0. 0. 0. 1.19047621e-02 0. 1.19047621e-02 0. 0. 0. 0. 0. 0. 0.
      0. 1.19047621e-02 0. 1.19047621e-02 0. 0. 0. 0. 1.19047621e-02 0.
      0. 0. 0. 0. 0. 0. 0. 0. 0. 0. 1.19047621e-02 0. 0. 0. 0. 0. 0. 0.
      0. 0. 0. 0. 0. 0. 1.19047621e-02 0. 0. 0. 0. 0. 0. 0. 0. 0. 0. 0.
      0. 0. 0. 0. 1.19047621e-02 0. 0. 0. 0. 0. 0. 0. 0. 0. 0.
      1.19047621e-02 0. 0. 0. 0. 1.19047621e-02 0. 0. 0. 0.
      1.19047621e-02 0. 0. 0. 0. 0. 0. 0. 0. 0. 0. 0. 1.19047621e-02 0.
      0. 0. 1.19047621e-02 0. 0. 0. 0. 0. 0. 0. 0. 0. 0. 0. 0. 0. 0. 0.
      0. 0. 0. 0. 0. 0. 0. 0. 0. 0. 0. 0. 0. 0. 0. 1.19047621e-02 0. 0.
      0. 0. 0. 0. 0. 0. 0. 0. 0. 0. 0. 0. 0. 0. 0. 0. 0. 0. 0. 0. 0. 0.
      0. 0. 0. 0. 0. 0. 0. 0. 0. 0. 0. 1.19047621e-02 0. 0. 0. 0.
      1.19047621e-02 0. 0. 0. 0. 1.19047621e-02 1.19047621e-02 0. 0. 0.
      0. 1.19047621e-02 0. 0. 0. 0. 0. 0. 0. 0. 0. 0. 0. 0. 0. 0.
      1.19047621e-02 0. 0. 1.19047621e-02 0. 0. 0. 0. 0. 0.
      1.19047621e-02 0. 1.19047621e-02 0. 0. 0. 0. 0. 0. 0. 0. 0. 0. 0.
      0. 0. 1.19047621e-02 0. 1.19047621e-02 1.19047621e-02 0.
      1.19047621e-02 0. 1.19047621e-02 0. 0. 0. 0. 0. 0. 0. 0.
      1.19047621e-02 0. 0. 0. 0. 0. 0. 0. 0. 0. 0. 0. 0. 0. 0. 0. 0. 0.
      0. 0. 0. 0. 0. 0. 0. 0. 1.19047621e-02 0. 0. 0. 0. 0. 0.
      1.19047621e-02 0. 0. 0. 0. 0. 0. 1.19047621e-02 1.19047621e-02 0.
      0. 0. 0. 0. 0. 0. 0. 0. 0. 0. 0. 0. 0. 0. 0. 0. 0. 0. 0. 0. 0. 0.
      0. 0. 0. 0. 0. 0. 0. 0. 0. 1.19047621e-02 0. 0. 0. 0. 0. 0. 0. 0.
      0. 0. 1.19047621e-02 0. 0. 0. 0. 0. 0. 0. 0. 0. 0. 0. 0.
      1.19047621e-02 0. 0. 0. 0. 0. 0. 0. 0. 0. 0. 0. 0. 0. 0. 0. 0. 0.
      0. 0. 0. 0. 0. 0. 0. 0. 1.19047621e-02 0. 1.19047621e-02 0. 0. 0.
      0. 0. 0. 0. 1.19047621e-02 1.19047621e-02 1.19047621e-02 0. 0. 0.
      0. 0. 0. 0. 0. 0. 0. 0. 0. 0. 1.19047621e-02 0. 0. 0. 0. 0. 0. 0.
      0. 0. 0. 0. 0. 0. 0. 0. 0. 0. 0. 0. 0. 1.19047621e-02 0. 0. 0. 0.
      0. 0. 0. 0. 0. 0. 0. 0. 0. 0. 0. 0. 0. 0. 1.19047621e-02 0. 0. 0.
      0. 0. 1.19047621e-02 0. 0. 0. 0. 0. 0. 0. 0. 0. 0. 1.19047621e-02
      0. 0. 1.19047621e-02 1.19047621e-02 0. 1.19047621e-02 0. 0. 0. 0.
      0. 0. 0. 0. 0. 0. 0. 0. 0. 0. 0. 0. 0. 0. 0. 0. 0. 0. 0. 0. 0. 0.
      0. 0. 0. 0. 1.19047621e-02 0. 0. 0. 0. 0. 0. 0. 0. 0. 0. 0. 0. 0.
      0. 0. 0. 0. 0. 0. 0. 0. 0. 0. 1.19047621e-02 0. 0. 0. 0. 0. 0. 0.
      0. 0. 0. 0. 0. 0. 0. 0. 0. 0. 0. 0. 0. 0. 0. 0. 0. 0. 0. 0. 0.</_>
    <_>
      0. 0. 0. 0. 0. 6.45161280e-03 0. 0. 0. 0. 0. 0. 0. 6.45161280e-03
      0. 0. 0. 0. 0. 0. 0. 0. 0. 0. 6.45161280e-03 0. 0. 0. 0. 0. 0. 0.
      6.45161280e-03 6.45161280e-03 0. 0. 0. 0. 0. 0. 0. 6.45161280e-03
      0. 1.29032256e-02 6.45161280e-03 6.45161280e-03 0. 0. 0. 0. 0. 0.
      0. 0. 0. 0. 0. 0. 0. 0. 0. 0. 0. 0. 0. 0. 0. 0. 0. 0. 0. 0. 0. 0.
      0. 6.45161280e-03 1.29032256e-02 0. 0. 0. 0. 0. 0. 0. 0. 0. 0. 0.
      0. 0. 0. 0. 6.45161280e-03 0. 0. 0. 0. 6.45161280e-03 0. 0. 0.
      6.45161280e-03 0. 1.93548389e-02 0. 0. 0. 0. 0. 0. 0.
      6.45161280e-03 0. 0. 0. 0. 0. 0. 0. 0. 6.45161280e-03 0.
      1.29032256e-02 6.45161280e-03 0. 0. 0. 0. 0. 0. 0. 2.58064512e-02
      0. 6.45161280e-03 6.45161280e-03 0. 6.45161280e-03 0. 0. 0.
      1.29032256e-02 0. 1.29032256e-02 0. 0. 0. 0. 0. 0. 0. 0. 0. 0. 0.
      0. 0. 6.45161280e-03 0. 0. 0. 0. 0. 0. 0. 0. 0. 0. 0. 0. 0. 0. 0.
      0. 0. 0. 0. 0. 0. 0. 0. 0. 0. 0. 0. 0. 6.45161280e-03 0. 0. 0. 0.
      0. 6.45161280e-03 0. 0. 0. 0. 0. 0. 0. 0. 1.29032256e-02 0. 0. 0.
      0. 0. 0. 0. 0. 0. 6.45161280e-03 0. 0. 0. 0. 6.45161280e-03 0.
      6.45161280e-03 0. 0. 0. 0. 0. 0. 0. 0. 0. 6.45161280e-03 0. 0. 0.
      0. 0. 0. 0. 0. 6.45161280e-03 0. 0. 0. 0. 6.45161280e-03 0. 0. 0.
      0. 0. 0. 0. 0. 0. 0. 0. 0. 0. 0. 0. 6.45161280e-03 0. 0. 0. 0. 0.
      0. 0. 0. 6.45161280e-03 0. 0. 0. 0. 6.45161280e-03 0. 0. 0. 0. 0.
      0. 0. 0. 0. 0. 0. 0. 0. 0. 0. 0. 0. 0. 0. 0. 0. 0. 0. 0. 0. 0. 0.
      0. 0. 0. 0. 6.45161280e-03 0. 6.45161280e-03 0. 0. 0.
      6.45161280e-03 0. 6.45161280e-03 0. 0. 0. 0. 0. 0. 0. 0. 0. 0. 0.
      6.45161280e-03 0. 0. 0. 0. 0. 0. 0. 6.45161280e-03 6.45161280e-03
      0. 0. 6.45161280e-03 0. 0. 0. 0. 0. 0. 0. 0. 0. 0. 0. 0. 0. 0. 0.
      0. 0. 6.45161280e-03 0. 6.45161280e-03 0. 1.93548389e-02 0. 0. 0.
      0. 0. 0. 0. 0. 0. 0. 0. 0. 0. 0. 0. 0. 1.29032256e-02 0. 0.
      6.45161280e-03 0. 0. 0. 0. 0. 6.45161280e-03 1.29032256e-02 0. 0.
      0. 0. 0. 0. 0. 0. 0. 0. 0. 0. 0. 0. 0. 0. 0. 0. 0. 0. 0. 0. 0.
      6.45161280e-03 0. 0. 0. 0. 0. 0. 0. 0. 0. 6.45161280e-03 0. 0.
      6.45161280e-03 0. 0. 6.45161280e-03 0. 0. 0. 0. 0. 0. 0. 0. 0. 0.
      0. 0. 0. 0. 0. 0. 0. 0. 0. 0. 0. 1.29032256e-02 0. 0. 0. 0.
      6.45161280e-03 0. 0. 0. 0. 0. 6.45161280e-03 0. 6.45161280e-03 0.
      0. 6.45161280e-03 0. 0. 0. 0. 1.29032256e-02 0. 0. 0. 0.
      6.45161280e-03 0. 0. 0. 0. 0. 0. 0. 0. 0. 0. 0. 0. 0. 0. 0. 0. 0.
      0. 0. 0. 0. 0. 0. 0. 0. 6.45161280e-03 0. 0. 0. 0. 0. 0. 0. 0. 0.
      0. 0. 0. 0. 0. 0. 6.45161280e-03 0. 0. 0. 0. 0. 0. 0. 0. 0. 0. 0.
      0. 0. 0. 0. 0. 0. 0. 0. 0. 0. 0. 0. 0. 0. 0. 0. 1.29032256e-02 0.
      6.45161280e-03 0. 0. 0. 0. 0. 0. 0. 0. 0. 0. 6.45161280e-03 0. 0.
      0. 0. 0. 0. 6.45161280e-03 0. 0. 0. 0. 0. 1.29032256e-02 0.
      6.45161280e-03 0. 0. 0. 0. 0. 0. 0. 0. 6.45161280e-03 0. 0. 0. 0.
      6.45161280e-03 1.29032256e-02 0. 0. 6.45161280e-03 0. 0. 0. 0. 0.
      0. 0. 0. 0. 6.45161280e-03 0. 0. 6.45161280e-03 0. 0. 0. 0. 0. 0.
      0. 0. 0. 0. 0. 0. 0. 0. 0. 0. 6.45161280e-03 0. 0. 0. 0. 0. 0. 0.
      0. 0. 6.45161280e-03 0. 0. 0. 6.45161280e-03 0. 0. 0. 0. 0. 0.
