<?xml version="1.0"?>
<opencv_storage>
<my_svm type_id="opencv-ml-svm">
  <svm_type>NU_SVC</svm_type>
  <kernel><type>RBF</type>
    <gamma>1.</gamma></kernel>
  <nu>5.0000000000000003e-02</nu>
  <term_criteria><epsilon>2.2204460492503131e-16</epsilon>
    <iterations>5000</iterations></term_criteria>
  <var_all>1000</var_all>
  <var_count>1000</var_count>
  <class_count>2</class_count>
  <class_labels type_id="opencv-matrix">
    <rows>1</rows>
    <cols>2</cols>
    <dt>i</dt>
    <data>
      0 1</data></class_labels>
  <sv_total>373</sv_total>
  <support_vectors>
    <_>
      0. 0. 0. 0. 0. 0. 0. 0. 0. 0. 0. 0. 0. 7.09219836e-03
      7.09219836e-03 0. 0. 0. 7.09219836e-03 0. 0. 0. 0. 0. 0. 0. 0. 0.
      0. 0. 0. 0. 0. 0. 0. 0. 0. 0. 0. 1.41843967e-02 0. 0. 0.
      7.09219836e-03 0. 0. 0. 0. 0. 0. 0. 0. 1.41843967e-02 0. 0. 0. 0.
      0. 0. 0. 7.09219836e-03 0. 0. 0. 0. 0. 0. 0. 7.09219836e-03 0.
      7.09219836e-03 0. 0. 0. 0. 0. 0. 0. 0. 0. 0. 0. 0. 0. 0. 0. 0. 0.
      0. 0. 7.09219836e-03 0. 0. 0. 0. 0. 7.09219836e-03 0. 0. 0. 0. 0.
      0. 0. 0. 0. 0. 0. 0. 0. 0. 0. 0. 0. 0. 0. 0. 0. 0. 0. 0. 0. 0. 0.
      0. 0. 0. 0. 0. 7.09219836e-03 7.09219836e-03 0. 0. 0. 0. 0. 0. 0.
      1.41843967e-02 0. 0. 0. 0. 0. 0. 0. 0. 0. 0. 0. 7.09219836e-03 0.
      0. 0. 0. 0. 0. 0. 7.09219836e-03 7.09219836e-03 0. 0. 0. 0.
      7.09219836e-03 7.09219836e-03 0. 0. 0. 7.09219836e-03
      7.09219836e-03 7.09219836e-03 0. 7.09219836e-03 0. 7.09219836e-03
      0. 0. 0. 0. 0. 0. 0. 0. 0. 0. 0. 0. 0. 0. 0. 0. 0. 0.
      7.09219836e-03 0. 0. 0. 0. 0. 0. 0. 0. 0. 0. 0. 0. 0. 0. 0. 0.
      7.09219836e-03 0. 0. 0. 0. 0. 0. 0. 0. 7.09219836e-03 0.
      7.09219836e-03 0. 0. 0. 0. 7.09219836e-03 0. 7.09219836e-03 0. 0.
      0. 0. 0. 0. 0. 0. 0. 0. 0. 7.09219836e-03 1.41843967e-02 0. 0. 0.
      0. 0. 7.09219836e-03 0. 0. 0. 0. 0. 0. 0. 7.09219836e-03 0.
      7.09219836e-03 0. 0. 0. 0. 0. 0. 0. 7.09219836e-03 0.
      7.09219836e-03 0. 0. 0. 0. 0. 0. 0. 0. 0. 0. 0. 0. 0. 0. 0. 0. 0.
      0. 0. 0. 0. 0. 0. 7.09219836e-03 0. 0. 0. 0. 0. 0. 0. 0. 0. 0. 0.
      0. 0. 7.09219836e-03 0. 0. 0. 0. 0. 0. 0. 7.09219836e-03 0. 0. 0.
      0. 0. 7.09219836e-03 0. 0. 0. 0. 0. 0. 0. 7.09219836e-03 0.
      7.09219836e-03 0. 7.09219836e-03 0. 0. 0. 7.09219836e-03 0. 0. 0.
      0. 0. 0. 0. 0. 0. 0. 7.09219836e-03 0. 0. 0. 0. 0. 7.09219836e-03
      0. 0. 0. 7.09219836e-03 7.09219836e-03 0. 0. 0. 0. 0. 0. 0. 0. 0.
      0. 0. 0. 0. 0. 0. 0. 0. 0. 0. 0. 7.09219836e-03 0. 0. 0. 0. 0. 0.
      0. 0. 0. 0. 7.09219836e-03 0. 0. 0. 0. 0. 0. 0. 7.09219836e-03 0.
      0. 0. 0. 0. 0. 7.09219836e-03 0. 0. 0. 0. 7.09219836e-03 0. 0.
      7.09219836e-03 0. 0. 0. 0. 0. 0. 0. 0. 7.09219836e-03 0. 0. 0. 0.
      0. 0. 0. 0. 0. 0. 0. 7.09219836e-03 0. 0. 0. 0. 0. 0. 0. 0. 0. 0.
      0. 0. 0. 0. 7.09219836e-03 7.09219836e-03 0. 0. 0. 0. 0. 0. 0. 0.
      0. 7.09219836e-03 0. 0. 0. 0. 0. 0. 0. 0. 0. 0. 0. 0. 0. 0. 0.
      7.09219836e-03 0. 0. 0. 0. 0. 0. 0. 0. 0. 0. 0. 0. 0. 0. 0.
      7.09219836e-03 0. 7.09219836e-03 1.41843967e-02 7.09219836e-03 0.
      0. 7.09219836e-03 0. 0. 0. 0. 0. 0. 0. 1.41843967e-02 0. 0. 0. 0.
      0. 0. 7.09219836e-03 0. 0. 0. 0. 7.09219836e-03 0. 0. 0. 0. 0. 0.
      7.09219836e-03 0. 7.09219836e-03 0. 7.09219836e-03 0. 0. 0.
      7.09219836e-03 0. 0. 0. 0. 0. 7.09219836e-03 0. 0. 0. 0. 0.
      7.09219836e-03 0. 0. 0. 0. 0. 0. 0. 0. 0. 7.09219836e-03 0. 0. 0.
      7.09219836e-03 0. 0. 0. 0. 0. 7.09219836e-03 0. 0. 0. 0. 0. 0. 0.
      0. 0. 0. 1.41843967e-02 0. 0. 0. 7.09219836e-03 0. 0. 0. 0. 0. 0.
      0. 7.09219836e-03 0. 7.09219836e-03 0. 0. 0. 0. 0. 0. 0.
      7.09219836e-03 0. 0. 0. 0. 0. 0. 0. 0. 0. 0. 0. 0. 0. 0. 0.
      7.09219836e-03 0. 0. 0. 0. 0. 0. 0. 0. 0. 0. 0. 0. 7.09219836e-03
      0. 7.09219836e-03 0. 0. 0. 7.09219836e-03 0. 0. 0. 0. 0. 0. 0. 0.
      7.09219836e-03 0. 7.09219836e-03 7.09219836e-03 0. 7.09219836e-03
      7.09219836e-03 0. 7.09219836e-03 0. 0. 0. 0. 0. 0. 0. 0. 0. 0. 0.
      0. 0. 7.09219836e-03 0. 0. 0. 0. 0. 0. 0. 0. 0. 0. 0.
      7.09219836e-03 0. 0. 0. 0. 0. 0. 7.09219836e-03 0. 0.
      7.09219836e-03 0. 0. 0. 0. 0. 7.09219836e-03 0. 0. 0. 0. 0. 0.
      7.09219836e-03 0. 0. 0. 0. 0. 0. 0. 0. 0. 0. 0. 0. 0. 0. 0. 0. 0.
      0. 7.09219836e-03 0. 0. 0. 0. 0. 0. 7.09219836e-03 0. 0.
      7.09219836e-03 0. 0. 0. 0. 0. 0. 0. 0. 0. 0. 0. 7.09219836e-03 0.
      0. 0. 0. 0. 0. 0. 0. 0. 0. 0. 0. 0. 0. 0. 0. 0. 0. 7.09219836e-03
      0. 0. 0. 0. 0. 7.09219836e-03 0. 0. 0. 0. 0. 7.09219836e-03 0. 0.
      0. 0. 7.09219836e-03 0. 0. 0. 0. 0. 7.09219836e-03 0. 0. 0. 0. 0.
      0. 7.09219836e-03 0. 0. 7.09219836e-03 0. 0. 7.09219836e-03 0. 0.
      0. 0. 0. 0. 0. 0. 0. 0. 0. 0. 0. 7.09219836e-03 0. 0. 0. 0. 0. 0.
      0. 0. 0. 0. 0. 0. 0. 0. 7.09219836e-03 0. 0. 7.09219836e-03 0. 0.
      0. 0. 0. 0. 0. 0. 0. 0. 0. 0. 0. 0. 7.09219836e-03 0. 0. 0. 0. 0.
      0. 0. 0. 7.09219836e-03 0. 0. 7.09219836e-03 0. 0. 0. 0. 0. 0. 0.
      0. 7.09219836e-03 0. 0. 0. 0. 7.09219836e-03 0. 0. 7.09219836e-03
      7.09219836e-03 0. 0. 0. 0. 0. 0. 0. 0. 0. 0. 0. 0. 7.09219836e-03
      0. 0. 0. 0. 0. 0. 0. 0. 0. 7.09219836e-03 0. 0. 0. 0.
      7.09219836e-03 0. 0. 0. 0. 7.09219836e-03 0. 0. 0. 0.
      7.09219836e-03 0. 0. 0. 0. 0. 0. 7.09219836e-03 0. 0. 0. 0. 0. 0.
      0. 0. 0. 7.09219836e-03 0. 0. 7.09219836e-03 0. 0. 0.
      7.09219836e-03 0. 0. 0. 0. 0. 0. 0. 0. 7.09219836e-03 0. 0. 0.
      1.41843967e-02 0. 0. 0. 0. 0. 0. 7.09219836e-03 0. 0. 0. 0. 0. 0.
      0. 0. 0. 0. 0. 0. 0. 0. 0. 0. 0. 0. 0. 0. 0. 0. 0. 0. 0. 0. 0. 0.
      0. 0. 0. 0. 0. 0. 0. 0. 0. 0. 0. 0. 0. 0. 0. 0.</_>
    <_>
      0. 1.66666675e-02 0. 0. 0. 0. 0. 0. 0. 1.66666675e-02 0. 0. 0. 0.
      0. 0. 0. 0. 0. 0. 1.66666675e-02 0. 0. 0. 3.33333351e-02 0. 0. 0.
      0. 0. 0. 0. 0. 0. 0. 1.66666675e-02 0. 0. 0. 0. 0. 0. 0. 0. 0. 0.
      1.66666675e-02 0. 0. 0. 0. 1.66666675e-02 0. 0. 0. 0. 0. 0. 0. 0.
      0. 0. 0. 0. 0. 0. 0. 0. 0. 0. 0. 0. 0. 0. 0. 0. 0. 0. 0. 0. 0. 0.
      1.66666675e-02 0. 0. 0. 0. 0. 1.66666675e-02 0. 0. 0.
      1.66666675e-02 0. 0. 0. 0. 0. 0. 0. 0. 0. 0. 0. 0. 0. 0. 0. 0. 0.
      1.66666675e-02 0. 0. 0. 0. 0. 0. 0. 0. 0. 0. 0. 0. 0. 0. 0. 0. 0.
      0. 0. 0. 0. 0. 0. 0. 0. 0. 0. 0. 0. 0. 0. 0. 0. 0. 0. 0. 0. 0. 0.
      0. 0. 0. 0. 0. 0. 0. 0. 0. 0. 0. 0. 0. 0. 0. 0. 0. 0. 0. 0. 0. 0.
      0. 0. 0. 0. 0. 0. 0. 0. 0. 0. 0. 0. 0. 0. 0. 0. 0. 0. 0. 0. 0. 0.
      0. 0. 0. 0. 1.66666675e-02 0. 0. 0. 0. 0. 0. 0. 0. 0. 0. 0. 0. 0.
      0. 0. 0. 1.66666675e-02 0. 0. 0. 0. 0. 0. 0. 0. 0. 0. 0.
      1.66666675e-02 0. 1.66666675e-02 0. 0. 0. 0. 1.66666675e-02 0. 0.
      0. 0. 0. 0. 1.66666675e-02 0. 1.66666675e-02 0. 0. 0. 0. 0. 0. 0.
      0. 0. 0. 0. 0. 0. 0. 0. 0. 0. 0. 0. 0. 0. 0. 0. 0. 0. 0. 0. 0. 0.
      0. 0. 0. 0. 0. 0. 0. 0. 0. 0. 0. 0. 0. 1.66666675e-02 0. 0. 0. 0.
      0. 0. 0. 0. 0. 0. 0. 0. 0. 0. 1.66666675e-02 0. 0. 0. 0. 0. 0. 0.
      0. 0. 0. 0. 0. 0. 0. 0. 0. 0. 0. 0. 3.33333351e-02 1.66666675e-02
      0. 0. 0. 0. 0. 0. 0. 0. 0. 0. 0. 0. 0. 0. 0. 0. 0. 0. 0.
      1.66666675e-02 0. 0. 0. 0. 0. 0. 0. 0. 0. 0. 0. 0. 0. 0. 0. 0. 0.
      0. 0. 0. 0. 0. 0. 0. 0. 0. 0. 0. 0. 0. 0. 0. 0. 1.66666675e-02 0.
      0. 0. 0. 0. 0. 0. 0. 0. 0. 0. 0. 0. 0. 0. 0. 0. 0. 0. 0. 0. 0. 0.
      0. 0. 0. 3.33333351e-02 0. 0. 0. 0. 0. 0. 0. 0. 0. 0. 0. 0. 0. 0.
      0. 0. 0. 0. 0. 0. 0. 0. 0. 0. 0. 0. 1.66666675e-02 0. 0. 0. 0. 0.
      0. 0. 0. 0. 0. 0. 0. 0. 0. 0. 0. 0. 0. 0. 0. 1.66666675e-02 0. 0.
      0. 0. 0. 0. 0. 0. 0. 0. 1.66666675e-02 0. 0. 0. 0. 0.
      1.66666675e-02 0. 0. 0. 0. 0. 0. 1.66666675e-02 0. 0. 0. 0. 0. 0.
      0. 0. 0. 0. 0. 0. 0. 0. 3.33333351e-02 0. 0. 0. 0. 0. 0. 0. 0. 0.
      0. 0. 0. 0. 0. 0. 0. 1.66666675e-02 0. 0. 0. 0. 0. 0.
      1.66666675e-02 0. 0. 0. 0. 0. 0. 0. 0. 0. 1.66666675e-02 0. 0. 0.
      1.66666675e-02 0. 0. 0. 0. 0. 0. 0. 0. 0. 1.66666675e-02 0. 0. 0.
      0. 0. 0. 0. 0. 0. 0. 0. 0. 0. 0. 0. 0. 0. 0. 0. 0. 0. 0. 0.
      1.66666675e-02 0. 0. 0. 0. 0. 0. 0. 0. 0. 0. 0. 0. 0.
      1.66666675e-02 0. 0. 1.66666675e-02 0. 0. 0. 0. 0. 0. 0. 0. 0. 0.
      0. 0. 0. 0. 0. 0. 0. 0. 0. 0. 0. 0. 0. 0. 0. 0. 0. 0. 0.
      1.66666675e-02 0. 0. 0. 0. 0. 0. 0. 0. 0. 0. 0. 0. 0. 0. 0. 0. 0.
      0. 0. 0. 0. 0. 0. 0. 0. 0. 0. 0. 0. 0. 0. 0. 0. 0. 0. 0. 0. 0. 0.
      0. 0. 0. 0. 0. 0. 0. 0. 0. 0. 0. 0. 0. 0. 0. 0. 0. 0. 0. 0. 0. 0.
      0. 0. 0. 1.66666675e-02 0. 0. 0. 0. 0. 0. 0. 0. 0. 0. 0. 0. 0. 0.
      0. 0. 0. 0. 0. 0. 1.66666675e-02 0. 0. 0. 0. 0. 0. 0. 0. 0. 0. 0.
      0. 0. 0. 0. 0. 0. 0. 0. 0. 0. 0. 0. 0. 0. 0. 0. 0. 0. 0. 0. 0. 0.
      0. 0. 0. 1.66666675e-02 0. 0. 0. 0. 0. 0. 0. 1.66666675e-02 0. 0.
      0. 0. 0. 0. 0. 0. 0. 0. 0. 0. 0. 0. 0. 0. 0. 0. 0. 0. 0. 0. 0. 0.
      0. 0. 0. 0. 0. 0. 0. 0. 0. 0. 0. 0. 0. 0. 0. 0. 1.66666675e-02
      1.66666675e-02 0. 1.66666675e-02 0. 0. 1.66666675e-02 0. 0. 0. 0.
      0. 0. 0. 0. 0. 0. 0. 0. 0. 0. 0. 0. 0. 0. 0. 1.66666675e-02 0. 0.
      0. 0. 0. 0. 0. 0. 0. 0. 0. 0. 0. 0. 0. 0. 1.66666675e-02 0. 0. 0.
      0. 0. 0. 0. 0. 0. 0. 0. 1.66666675e-02 0. 0. 0. 0. 0. 0. 0. 0. 0.
      0. 0. 0. 0. 0. 0. 0. 0. 0. 0. 0. 0. 0. 0. 0. 0. 1.66666675e-02 0.
      0. 1.66666675e-02 0. 0. 0. 0. 0. 0. 0. 0. 0. 0. 0. 0. 0. 0. 0. 0.
      0. 0. 0. 0. 0. 0. 0. 0. 0. 0. 0. 1.66666675e-02 0. 0. 0. 0. 0. 0.
      0. 0. 0. 0. 0. 0. 0. 0. 0. 0. 0. 0. 0. 0. 0. 0. 0. 0. 0. 0. 0. 0.
      0. 0. 0. 0. 0. 0. 0. 0. 0. 0. 0. 0. 0. 1.66666675e-02 0. 0. 0. 0.
      0. 0. 0. 0. 0. 0. 0. 0. 0. 0. 0. 0. 0. 0. 0. 0. 0. 0. 0. 0. 0. 0.
      0. 0. 0. 0. 0. 0. 0. 0. 0. 0. 0. 0. 1.66666675e-02 0. 0. 0. 0. 0.
      0. 0. 0. 0. 0. 0. 0. 0. 0. 0. 0. 0. 0. 0. 0. 0. 0. 0. 0. 0.</_>
    <_>
      0. 0. 0. 0. 0. 8.33333377e-03 0. 0. 0. 0. 0. 0. 0. 0. 0. 0. 0. 0.
      0. 0. 0. 8.33333377e-03 0. 0. 0. 0. 0. 0. 0. 0. 0. 0.
      8.33333377e-03 0. 0. 0. 0. 0. 8.33333377e-03 0. 0. 0. 0. 0.
      1.66666675e-02 0. 0. 0. 0. 0. 0. 0. 0. 0. 0. 0. 0. 0. 0. 0. 0. 0.
      0. 8.33333377e-03 0. 0. 0. 0. 0. 0. 0. 0. 0. 0. 0. 0. 0.
      8.33333377e-03 0. 8.33333377e-03 0. 0. 0. 0. 0. 0. 0. 0. 0. 0. 0.
      0. 0. 1.66666675e-02 0. 0. 0. 0. 0. 0. 8.33333377e-03 0. 0.
      1.66666675e-02 0. 0. 0. 8.33333377e-03 0. 8.33333377e-03 0. 0. 0.
      0. 0. 0. 8.33333377e-03 0. 0. 0. 0. 8.33333377e-03 0. 0. 0. 0. 0.
      8.33333377e-03 0. 0. 0. 0. 0. 0. 0. 0. 0. 8.33333377e-03 0. 0. 0.
      0. 0. 0. 8.33333377e-03 0. 0. 0. 0. 0. 0. 0. 0. 0. 0. 0. 0. 0. 0.
      0. 0. 0. 0. 0. 0. 0. 0. 0. 0. 0. 0. 0. 0. 0. 0. 8.33333377e-03 0.
      0. 0. 8.33333377e-03 0. 0. 0. 0. 8.33333377e-03 0. 0. 0. 0. 0. 0.
      1.66666675e-02 8.33333377e-03 0. 0. 0. 0. 0. 0. 0. 0. 0. 0. 0. 0.
      0. 0. 0. 0. 8.33333377e-03 0. 0. 0. 0. 8.33333377e-03 0. 0. 0. 0.
      8.33333377e-03 0. 0. 8.33333377e-03 0. 0. 0. 0. 0. 0. 0. 0. 0. 0.
      0. 0. 0. 0. 8.33333377e-03 0. 0. 0. 0. 0. 0. 0. 0. 0. 0. 0. 0. 0.
      0. 0. 0. 0. 8.33333377e-03 0. 0. 0. 0. 0. 0. 0. 8.33333377e-03 0.
      0. 0. 0. 0. 0. 0. 0. 0. 0. 8.33333377e-03 0. 0. 0. 8.33333377e-03
      0. 0. 0. 0. 0. 0. 0. 0. 0. 8.33333377e-03 8.33333377e-03 0. 0. 0.
      0. 8.33333377e-03 0. 0. 0. 8.33333377e-03 0. 0. 0. 0. 0. 0. 0. 0.
      0. 0. 0. 0. 0. 0. 0. 0. 0. 0. 0. 8.33333377e-03 0. 0. 0. 0. 0. 0.
      0. 0. 0. 0. 0. 0. 0. 0. 0. 0. 8.33333377e-03 0. 0. 0. 0. 0. 0. 0.
      0. 0. 0. 0. 0. 8.33333377e-03 0. 0. 0. 0. 8.33333377e-03 0. 0. 0.
      1.66666675e-02 0. 0. 0. 0. 0. 0. 0. 0. 0. 0. 0. 0. 0. 0. 0. 0. 0.
      0. 0. 0. 0. 0. 0. 0. 0. 0. 0. 0. 0. 0. 0. 0. 0. 0. 8.33333377e-03
      0. 0. 0. 0. 8.33333377e-03 0. 0. 0. 8.33333377e-03 8.33333377e-03
      0. 0. 0. 0. 8.33333377e-03 0. 0. 0. 0. 0. 0. 0. 0. 0. 0. 0. 0. 0.
      0. 0. 0. 0. 0. 0. 0. 0. 0. 0. 0. 0. 0. 0. 0. 8.33333377e-03 0. 0.
      0. 0. 0. 0. 0. 0. 0. 0. 8.33333377e-03 0. 0. 0. 0. 0.
      8.33333377e-03 8.33333377e-03 0. 8.33333377e-03 0. 0. 0. 0. 0. 0.
      0. 0. 0. 0. 1.66666675e-02 8.33333377e-03 0. 0. 0. 0. 0. 0.
      8.33333377e-03 0. 0. 0. 0. 0. 0. 0. 0. 0. 0. 0. 0. 8.33333377e-03
      0. 0. 8.33333377e-03 0. 0. 0. 0. 0. 0. 0. 0. 0. 0. 0. 0.
      8.33333377e-03 0. 8.33333377e-03 8.33333377e-03 0. 0. 0. 0.
      8.33333377e-03 0. 0. 0. 0. 0. 0. 8.33333377e-03 0. 8.33333377e-03
      0. 0. 0. 0. 0. 0. 0. 0. 0. 0. 0. 0. 0. 0. 0. 8.33333377e-03 0. 0.
      0. 0. 0. 0. 0. 0. 8.33333377e-03 0. 0. 0. 0. 0. 0. 0.
      8.33333377e-03 0. 0. 0. 0. 0. 0. 0. 0. 1.66666675e-02
      8.33333377e-03 0. 0. 0. 0. 0. 0. 0. 0. 0. 0. 8.33333377e-03 0. 0.
      0. 0. 0. 0. 0. 8.33333377e-03 8.33333377e-03 8.33333377e-03 0. 0.
      0. 0. 0. 0. 0. 0. 0. 0. 0. 0. 0. 0. 0. 0. 0. 0. 0. 8.33333377e-03
      0. 0. 0. 0. 0. 0. 0. 0. 0. 8.33333377e-03 0. 0. 0. 0. 0. 0.
      8.33333377e-03 8.33333377e-03 0. 0. 0. 0. 8.33333377e-03 0. 0. 0.
      0. 0. 0. 0. 0. 0. 0. 0. 8.33333377e-03 0. 0. 0. 0. 0. 0. 0. 0. 0.
      0. 0. 8.33333377e-03 0. 8.33333377e-03 0. 0. 0. 0. 0. 0. 0. 0. 0.
      0. 0. 0. 0. 0. 0. 0. 0. 0. 0. 8.33333377e-03 0. 0. 0. 0. 0. 0.
      8.33333377e-03 0. 0. 0. 0. 0. 0. 0. 0. 0. 1.66666675e-02 0. 0. 0.
      0. 0. 0. 0. 0. 0. 0. 0. 0. 0. 0. 0. 0. 8.33333377e-03 0. 0. 0. 0.
      0. 0. 0. 0. 0. 0. 0. 0. 0. 0. 0. 0. 0. 0. 0. 0. 0. 0. 0. 0. 0. 0.
      0. 0. 0. 0. 0. 0. 0. 0. 0. 0. 8.33333377e-03 0. 0. 0. 0. 0.
      8.33333377e-03 0. 8.33333377e-03 8.33333377e-03 0. 0. 0. 0. 0. 0.
      0. 0. 0. 0. 0. 0. 0. 0. 0. 0. 0. 0. 0. 0. 8.33333377e-03 0. 0. 0.
      0. 8.33333377e-03 0. 8.33333377e-03 0. 0. 8.33333377e-03 0. 0. 0.
      0. 0. 0. 0. 0. 0. 0. 0. 0. 0. 0. 0. 0. 0. 0. 0. 0. 8.33333377e-03
      0. 0. 0. 0. 0. 0. 0. 0. 0. 0. 0. 0. 0. 0. 0. 0. 0. 0. 0. 0. 0. 0.
      0. 0. 0. 8.33333377e-03 8.33333377e-03 0. 0. 0. 0. 0.
      8.33333377e-03 0. 0. 0. 0. 0. 0. 0. 0. 0. 0. 0. 0. 0. 0. 0.
      8.33333377e-03 0. 0. 0. 0. 0. 0. 0. 8.33333377e-03 0. 0. 0. 0. 0.
      0. 0. 0. 8.33333377e-03 0. 0. 0. 8.33333377e-03 8.33333377e-03 0.
      0. 0. 0. 0. 0. 0. 0. 0. 0. 0. 0. 0. 0. 0. 0. 1.66666675e-02 0. 0.
      0. 0. 0. 0. 0. 8.33333377e-03 0. 0. 0. 8.33333377e-03 0. 0. 0.
      8.33333377e-03 0. 0. 0. 8.33333377e-03 0. 0. 0. 0. 0. 0. 0. 0. 0.
      0. 0. 0. 8.33333377e-03 0. 0. 0. 8.33333377e-03 0. 0. 0. 0. 0.
      8.33333377e-03 0. 0. 0. 0. 0. 0. 0. 8.33333377e-03 0. 0. 0. 0. 0.
      0. 8.33333377e-03 0. 0. 0. 0. 0. 0. 0. 0. 0. 0. 0. 0. 0. 0. 0. 0.
      0. 0. 0. 0. 0. 0. 0. 0. 0. 0. 0. 0. 8.33333377e-03 0. 0. 0. 0. 0.
      0. 0. 0. 0. 0. 0. 0. 0. 0. 0. 0. 0. 0.</_>
    <_>
      0. 0. 0. 0. 0. 0. 0. 0. 0. 0. 0. 0. 0. 0. 0. 1.29870130e-02 0. 0.
      0. 0. 0. 0. 0. 0. 0. 0. 0. 0. 0. 0. 0. 0. 0. 0. 0. 0. 0. 0. 0. 0.
      0. 0. 0. 0. 0. 0. 0. 0. 0. 0. 0. 0. 0. 0. 0. 0. 0. 0. 0. 0. 0. 0.
      0. 1.29870130e-02 1.29870130e-02 0. 0. 0. 0. 0. 0. 0. 0. 0. 0. 0.
      0. 0. 0. 0. 0. 0. 0. 0. 0. 0. 0. 0. 0. 0. 0. 0. 0. 0.
      1.29870130e-02 0. 0. 0. 1.29870130e-02 0. 0. 0. 0. 0. 0.
      1.29870130e-02 0. 0. 0. 0. 0. 1.29870130e-02 0. 0. 0. 0. 0. 0. 0.
      0. 0. 0. 0. 0. 0. 0. 0. 0. 0. 0. 0. 1.29870130e-02 0. 0. 0. 0. 0.
      1.29870130e-02 0. 0. 0. 0. 0. 0. 0. 0. 0. 0. 0. 0. 0. 0. 0. 0. 0.
      0. 0. 0. 0. 0. 0. 0. 0. 0. 0. 0. 0. 0. 0. 0. 0. 0. 0. 0. 0. 0. 0.
      0. 0. 0. 0. 0. 1.29870130e-02 0. 0. 0. 0. 0. 0. 0. 0. 0. 0. 0. 0.
      0. 0. 0. 0. 1.29870130e-02 0. 0. 0. 0. 0. 0. 0. 0. 0. 0. 0. 0. 0.
      0. 0. 0. 0. 0. 0. 0. 0. 0. 0. 0. 0. 0. 0. 0. 0. 0. 0. 0.
      1.29870130e-02 0. 0. 0. 0. 0. 0. 0. 0. 0. 0. 0. 0. 1.29870130e-02
      0. 0. 0. 0. 0. 0. 0. 0. 0. 0. 0. 0. 0. 0. 0. 0. 0. 0. 0. 0. 0. 0.
      0. 0. 0. 0. 0. 1.29870130e-02 0. 0. 0. 0. 0. 0. 0. 0. 0. 0. 0. 0.
      0. 0. 0. 1.29870130e-02 0. 0. 1.29870130e-02 0. 0. 0. 0. 0. 0. 0.
      0. 0. 0. 0. 0. 0. 0. 0. 0. 0. 0. 0. 0. 0. 0. 0. 0. 0. 0. 0. 0.
      1.29870130e-02 0. 0. 0. 0. 0. 1.29870130e-02 0. 0. 0. 0. 0. 0. 0.
      0. 0. 0. 0. 0. 0. 0. 1.29870130e-02 0. 0. 0. 0. 0. 0. 0. 0. 0. 0.
      0. 0. 0. 0. 0. 0. 0. 0. 1.29870130e-02 0. 0. 1.29870130e-02 0. 0.
      0. 0. 0. 0. 0. 0. 0. 0. 0. 1.29870130e-02 0. 0. 0. 0. 0. 0.
      2.59740259e-02 0. 0. 0. 0. 0. 0. 3.89610380e-02 0. 0. 0. 0. 0. 0.
      0. 0. 0. 0. 0. 0. 0. 0. 0. 0. 0. 0. 0. 1.29870130e-02 0. 0. 0. 0.
      0. 0. 0. 1.29870130e-02 0. 0. 0. 0. 0. 0. 0. 0. 0. 0. 0.
      1.29870130e-02 0. 0. 0. 0. 0. 0. 0. 0. 0. 0. 0. 0. 0. 0.
      1.29870130e-02 0. 0. 0. 0. 0. 0. 0. 0. 0. 0. 0. 0. 0. 0. 0. 0.
      1.29870130e-02 0. 0. 0. 0. 0. 0. 0. 0. 0. 0. 0. 0. 0. 0. 0. 0. 0.
      0. 1.29870130e-02 0. 0. 0. 0. 0. 0. 0. 0. 0. 0. 0. 0. 0. 0.
      1.29870130e-02 0. 0. 0. 0. 0. 0. 0. 0. 0. 1.29870130e-02 0. 0. 0.
      0. 0. 0. 0. 0. 0. 0. 0. 0. 0. 0. 0. 0. 0. 0. 0. 0. 0.
      1.29870130e-02 0. 1.29870130e-02 0. 0. 0. 0. 1.29870130e-02
      1.29870130e-02 0. 0. 0. 0. 0. 0. 0. 0. 0. 0. 0. 0. 0. 0.
      1.29870130e-02 0. 0. 0. 0. 0. 0. 0. 0. 0. 0. 1.29870130e-02 0. 0.
      0. 0. 0. 0. 0. 0. 0. 0. 0. 0. 0. 0. 0. 1.29870130e-02
      1.29870130e-02 0. 0. 0. 0. 0. 0. 0. 0. 1.29870130e-02 0. 0. 0. 0.
      1.29870130e-02 0. 0. 0. 0. 0. 0. 0. 0. 0. 0. 0. 0. 0. 0. 0. 0. 0.
      0. 0. 0. 0. 0. 1.29870130e-02 0. 0. 1.29870130e-02 0. 0. 0. 0. 0.
      0. 0. 0. 0. 0. 0. 0. 0. 1.29870130e-02 0. 0. 0. 0. 0. 0. 0. 0. 0.
      0. 0. 0. 0. 0. 0. 0. 0. 0. 1.29870130e-02 0. 0. 0. 0. 0. 0. 0. 0.
      0. 0. 0. 0. 0. 0. 0. 0. 0. 0. 0. 0. 0. 0. 0. 0. 0. 0. 0. 0. 0. 0.
      0. 0. 0. 0. 0. 0. 0. 0. 0. 0. 2.59740259e-02 0. 0. 0. 0. 0. 0. 0.
      0. 0. 0. 0. 1.29870130e-02 0. 0. 0. 0. 0. 0. 0. 0. 0. 0. 0. 0. 0.
      0. 0. 0. 0. 0. 0. 0. 0. 0. 0. 1.29870130e-02 0. 0. 0. 0. 0. 0. 0.
      0. 1.29870130e-02 0. 0. 0. 0. 0. 0. 0. 0. 0. 1.29870130e-02 0. 0.
      0. 0. 0. 0. 0. 0. 0. 0. 0. 0. 0. 0. 0. 0. 0. 0. 0. 1.29870130e-02
      0. 0. 3.89610380e-02 0. 0. 0. 0. 1.29870130e-02 0. 0. 0. 0.
      1.29870130e-02 0. 0. 0. 0. 0. 0. 0. 0. 0. 0. 0. 0. 0. 0. 0. 0. 0.
      0. 1.29870130e-02 0. 0. 0. 0. 0. 0. 0. 0. 0. 0. 0. 0. 0. 0. 0. 0.
      0. 0. 0. 0. 0. 0. 0. 0. 0. 0. 0. 0. 0. 0. 0. 0. 0. 0. 0. 0. 0. 0.
      0. 0. 0. 0. 0. 0. 0. 0. 0. 0. 0. 0. 0. 0. 0. 0. 0. 0. 0. 0.
      1.29870130e-02 0. 0. 0. 0. 0. 0. 0. 0. 0. 0. 0. 0. 1.29870130e-02
      0. 0. 0. 0. 0. 0. 2.59740259e-02 0. 0. 0. 0. 1.29870130e-02 0. 0.
      0. 1.29870130e-02 0. 0. 0. 0. 0. 0. 0. 0. 0. 0. 0. 1.29870130e-02
      0. 0. 0. 0. 0. 0. 0. 0. 0. 0. 0. 0. 0. 0. 0. 0. 0. 0. 0. 0. 0. 0.
      0. 0. 0. 0. 0. 0. 0. 1.29870130e-02 1.29870130e-02 0. 0. 0. 0. 0.
      0. 0. 0. 0. 0. 0. 0. 0. 0. 2.59740259e-02 0. 0. 0. 0. 0. 0. 0.
      1.29870130e-02 0. 0. 1.29870130e-02 0. 0. 0. 0. 0. 0. 0. 0. 0. 0.
      0. 0. 0. 0. 0. 0. 1.29870130e-02 0. 0. 0. 0. 0. 0. 0. 0. 0. 0. 0.
      0. 0. 0. 0. 0. 0. 1.29870130e-02 0. 0. 0. 0. 0. 0. 0.</_>
    <_>
      0. 8.40336177e-03 8.40336177e-03 0. 0. 0. 0. 0. 0. 0. 0. 0. 0.
      1.68067235e-02 0. 0. 0. 0. 0. 0. 0. 0. 0. 8.40336177e-03 0.
      8.40336177e-03 0. 8.40336177e-03 0. 0. 8.40336177e-03 0. 0. 0. 0.
      0. 0. 0. 0. 0. 0. 0. 0. 0. 0. 0. 0. 0. 0. 8.40336177e-03
      8.40336177e-03 0. 0. 0. 0. 0. 0. 0. 0. 0. 0. 0. 0. 0. 0.
      8.40336177e-03 0. 8.40336177e-03 0. 0. 8.40336177e-03 0. 0. 0.
      8.40336177e-03 0. 0. 8.40336177e-03 0. 0. 0. 0. 0. 0. 0. 0. 0. 0.
      0. 0. 0. 0. 8.40336177e-03 0. 0. 0. 0. 0. 0. 0. 0. 0. 0. 0. 0. 0.
      0. 0. 0. 0. 0. 8.40336177e-03 0. 0. 0. 0. 0. 0. 0. 0. 0. 0. 0. 0.
      0. 0. 0. 0. 0. 0. 0. 0. 0. 0. 0. 0. 0. 0. 0. 0. 0. 0. 0. 0. 0. 0.
      0. 0. 0. 0. 0. 0. 0. 0. 0. 0. 0. 8.40336177e-03 0. 0.
      8.40336177e-03 0. 0. 1.68067235e-02 0. 0. 0. 0. 0. 0. 0. 0. 0. 0.
      8.40336177e-03 0. 0. 0. 0. 0. 0. 0. 0. 0. 0. 0. 8.40336177e-03 0.
      0. 0. 0. 0. 0. 8.40336177e-03 8.40336177e-03 0. 0. 0. 0. 0. 0. 0.
      0. 0. 0. 0. 0. 0. 0. 8.40336177e-03 0. 0. 0. 0. 0. 0. 0. 0. 0. 0.
      0. 0. 0. 0. 0. 0. 0. 0. 0. 0. 0. 0. 0. 0. 0. 0. 0. 0. 0.
      8.40336177e-03 0. 0. 0. 0. 0. 8.40336177e-03 8.40336177e-03 0. 0.
      0. 0. 0. 0. 0. 8.40336177e-03 0. 0. 0. 0. 0. 0. 8.40336177e-03 0.
      0. 8.40336177e-03 0. 0. 0. 0. 0. 0. 0. 0. 0. 0. 0. 8.40336177e-03
      0. 0. 0. 0. 0. 0. 0. 0. 0. 8.40336177e-03 0. 0. 0. 0. 0. 0. 0. 0.
      0. 0. 0. 0. 8.40336177e-03 0. 0. 0. 0. 8.40336177e-03
      8.40336177e-03 0. 0. 8.40336177e-03 0. 8.40336177e-03 0. 0. 0.
      8.40336177e-03 0. 0. 0. 0. 0. 0. 0. 0. 0. 0. 0. 0. 0. 0. 0. 0. 0.
      0. 8.40336177e-03 0. 8.40336177e-03 0. 0. 0. 0. 0. 0. 0.
      8.40336177e-03 0. 0. 0. 0. 0. 0. 8.40336177e-03 0. 0. 0. 0. 0. 0.
      0. 0. 0. 0. 0. 0. 0. 0. 0. 0. 0. 0. 1.68067235e-02 8.40336177e-03
      0. 0. 0. 0. 0. 0. 0. 0. 0. 0. 0. 0. 0. 8.40336177e-03 0. 0. 0. 0.
      0. 0. 0. 0. 0. 0. 0. 8.40336177e-03 0. 0. 0. 0. 0. 0. 0. 0.
      8.40336177e-03 0. 0. 0. 0. 0. 8.40336177e-03 0. 0. 0. 0. 0. 0. 0.
      8.40336177e-03 8.40336177e-03 0. 0. 8.40336177e-03 8.40336177e-03
      0. 0. 0. 0. 0. 8.40336177e-03 0. 0. 8.40336177e-03 0. 0. 0. 0. 0.
      0. 0. 8.40336177e-03 0. 0. 0. 0. 0. 0. 0. 0. 0. 0. 0. 0. 0. 0. 0.
      0. 0. 0. 8.40336177e-03 0. 0. 0. 0. 0. 0. 0. 0. 2.52100863e-02 0.
      0. 0. 0. 8.40336177e-03 0. 0. 0. 0. 0. 0. 0. 0. 0. 0. 0. 0. 0. 0.
      0. 0. 0. 0. 0. 0. 8.40336177e-03 8.40336177e-03 0. 8.40336177e-03
      0. 0. 0. 0. 0. 0. 0. 0. 0. 0. 0. 0. 0. 0. 0. 0. 0. 0. 0. 0.
      8.40336177e-03 0. 0. 0. 0. 0. 0. 0. 0. 0. 0. 0. 0. 0. 0. 0. 0. 0.
      0. 0. 1.68067235e-02 0. 0. 0. 0. 0. 0. 0. 0. 0. 0. 0. 0. 0. 0. 0.
      0. 0. 0. 0. 0. 0. 0. 0. 0. 8.40336177e-03 8.40336177e-03 0. 0. 0.
      0. 0. 0. 0. 0. 0. 0. 0. 0. 0. 0. 0. 0. 0. 0. 0. 0. 0. 0.
      1.68067235e-02 0. 0. 0. 0. 8.40336177e-03 0. 8.40336177e-03 0. 0.
      0. 0. 0. 0. 0. 0. 0. 0. 8.40336177e-03 0. 0. 0. 0. 0. 0. 0. 0. 0.
      0. 0. 0. 0. 0. 0. 0. 0. 0. 0. 0. 0. 0. 0. 0. 0. 0. 0. 0. 0. 0. 0.
      0. 0. 0. 0. 0. 0. 0. 8.40336177e-03 8.40336177e-03 0. 0. 0. 0. 0.
      0. 0. 0. 0. 0. 0. 0. 0. 0. 0. 0. 0. 0. 0. 0. 0. 0. 0. 0. 0. 0. 0.
      0. 0. 0. 0. 0. 0. 0. 0. 0. 0. 0. 0. 0. 0. 8.40336177e-03 0.
      8.40336177e-03 0. 0. 0. 0. 0. 0. 0. 8.40336177e-03 0. 0. 0. 0. 0.
      0. 1.68067235e-02 0. 0. 0. 0. 0. 0. 0. 0. 0. 0. 0. 8.40336177e-03
      0. 0. 0. 0. 1.68067235e-02 0. 0. 0. 0. 8.40336177e-03 0. 0. 0. 0.
      0. 0. 8.40336177e-03 0. 0. 0. 0. 0. 0. 0. 0. 0. 8.40336177e-03 0.
      0. 8.40336177e-03 8.40336177e-03 0. 0. 0. 0. 8.40336177e-03
      8.40336177e-03 0. 0. 0. 0. 0. 0. 0. 0. 0. 8.40336177e-03 0. 0. 0.
      0. 0. 0. 0. 0. 0. 0. 0. 0. 8.40336177e-03 0. 0. 0. 0. 0. 0. 0. 0.
      0. 0. 0. 0. 0. 0. 0. 0. 0. 0. 0. 0. 0. 0. 0. 8.40336177e-03 0.
      8.40336177e-03 0. 0. 0. 8.40336177e-03 0. 0. 0. 0. 0. 0. 0. 0. 0.
      0. 0. 0. 0. 8.40336177e-03 0. 0. 0. 0. 0. 0. 0. 0. 0. 0. 0. 0. 0.
      0. 8.40336177e-03 0. 0. 0. 0. 8.40336177e-03 0. 8.40336177e-03 0.
      0. 0. 0. 0. 0. 0. 0. 8.40336177e-03 0. 0. 0. 0. 0. 8.40336177e-03
      8.40336177e-03 8.40336177e-03 0. 0. 0. 0. 0. 0. 0. 0. 0. 0. 0. 0.
      0. 8.40336177e-03 0. 0. 0. 0. 8.40336177e-03 0. 0. 0. 0. 0. 0. 0.
      0. 0. 0. 0. 0. 0. 0. 0. 0. 0. 0. 0. 0. 0. 0. 0. 0. 0. 0. 0. 0. 0.
      0. 0. 0. 0. 0. 0. 0. 0. 8.40336177e-03 8.40336177e-03
      8.40336177e-03 0. 0. 0. 0. 0. 0. 0. 0. 8.40336177e-03 0. 0. 0. 0.
      0. 0. 0. 0. 0. 0. 0. 0. 0. 0. 0. 0. 0. 0. 0. 0. 0. 0. 0. 0. 0. 0.
      0. 0. 0. 2.52100863e-02 0. 0. 0. 0. 0. 0. 0. 0. 0. 0. 0. 0. 0. 0.
      0. 0. 0. 0. 0. 0. 0. 0. 0. 0. 0. 0. 0. 0. 0. 0. 0. 0. 0. 0.
      8.40336177e-03 0. 8.40336177e-03 1.68067235e-02 0. 0. 0.</_>
    <_>
      0. 0. 0. 0. 0. 0. 0. 0. 0. 0. 0. 0. 0. 0. 0. 0. 1.16279069e-02 0.
      0. 0. 0. 0. 0. 0. 0. 0. 0. 0. 0. 0. 0. 0. 0. 0. 0. 0. 0.
      1.16279069e-02 0. 0. 0. 0. 0. 0. 0. 0. 0. 0. 0. 0. 0. 0. 0. 0. 0.
      0. 0. 0. 0. 0. 0. 0. 0. 0. 0. 0. 0. 0. 0. 0. 0. 0. 0. 0. 0. 0. 0.
      0. 0. 0. 0. 2.32558139e-02 0. 0. 0. 0. 0. 0. 0. 0. 0. 0. 0. 0.
      1.16279069e-02 0. 0. 0. 0. 0. 0. 0. 0. 0. 1.16279069e-02 0. 0. 0.
      0. 0. 0. 0. 0. 0. 0. 0. 0. 1.16279069e-02 0. 0. 1.16279069e-02 0.
      0. 0. 1.16279069e-02 0. 1.16279069e-02 0. 0. 0. 0. 0. 0. 0. 0. 0.
      0. 0. 0. 0. 0. 0. 0. 0. 0. 0. 0. 0. 0. 0. 0. 0. 0. 0. 0. 0. 0. 0.
      0. 0. 0. 0. 0. 0. 0. 0. 0. 1.16279069e-02 1.16279069e-02 0. 0. 0.
      0. 1.16279069e-02 0. 0. 1.16279069e-02 0. 0. 0. 0. 0. 0. 0. 0. 0.
      0. 0. 0. 1.16279069e-02 0. 0. 0. 0. 0. 0. 0. 0. 0. 0. 0. 0. 0. 0.
      1.16279069e-02 0. 0. 0. 0. 0. 0. 0. 0. 0. 0. 0. 0. 1.16279069e-02
      0. 0. 0. 0. 0. 0. 1.16279069e-02 0. 0. 0. 0. 0. 0. 0. 0. 0. 0.
      1.16279069e-02 0. 0. 0. 0. 0. 0. 0. 0. 0. 0. 0. 0. 0. 0. 0. 0. 0.
      0. 0. 0. 0. 0. 0. 0. 0. 0. 0. 0. 0. 0. 0. 0. 0. 0. 0. 0. 0. 0. 0.
      0. 0. 0. 1.16279069e-02 0. 0. 0. 0. 0. 1.16279069e-02 0. 0. 0. 0.
      1.16279069e-02 0. 0. 0. 0. 0. 0. 0. 0. 0. 0. 0. 0. 0.
      1.16279069e-02 0. 0. 1.16279069e-02 0. 0. 1.16279069e-02
      1.16279069e-02 0. 0. 1.16279069e-02 0. 0. 0. 0. 0. 0. 0. 0.
      1.16279069e-02 0. 0. 0. 0. 0. 0. 0. 0. 0. 1.16279069e-02
      1.16279069e-02 0. 0. 0. 0. 0. 0. 0. 0. 0. 0. 0. 0. 0. 0. 0. 0. 0.
      0. 0. 0. 0. 0. 0. 0. 0. 0. 0. 1.16279069e-02 0. 0. 0. 0.
      1.16279069e-02 0. 0. 0. 0. 0. 0. 0. 0. 0. 0. 0. 0. 0. 0. 0. 0.
      1.16279069e-02 0. 0. 1.16279069e-02 0. 0. 0. 0. 0. 1.16279069e-02
      1.16279069e-02 0. 0. 0. 0. 0. 0. 0. 0. 0. 0. 0. 0. 0. 0. 0. 0. 0.
      0. 0. 0. 0. 0. 0. 0. 0. 0. 0. 0. 0. 0. 0. 0. 0. 0. 0. 0. 0. 0. 0.
      0. 0. 0. 0. 0. 0. 0. 1.16279069e-02 0. 0. 1.16279069e-02
      1.16279069e-02 0. 0. 0. 0. 0. 0. 1.16279069e-02 1.16279069e-02
      1.16279069e-02 1.16279069e-02 0. 0. 0. 0. 0. 0. 0. 0.
      1.16279069e-02 0. 0. 0. 0. 1.16279069e-02 0. 0. 0. 0. 0. 0.
      2.32558139e-02 0. 0. 3.48837227e-02 0. 0. 0. 0. 0. 0. 0. 0. 0. 0.
      0. 0. 0. 0. 0. 0. 0. 0. 0. 0. 0. 0. 0. 0. 0. 0. 0. 0.
      1.16279069e-02 0. 0. 0. 0. 0. 0. 0. 2.32558139e-02 0. 0. 0. 0. 0.
      0. 0. 0. 0. 0. 0. 0. 0. 0. 0. 0. 0. 0. 0. 0. 0. 0. 0. 0. 0.
      1.16279069e-02 0. 0. 0. 0. 0. 0. 0. 0. 0. 0. 0. 0. 0. 0. 0. 0. 0.
      0. 0. 0. 0. 0. 0. 0. 0. 0. 0. 0. 0. 0. 0. 0. 0. 0. 0. 0.
      1.16279069e-02 2.32558139e-02 0. 0. 0. 0. 0. 0. 0. 0. 0.
      2.32558139e-02 0. 0. 0. 0. 0. 0. 0. 0. 0. 0. 0. 0. 0. 0. 0.
      1.16279069e-02 0. 0. 0. 0. 0. 0. 0. 0. 0. 0. 0. 0. 0.
      1.16279069e-02 0. 0. 0. 0. 0. 0. 0. 0. 0. 0. 0. 0. 0. 0. 0. 0. 0.
      0. 0. 0. 0. 0. 0. 0. 0. 0. 0. 0. 0. 0. 0. 0. 0. 0. 2.32558139e-02
      0. 0. 0. 0. 0. 1.16279069e-02 0. 0. 0. 0. 0. 0. 0. 0. 0. 0.
      1.16279069e-02 0. 0. 0. 0. 0. 0. 0. 0. 0. 0. 0. 0. 0. 0. 0. 0. 0.
      0. 0. 0. 0. 0. 0. 1.16279069e-02 0. 0. 0. 0. 0. 1.16279069e-02 0.
      0. 0. 0. 0. 0. 0. 0. 0. 0. 0. 0. 0. 0. 0. 0. 0. 0. 0. 0. 0. 0. 0.
      0. 0. 0. 0. 0. 0. 0. 0. 0. 0. 0. 0. 0. 0. 0. 0. 0. 0. 0. 0. 0.
      1.16279069e-02 0. 0. 0. 0. 0. 0. 0. 0. 0. 0. 0. 0. 0. 0. 0. 0. 0.
      0. 0. 0. 0. 0. 1.16279069e-02 0. 0. 0. 0. 0. 0. 0. 0. 0. 0. 0. 0.
      0. 0. 1.16279069e-02 0. 0. 0. 0. 0. 0. 0. 0. 0. 0. 0. 0. 0. 0. 0.
      0. 0. 0. 0. 0. 0. 0. 0. 0. 0. 1.16279069e-02 0. 0. 0. 0. 0. 0. 0.
      0. 1.16279069e-02 0. 0. 0. 0. 0. 0. 0. 0. 1.16279069e-02
      2.32558139e-02 0. 0. 0. 0. 0. 1.16279069e-02 0. 0. 0. 0. 0. 0. 0.
      0. 0. 0. 0. 0. 0. 0. 0. 0. 0. 0. 0. 0. 0. 0. 0. 0. 0. 0. 0. 0. 0.
      0. 0. 0. 0. 0. 0. 0. 1.16279069e-02 0. 0. 0. 0. 0. 0. 0. 0. 0. 0.
      0. 0. 0. 0. 0. 0. 0. 0. 0. 0. 0. 0. 0. 0. 0. 0. 0. 0. 0.
      1.16279069e-02 0. 0. 0. 0. 0. 0. 1.16279069e-02 0. 0. 0. 0. 0. 0.
      0. 0. 0. 0. 0. 0. 0. 0. 0. 0. 0. 0. 0. 0. 0. 0. 0. 1.16279069e-02
      0. 0. 0. 0. 0. 0. 0. 0. 0. 0. 0. 0. 0. 0. 0. 0. 0. 0. 0. 0. 0. 0.
      0. 0. 0. 0. 0. 1.16279069e-02 0. 0. 0. 1.16279069e-02 0. 0. 0.
      1.16279069e-02 0. 0. 0. 0. 0. 0. 0. 0. 0. 0. 0. 0. 0. 0.
      1.16279069e-02 0. 0. 0. 0. 0. 0. 0. 0. 0. 1.16279069e-02 0. 0. 0.
      0. 1.16279069e-02</_>
    <_>
      0. 0. 0. 0. 0. 0. 0. 0. 0. 0. 0. 0. 0. 0. 1.25748515e-01 0. 0. 0.
      0. 0. 0. 0. 0. 0. 0. 0. 0. 0. 0. 1.19760484e-02 0. 1.19760484e-02
      0. 0. 5.98802418e-03 0. 0. 0. 0. 5.98802418e-03 0. 0. 0. 0.
      1.79640725e-02 5.98802418e-03 0. 5.98802418e-03 0. 0. 0. 0. 0.
      5.98802418e-03 0. 0. 0. 0. 0. 0. 0. 0. 0. 0. 5.98802418e-03 0. 0.
      0. 0. 5.98802418e-03 0. 0. 0. 5.98802418e-03 5.98802418e-03 0. 0.
      0. 0. 0. 0. 5.98802418e-03 0. 0. 0. 0. 0. 0. 5.98802418e-03 0. 0.
      0. 0. 5.98802418e-03 0. 0. 0. 5.98802418e-03 0. 0. 0. 0. 0. 0. 0.
      5.98802418e-03 0. 0. 0. 0. 0. 0. 5.98802418e-03 5.98802418e-03 0.
      0. 0. 0. 0. 0. 0. 0. 0. 0. 0. 0. 5.98802418e-03 0. 0. 0. 0. 0. 0.
      0. 0. 0. 5.98802418e-03 0. 5.98802418e-03 0. 0. 2.39520967e-02 0.
      0. 0. 0. 0. 0. 0. 0. 0. 0. 0. 5.98802418e-03 0. 0. 0. 0. 0. 0. 0.
      1.79640725e-02 0. 0. 0. 0. 0. 0. 0. 0. 0. 5.98802418e-03 0.
      5.98802418e-03 0. 0. 0. 0. 0. 0. 0. 0. 0. 0. 1.19760484e-02 0. 0.
      0. 0. 0. 0. 0. 0. 0. 0. 0. 0. 0. 0. 0. 0. 0. 0. 0. 0. 0. 0. 0. 0.
      0. 0. 0. 0. 0. 0. 0. 0. 0. 0. 0. 0. 0. 0. 0. 0. 0. 0. 0. 0. 0. 0.
      0. 0. 0. 0. 0. 0. 0. 0. 0. 0. 0. 0. 0. 0. 5.98802418e-03 0. 0. 0.
      0. 0. 0. 0. 0. 0. 0. 0. 0. 0. 0. 0. 0. 0. 0. 0. 0. 0. 0. 0. 0. 0.
      0. 0. 0. 0. 0. 0. 0. 0. 0. 0. 0. 0. 0. 0. 0. 0. 0. 5.98802418e-03
      0. 0. 5.98802418e-03 5.98802418e-03 0. 0. 5.98802418e-03 0. 0. 0.
      0. 0. 0. 0. 0. 0. 0. 0. 0. 0. 0. 0. 0. 0. 0. 0. 5.98802418e-03 0.
      5.98802418e-03 0. 0. 0. 0. 0. 0. 5.98802418e-03 0. 0. 0. 0. 0. 0.
      0. 0. 0. 0. 0. 0. 0. 0. 0. 0. 0. 0. 0. 0. 5.98802418e-03
      5.98802418e-03 0. 0. 0. 2.99401209e-02 0. 0. 0. 0. 0. 0. 0. 0. 0.
      0. 0. 0. 0. 0. 0. 0. 0. 1.19760484e-02 0. 5.98802418e-03
      5.98802418e-03 0. 0. 0. 0. 0. 5.98802418e-03 0. 0. 0. 0. 0. 0. 0.
      0. 0. 0. 0. 0. 0. 0. 0. 0. 0. 0. 0. 0. 0. 0. 0. 0. 0. 0. 0. 0. 0.
      0. 0. 0. 0. 0. 0. 0. 0. 0. 0. 5.98802418e-03 0. 0. 0. 0. 0. 0. 0.
      0. 0. 0. 0. 0. 0. 0. 0. 1.19760484e-02 0. 0. 0. 0. 0.
      4.79041934e-02 5.98802418e-03 0. 0. 1.19760484e-02 0. 0.
      5.98802418e-03 0. 0. 0. 5.98802418e-03 0. 0. 0. 0. 0. 0. 0. 0. 0.
      0. 0. 0. 0. 0. 0. 0. 0. 0. 0. 0. 0. 0. 0. 5.98802418e-03 0. 0. 0.
      0. 0. 0. 0. 0. 5.98802418e-03 0. 1.19760484e-02 0. 5.98802418e-03
      0. 0. 0. 5.98802418e-03 0. 0. 5.98802418e-03 0. 0. 0. 0. 0.
      5.98802418e-03 0. 0. 0. 1.01796411e-01 0. 0. 0. 5.98802418e-03 0.
      0. 0. 0. 0. 0. 0. 0. 0. 0. 0. 0. 0. 5.98802418e-03 0.
      5.98802418e-03 0. 0. 0. 0. 0. 0. 0. 0. 0. 0. 0. 0. 0. 0. 0. 0. 0.
      0. 5.98802418e-03 0. 0. 0. 0. 5.98802418e-03 0. 0. 0. 0. 0. 0. 0.
      5.98802418e-03 0. 0. 0. 0. 0. 0. 5.98802418e-03 0. 0. 0. 0. 0.
      2.39520967e-02 0. 0. 0. 0. 5.98802418e-03 0. 0. 0. 0. 0. 0. 0. 0.
      0. 0. 0. 0. 0. 0. 0. 0. 0. 0. 0. 0. 0. 0. 0. 0. 5.98802418e-03 0.
      0. 0. 0. 0. 0. 0. 0. 0. 0. 0. 0. 0. 0. 0. 0. 0. 0. 0. 0. 0. 0. 0.
      0. 0. 0. 0. 0. 0. 0. 0. 0. 5.98802418e-03 0. 0. 5.98802418e-03 0.
      0. 0. 0. 5.98802418e-03 0. 0. 0. 0. 5.98802418e-03 0. 0. 0. 0. 0.
      0. 0. 0. 0. 0. 0. 0. 0. 0. 0. 5.98802418e-03 0. 0. 0. 0. 0. 0.
      5.98802418e-03 0. 0. 0. 0. 0. 0. 0. 1.19760484e-02 0. 0. 0. 0. 0.
      0. 0. 0. 0. 0. 0. 5.98802418e-03 0. 0. 0. 0. 0. 0. 0. 0. 0. 0.
      5.98802418e-03 0. 0. 0. 0. 0. 0. 0. 0. 0. 0. 0. 0. 0. 0. 0. 0. 0.
      0. 0. 0. 0. 0. 0. 0. 0. 0. 0. 0. 0. 0. 0. 0. 0. 0. 0. 0. 0. 0. 0.
      0. 0. 0. 0. 0. 0. 0. 0. 0. 0. 0. 0. 0. 0. 0. 0. 0. 0. 0. 0. 0. 0.
      0. 0. 0. 0. 0. 0. 0. 0. 0. 0. 5.98802418e-03 0. 0. 0. 0. 0. 0. 0.
      0. 0. 0. 0. 0. 0. 0. 5.98802418e-03 0. 0. 0. 0. 0. 0. 0. 0. 0.
      5.98802418e-03 0. 0. 0. 0. 0. 0. 0. 0. 0. 0. 0. 0. 0. 0. 0. 0. 0.
      0. 0. 0. 0. 0. 0. 0. 0. 0. 0. 0. 0. 0. 0. 0. 0. 0. 0. 0. 0. 0. 0.
      0. 0. 0. 0. 0. 0. 5.98802418e-03 0. 0. 0. 0. 0. 0. 0. 0. 0. 0. 0.
      0. 0. 0. 0. 5.98802418e-03 0. 0. 0. 0. 0. 0. 0. 0. 5.98802418e-03
      0. 0. 0. 0. 0. 0. 0. 0. 0. 0. 0. 0. 0. 0. 0. 0. 0. 0. 0.
      5.98802418e-03 0. 0. 0. 0. 0. 5.98802418e-03 0. 0. 0. 0. 0. 0. 0.
      0. 0. 5.98802418e-03 0. 0. 0. 0. 0. 0. 0. 0. 5.98802418e-03 0.
      5.98802418e-03 0. 0. 0. 5.98802418e-03 0. 0. 0. 0. 0. 0.
      5.98802418e-03 0. 0. 0. 0. 0. 0. 0. 0. 5.98802418e-03 0. 0. 0. 0.
      0. 0. 0. 0. 0. 0. 0. 0. 0. 0. 0. 0. 5.98802418e-03 0. 0. 0. 0. 0.
      0. 0. 0. 0. 0. 0. 0. 0. 0. 2.39520967e-02 0. 0. 0. 0. 0. 0. 0.
      5.98802418e-03 0. 0. 0. 0. 0. 0. 0. 0. 0. 0. 0. 0. 0.
      5.98802418e-03 0. 0. 0. 0. 0. 0. 0. 0. 1.79640725e-02 0. 0.</_>
    <_>
      0. 0. 0. 8.06451589e-03 8.06451589e-03 0. 0. 0. 0. 0. 0. 0. 0. 0.
      0. 0. 0. 0. 0. 0. 0. 0. 8.06451589e-03 0. 0. 0. 0. 0. 0. 0. 0. 0.
      0. 0. 0. 0. 0. 0. 0. 0. 8.06451589e-03 0. 0. 0. 0. 0. 0. 0. 0. 0.
      0. 0. 8.06451589e-03 0. 0. 0. 0. 0. 0. 0. 8.06451589e-03 0. 0. 0.
      0. 8.06451589e-03 0. 0. 0. 0. 0. 0. 0. 0. 0. 0. 0. 0. 0. 0.
      8.06451589e-03 0. 8.06451589e-03 0. 0. 0. 0. 0. 0. 8.06451589e-03
      0. 0. 0. 0. 0. 0. 0. 8.06451589e-03 1.61290318e-02 0. 0. 0. 0. 0.
      0. 0. 0. 0. 0. 0. 0. 0. 0. 0. 0. 0. 0. 0. 8.06451589e-03 0. 0. 0.
      0. 0. 0. 0. 0. 0. 0. 0. 8.06451589e-03 0. 0. 0. 0. 0. 0. 0. 0. 0.
      0. 0. 0. 8.06451589e-03 0. 0. 0. 0. 0. 0. 1.61290318e-02 0. 0. 0.
      0. 0. 8.06451589e-03 8.06451589e-03 0. 0. 0. 0. 0. 0. 0. 0. 0. 0.
      8.06451589e-03 0. 0. 0. 8.06451589e-03 0. 0. 0. 0. 0. 0. 0.
      8.06451589e-03 0. 0. 0. 0. 0. 0. 0. 8.06451589e-03 0. 0. 0. 0. 0.
      0. 0. 8.06451589e-03 0. 8.06451589e-03 0. 0. 0. 0. 0.
      8.06451589e-03 0. 0. 0. 0. 0. 1.61290318e-02 0. 0. 0. 0. 0. 0. 0.
      0. 0. 0. 0. 0. 0. 0. 0. 0. 0. 8.06451589e-03 0. 0. 0. 0. 0. 0. 0.
      8.06451589e-03 0. 0. 0. 0. 0. 0. 0. 0. 8.06451589e-03
      8.06451589e-03 0. 0. 0. 8.06451589e-03 8.06451589e-03 0. 0. 0. 0.
      0. 0. 0. 0. 0. 0. 0. 8.06451589e-03 0. 0. 0. 0. 8.06451589e-03 0.
      0. 0. 0. 0. 0. 0. 0. 8.06451589e-03 0. 0. 0. 0. 0. 0. 0. 0. 0. 0.
      0. 0. 0. 0. 0. 0. 0. 0. 8.06451589e-03 0. 0. 0. 8.06451589e-03 0.
      0. 0. 0. 0. 0. 0. 0. 0. 0. 0. 0. 0. 0. 0. 0. 0. 0. 0. 0. 0. 0. 0.
      8.06451589e-03 0. 0. 8.06451589e-03 8.06451589e-03 0.
      1.61290318e-02 1.61290318e-02 8.06451589e-03 0. 0. 0. 0. 0. 0. 0.
      0. 0. 0. 0. 0. 0. 0. 0. 0. 0. 0. 0. 0. 0. 0. 0. 0. 0.
      8.06451589e-03 0. 0. 0. 0. 8.06451589e-03 0. 8.06451589e-03 0. 0.
      0. 0. 0. 0. 0. 0. 0. 0. 0. 0. 0. 0. 0. 0. 0. 0. 0. 0.
      8.06451589e-03 8.06451589e-03 0. 0. 0. 0. 8.06451589e-03 0. 0.
      8.06451589e-03 0. 0. 0. 0. 0. 0. 0. 0. 0. 0. 0. 0. 8.06451589e-03
      0. 0. 0. 0. 8.06451589e-03 0. 0. 8.06451589e-03 0. 8.06451589e-03
      0. 8.06451589e-03 0. 0. 0. 0. 0. 0. 0. 0. 0. 0. 0. 0. 0. 0. 0. 0.
      0. 0. 0. 0. 8.06451589e-03 0. 8.06451589e-03 0. 0. 0. 0. 0. 0.
      8.06451589e-03 0. 0. 0. 0. 0. 0. 0. 0. 8.06451589e-03 0. 0. 0. 0.
      0. 0. 0. 0. 2.41935477e-02 8.06451589e-03 0. 0. 0. 0. 0. 0. 0. 0.
      8.06451589e-03 0. 0. 0. 0. 0. 0. 0. 0. 0. 0. 0. 0. 0. 0. 0. 0. 0.
      0. 0. 0. 0. 0. 0. 0. 0. 0. 0. 0. 0. 0. 0. 0. 0. 0. 8.06451589e-03
      0. 0. 0. 0. 0. 0. 0. 0. 0. 0. 0. 0. 0. 0. 0. 0. 0. 0. 0. 0. 0.
      8.06451589e-03 0. 0. 0. 0. 0. 0. 0. 0. 0. 1.61290318e-02 0. 0. 0.
      0. 8.06451589e-03 0. 0. 0. 0. 8.06451589e-03 0. 0. 0. 0. 0.
      8.06451589e-03 0. 0. 8.06451589e-03 0. 8.06451589e-03 0. 0. 0. 0.
      0. 0. 0. 0. 0. 0. 0. 1.61290318e-02 8.06451589e-03 0. 0. 0. 0. 0.
      0. 0. 0. 0. 0. 0. 0. 0. 0. 0. 0. 0. 0. 0. 0. 0. 0. 8.06451589e-03
      0. 0. 0. 0. 0. 0. 0. 0. 0. 0. 0. 0. 0. 0. 0. 8.06451589e-03 0. 0.
      0. 0. 0. 8.06451589e-03 0. 0. 0. 0. 0. 0. 0. 0. 0. 0. 0. 0. 0. 0.
      0. 0. 0. 0. 0. 0. 0. 8.06451589e-03 0. 0. 0. 0. 0. 0. 0. 0. 0. 0.
      0. 0. 0. 8.06451589e-03 8.06451589e-03 0. 0. 0. 0. 0. 0. 0.
      8.06451589e-03 0. 0. 0. 0. 0. 0. 0. 0. 0. 8.06451589e-03 0. 0. 0.
      0. 0. 0. 0. 8.06451589e-03 0. 8.06451589e-03 0. 0. 0. 0. 0. 0. 0.
      0. 0. 8.06451589e-03 8.06451589e-03 0. 0. 0. 0. 8.06451589e-03 0.
      0. 0. 8.06451589e-03 0. 8.06451589e-03 8.06451589e-03 0. 0. 0. 0.
      0. 0. 0. 0. 0. 0. 0. 0. 0. 0. 8.06451589e-03 8.06451589e-03 0. 0.
      0. 8.06451589e-03 0. 0. 0. 0. 0. 0. 0. 0. 0. 0. 0. 8.06451589e-03
      0. 0. 0. 0. 8.06451589e-03 0. 0. 0. 0. 0. 0. 0. 0. 0. 0. 0. 0. 0.
      0. 0. 0. 0. 0. 0. 0. 0. 8.06451589e-03 0. 0. 0. 0. 0. 0.
      8.06451589e-03 0. 0. 0. 0. 0. 0. 0. 0. 8.06451589e-03 0. 0. 0. 0.
      0. 8.06451589e-03 0. 0. 0. 0. 0. 0. 0. 0. 0. 0. 8.06451589e-03 0.
      0. 8.06451589e-03 8.06451589e-03 0. 0. 0. 0. 0. 0. 0. 0. 0. 0. 0.
      0. 0. 0. 0. 0. 0. 0. 0. 0. 0. 0. 0. 0. 0. 8.06451589e-03 0. 0. 0.
      0. 8.06451589e-03 0. 0. 0. 0. 0. 0. 0. 0. 0. 0. 0. 0. 0. 0. 0. 0.
      0. 0. 0. 0. 0. 0. 0. 0. 0. 0. 0. 0. 0. 0. 0. 0. 0. 0. 0. 0. 0. 0.
      0. 0. 0. 0. 1.61290318e-02 8.06451589e-03 0. 0. 8.06451589e-03 0.
      0. 0. 0. 0. 0. 0. 0. 0. 0. 0. 0. 0. 0. 0. 0. 0. 0. 0. 0. 0. 0. 0.
      0. 0. 0. 0. 0. 0. 8.06451589e-03 0. 0. 0. 0. 0. 0. 0.
      8.06451589e-03 0. 0. 0. 0. 0. 8.06451589e-03 0. 0. 0. 0. 0. 0. 0.
      0. 0. 0. 0. 0. 0. 0. 0. 0. 0. 0. 0. 0. 0. 0. 0. 0. 0. 0. 0. 0. 0.
      0. 0. 0. 8.06451589e-03 0. 0. 0. 0. 0. 0. 0. 0. 0. 0.
      8.06451589e-03 0. 0. 0. 0. 0. 0. 0. 0. 8.06451589e-03 0. 0. 0. 0.
      0. 0. 0. 0. 8.06451589e-03 0. 8.06451589e-03 0. 8.06451589e-03 0.
      0. 0.</_>
    <_>
      5.15463902e-03 0. 0. 0. 0. 0. 0. 0. 0. 0. 0. 0. 5.15463902e-03 0.
      0. 0. 1.03092780e-02 0. 0. 0. 0. 5.15463902e-03 0. 1.03092780e-02
      1.54639166e-02 5.15463902e-03 0. 0. 0. 0. 0. 1.03092780e-02 0. 0.
      0. 0. 0. 0. 5.15463902e-03 0. 0. 5.15463902e-03 0. 0. 0. 0. 0. 0.
      0. 0. 1.03092780e-02 0. 5.15463902e-03 0. 0. 0. 0. 0. 0. 0. 0. 0.
      0. 0. 0. 0. 0. 0. 0. 0. 0. 0. 0. 0. 0. 0. 0. 0. 0. 1.03092780e-02
      0. 5.15463902e-03 0. 0. 5.15463902e-03 0. 0. 5.15463902e-03
      5.15463902e-03 0. 1.03092780e-02 5.15463902e-03 0. 0. 0.
      1.03092780e-02 0. 0. 0. 0. 0. 0. 0. 0. 0. 0. 0. 0. 1.03092780e-02
      0. 0. 0. 0. 0. 0. 5.15463902e-03 0. 0. 5.15463902e-03 0. 0. 0.
      5.15463902e-03 0. 1.03092780e-02 0. 5.15463902e-03 0.
      5.15463902e-03 0. 0. 0. 0. 0. 0. 0. 0. 0. 5.15463902e-03 0. 0. 0.
      0. 0. 0. 5.15463902e-03 0. 0. 0. 0. 0. 0. 0. 0. 0. 0. 0. 0. 0. 0.
      0. 0. 1.54639166e-02 0. 0. 5.15463902e-03 0. 0. 5.15463902e-03
      5.15463902e-03 0. 0. 0. 0. 5.15463902e-03 0. 0. 0. 0. 0. 0. 0.
      5.15463902e-03 0. 0. 0. 0. 0. 0. 0. 0. 0. 0. 0. 0. 0.
      5.15463902e-03 0. 0. 0. 0. 1.03092780e-02 0. 5.15463902e-03 0. 0.
      0. 0. 0. 0. 0. 0. 0. 0. 0. 0. 0. 0. 0. 0. 0. 0. 0. 0. 0. 0. 0. 0.
      0. 0. 0. 0. 0. 1.03092780e-02 0. 0. 0. 0. 0. 0. 0. 0. 0. 0. 0. 0.
      0. 0. 0. 0. 0. 0. 0. 5.15463902e-03 0. 0. 0. 0. 0. 0. 0. 0. 0.
      5.15463902e-03 0. 0. 0. 0. 5.15463902e-03 0. 0. 0. 0. 0. 0.
      5.15463902e-03 0. 0. 1.54639166e-02 0. 0. 0. 0. 0. 0.
      5.15463902e-03 5.15463902e-03 0. 5.15463902e-03 5.15463902e-03
      5.15463902e-03 5.15463902e-03 5.15463902e-03 0. 0. 0. 0. 0. 0.
      5.15463902e-03 5.15463902e-03 1.03092780e-02 0. 0. 0. 0.
      5.15463902e-03 0. 0. 0. 5.15463902e-03 0. 0. 5.15463902e-03
      5.15463902e-03 0. 0. 0. 5.15463902e-03 0. 0. 0. 0. 0. 0. 0. 0. 0.
      0. 0. 0. 0. 0. 0. 0. 0. 0. 0. 5.15463902e-03 5.15463902e-03 0. 0.
      0. 0. 5.15463902e-03 0. 5.15463902e-03 0. 0. 0. 0. 5.15463902e-03
      0. 0. 0. 0. 0. 0. 0. 0. 0. 0. 0. 0. 0. 0. 0. 0. 0. 0. 0. 0.
      5.15463902e-03 0. 0. 0. 0. 0. 0. 0. 0. 0. 0. 0. 0. 0. 0. 0. 0. 0.
      0. 5.15463902e-03 0. 0. 0. 0. 0. 0. 0. 0. 0. 5.15463902e-03 0. 0.
      0. 0. 0. 5.15463902e-03 0. 0. 0. 0. 0. 0. 5.15463902e-03 0. 0. 0.
      0. 0. 0. 0. 0. 0. 5.15463902e-03 0. 0. 0. 0. 0. 0. 0. 0. 0. 0. 0.
      5.15463902e-03 0. 0. 0. 0. 0. 0. 0. 2.06185561e-02 0. 0. 0.
      5.15463902e-03 0. 0. 0. 0. 0. 0. 0. 0. 0. 0. 0. 5.15463902e-03 0.
      0. 0. 5.15463902e-03 0. 0. 0. 0. 0. 0. 0. 5.15463902e-03 0. 0. 0.
      0. 0. 5.15463902e-03 0. 0. 0. 0. 0. 0. 0. 0. 1.03092780e-02 0.
      5.15463902e-03 0. 0. 0. 0. 0. 0. 0. 0. 0. 0. 0. 0. 0. 0. 0. 0. 0.
      0. 0. 0. 5.15463902e-03 0. 0. 5.15463902e-03 0. 0. 0. 0.
      5.15463902e-03 0. 0. 0. 0. 0. 0. 0. 0. 0. 0. 5.15463902e-03
      5.15463902e-03 0. 0. 0. 0. 0. 0. 0. 0. 0. 0. 0. 0. 0. 0.
      5.15463902e-03 0. 0. 0. 0. 0. 0. 0. 5.15463902e-03 0. 0. 0. 0. 0.
      0. 0. 0. 0. 0. 0. 0. 0. 0. 0. 0. 0. 5.15463902e-03 0. 0. 0. 0. 0.
      0. 0. 0. 0. 5.15463902e-03 0. 0. 0. 0. 0. 0. 5.15463902e-03 0. 0.
      0. 0. 0. 0. 5.15463902e-03 0. 0. 0. 0. 0. 0. 0. 0. 0. 0. 0. 0. 0.
      0. 0. 5.15463902e-03 0. 0. 0. 0. 0. 0. 5.15463902e-03 0.
      5.15463902e-03 0. 0. 0. 0. 0. 1.03092780e-02 0. 0. 0. 0. 0. 0.
      5.15463902e-03 0. 1.03092780e-02 0. 0. 0. 0. 0. 0. 0.
      5.15463902e-03 0. 0. 0. 0. 0. 0. 5.15463902e-03 0. 0. 0.
      2.06185561e-02 0. 0. 0. 0. 0. 0. 0. 5.15463902e-03 0. 0. 0. 0. 0.
      0. 5.15463902e-03 0. 5.15463902e-03 0. 0. 0. 0. 0. 0.
      5.15463902e-03 0. 0. 0. 0. 0. 0. 0. 0. 5.15463902e-03 0. 0. 0. 0.
      0. 0. 0. 0. 5.15463902e-03 0. 5.15463902e-03 5.15463902e-03 0. 0.
      0. 5.15463902e-03 0. 0. 0. 0. 0. 0. 5.15463902e-03 0.
      5.15463902e-03 0. 0. 5.15463902e-03 0. 0. 0. 0. 0. 1.03092780e-02
      0. 5.15463902e-03 0. 0. 0. 0. 0. 0. 0. 5.15463902e-03 0.
      5.15463902e-03 0. 0. 0. 0. 0. 5.15463902e-03 0. 0. 0. 0. 0. 0. 0.
      0. 0. 0. 0. 5.15463902e-03 0. 0. 0. 0. 0. 0. 0. 0. 0. 0. 0. 0. 0.
      0. 0. 0. 0. 0. 0. 0. 0. 0. 0. 0. 0. 0. 5.15463902e-03 0. 0. 0. 0.
      0. 5.15463902e-03 0. 0. 0. 0. 5.15463902e-03 5.15463902e-03 0.
      1.54639166e-02 0. 0. 0. 5.15463902e-03 0. 0. 0. 0. 0.
      5.15463902e-03 0. 0. 0. 0. 0. 0. 0. 0. 5.15463902e-03 0. 0. 0.
      1.03092780e-02 5.15463902e-03 0. 0. 0. 0. 0. 0. 5.15463902e-03 0.
      0. 0. 0. 0. 5.15463902e-03 0. 0. 0. 0. 0. 0. 0. 0. 0. 0. 0. 0. 0.
      0. 0. 0. 0. 0. 0. 0. 0. 0. 0. 0. 0. 0. 0. 0. 0. 0. 5.15463902e-03
      0. 0. 0. 0. 0. 0. 0. 0. 0. 0. 5.15463902e-03 5.15463902e-03 0. 0.
      0. 0. 0. 0. 0. 0. 0. 0. 0. 0. 0. 0. 5.15463902e-03 0. 0. 0. 0. 0.
      5.15463902e-03 0. 0. 0. 0. 0. 0. 0. 0. 0. 5.15463902e-03 0. 0. 0.
      0. 0. 0. 0. 0. 0. 0. 0. 0. 0. 5.15463902e-03 0. 0. 0. 0. 0. 0. 0.
      5.15463902e-03 3.09278332e-02 0. 0. 0. 0. 0. 0. 5.15463902e-03 0.
      5.15463902e-03 0. 0. 0. 0. 5.15463902e-03 0. 5.15463902e-03 0. 0.
      5.15463902e-03 0. 0. 5.15463902e-03 0. 0. 5.15463902e-03 0.
      5.15463902e-03 0. 5.15463902e-03 0. 5.15463902e-03 0. 0. 0. 0. 0.
      0. 0. 0. 5.15463902e-03 0. 0. 0. 0. 0. 0. 1.03092780e-02 0. 0. 0.
      0. 5.15463902e-03 2.06185561e-02 5.15463902e-03 0. 0. 0. 0. 0. 0.
      0. 0. 0. 0. 5.15463902e-03 0. 0. 0. 0. 0. 0. 0. 0.</_>
    <_>
      0. 8.06451589e-03 0. 0. 0. 0. 0. 0. 0. 0. 0. 0. 0. 0. 0. 0. 0. 0.
      0. 0. 0. 0. 0. 0. 0. 0. 0. 0. 0. 0. 8.06451589e-03 0. 0.
      8.06451589e-03 0. 0. 0. 0. 0. 0. 0. 0. 0. 0. 0. 0. 8.06451589e-03
      0. 0. 8.06451589e-03 0. 8.06451589e-03 0. 0. 0. 0. 0. 0.
      8.06451589e-03 0. 0. 8.06451589e-03 0. 0. 8.06451589e-03 0. 0. 0.
      0. 8.06451589e-03 0. 0. 0. 0. 0. 0. 0. 0. 0. 0. 0. 0. 0. 0. 0. 0.
      0. 0. 0. 0. 0. 0. 0. 0. 0. 0. 8.06451589e-03 0. 0. 0. 0. 0. 0. 0.
      8.06451589e-03 8.06451589e-03 0. 0. 0. 0. 0. 0. 0. 0. 0. 0. 0. 0.
      0. 0. 0. 0. 8.06451589e-03 0. 0. 0. 0. 0. 0. 0. 0. 0. 0. 0. 0. 0.
      0. 0. 0. 0. 0. 0. 0. 0. 0. 0. 0. 0. 0. 0. 0. 0. 0. 0. 0. 0. 0.
      8.06451589e-03 0. 0. 0. 0. 0. 8.06451589e-03 0. 8.06451589e-03 0.
      0. 0. 0. 0. 0. 0. 8.06451589e-03 0. 0. 0. 1.61290318e-02 0. 0. 0.
      0. 0. 0. 0. 0. 0. 0. 0. 8.06451589e-03 0. 0. 0. 0. 0.
      8.06451589e-03 0. 0. 0. 0. 0. 0. 0. 8.06451589e-03 0. 0. 0. 0. 0.
      0. 0. 0. 0. 0. 0. 0. 0. 0. 0. 8.06451589e-03 0. 0. 0. 0. 0. 0. 0.
      0. 0. 0. 0. 0. 0. 0. 0. 0. 8.06451589e-03 0. 8.06451589e-03 0. 0.
      0. 0. 2.41935477e-02 0. 0. 0. 8.06451589e-03 0. 8.06451589e-03 0.
      8.06451589e-03 0. 0. 0. 0. 8.06451589e-03 0. 0. 0. 0. 0. 0. 0. 0.
      0. 0. 0. 0. 0. 1.61290318e-02 0. 0. 0. 8.06451589e-03 0. 0. 0. 0.
      0. 0. 0. 0. 0. 0. 0. 8.06451589e-03 0. 0. 0. 0. 0. 0. 0. 0. 0. 0.
      0. 0. 0. 0. 0. 0. 0. 8.06451589e-03 0. 0. 0. 0. 8.06451589e-03 0.
      0. 0. 0. 0. 0. 0. 0. 0. 0. 0. 0. 0. 0. 8.06451589e-03 0. 0. 0. 0.
      0. 0. 0. 0. 0. 0. 0. 0. 0. 0. 0. 0. 0. 0. 0. 0. 0. 0. 0. 0. 0. 0.
      0. 0. 0. 0. 0. 0. 0. 0. 8.06451589e-03 0. 0. 0. 0. 0. 0. 0. 0. 0.
      0. 0. 0. 0. 0. 0. 0. 0. 0. 0. 0. 0. 0. 0. 0. 0. 0. 8.06451589e-03
      0. 0. 0. 0. 8.06451589e-03 0. 8.06451589e-03 0. 0. 0. 0. 0. 0.
      1.61290318e-02 0. 0. 8.06451589e-03 0. 0. 0. 0. 0. 0. 0.
      8.06451589e-03 0. 0. 0. 0. 0. 0. 8.06451589e-03 0. 8.06451589e-03
      0. 0. 0. 0. 0. 0. 0. 0. 0. 0. 0. 0. 0. 8.06451589e-03 0. 0.
      8.06451589e-03 0. 0. 0. 8.06451589e-03 0. 8.06451589e-03 0. 0. 0.
      0. 0. 0. 0. 0. 0. 0. 0. 0. 0. 0. 0. 0. 0. 0. 0. 0. 0.
      8.06451589e-03 0. 0. 0. 0. 0. 0. 0. 0. 0. 0. 0. 8.06451589e-03 0.
      0. 0. 0. 0. 0. 0. 0. 0. 0. 0. 0. 0. 0. 0. 0. 0. 0. 0.
      8.06451589e-03 0. 0. 0. 0. 0. 0. 0. 0. 0. 0. 0. 0. 0. 0. 0. 0. 0.
      0. 0. 0. 0. 0. 0. 0. 0. 0. 0. 0. 0. 0. 0. 0. 1.61290318e-02
      8.06451589e-03 0. 0. 0. 0. 1.61290318e-02 0. 8.06451589e-03 0. 0.
      0. 0. 0. 0. 0. 0. 0. 0. 0. 0. 0. 0. 0. 0. 0. 0. 0. 0. 0. 0.
      8.06451589e-03 0. 8.06451589e-03 8.06451589e-03 0. 0.
      8.06451589e-03 0. 0. 0. 0. 0. 0. 0. 1.61290318e-02 0. 0. 0.
      8.06451589e-03 0. 0. 0. 0. 0. 0. 0. 0. 0. 0. 0. 0. 0. 0. 0. 0. 0.
      0. 0. 0. 0. 0. 0. 0. 0. 0. 0. 0. 0. 0. 0. 0. 0. 0. 0. 0. 0. 0. 0.
      0. 0. 0. 0. 0. 1.61290318e-02 0. 0. 0. 0. 0. 0. 0. 8.06451589e-03
      0. 0. 0. 8.06451589e-03 0. 8.06451589e-03 0. 0. 0. 0. 0.
      8.06451589e-03 0. 0. 0. 0. 0. 0. 0. 0. 0. 0. 0. 0. 0. 0. 0. 0.
      8.06451589e-03 0. 0. 8.06451589e-03 0. 0. 0. 0. 8.06451589e-03 0.
      8.06451589e-03 0. 0. 0. 0. 0. 0. 0. 0. 0. 0. 8.06451589e-03 0. 0.
      0. 0. 0. 0. 0. 0. 0. 0. 0. 8.06451589e-03 8.06451589e-03 0. 0. 0.
      0. 0. 0. 0. 0. 0. 8.06451589e-03 0. 0. 0. 0. 0. 0. 0. 0. 0. 0. 0.
      8.06451589e-03 0. 8.06451589e-03 0. 0. 0. 0. 0. 0. 0. 0. 0. 0. 0.
      0. 8.06451589e-03 0. 0. 0. 0. 8.06451589e-03 0. 0. 0.
      1.61290318e-02 1.61290318e-02 0. 0. 0. 0. 0. 0. 0. 8.06451589e-03
      0. 0. 0. 0. 0. 0. 0. 0. 8.06451589e-03 0. 0. 0. 0. 0. 0. 0. 0. 0.
      0. 0. 0. 0. 0. 0. 8.06451589e-03 0. 8.06451589e-03 0. 0. 0. 0.
      8.06451589e-03 0. 0. 0. 0. 0. 8.06451589e-03 0. 0. 0. 0. 0. 0. 0.
      8.06451589e-03 0. 0. 0. 0. 0. 0. 8.06451589e-03 0. 0. 0. 0. 0. 0.
      0. 0. 0. 0. 8.06451589e-03 8.06451589e-03 0. 0. 0. 0. 0. 0. 0. 0.
      0. 0. 0. 0. 0. 0. 0. 0. 0. 0. 0. 0. 0. 0. 0. 0. 0. 0. 0. 0. 0. 0.
      0. 0. 0. 8.06451589e-03 0. 0. 0. 0. 0. 8.06451589e-03 0.
      8.06451589e-03 0. 0. 0. 0. 0. 1.61290318e-02 0. 0. 8.06451589e-03
      0. 0. 0. 0. 0. 8.06451589e-03 0. 0. 0. 0. 0. 0. 0. 0. 0. 0. 0. 0.
      0. 0. 0. 0. 0. 0. 0. 0. 0. 0. 0. 0. 0. 0. 0. 0. 0. 0. 0.
      8.06451589e-03 0. 0. 0. 0. 0. 0. 0. 0. 0. 0. 0. 0. 8.06451589e-03
      8.06451589e-03 0. 0. 0. 0. 0. 0. 0. 8.06451589e-03 0. 0. 0. 0. 0.
      0. 0. 8.06451589e-03 0. 0. 0. 0. 0. 0. 0. 0. 0. 0. 0. 0. 0. 0. 0.
      0. 0. 0. 0. 8.06451589e-03 0. 0. 0. 0. 0. 0. 0. 0. 1.61290318e-02
      0. 0. 0. 0. 8.06451589e-03 8.06451589e-03 0. 0. 0. 8.06451589e-03
      0. 0. 0. 0. 0. 0. 8.06451589e-03 0. 0. 8.06451589e-03 0. 0. 0. 0.
      0. 0. 0. 0. 0. 0. 0. 0. 8.06451589e-03 0. 8.06451589e-03 0.</_>
    <_>
      0. 0. 0. 0. 0. 0. 0. 0. 0. 0. 0. 0. 0. 0. 0. 0. 0. 0. 0. 0. 0. 0.
      0. 0. 0. 0. 9.61538497e-03 9.61538497e-03 0. 0. 0. 0. 0. 0. 0. 0.
      0. 0. 0. 0. 0. 0. 0. 0. 0. 9.61538497e-03 0. 0. 0. 0.
      9.61538497e-03 0. 0. 0. 0. 0. 0. 0. 0. 0. 9.61538497e-03 0.
      9.61538497e-03 0. 0. 0. 0. 9.61538497e-03 0. 0. 0. 9.61538497e-03
      9.61538497e-03 0. 0. 0. 0. 0. 0. 0. 0. 9.61538497e-03 0. 0.
      9.61538497e-03 0. 0. 0. 0. 0. 0. 0. 0. 0. 0. 0. 0. 0. 0. 0.
      9.61538497e-03 0. 0. 0. 0. 0. 0. 0. 9.61538497e-03 0. 0. 0. 0. 0.
      0. 0. 0. 0. 0. 0. 0. 0. 0. 0. 0. 0. 9.61538497e-03 0. 0. 0. 0. 0.
      0. 0. 0. 0. 0. 0. 0. 0. 0. 0. 9.61538497e-03 0. 0. 0. 0. 0. 0. 0.
      0. 0. 9.61538497e-03 0. 9.61538497e-03 0. 9.61538497e-03
      9.61538497e-03 0. 0. 0. 0. 0. 0. 0. 0. 0. 0. 9.61538497e-03 0. 0.
      0. 0. 0. 1.92307699e-02 0. 0. 0. 0. 0. 0. 0. 0. 0. 0. 0. 0. 0. 0.
      0. 0. 0. 0. 0. 0. 0. 0. 0. 0. 0. 9.61538497e-03 0. 0.
      9.61538497e-03 0. 0. 0. 0. 0. 0. 9.61538497e-03 0. 0. 0. 0. 0. 0.
      9.61538497e-03 0. 0. 0. 0. 0. 0. 0. 0. 0. 0. 0. 0. 0. 0. 0. 0.
      9.61538497e-03 0. 0. 0. 0. 0. 0. 0. 0. 0. 0. 0. 0. 0. 0. 0. 0. 0.
      0. 0. 0. 0. 0. 0. 0. 9.61538497e-03 0. 9.61538497e-03 0. 0. 0. 0.
      0. 0. 0. 0. 0. 0. 0. 0. 0. 0. 0. 0. 0. 0. 0. 0. 0. 0. 0. 0. 0. 0.
      0. 0. 0. 0. 0. 0. 0. 0. 0. 0. 0. 0. 0. 0. 0. 0. 0. 0.
      9.61538497e-03 9.61538497e-03 0. 0. 0. 0. 0. 0. 0. 0. 0. 0. 0. 0.
      0. 0. 9.61538497e-03 0. 0. 0. 0. 0. 0. 0. 0. 0. 0. 0. 0. 0. 0. 0.
      0. 9.61538497e-03 0. 3.84615399e-02 0. 0. 0. 0. 9.61538497e-03
      9.61538497e-03 0. 0. 0. 0. 9.61538497e-03 0. 0. 0. 9.61538497e-03
      0. 0. 0. 0. 0. 0. 0. 0. 0. 0. 0. 0. 9.61538497e-03 0. 0. 0. 0. 0.
      0. 0. 0. 9.61538497e-03 0. 0. 0. 0. 0. 0. 0. 9.61538497e-03 0. 0.
      0. 0. 0. 0. 0. 0. 0. 9.61538497e-03 0. 0. 0. 0. 0. 0. 0. 0. 0. 0.
      0. 0. 0. 0. 0. 0. 0. 0. 0. 0. 0. 0. 0. 0. 0. 0. 0. 0. 0. 0. 0. 0.
      0. 9.61538497e-03 0. 0. 0. 0. 0. 0. 0. 0. 0. 0. 0. 0. 0. 0. 0. 0.
      0. 0. 0. 0. 0. 0. 0. 0. 0. 0. 0. 0. 0. 0. 0. 0. 0. 0. 0. 0. 0. 0.
      9.61538497e-03 0. 0. 9.61538497e-03 0. 0. 0. 0. 0. 0. 0. 0. 0. 0.
      0. 0. 0. 0. 0. 0. 0. 0. 0. 0. 0. 0. 0. 1.92307699e-02 0. 0. 0. 0.
      0. 0. 0. 0. 0. 0. 0. 0. 0. 0. 0. 0. 0. 0. 9.61538497e-03 0. 0. 0.
      0. 0. 0. 0. 0. 0. 9.61538497e-03 0. 0. 0. 0. 0. 0. 0. 0. 0. 0. 0.
      9.61538497e-03 0. 9.61538497e-03 0. 0. 0. 0. 0. 9.61538497e-03 0.
      0. 0. 0. 0. 0. 9.61538497e-03 0. 0. 0. 0. 0. 0. 0. 0. 0.
      3.84615399e-02 0. 0. 9.61538497e-03 9.61538497e-03 0. 0. 0. 0. 0.
      0. 0. 0. 0. 0. 9.61538497e-03 0. 0. 0. 0. 0. 0. 0. 0. 0. 0. 0.
      9.61538497e-03 0. 0. 0. 0. 0. 0. 0. 0. 0. 0. 0. 0. 0. 0. 0. 0. 0.
      0. 0. 0. 0. 0. 0. 0. 0. 0. 9.61538497e-03 9.61538497e-03 0. 0. 0.
      0. 0. 0. 0. 0. 0. 0. 0. 0. 0. 0. 0. 0. 0. 9.61538497e-03 0. 0. 0.
      9.61538497e-03 0. 0. 0. 0. 0. 0. 0. 0. 0. 0. 0. 0. 0. 0.
      9.61538497e-03 0. 0. 0. 0. 0. 0. 0. 0. 0. 0. 0. 0. 0. 0. 0. 0. 0.
      0. 0. 0. 0. 0. 0. 0. 0. 0. 0. 0. 0. 0. 0. 0. 0. 0. 9.61538497e-03
      0. 0. 0. 0. 0. 0. 0. 0. 0. 0. 0. 0. 9.61538497e-03 0. 0.
      9.61538497e-03 0. 0. 0. 9.61538497e-03 0. 0. 0. 0. 0. 0. 0. 0.
      9.61538497e-03 9.61538497e-03 9.61538497e-03 0. 0. 0.
      9.61538497e-03 0. 0. 0. 0. 0. 0. 9.61538497e-03 0. 0. 0. 0. 0. 0.
      0. 0. 0. 0. 0. 0. 0. 0. 9.61538497e-03 0. 0. 0. 9.61538497e-03 0.
      0. 0. 0. 0. 0. 0. 0. 0. 0. 0. 0. 0. 0. 0. 0. 0. 0. 0. 0. 0. 0. 0.
      0. 0. 0. 0. 0. 0. 0. 9.61538497e-03 0. 9.61538497e-03 0. 0. 0. 0.
      0. 0. 0. 0. 0. 0. 0. 0. 0. 0. 0. 0. 0. 0. 0. 0. 0. 0.
      9.61538497e-03 0. 0. 9.61538497e-03 0. 0. 0. 0. 0. 0. 0. 0. 0. 0.
      0. 0. 0. 9.61538497e-03 0. 0. 0. 0. 0. 0. 0. 9.61538497e-03 0. 0.
      0. 0. 0. 0. 9.61538497e-03 0. 0. 0. 0. 0. 0. 0. 0. 0.
      9.61538497e-03 0. 0. 0. 9.61538497e-03 0. 0. 0. 0. 9.61538497e-03
      0. 0. 0. 0. 0. 0. 0. 0. 0. 0. 0. 0. 1.92307699e-02 0. 0.
      9.61538497e-03 0. 0. 0. 0. 0. 0. 0. 0. 0. 0. 9.61538497e-03 0. 0.
      0. 0. 0. 0. 0. 0. 0. 0. 0. 0. 0. 0. 0. 0. 0. 0. 0. 0.
      9.61538497e-03 9.61538497e-03 0. 0. 0. 0. 0. 0. 0. 0. 0.
      9.61538497e-03 0. 0. 0. 0. 0. 0. 0. 0. 0. 9.61538497e-03 0. 0. 0.
      0. 9.61538497e-03 0. 0. 0. 0. 0. 0. 0. 0. 0. 0. 0. 0. 0. 0. 0. 0.
      0. 0. 0. 9.61538497e-03 0. 0. 9.61538497e-03 0. 0. 0. 0. 0. 0.
      9.61538497e-03 0. 0. 0. 9.61538497e-03 0. 0. 9.61538497e-03 0. 0.
      0. 0. 0. 0. 0. 0. 0. 0. 0. 0. 0. 0. 0. 0. 0. 0. 0. 0. 0. 0. 0. 0.
      0. 0. 0. 0. 0. 0. 0.</_>
    <_>
      2.10779882e-03 1.50557049e-03 0. 0. 9.03342327e-04 1.50557049e-03
      0. 3.01114097e-03 3.01114109e-04 0. 9.03342327e-04 9.03342327e-04
      2.10779882e-03 1.20445644e-03 4.21559764e-03 9.03342327e-04
      1.50557049e-03 9.03342327e-04 1.80668465e-03 3.01114109e-04
      1.20445644e-03 6.02228218e-04 6.02228218e-04 3.01114109e-04
      1.80668465e-03 6.02228218e-04 6.02228218e-04 1.20445644e-03
      6.02228218e-04 6.02228218e-04 9.03342327e-04 6.02228218e-04
      1.20445644e-03 3.01114109e-04 1.20445644e-03 6.02228218e-04
      1.80668465e-03 3.01114109e-04 1.80668465e-03 3.01114109e-04
      1.50557049e-03 3.01114097e-03 9.03342327e-04 2.10779882e-03
      9.03342327e-04 9.03342327e-04 6.02228218e-04 2.40891287e-03
      3.01114109e-04 2.10779882e-03 9.03342327e-04 1.20445644e-03
      6.02228218e-04 9.03342327e-04 1.20445644e-03 6.02228218e-04
      1.20445644e-03 0. 0. 1.80668465e-03 6.02228218e-04 3.01114109e-04
      3.01114109e-04 1.20445644e-03 6.02228218e-04 1.20445644e-03
      1.50557049e-03 6.02228218e-04 9.03342327e-04 1.50557049e-03
      2.10779882e-03 6.02228218e-04 2.10779882e-03 1.50557049e-03
      1.20445644e-03 9.03342327e-04 9.03342327e-04 3.01114109e-04
      1.50557049e-03 1.20445644e-03 0. 0. 2.10779882e-03 3.01114097e-03
      1.50557049e-03 6.02228218e-04 3.01114109e-04 1.20445644e-03
      1.80668465e-03 9.03342327e-04 9.03342327e-04 1.20445644e-03
      6.02228218e-04 2.10779882e-03 9.03342327e-04 2.10779882e-03
      3.01114109e-04 3.61336931e-03 0. 1.20445644e-03 2.40891287e-03
      6.02228218e-04 9.03342327e-04 9.03342327e-04 9.03342327e-04
      9.03342327e-04 9.03342327e-04 1.50557049e-03 1.50557049e-03
      1.50557049e-03 1.20445644e-03 0. 3.01114109e-04 1.20445644e-03
      1.20445644e-03 9.03342327e-04 2.71002692e-03 0. 1.80668465e-03 0.
      6.02228218e-04 1.20445644e-03 2.40891287e-03 6.02228218e-04
      1.20445644e-03 9.03342327e-04 1.50557049e-03 1.20445644e-03
      3.01114109e-04 1.50557049e-03 6.02228218e-04 6.02228218e-04 0.
      2.10779882e-03 9.03342327e-04 1.50557049e-03 6.02228218e-04
      2.10779882e-03 1.80668465e-03 9.03342327e-04 1.50557049e-03 0.
      2.40891287e-03 2.10779882e-03 3.01114109e-04 9.03342327e-04 0.
      9.03342327e-04 1.20445644e-03 6.02228218e-04 6.02228218e-04
      3.01114109e-04 6.02228218e-04 3.61336931e-03 1.20445644e-03
      9.03342327e-04 1.20445644e-03 1.50557049e-03 9.03342327e-04
      9.03342327e-04 1.20445644e-03 6.02228218e-04 0. 1.20445644e-03 0.
      3.01114109e-04 1.20445644e-03 3.01114109e-04 0. 3.01114109e-04
      9.03342327e-04 1.80668465e-03 1.20445644e-03 6.02228218e-04
      1.80668465e-03 1.80668465e-03 6.02228218e-04 2.10779882e-03
      9.03342327e-04 1.20445644e-03 6.02228218e-04 1.20445644e-03
      1.20445644e-03 2.10779882e-03 6.02228218e-04 4.81782574e-03
      3.01114109e-04 2.10779882e-03 1.50557049e-03 3.01114109e-04
      3.01114109e-04 3.01114097e-03 1.20445644e-03 9.03342327e-04
      3.01114109e-04 3.01114109e-04 3.01114109e-04 1.50557049e-03
      3.01114109e-04 1.50557049e-03 3.01114109e-04 6.02228218e-04 0. 0.
      9.03342327e-04 9.03342327e-04 1.20445644e-03 2.71002692e-03 0.
      9.03342327e-04 1.20445644e-03 9.03342327e-04 2.10779882e-03 0.
      2.10779882e-03 6.02228218e-04 1.50557049e-03 1.20445644e-03
      1.50557049e-03 6.02228218e-04 3.01114109e-04 2.40891287e-03
      9.03342327e-04 6.02228218e-04 3.01114109e-04 2.71002692e-03
      2.10779882e-03 1.50557049e-03 3.01114109e-04 9.03342327e-04
      3.01114109e-04 1.50557049e-03 6.02228218e-04 1.20445644e-03 0.
      1.20445644e-03 1.20445644e-03 2.40891287e-03 6.02228218e-04
      9.03342327e-04 6.02228218e-04 0. 2.71002692e-03 3.01114109e-04
      1.20445644e-03 2.10779882e-03 3.01114109e-04 1.50557049e-03
      1.50557049e-03 0. 6.02228218e-04 9.03342327e-04 0. 1.80668465e-03
      9.03342327e-04 6.02228218e-04 2.40891287e-03 1.50557049e-03
      1.50557049e-03 6.02228218e-04 0. 3.01114109e-04 6.02228218e-04
      1.20445644e-03 6.02228218e-04 3.01114109e-04 3.31225526e-03
      1.20445644e-03 1.20445644e-03 9.03342327e-04 6.02228218e-04
      9.03342327e-04 3.91448336e-03 1.20445644e-03 0. 0. 9.03342327e-04
      2.71002692e-03 0. 3.01114109e-04 1.80668465e-03 2.10779882e-03
      3.01114109e-04 9.03342327e-04 1.50557049e-03 1.80668465e-03
      9.03342327e-04 1.80668465e-03 1.80668465e-03 1.50557049e-03
      1.80668465e-03 1.20445644e-03 3.01114109e-04 1.20445644e-03
      2.40891287e-03 1.20445644e-03 9.03342327e-04 1.20445644e-03
      2.10779882e-03 9.03342327e-04 3.01114109e-04 2.71002692e-03
      9.03342327e-04 6.02228218e-04 1.20445644e-03 9.03342327e-04
      1.80668465e-03 9.03342327e-04 3.01114109e-04 6.02228218e-04
      1.20445644e-03 6.02228218e-04 0. 2.40891287e-03 0. 1.50557049e-03
      3.01114109e-04 6.02228218e-04 3.01114097e-03 6.02228218e-04 0.
      1.20445644e-03 3.01114109e-04 1.20445644e-03 1.50557049e-03
      6.02228218e-04 3.01114097e-03 3.01114109e-04 6.02228218e-04
      9.03342327e-04 9.03342327e-04 6.02228218e-04 6.02228218e-04
      3.01114109e-04 3.31225526e-03 9.03342327e-04 1.50557049e-03
      9.03342327e-04 3.01114109e-04 2.10779882e-03 6.02228218e-04
      3.01114109e-04 6.02228218e-04 1.20445644e-03 6.02228218e-04
      1.20445644e-03 2.40891287e-03 6.02228218e-04 1.20445644e-03
      3.01114109e-04 6.02228218e-04 9.03342327e-04 6.02228218e-04
      6.02228218e-04 9.03342327e-04 9.03342327e-04 1.80668465e-03
      1.20445644e-03 6.02228218e-04 6.02228218e-04 1.20445644e-03
      6.02228218e-04 1.50557049e-03 9.03342327e-04 6.02228218e-04
      1.20445644e-03 1.50557049e-03 2.71002692e-03 9.03342327e-04
      1.50557049e-03 1.20445644e-03 0. 1.80668465e-03 1.20445644e-03
      4.21559764e-03 1.20445644e-03 3.01114109e-04 1.50557049e-03
      1.20445644e-03 9.03342327e-04 1.80668465e-03 3.01114109e-04
      1.50557049e-03 0. 1.20445644e-03 2.40891287e-03 1.20445644e-03 0.
      9.03342327e-04 9.03342327e-04 0. 0. 1.50557049e-03 6.02228218e-04
      3.01114109e-04 1.50557049e-03 1.50557049e-03 1.20445644e-03 0.
      6.02228218e-04 9.03342327e-04 1.50557049e-03 6.02228218e-04
      2.40891287e-03 9.03342327e-04 9.03342327e-04 9.03342327e-04
      1.50557049e-03 1.20445644e-03 3.01114109e-04 1.50557049e-03
      9.03342327e-04 9.03342327e-04 0. 3.01114109e-04 1.50557049e-03
      3.01114109e-04 0. 1.20445644e-03 1.20445644e-03 9.03342327e-04
      1.50557049e-03 6.02228218e-04 1.20445644e-03 3.01114109e-04
      1.50557049e-03 1.50557049e-03 1.20445644e-03 0. 9.03342327e-04 0.
      6.02228218e-04 1.50557049e-03 2.10779882e-03 3.01114109e-04
      6.02228218e-04 3.01114109e-04 6.02228218e-04 6.02228218e-04
      3.01114109e-04 6.02228218e-04 6.02228218e-04 3.01114109e-04
      3.01114109e-04 3.01114109e-04 1.80668465e-03 1.20445644e-03
      6.02228218e-04 2.10779882e-03 6.02228218e-04 1.50557049e-03
      9.03342327e-04 0. 9.03342327e-04 9.03342327e-04 3.01114109e-04
      2.71002692e-03 1.80668465e-03 1.50557049e-03 1.20445644e-03
      2.40891287e-03 2.40891287e-03 0. 6.02228218e-04 9.03342327e-04
      1.50557049e-03 3.01114109e-04 5.72116813e-03 1.80668465e-03
      6.02228218e-04 3.01114109e-04 2.40891287e-03 6.02228218e-04
      3.01114109e-04 1.50557049e-03 0. 1.50557049e-03 1.50557049e-03
      1.50557049e-03 3.01114109e-04 6.02228218e-04 9.03342327e-04
      9.03342327e-04 6.02228218e-04 6.02228218e-04 3.01114109e-04
      2.40891287e-03 2.10779882e-03 0. 2.71002692e-03 1.50557049e-03
      6.02228218e-04 1.20445644e-03 3.01114109e-04 3.01114109e-04
      3.01114109e-04 6.02228218e-04 9.03342327e-04 6.02228218e-04
      3.01114109e-04 3.01114109e-04 0. 6.02228218e-04 6.02228218e-04 0.
      1.80668465e-03 9.03342327e-04 3.01114109e-04 6.02228218e-04
      6.02228218e-04 6.02228218e-04 6.02228218e-04 2.10779882e-03
      3.01114109e-04 3.01114109e-04 9.03342327e-04 6.02228218e-04
      1.50557049e-03 1.50557049e-03 6.02228218e-04 0. 0. 9.03342327e-04
      2.40891287e-03 1.20445644e-03 9.03342327e-04 9.03342327e-04 0.
      3.01114109e-04 1.80668465e-03 6.02228218e-04 3.01114109e-04
      1.80668465e-03 1.20445644e-03 3.01114109e-04 6.02228218e-04
      6.02228218e-04 1.50557049e-03 0. 9.03342327e-04 3.01114097e-03
      3.01114109e-04 9.03342327e-04 3.01114109e-04 1.20445644e-03
      6.02228218e-04 3.01114109e-04 2.40891287e-03 1.20445644e-03 0. 0.
      2.10779882e-03 1.20445644e-03 0. 1.50557049e-03 6.02228218e-04
      1.50557049e-03 2.40891287e-03 6.02228218e-04 3.01114109e-04
      1.20445644e-03 3.01114109e-04 3.01114109e-04 9.03342327e-04 0.
      2.40891287e-03 3.01114109e-04 6.02228218e-04 9.03342327e-04
      1.50557049e-03 0. 3.01114097e-03 9.03342327e-04 1.50557049e-03
      6.02228218e-04 1.50557049e-03 1.50557049e-03 1.80668465e-03
      3.01114109e-04 3.01114109e-04 3.01114109e-04 1.80668465e-03
      6.02228218e-04 0. 2.71002692e-03 6.02228218e-04 1.50557049e-03
      1.20445644e-03 1.20445644e-03 6.02228218e-04 3.01114109e-04
      6.02228218e-04 3.01114109e-04 1.50557049e-03 2.10779882e-03
      1.50557049e-03 1.50557049e-03 1.50557049e-03 3.91448336e-03
      1.50557049e-03 1.50557049e-03 1.20445644e-03 1.20445644e-03
      1.80668465e-03 1.50557049e-03 1.20445644e-03 3.01114109e-04
      3.01114109e-04 6.02228218e-04 6.02228218e-04 1.50557049e-03
      1.50557049e-03 9.03342327e-04 3.01114109e-04 6.02228218e-04 0.
      9.03342327e-04 1.50557049e-03 6.02228218e-04 1.20445644e-03
      2.71002692e-03 6.02228218e-04 0. 1.50557049e-03 2.40891287e-03 0.
      0. 0. 1.50557049e-03 2.10779882e-03 6.02228218e-04 1.50557049e-03
      0. 9.03342327e-04 1.20445644e-03 6.02228218e-04 9.03342327e-04
      1.20445644e-03 6.02228218e-04 0. 3.01114109e-04 0. 6.02228218e-04
      3.01114109e-04 6.02228218e-04 0. 1.20445644e-03 3.01114109e-04
      1.80668465e-03 6.02228218e-04 6.02228218e-04 0. 1.20445644e-03
      9.03342327e-04 2.10779882e-03 6.02228218e-04 3.01114109e-04
      6.02228218e-04 6.02228218e-04 3.01114109e-04 2.10779882e-03
      6.02228218e-04 9.03342327e-04 1.50557049e-03 0. 1.20445644e-03 0.
      3.01114109e-04 6.02228218e-04 2.10779882e-03 1.80668465e-03
      9.03342327e-04 1.20445644e-03 3.01114109e-04 1.50557049e-03
      1.20445644e-03 3.01114109e-04 3.01114109e-04 9.03342327e-04
      3.01114109e-04 9.03342327e-04 6.02228218e-04 1.50557049e-03
      9.03342327e-04 9.03342327e-04 1.20445644e-03 0. 6.02228218e-04 0.
      6.02228218e-04 6.02228218e-04 1.20445644e-03 2.40891287e-03
      1.50557049e-03 1.20445644e-03 6.02228218e-04 1.20445644e-03
      2.71002692e-03 6.02228218e-04 9.03342327e-04 6.02228218e-04 0.
      6.02228218e-04 2.10779882e-03 3.61336931e-03 0. 1.20445644e-03
      3.01114109e-04 2.10779882e-03 2.10779882e-03 3.01114109e-04
      1.50557049e-03 6.02228218e-04 6.02228218e-04 1.50557049e-03
      2.10779882e-03 1.50557049e-03 2.40891287e-03 1.50557049e-03
      1.80668465e-03 0. 6.02228218e-04 3.01114109e-04 1.80668465e-03
      9.03342327e-04 3.01114109e-04 1.20445644e-03 1.50557049e-03 0.
      9.03342327e-04 9.03342327e-04 2.10779882e-03 3.01114109e-04
      1.20445644e-03 6.02228218e-04 1.20445644e-03 1.20445644e-03 0.
      3.01114109e-04 0. 9.03342327e-04 1.20445644e-03 3.01114109e-04
      1.80668465e-03 9.03342327e-04 3.01114109e-04 2.40891287e-03 0.
      1.20445644e-03 9.03342327e-04 1.80668465e-03 9.03342327e-04
      9.03342327e-04 2.10779882e-03 0. 6.02228218e-04 3.01114109e-04 0.
      1.20445644e-03 1.20445644e-03 2.10779882e-03 3.01114109e-04
      6.02228218e-04 0. 3.01114109e-04 9.03342327e-04 3.01114109e-04
      3.01114109e-04 6.02228218e-04 6.02228218e-04 3.01114109e-04
      3.01114109e-04 1.80668465e-03 3.01114109e-04 3.01114109e-04
      3.01114109e-04 3.01114109e-04 6.02228218e-04 3.01114109e-04
      1.80668465e-03 9.03342327e-04 3.61336931e-03 3.01114109e-04
      5.11894003e-03 0. 2.10779882e-03 2.10779882e-03 9.03342327e-04
      3.01114109e-04 3.01114109e-04 3.01114109e-04 1.20445644e-03
      1.20445644e-03 3.01114109e-04 1.50557049e-03 9.03342327e-04
      1.20445644e-03 9.03342327e-04 0. 6.02228218e-04 3.01114109e-04
      1.20445644e-03 6.02228218e-04 9.03342327e-04 1.20445644e-03
      1.20445644e-03 3.01114109e-04 3.01114109e-04 2.10779882e-03 0.
      2.40891287e-03 3.01114109e-04 1.50557049e-03 2.71002692e-03
      1.80668465e-03 1.20445644e-03 1.50557049e-03 2.10779882e-03
      6.02228218e-04 6.02228218e-04 1.80668465e-03 6.02228218e-04
      2.10779882e-03 3.01114109e-04 3.01114109e-04 1.20445644e-03
      1.20445644e-03 2.10779882e-03 0. 3.01114109e-04 3.01114109e-04
      9.03342327e-04 6.02228218e-04 9.03342327e-04 2.71002692e-03
      3.01114109e-04 6.02228218e-04 9.03342327e-04 9.03342327e-04
      1.80668465e-03 9.03342327e-04 2.10779882e-03 2.40891287e-03
      2.40891287e-03 3.01114109e-04 0. 9.03342327e-04 1.50557049e-03 0.
      6.02228218e-04 1.20445644e-03 1.20445644e-03 2.71002692e-03
      3.01114109e-04 3.01114109e-04 0. 6.02228218e-04 1.80668465e-03
      3.01114097e-03 3.01114109e-04 0. 9.03342327e-04 9.03342327e-04 0.
      3.01114109e-04 0. 3.31225526e-03 1.50557049e-03 0. 1.20445644e-03
      1.20445644e-03 9.03342327e-04 6.02228218e-04 9.03342327e-04
      3.31225526e-03 6.02228218e-04 6.02228218e-04 0. 9.03342327e-04
      6.02228218e-04 1.50557049e-03 9.03342327e-04 6.02228218e-04
      9.03342327e-04 2.40891287e-03 6.92562433e-03 1.50557049e-03
      1.20445644e-03 0. 1.50557049e-03 3.01114109e-04 3.01114109e-04
      3.01114109e-04 6.02228218e-04 6.02228218e-04 1.20445644e-03 0.
      6.02228218e-04 0. 3.01114109e-04 3.01114109e-04 0. 2.40891287e-03
      9.03342327e-04 1.20445644e-03 6.02228218e-04 6.02228218e-04
      1.20445644e-03 1.50557049e-03 6.02228218e-04 3.01114109e-04
      6.02228218e-04 1.20445644e-03 3.01114109e-04 3.01114109e-04
      3.01114109e-04 4.51671146e-03 3.01114109e-04 0. 6.02228218e-04 0.
      9.03342327e-04 1.80668465e-03 0. 1.20445644e-03 1.20445644e-03
      3.01114109e-04 6.02228218e-04 9.03342327e-04 1.80668465e-03
      6.02228218e-04 1.20445644e-03 1.50557049e-03 3.01114109e-04
      3.01114109e-04 1.20445644e-03 2.40891287e-03 9.03342327e-04
      9.03342327e-04 1.20445644e-03 2.10779882e-03 0. 3.01114109e-04
      6.02228218e-04 6.02228218e-04 1.50557049e-03 3.01114109e-04
      6.02228218e-04 6.02228218e-04 1.50557049e-03 1.80668465e-03 0.
      3.01114109e-04 3.01114109e-04 3.01114109e-04 6.02228218e-04
      6.02228218e-04 6.02228218e-04 1.80668465e-03 1.50557049e-03
      6.02228218e-04 6.02228218e-04 3.01114109e-04 3.01114109e-04
      1.20445644e-03 1.20445644e-03 9.03342327e-04 9.03342327e-04 0. 0.
      9.03342327e-04 9.03342327e-04 6.02228218e-04 9.03342327e-04
      6.02228218e-04 0. 6.02228218e-04 9.03342327e-04 9.03342327e-04
      6.02228218e-04 9.03342327e-04 9.03342327e-04 6.02228218e-04
      1.20445644e-03 3.01114109e-04 1.80668465e-03 1.20445644e-03
      9.03342327e-04 0. 3.01114109e-04 1.20445644e-03 1.80668465e-03
      6.02228218e-04 0. 6.02228218e-04 0. 6.02228218e-04 6.02228218e-04
      1.50557049e-03 9.03342327e-04</_>
    <_>
      0. 0. 0. 0. 0. 1.53846154e-02 0. 0. 0. 0. 0. 0. 0. 0. 0. 0. 0. 0.
      0. 0. 0. 0. 0. 0. 0. 0. 0. 0. 0. 0. 0. 0. 0. 0. 0. 0. 0. 0. 0. 0.
      0. 1.53846154e-02 0. 0. 0. 0. 0. 0. 0. 0. 0. 0. 0. 0. 0. 0.
      1.53846154e-02 0. 0. 0. 0. 0. 0. 0. 0. 0. 0. 0. 0. 0. 0. 0. 0. 0.
      0. 0. 0. 0. 0. 0. 0. 0. 0. 0. 0. 0. 0. 0. 0. 0. 0. 0. 0. 0.
      1.53846154e-02 0. 1.53846154e-02 0. 0. 0. 1.53846154e-02 0.
      1.53846154e-02 0. 0. 1.53846154e-02 0. 0. 0. 0. 0. 0. 0. 0.
      1.53846154e-02 0. 0. 0. 0. 0. 0. 0. 0. 0. 0. 0. 0. 0. 0.
      1.53846154e-02 0. 0. 0. 0. 0. 0. 0. 0. 0. 0. 0. 0. 0.
      1.53846154e-02 0. 0. 0. 0. 0. 3.07692308e-02 0. 0. 0. 0.
      1.53846154e-02 1.53846154e-02 1.53846154e-02 1.53846154e-02
      1.53846154e-02 0. 0. 0. 0. 0. 0. 0. 0. 0. 0. 0. 0. 0. 0. 0. 0. 0.
      0. 0. 1.53846154e-02 0. 0. 0. 0. 0. 0. 0. 0. 0. 1.53846154e-02 0.
      0. 0. 0. 0. 0. 0. 0. 0. 0. 0. 0. 0. 0. 0. 0. 0. 0. 0. 0. 0. 0. 0.
      0. 0. 0. 0. 0. 0. 0. 0. 0. 0. 0. 0. 0. 0. 0. 0. 1.53846154e-02 0.
      0. 0. 0. 0. 0. 0. 1.53846154e-02 0. 0. 0. 0. 0. 0. 0. 0.
      1.53846154e-02 0. 0. 0. 0. 0. 0. 0. 0. 0. 0. 0. 0. 0. 0. 0. 0. 0.
      0. 0. 0. 0. 0. 0. 0. 0. 0. 0. 0. 0. 0. 0. 0. 0. 0. 0. 0. 0. 0. 0.
      0. 0. 0. 0. 1.53846154e-02 0. 0. 0. 1.53846154e-02 0. 0. 0. 0. 0.
      0. 0. 0. 0. 0. 0. 0. 0. 0. 0. 0. 0. 0. 0. 0. 0. 1.53846154e-02 0.
      0. 0. 0. 0. 1.53846154e-02 0. 0. 0. 0. 0. 0. 0. 0. 0. 0. 0. 0. 0.
      0. 0. 0. 0. 0. 0. 0. 0. 0. 0. 0. 0. 0. 0. 0. 0. 0. 0. 0. 0. 0. 0.
      0. 0. 1.53846154e-02 0. 0. 1.53846154e-02 0. 0. 0. 0. 0. 0. 0. 0.
      0. 0. 0. 0. 0. 1.53846154e-02 0. 0. 0. 0. 0. 0. 0. 0. 0. 0. 0. 0.
      0. 0. 0. 0. 0. 0. 0. 0. 0. 0. 1.53846154e-02 1.53846154e-02 0. 0.
      0. 0. 0. 0. 0. 0. 1.53846154e-02 0. 0. 1.53846154e-02 0. 0. 0. 0.
      0. 0. 0. 0. 0. 0. 0. 0. 0. 0. 1.53846154e-02 0. 0. 0. 0. 0. 0. 0.
      0. 0. 0. 0. 0. 0. 0. 0. 0. 0. 0. 0. 0. 1.53846154e-02 0. 0. 0. 0.
      0. 0. 0. 0. 0. 0. 0. 0. 0. 0. 0. 0. 0. 0. 0. 0. 0. 0.
      1.53846154e-02 0. 0. 0. 0. 0. 0. 0. 0. 0. 0. 0. 0. 0. 0. 0. 0. 0.
      0. 0. 0. 0. 1.53846154e-02 0. 0. 0. 0. 0. 0. 0. 0. 0. 0. 0. 0. 0.
      0. 0. 0. 0. 0. 0. 0. 0. 0. 0. 0. 0. 0. 0. 0. 0. 0. 1.53846154e-02
      0. 0. 0. 0. 0. 0. 0. 0. 0. 0. 0. 0. 0. 0. 0. 1.53846154e-02 0.
      1.53846154e-02 0. 0. 0. 1.53846154e-02 0. 0. 0. 0. 0. 0. 0. 0. 0.
      0. 0. 0. 0. 0. 0. 0. 0. 0. 0. 0. 0. 0. 0. 0. 0. 0. 0. 0. 0. 0. 0.
      0. 0. 0. 0. 0. 1.53846154e-02 0. 0. 1.53846154e-02 0. 0. 0. 0. 0.
      0. 0. 0. 0. 0. 0. 0. 0. 0. 0. 0. 0. 0. 0. 0. 0. 0. 0. 0. 0. 0. 0.
      0. 0. 0. 0. 0. 0. 0. 0. 0. 0. 0. 0. 0. 0. 0. 0. 0. 0. 0. 0. 0. 0.
      0. 0. 0. 0. 0. 0. 0. 0. 0. 0. 0. 0. 0. 0. 0. 0. 0. 0. 0. 0. 0. 0.
      0. 0. 0. 0. 0. 0. 0. 0. 0. 0. 0. 0. 0. 0. 0. 0. 0. 0. 0.
      1.53846154e-02 0. 0. 0. 0. 1.53846154e-02 0. 0. 0. 0.
      1.53846154e-02 0. 0. 0. 0. 0. 0. 0. 0. 0. 0. 0. 0. 0. 0. 0. 0. 0.
      0. 0. 0. 0. 0. 0. 0. 0. 0. 0. 0. 0. 0. 0. 0. 0. 0. 0. 0. 0. 0. 0.
      1.53846154e-02 0. 0. 0. 0. 0. 0. 0. 0. 0. 0. 0. 0. 0. 0. 0. 0. 0.
      0. 0. 0. 0. 0. 0. 0. 0. 1.53846154e-02 0. 0. 0. 0. 0. 0. 0. 0. 0.
      0. 0. 0. 0. 0. 0. 0. 0. 0. 0. 0. 0. 0. 0. 0. 0. 0. 0. 0.
      1.53846154e-02 0. 0. 1.53846154e-02 0. 0. 0. 0. 0. 0. 0. 0. 0. 0.
      1.53846154e-02 0. 0. 0. 0. 0. 0. 0. 0. 0. 0. 0. 0. 0. 0. 0.
      1.53846154e-02 0. 1.53846154e-02 0. 0. 0. 0. 0. 0. 0. 0. 0. 0. 0.
      1.53846154e-02 0. 0. 0. 0. 0. 0. 0. 0. 0. 0. 0. 0. 0. 0. 0. 0.
      1.53846154e-02 0. 1.53846154e-02 0. 0. 0. 0. 0. 0. 1.53846154e-02
      1.53846154e-02 0. 0. 0. 0. 0. 0. 0. 0. 0. 0. 0. 0. 0. 0. 0. 0. 0.
      0. 0. 0. 0. 0. 0. 0. 0. 0. 0. 0. 0. 0. 0. 0. 0. 1.53846154e-02 0.
      0. 0. 0. 0. 0. 1.53846154e-02 0. 0. 0. 0. 0. 0. 0. 0. 0. 0. 0. 0.
      0. 0. 0. 0. 0. 0. 0. 0. 0. 0. 0. 0. 0. 0. 0. 0. 0. 0. 0. 0. 0. 0.
      0. 0. 0. 0. 0. 1.53846154e-02 0. 0. 0. 0. 0. 0. 0. 0. 0. 0. 0. 0.
      0. 0. 0. 0. 0. 0. 0. 0. 0. 0. 0. 0. 0. 0. 0. 0. 0. 0. 0. 0. 0. 0.
      0. 0. 0. 0. 0. 0. 0. 0. 0. 1.53846154e-02 0. 0. 0. 1.53846154e-02
      0. 0. 0. 0. 0. 0. 0. 0. 0. 0. 0. 1.53846154e-02 0. 0. 0. 0. 0.</_>
    <_>
      0. 0. 2.94117648e-02 0. 0. 0. 0. 0. 0. 0. 1.47058824e-02 0. 0. 0.
      0. 0. 0. 0. 0. 0. 0. 0. 0. 0. 0. 0. 0. 1.47058824e-02 0. 0. 0. 0.
      0. 0. 0. 1.47058824e-02 0. 0. 0. 0. 0. 0. 0. 0. 0. 0. 0. 0. 0. 0.
      0. 0. 0. 0. 0. 0. 1.47058824e-02 0. 0. 0. 0. 1.47058824e-02 0. 0.
      0. 0. 0. 0. 0. 0. 0. 0. 0. 0. 0. 0. 0. 1.47058824e-02 0. 0. 0. 0.
      0. 0. 0. 0. 0. 0. 0. 0. 0. 0. 0. 0. 0. 0. 0. 0. 0. 0. 0. 0.
      1.47058824e-02 0. 0. 0. 0. 1.47058824e-02 1.47058824e-02 0. 0. 0.
      0. 0. 0. 1.47058824e-02 1.47058824e-02 0. 0. 0. 0. 0. 0. 0. 0.
      1.47058824e-02 0. 0. 0. 0. 0. 0. 0. 0. 0. 0. 0. 0. 0. 0.
      1.47058824e-02 0. 0. 1.47058824e-02 0. 0. 0. 0. 0. 0. 0. 0. 0. 0.
      0. 0. 1.47058824e-02 0. 0. 0. 1.47058824e-02 1.47058824e-02
      1.47058824e-02 0. 0. 0. 0. 0. 0. 0. 0. 0. 0. 0. 0. 0. 0. 0. 0. 0.
      0. 0. 0. 0. 0. 0. 0. 0. 0. 0. 0. 0. 0. 0. 0. 1.47058824e-02 0. 0.
      0. 0. 0. 0. 0. 0. 1.47058824e-02 0. 0. 0. 0. 0. 0. 0.
      1.47058824e-02 0. 0. 0. 0. 0. 0. 0. 0. 0. 0. 0. 0. 0. 0. 0. 0. 0.
      0. 0. 0. 0. 0. 0. 0. 0. 0. 0. 1.47058824e-02 0. 0. 0. 0. 0. 0. 0.
      0. 0. 0. 0. 0. 0. 0. 0. 0. 1.47058824e-02 0. 0. 0. 0. 0. 0. 0. 0.
      0. 0. 1.47058824e-02 0. 0. 0. 0. 0. 0. 0. 1.47058824e-02 0. 0. 0.
      0. 0. 0. 0. 0. 0. 0. 0. 0. 0. 0. 0. 0. 0. 0. 0. 0. 0. 0. 0.
      1.47058824e-02 0. 0. 0. 0. 0. 0. 0. 0. 0. 0. 0. 0. 0. 0. 0. 0. 0.
      0. 1.47058824e-02 0. 0. 0. 0. 0. 0. 0. 0. 0. 0. 0. 0. 0. 0. 0.
      2.94117648e-02 0. 0. 0. 0. 0. 0. 0. 0. 0. 0. 0. 0. 0. 0. 0. 0. 0.
      1.47058824e-02 0. 0. 0. 0. 0. 0. 0. 0. 0. 1.47058824e-02 0. 0. 0.
      0. 1.47058824e-02 0. 0. 0. 0. 0. 0. 0. 0. 0. 0. 0. 0. 0. 0. 0. 0.
      0. 0. 0. 0. 0. 0. 0. 0. 0. 1.47058824e-02 0. 1.47058824e-02 0. 0.
      0. 0. 0. 0. 0. 0. 0. 0. 0. 0. 0. 0. 0. 0. 0. 0. 0. 0. 0. 0. 0. 0.
      0. 0. 0. 0. 0. 0. 0. 0. 0. 0. 0. 0. 0. 0. 0. 0. 0. 0. 0. 0. 0. 0.
      0. 0. 0. 0. 0. 0. 0. 0. 0. 0. 0. 0. 0. 0. 0. 0. 0. 0. 0. 0. 0. 0.
      0. 0. 0. 0. 0. 0. 0. 0. 0. 0. 0. 1.47058824e-02 0. 0. 0. 0. 0. 0.
      0. 0. 0. 0. 0. 0. 0. 0. 0. 0. 0. 0. 0. 0. 0. 0. 0. 0. 0. 0. 0. 0.
      0. 0. 0. 0. 0. 0. 0. 0. 0. 0. 0. 0. 1.47058824e-02 0. 0. 0. 0. 0.
      0. 0. 0. 0. 0. 0. 0. 0. 0. 0. 0. 0. 0. 0. 0. 0. 0. 1.47058824e-02
      0. 0. 0. 0. 0. 0. 0. 0. 0. 0. 0. 0. 0. 0. 0. 0. 0. 0. 0.
      1.47058824e-02 1.47058824e-02 0. 0. 0. 0. 1.47058824e-02 0. 0. 0.
      0. 0. 0. 0. 0. 0. 0. 0. 0. 0. 0. 0. 1.47058824e-02 0. 0. 0. 0. 0.
      0. 0. 0. 1.47058824e-02 0. 0. 0. 0. 0. 0. 0. 0. 0. 0. 0. 0. 0. 0.
      0. 0. 0. 0. 0. 0. 0. 0. 0. 0. 0. 0. 0. 0. 0. 0. 0. 0. 0. 0. 0. 0.
      0. 0. 0. 0. 0. 0. 0. 0. 0. 0. 0. 0. 0. 0. 0. 0. 0. 0. 0. 0. 0. 0.
      0. 0. 0. 0. 0. 0. 0. 0. 0. 0. 0. 0. 0. 0. 0. 0. 0. 0. 0. 0. 0. 0.
      0. 0. 0. 0. 0. 0. 0. 0. 0. 0. 1.47058824e-02 0. 0. 0. 0. 0. 0. 0.
      0. 0. 0. 0. 0. 1.47058824e-02 1.47058824e-02 0. 0. 0. 0. 0. 0. 0.
      0. 0. 0. 0. 0. 0. 0. 0. 0. 0. 0. 0. 0. 0. 0. 0. 0. 0. 0. 0. 0. 0.
      0. 0. 0. 0. 1.47058824e-02 0. 0. 0. 0. 0. 0. 0. 0. 0. 0. 0. 0. 0.
      0. 1.47058824e-02 0. 0. 0. 0. 0. 0. 0. 0. 0. 0. 0. 0. 0. 0. 0. 0.
      0. 0. 1.47058824e-02 0. 0. 1.47058824e-02 0. 0. 0. 0. 0. 0. 0. 0.
      0. 0. 1.47058824e-02 0. 0. 1.47058824e-02 0. 0. 0. 0. 0. 0. 0. 0.
      0. 0. 0. 0. 0. 0. 0. 0. 0. 1.47058824e-02 1.47058824e-02 0. 0. 0.
      0. 0. 0. 0. 0. 0. 0. 0. 0. 0. 0. 0. 0. 0. 0. 0. 0. 0. 0. 0. 0. 0.
      1.47058824e-02 0. 0. 0. 0. 0. 0. 1.47058824e-02 0. 1.47058824e-02
      0. 0. 0. 0. 0. 0. 0. 0. 0. 0. 0. 0. 0. 0. 0. 0. 1.47058824e-02 0.
      0. 0. 0. 0. 0. 0. 0. 0. 0. 1.47058824e-02 0. 0. 0. 0.
      1.47058824e-02 0. 1.47058824e-02 0. 0. 0. 0. 0. 0. 0. 0. 0. 0. 0.
      0. 0. 0. 0. 0. 0. 0. 0. 0. 0. 0. 1.47058824e-02 0. 0. 0. 0. 0. 0.
      0. 0. 0. 0. 0. 0. 0. 0. 0. 0. 0. 0. 0. 0. 0. 0. 0. 0.
      1.47058824e-02 0. 0. 0. 0. 0. 0. 0. 0. 0. 0. 0. 0. 0. 0. 0. 0. 0.
      0. 0. 0. 0. 0. 0. 0. 0. 0. 0. 0. 0. 1.47058824e-02 0. 0. 0. 0. 0.
      0. 0. 0. 1.47058824e-02 0. 0. 0. 0. 0. 0. 0. 0. 0. 0. 0. 0. 0. 0.
      0. 0. 0. 0. 0. 0. 0. 0. 0. 0. 1.47058824e-02 0. 0. 0. 0.
      1.47058824e-02 0. 0. 0. 0. 0. 0. 0. 0. 0. 0. 0. 0.</_>
    <_>
      0. 0. 0. 1.47058824e-02 0. 0. 0. 0. 2.94117648e-02 0. 0. 0.
      1.47058824e-02 0. 0. 0. 0. 0. 0. 0. 0. 0. 0. 0. 1.47058824e-02 0.
      0. 0. 0. 0. 0. 0. 0. 0. 0. 0. 0. 0. 0. 0. 2.94117648e-02 0. 0.
      1.47058824e-02 0. 0. 0. 1.47058824e-02 0. 1.47058824e-02 0. 0. 0.
      0. 0. 2.94117648e-02 0. 0. 0. 0. 0. 0. 0. 0. 0. 0. 0. 0. 0. 0. 0.
      0. 0. 0. 0. 0. 0. 0. 0. 0. 0. 0. 1.47058824e-02 0. 0. 0. 0. 0. 0.
      0. 0. 0. 0. 0. 0. 0. 0. 0. 0. 0. 0. 0. 0. 0. 0. 0. 0. 0. 0. 0. 0.
      0. 0. 0. 0. 0. 0. 0. 1.47058824e-02 0. 0. 0. 0. 0. 0. 0. 0. 0. 0.
      0. 0. 0. 0. 0. 0. 0. 0. 0. 0. 0. 0. 0. 0. 0. 0. 0. 0. 0. 0. 0. 0.
      0. 1.47058824e-02 0. 0. 0. 0. 0. 0. 0. 0. 0. 0. 0. 0. 0. 0. 0. 0.
      0. 0. 0. 0. 0. 0. 0. 0. 0. 0. 0. 0. 0. 0. 0. 0. 0. 0. 0. 0. 0. 0.
      0. 0. 0. 0. 0. 0. 0. 0. 0. 0. 0. 0. 0. 0. 0. 0. 0. 0. 0.
      1.47058824e-02 0. 0. 0. 0. 0. 0. 0. 0. 0. 0. 0. 0. 0. 0. 0. 0. 0.
      0. 0. 0. 1.47058824e-02 0. 0. 0. 0. 0. 0. 0. 0. 0. 0. 0. 0. 0. 0.
      0. 0. 0. 1.47058824e-02 0. 0. 0. 0. 0. 0. 0. 0. 0. 0. 0. 0. 0. 0.
      0. 0. 0. 0. 0. 0. 0. 0. 0. 0. 0. 0. 0. 0. 0. 0. 1.47058824e-02 0.
      0. 0. 0. 0. 0. 0. 0. 0. 0. 0. 1.47058824e-02 0. 0. 0. 0. 0. 0. 0.
      0. 0. 0. 0. 0. 0. 0. 0. 0. 0. 0. 0. 0. 0. 0. 0. 0. 0. 0. 0. 0. 0.
      0. 0. 2.94117648e-02 0. 0. 0. 0. 0. 0. 0. 0. 0. 0. 0. 0. 0. 0. 0.
      0. 0. 0. 0. 0. 0. 0. 0. 0. 0. 0. 0. 0. 0. 0. 0. 0. 1.47058824e-02
      0. 0. 0. 0. 1.47058824e-02 0. 1.47058824e-02 0. 0. 0. 0.
      1.47058824e-02 0. 0. 0. 0. 2.94117648e-02 0. 0. 0. 0. 0. 0. 0. 0.
      0. 0. 0. 0. 0. 0. 0. 0. 0. 0. 0. 1.47058824e-02 0. 0.
      1.47058824e-02 0. 0. 0. 0. 0. 0. 0. 0. 0. 0. 0. 0. 0. 0. 0. 0.
      1.47058824e-02 0. 0. 0. 0. 0. 0. 0. 0. 0. 0. 0. 0. 0. 0. 0. 0.
      1.47058824e-02 0. 0. 0. 0. 0. 0. 0. 0. 0. 0. 0. 0. 0. 0. 0.
      2.94117648e-02 0. 0. 0. 0. 0. 0. 0. 0. 0. 0. 0. 1.47058824e-02 0.
      0. 0. 0. 0. 0. 0. 0. 0. 0. 0. 0. 1.47058824e-02 0. 0. 0. 0. 0. 0.
      0. 0. 0. 0. 0. 0. 0. 0. 0. 0. 0. 0. 0. 1.47058824e-02 0. 0. 0. 0.
      0. 0. 0. 0. 0. 0. 0. 0. 0. 0. 0. 0. 0. 0. 0. 0. 0. 0. 0. 0. 0. 0.
      0. 0. 0. 0. 0. 0. 0. 0. 0. 0. 0. 0. 0. 0. 0. 0. 0. 0. 0. 0. 0. 0.
      0. 0. 0. 0. 0. 0. 0. 0. 0. 0. 0. 0. 0. 0. 0. 0. 0. 2.94117648e-02
      0. 0. 0. 0. 0. 0. 0. 0. 0. 0. 0. 0. 0. 0. 0. 0. 1.47058824e-02
      1.47058824e-02 0. 0. 0. 0. 0. 0. 0. 0. 0. 0. 0. 0. 0. 0. 0. 0. 0.
      0. 0. 0. 0. 0. 0. 0. 0. 0. 0. 1.47058824e-02 0. 0. 0.
      1.47058824e-02 0. 0. 0. 0. 0. 0. 0. 1.47058824e-02 0. 0. 0. 0. 0.
      0. 0. 1.47058824e-02 0. 0. 0. 0. 0. 0. 1.47058824e-02 0. 0. 0. 0.
      0. 0. 0. 0. 0. 0. 0. 0. 0. 0. 0. 0. 0. 1.47058824e-02 0. 0.
      1.47058824e-02 0. 0. 0. 0. 1.47058824e-02 0. 1.47058824e-02 0. 0.
      0. 0. 0. 0. 0. 0. 0. 0. 0. 0. 0. 0. 0. 0. 0. 0. 0. 0. 0. 0. 0. 0.
      0. 0. 0. 0. 0. 0. 0. 0. 0. 1.47058824e-02 0. 0. 0. 0. 0. 0.
      2.94117648e-02 0. 0. 0. 0. 0. 0. 0. 0. 0. 0. 0. 0. 0. 0. 0. 0. 0.
      0. 0. 0. 0. 0. 0. 0. 1.47058824e-02 0. 0. 0. 0. 0. 0. 0. 0. 0. 0.
      0. 1.47058824e-02 0. 0. 0. 0. 0. 0. 0. 1.47058824e-02 0. 0. 0. 0.
      0. 0. 0. 0. 0. 0. 0. 0. 0. 0. 0. 0. 0. 0. 0. 0. 0. 0. 0. 0.
      1.47058824e-02 0. 0. 0. 0. 0. 0. 0. 0. 0. 0. 0. 0. 0. 0. 0. 0. 0.
      0. 0. 0. 0. 0. 0. 0. 0. 1.47058824e-02 0. 0. 0. 0. 0. 0. 0. 0. 0.
      0. 0. 0. 0. 0. 0. 0. 0. 0. 0. 0. 0. 0. 0. 0. 0. 0. 0. 0. 0. 0. 0.
      0. 0. 0. 0. 1.47058824e-02 0. 0. 0. 0. 1.47058824e-02 0. 0. 0. 0.
      0. 0. 0. 0. 0. 0. 0. 0. 1.47058824e-02 0. 0. 0. 0. 0. 0. 0. 0. 0.
      0. 0. 0. 0. 0. 0. 0. 0. 0. 0. 0. 0. 0. 0. 0. 0. 0. 0. 0. 0. 0. 0.
      1.47058824e-02 0. 0. 2.94117648e-02 0. 0. 0. 0. 0. 0. 0. 0. 0. 0.
      0. 0. 0. 0. 0. 0. 0. 0. 0. 0. 0. 0. 1.47058824e-02 0. 0. 0. 0. 0.
      0. 0. 0. 0. 0. 0. 0. 0. 0. 0. 0. 0. 0. 0. 0. 0. 0. 0.
      1.47058824e-02 0. 0. 0. 0. 0. 0. 0. 0. 0. 0. 0. 0. 0. 0. 0.
      1.47058824e-02 0. 0. 0. 0. 0. 0. 0. 0. 0. 0. 0. 0. 0. 0. 0. 0. 0.
      0. 0. 0. 0. 0. 1.47058824e-02 0. 0. 0. 0. 0. 0. 0. 0. 0. 0. 0. 0.
      0. 0. 0. 0. 0. 0. 0. 0. 0. 0. 0. 0. 0. 0. 0. 0.</_>
    <_>
      0. 0. 0. 0. 0. 0. 0. 0. 0. 0. 0. 2.50000004e-02 0. 0. 0. 0. 0. 0.
      0. 0. 0. 0. 0. 0. 0. 1.25000002e-02 0. 1.25000002e-02 0. 0. 0. 0.
      1.25000002e-02 0. 0. 0. 0. 0. 0. 0. 1.25000002e-02 0.
      1.25000002e-02 0. 0. 0. 0. 0. 0. 0. 0. 0. 0. 0. 0. 0. 0. 0. 0. 0.
      0. 0. 0. 0. 0. 0. 0. 0. 0. 0. 0. 0. 0. 0. 0. 1.25000002e-02
      1.25000002e-02 1.25000002e-02 0. 0. 0. 0. 0. 0. 1.25000002e-02 0.
      0. 0. 1.25000002e-02 0. 0. 0. 1.25000002e-02 0. 0. 1.25000002e-02
      0. 0. 0. 0. 0. 0. 0. 0. 0. 0. 0. 0. 0. 0. 1.25000002e-02 0. 0. 0.
      0. 0. 0. 0. 0. 0. 0. 0. 0. 0. 0. 0. 1.25000002e-02 0. 0. 0.
      1.25000002e-02 0. 0. 0. 0. 0. 0. 0. 0. 0. 0. 0. 0. 0. 0. 0. 0. 0.
      0. 0. 0. 0. 0. 0. 0. 0. 0. 0. 0. 0. 0. 0. 1.25000002e-02 0. 0. 0.
      0. 0. 0. 2.50000004e-02 0. 0. 0. 0. 1.25000002e-02 0. 0.
      1.25000002e-02 0. 0. 0. 0. 0. 0. 0. 0. 0. 0. 0. 0. 0. 0. 0. 0. 0.
      0. 0. 0. 1.25000002e-02 0. 0. 0. 0. 0. 0. 0. 0. 0. 0. 0. 0. 0. 0.
      0. 0. 1.25000002e-02 0. 0. 0. 0. 0. 0. 0. 0. 0. 0. 0.
      1.25000002e-02 0. 1.25000002e-02 0. 0. 0. 0. 0. 0. 0. 0. 0.
      1.25000002e-02 0. 0. 0. 0. 0. 0. 0. 1.25000002e-02 0. 0. 0. 0. 0.
      0. 0. 0. 0. 0. 0. 0. 0. 0. 0. 0. 1.25000002e-02 0. 0.
      1.25000002e-02 0. 0. 0. 0. 0. 1.25000002e-02 0. 1.25000002e-02 0.
      0. 0. 0. 0. 1.25000002e-02 0. 1.25000002e-02 0. 0. 0. 0. 0. 0. 0.
      0. 0. 0. 0. 1.25000002e-02 0. 0. 0. 0. 0. 0. 0. 0. 0. 0. 0. 0. 0.
      0. 0. 0. 0. 0. 0. 0. 0. 0. 0. 0. 1.25000002e-02 0. 0. 0. 0. 0. 0.
      0. 1.25000002e-02 0. 0. 0. 0. 0. 0. 0. 0. 0. 0. 0. 0. 0. 0. 0. 0.
      0. 0. 0. 0. 0. 0. 0. 0. 1.25000002e-02 1.25000002e-02 0. 0. 0. 0.
      0. 0. 0. 0. 0. 0. 0. 1.25000002e-02 0. 0. 0. 0. 1.25000002e-02
      1.25000002e-02 0. 0. 0. 0. 0. 0. 0. 0. 0. 0. 0. 0. 0. 0. 0. 0. 0.
      0. 0. 0. 0. 0. 0. 0. 0. 0. 0. 0. 0. 0. 0. 0. 0. 0. 0. 0. 0. 0. 0.
      0. 0. 0. 0. 0. 0. 0. 0. 0. 0. 0. 0. 0. 0. 0. 0. 0. 0. 0. 0. 0. 0.
      0. 0. 0. 0. 0. 0. 0. 0. 0. 0. 0. 0. 0. 0. 0. 0. 0. 0. 0. 0. 0. 0.
      0. 0. 0. 0. 0. 0. 0. 0. 0. 0. 0. 0. 0. 0. 0. 0. 0. 0. 0. 0. 0. 0.
      0. 0. 0. 0. 0. 0. 0. 0. 0. 0. 0. 0. 0. 0. 1.25000002e-02 0. 0. 0.
      0. 1.25000002e-02 0. 0. 0. 0. 0. 0. 0. 0. 0. 0. 0. 0.
      1.25000002e-02 0. 0. 0. 0. 0. 0. 0. 0. 0. 0. 0. 0. 0. 0. 0. 0. 0.
      0. 0. 0. 0. 0. 0. 0. 0. 0. 0. 0. 0. 0. 0. 0. 0. 0. 0. 0. 0. 0. 0.
      0. 0. 1.25000002e-02 0. 0. 0. 1.25000002e-02 0. 0. 1.25000002e-02
      0. 0. 0. 0. 0. 0. 0. 0. 0. 0. 0. 0. 0. 0. 0. 0. 0. 0. 0. 0.
      1.25000002e-02 0. 0. 0. 0. 0. 0. 0. 0. 0. 0. 0. 0. 1.25000002e-02
      0. 1.25000002e-02 0. 1.25000002e-02 0. 0. 0. 0. 0. 0. 0. 0. 0. 0.
      0. 0. 0. 0. 0. 0. 0. 0. 0. 0. 0. 0. 0. 0. 0. 0. 0. 0. 0. 0. 0. 0.
      0. 0. 0. 0. 0. 0. 0. 1.25000002e-02 0. 0. 0. 0. 0. 1.25000002e-02
      0. 0. 0. 0. 0. 0. 0. 0. 0. 0. 0. 0. 0. 0. 0. 0. 0. 0. 0. 0. 0. 0.
      0. 0. 0. 0. 0. 0. 0. 0. 0. 0. 0. 0. 0. 0. 0. 0. 0. 0.
      1.25000002e-02 0. 0. 0. 0. 0. 0. 0. 0. 0. 0. 0. 0. 0. 0. 0. 0. 0.
      0. 0. 0. 0. 0. 0. 0. 0. 0. 1.25000002e-02 0. 0. 0. 0. 0.
      1.25000002e-02 0. 0. 0. 0. 0. 0. 0. 0. 0. 0. 0. 0. 0. 0. 0. 0. 0.
      0. 0. 1.25000002e-02 0. 0. 0. 0. 0. 0. 0. 0. 1.25000002e-02 0. 0.
      0. 0. 0. 0. 1.25000002e-02 0. 0. 0. 0. 0. 0. 0. 0. 0. 0. 0. 0. 0.
      0. 0. 1.25000002e-02 0. 0. 0. 0. 0. 0. 0. 0. 0. 0. 0. 0. 0. 0. 0.
      0. 0. 1.25000002e-02 0. 0. 0. 0. 0. 0. 0. 0. 0. 0. 0. 0. 0. 0. 0.
      0. 0. 1.25000002e-02 0. 0. 0. 0. 0. 0. 0. 0. 0. 0. 0. 0. 0. 0.
      1.25000002e-02 0. 0. 2.50000004e-02 1.25000002e-02 0. 0. 0. 0.
      1.25000002e-02 0. 0. 1.25000002e-02 0. 0. 0. 1.25000002e-02 0. 0.
      0. 0. 0. 0. 0. 0. 1.25000002e-02 0. 0. 0. 0. 1.25000002e-02 0. 0.
      0. 0. 0. 0. 0. 0. 0. 0. 0. 0. 0. 0. 1.25000002e-02 0. 0.
      1.25000002e-02 0. 0. 0. 0. 0. 0. 0. 0. 0. 0. 0. 0. 0. 0. 0. 0.
      1.25000002e-02 0. 0. 1.25000002e-02 1.25000002e-02 0. 0. 0. 0. 0.
      0. 0. 0. 0. 0. 0. 0. 1.25000002e-02 0. 0. 0. 0. 0. 0. 0. 0. 0. 0.
      0. 0. 0. 0. 0. 0. 0. 0. 0. 0. 0. 0. 0. 0. 0. 0. 0. 0. 0. 0. 0. 0.
      0. 0. 0. 0. 0. 0. 0. 0. 0. 0. 0. 0. 0. 0. 0. 0. 0. 0. 0. 0. 0. 0.
      0. 0. 0. 0. 0. 0. 0. 0. 0. 0. 0. 0. 1.25000002e-02 0. 0. 0. 0. 0.
      0. 0. 0. 0. 0. 0. 0. 0. 0. 1.25000002e-02 0. 0. 0. 0. 0. 0. 0. 0.
      0. 0. 0. 0. 0. 0. 0.</_>
    <_>
      0. 0. 0. 0. 0. 0. 0. 0. 0. 0. 0. 0. 1.06382975e-02 0. 0. 0. 0. 0.
      0. 0. 0. 0. 0. 0. 0. 2.12765951e-02 0. 0. 0. 0. 0. 0. 0. 0. 0. 0.
      2.12765951e-02 0. 0. 0. 0. 0. 0. 0. 1.06382975e-02 0. 0. 0. 0. 0.
      0. 0. 0. 0. 0. 0. 0. 0. 0. 0. 0. 0. 0. 0. 0. 0. 0. 0. 0. 0. 0.
      1.06382975e-02 1.06382975e-02 0. 0. 0. 0. 0. 0. 0. 0. 0. 0. 0. 0.
      0. 0. 0. 0. 0. 0. 0. 0. 0. 0. 0. 0. 0. 0. 0. 0. 0. 0. 0. 0. 0.
      1.06382975e-02 0. 1.06382975e-02 0. 0. 0. 0. 0. 0. 0. 0. 0. 0. 0.
      0. 0. 0. 0. 0. 0. 0. 0. 0. 0. 0. 0. 0. 0. 0. 0. 0. 0. 0. 0. 0. 0.
      0. 0. 0. 0. 0. 0. 0. 0. 0. 0. 0. 0. 1.06382975e-02 0. 0. 0. 0. 0.
      0. 0. 0. 0. 0. 0. 0. 0. 0. 0. 0. 0. 0. 0. 0. 0. 0. 0. 0.
      1.06382975e-02 0. 0. 0. 0. 0. 0. 1.06382975e-02 0. 0. 0. 0. 0. 0.
      0. 0. 1.06382975e-02 0. 0. 0. 0. 0. 1.06382975e-02 0.
      1.06382975e-02 1.06382975e-02 0. 0. 0. 0. 0. 0. 0. 0. 0. 0. 0. 0.
      0. 0. 0. 0. 0. 0. 0. 0. 0. 0. 0. 0. 0. 0. 0. 0. 0. 0. 0. 0. 0. 0.
      1.06382975e-02 0. 0. 0. 0. 0. 0. 0. 0. 0. 0. 0. 1.06382975e-02 0.
      0. 0. 0. 0. 0. 0. 3.19148935e-02 0. 0. 0. 0. 0. 0. 0. 0. 0. 0. 0.
      0. 0. 0. 0. 0. 0. 0. 0. 0. 0. 0. 0. 0. 0. 0. 0. 0. 0. 0. 0. 0. 0.
      0. 0. 0. 0. 0. 0. 0. 0. 0. 0. 0. 0. 0. 0. 0. 0. 0. 0. 0. 0. 0. 0.
      0. 0. 0. 1.06382975e-02 0. 0. 0. 0. 1.06382975e-02 0. 0. 0. 0. 0.
      0. 0. 0. 0. 0. 0. 0. 0. 0. 1.06382975e-02 0. 0. 0. 0. 0. 0. 0. 0.
      0. 0. 0. 0. 0. 0. 1.06382975e-02 0. 0. 1.06382975e-02 0.
      1.06382975e-02 0. 1.06382975e-02 1.06382975e-02 0. 0. 0. 0. 0. 0.
      0. 0. 0. 0. 0. 0. 1.06382975e-02 0. 1.06382975e-02 0. 0. 0. 0. 0.
      0. 0. 0. 0. 0. 0. 0. 0. 0. 0. 2.12765951e-02 0. 0. 0. 0. 0. 0. 0.
      0. 0. 0. 0. 0. 0. 0. 0. 0. 0. 0. 0. 1.06382975e-02 0. 0. 0. 0. 0.
      0. 0. 0. 0. 0. 1.06382975e-02 0. 0. 0. 0. 0. 0. 1.06382975e-02 0.
      0. 0. 0. 0. 0. 0. 0. 0. 0. 0. 0. 0. 1.06382975e-02 1.06382975e-02
      0. 0. 0. 0. 0. 1.06382975e-02 0. 0. 1.06382975e-02 0. 0. 0. 0. 0.
      0. 0. 0. 1.06382975e-02 0. 0. 1.06382975e-02 0. 0. 0. 0. 0. 0. 0.
      0. 0. 0. 0. 1.06382975e-02 0. 0. 0. 0. 0. 0. 0. 1.06382975e-02 0.
      0. 0. 0. 0. 0. 0. 0. 0. 0. 0. 0. 0. 0. 0. 2.12765951e-02 0.
      1.06382975e-02 0. 0. 1.06382975e-02 0. 0. 1.06382975e-02 0. 0. 0.
      0. 0. 0. 0. 0. 0. 0. 0. 0. 0. 0. 0. 2.12765951e-02 0. 0. 0. 0. 0.
      0. 0. 0. 1.06382975e-02 2.12765951e-02 0. 0. 0. 1.06382975e-02 0.
      1.06382975e-02 0. 0. 0. 0. 1.06382975e-02 0. 0. 0. 0. 0. 0. 0. 0.
      0. 0. 0. 0. 1.06382975e-02 0. 0. 0. 0. 0. 0. 1.06382975e-02 0. 0.
      0. 0. 0. 0. 0. 0. 0. 0. 0. 0. 0. 0. 0. 0. 1.06382975e-02 0. 0. 0.
      0. 0. 0. 0. 0. 0. 0. 0. 0. 0. 0. 0. 1.06382975e-02 0. 0. 0. 0. 0.
      1.06382975e-02 0. 0. 0. 0. 0. 0. 0. 0. 0. 0. 0. 0. 0. 0. 0. 0. 0.
      0. 0. 0. 0. 0. 0. 0. 0. 0. 0. 0. 0. 0. 0. 0. 0. 0. 0. 0. 0. 0. 0.
      0. 0. 0. 0. 0. 0. 0. 0. 0. 0. 0. 0. 1.06382975e-02 1.06382975e-02
      0. 0. 0. 0. 0. 0. 0. 0. 0. 0. 0. 0. 1.06382975e-02 0. 0. 0. 0. 0.
      0. 0. 1.06382975e-02 0. 0. 0. 0. 0. 0. 0. 0. 1.06382975e-02 0. 0.
      0. 0. 0. 0. 0. 0. 0. 0. 0. 0. 0. 0. 0. 1.06382975e-02 0. 0. 0. 0.
      1.06382975e-02 0. 0. 0. 0. 0. 0. 0. 0. 0. 0. 0. 0. 0.
      1.06382975e-02 0. 0. 0. 0. 0. 0. 0. 0. 0. 0. 0. 0. 0. 0. 0.
      3.19148935e-02 0. 0. 0. 0. 0. 0. 0. 0. 0. 0. 0. 0. 0. 0. 0. 0. 0.
      0. 0. 0. 0. 0. 0. 0. 0. 0. 0. 0. 0. 0. 0. 0. 0. 0. 0. 0. 0. 0. 0.
      0. 1.06382975e-02 0. 0. 0. 0. 0. 0. 0. 0. 0. 0. 0. 0. 0. 0. 0. 0.
      0. 0. 0. 0. 0. 0. 0. 0. 0. 1.06382975e-02 0. 0. 0. 0.
      1.06382975e-02 0. 0. 0. 0. 0. 0. 0. 0. 0. 0. 0. 0. 0. 0. 0. 0. 0.
      0. 0. 0. 1.06382975e-02 0. 0. 0. 0. 0. 0. 1.06382975e-02 0.
      1.06382975e-02 0. 0. 0. 0. 0. 0. 0. 0. 0. 0. 0. 0. 0. 0.
      1.06382975e-02 0. 0. 0. 0. 0. 0. 0. 0. 0. 0. 1.06382975e-02 0. 0.
      0. 0. 0. 0. 0. 0. 0. 0. 0. 0. 0. 0. 0. 0. 0. 1.06382975e-02 0. 0.
      1.06382975e-02 0. 0. 0. 0. 0. 0. 0. 0. 0. 0. 0. 0. 1.06382975e-02
      0. 0. 0. 0. 1.06382975e-02 1.06382975e-02 0. 0. 0. 0. 0. 0. 0. 0.
      0. 0. 0. 1.06382975e-02 0. 1.06382975e-02 0. 0. 0. 0. 0. 0. 0. 0.
      1.06382975e-02 0. 0. 0. 0. 0. 0. 0. 0. 0. 0. 0. 0. 0. 0.
      1.06382975e-02 0. 0. 0. 0. 0. 0. 0. 0. 0. 0. 0. 0. 0. 0. 0. 0. 0.
      0. 0. 0. 0. 0. 1.06382975e-02 1.06382975e-02 0. 0. 1.06382975e-02
      0. 0. 0. 0. 0. 0. 0. 0. 0. 0. 0. 0. 0. 0. 0. 0. 0. 0. 0. 0. 0. 0.
      0. 0. 0. 0.</_>
    <_>
      0. 0. 0. 1.29870130e-02 0. 0. 0. 0. 2.59740259e-02 0. 0. 0. 0. 0.
      0. 0. 0. 0. 0. 0. 0. 0. 1.29870130e-02 0. 0. 0. 0. 0. 0. 0. 0. 0.
      0. 0. 0. 0. 0. 0. 0. 0. 0. 0. 0. 0. 0. 0. 0. 0. 0. 0. 0. 0. 0. 0.
      0. 1.29870130e-02 0. 0. 0. 1.29870130e-02 0. 0. 0. 0.
      1.29870130e-02 0. 0. 0. 0. 0. 0. 0. 0. 0. 0. 0. 0. 0. 0. 0. 0. 0.
      0. 0. 0. 0. 0. 0. 0. 0. 0. 1.29870130e-02 0. 0. 0. 0. 0.
      2.59740259e-02 0. 0. 0. 1.29870130e-02 0. 0. 0. 1.29870130e-02 0.
      0. 0. 0. 0. 0. 0. 0. 0. 0. 0. 0. 0. 0. 0. 0. 0. 0. 0. 0. 0. 0. 0.
      0. 0. 0. 0. 0. 0. 0. 0. 0. 0. 0. 0. 0. 0. 0. 0. 0. 0. 0. 0. 0. 0.
      0. 0. 0. 0. 1.29870130e-02 1.29870130e-02 0. 0. 0. 0. 0. 0. 0. 0.
      0. 0. 0. 0. 0. 0. 0. 0. 0. 1.29870130e-02 0. 0. 0. 0. 0. 0. 0. 0.
      0. 0. 0. 2.59740259e-02 0. 0. 1.29870130e-02 0. 0. 0. 0.
      1.29870130e-02 0. 0. 0. 0. 0. 0. 0. 0. 0. 0. 0. 0. 0. 0. 0. 0. 0.
      0. 0. 0. 1.29870130e-02 0. 0. 0. 0. 0. 0. 0. 0. 0. 0. 0. 0. 0. 0.
      0. 0. 0. 0. 0. 0. 0. 0. 1.29870130e-02 0. 0. 0. 0. 0. 0. 0.
      1.29870130e-02 0. 0. 0. 0. 0. 0. 0. 0. 0. 0. 0. 0. 0. 0. 0. 0. 0.
      1.29870130e-02 0. 0. 0. 0. 0. 0. 0. 0. 0. 0. 0. 0. 0. 0. 0.
      1.29870130e-02 0. 0. 0. 1.29870130e-02 0. 0. 0. 0. 0. 0. 0. 0. 0.
      0. 0. 1.29870130e-02 0. 0. 0. 0. 0. 0. 0. 0. 0. 0. 0. 0.
      1.29870130e-02 0. 0. 0. 0. 0. 0. 0. 0. 0. 1.29870130e-02 0. 0. 0.
      0. 0. 0. 0. 0. 0. 0. 0. 0. 0. 0. 0. 0. 0. 0. 0. 0. 0.
      1.29870130e-02 0. 0. 0. 0. 0. 0. 0. 0. 0. 0. 0. 0. 0. 0. 0. 0. 0.
      1.29870130e-02 0. 0. 0. 0. 0. 0. 0. 0. 0. 0. 0. 1.29870130e-02 0.
      0. 0. 0. 0. 0. 0. 0. 0. 0. 0. 0. 0. 0. 1.29870130e-02 0. 0. 0. 0.
      0. 0. 0. 0. 0. 0. 0. 0. 0. 0. 0. 0. 0. 0. 0. 0. 0. 0. 0.
      1.29870130e-02 0. 0. 0. 0. 0. 0. 0. 0. 0. 0. 0. 0. 0. 0. 0. 0.
      1.29870130e-02 0. 0. 0. 0. 0. 0. 0. 0. 0. 0. 0. 0. 0. 0. 0. 0. 0.
      0. 0. 0. 0. 0. 0. 0. 0. 0. 0. 0. 0. 0. 0. 0. 0. 0. 0. 0. 0. 0. 0.
      0. 0. 0. 0. 0. 0. 0. 0. 0. 0. 0. 0. 0. 0. 0. 0. 0. 0. 0. 0.
      1.29870130e-02 0. 0. 0. 0. 0. 0. 0. 0. 0. 0. 0. 0. 0. 0. 0. 0. 0.
      0. 0. 0. 0. 0. 1.29870130e-02 0. 0. 0. 0. 0. 1.29870130e-02 0. 0.
      0. 0. 0. 0. 0. 0. 0. 0. 2.59740259e-02 0. 0. 0. 0. 1.29870130e-02
      0. 0. 0. 0. 0. 0. 0. 0. 0. 0. 0. 0. 0. 0. 0. 0. 0. 0. 0. 0. 0. 0.
      0. 0. 0. 0. 0. 0. 0. 0. 0. 0. 0. 0. 0. 0. 0. 0. 0. 0. 0. 0. 0. 0.
      0. 0. 0. 0. 0. 0. 0. 0. 0. 0. 0. 0. 0. 0. 0. 1.29870130e-02 0. 0.
      0. 0. 0. 0. 0. 0. 0. 1.29870130e-02 0. 1.29870130e-02 0. 0. 0.
      1.29870130e-02 0. 0. 0. 2.59740259e-02 0. 0. 1.29870130e-02 0. 0.
      0. 1.29870130e-02 0. 0. 0. 0. 0. 0. 0. 0. 0. 0. 0. 0. 0. 0. 0. 0.
      0. 0. 0. 0. 1.29870130e-02 0. 0. 0. 0. 0. 0. 0. 0. 0. 0. 0.
      1.29870130e-02 1.29870130e-02 0. 0. 0. 0. 0. 1.29870130e-02 0. 0.
      0. 0. 0. 1.29870130e-02 0. 1.29870130e-02 0. 0. 0. 0. 0. 0. 0. 0.
      0. 0. 1.29870130e-02 0. 0. 1.29870130e-02 0. 0. 0. 0. 0. 0.
      1.29870130e-02 0. 0. 0. 0. 0. 0. 0. 1.29870130e-02 0. 0. 0. 0. 0.
      0. 0. 0. 0. 0. 0. 0. 0. 0. 0. 0. 1.29870130e-02 0. 0. 0. 0. 0. 0.
      0. 0. 0. 1.29870130e-02 1.29870130e-02 0. 0. 1.29870130e-02
      1.29870130e-02 0. 0. 0. 0. 0. 0. 0. 0. 1.29870130e-02 0. 0. 0. 0.
      0. 0. 0. 0. 0. 0. 0. 0. 0. 0. 0. 0. 0. 0. 0. 0. 0. 0. 0. 0. 0. 0.
      0. 0. 0. 0. 0. 0. 0. 0. 0. 0. 0. 0. 0. 0. 0. 0. 0. 0. 0. 0. 0. 0.
      0. 0. 0. 0. 0. 2.59740259e-02 0. 0. 0. 0. 0. 0. 0. 0. 0. 0. 0. 0.
      0. 0. 0. 0. 0. 0. 0. 0. 0. 0. 0. 0. 0. 0. 0. 1.29870130e-02 0. 0.
      0. 0. 0. 0. 0. 0. 0. 0. 0. 0. 0. 0. 0. 0. 0. 1.29870130e-02 0. 0.
      0. 0. 0. 0. 0. 0. 0. 0. 0. 0. 0. 0. 0. 0. 0. 0. 0. 0. 0.
      1.29870130e-02 0. 0. 0. 0. 0. 0. 0. 0. 0. 0. 0. 0. 1.29870130e-02
      0. 0. 0. 0. 0. 1.29870130e-02 0. 0. 0. 0. 0. 0. 0. 0. 0. 0. 0. 0.
      0. 0. 0. 0. 0. 0. 0. 0. 0. 0. 0. 0. 0. 0. 0. 1.29870130e-02 0. 0.
      0. 0. 0. 0. 0. 0. 0. 0. 0. 0. 0. 0. 0. 0. 0. 0. 0. 1.29870130e-02
      0. 0. 0. 0. 0. 0. 0. 0. 0. 0. 0. 0. 0. 0. 0. 0. 0. 0. 0. 0. 0.
      1.29870130e-02 0. 0. 0. 0. 0. 0. 0. 0. 0. 0. 1.29870130e-02 0. 0.
      0. 0. 0. 0. 0. 0. 0. 0. 0. 0. 0. 1.29870130e-02 0. 0. 0. 0. 0. 0.
      0. 0. 0. 0. 0. 0. 1.29870130e-02 0. 0. 0. 0. 0. 0. 0. 0. 0. 0. 0.
      0. 0.</_>
    <_>
      0. 0. 0. 0. 0. 0. 0. 0. 0. 0. 0. 0. 0. 0. 0. 9.80392192e-03 0. 0.
      0. 0. 0. 0. 0. 9.80392192e-03 0. 0. 0. 0. 0. 0. 0. 0. 0.
      9.80392192e-03 0. 0. 0. 0. 0. 9.80392192e-03 0. 0. 0. 0. 0. 0. 0.
      0. 0. 0. 0. 0. 0. 0. 0. 0. 0. 0. 0. 0. 0. 0. 0. 0. 0.
      9.80392192e-03 0. 0. 0. 0. 0. 0. 0. 0. 0. 0. 0. 0. 9.80392192e-03
      0. 0. 0. 0. 0. 0. 0. 0. 0. 0. 0. 0. 0. 0. 0. 0. 1.96078438e-02 0.
      0. 0. 0. 0. 9.80392192e-03 0. 0. 0. 0. 0. 0. 0. 0. 9.80392192e-03
      0. 0. 0. 0. 0. 9.80392192e-03 0. 0. 0. 0. 9.80392192e-03
      9.80392192e-03 0. 0. 9.80392192e-03 0. 0. 0. 0. 0. 0. 0. 0. 0. 0.
      0. 0. 0. 0. 0. 0. 0. 9.80392192e-03 0. 0. 0. 0. 0. 0. 0. 0. 0. 0.
      0. 0. 0. 0. 9.80392192e-03 0. 0. 0. 0. 0. 0. 0. 9.80392192e-03 0.
      0. 0. 0. 0. 0. 0. 0. 9.80392192e-03 0. 0. 0. 0. 0. 0. 0. 0. 0. 0.
      9.80392192e-03 0. 0. 0. 0. 0. 0. 9.80392192e-03 0. 0. 0. 0. 0. 0.
      0. 9.80392192e-03 0. 0. 0. 0. 0. 0. 0. 0. 0. 0. 0. 0. 0. 0. 0. 0.
      0. 0. 0. 0. 0. 9.80392192e-03 0. 9.80392192e-03 0. 0. 0. 0. 0. 0.
      0. 0. 0. 9.80392192e-03 0. 0. 0. 0. 0. 0. 0. 0. 0. 0. 0. 0. 0. 0.
      0. 0. 0. 0. 0. 0. 0. 0. 0. 0. 9.80392192e-03 0. 0. 0. 0. 0.
      9.80392192e-03 0. 0. 0. 0. 0. 0. 0. 0. 0. 0. 0. 0. 0. 0. 0. 0. 0.
      0. 0. 0. 0. 0. 0. 0. 0. 9.80392192e-03 0. 0. 0. 0. 0.
      9.80392192e-03 0. 0. 0. 0. 0. 0. 0. 0. 0. 0. 0. 0. 9.80392192e-03
      0. 9.80392192e-03 0. 0. 9.80392192e-03 0. 0. 0. 0. 0. 0. 0. 0. 0.
      0. 0. 0. 1.96078438e-02 0. 0. 0. 0. 0. 9.80392192e-03 0. 0. 0. 0.
      0. 0. 0. 0. 1.96078438e-02 0. 0. 0. 0. 0. 0. 0. 0. 0. 0. 0.
      9.80392192e-03 0. 9.80392192e-03 0. 0. 0. 0. 0. 0. 0. 0. 0. 0. 0.
      0. 0. 0. 0. 0. 0. 0. 9.80392192e-03 0. 0. 0. 0. 0. 9.80392192e-03
      0. 0. 0. 9.80392192e-03 0. 0. 0. 0. 9.80392192e-03 0. 0. 0. 0. 0.
      9.80392192e-03 0. 0. 0. 0. 0. 0. 9.80392192e-03 0. 0. 0. 0. 0. 0.
      0. 9.80392192e-03 0. 0. 0. 0. 9.80392192e-03 0. 0. 0.
      1.96078438e-02 0. 0. 0. 0. 0. 0. 0. 0. 0. 0. 0. 0. 0. 0. 0. 0. 0.
      0. 0. 0. 0. 0. 0. 0. 0. 0. 0. 0. 0. 0. 9.80392192e-03 0. 0. 0. 0.
      0. 0. 0. 0. 0. 0. 0. 0. 0. 0. 0. 0. 0. 0. 0. 9.80392192e-03 0. 0.
      9.80392192e-03 0. 0. 0. 0. 0. 0. 0. 0. 0. 0. 0. 0. 0. 0. 0. 0. 0.
      0. 0. 0. 0. 0. 9.80392192e-03 0. 9.80392192e-03 0. 0. 0. 0. 0. 0.
      0. 0. 0. 0. 9.80392192e-03 0. 0. 0. 0. 0. 0. 0. 0. 0. 0. 0. 0. 0.
      9.80392192e-03 0. 0. 0. 0. 0. 0. 0. 0. 0. 0. 0. 0. 0. 0. 0. 0. 0.
      0. 0. 0. 0. 0. 0. 0. 0. 0. 0. 0. 0. 0. 0. 0. 0. 0. 0. 0.
      9.80392192e-03 0. 0. 0. 0. 0. 0. 0. 0. 0. 0. 0. 0. 0. 0. 0. 0. 0.
      0. 9.80392192e-03 0. 0. 0. 0. 0. 0. 0. 0. 0. 0. 0. 0. 0. 0.
      9.80392192e-03 0. 0. 0. 0. 0. 0. 0. 0. 0. 0. 0. 0. 0. 0. 0. 0. 0.
      0. 0. 0. 0. 0. 9.80392192e-03 0. 0. 0. 0. 0. 0. 0. 0. 0. 0. 0. 0.
      0. 0. 0. 0. 0. 0. 0. 0. 0. 0. 9.80392192e-03 0. 0. 0. 0. 0. 0. 0.
      0. 0. 0. 0. 0. 0. 0. 0. 0. 0. 0. 0. 0. 0. 0. 0. 0. 0. 0. 0. 0. 0.
      0. 0. 0. 0. 9.80392192e-03 0. 1.96078438e-02 0. 0. 0. 0. 0. 0. 0.
      0. 0. 0. 0. 0. 0. 9.80392192e-03 0. 0. 0. 0. 0. 0. 0. 0. 0. 0. 0.
      0. 0. 0. 0. 0. 0. 0. 0. 0. 0. 0. 0. 0. 0. 0. 9.80392192e-03 0. 0.
      0. 0. 0. 0. 0. 0. 0. 0. 0. 0. 0. 0. 0. 0. 0. 0. 0. 0. 0. 0.
      9.80392192e-03 0. 0. 9.80392192e-03 0. 0. 0. 0. 0. 0. 0. 0. 0. 0.
      0. 0. 0. 0. 9.80392192e-03 0. 0. 0. 0. 0. 9.80392192e-03 0. 0. 0.
      0. 9.80392192e-03 0. 0. 0. 0. 0. 0. 9.80392192e-03 0. 0. 0. 0. 0.
      0. 0. 0. 0. 0. 0. 0. 0. 0. 0. 0. 0. 0. 0. 0. 0. 0. 9.80392192e-03
      9.80392192e-03 0. 0. 0. 0. 0. 0. 0. 0. 0. 0. 0. 0. 0. 0. 0. 0. 0.
      0. 0. 0. 0. 0. 0. 0. 9.80392192e-03 0. 9.80392192e-03 0. 0. 0. 0.
      0. 0. 0. 0. 9.80392192e-03 9.80392192e-03 0. 0. 0. 0. 0.
      9.80392192e-03 0. 0. 0. 0. 9.80392192e-03 0. 0. 0. 0. 0. 0. 0. 0.
      0. 9.80392192e-03 9.80392192e-03 0. 0. 0. 0. 0. 0. 0. 0. 0.
      9.80392192e-03 0. 0. 0. 0. 0. 0. 9.80392192e-03 0. 0. 0.
      9.80392192e-03 0. 0. 0. 0. 0. 0. 0. 0. 0. 0. 0. 0. 0. 0. 0. 0. 0.
      0. 0. 0. 0. 9.80392192e-03 0. 1.96078438e-02 9.80392192e-03 0. 0.
      0. 0. 0. 0. 0. 0. 0. 0. 0. 0. 9.80392192e-03 0. 0. 0. 0. 0. 0.
      9.80392192e-03 9.80392192e-03 0. 0. 0. 0. 0. 0. 9.80392192e-03 0.
      0. 0. 0. 0. 9.80392192e-03 0. 0. 0. 0. 0. 0. 0. 0. 0. 0.
      9.80392192e-03 0. 0. 0. 0. 0. 0. 9.80392192e-03 0. 0. 0.
      9.80392192e-03 0. 0. 0. 0. 0. 0. 0. 0. 0. 0. 9.80392192e-03 0. 0.
      0. 0. 9.80392192e-03 0. 9.80392192e-03 0. 0. 0. 0. 0.
      9.80392192e-03 0. 0. 0. 0. 9.80392192e-03 0. 0. 9.80392192e-03 0.
      0. 0.</_>
    <_>
      0. 1.28205130e-02 0. 0. 0. 0. 0. 0. 0. 0. 0. 0. 0. 0. 0. 0. 0. 0.
      0. 0. 0. 1.28205130e-02 0. 0. 0. 0. 0. 0. 0. 1.28205130e-02 0. 0.
      0. 0. 0. 0. 1.28205130e-02 0. 0. 0. 0. 0. 0. 0. 0. 0. 0. 0. 0. 0.
      0. 0. 0. 0. 0. 0. 0. 0. 0. 0. 0. 0. 0. 0. 0. 0. 0. 0. 0. 0. 0. 0.
      1.28205130e-02 0. 0. 0. 1.28205130e-02 0. 0. 1.28205130e-02 0. 0.
      0. 0. 1.28205130e-02 0. 0. 0. 0. 0. 0. 0. 0. 0. 0. 1.28205130e-02
      0. 0. 0. 0. 0. 0. 1.28205130e-02 1.28205130e-02 0. 1.28205130e-02
      0. 0. 0. 0. 0. 0. 0. 1.28205130e-02 0. 0. 0. 0. 2.56410260e-02 0.
      0. 0. 0. 0. 0. 0. 0. 0. 1.28205130e-02 0. 0. 0. 0. 0. 0. 0. 0. 0.
      0. 0. 0. 0. 0. 0. 0. 0. 0. 0. 0. 0. 0. 0. 1.28205130e-02 0. 0. 0.
      0. 1.28205130e-02 0. 0. 1.28205130e-02 0. 1.28205130e-02 0. 0. 0.
      0. 0. 0. 0. 0. 0. 0. 0. 0. 0. 0. 1.28205130e-02 0. 0. 0. 0. 0.
      1.28205130e-02 0. 0. 0. 0. 0. 0. 0. 0. 0. 0. 0. 0. 0. 0. 0. 0. 0.
      0. 0. 0. 0. 0. 0. 0. 0. 0. 1.28205130e-02 0. 0. 0. 0. 0. 0. 0. 0.
      0. 0. 0. 0. 0. 0. 0. 0. 0. 0. 1.28205130e-02 0. 0. 0. 0. 0. 0.
      1.28205130e-02 0. 0. 0. 0. 0. 1.28205130e-02 0. 0. 0. 0. 0. 0. 0.
      0. 0. 0. 0. 0. 0. 0. 0. 0. 0. 0. 0. 0. 0. 0. 0. 1.28205130e-02 0.
      0. 0. 0. 0. 0. 0. 1.28205130e-02 1.28205130e-02 0. 0. 0. 0. 0. 0.
      0. 0. 1.28205130e-02 0. 0. 0. 0. 0. 0. 0. 0. 0. 0. 0. 0. 0. 0. 0.
      0. 0. 0. 0. 0. 0. 0. 0. 0. 0. 1.28205130e-02 0. 0. 0. 0. 0. 0. 0.
      0. 0. 0. 0. 0. 0. 0. 0. 0. 0. 0. 0. 0. 0. 0. 0. 0. 0. 0. 0. 0. 0.
      0. 0. 0. 0. 0. 0. 0. 0. 0. 0. 1.28205130e-02 0. 0. 1.28205130e-02
      0. 1.28205130e-02 0. 0. 0. 0. 0. 0. 0. 0. 0. 0. 0. 0. 0. 0. 0. 0.
      0. 0. 1.28205130e-02 0. 0. 0. 0. 0. 1.28205130e-02 0. 0. 0. 0. 0.
      0. 0. 0. 0. 0. 0. 0. 0. 0. 0. 0. 0. 0. 0. 0. 0. 0. 0.
      1.28205130e-02 0. 0. 2.56410260e-02 0. 0. 0. 0. 0. 0. 0. 0. 0. 0.
      0. 0. 0. 0. 0. 0. 1.28205130e-02 0. 0. 0. 0. 0. 0. 0. 0. 0. 0. 0.
      0. 2.56410260e-02 0. 0. 0. 1.28205130e-02 0. 0. 0. 0. 0. 0. 0. 0.
